solver_type L2R_L2LOSS_SVC_DUAL
nr_class 2
label 1 2
nr_feature 90001
bias -1
w
0.003827974720342832 
-0.01225179499478274 
0.02502419536857177 
0.004000717465839952 
0.02556211045422798 
0.01081583731243462 
0.01379107275521743 
-0.00658037499680479 
0.006495325187359361 
0.01193419021942394 
0.01217515240107151 
0.005168999244462242 
0.01254839055887617 
5.679200933803969e-05 
0.001928811316983579 
-0.002432206996253792 
0.008078734622048006 
0.01460583000175818 
0.01081418925575923 
0.02965342323379693 
0.0107377559721413 
0.004458092294144229 
0.009880295302731735 
-0.002007990117686046 
0.01267043115662965 
0.003493916545300689 
0.005014931008567605 
-0.001699553532075221 
0.01939494789289736 
0.01383012979992626 
0.01555523121308074 
-0.004766185926826313 
0.01491300102395227 
0.009458760335429493 
0.001597268856244807 
0.009264975687074118 
0.01182225107764493 
0.01310644522459899 
0.01405930045549648 
0.00472640802937321 
0.02041906821580863 
0.004843083303981558 
0.0142526076469489 
0.003658392781092185 
0.0007715885906712727 
0.001320283875884425 
0.01196755003549626 
0.00196828386369243 
0.007815177813935495 
0.00565292417395267 
0.007436186734778764 
0.009041925912610204 
0.02010582528632472 
0.0005821858880978373 
0.005282989644672349 
0.007738121914768566 
0.01395846894360307 
0.003832814296775118 
0.01130073437457203 
0.008611928121923627 
0.004736005269669899 
0.005727415404451499 
-0.005203955796760827 
-0.00231963098870324 
0.01522734568088553 
0.007533129919815871 
0.005138025805181385 
-0.01191006064998609 
0.007354125024282918 
0.01311793822218543 
0.02471009401777994 
-0.005397562090145134 
0.01126966207640076 
-0.009093111997472151 
0.01914703277215115 
0.004072727026003323 
0.02595982380334012 
0.008657294393023663 
0.001604503875805456 
0.004887346332131166 
-0.000741554509286597 
0.004440749225705197 
0.01208438614148966 
0.004825267150338509 
0.00563761592927676 
0.009495240864735445 
0.01064911760793847 
0.01282333561390385 
0.02071895455335454 
0.02290367586355118 
0.001885083166839936 
0.01711394207336068 
0.02537023574255454 
0.002351355793254566 
0.007625779886945207 
-0.003313981225010416 
0.009649137195829521 
0.009204525401542235 
0.001791568891045089 
0.003557278841339728 
0.00994628409219691 
0.00685117473016846 
0.0159629225097792 
0.006394248065319537 
0.000243027654971749 
0.009669367707763455 
0.008371183956078096 
0.0005582221516632469 
0.003631710748961053 
0.01072417244231637 
0.01735230122971334 
0.002339258837543682 
-0.008177799254648161 
-0.00953515016867448 
0.01505885019624155 
0.000860106572085755 
0.00828683339938184 
0.0006150302579163647 
0.008156693697105016 
0.003283991923854293 
0.007741468901381933 
0.009016354016720522 
-0.0002325756721642718 
0.009635727327413159 
-0.0002595951666587858 
0.01115767497564098 
0.01713368735141589 
0.01899333610336884 
0.01247918212267736 
0.002392585759546046 
0.01266230207923352 
0.03187398815521663 
-0.001395868603876283 
0.001523458293481148 
0.009417487065180289 
0.003912968781951271 
0.01043830039371224 
0.008142136022093375 
0.0110901795528202 
0.02164834487145223 
0.02870548972307616 
0.002188152734841061 
0.01140553572725641 
0.01361802934107748 
0.02248775075339984 
-0.006477808493544341 
0.01717514606066146 
0.004788308629270504 
0.009882544044646184 
0.01826559503078645 
0.005536784815379911 
0.01890419501938444 
0.01077034284952733 
0.0006714954742570948 
0.007240246833374278 
0.01062927376514572 
0.002295075905623548 
0.005834220473442496 
0.002078602179666053 
0.01280967773335633 
0.009334963429744851 
0.001104867831722848 
0.00125278521649458 
0.005413947119879293 
0.002790720410712129 
0.00452085562097175 
0.01618678402891367 
0.01826480517137287 
0.003813914622692717 
0.01064631576034562 
0.008542538340726746 
0.01622466672523361 
0.003399029576676971 
0.01082604603809845 
0.003083521660746913 
0.00828290851513319 
0.009768583294553062 
-0.001038343110894422 
-0.00262665099610286 
0.01173787432635259 
0.0070078064590208 
0.007846127978956828 
0.01378965607167221 
0.0006761293082199049 
0.005583646640107861 
0.009777859797567076 
0.01084806467532237 
0.0004783981179142127 
0.01352460512147247 
0.01704608864932516 
0.009099155990253982 
0.01206617794478332 
0.003671115060254892 
0.001784822262441806 
0.006064041575327422 
-0.0004464168023919541 
0.003513200395548552 
0.01905275189172061 
0.007845990394757746 
0.007668317265728364 
0.01623898740014373 
-0.006099938283038975 
-0.01199438614848364 
0.001071369262657554 
-0.006681579134822084 
0.000863579305661448 
0.004010464489181948 
-0.005507330038209425 
0.01095307361396062 
-0.00937413604774749 
0.005729080702478319 
0.0004558600550173761 
0.009519000242748042 
-0.0009375426598962144 
0.0004066133648207232 
-0.01065902780855834 
-0.01980218372582668 
0.0005229890194172126 
-0.0002822618895118037 
0.006504909963143418 
0.001752534504549955 
-0.00838842611403318 
-0.00317543744292216 
0.01570215825410252 
-0.01076565536591265 
0.01745424961557151 
-0.007334411076506606 
-0.01031889526973763 
8.296609444885591e-05 
0.01097613424803506 
0.00080688146754786 
0.03495435369249141 
-0.00833303791263823 
-0.005830774531477481 
-0.0003471957179115438 
0.0007057553230880957 
0.01850244473582072 
0.01137821899346184 
-0.004757323380969227 
0.01139090018303805 
-0.004364001040231591 
-0.009404986125947177 
0.01407504594595385 
-0.001452171428669902 
-0.007168258092523111 
0.01231789543871569 
-0.004244675923938949 
-0.006455287578273583 
-0.009474030876132303 
-0.003840443156387939 
0.005739052381032933 
0.002600110512328369 
-0.00731142302190397 
-0.003054452081824844 
-0.006496517733616303 
-0.001296938158053117 
-0.01140889872467298 
-0.009354190353204894 
-0.003620760870446924 
-0.008085706663510495 
-0.01077782417906774 
-0.007562316082187772 
-0.0009063255496462194 
0.00261811027756206 
-0.006822690863209344 
-0.001231714923590957 
0.02086015927633157 
0.002624918240355737 
-0.0004166261265828765 
-0.008066346310394247 
0.002028986634315296 
-0.016656623345506 
-0.005607426365794334 
-0.00099479144923729 
-0.003611528806371373 
-0.01035002831586723 
0.03038659486054787 
0.005782104548866067 
-0.002582266157663658 
-0.008668072049049571 
0.006571347108029168 
0.0539128442684491 
0.003565585120647629 
0.002691812713924664 
0.006395623324429316 
-0.001724788648148974 
-0.007333761121118837 
0.00747474750292446 
-0.008921764478518494 
0.001668557378500117 
-0.001359514338454537 
-0.00629775812067652 
-0.009252232544770237 
-0.003278437318981609 
0.00369642005732228 
0.001004940692051301 
-0.01345728069951915 
0.01244845133909842 
0.01111577765202057 
0.00923248939037863 
0.01101356911654566 
-0.009461319450991547 
-0.005694989076492517 
0.009260419573341663 
-0.001447920659661896 
-0.0002275086150100915 
0.00302368600358096 
-0.01130801878461572 
0.01226412979411421 
-0.01296624516142383 
-0.0004426852141995299 
-0.00643135672312882 
-0.00274724419090905 
0.01195925375431669 
0.000416601878471304 
-0.00872064057624608 
-0.003752711127706376 
-0.0149312723368358 
-0.0003703757819294647 
-0.007110678686979854 
-0.004989396203499127 
0.005742185573405331 
-0.01068775215855639 
0.00218595141786752 
0.05157820924226661 
-0.02560886540281889 
-0.002438223479038129 
-0.007400121377332279 
-0.006639428478447774 
0.002609265481567597 
0.005105682703621348 
0.004048822829096507 
-0.0104320080768689 
-0.0003744542151862919 
0.0002295575404898409 
0.00111812946701125 
0.03542347418155017 
-0.007640357480656073 
-0.005108155513541511 
0.001420101565211798 
0.01491471849893711 
-0.0005801764741845903 
-0.002741352428270867 
-0.009188195706437282 
-0.008231089325425631 
0.002178669701199097 
-0.002262666505044718 
-0.01991262083708969 
-0.007136908848701891 
-0.002780306852806155 
0.00186017570393785 
0.009539231768274103 
-0.005475854711794562 
-0.005409007629923453 
-0.01429919967364659 
0.001268860222865015 
-0.00354696770887057 
-0.007063739512532585 
0.002089677464157428 
-0.01829702474781426 
-0.01158493352113391 
-0.007458143510688672 
0.01688787771332517 
-0.01069205522025049 
-0.009849274089619412 
0.005701821219142107 
0.009584452497472799 
0.007339791717840089 
0.001395303149860636 
-0.007214443969295083 
0.01223062665372716 
-0.005784467327670213 
-0.00890231672156039 
0.008767198312689184 
0.008150650423599552 
0.003789500798175161 
0.0160030756787534 
-0.002408699167425823 
-0.006883597702764559 
0.01212275965589826 
0.0009264928519475338 
-0.004460324733136651 
-0.0008557607952146599 
0.004576641438205023 
-0.008825941858958347 
-0.006573434670678775 
-0.004983839532983988 
0.01917853200489023 
-0.002637588058563705 
0.007558749331192274 
0.01721365629116331 
-0.009029851091649124 
0.005899065618365336 
0.003511453988629419 
0.008629313850062425 
-0.005308972578444542 
0.01419892660723219 
0.0008471123976453598 
-0.01110321214479107 
0.01147166952093679 
0.002669164648367798 
-0.02520805082572381 
-0.001300896754699921 
0.001186599031129809 
0.01710178739044873 
-9.812715470975135e-05 
0.0009314961466042732 
-0.01218227144462705 
-0.001573642724181419 
0.00953873655816832 
0.003010877777340804 
-0.0002484826912284004 
-0.001515517636620661 
-0.0002717840379755576 
0.0004458948734871701 
-0.004316194205089535 
0.002541132128427896 
0.001813529050641784 
0.004001967963323789 
-5.565446779659817e-05 
0.003767275436203128 
0.0004747155799073532 
0.001259614097631936 
-0.01876534667517024 
-0.01480286962932501 
0.00275744894375217 
-0.0008573997582229023 
0.006060991064072708 
0.009368948362801074 
0.004941887197197309 
0.0004771802306617639 
-0.008907425561906766 
0.000688982355586711 
0.00460295773611252 
-0.03069365869781623 
-0.003165985093340161 
0.002410389954981499 
-0.004327096395225717 
-0.0007415555865294856 
-0.004384544651041261 
0.003844925668677869 
-0.0002889323328661279 
-0.003468168235559225 
0.001476947532327749 
-0.000157876488159814 
0.001405993987576477 
0.003808247134626472 
0.0001711190416359835 
-0.001681506989599356 
0.001166454165171715 
0.005332775073430486 
0.004151196845077313 
-0.0002641856865035385 
-7.605330546067529e-05 
0.001212597809295343 
-0.0005459546757350037 
0.005680723428583861 
-0.003003440416601355 
0.00330671755723449 
0.006759772631717949 
0.001070350896532008 
-0.003062958347053403 
-0.02173099445161325 
0.004678200383749645 
0.005202247342612172 
0.004461987754167532 
0.0009225327175391879 
-0.01921679943452747 
0.002814008026502075 
-0.0003209580977675651 
-0.0008519948214347406 
-0.02530913285895979 
-0.002929937619053319 
-0.02204277168966606 
-0.0007099629413469343 
-0.0002343843276184371 
0.00296810896572281 
0.003758911047151332 
0.001032566495859246 
-0.002478421391422795 
-0.02069662072798336 
0.001129731292117421 
0.001552226700305129 
-0.001559417138063153 
-0.0009409178290306871 
0.004023342807190639 
0.00227659580532538 
-0.002976804125768493 
0.004227644471105145 
0.0007793047926045919 
-0.001834760702042959 
0.00656367592772825 
0.007698842705633454 
-0.006586660951371386 
-0.00271127471018747 
-0.005326682398459687 
0.005556140969989728 
0.00315777485452051 
0.0006231446360102464 
-0.00213961491990995 
0.00842782525641712 
0.001171529713332707 
0.001713861503337574 
0.002275029579917483 
0.001900921806113085 
0.003558780704651157 
0.001286901100355442 
0.0003321404411432881 
0.001828879732743865 
-0.001189872052919948 
0.001490203011173017 
0.0008172202955119019 
0.00490723260230848 
-0.02935131335403283 
0.002082264613894126 
-0.0009962687756083766 
0.004010849292284413 
0.0002527694360907798 
0.002990358095780169 
-0.01673159008912091 
0.001242283255323713 
-0.001331294041155877 
-0.02446889250502558 
0.003136227120203684 
-0.006225750440454067 
-0.002655781043991655 
0.001447481761794587 
0.001980285223129468 
-0.002366258151327471 
-0.02600008610368478 
0.008899007183218762 
0.01327806885735537 
-0.02035699878793369 
0.0007084310691136193 
-0.009536473686771388 
0.003167192632362129 
0.003072171074543606 
-0.006953970573559323 
0.001919395774450505 
-0.007631839190788249 
0.002948812819920654 
0.00225753903483888 
-0.0006010860231244464 
0.003609703248126315 
-0.0007137071423871065 
-0.026660417001239 
1.780288614847047e-05 
-0.0001408263046610691 
-0.003387514364959829 
0.01060554240108583 
-0.002764483150976686 
0.00109665702292075 
0.003085746067571125 
0.0002724185644983757 
0.005147520473903502 
0.003364253467347665 
-0.01052279531876105 
0.001700422931468002 
0.0002301886011055751 
0.001192511948645362 
0.002104966553981811 
-0.001586254389109859 
-0.007517149107193452 
0.003371121160749315 
0.0002964837502358779 
0.0004278668791775016 
0.001914356894257283 
6.696603350241918e-05 
0.001253284709906363 
0.004744175496007203 
0.001317018446966363 
-0.004901042311807882 
-0.003432336245715124 
0.001739515089558565 
0.01091197618491758 
-0.002491239605953035 
0.0025538371147671 
-0.01295683429780529 
-0.01412358981543968 
0.001057073791997093 
0.003200252779038915 
0.0003812463027661988 
0.008005602232291006 
0.000979808965438568 
0.00115919405349887 
-0.001234039789585467 
0.002792190424415291 
-0.0002760867814333004 
0.000921708316754496 
0.000378078329727015 
0.0002264160114384559 
-0.006108142384840374 
0.002566398687491376 
0.001617133268961542 
0.003464587547416889 
-0.02395578742023224 
-0.003367941840334841 
-0.0001888174915548986 
0.006068504954699076 
0.005932357070385791 
0.006660263691431536 
-0.0260875758769616 
0.02447642849741459 
0.00397748787500521 
0.02720755081733499 
0.01507997938820931 
0.01456708218991176 
-0.007189865960610669 
0.01166268955994509 
0.02116680346299663 
0.01186247279568112 
0.009370405164845256 
0.01345975461228372 
0.0004043209773012347 
0.0042580816170202 
-0.006803748760453815 
0.009386754994757097 
0.01335667012092628 
0.0115323850143998 
0.02863104645300998 
0.01598224908151043 
0.003476378710946238 
0.0123816635687317 
-0.003898410494411188 
0.00509840204123296 
0.006488701578353841 
0.006133623908637394 
0.01065805759577984 
0.02268588177930919 
0.01501479318396921 
0.0239776427018862 
-0.008735327468907298 
0.01378098337631682 
0.0118749241257468 
-0.01291237282814463 
0.02203946973633985 
0.01127087312069155 
0.025694791891421 
0.01383896419241401 
0.005195194907337231 
0.01904024224964709 
0.007006881375716431 
0.01490050524857193 
0.003919050416320965 
0.001509083231481756 
0.0028871264112013 
0.01413436402501509 
0.002589742999968467 
0.007918613791137489 
0.007946080274192845 
0.01171515881300767 
0.01284714073026606 
0.01879879417575864 
0.0007107880523415109 
0.006101564312943683 
0.01136764091838479 
0.01423117875026509 
0.01399963369578651 
0.01657205543655776 
0.01310786734048641 
0.005449455924825742 
0.00562904973338832 
-0.01793457283163168 
0.01083500073632907 
0.01910189148338341 
0.01091039409247966 
0.007953062444918122 
-0.01242145721876764 
0.00743254945859287 
0.01299812272632163 
0.02374686509350824 
-0.008159020438646528 
0.0129527332675487 
-0.01539736792313641 
0.01833197413322047 
0.00454332880832257 
0.02522839241000525 
0.01239920588103157 
0.002500596637926172 
0.004399246928449877 
-0.01502896443248308 
0.004494330946336137 
0.01205054858939578 
0.005257582608383275 
0.007580900495166165 
0.01290035842020841 
0.01246299204969742 
0.01929729586714112 
0.01882940475086268 
0.02124489819685488 
0.004603471624323193 
0.01822067786451527 
0.03142079929017954 
-0.001458020855880262 
0.007719794317490974 
-0.002391521244735543 
0.01452371300009774 
0.01257230591180065 
0.004480656489938709 
-0.004176774325996965 
0.01516063523573325 
0.005192379293152511 
0.01510779535071043 
0.009964286710768093 
0.001867223037881025 
0.01243013463107755 
0.01171542503706532 
0.0007330253814141453 
0.005708789137475667 
0.01130713082312496 
0.01584496834834915 
0.001029464444713918 
0.005514073533571864 
-0.02072039277406477 
0.01354119866049186 
0.002053841785865894 
0.008659271728714796 
0.001791844545139043 
0.0129007404326307 
-0.006386991811983798 
0.00688523414775182 
0.008749386307931569 
-0.01653322000186676 
0.008462326598996053 
0.007205582085476358 
0.01453895859224584 
0.01549176867080346 
0.01666886957773185 
0.0125616511181537 
-0.007319894390597724 
0.02422644599576238 
0.03444191948407847 
0.002806485843834121 
0.002463699810767456 
0.03156222741681718 
0.005737381125319118 
0.01445671468633641 
0.02012390320812309 
0.01227999484512542 
0.02165179084462971 
0.02664343963378368 
0.01434501501800547 
0.02319404597485648 
0.01241607095434355 
0.0219251914583078 
-0.01025472258837749 
0.01594017995829043 
0.004655957469903732 
0.01249309180005995 
0.03270252608766973 
0.008455051176093327 
0.01783749709077736 
0.01313105397488847 
0.0008750513451901663 
0.01059873729045302 
0.01643829486615588 
-0.007898423931339049 
0.004547764420577946 
0.001947543457203347 
0.01449828886795181 
0.009093334662897733 
-0.0009571209450836817 
0.002486344878450483 
0.008556433325601225 
0.003051248651435543 
0.005130162283578292 
0.01539079423058584 
0.01869327496925964 
0.004624895651675291 
0.01955049385500725 
0.01030621821317726 
0.01833530521705849 
0.006185177743851407 
0.0132234967440907 
0.01646992811209337 
0.007898548958654633 
0.01318472499746651 
-0.002733957994967009 
-0.01583004176336929 
0.01110550786223509 
0.01036487168947743 
0.008834203027920158 
0.01709958754625311 
0.000748195706658411 
0.00592238243714792 
0.01332140943907546 
0.01450169638959557 
0.000379966165687463 
0.01332275099363759 
0.01610929207210828 
0.01213825021015782 
0.01304039034374425 
0.006883440891455879 
0.002759732998896985 
0.009797814464490609 
-0.01692985518511755 
0.003282537441069677 
0.0208471843290248 
0.01235542289553757 
0.00839434829212444 
0.00150082128210431 
-0.02724647815031865 
0.00694225335581494 
0.003519815409673803 
0.0137368670352676 
-0.0007681404063933402 
0.002793456067941265 
-0.01125420013404751 
0.001335263576315066 
0.01329292945302465 
0.003150436138783782 
-0.001400602333175346 
0.003708363182271336 
-0.0007528504353423122 
0.001654833888108109 
-0.005179393937852199 
0.001566362542584021 
0.005106459755548715 
0.004648738903869107 
0.0106976324429136 
0.002457098858229449 
0.0006854083453003793 
0.003954653595881574 
-0.01579849705678027 
-0.01200792189699175 
-0.0009550908383062948 
0.001492640039781118 
-0.006432195430111764 
0.0083652929885728 
0.004434795809753407 
-0.001766908423783547 
-0.005433199500249791 
0.007538324985451424 
0.00680265959644068 
-0.02393170693188898 
-0.00400677187897094 
0.002645089019720097 
0.006712701847558575 
0.002819535823920974 
-0.005556519657409014 
0.007455642800562143 
-0.003480511728423919 
0.001767224720303816 
0.001716728481404078 
-0.0002539206289320475 
0.001508291627347591 
0.007186487875388524 
4.384127215001252e-05 
-0.001402290463033885 
-0.0006855769358395946 
0.007437392588122713 
0.003760632244032658 
0.007660763603009053 
-0.0002621899534224011 
0.005594197975245845 
0.002938058585063661 
0.008992792675049203 
-0.006761820141244475 
0.006062779132299487 
0.004662213785342744 
0.001662712097255227 
-0.0003621009158401735 
-0.0190863037430823 
-0.01116140589182203 
0.01021337659747253 
0.004299944816897209 
0.001980648933060796 
-0.02045506371127276 
0.002031839569405464 
0.004156433014802565 
0.008785435710238329 
-0.01801746496792152 
-0.00049713092984088 
-0.01824559263851256 
0.007640136389160138 
-0.0005129366888655506 
0.01124393285988439 
0.006946254943325417 
0.0008555206160805633 
-0.001578975348261962 
-0.01192975056159661 
0.002250762777108082 
0.002504419493748378 
0.002521442835874977 
1.255987988873818e-05 
0.006856520536895962 
0.004569416677532831 
-0.000133648873773069 
0.008372512300720648 
0.009788268616689738 
-0.001617836858563275 
0.008375123378570638 
0.01759151747321236 
-0.004744913726145062 
-0.001906551736174648 
-0.005398075997502349 
0.005421157671355819 
-0.0004722069862831651 
-0.00133691102222521 
-0.006452385193392128 
0.01225298746505303 
0.0002720367022430575 
0.006232300419800472 
0.004104045127793709 
-0.001456061829235197 
0.002705967030885622 
-0.0006259107179116554 
0.000823553119509322 
0.002920318591168627 
0.0007994170881487401 
0.009969673549857389 
0.000679023967642158 
-0.01249699506449616 
-0.02662004668822196 
0.009429204791349188 
0.0007653741536956267 
0.004007242356632332 
-0.0004030006921371183 
0.0008190952278329397 
-0.01652591888355923 
0.002778577838223313 
0.001278122885471088 
-0.01764520536880827 
0.004150375468753137 
-0.007226793867371802 
0.0004803191669081398 
0.009376400109819459 
0.006489330158387383 
0.001384358603606775 
-0.02321268718685286 
0.01169254195286297 
0.01992333667604847 
-0.01900517876412026 
0.000827723729586946 
-0.008432600884912518 
0.003215248330185089 
0.001898455190048509 
-0.007117809850771008 
0.00352207540418174 
0.002526527135456758 
0.01061615992280699 
-0.00796931873203943 
0.01132926624562026 
0.003189885012444312 
0.007950581070602434 
-0.02781817210215939 
0.006106707037240984 
-0.0003897503129419117 
-0.0006083214683981438 
0.01028561191858877 
-0.0030425782284733 
0.007791503926077016 
0.006660546228399067 
0.0001630601276373276 
0.002739436972051347 
0.0118336335054916 
-0.005162789043587857 
0.002124887592448981 
0.002294927279174813 
0.002759894279650815 
0.003925900635705265 
-0.002831982736895273 
-0.01172229763616032 
0.001946703890384897 
0.003348716743581498 
-2.271896823248121e-05 
0.007465996407970433 
0.002835896168591938 
0.002952655760824685 
0.007045525390631612 
0.002637592267872198 
0.0009016461227466294 
-0.004047433589426861 
0.002812144672503819 
-0.006462464234161941 
-0.0004821959777750056 
0.001554215378403681 
-0.01552070877361726 
-0.01217581458461256 
0.003647377890330727 
0.006519281268984937 
0.004489622156411108 
0.004712592685314663 
0.0002886716974336182 
-5.437388482606949e-05 
0.002749600305224477 
0.004008750495643862 
-0.0002130179067099148 
0.004755881840934432 
0.006415740586778982 
0.000708109592451402 
-0.0002625640169918686 
0.001504336054230776 
0.001389731136000671 
0.004557965821152697 
-0.01185910169297519 
-0.00303309508749466 
0.00152992515388747 
0.00166501030369067 
-0.0003175123786735327 
0.003154971699394174 
-0.02046943945253485 
0.0102472495246486 
0.003685514205040286 
0.01275393096424714 
0.002701109220676528 
0.004999859173402153 
-0.01204715676221029 
0.004075298314480266 
0.0009598828248000629 
0.004896945813923087 
0.001962844589871779 
0.007361911479903674 
6.759826356108966e-05 
-0.0001820302762468474 
-0.006506375291822697 
0.001800312896787954 
0.006123728587331219 
0.003265027993857246 
0.01235628418175242 
0.00403655378676006 
-0.00108096740477754 
0.004446789708766771 
-0.02000498314020098 
0.0024137429339495 
0.0007207839916872833 
-0.001343154236120454 
-0.008746389299755294 
0.00470160905597412 
0.005843577021575367 
0.001494894550529499 
-0.01337840979811237 
0.00597190781870633 
0.001794855021704422 
-0.006375955065296503 
-0.0008223498116100725 
0.005854527775425191 
0.01157235325288697 
0.0003003504708340918 
-0.00528386859723882 
0.008927391776787282 
-0.004089085485761959 
0.004612886180739712 
0.001707123880079865 
0.0005282287370097598 
-0.000115230556062249 
0.005649304972102696 
-0.000204329991270684 
0.002434669931666087 
0.000521516422603395 
0.00155384296773757 
0.0006989310638097926 
0.009092421082511272 
-0.004186224085516749 
-0.001249209797506072 
0.003403286402277225 
0.004111818017761174 
-0.001337205947726295 
0.00946187528530815 
0.004498237826930745 
0.001115122682319435 
0.0006695347017841731 
-0.0003721735705083106 
-0.01078299372020371 
0.009634260050761251 
0.005482720501501196 
0.003464438141225395 
-0.01792304229547766 
0.002531775249048111 
0.005881575618369862 
0.009775971519427107 
-0.01177824333954727 
0.006246490041722225 
-0.009497678136019146 
0.006303060131762338 
-0.0005098791688624788 
0.01103144570778314 
-0.001708038918130452 
0.001811921603038973 
0.001174396242983288 
-0.001728246572786653 
0.001680122165058626 
0.006595933182100508 
-0.002456746469051211 
0.002382609016757207 
0.007878785966329393 
0.004508724397328556 
0.001185941642152239 
0.009636484608434189 
0.009580989365385224 
-0.004664471441850804 
0.006139605716635867 
0.01178819375609241 
-0.01371109740679802 
0.001367545052985756 
-0.007348629868643937 
0.007128730495910557 
0.001290474394092923 
-0.001684260427746265 
-0.01298929494225781 
0.004132286458043974 
0.001936080416631039 
0.007914753635767744 
0.00101924392715176 
-0.003662239076165948 
0.002398648204922027 
0.002986990330359034 
0.0007613776836731629 
0.002869453051349707 
0.004044160355813841 
0.006730774131326497 
-4.334525590882096e-05 
-0.01313289037709065 
-0.01220497291495273 
0.006220026304271236 
0.001416684145311021 
0.001531967786548237 
-0.001909955302937124 
-0.001911570218293701 
-0.008697179350368798 
0.002404579466049851 
0.00269560431158154 
-0.005048611851317009 
0.004043509708585562 
-0.006359834494078578 
0.003031401210533051 
0.007684401038655271 
0.007113765494686044 
0.005825395237360795 
-0.001727422825268635 
0.002108335319416793 
0.02336314607268551 
-0.01085255642052282 
0.0006307018573039177 
0.000269329263690475 
0.001539745220906912 
0.004775686316385937 
-0.006250891731999025 
0.003988328678221663 
0.006074847315383019 
0.01200393775628559 
-0.008410053071404229 
0.01464025961259049 
0.006972562179201636 
0.009373001741078127 
-0.01534315608647211 
0.005546123546263092 
0.00200314917814942 
0.003557683019186731 
0.01469221283012848 
0.000315089817404666 
0.006909233762501187 
0.005704838668295364 
-0.0001760780422216298 
0.00345188864527263 
0.01237331386158977 
0.00289464109380323 
0.002757630321021178 
0.0009215684525245252 
0.0057528409647214 
0.004985211086071534 
-0.005862109741200032 
-0.01560124779041124 
0.002964633085896779 
-0.0007062895457628494 
-0.000849624516425242 
0.006552226091712731 
0.007312068503582216 
-0.001464551818237203 
-0.0002653995236290026 
0.00194426342971037 
0.004508528571082395 
0.0009838974802596327 
0.003816381363171147 
-0.008960887021322439 
0.003000930224003415 
0.007066083456317226 
-0.0141104533622483 
-0.01651508050840939 
0.005605832456775466 
0.003831137062538485 
0.00212623265143476 
0.001058446372008656 
0.0001456116546542215 
0.0004657443901113609 
0.003469702538705497 
0.004456824794227672 
0.0002325325136335763 
0.0058001317084647 
0.006567351241485444 
0.004094092405760846 
0.005124107725770492 
-0.004822321698273249 
0.001099066409457483 
0.0001633947413078795 
0.001683811227986278 
-0.001727538565057891 
0.008555555366785705 
-0.002869793653474517 
0.003144946574937502 
-0.002717953471846086 
0.001788998939645294 
0.0009522293189035717 
-0.003990497683888988 
0.004596358722780514 
-0.001529956846041948 
0.003840239686384691 
-0.004636713223750106 
-0.001078415966292575 
0.006917380951325404 
0.002941453866331758 
-0.001783392029848069 
-0.0005443432612578206 
-0.0005329577614343782 
0.0008277936068041095 
-0.0002477365296856622 
0.001278801429087978 
0.0002881855754446198 
0.001834563095010246 
0.0006748431325694442 
-0.0003853154950361457 
-0.000260247035298657 
0.001609055475993622 
-0.003350059992787467 
-0.008512947721191547 
-0.003756001960167812 
0.002209424598183042 
-0.003296028315767539 
0.01139337628336247 
0.0009338219768515382 
0.01357198277879569 
-0.00305298781540318 
0.0004344942203111041 
-0.0001792730005051258 
-0.007234094617488439 
-0.009006316385055765 
0.004478925982639308 
0.006216653466468092 
-0.003269844492723428 
-0.00181092896047317 
-0.0001911940114308835 
0.007814428362454785 
-0.0006107620068504193 
0.0008400439528915305 
0.0006496211588953185 
0.0007857674444614541 
0.002507170300980592 
-9.643665336099243e-05 
-0.002312308954950466 
-0.00226254064569707 
-0.001786956877194692 
0.005698162095123245 
0.0004559163766955588 
0.0006629040431212106 
-0.002015165445679449 
-0.001086862078490324 
0.004736726341866605 
0.005514097514301593 
0.005950594144297735 
0.002147368571595745 
-0.0001056648715058528 
-0.002244706726705358 
-0.01068127077174367 
-0.001163485437175755 
0.004735072998783751 
-0.0009324612389935516 
-0.001950737167443418 
-0.008691777672319856 
0.003311911431063878 
0.001513611467472833 
-0.001295575342018777 
-0.003776067996255933 
-0.002628687123804671 
0.0006385556088082693 
0.0004108224125888306 
0.003612640283727137 
0.0004885611859656145 
0.004478383571529711 
-0.0004161789206315513 
-0.002572434744446274 
-0.008977249800167876 
0.001683886083322513 
-0.002608929447419862 
-0.003799919936735309 
-0.0005507929924921094 
0.006403174360059929 
-0.003432007186382486 
0.004110903463540469 
-0.001369781262277155 
0.001679685526795386 
-0.001852068922252709 
0.005694342636855323 
0.003329984983064299 
0.0001759513627007439 
-0.003156785437560146 
-0.001908048780961737 
-0.001704922743697675 
0.005446507818013909 
-0.003681072812080759 
0.0114678801825838 
0.006703244873803413 
0.003478597543466735 
0.0004844093607371646 
0.003391500126204855 
0.0005289774253557161 
0.004985210961041505 
-0.002050632416802446 
0.001039583215979655 
-0.002484391504370153 
-0.004267105273565257 
0.0008810464902932982 
-0.002738371085730005 
-0.004231244608734546 
-0.01011892054872215 
-0.0002655046947829717 
-0.002041799211420968 
0.003146395731025188 
0.0008656544046040114 
-0.001764793631819055 
-0.005523358697017297 
0.004282706978619017 
-0.001869147356919282 
-0.01047591262641954 
-0.0008377071515830194 
-0.005844360676240412 
0.001069655378894356 
0.0003660676432690873 
0.0007234556244093106 
-0.0002271657840227566 
-0.01183525450432752 
0.007955880718570821 
0.01014694042129178 
-0.008921741499646496 
7.301682174116332e-05 
-0.0007762471855657251 
9.479635203202398e-05 
-0.0002421220858710677 
-0.007734346828425069 
-0.00200385531716856 
-0.00123739156602205 
6.233539661474786e-05 
0.001540341120036805 
0.004409555590060609 
0.005167513592410166 
-0.0009111812306536113 
-0.009818174586613515 
-0.0001384028020743489 
0.002405409417719111 
-0.003757300332881444 
0.01195348428741731 
-0.001763547440205442 
0.0002947446563256954 
0.003825256502069266 
-0.0002959883916699142 
1.467475097397954e-05 
0.0060369250263945 
-0.007727796522286962 
0.001320138530393604 
-0.0003927692500350277 
-0.00270745066983064 
0.003094769468744239 
-0.000564114732489293 
-0.007303672970543016 
-0.001470151049610685 
-0.001530676849408154 
-0.001569385304057527 
0.0003349587868642282 
-0.001430208031098999 
-0.004123598615328111 
0.006829714184131546 
0.001922186856394478 
-0.002232230790243098 
-0.002092485877851631 
-0.001201562944063955 
0.001527306012490109 
-0.002775304567017993 
-0.003487756690816173 
0.002278353574997566 
-0.001801421687782774 
0.0005951031138354444 
-0.003120810153424018 
-0.002367457049272577 
0.01051806925350396 
0.0003349090998727776 
0.003060111231961991 
-0.001391442530529525 
0.002967251232996933 
6.897466776340545e-05 
-0.0001100078971929748 
0.0008808355136602676 
-0.0009216514150134662 
-0.001580064173024249 
0.0008208983641029615 
0.002306918759876091 
-0.0006194406689967964 
-0.008472166701212466 
-0.002243216692937194 
-0.002405918339843515 
0.007738598652051974 
0.005708794750639735 
0.005245437085595491 
-0.01050231588455387 
0.006579727921182948 
0.0007805589077265967 
0.01130775271337099 
0.004145712608076288 
0.001547012682446745 
-0.002231202304951665 
0.001704246423935308 
0.01680409867746867 
0.003983007253178327 
0.001876081760593743 
0.001091924337744358 
-0.0004713198177265601 
0.002652376717704213 
0.002025491196142949 
0.000701132161017727 
0.004028468840042001 
0.001872317355060456 
0.007467560724134546 
0.005728991194274049 
0.002031283630313747 
0.004947001247597222 
0.003670221404070283 
0.002741052813131398 
0.0005177868591493873 
0.004581914172887914 
-0.002205253090463815 
0.007456322896055263 
0.002972589621051895 
0.0155309717845421 
-0.001396437575062262 
0.003854859361689266 
0.009651683593236093 
0.005107718852076163 
0.0006440612855631092 
0.001619973705662476 
0.01248884005570957 
0.002345522541241177 
0.007782590279511351 
0.006098504391498502 
0.01189969396800302 
0.00177473985272617 
0.0002405685584668961 
-0.0008824641348590077 
0.001373161206596677 
0.001202203123443492 
0.0002057370724961831 
0.001665686995255402 
0.0100072494208217 
0.01434249415394061 
0.002448027528558645 
0.004354027433056076 
0.00130061414077119 
0.004521282057558774 
0.005793480499394221 
0.005178635055985295 
0.006544150217875429 
0.0090492566455693 
0.008009986239736335 
0.002313838064078777 
-0.001460819789483615 
-0.009937111218899064 
-0.005458675690077812 
0.006027441276835219 
0.008038943848901539 
0.006557450866997106 
-0.008082861554804529 
0.0006877649592504512 
0.00340159008513245 
0.005537269201448468 
0.003499825427133414 
0.001476612469412659 
0.0003498354084110395 
0.004425181905250979 
0.004444086747763132 
0.006295137862216815 
0.007549307709022112 
0.001874656123026602 
0.0001079601432525645 
-0.001148226980863038 
-4.554818514158431e-05 
0.003271261175036494 
-0.0003548005313064961 
0.004225724417186055 
0.004441935044121523 
0.006169026592512442 
0.01634489274475686 
0.006057330710104116 
0.005061901749810831 
0.004703193644612286 
0.004411172547578275 
0.02165944870853119 
0.00231043804553593 
0.001527779439732288 
-0.001423911179894642 
0.008564520040777584 
-0.0007451767420047996 
0.006247510619626071 
0.009077511622967016 
0.01314730371055207 
0.002169242233949539 
0.003821951650593074 
0.003470168270044419 
0.001125442941952422 
0.0006937996583979268 
0.005780131972606772 
0.001289492513888881 
0.008479536381250027 
0.001638821796958281 
0.004536893600913866 
-0.0007312636502155997 
-0.01391002069902997 
-0.01209299672371523 
0.003553555036622435 
-0.002000569693838342 
0.001807684361778115 
0.0008580455124870257 
0.005246435687052773 
0.007733728554014417 
0.0005071737389971084 
0.003466097894741241 
-0.004974328493273077 
0.003274691247730879 
-0.0005459362863933442 
0.0003455912270781954 
0.003908868965882123 
0.003736630486686405 
0.0004822344050100717 
-0.002534473974706806 
0.01102894936823968 
0.02484066471901197 
0.0004096474661697598 
0.0006122853927719268 
8.693732130790533e-05 
0.003545502243884588 
0.0003983060215966735 
0.000807844364011567 
0.005872375106890623 
0.005048497394063232 
0.005213140152166661 
-0.0008653784829255705 
0.01912346366443477 
0.002368068679258358 
0.004839332005648662 
-0.00554316464342238 
0.003690768300508738 
0.0006962669823457532 
0.0023697158349439 
0.02495593092200811 
0.005501225293472372 
0.004815209310917118 
0.002812514063078185 
0.0007964856917126823 
0.0046130620809979 
0.007995474972694665 
-0.0009329680551067661 
0.002072819379369551 
0.001602684653113577 
0.005563205132620356 
0.00149353054983908 
0.003193653006685201 
0.005263296665338845 
0.006088208714811226 
0.00128048096919135 
0.001711883565188693 
0.003713481420530113 
0.005893686143334012 
-6.658188084415752e-05 
0.01145068067158717 
0.005325945132823123 
0.006802600307762193 
0.002154060716425479 
0.001128689691358763 
0.0009583609143179974 
0.001414600587493284 
0.006119509825436357 
0.003017757897479838 
0.004214565069473012 
0.002194551618152041 
0.01083360381393664 
0.001924038938417901 
0.003197913705069344 
0.0002938165340611199 
0.003376262388274656 
0.005900689779553795 
-0.0005712051460102213 
0.00055885204758399 
0.002127339908967326 
0.004156956826307651 
0.001145095860734775 
0.003180109383680688 
0.006703197245973066 
0.002515510576945095 
0.01055007249228284 
0.002489340579135021 
-0.00312970484994024 
0.003572724035940479 
0.0103640758070754 
-0.0002057764642844545 
-0.003238862402478519 
-0.0005367995326448772 
0.001542330717799074 
-0.001648803162427464 
0.003852158552994929 
-0.004864114151068251 
0.0008203602236236449 
-0.003002862087998283 
-0.001221350900008983 
-0.001827593610284829 
0.001047165490846188 
-0.003706596159782263 
-6.537189932936344e-06 
-0.00117300215397246 
-0.0002502817850479292 
-0.0005763790826211146 
-0.001183766359513198 
0.000321133755851584 
-0.0007338253580037688 
0.004426004377701714 
-0.003049205363034231 
-0.0006979046030950537 
-0.001172759623253472 
-0.007012605414708532 
-0.0007818014840634317 
-0.00491598883136344 
-0.001827556311138633 
-0.003412762465574456 
0.003704246418711928 
0.0001332256732304331 
0.01061756597411494 
-0.006890056267178554 
0.002714412800959391 
0.002015814635123118 
-0.004303668773102304 
-0.008589556238406992 
0.001888692586455456 
0.001773196968280969 
-0.002669265697378792 
4.523240474920357e-05 
0.003731255734458112 
0.00291562142090776 
0.0003765968944401441 
0.0004133794318854251 
-0.0004803092272427919 
-5.005758620893406e-05 
0.0002756002792941637 
-0.0008230437242460349 
-0.003044794716168502 
-0.00260170275121462 
0.002784414830119591 
-0.001553936362722349 
0.002036069274007797 
-2.012203490024143e-05 
-0.003732658757689278 
-0.003432549673693509 
0.001967174504144492 
0.001947878320182999 
0.003471221406574599 
-0.001007739687420425 
0.0001776901232105622 
-0.001746941600691441 
-0.004454921331302777 
-0.006189220037859958 
0.001156217457907733 
5.379578978703594e-05 
-0.00155979613975799 
-0.00841122473010964 
0.000441192259523275 
-0.0004891769727866176 
0.003051980424368434 
-0.004677065707366726 
-0.002108162179476558 
-0.0007090680170035416 
0.00050993379441925 
0.001077171516077986 
0.003316473440854028 
-0.004029769462811492 
-0.0006455791848858294 
-0.001108718256554116 
-0.002921488404940077 
-0.0002173197999811471 
5.023965534207132e-05 
-0.005719687118757151 
-0.004004390594017674 
0.001578459142257124 
-0.003345527990851339 
0.001331821210942413 
0.001209173468460411 
0.002035761753395589 
-0.004190484856192438 
0.0007172985840001348 
-0.0001308605466678246 
-0.002257124018484399 
-0.004766681601336591 
-0.00151881050293213 
-0.003426520245026324 
0.0001339247437826883 
-0.003484805976146392 
0.005409050194500326 
0.002494947148431029 
-0.0009698331454811832 
0.0003174316675706793 
-0.003446425686712916 
-0.0005073501648821373 
0.002301166237134619 
-0.00265423210723255 
0.0004270851945259987 
-0.0004141792096311764 
-0.004251948755809224 
0.001637658253645589 
-0.0008989302689442146 
-0.0005625690283242486 
-0.006313451553936741 
0.001544722377838475 
-0.002111836411868682 
0.0001239603683514521 
0.0003043277106244832 
-0.003759590700370239 
-0.003311156164414365 
-2.761743818241335e-05 
-0.0009488605047779042 
-0.001590535535448202 
0.002115551304044334 
-0.009417321266535687 
-0.001489423675873096 
0.001443987183884147 
0.002484011633632466 
-0.0007708042214765624 
-0.006038097551513852 
-0.002987513937868477 
0.008237477801514237 
-0.00462396623049338 
0.0003079062863537651 
0.004647254747644412 
0.001347353745078129 
-0.003094285899178535 
-0.01011154569789849 
-0.003318143056286835 
0.001290724205175767 
0.001087869537148329 
-0.004386405918792171 
0.001438923644173705 
0.0008181895899459518 
0.003238534155870853 
-0.007613548938632848 
-0.0005172984920116859 
-0.0005312561025411367 
-0.006150690083497941 
0.004989481699103267 
-0.004298587518439777 
0.002246236008965453 
-0.001054142605413351 
-0.0009062691464139806 
-0.0008930809683731126 
0.006119158325129145 
-0.001833223814158901 
-0.0001066491442423377 
0.0005486528830229341 
-0.001577796148624092 
0.001373072992744701 
-0.000725037205656446 
-0.005114926935751651 
-0.00379312974832662 
-0.0012560536488116 
-0.001691066648048492 
0.0003720706864616374 
-0.0001067162885041799 
-0.004589203573159482 
-0.004472715318400414 
-0.0004192254375060014 
-0.00300895099299262 
-0.004774819591726738 
-0.004550635293656766 
-0.007417467493812903 
-0.002755051863816307 
-0.004081160073553221 
0.0004019554851881627 
-0.002043037893634583 
0.0004175633983344935 
0.001735156900746841 
-0.003886577896613292 
0.001495241017530862 
0.0001704575858730379 
0.0003550886615473447 
-0.003753156463207719 
-0.001571691173051155 
0.0003511382403295747 
0.002460702916586352 
0.001022088749222415 
-0.002861144954512772 
-7.381964229060687e-05 
-0.001345095213109404 
0.0002277075603435963 
-0.0001940565016301216 
-0.003620777152714507 
-0.001853409187291454 
-0.001575868414274055 
0.001008938951256278 
0.002605075137546442 
-0.004381099479227479 
-0.001405985527734821 
0.005037758315784844 
0.0003166675187890445 
0.004485258446154773 
0.001049206387266507 
0.0001034236929049971 
0.001462753796152711 
0.007088024164426987 
-0.001033335568430003 
0.00195422136305442 
-0.0002261468013308501 
0.001553394416526179 
0.0002511326055534614 
0.001418213226417935 
0.0006256519141027039 
0.00110140631215829 
0.002253250947076815 
0.0003298777621320513 
0.002346996223847553 
0.001123691362753155 
0.0002078940803818118 
0.003350312903908076 
0.007735639993983358 
0.009809692353377072 
-0.002100549969865062 
0.002185043588900368 
-0.0008766175009869271 
0.005512260694075394 
0.0006988664350063004 
0.00329792043762101 
-0.0003729991069427946 
0.001687724006179519 
0.009482373376071981 
0.01109581982781926 
-0.0004037088262284694 
0.001855742635608687 
0.006549272899158047 
-0.003375359303234979 
0.00243185057841346 
0.003303847655353639 
0.001150263569181457 
0.0006470755056445381 
0.0002838041760465346 
-0.0001473887722332645 
-0.0004790657979810263 
0.0005497237908096771 
0.0002738001657591819 
-0.00121963443476025 
0.004522861319272775 
0.005581663947363699 
0.002042274427173044 
0.003327770279827331 
-0.001659818906134115 
-0.004751278741182661 
-0.0009785867119176347 
0.002923685745939638 
-5.618079728918063e-05 
0.004281326680789938 
0.003576321299053092 
0.000267465944403726 
-0.0009302691525246922 
0.01048867077584714 
-0.01632986706989227 
0.0078915792300382 
0.00678282629971757 
-0.002111798894375889 
0.003181006171661404 
-0.0001296630542091596 
0.001550846534072689 
0.003355326817997419 
0.006902881308230139 
6.079709735916334e-05 
0.002782576378925946 
0.001446852239294099 
0.0015603754651187 
0.003530663304117474 
0.002275817811056415 
0.001572495759936862 
-0.0006724347570194157 
0.009913714154225589 
-0.0007298674004264891 
0.0003635522952956662 
-0.004732871366431387 
-0.0007316059034999626 
0.005471748138919056 
-0.001719710561437055 
0.009997468813030657 
0.004172726798456153 
0.003864386184964681 
0.001293250503661131 
0.003196422221215914 
0.009980114716643352 
-0.001501011417261062 
-0.001517829545371071 
-0.002309497280439021 
0.002926509746911676 
0.0005729683827640437 
-0.00223843104422449 
-0.004415689299352679 
0.001695692939572245 
0.001773575106520082 
0.001089767674439355 
0.001755451283925634 
-0.0005764113642984165 
0.002984062797933203 
0.001317357716089723 
4.150738961103137e-05 
-0.002787205179348012 
-0.003509821621634041 
0.001095867294724513 
0.0009181282881889079 
-0.01536612922412763 
0.008078035794504919 
0.002036302839208172 
-0.0002132009734216222 
4.501116242543789e-05 
-0.002171393943931488 
0.0007595219541039197 
0.005858589073609934 
0.0006299998848289389 
0.001294871741458439 
0.0122979325245655 
0.004907348004591902 
-0.0008594974343933117 
0.0009619220500714003 
0.002769644481206489 
0.003825504639490559 
0.001339277040896804 
0.009641269124881162 
-0.004655973309407187 
0.003362331643581266 
0.00672837528881056 
0.001662006236594037 
-0.005017129970302127 
0.005853872634878246 
0.0001418648348154858 
-0.001259088363389244 
-0.00231100738192103 
0.002612981375515866 
0.004692016343365389 
-0.01470954208772572 
0.003800968151963965 
0.001919844309851362 
0.00398286381216257 
0.007508566154452786 
0.001009576066723382 
0.0006219564914149733 
-0.0005016727502426767 
0.006382024397947442 
0.000771094738133633 
0.001059074493217297 
0.003188637406922209 
0.0006917947317002949 
0.002682061986846401 
0.006046402302592646 
0.006904963423924133 
0.00189565711003698 
0.002023583126061927 
0.001032347807346746 
0.0009623991600277161 
0.0006514045593552371 
-0.0009036640131895047 
-0.001984620130811488 
-0.0009378150149720619 
-0.0007445019134989675 
0.0006811773259409273 
-0.0005446609596865265 
-0.00474319794326015 
0.007672559503048291 
0.002345149085512315 
0.00359637514630958 
-0.0007904399877941451 
0.002706709772001519 
-0.01325849092030176 
-0.0009960577598428985 
-7.30497651937838e-05 
-0.003759404229355206 
0.002327901447996199 
0.002053373009926345 
0.007190819370448536 
-0.003154425013519931 
0.002931631538255039 
0.0001044380989540026 
0.003334124936758169 
0.0004785289532616227 
0.0011664563666788 
-8.732595840188313e-05 
0.002072284524435243 
0.001777836392629234 
-0.0001848533331967763 
0.0005898770413976196 
-0.001166848506949206 
-0.0005682251924279066 
0.00441115794369223 
0.01094924823935617 
-0.002623724455150437 
0.004338401118386235 
-0.002442180191415072 
0.003304046908030445 
0.0009101749656579366 
-0.01082386901920154 
-0.0184144394395187 
0.0004495566838616798 
0.004157400699180663 
-0.0145275248218566 
-0.001930493186085986 
-0.001724113087103456 
0.004653628118549536 
-0.0001059853949643015 
0.005793831975671689 
-0.0171041855409411 
-0.001112266075906174 
-0.003039774343563822 
-0.0002724732296662674 
0.0008192749882989756 
-0.02407193341299729 
-0.005711344454795928 
-0.002845673405573261 
0.003214270975312732 
-0.007084706350648728 
0.003277750913647868 
-0.01213731476445019 
0.007101837300247041 
0.0003604680390888474 
0.002578699593702256 
-0.007934763420370635 
-0.009527415364380747 
0.00127913688253013 
0.00554382456268622 
0.0007179067999201403 
0.003959182878857415 
-0.01029839831084497 
0.001010931374111019 
-0.007763881244313425 
1.197522397916175e-05 
-0.003264679321833675 
0.005756115070616332 
-0.01111546666898635 
0.0006343330412565467 
6.222630256029465e-05 
-0.006542560206283182 
0.006560432878509641 
-0.01092485723001566 
-0.007278190992909286 
0.005456545859854337 
-0.007699272162295509 
0.001992557405932145 
-0.002750233240819292 
-0.002768986188901683 
-0.0007569950628374901 
-0.003187015187955921 
-0.002461864559391744 
0.003397920144437298 
0.001250312749496155 
-0.004727318289789334 
-0.001590691798482683 
-0.01316326373423697 
-0.01699038427722157 
-0.01097764671308569 
-0.01103113115820661 
-0.0130825340844023 
-0.00529033645560312 
-0.002861123631230071 
0.002928512666498279 
-0.002824953419073273 
0.005387486641785602 
-0.009779775999808739 
-0.01158144552045742 
-0.0114254740787805 
-0.009953405794217133 
0.001085824970284127 
-0.0006598648780576184 
-0.001640193633324697 
-0.005406861820440338 
9.266460711853765e-05 
0.01039208448683471 
0.006891675118832935 
-0.004987370267233252 
-0.01079877642732574 
-0.01483931381880057 
0.004111651216792505 
0.001947949548744833 
-0.0004009658128508067 
0.0001206622364969476 
-0.005412718885983354 
-0.002442221090578714 
0.0006224505632810247 
0.001044880895231895 
-0.005823756383904247 
-0.007789028147892425 
-0.003884695837533729 
-0.0152579966472578 
-0.00280876797767589 
0.004301862213976437 
0.001121790143810787 
0.00225041168186142 
0.003431806031647974 
-0.001672885547649903 
0.00581527919793998 
0.005265281281032092 
0.0008803101448081473 
-0.008413515277783709 
0.005451703163232 
-0.001603629826914482 
0.0003971262058812369 
-0.0008563311227743633 
0.002836015828853813 
-0.008481874632098986 
-0.01920530645633873 
-0.003679698149224159 
0.0001633399916679564 
-0.003461594088055441 
0.004881118966255509 
0.001923701696258383 
-0.007866403167286141 
-0.00786719146003638 
-0.02015980123137981 
-0.01467531313426364 
-0.009017534343808154 
0.0008255477992203085 
0.0005548759992347738 
-0.004872245967658901 
-0.000139568764019687 
0.004818389282873559 
-0.02174959251197961 
-0.002570949309855535 
0.002616024286339996 
-0.00872389717555481 
-0.009707166703140922 
-0.005900616617128544 
-0.00130704822051315 
-0.000240321328194535 
-0.003633853981247956 
-0.002562695718466303 
-0.006379407536951366 
-0.003229541108566937 
-0.01446307412691955 
0.003424231452789269 
-0.005398332047670745 
0.001423618802001268 
-0.004004189707260778 
-0.01110170172138127 
-0.006616809125877851 
-0.01167957774424807 
-0.0008688361668035392 
-0.009905689275123968 
-0.01477623132665203 
6.296109956445367e-05 
-0.002582914351448278 
-0.0002147508154425345 
0.002043658420407398 
-0.002445848510154751 
-0.005170831428766048 
0.006521805652726763 
-0.00441584570816604 
-0.002283234234587589 
-0.007763552016294899 
-0.001127611479927962 
0.001641712193515412 
-0.000523475586213193 
-0.003291261979453529 
-0.007288833193498508 
-0.01926211009563259 
-0.005973754718544708 
0.004867672834171252 
0.002581473610536473 
0.004404364291586173 
0.0003697008442783704 
-5.418015917384296e-05 
-0.002498816359366567 
-0.006354933382306781 
0.001075747456216763 
-0.008459549371955623 
0.001790460932410443 
0.0001280871878708931 
0.009694843765349893 
-0.001915803125755432 
-0.003902251947056287 
-0.001249575789436177 
-0.006433561671983696 
-0.006805529622836841 
-0.003884652092599969 
-0.001236390413280582 
-0.002903019699754984 
-0.01683657133930609 
-0.009613751161111727 
0.003893358871475452 
-0.002101432068492973 
6.616736157237704e-05 
0.007902934354235197 
-0.006257687385237149 
-0.007792905334389622 
-0.00388388116813583 
0.00560823545831918 
-0.003004929336742464 
0.00782897337540178 
-0.0002386693667997497 
-0.0127251695351592 
0.003973360495154883 
0.01461225556874004 
-0.01131900751925123 
-0.004104870943404096 
-0.006298697148920437 
0.004894587796595271 
-0.01546849042385573 
-0.004457275447533178 
0.0008433728824970077 
0.005971502579898503 
0.005183167229851041 
0.0003134651630803695 
-0.00209448893965122 
-0.01490195212178748 
0.002550177388905993 
0.004503059704078402 
0.01262270639597067 
-0.01841849507186352 
7.682605890422632e-05 
-0.000400534829260065 
0.0004446770748423763 
-0.01250483728534309 
0.007615977929580847 
-0.00539869078287984 
-0.006566761719696159 
0.01227256014041927 
0.02127108708780741 
-0.005247326529926003 
-0.00179912388906989 
-0.007296068055676894 
0.01047725472468007 
-0.008463402486907568 
0.03248702554488818 
-0.007506616524691189 
0.003395629003798993 
-0.001392391358848386 
2.121300109003495e-05 
0.01454074784120232 
0.01356468424341543 
-0.007769619523874283 
0.005090929996445891 
0.007569349453850007 
-0.006266313179342388 
0.00137252271047755 
-0.01863924628151071 
-0.006568869947903 
0.004617745624449447 
-0.0171168654804115 
0.008853486174940516 
-0.005587887575444623 
0.003021908480156654 
0.003710568789003554 
-0.0004622171125217186 
0.006695655852265941 
0.002056430225722647 
0.006206453227024551 
-0.01111797385952688 
0.003605083673839529 
-0.01956138747580542 
-0.01099378369429388 
-0.02041530450180944 
-0.02337476925823263 
-0.01827200427975778 
-0.004519960228186847 
-0.01334860806872117 
0.01453728284822622 
-0.0001919328600163286 
0.01598545235445879 
0.005573312337444492 
-0.008194012902748985 
-0.005316202809052999 
-0.001881565131488075 
0.01485513822024509 
0.004448802914974656 
0.001525878757855824 
0.002304111846764769 
0.003905616021022907 
0.02930413754302608 
-0.008394268525699656 
0.0003200161423946388 
-0.01208087758725317 
-0.02148901194208286 
0.05509977739813585 
0.005431145365139622 
0.004798838994789823 
-0.01088246158727031 
-2.137608090656773e-05 
-0.003914239825709952 
0.003969943542861449 
0.0007498895403660521 
0.00211436150640825 
-0.009677054129295913 
0.001712428248540984 
-0.0106033684286219 
-0.0194341120512242 
-0.006081233421267957 
0.002964589826548335 
0.008442738704860356 
-0.004311447211832829 
0.003367724398373154 
0.005736291249578696 
0.01119847614951857 
0.01085114621431255 
-0.00566139487931257 
0.002852820452285206 
-0.001221637394933636 
0.004749796384683719 
-0.001768874336555382 
0.006057619689271124 
0.007893332465201037 
-0.02144953607660882 
-0.003332637397372509 
0.006257473172109984 
0.00134075046910564 
0.002767058769907571 
-0.0008571007010004002 
0.00284924393880988 
-0.008125814509265143 
-0.01963136641007723 
-0.00241479733058742 
-0.01711384170700384 
0.01025570579248161 
-0.009072751461980435 
0.0004842019195085037 
-0.006902833030127902 
0.05113543502261794 
-0.02803258590485853 
-0.001425878522296462 
0.001841988305072873 
-0.00143889857685893 
0.0007462102695838812 
-0.009122994830569796 
-0.00590190090288951 
0.01302668896892932 
-0.0121910645799307 
-0.003084276646646011 
0.004653484676197652 
0.03287409924172324 
-0.01674818217182629 
0.009797756849185674 
0.001054234957598379 
-0.009537193460160449 
-0.00609300485358065 
-0.008621938554015553 
-0.001758491150168456 
-0.008434548246761209 
-0.007543179453165727 
-0.007145577005173845 
-0.0203939857577349 
-0.001348713523292287 
0.001572601532135239 
0.005388555200502494 
-0.01148465288736423 
0.001371936824315467 
-0.003570715274559786 
0.008041900260929984 
-0.002414301015289112 
-0.001706353579819252 
0.001139363221891763 
-0.0004494181024218095 
0.006668390534078665 
0.009789292235910907 
0.005716059519442152 
0.01225605889985002 
-0.01573494611128004 
-0.007342475702253566 
0.006615308245149042 
-0.004197360533261964 
0.008542672622377128 
-0.01379705935924971 
0.001695113097094087 
0.007085371444037161 
-0.01410901848622318 
0.004325190237591313 
0.006069117722338928 
0.004795964319402245 
0.005418887094685515 
0.01104363327711416 
0.003180983523929501 
-0.0008758542372966553 
0.003763847684883483 
-0.01049592757250769 
-0.005754678868046245 
-0.01091247318028492 
0.007083197585115396 
0.005818061220278192 
-0.014704749015165 
-0.02373523993879648 
0.01746270495934206 
-0.003321233450322203 
0.004956721081761243 
0.01949003980493564 
-0.003509466268976551 
-0.008915389189001064 
-0.01313934491679556 
0.002222513801369218 
0.006185811362495233 
0.001008291650034637 
0.005431227224952261 
-0.006883336868263219 
0.003156115947670347 
-0.004234046066939351 
-0.006685921307685435 
-0.01374008823297894 
-0.001733904827067135 
0.007438960203293477 
-0.01324190578641457 
-0.001429598238310498 
0.001635082611618434 
0.007257016909844095 
0.003861835129526127 
-0.0002440429342317791 
-0.01424466461444037 
-0.00112488703304265 
0.002758714300650447 
0.002855788074427836 
0.00341193833045431 
-0.01666687001063618 
-0.003941987377843493 
-0.008970683645030118 
0.002895439454878888 
-0.002349872916556406 
0.00928926886879948 
-0.005891580933010158 
0.003785021885601758 
0.00472022788928178 
0.002596380943990506 
-0.007594265303004099 
-0.006659557933637864 
0.0008776648354963178 
0.007862064332035106 
-0.001658435272755577 
0.006259682385596438 
-0.007826517926864857 
0.006856236282002154 
-0.001824320317725357 
-5.616500755156786e-05 
-0.008199484378690617 
-0.003070676870879154 
-0.008628093472059254 
0.002968875149447129 
0.008714535147851043 
-0.007846148081107332 
0.002412872502412887 
-0.005025235771488558 
-0.01940535457551285 
0.006587855424357399 
-0.01074132631635823 
0.003180439080062742 
-0.005283416796914009 
0.001364973828195916 
-0.000268057763103788 
-0.007091830811534808 
0.0006469811739344597 
0.00616050797003716 
0.002406596849688753 
-0.005432579016120549 
0.001146514677388847 
-0.01322251343542252 
-0.0151697363562565 
-0.01153216290008776 
-0.0103805894542338 
-0.01581458570748803 
-0.002164541954491767 
-0.007466047651855582 
0.002714013925819826 
-0.003509248013694973 
0.009063881337535223 
-0.01190655342147013 
-0.007813050466151472 
-0.002801857430238096 
-0.01454691556150279 
0.003881388608831616 
0.004924081243532015 
0.001600071594724969 
-0.01070816977590504 
0.006576109197540919 
0.00973399438680486 
-0.001736385066312337 
-0.003832372374699107 
-0.01362609635273284 
-0.004798761945525979 
0.003153855728422353 
0.001812987830630132 
-0.0001043281692841441 
-0.003637978176431578 
0.003190410901897706 
-0.002556737803130241 
0.003714422369880209 
0.004704510198631512 
-0.007065911108626271 
-0.00161571705209306 
-0.001596241901264517 
-0.01162607703457427 
-0.006171126004059173 
-0.002362310572026487 
0.005016592768836474 
0.01377213391747175 
0.001641763799825752 
-0.002896497223178529 
0.004651297858960512 
0.001030544070793761 
0.008503535241633107 
-0.002236785238092552 
0.00675184888565422 
-0.009974671301977602 
0.003663074291598356 
-0.009716461027222772 
0.009553812693403186 
-0.005219288180182302 
-0.01780448410874402 
-0.005349946895214054 
0.003295989534993657 
0.001465873217489328 
0.005797484653163432 
0.001107256204976308 
-0.002607691411224809 
-0.006777610468574557 
-0.01906828823547446 
-0.01369853412248289 
-0.008615263711492486 
0.003050040804326532 
-0.00431803862446514 
-0.001098680630709871 
0.003485241694735096 
0.006901129578466026 
-0.02197419124206473 
-0.005655429445594215 
0.005547404567633517 
-0.009124010488630156 
-0.007220221854899744 
0.0007472876325852131 
-0.001920033323839778 
0.005392641002749225 
-0.002281999230743484 
-0.01095120106884042 
-0.007883297146574242 
0.002957705605802148 
-0.01327418662044158 
0.004245550941715785 
-0.005227429901946338 
-0.002825429593076153 
-0.003901956226517695 
-0.007861647252086854 
-0.0007116524648084967 
-0.006449437135956992 
-0.006727338325775471 
-0.004672425700293277 
-0.01114242319713902 
0.004542372309958517 
0.002787030393650429 
0.006074494203214788 
0.0003022781602622358 
0.003262732639735503 
-0.01637849930437147 
0.008435545590678993 
-0.004739978125614966 
-0.01147848157938477 
-0.006908000051898114 
-0.007341516613889986 
0.006921860067164672 
0.005653402899121141 
-0.001540879981828553 
-0.008149226320563285 
-0.01452427158407816 
-0.007826094931508824 
-0.001139164377266389 
0.001180302526407289 
0.001026901632858981 
-0.004535848068363926 
0.00519246147647767 
-0.0014641713778477 
-0.008888964269854088 
0.005580247537811781 
-0.006912760879234451 
-0.001240791118480556 
-0.00584112457512354 
0.004341133321402501 
-0.002495318825537749 
-0.007663134191803709 
0.002135673169195696 
0.0002308336872594815 
-0.005590051464791863 
-0.003364138910536607 
-0.003181503452074941 
0.001518912038967961 
-0.01237737006240079 
-0.01198097443650692 
0.006206852148283426 
-0.0005882413565175535 
0.00309818873510041 
-0.002523711647199866 
-0.003957762001191692 
-0.0001436070798740297 
-0.006287740470654452 
0.005983739423804209 
-0.004177574311471506 
0.003893006713510995 
0.005355793674227328 
-0.008922707927465037 
0.006682966478281212 
-0.005374633938098386 
-0.006935189547438717 
-0.002130186056794024 
-0.004646811991984925 
-0.009135782217947138 
0.000539497306145743 
0.007447461253788252 
-0.0004641008989598619 
-0.001241848283633247 
9.498847260537799e-05 
0.003776012860508674 
-0.02150386478141626 
0.01267720564363867 
-0.006961571392310417 
-0.005673528855406624 
0.006004401820432583 
-0.02727554395747811 
-0.003210949116596393 
-0.002651662729927063 
0.000389724379608839 
-0.001919096585965919 
-0.00088172318659614 
-0.005120802750808105 
0.0142892782367702 
0.01405218953209519 
-0.004066644485556336 
-0.003274842274325142 
-0.01981763180490955 
-0.005004166554854142 
0.002498591270221181 
-0.0005819562671568192 
-0.00175684409976093 
-0.003660090349867498 
-0.003059604019650523 
0.004905287548873137 
1.980016018030665e-05 
0.001043668643873608 
0.0001272962906436141 
-0.008271158494886799 
0.005557567713955701 
-0.009118681476407911 
-0.009148052590730905 
0.01616336502828827 
0.002198855304451398 
0.00404785268162125 
0.002644280201288356 
-0.0119761551552668 
0.001767326104786393 
-0.01148290245878938 
-0.01132312568265008 
-0.001389152180377794 
-0.006161223439610586 
0.008371989776182146 
-0.00940968559306323 
0.00455426332110952 
0.0008517534023023796 
-0.004467117549170172 
-0.006919710476277125 
-0.02049102334895987 
-0.01115912594915365 
-0.01590861756868215 
-0.008702912494914863 
0.001041932247779863 
-0.00123353644842706 
-0.009382691405787003 
-0.003684267919010809 
0.006016575531758848 
-0.01198725771133462 
0.006257750556571083 
-0.01717223232854159 
-0.01442461583072929 
0.009163073410815445 
-0.002619773710876134 
-0.006454877763871961 
-0.003452526256610702 
-0.002963622636011572 
0.0007582772038062756 
-0.001200870037156159 
-0.005233019830229101 
-0.004777457730326243 
0.008171662929777581 
0.0002269046628164634 
-0.003116017463489257 
-0.002858114544737616 
0.003829262286271377 
-0.003949294330311438 
-0.005250178140652794 
0.004233182669924886 
-0.00228382518702999 
-0.01579074220602212 
-0.001383719025732207 
0.002520805277830553 
-0.01337301261381349 
-0.006639976599645123 
-0.001335947006847961 
-0.00098098460223835 
0.01680335560774251 
0.01393102131045918 
0.003919821162438142 
0.0002444194754094429 
0.001621491943753033 
-0.0004411720899604857 
-0.002470756851194021 
-0.0002553703371263171 
0.002168991160467956 
0.000911304687497052 
-0.003477184183285782 
-0.002237873670449083 
-0.006998253620160764 
-0.008330699483629498 
0.0006379930369290347 
0.0007904499900659723 
-0.01064361416117761 
-0.0009194772739132914 
-0.0005101485421062867 
0.0006326846973044682 
-0.005133738131751079 
-0.01315999748049519 
-0.01943464295528333 
-0.005409057484816996 
0.003356218904614213 
0.002731012045042894 
-0.0007809919697206175 
0.002686945197701377 
0.002453372315916766 
-0.03072759527603389 
0.001028378271407707 
-0.006478612694422508 
-0.006881330382092579 
-0.003011510787347559 
0.002831905097210712 
0.00178113940579414 
0.01273681327640657 
-0.006106456156228192 
-0.005786794117172495 
-9.735974892747331e-06 
-0.001034401142425597 
-0.002120408475205979 
-0.005984217482947493 
0.001640800536364599 
0.01336469411147216 
-0.004054858946374383 
-0.003805836925676882 
-0.003230885324026352 
-0.003464004632103708 
0.005898468719703466 
-0.00129900226616849 
-0.02612549553204631 
-0.003669928231981958 
-0.0007294409409321856 
-0.009281600832865441 
0.009073648278482357 
-0.004301800759149351 
-0.001836287932915628 
-0.004945889014190206 
-4.462691197661288e-05 
-0.00117603645569849 
-0.02232415040090718 
-0.002645347271884296 
0.01730037880302781 
0.007668395317128995 
0.006583861785255545 
-0.01236792731700456 
-0.009498386808487238 
-0.00698456233770681 
-0.005557629746509334 
0.01097725765077869 
0.003680694972986942 
-0.002689619970206432 
-0.00428540275096364 
0.002145806806301777 
-0.01230223270865569 
-0.001467559808333261 
-0.01085064244772208 
0.001385146611651675 
0.0001559670901205752 
0.003512573447018677 
-0.009841898333737985 
-0.01310573911682044 
0.004026600918540661 
0.0001369374893070485 
-0.001902970353377798 
-0.002897898967120732 
-0.01113067386255697 
0.00318678723262086 
0.001749245291844778 
-0.006929230829440116 
-0.002255972196174595 
0.001005340329850159 
0.002838420610816245 
0.003092461222622796 
-0.01298798748720681 
0.006037966227529266 
0.003125693404685322 
-0.001540002343619385 
-0.008103590548174838 
0.01375868321202488 
-0.005498595454453405 
-0.004668280981277757 
-0.002882831388391426 
0.003526678820123451 
-0.002737405611498285 
-0.004267299885447033 
0.003463417975632333 
-0.01675661124080377 
-0.00324779515975403 
0.004844005677390465 
0.001752783924103217 
0.004856250156604456 
0.002617012276342259 
-0.004626952480958724 
0.005419244436478668 
0.001018945613988973 
0.001304506158593912 
0.01046361929497836 
-0.003127153382668099 
0.004952491239410477 
-0.001231398088906546 
-0.001450149903949308 
0.005599135394186595 
-0.003266613873774062 
-0.006896260312333394 
-0.003387323434342976 
0.004916625645512185 
0.002470189862904636 
0.006289316223832188 
-0.003821115724738215 
0.0003250563210682874 
0.004709136647592598 
0.008231055809854245 
0.004085220249516248 
0.0007163140529923246 
-0.004496438845639056 
-0.006333705258214794 
-0.006399520285337563 
-2.185107402243585e-05 
0.002171189283210338 
0.002646955778708798 
-0.002758512613286967 
0.004233105356574767 
-0.00735414005498515 
0.0006411990614393855 
0.005057264030092335 
-0.004203187065258241 
-0.004264231753486143 
0.003373758522114039 
0.003694260505593346 
-0.008600361376754994 
0.00228603552011503 
0.00681121620566574 
0.002662201742248464 
0.00874581601691278 
-0.001946179042733905 
0.002663723639471646 
0.01521861116674116 
0.002816682790850904 
-0.006644868056426122 
-0.002311821291177355 
0.002813064551144076 
0.009528256266188065 
0.008457694457711024 
-0.003036652463341034 
-0.006016687597877834 
0.003669648461530515 
-0.02211563158124197 
-0.004622729512878704 
0.005314264322114176 
0.005868041283659809 
-0.009900835220589177 
0.008363241579137379 
0.003439560139900586 
0.002152791821973695 
-0.0004389653309591806 
0.003350538529486741 
-0.004036508594309471 
0.001202340678162859 
0.004651321888922036 
0.003811294328325122 
-0.001650023733106012 
-0.001299565542548437 
-0.001122003650161182 
0.002126695821379769 
0.002349333898674793 
0.008399242145015019 
0.003335845739914026 
0.005446906085274547 
-0.002458463002414587 
0.0008777393214319346 
-0.0062645118331244 
0.007098084210092752 
-0.0006040711068571895 
0.002355053506001106 
-0.003989203130552923 
0.004473970451200101 
0.002339055870936552 
0.004201305735206671 
-0.001897118653789458 
0.003187606418038202 
0.001836579989959395 
0.003297069990846036 
0.00389697496673821 
-0.01183195152516655 
-0.003347354667521371 
0.007567239694944266 
-1.20674041782598e-06 
0.010532867781259 
0.008477762686578761 
-0.01033659651751552 
0.002052159063856607 
-0.003859706235179921 
-0.001242216958367547 
-0.003806163297981237 
0.0005321598930823948 
0.008821733672425721 
0.001167640289410845 
-0.004063280755009589 
-0.001300477388395016 
-0.002124913108596569 
0.003102219505954268 
0.007907423683785464 
-0.001393111248782761 
0.003416752485901394 
-0.003422286884900886 
0.005978455147982283 
0.001327004791827841 
0.003678150029501155 
0.0003716520392179792 
-0.002507685993800306 
-0.0001196463024600854 
0.002662638174094673 
0.0002595220377586962 
0.004956717607669587 
-0.0001439753037935498 
0.004972397999003223 
-0.004008283414444792 
0.003052081949764062 
0.001789466635801655 
-0.005356179673970284 
-0.01568062216173448 
-0.002600484011395121 
0.002309537747814935 
0.004588458270541102 
-0.002678058695468762 
0.001052925904924845 
-0.001301324287732723 
-0.009238697847917591 
-0.004775986423223625 
0.003307854456939426 
-0.001819470050997055 
0.001902319161105072 
0.01022799803279363 
0.003415997183025176 
0.001788285059455523 
-0.003980340244461594 
-0.02181984889074873 
-0.004882013807765787 
-0.003305280730209355 
0.003116615978424962 
-0.006177916931309158 
-0.006498582459211837 
0.008405236942211257 
0.0009191779840016067 
0.003896624194409145 
-0.006176916711297509 
-0.002077025659646076 
0.003910492319695932 
0.00362036071381705 
0.006560304546176511 
0.00472089244422028 
-0.001636040501281701 
0.001382903995014773 
0.006830319592607258 
-0.00319609654385909 
0.005293392778017364 
0.003396423314797073 
-0.001302855065375331 
0.01107800700483874 
0.005165418682504307 
-0.0007232891430975342 
0.002231645029654338 
-0.001055751934117894 
0.001209225699670393 
0.002740191639148814 
0.004416118165483625 
-0.0006835184417892185 
-0.008030002136377267 
0.006578216974302619 
0.006671726647068488 
-0.0009020688804865527 
0.0009188725865548642 
0.004370390309756154 
0.005674314569506187 
-0.0006046952709032828 
0.003263437746766017 
0.009950337666056092 
0.003020291181050197 
0.002479062594922552 
0.006384500391407104 
-0.006501565373602674 
0.01052132224001283 
0.007460943213060408 
0.0006894444223764108 
0.004084487025966466 
0.006062817454967922 
-0.004671533659678424 
0.005837413176816625 
0.006397957647269807 
-0.002207499236751531 
0.007333537259963269 
-0.007524944239983931 
0.001888492500661736 
0.01268612260413721 
0.011143385565671 
0.002762743516122721 
0.01067677844336854 
-0.006328956643077688 
0.009031111896395437 
0.002307822790357668 
0.004891841198060951 
0.005523306042893998 
0.003518222073161118 
-0.009358293869475537 
0.003656527744023375 
0.01229550761898918 
-0.009033792871886326 
0.005795495183902665 
0.000256480089969995 
-0.003408223933127135 
0.007773643067387795 
0.009539940577993017 
0.009631207012714403 
0.002449529589057598 
0.000456964194532215 
-0.005318225569955679 
-0.00504188933410233 
0.002920204628738837 
0.005491306286956332 
0.003779544433775204 
0.006424568595516588 
0.005886268203589861 
0.008967899485462337 
-0.002808023153442434 
0.009986132761433772 
0.0005867632960903937 
0.0002572202027159742 
0.00793701288852976 
0.01703520909531391 
0.01029332319208624 
-0.01001156863692892 
-0.001057955785723751 
0.006091491194586301 
0.007777717606252027 
-0.003681522412937635 
0.0008570273948492146 
0.003757035102320277 
0.006938149313935705 
-0.007557525642719012 
-8.144835645680865e-05 
0.01003479811617582 
0.01313230828585322 
0.01263077072959777 
0.003605180981939634 
-0.001743982726910937 
0.0130735266796647 
0.01590621581093544 
0.0001261629237326212 
0.00920176276326814 
0.008111444455398662 
-0.005486714683245729 
-0.0003899675866280042 
0.00903506539884657 
-0.01536481828642515 
-0.001196369384755081 
0.001960403380867963 
0.001137938860371753 
-0.00185086282501219 
0.007839517251636516 
0.01216996241312676 
-0.0009891903723655844 
-0.0008814819809497501 
0.01076793843880924 
0.005878905923930735 
0.002134387114470396 
0.006533846897073263 
0.0146653537000711 
0.01075156055517578 
-0.009129383501138571 
0.003362381199770018 
-0.01092988006968796 
0.01080581699089051 
0.002726727696622796 
-0.001491210230731897 
0.00494690050840715 
0.008905735332633726 
0.00653786676458881 
0.009028430176231703 
-0.01846314072213533 
0.01178098198948416 
0.006054395826992693 
0.004174186631681761 
0.006568224560338347 
-0.003121943425722301 
-0.0002681250549807088 
0.006070085635867932 
0.005376346105404025 
0.008139355461100468 
0.008846991094554144 
-0.01407403008392787 
0.006920070650671314 
0.002994517185528654 
-0.003952770559788384 
0.001159187781519545 
0.002040767160509664 
0.01250887876582385 
0.0008145496601122303 
0.0003626042684529409 
0.001388366842139916 
-0.003267920685501531 
0.007578653381442203 
0.009462057428569398 
-0.0007037877561166905 
0.0141735094895819 
-0.001392140518201471 
0.008670957518396461 
0.003988771753553623 
0.008669213059354929 
0.001028003082324738 
-0.01098894981819415 
-0.002513905834507924 
0.005413481201330587 
0.004950515364531971 
0.009899332253673168 
-0.01001103813576182 
0.01216438165389082 
0.001932280857598757 
0.004521274604223552 
0.004618720067128603 
-0.006831118993737064 
0.002374759030838353 
0.001311884055790038 
0.01676333349234077 
0.005656382561574048 
0.006819140809755547 
0.001364280197684114 
0.001054540265092986 
-0.0009492814306056989 
0.0003575875791282185 
0.006523994965662592 
-0.01417897587602051 
0.002701638020166798 
0.006993381094028668 
0.01017946236680867 
0.001346870853296748 
0.001501429458738853 
0.006087831226139206 
0.003458083832695035 
0.002668187201655617 
-0.00449702683116373 
0.002260153778634329 
-0.02002351800716614 
-0.008927780936078999 
-0.003824619808337618 
0.009878684262695845 
0.005128839142453212 
-0.006558398175864738 
0.009003236109393138 
0.008562206035247035 
0.006179499625308689 
0.01091222652999194 
-0.009886221700384688 
0.008021304875592066 
0.008661501610240459 
-0.001706545509653778 
0.009141804548797062 
0.006328436569724029 
0.006648548178100342 
0.01046987379764927 
0.0003694636199147049 
-0.002234090787009462 
0.008261169518937083 
0.001304069134118371 
0.001477776231786623 
0.006688134195895268 
0.005954162138999855 
-0.004162814762766887 
-0.007637211227716445 
0.01571834771676666 
0.007984867305874976 
0.002005209259407348 
0.003567208733519904 
0.004114401017009777 
-0.003674708898708128 
0.005151751094741807 
0.00983359136354032 
0.009610172172340991 
0.005402071317005546 
0.01334591640952047 
0.01403050348210519 
-0.005302114675347106 
0.01184579626751632 
0 
-0.002450399905811966 
-0.000323027068670383 
-2.071119294170895e-05 
0.006792556934400266 
-0.003416194403145205 
0.000189280912423849 
0.004426780363484113 
0.002096741579230083 
0.005948623860222609 
-0.001688319989215519 
8.846116984147851e-07 
0.0006079325459967141 
0.002306125323287593 
0.006342567936305748 
-0.003603392023997151 
1.040127929263793e-06 
-0.002016655938435432 
0.0001422668881192838 
-0.0004117619256273042 
0.0005966019696671509 
-0.0033252156363326 
-0.0005164151125981493 
0.002677276187215558 
0.001325545614345416 
0 
0.002171265326212096 
0.002351222874911741 
-9.126858756719372e-05 
0.001638503927708914 
-0.0001568602873893927 
0 
-0.001565935892239425 
0.008952783935576157 
-0.003808858800500615 
7.571341443373912e-05 
0 
0 
-0.0007605517817304176 
-0.0004905934908101359 
2.411361924309998e-05 
0.001152407051801018 
0.0007944583193943433 
0.0006962946391841679 
-0.001994118824809857 
0.001615586581681757 
0.001080765294349496 
-0.0008376971814624847 
-0.004293071570394785 
-8.927504856223379e-07 
-0.001077537461210711 
-2.902115317292873e-05 
0.006627004381587351 
0.00128210700607807 
0.0005237554694757968 
-0.001702803158066012 
0.002657691420635511 
-0.004324564799980646 
-1.643283855250894e-05 
0.0001377869312766725 
-0.0003083635114525207 
0.0009146610931927277 
-0.003703712765253689 
0.000856872526710096 
-0.003561213241065776 
-0.001640147125677381 
9.403647391436877e-06 
0 
-0.00165576719547766 
-0.001612750291669064 
0 
-0.008190803885549592 
0.00500812605835092 
-2.270883086693995e-05 
-0.001357772532663503 
-0.005276008442304517 
0 
0.0008320725144483927 
-0.0007202408595799064 
-0.004034336874533759 
0.0004250938684491655 
0 
-0.002723320119475264 
0.004910601962996465 
0.0007454860925738451 
0.002409348999780222 
-0.00621588024374938 
-0.0001515698145978365 
0.003641818513962314 
1.629547716927061e-07 
-0.001705926767768154 
0.0006888478866156646 
-0.002430174843711862 
-0.0006967376634477519 
0.0001261272465729622 
0.001257454599620418 
-0.002998761730231048 
0.002153090850874501 
0.0003972492293158245 
-0.0002967556301657286 
-0.0009146321613270424 
-0.01158634874946705 
-0.0005332093525744337 
0.0003734203402713433 
-0.001316965025999172 
0.003966872282748004 
0.0002206266385697854 
-0.004806321564783196 
0 
-0.001000005814749947 
-0.003449783155751824 
0.005157175301064749 
0.000988722822634703 
0.0001096697706322919 
0.0004887041036342409 
0.003093433687343481 
-3.4063605552842e-05 
-0.001271007617657905 
0 
0.0001147014647505633 
-0.0009477545605942632 
0.0007763087187340299 
0.0036958518712941 
-0.0005176448233677249 
0 
-8.857100939815029e-06 
0.001788625800006822 
-0.002609069793640309 
0.0002174431644629337 
0 
0.00306661914986686 
0.0001251796192465892 
-0.004023567083706701 
-0.0005545368314692532 
-0.003195350027146546 
-5.293955920339377e-23 
0 
-0.002677905897643751 
0.0002058233829221197 
-0.005376844897046369 
0.002614627074217007 
-0.0001601403741500072 
-0.0009428325255547761 
0.0009037460934647824 
-0.002600105402157926 
-0.005480297892811417 
-0.001552869690387471 
4.135353260987394e-05 
-0.001871479169024459 
0.007677440343323372 
0.002275354468513345 
0.0006503723563970978 
0.007768490389613663 
-0.0009561954926746562 
-0.01597303264424845 
-0.004270527208011574 
-0.001104186358397171 
-0.00175257510646455 
-0.003068248168645478 
-0.003744916297536079 
0.003422202872509724 
0.002757480592527141 
0 
-0.001139370204478681 
-0.003498942668937517 
-0.001742957920251366 
0.00213611190822175 
-0.0006696891520974065 
0.0005906506697655915 
0.001868505783591111 
-0.001962642937011723 
0.0003465071669674283 
-0.004978097805337366 
0 
1.013499961495848e-05 
-0.00048122062739018 
0.0001294898797990825 
0.002206438041287916 
-0.004340316910525293 
0.001162490505420234 
0.0007126551070816883 
-0.001280546679626299 
-0.0004058413927581553 
0 
-6.337546091371225e-05 
-0.003851225885229347 
0.001009533660143045 
2.402170955671278e-05 
-0.0007362485695829576 
-0.0007238825636561948 
0 
-0.006519242672130488 
0.0005542267140872169 
0.001237346038228415 
-0.000323537966207296 
0.0006806357539555405 
0.001267445964263426 
0.006902549802880382 
-0.004147615706107454 
-0.0002381243662111538 
0.006732044709330334 
0.00972397848053959 
-0.003818004285908919 
0.008934623172834831 
-0.01610396196589626 
0.01978994142579414 
0.01027593773911392 
-0.01231253722067179 
0.004610430785440489 
-0.01869752406589231 
0.008131110299400435 
0.008266647420758321 
0.02506712092474484 
-0.0004404297497865791 
0.004042875905913942 
-0.02222869955635869 
0.005876596969222357 
0.005130279461874097 
0.006835363175545488 
0.004422559619191151 
0.0152143729964582 
-0.01086444643033483 
0.00765517221677289 
0.01942959319147384 
-0.01372935211865424 
0.00214900188808186 
0.0006178159369133995 
-0.01187166926715391 
0.01007025060874898 
0.001452784705653442 
0.01171965653972266 
0.001174199050577117 
0.00552124421401758 
-0.006962611782758545 
0.003012001269655481 
-0.0001547108647155675 
0.003948938156215324 
0.003163355707170295 
0.01183542501430829 
0.007868883655212412 
-0.003382749762676732 
-0.002998005126842679 
0.01136305456168869 
0.01628523954931697 
0.005365491184061618 
0.007292580107982534 
0.01745751427583672 
-0.01127909210896875 
-0.005227078828777524 
-0.006638819156265259 
0.002165576169694362 
0.009239094028148402 
-0.0136643447039569 
-0.0029306627208371 
-0.02383297283056354 
0.01588966794689071 
-0.01154590558732719 
0.01415628163808026 
0.007496251550551719 
0.01719592780748197 
0.0165041431934976 
0.01145086633833982 
0.005520843805987391 
0.02138955613171301 
-0.004109785143313695 
0.003160090356073728 
0.00679327821510392 
0.004937179174352592 
0.009612756951032714 
0.0003839553691028185 
0.007396999062219174 
-0.03731758521152796 
0.002224624918919811 
-0.0008211143007084852 
0.003473113847758067 
-0.01294081705187658 
0.005120664544483342 
0.01663541209163622 
0.001787492765924872 
0.006776250426398482 
0.034103718467947 
0.003115799409345133 
0.001938657978058137 
0.0007586522315925341 
0.02221839126213479 
0.00070476627389274 
-0.004444403291105297 
0.006614562603855459 
-0.0111787239582783 
0.006451127443213679 
0.008155220512584219 
-0.008782944373135272 
0.006801886804564001 
0.01941697379379258 
0.008903574280860596 
-0.002266769080100785 
-0.01121301615134244 
0.01568939250109654 
0.008586379520107292 
0.004786388446259384 
0.005298933155013424 
-0.01715153578438485 
-3.905834704074228e-05 
0.003909296469946876 
0.006869586338453453 
-0.0027478741611896 
0.00871417823998828 
-0.02131600762626831 
0.005201799173690534 
0.01509585869040484 
0.002861695147758058 
-0.005453988895984791 
-0.002160413168931373 
0.008868329129369258 
0.005005234250027673 
-0.005269266179053463 
0.006720648329518412 
0.01083813230440525 
0.0055589601382843 
0.01355970021912054 
-0.01216853464333293 
0.02191447918844113 
-0.008524400956038928 
0.01378073030765758 
0.002310589410684682 
0.006156396099610085 
-0.0009514781157453382 
-0.01117969346258564 
-0.001599310860819471 
0.005138612487792757 
0.01611040757885903 
0.01170723460639526 
-0.02803293693740644 
0.01495350729432906 
0.008364489206447031 
0.003822695419674152 
0.002594896470737342 
0.007909338518571129 
-0.00196490350900562 
0.005612959049753312 
0.03210025666658403 
0.01005510392038741 
0.01036689372717786 
-0.001588575918567369 
0.005555063400007917 
0.01469297742531959 
0.00517156574551771 
0.004935329114447222 
-0.01148831132587082 
-0.0007268665963536486 
-0.002069809714960238 
0.02027003186995368 
-0.008156001457627578 
0.004037536533527269 
-0.01094137542658671 
0.008758636194230129 
0.004653524299163285 
-0.004719496939278532 
0.004205011421188089 
-0.01031817983170306 
-0.01397122954389467 
-0.01119754250104531 
0.008478616611403532 
0.01159686616157581 
-0.003238017715587379 
0.00121195145208541 
0.01225048653026161 
0.002291714582367816 
0.01403419852342073 
-0.01660084736885503 
0.00993865142840006 
0.01089188948887948 
-0.001488882821297722 
0.006879221757271962 
0.004132636634510996 
0.007323221653747425 
0.0105788057150358 
-0.00343407341932223 
-0.005518258314820441 
0.006663988069426441 
0.009837613043925253 
0.005629561392653191 
0.01218587867727451 
0.003026887057945872 
-0.01330586774672685 
0.009527155173789827 
0.02193942927462168 
0.004006543456091967 
0.0004324176057347853 
0.004982128686614673 
0.00289284664879839 
-0.005667665568736273 
0.01459830090041743 
0.02430498461745152 
0.006580664696201961 
0.000995323803062591 
0.01350844653682587 
0.00638243483021646 
-0.0009185292741039111 
0.009138436087805638 
0 
0 
0 
0 
0 
0 
0 
0 
0 
0 
0 
0 
0 
0 
0 
0 
0 
0 
0 
0 
0 
0 
0 
0 
0 
0 
0 
0 
0 
0 
0 
0 
0 
0 
0 
0 
0 
0 
0 
0 
0 
0 
0 
0 
0 
0 
0 
0 
0 
0 
0 
0 
0 
0 
0 
0 
0 
0 
0 
0 
0 
0 
0 
0 
0 
0 
0 
0 
0 
0 
0 
0 
0 
0 
0 
0 
0 
0 
0 
0 
0 
0 
0 
0 
0 
0 
0 
0 
0 
0 
0 
0 
0 
0 
0 
0 
0 
0 
0 
0 
0 
0 
0 
0 
0 
0 
0 
0 
0 
0 
0 
0 
0 
0 
0 
0 
0 
0 
0 
0 
0 
0 
0 
0 
0 
0 
0 
0 
0 
0 
0 
0 
0 
0 
0 
0 
0 
0 
0 
0 
0 
0 
0 
0 
0 
0 
0 
0 
0 
0 
0 
0 
0 
0 
0 
0 
0 
0 
0 
0 
0 
0 
0 
0 
0 
0 
0 
0 
0 
0 
0 
0 
0 
0 
0 
0 
0 
0 
0 
0 
0 
0 
0 
0 
0 
0 
0 
0 
0 
0 
0 
0 
0 
0 
0 
0 
0 
0 
0 
0 
0.00149940000171038 
0.01268694984568433 
0.006599912922559838 
0.000370954079451417 
0.005686178248537096 
0.002483125619151261 
0.003251978431708598 
0.003830747954399599 
0.002211333274650903 
0.004912394895601474 
0.003110697858579111 
0.001864125678823779 
0.002357714567739833 
6.325065075457037e-05 
0.0004200474485215147 
0.002125795310022247 
0.002833642923338566 
0.004390504302113043 
0.002239587441862751 
0.007650056785821624 
0.003666670724035898 
0.0003289343957557627 
0.0007969316615026626 
0.01131700655794005 
0.01390331824101811 
0.002397461502641992 
0.0009187115150312761 
0.003380584075974745 
0.004836053961752878 
0.002543387740716353 
0.007003904889855033 
0.004078039413361218 
0.005060431594128716 
0.00344232894750067 
0.01772313897927212 
0.004576375854402983 
0.00440061818986937 
0.003633022238609666 
0.003685269379201836 
0.001636137099860994 
0.005822621817448459 
0.002117880837726092 
0.002962800184415505 
0.0004661947326203594 
0.0002232161075315688 
0.000188220138811642 
0.001632587141169077 
7.001711182692945e-05 
0.002259046663871025 
0.002023222549644409 
0.002582128460262179 
0.003102382843724006 
0.005247630833553616 
0.0009021631934949054 
0.0003544956714567345 
0.002379198697734035 
0.002588357700983502 
0.006142185063616403 
0.002751882461804478 
0.003242938731456988 
0.0009367926530390848 
0.003243424494608902 
0.01465381287239334 
0.005046483473797774 
0.003389434854156347 
0.002541521081967627 
0.0006968368868202558 
0.008006411113024903 
0.001884063939533689 
0.002877724608418977 
0.006450336454969831 
0.005484216460498972 
0.001869175639705068 
0.004443422280620415 
0.005751061535633882 
0.0008141564715235884 
0.007428906850949961 
0.002228528463177769 
0.000330530936512144 
0.002731749581432724 
0.01570869927198845 
0.001193641900468564 
0.002135956110400151 
0.0005766780309247434 
0.001217911102604475 
0.001395870026572008 
0.0007842225346289828 
0.002822699374914054 
0.004635749338786091 
0.006587672108030449 
0.001351922381359817 
0.003490083104408229 
0.00356994138423219 
0.004323209606738617 
0.0004789321785086541 
0.0009931751530966012 
0.003120645646496951 
0.00408004435811543 
0.001817090811334787 
0.006160988763934102 
0.001835822297401336 
0.003042559030122162 
0.004232877433460808 
0.003292127740446745 
-2.219600256397999e-05 
0.004564539274566317 
0.001242775098845953 
5.669403422591075e-05 
0.0008839384024010366 
0.0008720841972337638 
0.004666184659376444 
0.003026190717578996 
0.004027656754816028 
0.01422562987606289 
0.004973598312846439 
0.001095076781893665 
0.002506180895309423 
0.0006227127450045919 
0.002830011865876161 
0.01142940026368659 
0.003231665188718807 
0.001508264887718302 
0.01892247526386679 
0.003084694794572137 
0.005201302914810078 
0.00162239803496016 
0.005447473544960746 
0.004431857579041943 
0.002716240397113544 
0.01484581856337927 
0.002586550287776644 
0.002262803405833753 
0.007499023243854173 
0.0007237545637622742 
0.006241314435870213 
0.001372714530880737 
0.003368205960307296 
0.006752015554019355 
0.001198943552304926 
0.006590456510745231 
0.007553825626007886 
0.002995278449253546 
0.002651529386939592 
0.003922808259175642 
0.007796022715394773 
0.01392170485586949 
0.004739294252334783 
0.002330998662861373 
0.002067060393688813 
0.007069921449917216 
0.002396748344163286 
0.005247774751785074 
0.002930518553778449 
0.0001206757270553387 
0.002748705294498831 
0.002516011095326896 
0.01195052783867249 
0.0001091682670356669 
0.0006175720251327515 
0.001207045583770655 
0.002208040536183152 
0.001184724198493101 
0.004659148746355957 
0.001542907980159002 
-0.0007740813193978697 
0.0002768238185105242 
0.004859660538552488 
0.004736271907222379 
0.0002649355067855389 
0.004669552067397806 
0.002397532761051046 
0.002711420090242849 
0.001790306636826123 
0.004367385655263278 
0.004547139850738951 
0.001681990961530773 
0.002368852648723491 
0.003233310858675277 
0.008697906798003323 
0.003245675921771408 
0.00336317528433581 
0.00116546701415309 
0.004287050964132184 
0.0001051042864182531 
0.001148674889798947 
0.001398278645797341 
0.001493075103918289 
6.797393781099116e-05 
0.004616525611532091 
0.002928395678319601 
0.001843880490804155 
0.002865685060934212 
0.001956534360888781 
0.0004614192120347103 
0.002588307578638917 
0.01675951941666517 
0.002745079497515861 
0.003609352800753327 
0.003516624338061749 
0.002923421522517029 
0.0007830377941087373 
0.006258368396907168 
0.003531411619200705 
0.002473844327948095 
0.0009926915602180215 
0.001155217215237879 
0.001418754260119211 
0.003839951074360715 
-0.002265095437518311 
0.002391847094354072 
-0.0003091171792755887 
0.0002504071907842739 
0.0006938599387462621 
-0.0003155656900521247 
0.0002100456972105193 
0.001531572589229626 
0.0014294126660317 
0.002859351000401463 
0.0006659575414371318 
0.004144087478693383 
0.001618331722246238 
0.001158706229995664 
0.0002000821462190651 
0.01173388325614281 
0.008903571283021151 
0.0007589492588549699 
0.0013272775034002 
0.00625480914300613 
0.002333655467637486 
0.0001298961388556513 
0.004255258907642405 
0.00380823203794739 
0.002877967511934308 
0.0008278151666179213 
0.01119966799018175 
0.006018398760511938 
0.001191902867955935 
0.002596010170210099 
0.003635051900338124 
0.003001316022632568 
0.003377612406140126 
0.001707658203818976 
0.001986327770600228 
4.847869989142255e-05 
0.0002780707745023411 
0.0002183359901814329 
0.0007334581783347362 
0.0001799711040929721 
0.001705783385633964 
0.0006699101552175059 
0.0009119721956912557 
0.002177391984242192 
0.003112874763397502 
0.0006946332533249725 
0.001847777277969053 
0.0007169531504010786 
0.0009253555785626353 
0.003061087451816942 
0.0009750353850997658 
0.001552398778039235 
-1.020302973564972e-05 
0.001556665270421315 
0.00862624787968029 
0.003796550326585956 
0.0008710344789022362 
0.0001928846268332812 
0.001446201328369038 
0.007685417699846488 
0.0003636140824821966 
0.0009002026220757486 
0.004286950287528011 
0.005553882867876404 
0.000941797512566121 
0.00281272664575381 
0.002936274742943661 
0.0005717295701771076 
0.003885920512995152 
0.0005354271390039846 
-0.0003158189497648929 
0.001786958765868593 
0.008623730410741694 
0.0001691692677976789 
0.001009577631282363 
0.003530642545803422 
0.0001475401199084669 
0.00116064979812378 
0.003024765021415957 
0.004138535607890619 
0.0009139574650371047 
0.003402755621307267 
0.0009067177656102547 
0.001736003011813712 
0.0008700411260976434 
0.004669339478893269 
0.002690181797689831 
8.149779073076215e-05 
0.001183086637525896 
0.001790338801068043 
0.0005278258047610771 
0.003651632900806926 
-0.0001343525591221006 
0.001138443004698636 
0.00196522595300796 
0.002141637256829738 
0.001635995261686388 
0.001854811521419016 
0.0007993274433612372 
7.247482913279143e-05 
0.001030136685656191 
0.003506695920400032 
0.003174827975829732 
0.001106078827736682 
0.001593997605908068 
0.009208594163954122 
0.00310549770600943 
0.0005343960284457648 
0.0007186426273875447 
0.0005560061654349057 
0.001053280775674231 
0.005630851022262062 
0.001797892532742994 
0.0014638284436302 
0.0115781697097867 
0.001613120697124233 
0.006556338524020283 
0.001159847595191476 
0.003432673357169265 
0.003673609156987854 
0.001010996517374636 
0.009301566270664013 
0.002315163354593677 
0.0002178571889649762 
0.007748839640920747 
0.0003599979412856904 
0.005706361999389078 
0.0002814909228127855 
0.001565403621437431 
0.005964183450190121 
0.002099499146982015 
0.003126332753138055 
0.003509228350801511 
0.001856595446124877 
0.005121906414831417 
0.001401192731546515 
0.004372070587144731 
0.01164269102917966 
0.002922370931203049 
0.0004176994684358665 
0.0007834512694085238 
0.003288846749312481 
0.0004954364558974302 
0.003145508011099106 
0.0007971124689782006 
0.0001885197504868232 
0.0008002236773568653 
0.001059354366715072 
0.005417681459980037 
0.0009010431949825184 
0.0001868311779375546 
0.0004227471031038046 
0.0004061070860013611 
0.001463805545722471 
0.003992867204267015 
0.0006984417884308685 
0.0009375060877591303 
0.001334229334496085 
0.003151632245181222 
0.001195396753006585 
0.003714659917825001 
0.007040638539770225 
-0.001072865798121566 
0.00250714993587982 
0.000401047956506046 
-0.0008951162252243431 
0.005069965196875652 
0.001938777892128077 
0.001577585832516509 
0.003887208547804062 
0.005143882316485269 
0.00106403630859579 
0.0002589562444377393 
0.002919246047650179 
0.002467913177736645 
8.767441411353439e-05 
0.0006748485494373716 
0.000930190954731553 
0.001025410016055767 
0.0001036007647248607 
0.001043896676212228 
0.001917707059073088 
0.0003341845158092564 
0.002223028930617988 
0.001045884712636196 
0.0001988478503286427 
0.000817317879790043 
0.007324000807623094 
0.001821490254186128 
0.00159636769024728 
0.00221142685114837 
0.001092608809149161 
-0.002202940257627792 
0.003246880413996928 
0.007382255809111096 
0.002687666073868909 
0.005604075692319074 
0.001314802792777084 
0.006181354169457883 
0.0004875229287995669 
0.001403325971742437 
0.01368562350946585 
0.005765708975163561 
0.00258004397464279 
0.002950645926637799 
-0.0002665227532676206 
0.002759397278754562 
0.0006133749406741085 
0.003224076467607767 
0.00137293548428282 
0.007336643950828419 
0.00599306158941619 
0.001588372713988375 
0.001768011787393374 
0.00445373023884768 
0.004040119528452792 
0.00448779416637465 
-0.003087752204709078 
0.003653432786907322 
0.003592418066480183 
0.004899903591495518 
0.004992563414157399 
0.01181157232156033 
0.003666646650413068 
0.005263187489193735 
0.002767134936822283 
0.003353487747393263 
0.001008296008541645 
0.003871855635036207 
0.001029925196011255 
0.004183072825454425 
0.004400076886409014 
0.004263935548721602 
0.000735529372440913 
0.004392867210334947 
0.001889238042555671 
0.0008668664714316662 
0.001519612685257303 
0.009418094205823018 
0.0003391946813286884 
-0.0002385645390583869 
-0.001307831454811808 
0.001093572849663961 
0.003827593712086021 
0.003493285036114035 
0.0005500975904603776 
0.002147526659119587 
0.002200145664201914 
0.006840263482780784 
0.003365684488544405 
0.001909647815264179 
0.002460428860698995 
0.001854550074849418 
0.003477419981673112 
0.004286260582742227 
0.005268473586542715 
0.009689702437888905 
0.001919906890959286 
-0.0003007661390556904 
0.005538314062484915 
0.004075488787287537 
0.004652381554599842 
0.003250365981442868 
0.005949898354146129 
0.002183167886524239 
0.003272079859534549 
0.005399752231272489 
0.0008108042887107736 
0.006753944875000506 
0.007267552074224104 
0.001547965796075744 
-0.001122026414334521 
-0.0002911676078455194 
0.001803881693938888 
-0.0009733895612194394 
4.843940350601809e-05 
0.00121032235574973 
0.003690423607462359 
0.004256248600082824 
0.005663805498291066 
0.006120237641663829 
0.006519857387210842 
-0.002854349551053984 
0.01040843624406354 
0.008617759354852792 
0.006803051934598819 
-0.000453613475235942 
-0.000217277011028021 
0.002046078138920736 
0.0005260974036789605 
-0.004366805140171716 
0.01260575023105954 
0.00641988788410524 
0.002394339495367745 
0.002096038327663421 
0.003430788140599116 
0.0008699974448431418 
0.0009532955797291813 
0.001495105438624636 
-0.0005065620829803725 
-0.003498698426721504 
0.002168459438572889 
0.005351671837547756 
-0.0009823799709116222 
-0.0001885955390723013 
0.005466995203709384 
0.004320342207717165 
0.001955724199653233 
0.006089042032725785 
0.001177001555792529 
-0.00131046564520153 
0.00183692011101099 
0.004406480247611647 
0.003190913358704316 
0.004307469271605576 
0.002216272467784083 
0.0008061732935406882 
0.002323872157263213 
0.005717194901598616 
0.003835170946738843 
0.00234911816159736 
0.0005439411188153671 
0.01135278611821986 
0.008778882964050591 
0.003428626100088294 
0.0008529181783604014 
0.0009739021273854602 
0.001570440985495815 
0.002002691667235673 
0.005735025473390305 
0.005525271543708593 
0.004298153389615146 
0.006883571812235924 
0.004129565263751707 
0.004056942823857391 
0.004182111385756655 
0.006247723512227313 
0.002901301540643279 
0.0002111187643738362 
0.001028438124549639 
0.002362409830475661 
0.00469076456205044 
-0.0006050200840662946 
0.004323361317602027 
0.005613192599646167 
0.0003585776295543944 
0.001789394818265318 
0.004249900817565185 
0.002565927501174406 
0.003169576282408825 
0.0006953267297250677 
0.004493764924313857 
0.006676109856929897 
0.003274653637838281 
0.0001819763454994934 
-0.004385442754193742 
0.001449342407159196 
0.002575057614660129 
0.003773224505213056 
0.003961885499045546 
0.002468151633847054 
0.01057024802525999 
0.004480707644115217 
0.0002416641072883082 
0.0001378883948249979 
0.00565746909920477 
0.005800036474666155 
-0.003778037882192863 
0.001041239852311978 
0.006198363059831329 
0.007508230286723983 
0.003385248998723196 
0.001956709289983719 
0.001584333548132552 
0.006452889523761857 
8.30599540820458e-05 
0.003125136265026954 
0.002777469496665409 
0.007180786467970973 
0.0005287783109682325 
0.003225372885029366 
0.001575471472664936 
0.003807000389661606 
0.00201560429025448 
0.000125262869616204 
0.0009252627663928324 
0.0005969583321267281 
0.004733326670515376 
0.001224300823302642 
0.004739089362093888 
0.004535083090567673 
-0.001179228908310359 
0.005062941090710655 
-0.01453527174442327 
0.02488308930120739 
0.003840424520752949 
0.0297405213547017 
0.01330300796400886 
0.01446652374281937 
-0.007008589372437321 
0.007565646269149823 
0.01852386709562242 
0.01376987534152935 
0.007400576458251755 
0.01258339101693902 
-0.0001329069369458316 
0.003309067568099342 
-0.003456688605557727 
0.01016372370829307 
0.0144811444827813 
0.01280016957780543 
0.03033965061373024 
0.01177229114664007 
0.005173333922340073 
0.011987723550324 
-0.005090293410345411 
0.0133908129670102 
0.005120906296768411 
0.004290803483496634 
0.006311516886556998 
0.02300433890576289 
0.01644780357089745 
0.01633470826031673 
-4.586836783482061e-05 
0.01456563960572669 
0.006695847347287893 
-0.005764603115922946 
0.0182832098096592 
0.01161442283066091 
0.02073062058870979 
0.01540058861320332 
0.004798438813998921 
0.0201800551059769 
0.00118440584621038 
0.01404765065586094 
0.004701453817879675 
0.001371143668893086 
0.002663512888520993 
0.01572533897973913 
0.002250192481344482 
0.008783681615013274 
0.004242305479587124 
0.007876835654166168 
0.01096672654583788 
0.01868158215586552 
0.001450439590149349 
0.006576056529784512 
0.01036241526160908 
0.01773427683642908 
0.009032275525204312 
0.01627216474708503 
0.008740352171188331 
0.005961679737060903 
0.005346047814785665 
-0.00292633177061297 
0.007832371451674537 
0.01704628319474556 
0.00723532824783679 
0.007048376735050069 
-0.006213312324188645 
0.008687680022795345 
0.01281106900086311 
0.0238638724473105 
-0.01001604683834003 
0.01260910286835209 
-0.01539874726321557 
0.01924526091053743 
0.00305915992677932 
0.02590251182562616 
0.01014620958561104 
0.001489651909699517 
0.005498196649487812 
-0.007082906425253136 
0.004888236060754853 
0.0130298726706475 
0.006525601602044149 
0.007055499553079001 
0.01195521665046764 
0.01315692952621377 
0.01294300123798839 
0.0204055102536921 
0.02173857739984708 
0.001313776253434526 
0.02018345126418261 
0.03072116069408582 
0.00634697792671675 
0.009160056256501722 
-0.002577658825834011 
0.01116973196139693 
0.01035729750193897 
0.003953788223641768 
-0.0007094735111652472 
0.01601526211641164 
0.007614205203512241 
0.01620225734194401 
0.0073045953043446 
0.001048307784630112 
0.01165973145480143 
0.009580674536803648 
0.0005100314878949534 
0.005565769001787273 
0.01319165781502036 
0.01759363267466331 
0.002371412233942449 
-0.002026141901293414 
-0.007399888707270918 
0.01524963801161638 
0.001600276467659264 
0.01026812637435679 
0.0008718149842625842 
0.008759667970628698 
0.0009642034783292318 
0.009094275713493418 
0.009210732825354723 
-0.003959680368190713 
0.006951221612819177 
0.008294493629197403 
0.01277338997550329 
0.01629400603568621 
0.0186339421489584 
0.01293684004802726 
0.001970473091600851 
0.02122095848489085 
0.03433065782259631 
0.0009748254073747572 
0.001188282411240117 
0.02219526968025285 
0.002735331730278323 
0.01162607890178885 
0.01622950428999318 
0.01309050835445187 
0.02069818722820512 
0.02850154221298201 
0.01070009631613981 
0.01966533550225804 
0.01455785514476399 
0.02138506071853046 
-0.006501212298121467 
0.01768541483638471 
0.004997073824803287 
0.01221591757410528 
0.02753254605654682 
0.007623302289404431 
0.01870898830909455 
0.01488160769730611 
0.0004802834610631806 
0.00708040984674005 
0.0154039024219198 
0.0004624985370505349 
0.007582729782178707 
0.0005478405374769106 
0.01449266089655336 
0.009844999093345875 
-0.0002686391011890737 
0.002833847575573574 
0.00736664917623728 
0.003444803763878761 
0.005966519432228433 
0.01627125062304925 
0.02099690235588697 
0.005130884980245115 
0.01590639676729711 
0.01042715732114317 
0.01674388823372233 
0.004913814213922438 
0.01231621601658965 
0.0129746937101264 
0.009025981447952443 
0.01135103771764881 
-0.0004751181797342784 
-0.002800218433240929 
0.0122558624573419 
0.005588007441055223 
0.009424055396641743 
0.01668361939869114 
0.0008562588792549952 
0.004088691854373715 
0.01258963326007907 
0.01316526244150035 
0.0001609758731303815 
0.0134285504052963 
0.01682033656428671 
0.01199889062894948 
0.01162878175096568 
0.00437599114377187 
0.002225436696405172 
0.006849226143080419 
-0.003172357833999277 
0.003943229580795527 
0.02013373706509968 
0.01121451319402023 
0.007885716330482132 
0.001922156337512867 
0.007769251234318902 
0.01365868372411254 
-0.0001339118213917603 
0.003025767948987042 
0.007136199313437066 
0.002334124455588115 
0.00555316620149577 
0.002503471616998478 
0.01088149221602033 
0.002734127416911389 
0.00501925849612377 
0.004180166846664334 
4.165276302215396e-05 
0.001479047969711822 
-0.001839616599269585 
-0.0006005047039384944 
0.005645906519503713 
0.0006058875629315611 
0.009942880234015246 
0.006552558303370444 
-0.001140393429378026 
0.007577155062805631 
0.01546661297553415 
0.02005687862649345 
0.003866841273315071 
0.003297788904595752 
0.003694057736416352 
0.006084953819060218 
0.002844996722341752 
0.00860866762160593 
0.002829043667789781 
0.003624691205954474 
0.00285622958153485 
0.01469000883589625 
0.0191390982815938 
0.001761064013023357 
0.02401031036931814 
0.002973213376359541 
0.003349343210861009 
0.008305033355967464 
0.004587944122981617 
0.001941306182955707 
0.001520999201884292 
0.0006593518722578692 
0.0001596500141166087 
0.004292158392688367 
0.002032278811534817 
0.00152009282781039 
0.008084544591079816 
0.004247746859079999 
-0.001554060025989451 
0.006729072624462387 
-5.532868603896799e-05 
0.001521129647756645 
0.004807256899396287 
0.002188622211366627 
0.008274946132604197 
0.01234478916181836 
0.003097364243062744 
0.002159676778611039 
-0.002011340325452158 
0.01243627250204924 
0.0007241609510404755 
0.0051437140682659 
0.003911405868779689 
0.004211582554817605 
0.01389442581780975 
0.0003954857803778042 
0.003317467463338027 
0.008582325203981804 
0.008835595004856875 
0.007571261542866479 
0.003111106727305279 
0.00531813855791038 
0.004627572901755878 
0.01055141189314271 
0.007176401699578828 
0.0009460276439644705 
-0.0003162020047760778 
0.0103983964246096 
-0.0001991033567192095 
0.006024739328400565 
0.001759889766481409 
