solver_type L2R_L2LOSS_SVC_DUAL
nr_class 1
label 2
nr_feature 90001
bias -1
w
0.004661431742694592 
0.02273284669834342 
0.005672174649585967 
0.005345931369106743 
0.005028071546412037 
0.007661834898196239 
0.003944205409296013 
0.008461456397369806 
0.004325199478506739 
0.01640287920218716 
0.003469145334898887 
0.005485035522996508 
0.004062395123603416 
0.0003115130315546227 
0.003526553966733687 
0.005808658686240854 
0.003247478201851871 
0.003532605703853046 
0.002845494717316525 
0.006587107750590835 
0.008356215527750361 
0.00317830705824798 
0.004374516787611715 
0.02017960534120858 
0.01956140209025153 
0.005665776545428339 
0.00750111530784822 
0.01601885360353398 
0.004214227854449695 
0.002543048772756447 
0.01730458329904597 
0.01549455702625433 
0.002149810337937105 
0.007722313081010249 
0.02539869494004758 
0.01548585285638465 
0.002846139748287291 
0.007987101746319763 
0.007832338026912581 
0.01488439349052412 
0.003712442966553898 
0.01013490726274963 
0.004358669826186692 
0.00054543919467841 
0.0007174400903952745 
0.002085316536735885 
0.003181127558388782 
0.001016473299801077 
0.00473298860567713 
0.006153242745665813 
0.007051457381695995 
0.002845360657886176 
0.003688604698435312 
0.002836099974676206 
0.004417456039272659 
0.005531869264435625 
0.002005256986944265 
0.01428554066732988 
0.004952380036012435 
0.007298177693810731 
0.001780930299560631 
0.007039394611239775 
0.02125728383796017 
0.01649169645862151 
0.003467269490645927 
0.006836262602567418 
0.004527804950986827 
0.02275819119050018 
0.001048909188812467 
0.001829838186200297 
0.006059564617177657 
0.02181380114698701 
0.005952558739202869 
0.01772142597575775 
0.003788272172852426 
0.005589865220430964 
0.004796441913261239 
0.01454508420329873 
0.001549308744557009 
0.004063247469042457 
0.01466158445873429 
0.000877080860525575 
0.004389896462369532 
0.005658093245282048 
0.005271667541576083 
0.0043536863337553 
0.006546757573483491 
0.01274313642673298 
0.003569551113905469 
0.004813836589876397 
0.006049464981706534 
0.003082082793379458 
0.008000203260527975 
0.01919848250479725 
0.006115435462863112 
0.00434990660132666 
0.00727988207134015 
0.003880379290526483 
0.005217178248864166 
0.01705755609720091 
0.01234979656132039 
0.002419546362160125 
0.003294989550099714 
0.003508756697445855 
0.002342330823243624 
0.003260496099760496 
0.006032991683175628 
0.0004908406896145439 
0.003875978213590479 
0.007149212919157578 
0.003267792088002873 
0.002468192172522101 
0.01243293319621049 
0.02423971489990498 
0.002269882036448099 
0.004330854921077542 
0.001568874531865842 
0.002128408630797936 
0.007725416449263584 
0.02143180415994373 
0.002173806162771806 
0.003710909758491787 
0.02140947853378961 
0.006467553157951084 
0.01577702051729835 
0.005435102008743461 
0.002622730528737226 
0.003800375687568268 
0.004657318188770321 
0.02338588849088418 
0.01613323393501126 
0.01564390476383416 
0.01991977856686179 
0.00166716543261969 
0.02267410253731555 
0.004212912226898854 
0.006081018038993894 
0.01833952489842971 
0.005721999712203033 
0.005972265752281935 
0.005714843807766073 
0.01487031343913367 
0.006683189187421397 
0.002602493467522926 
0.00366357678655887 
0.02285193601925228 
0.005159379183301289 
0.001145763993965812 
0.006893289574498435 
0.01241681097078541 
0.006230382633556392 
0.003513396274825805 
0.00185447628048191 
0.001274322961409778 
0.006235954808965532 
0.004750452854782381 
0.009349892040611539 
0.002944598138876943 
0.001823365344611463 
0.006405882725919734 
0.001349151314088262 
0.006914344396089615 
0.01717597772348137 
0.004486254596912789 
0.003247204544013938 
0.003923221706739182 
0.002894374385236074 
0.006404019445586099 
0.005381743406383951 
0.01543708784487822 
0.00309700731607499 
0.007497615593081999 
0.005637254439596882 
0.003733380234195035 
0.0144859167670035 
0.004854041178592116 
0.006542454576668862 
0.01783156834213102 
0.02025895758002674 
0.001639878186764176 
0.006195624666918308 
0.005036385798887628 
0.003304357674768234 
0.0003748148635967998 
0.005749243419563301 
0.00606637126297172 
0.003122128183932188 
0.0007007624509596616 
0.001803717735267802 
0.003580417960173807 
0.006179016815654263 
0.004888779342962693 
0.00462364574604901 
0.002517820934897153 
0.004809052600647278 
0.01571619466760418 
0.005097369880794156 
0.006781189929102541 
0.01701327385780993 
0.004138664892755379 
0.01097311386643503 
0.005021470239729882 
0.01125785071270106 
0.006133970907166902 
0.00653497109625761 
0.01177477401951954 
0.008408364863635592 
0.003874747966594167 
0.00821309079888536 
0.003623988815756751 
0.00514518178949886 
0.01206128472151877 
0.006279716300753947 
0.007420797616984511 
0.006972109676212382 
0.005554161306166532 
0.01316241079687472 
0.006313339664566576 
0.007093377862006338 
0.005932881876120063 
0.005032343047986815 
0.006189464021863346 
0.00764383456965749 
0.006577629896994946 
0.00757464087953525 
0.008579123753642365 
0.007920918883858964 
0.006299915853986649 
0.007951080800360459 
0.006615583516278046 
0.009593851730809833 
0.004874676902857204 
0.005637237821189783 
0.004414309107448013 
0.002852917031146324 
0.005253680036192497 
0.008174781825315091 
0.009187187691369648 
0.008966490386411927 
0.007559055561884322 
0.006384977716737904 
0.006738739833010969 
0.006247967540440296 
0.006181935301278339 
0.007731488304399587 
0.008239618970157377 
0.007854338501050424 
0.004915451521405469 
0.001875375926422392 
0.005902681530176134 
0.006537052637352047 
0.007661245267781229 
0.008007749533238356 
0.003667889260413232 
0.003709023735195801 
0.007159131833099119 
0.007061933475546631 
0.01047654892098328 
0.009877687636833287 
0.01616880145181602 
0.01697027198113535 
0.008259787535952827 
0.003371160339089574 
0.006962564237026254 
0.007878149093110229 
0.003345541131189639 
0.008854054713671258 
0.01078431468856828 
0.007659821140446737 
0.004598723834928016 
0.009471103420404256 
0.00770639730518555 
0.005026153662302408 
0.008459873852029761 
0.004933323478313262 
0.005012031798975451 
0.008803107773707297 
0.008082554035004623 
0.002898347916606541 
0.009694536781706026 
0.01069592161598072 
0.008963781232923325 
0.004485889456318858 
0.006498468237367595 
0.007108856075166712 
0.005352152128740036 
0.00195270644192815 
0.006072938645814317 
0.005002745452968659 
0.01213108043365482 
0.004307347975419804 
0.005856277848205332 
0.008700350515415426 
0.009439557786270656 
0.00502525766131144 
0.003769522805400929 
0.01550119251525833 
0.005239731871549543 
0.008909272060708448 
0.006584769939678007 
0.009282937515273303 
0.005769198389368103 
0.005734367839635984 
0.00624252095352669 
0.008146987891555102 
0.007453413776211452 
0.00749411582681488 
0.003437582652910674 
0.007987485108996637 
0.01073770806558457 
0.005412380418350844 
0.004604336075657648 
0.007570134530879903 
0.01010635247451997 
0.007508585007347465 
0.009607695387769935 
0.004401135803745365 
0.01007585459099726 
0.01096105860427645 
0.01583687129425874 
0.004622727045518651 
0.006682598366251774 
0.007749264518699311 
0.01233406592291177 
0.006482375471125521 
0.01269944419660875 
0.006237150936004369 
0.004141249665635559 
0.00536785910384217 
0.01021458466338829 
0.004592988573070251 
0.009114941686416337 
0.006017987792436177 
0.009263085998617998 
0.007573399482306947 
0.01025178248730915 
0.007013412431786295 
0.009081908964330438 
0.004392625050288541 
0.00643845982949049 
0.007391707279281483 
0.008869897788461787 
0.008644397902684356 
0.006856113274589621 
0.005333328847163788 
0.008831952989123528 
0.005475246815193037 
0.01237520563668115 
0.002782440002581492 
0.003653461711817908 
0.007336640386565415 
0.005787922238679454 
0.007515593336538735 
0.007935004366304649 
0.006169515457254181 
0.008216858881910781 
0.007279595924789314 
0.007173999139339355 
0.007312822081482511 
0.01776539759300911 
0.007892805778456542 
0.007192150361084898 
0.01075417301199592 
0.01037323438626988 
0.004114639155714391 
0.01348428643507971 
0.005377033194139341 
0.0065818441577213 
0.008011340655733909 
0.002273011850245615 
0.01167132946499742 
0.012629009500248 
0.005583812500473678 
0.01156658351659621 
0.00880880195269489 
0.009227663108229098 
0.01443061698295092 
0.005629040005001594 
0.004786098042783731 
0.009944343866354273 
0.004597596040757914 
0.006291631575929846 
0.005767164914824329 
0.006262250011410658 
0.007114516666274604 
0.007472307680795005 
0.01156196603995622 
0.01000782291681509 
0.003904425639468803 
0.005795741179667341 
0.007557130438416538 
0.005721486025701202 
0.007635509336229257 
0.01060758050151681 
0.009371581282686984 
0.008524123006278311 
0.00375288674926062 
0.005375035388715375 
0.008629031881260813 
0.01189240029785701 
0.0008562309055769693 
0.0047337230436355 
0.001167398424119516 
0.001556020358217158 
0.0003856986488758329 
0.001152220439351589 
0.0008714682686133586 
0.001371734642787554 
0.001109544583893219 
0.003349998302531436 
0.0006918069822899899 
0.0009342652906084757 
0.0006880680872093456 
9.625259876178911e-05 
0.0006405938560535148 
0.001145505719248413 
0.0009328274455602036 
0.0008327408640522482 
0.0005142649913975428 
0.001358222705321159 
0.002458287355637582 
0.0004481842857677195 
0.0008335529929120588 
0.003026192929032737 
0.003314590437890208 
0.001087174621212643 
0.001437967628656412 
0.002328371827120535 
0.0009854138575181779 
0.0003952688228285979 
0.003255836400801547 
0.002774038772976751 
0.0007947841252939 
0.002469134356389293 
0.004716561969062848 
0.001351247729422275 
0.0009845790699389964 
0.002396192628950563 
0.001142058070944319 
0.003179479361332576 
0.0009974698700272644 
0.002398429502507172 
0.0007686191331746607 
0.0001660952647480007 
0.0002489284771513333 
0.0005098972633415652 
0.000457091582227695 
0.0001869735692585752 
0.0005082278661129263 
0.00136087047642028 
0.002161099286768821 
0.0005376914919961889 
0.001116636425141008 
0.0005691443593529533 
0.0004308119848711729 
0.0008299247751581842 
0.0006499723160566382 
0.002554315144229653 
0.001345781798379833 
0.002497194412702229 
0.0002353007697339694 
0.002500046885753228 
0.003650950123428711 
0.003402170458614235 
0.0008228460714025758 
0.002717893796508829 
0.0007425582109362858 
0.003229116242582908 
0.0003206469951608994 
0.0003300443178552167 
0.001164576436592236 
0.003620546179535255 
0.0008100275511050217 
0.00392049223408171 
0.0009606803598706466 
0.001664400558997136 
0.001183317569320965 
0.003009430978439009 
0.0006194503062945927 
0.0007184919524230791 
0.003300812498337508 
9.811154664230272e-05 
0.0004838105646068396 
0.0006491978605629655 
0.0009734638211187125 
0.00100933289716303 
0.0006092036908432237 
0.002045262319752433 
0.0007731752991014208 
0.001547537496848448 
0.001072607693012346 
0.0007087600992322764 
0.001228722349210772 
0.00380145657228796 
0.0008844082833428857 
0.0005851763869567324 
0.002009891338724359 
0.0007585112551700358 
0.000751695810771347 
0.003213349729879774 
0.003471442643454216 
0.0008492158832316533 
0.0007380732168215704 
0.000611862084883086 
0.0002930630818495184 
0.0004757066245813167 
0.0009611193784694604 
0.0001422055763557536 
0.0007896231752434612 
0.0007419132582778212 
0.0009620311603270976 
0.0005223084627639967 
0.002595760678876344 
0.004574539968300693 
0.0008894263438477141 
0.001850248204309001 
0.0004884106928874325 
0.0004567203460165491 
0.001567137842810877 
0.003696640396365998 
0.0006932314092748623 
0.0008282804209564308 
0.004537508683244354 
0.00229830955730484 
0.001697131623692012 
0.001006921507712548 
0.0009608070684879104 
0.0007902854324872952 
0.0006554991675821141 
0.004006731664453507 
0.003552405189430971 
0.003109971829521255 
0.002422509661371438 
0.0005782059031147921 
0.003875356155795716 
0.001582070780869866 
0.001904186573305216 
0.001927072595862823 
0.000491838592634899 
0.0008734594880121333 
0.001470743341721736 
0.003123399621912671 
0.002152592901213239 
0.0008324746206179106 
0.001151358288698044 
0.003390259755245458 
0.0008148324825139698 
0.0003025020411307856 
0.0009542719581962636 
0.002059431774636393 
0.001069028127010719 
0.0009923028400653381 
0.0003682171529701465 
0.000272617073602384 
0.002158350872982374 
0.0008899072869754718 
0.002168023277795476 
0.001036664097489942 
0.0007384329540140424 
0.0008714370720905105 
0.0003997888608678279 
0.001271688271530258 
0.002897751928561156 
0.0009931900515809217 
0.0006051194611446132 
0.0005260044668881053 
0.0007497932266307694 
0.0008324814330958679 
0.0007108685087245531 
0.00168070572081807 
0.0005547302040695693 
0.001234980019305116 
0.001039139334997967 
0.0007412798190748553 
0.002765760966892729 
0.0006451808558663815 
0.001205346958255449 
0.003986783373104855 
0.004125330248110928 
0.0004208626703366023 
0.00195493907377621 
0.0004162061184200664 
0.0008041968851368092 
2.805264002184773e-05 
0.001360488704498251 
0.001117023855786749 
0.0006698133940560732 
0.0002081659440334235 
0.0003992730923927205 
0.0007903526304285596 
0.001002358410993049 
0.0005728739702671389 
0.0008671344361895299 
0.0007265761198018947 
0.001282443164775383 
0.0033476584778103 
0.001727803975534268 
0.001029434375273504 
0.004179545442471112 
0.0008923490614337922 
0.001686311724227991 
0.00518246125663059 
0.001633382951622263 
0.002757434906147106 
0.00134962003657526 
0.00210458453813949 
0.0009062411659990009 
0.001810375319534785 
0.001651747992496593 
0.005770086362698229 
0.001018042806445651 
0.001665087793667912 
0.0007109442169013581 
0.0001420776975096459 
0.001253465231567374 
0.001372165149960539 
0.001304732760045707 
0.000622970016392914 
0.0009486512958103004 
0.001228846769579566 
0.003544688556074518 
0.0009095715456927371 
0.001348757651667272 
0.004129698294495013 
0.003957982625866414 
0.001932739474104462 
0.002534001174505321 
0.003534288681013831 
0.001766032606521019 
0.0007064711093562704 
0.003890245750381462 
0.00341239026596331 
0.0004723168516491064 
0.003846344336812228 
0.005281239038526774 
0.003023066229883698 
0.0009140514720752733 
0.002548553433533907 
0.001716879955978548 
0.003700366640313293 
0.0008103167519106309 
0.002585573223463133 
0.0009581414480969927 
0.0001237277995845305 
0.0002803061120085489 
0.000845310392554912 
0.000743956534939303 
0.0002867504181352858 
0.0008114021138739607 
0.00225397553886653 
0.003305682747950282 
0.0009016146036685951 
0.0007286307218148533 
0.00070882102801077 
0.0008193817610763958 
0.001607806460227413 
0.0008125823784480518 
0.002987490967244164 
0.001720482953332828 
0.003465095066459197 
0.0004625937806632392 
0.003037085439600139 
0.003935822756718934 
0.005226927440898783 
0.001518203293876753 
0.003916020204436087 
0.001551622461989567 
0.004616066507677196 
0.0003257484128521595 
0.0003417636251431131 
0.00105590032340865 
0.005767020655152597 
0.0009106445808562299 
0.004765551607380375 
0.0007613599386739815 
0.002001634435202378 
0.001137249652309392 
0.005424756714609136 
0.0008792225619501262 
0.0009837773744738243 
0.003002898453386042 
0.0001690665480252855 
0.001438307176009422 
0.001166925599458749 
0.001823831005064145 
0.001531043535083488 
0.001769146714105503 
0.00276488942766303 
0.0008916005098758144 
0.001112198843871239 
0.002377161749901037 
0.000804255264255739 
0.002603814484186024 
0.00442397839612085 
0.00130237400009327 
0.001006226827490392 
0.003156999795490595 
0.001084764676468821 
0.002037206065383664 
0.00440565384383418 
0.006077676517136773 
0.0009586220171124505 
0.0007302736841675449 
0.001094612961537738 
0.0005397932132737382 
0.00106285528082742 
0.001709174973763354 
0.0002205687451119313 
0.001353129432452397 
0.001397330656505948 
0.0007714995483084387 
0.0005308745244874257 
0.003931137261483759 
0.00490758085986256 
0.0005550429088880014 
0.002594928421017087 
0.0006292313630644935 
0.0005515000729489939 
0.002850716349919069 
0.004309425482919292 
0.0008025402730347669 
0.001030923579725702 
0.004198462999174135 
0.003404573689815244 
0.002911500023420119 
0.001561984096846383 
0.0005785908749826837 
0.0008484429267535268 
0.0008208522639142565 
0.004620744390078839 
0.005937033606559928 
0.003287678776910632 
0.004500555232559524 
0.000925305886065545 
0.004944216299198874 
0.002156955506189833 
0.002766518104273151 
0.003969731288710233 
0.001383562662637585 
0.00111605909710261 
0.001266469672067008 
0.004401090589110539 
0.002159371488357659 
0.0008425593265681742 
0.0009816371744973918 
0.004441541915439389 
0.0008225434157944212 
0.0001631736942712512 
0.001558057283124389 
0.002577106250039867 
0.002004318192560139 
0.0007741800087103409 
0.0006113459154625262 
0.0004596928736535191 
0.002623512290631965 
0.001386370252875372 
0.001842940034806623 
0.001788070269836056 
0.001207896089878039 
0.002084734045654506 
0.0002898847121613709 
0.001744995086363861 
0.003493572836553913 
0.00176702323701603 
0.001177392715446323 
0.0009571515628744573 
0.0007001443773906503 
0.001379389951105641 
0.001335543563750518 
0.004256838124956953 
0.0009053234115696443 
0.001809698868138342 
0.001924922952702929 
0.001793095957073409 
0.00437422954490088 
0.0009395212558633637 
0.002208182671006828 
0.004609126313495092 
0.004587142562965602 
0.0003691756968073873 
0.002661566701194361 
0.0009061658601373157 
0.001332037143030211 
0.0002502867781308377 
0.001874614719472033 
0.001794723514786747 
0.0009720514305041476 
0.000262663291564312 
0.0004799969721997419 
0.0005824730094115479 
0.001594423446731632 
0.0007144803086596464 
0.00156012699127345 
0.001002583395091258 
0.002100333678282127 
0.003095221313043162 
0.001629917257880055 
0.001354939783047711 
0.005810156973839732 
0.002380719223015029 
0.001285633731215688 
0.005895755741642186 
0.001050504528063855 
0.001925948978107781 
0.001008598288951207 
0.002004483748542982 
0.0006715116417272216 
0.00167641293261457 
0.00129962915941267 
0.004570228438490246 
0.0008173498678854125 
0.001610689625321957 
0.0007763666406460246 
0.0001329265750570625 
0.001039860139552046 
0.001331097764462628 
0.0009948156310364701 
0.0008435706343988327 
0.000736113448588992 
0.001383256355871769 
0.003220110849148011 
0.0009639144867838902 
0.001182999783616789 
0.003779279079184789 
0.00325821272059854 
0.001697778746234424 
0.002546469310290437 
0.004087778405952014 
0.001184166781342863 
0.0006073745186299239 
0.005774742651258759 
0.003623565845938046 
0.000826123843859672 
0.004119648576370543 
0.004904590430372769 
0.003412533980356501 
0.0005697538719187905 
0.002410801534247577 
0.001678214127309128 
0.004417570689307605 
0.0009943322175523918 
0.003463530673774779 
0.0008649358174207755 
7.496862359538351e-05 
0.0002198324469684864 
0.0006946909239187197 
0.0006432833979263693 
0.000213726960529683 
0.001072789196918367 
0.002262471566712604 
0.003277577307242802 
0.0006752631767605251 
0.001022449077907482 
0.0006380714838247194 
0.001418495117054649 
0.001431593365913496 
0.0006132795690012313 
0.005736534268950692 
0.001477855149133573 
0.003137244460658401 
0.0004748982441078846 
0.002459146154936017 
0.004148924405539851 
0.004553534363167573 
0.001215978520135675 
0.003352911643923536 
0.001278081605860216 
0.005233694501031955 
0.0001768592019864929 
0.0002814571735128283 
0.001382530092683437 
0.005990990735757123 
0.001192121844763435 
0.005318403741097575 
0.00108968326394247 
0.002183247565149183 
0.00122773581650372 
0.00480137458135176 
0.0005874513863807194 
0.001042800537366869 
0.002192219062457602 
0.0002028304788819496 
0.0010834331284422 
0.001545127329389721 
0.001544496408990293 
0.0009779690427563425 
0.001816470133340729 
0.004732084609821959 
0.0006265669975289704 
0.001411356868183185 
0.001909592037599748 
0.0006275188019528112 
0.002641403134092887 
0.004226082133520488 
0.001473858145709234 
0.001142762995765788 
0.002940958103335265 
0.000831705301885055 
0.001475677530016198 
0.005216577410834658 
0.004513603155206249 
0.0006395839050301275 
0.0007570300377458569 
0.001092152999171685 
0.0005181138485198422 
0.000704701741124299 
0.001539033207018921 
0.0001722067212540642 
0.001168914521245303 
0.001581725461335209 
0.001087358194600316 
0.0004795151858573559 
0.003603168894377806 
0.004794750261482175 
0.001007900911045829 
0.00171119595398971 
0.0003355650366913611 
0.0005830453400003681 
0.002300150577218751 
0.004328227430645724 
0.0005395969179174152 
0.001056896938128544 
0.003659393768742868 
0.002585173792927959 
0.00329448489177341 
0.001159562607467592 
0.000997732565834884 
0.000584404402265374 
0.001007139959160407 
0.004400690669941658 
0.004974078882414791 
0.004460638817264525 
0.004659622625626335 
0.0008707533635369529 
0.007935341671425823 
0.002212264518010613 
0.002295789230593159 
0.004431004360543444 
0.001550100869351747 
0.0009338231773186546 
0.001436272540276581 
0.004046280889950907 
0.001920230590653268 
0.0005619927813731233 
0.001070438649764307 
0.004091911298955904 
0.001238711113375362 
0.0001763616425007671 
0.001646475537291628 
0.004049287871994709 
0.0018993793775111 
0.001073795474953214 
0.0006792566917820625 
0.0003991214290493946 
0.002616322886888255 
0.001110235827679222 
0.001286563641199579 
0.001016067311739446 
0.0007941516292164137 
0.001784510382454566 
0.0002235835721849593 
0.001906103298658634 
0.004141506247115077 
0.001566217927377998 
0.001177887171131137 
0.00102949539799122 
0.0008615477030266208 
0.001296595622043829 
0.001659842748154939 
0.003065744058825315 
0.0007578789547124071 
0.001890480725645313 
0.001590971516523403 
0.00105003641287904 
0.003672383209158382 
0.001165965435931364 
0.001990503094923956 
0.005606294291072017 
0.00401966530801458 
0.0002342720478913486 
0.002874234355569433 
0.001222272072114879 
0.0008090923737941102 
5.910467269075109e-05 
0.00252712781241347 
0.001692115359969502 
0.0006520816284574037 
0.0003013497266367276 
0.0002384842887959371 
0.0008337969764583312 
0.001407690862408419 
0.0009039255629410731 
0.001189810961149375 
0.001015276899955186 
0.001903691622081986 
0.002231871547059349 
0.001403584736947326 
0.001342617374155049 
0.005641860251740551 
0.001140143753557997 
0.001279440873658451 
0.01190838292784076 
0.00188644809391902 
0.002195240961727677 
0.001410027966382754 
0.002555099530861948 
0.001494558969006325 
0.002861451852586011 
0.001278415932532082 
0.004755466244799319 
0.001434384158732255 
0.00209538869639526 
0.001214568142894345 
9.627460949479298e-05 
0.001112746124536005 
0.002105465669768259 
0.001329324322225444 
0.0008250708539587343 
0.0009623850696544882 
0.001445557559322221 
0.003174990050802538 
0.001064367925698468 
0.001726779438968511 
0.005881548403726252 
0.005635244835988987 
0.002110564479573333 
0.002822282009972303 
0.004923919889678343 
0.001574955379589272 
0.00109370060791187 
0.00785557320435642 
0.006093319986204593 
0.0004051248963153286 
0.003644665773803957 
0.007060603109060349 
0.005691714791035725 
0.00156701971554581 
0.002819047074006368 
0.001984416664264261 
0.006352580874563976 
0.0009721009869459478 
0.004081813704383246 
0.001228042116611691 
0.0002977540872832573 
0.0002853984620408666 
0.0006226724716306921 
0.001100013601579661 
0.0004402613530628405 
0.001218827854703116 
0.002775234010067327 
0.002862649366967138 
0.0007198038934488578 
0.001069108672600967 
0.00101748738913703 
0.001884899824208208 
0.002126947779570229 
0.0006642659940526768 
0.007324414707739665 
0.001629799699653531 
0.002911714363347005 
0.0006333939670989503 
0.00247163953921541 
0.007499683938220551 
0.005085616243111383 
0.0009149866108139896 
0.002448530981851747 
0.001394223279443312 
0.008553934056280132 
0.0004697593605606654 
0.0004209367985105442 
0.0013248297856157 
0.008142554439577201 
0.001673013331920741 
0.006685466097229094 
0.0009702221843669673 
0.002487227643724663 
0.001353584786857581 
0.004950417324241861 
0.000577052313664018 
0.001171424363870643 
0.003234886058960938 
0.000462578709329123 
0.001594290990732241 
0.001721873032260022 
0.002358115357195593 
0.001103784088830331 
0.002740897907973296 
0.006675308465404571 
0.0009022092601979668 
0.001580276417665746 
0.002308164692005808 
0.001187828649927998 
0.002720629523857672 
0.007106717904173484 
0.001935879544305833 
0.001958413678417097 
0.002483985804286602 
0.001645207473734742 
0.001911978530408315 
0.01001265890661632 
0.003979784523692222 
0.0008067825533413697 
0.0006488250048294265 
0.0007784072774042636 
0.0008232566561344829 
0.001295203567903172 
0.002206416827835161 
0.000162083343906946 
0.0013004458037763 
0.002004883475058658 
0.0005631829462822098 
0.0007938790550414565 
0.003396906053135632 
0.007925595032247212 
0.0004437958255216974 
0.001928530229474742 
0.0005779097465371673 
0.0008020606101106071 
0.002884177167919185 
0.006467167031493117 
0.001095565127666318 
0.001352566288848744 
0.005762988203567855 
0.002261037511134269 
0.004969304421941204 
0.001746278770667551 
0.0005656014957775313 
0.0008426506099958703 
0.001245016328168388 
0.007794263731646521 
0.004825794197278526 
0.006146395508110233 
0.007075081928462693 
0.0008513709229434359 
0.01107641796181228 
0.001890492482484471 
0.001892536421452895 
0.006956558163103284 
0.002340718498810391 
0.001290557552543605 
0.001678916516061483 
0.004480119577344835 
0.002302169774627656 
0.001459292566500207 
0.0008767263946320577 
0.00657005626168181 
0.001039436942774092 
0.0007626608778232397 
0.002397912992436724 
0.00536951001243541 
0.00256267652461079 
0.0006994226409285873 
0.0005837998303013143 
0.0005570699396276179 
0.002380230942508603 
0.001470124440895258 
0.001795937055840705 
0.0008377073773654174 
0.0007239764425332416 
0.002572045374366756 
0.0007529994315962211 
0.003464336800376343 
0.007018495417662388 
0.001369605158071848 
0.001335200408630292 
0.001311457726049849 
0.0004682021305715774 
0.002224713690622575 
0.001921161733174028 
0.004436790645605707 
0.001161277423202503 
0.002595291507929534 
0.00230095598690497 
0.001393290850422367 
0.003725135393702065 
0.00127219493333711 
0.002068834917682296 
0.01085986763218881 
0.006273121889841501 
0.0006240031270916165 
0.002406457409669209 
0.001432507366681371 
0.001364139507987175 
0.0001148588753804959 
0.003247712271633391 
0.002520071579903414 
0.00101861081437127 
0.0003182903734477782 
0.0004723104907709134 
0.0009566389161984894 
0.00215255118668818 
0.001099414864767788 
0.001624473956992957 
0.0008320156906173884 
0.001683980517563784 
0.002953412667684533 
0.001415391436885885 
0.001996431306999265 
0.005582483414444091 
0.001579293827886536 
0.002567122110885413 
0.005331234206242323 
0.001344890977854825 
0.002256575677740773 
0.001667848241372366 
0.002618631168204567 
0.001012230021878464 
0.002372354748427418 
0.00200093480527708 
0.006009887811971579 
0.001651417212773235 
0.001428005182393748 
0.001027497658277548 
0.0001023163150325871 
0.001199662182661278 
0.0013215078596562 
0.001457885619634395 
0.0006559330910820056 
0.001356746273292618 
0.001490232875179224 
0.003873954303712304 
0.001435461074628319 
0.001207235738785976 
0.006138972208272036 
0.005783388601799885 
0.003011994884388179 
0.002530708979289348 
0.004464261644940575 
0.001674391104765587 
0.000610555423944702 
0.004195881228844611 
0.003578456161482561 
0.0003863720505320796 
0.003292471439107133 
0.008702465197139245 
0.003634782587652068 
0.000811849582394425 
0.00302003970598735 
0.00262450821269348 
0.004071561332473354 
0.0006003823066622953 
0.003095834110201649 
0.001283973586881041 
0.0001302696785848588 
0.0002273943482287795 
0.0007211111777192461 
0.0009624367173121547 
0.0002143827888057468 
0.001544483714906398 
0.002988071150076831 
0.003191657220566779 
0.001540827228105184 
0.0007524699026677686 
0.0007424173523811475 
0.001344482471258048 
0.001803382103452082 
0.00119215994681492 
0.004306619499610176 
0.001952800038790689 
0.003457740155485853 
0.0004528961228896157 
0.00259133598935883 
0.005659343748545016 
0.005448867403610682 
0.00197829462476686 
0.002802117591085684 
0.001672622523870106 
0.005972324736054677 
0.0004929125014503771 
0.0004198853201862808 
0.001257644733683769 
0.006694317101930379 
0.001603289655373225 
0.005766765746140714 
0.0007999600565949306 
0.001888852617414667 
0.0009384810392811474 
0.005091568096196935 
0.0006262981876182654 
0.001279931028735004 
0.005733313127149802 
0.000190989532172785 
0.001162984594282587 
0.001979680302615109 
0.001393380988600834 
0.002492911047157267 
0.001857374105578988 
0.002836448022416849 
0.000853049396276156 
0.001085790278027873 
0.003142337757304277 
0.0009697124428514574 
0.002844914411295809 
0.005054877171143335 
0.001969994073020744 
0.0008299467604839802 
0.003191001017841286 
0.001330753913739488 
0.002612085840402149 
0.003512722005810509 
0.004770324238486287 
0.001193483294478262 
0.0007479280511716423 
0.00191754035842388 
0.0005585786442026753 
0.001374515774182976 
0.002321864113536781 
0.0002010952955477616 
0.001941039410967921 
0.002393589849157921 
0.0007530604118234903 
0.000861052975698632 
0.004175109437734128 
0.007000862509314465 
0.0004560710627886894 
0.001589529734345475 
0.0007856638357539065 
0.0006290590693265725 
0.0039144254951221 
0.006453477589387116 
0.0006194054123730078 
0.001062961555159734 
0.006980575215530208 
0.003015971893324445 
0.003668183745257336 
0.001701601026396691 
0.0004652642192658652 
0.0008456621549366524 
0.001162424120859478 
0.006521356725355466 
0.005886835632650213 
0.003130269663394252 
0.005569121242691929 
0.0007363381795815081 
0.005643885924898971 
0.001751772814315181 
0.00279286351578093 
0.004758832945429409 
0.00161443925980419 
0.001423727667009979 
0.001226734491070674 
0.005158214733925298 
0.002650023025708755 
0.000757099226911575 
0.0007990573106991272 
0.006909329302723958 
0.001042669281133651 
0.0001157439142645353 
0.001719713691949106 
0.003244043181563005 
0.002133220882905163 
0.000785349352765539 
0.001050798370801668 
0.0004629842069367549 
0.002931933321864016 
0.002561392074631449 
0.003645641354051214 
0.001597125774470453 
0.0007883921447864513 
0.001997582552879525 
0.0004454596700873302 
0.001502742688409454 
0.004342859417742921 
0.002418370074665273 
0.001233869820105297 
0.001751605243939353 
0.0007153456598618216 
0.001485649593949036 
0.001991336586836836 
0.004940062828483627 
0.001549557907227869 
0.002015050225766688 
0.001562405028685166 
0.001475378335880941 
0.005162102953321759 
0.001327956440389315 
0.002535322920945077 
0.003696666916208941 
0.00562791563171662 
0.0002659072315082278 
0.002806571069150971 
0.00157161660785441 
0.001087273488406665 
0.0001225050989544201 
0.00159236501448016 
0.001625783747102844 
0.001491504692936305 
0.0001946255333555656 
0.0004022300435786345 
0.0007399120878171304 
0.001662639006273121 
0.001412694879619125 
0.002613731248657378 
0.00101358496604319 
0.002350662806474002 
0.005749331229554679 
0.001803842141517079 
0.001834356717743458 
0.005828143587692706 
0.001585286417193838 
0.003855810090293409 
0.00594765975526489 
0.002252520834827618 
0.002754190509827893 
0.004467628094991302 
0.004471565055258498 
0.001360865904064333 
0.003097778110904011 
0.002970923278791214 
0.01213095930902137 
0.001468375973140165 
0.002599572258126184 
0.001481594039661129 
0.0002915666380719585 
0.002367230549326584 
0.001641413967326006 
0.001629028948902369 
0.001085457796508511 
0.00123534436188466 
0.002316722624462852 
0.006048762232701479 
0.001365554315917163 
0.002529083941826943 
0.008272024492096693 
0.0075944737043787 
0.004794586414864375 
0.004372771550429142 
0.009620051915808829 
0.002644132812693838 
0.0009933797364731086 
0.006702385021482276 
0.004999010250237788 
0.000533118811583464 
0.004985078597483628 
0.01100000003309846 
0.0077521293449847 
0.0007432023199050639 
0.005135021386962783 
0.003142733278670666 
0.0059048108050709 
0.001021835778631175 
0.005227344786039881 
0.001819411867801489 
0.0001352957109835237 
0.0004383915537157436 
0.001542005431591063 
0.001613549945614532 
0.0005077496965411002 
0.001715532969379152 
0.004384855090340508 
0.004956801623891309 
0.00221316854762556 
0.0008726056408261451 
0.001212181250097233 
0.001687969036486048 
0.003333356064229519 
0.0008960802310077425 
0.007160306354247724 
0.00321189713704904 
0.005073337663141603 
0.0007090497551090295 
0.003481881713796011 
0.006714878541876274 
0.01111787257942906 
0.00198197833984854 
0.004374149419534843 
0.002534321477630498 
0.008950709996180648 
0.0003109759353525878 
0.0009746190874268056 
0.002122352485209638 
0.01004745411976523 
0.002477736441679637 
0.007778753069012311 
0.001131344774054471 
0.003099090148985981 
0.001462290884091377 
0.009423575971330145 
0.001084794968512118 
0.001787701587964173 
0.005506795432191403 
0.0002535268793574136 
0.001564289464554637 
0.002262427677663309 
0.002751886251468446 
0.00330959033788937 
0.002947809666691173 
0.005176347928051182 
0.001339161115779644 
0.001292292570791721 
0.00501570889039407 
0.001423022157659776 
0.006596801625722035 
0.006887422539736079 
0.002371833869380778 
0.001301830276935535 
0.005254611301163542 
0.001939395101886011 
0.004340907368610292 
0.003910555934111918 
0.008187590092899396 
0.0009189938898220402 
0.001573072284494941 
0.002965283841182181 
0.001323594850589614 
0.001784164945455137 
0.004132735750070816 
0.0004097478787976053 
0.002959814476396921 
0.002851530080056946 
0.001190695841553121 
0.0008659269649303308 
0.009215589633984484 
0.008834079987249334 
0.0005496378002551306 
0.002279193081821546 
0.0005900020995464638 
0.001167061377766544 
0.006105567989838114 
0.008777321151517352 
0.0005744681011037941 
0.001731979413338779 
0.007577201885003203 
0.003588197924614973 
0.006950046592444598 
0.003044012486314525 
0.0006666765650611624 
0.001336647454753862 
0.001819559957668982 
0.008622592901615602 
0.01128870333506914 
0.009054276505837218 
0.008964734701200339 
0.001063522796475591 
0.0112084058911986 
0.002960479879405099 
0.004277250096385305 
0.009029020927701243 
0.002470200345284405 
0.002201924506064568 
0.001828426798410813 
0.009026268977120611 
0.004052396084479526 
0.000645846390403845 
0.00109201338835677 
0.009731144584777864 
0.001712296337345488 
7.918914147820514e-05 
0.00306670894011953 
0.009778680936024568 
0.003616124855409937 
0.001155835181892082 
0.001109845570114448 
0.0006377818651938375 
0.004277703092616781 
0.003668943468861645 
0.003749386935969109 
0.001295943171084687 
0.001058683241141054 
0.003019332752371482 
0.0002774030267942661 
0.00197295875250075 
0.006801343051902353 
0.003691466489718965 
0.001371727855985125 
0.00175198239781278 
0.001118493330534581 
0.002249681889381089 
0.002121716997845206 
0.01019674602672004 
0.001624991670636584 
0.003369127575132029 
0.002841444011227913 
0.002155159922571426 
0.01109886651041203 
0.001635877230118779 
0.003680237763467061 
0.004988430052659528 
0.006979638938470484 
0.0004453570616928942 
0.004357347837706106 
0.002054808242877776 
0.001862250400531669 
0.0002863659818964663 
0.001992669123534544 
0.003294061649408484 
0.002114978614165333 
0.0003080372820502756 
0.000543490003839086 
0.0009595516922571838 
0.002827765566185548 
0.002083272654512699 
0.003765528978814927 
0.001738071087915932 
0.003582651621361023 
0.006619465354394575 
0.002509587893164268 
0.002940523494556636 
0.01022980504914915 
0.002214462763444772 
0.001434565595066575 
0.006070844207656058 
0.001819654073767288 
0.001402965069629338 
0.0009074534457538645 
0.001830711922677858 
0.0009850920963689676 
0.001955199044534913 
0.001089252540728622 
0.002835801187406101 
0.001085681274172363 
0.001562147677610377 
0.001186849695042285 
6.725104257477686e-05 
0.0007563033143289795 
0.001442991770737769 
0.0007787216631138758 
0.001418744266680961 
0.0007164358417436294 
0.002184673072765911 
0.001914918477398121 
0.001216791425460651 
0.001352403891143048 
0.004839489874481791 
0.005614546835945837 
0.001452148224734144 
0.00154372656664038 
0.005088163205575727 
0.0008769445736355994 
0.0009765665111529966 
0.00599655429151081 
0.005015484508557098 
0.001031768826246236 
0.001225417813439231 
0.006623545587323273 
0.004389600861297931 
0.0006350726020160504 
0.002562905235094381 
0.002623672452736742 
0.003954620373937589 
0.001489158587320343 
0.002072805954312584 
0.001063650886770156 
7.848298132245338e-05 
0.0001639950996418232 
0.0003396737612819022 
0.0008515482728393105 
0.0002698630591292226 
0.001498575758900612 
0.001213909701035376 
0.001225410541153018 
0.0006845792923029069 
0.001405311204273031 
0.0008319926124324117 
0.001809595298851624 
0.001391101745125907 
0.0005360541995025437 
0.006529192936026733 
0.001574250379201512 
0.001465772222522249 
0.0006531646735210963 
0.001239192682661326 
0.006359111793844504 
0.003614230614972165 
0.001246828458306723 
0.001255601975675499 
0.00172452664427998 
0.006655238847422075 
0.0002264258073814529 
0.0005794714209843933 
0.002045099281988471 
0.00477444720780395 
0.00169432443928775 
0.003638723812232712 
0.001461317730237932 
0.0009594670907430066 
0.001818862552510684 
0.002932001517344275 
0.0003795239828739384 
0.0009328104186382219 
0.004312423871719481 
0.0001724293488248533 
0.001664594094316193 
0.002387090093928328 
0.001342512485205237 
0.001591517597490472 
0.002747409799718166 
0.004222557167547827 
0.001386228040117188 
0.001690021541390656 
0.0009868677605514714 
0.0008377237037410561 
0.001442278705515548 
0.005739824129399149 
0.002271319022308106 
0.0009823750563000772 
0.001893512260627768 
0.0007769916480469312 
0.001365429642909769 
0.004378989713930724 
0.001874357791073901 
0.0007013812527524371 
0.001148690977121067 
0.000854539598971751 
0.0005914905756545439 
0.000820102528815145 
0.001531158265896513 
0.0001221943702904246 
0.001522911681394863 
0.002745186095609716 
0.001314736894551522 
0.000647265312264857 
0.002958228051836021 
0.006676302539029138 
0.001017717454016925 
0.0009846557454093823 
0.0004215787365192876 
0.0005714950464693872 
0.001635176061127202 
0.005964998963469605 
0.0006153909233635904 
0.0009433240052476144 
0.005838954669961803 
0.0008954886216170318 
0.004898741708185549 
0.001250520264499939 
0.001114251463750182 
0.001157353084705195 
0.001352937882297941 
0.006418268395080447 
0.002654974724780881 
0.005186559087329897 
0.005148283992505181 
0.0003095076514629273 
0.009084993375030416 
0.0007776271003238544 
0.001271537366509154 
0.005048549969186148 
0.002268174484669987 
0.001846468619732717 
0.002088704836386916 
0.003482184865354003 
0.001998762756184445 
0.0005264633525609278 
0.001417495141317975 
0.006075078278478031 
0.001892625382759314 
0.000395872207889049 
0.001922933689710161 
0.004617153895384678 
0.001585836278352237 
0.001496690512141135 
0.0004835440441034188 
0.0002691494866343855 
0.001175100650487968 
0.001862762055198862 
0.002860776823302449 
0.0006787492764931605 
0.0001890492877082269 
0.00253356757065126 
0.0001865143635912668 
0.001762663622962973 
0.00514990636772819 
0.001241284059282356 
0.001250419378500516 
0.00180305622312875 
0.001175275781036084 
0.002338118130381017 
0.002318172477556544 
0.003329165603296319 
0.001142699419401709 
0.002134240779921359 
0.001555605427082996 
0.001085499299365069 
0.002847421162696484 
0.001696780674847547 
0.002337386389851948 
0.004799886018743833 
0.005755089042670842 
0.0007008666506676872 
0.001175856417851874 
0.00180417585327661 
0.0007396045703686363 
6.360875392354902e-05 
0.001704713480133364 
0.001652125773080622 
0.0007346274385286364 
0.0001814631297215306 
0.0007003121235676182 
0.001334553250461653 
0.001603750402992925 
0.001484331286034061 
0.0007751599824704196 
0.0003593443669929249 
0.0008923442578028884 
0.004741510437858193 
0.001311960484530306 
0.002017816974120872 
0.002941704259542814 
0.001043183295811746 
0.001114769943938084 
0.007155442902553051 
0.00218982119588008 
0.001591344860273998 
0.001934539155001155 
0.002777649216116085 
0.001222206550129066 
0.003188748851668941 
0.001391721492408932 
0.00408908660921394 
0.001058006580982502 
0.002475233470741383 
0.001694786109073333 
9.173070535633935e-05 
0.001067907679146593 
0.002126212851051559 
0.000766919974451807 
0.001554637658250655 
0.001006273614578596 
0.002567406393842564 
0.002054740582767233 
0.00122336064116392 
0.002223252296570741 
0.007215818485511727 
0.006823195347856597 
0.001642964751385777 
0.002277908582503608 
0.005528452749446651 
0.001128736120000816 
0.001076877782348128 
0.008365800512956864 
0.00677343424877202 
0.0009545318661273773 
0.00157121785389717 
0.007626784427948419 
0.007056002330024976 
0.0006183398721874786 
0.002897587325712198 
0.003341339532275662 
0.005596898941166028 
0.001635848831513631 
0.003184095308896321 
0.001421258593468487 
0.0001324354507869842 
0.0002014409521680345 
0.0005179095373872724 
0.001181913680784892 
0.0005003142697101239 
0.001929351850353595 
0.001600315421896355 
0.001529333598935108 
0.0004438175879773794 
0.001456608676542742 
0.0009941412057989784 
0.002142306788860672 
0.002038787640279008 
0.0005430934799188624 
0.006340783304138573 
0.001676907207010052 
0.001377589047002828 
0.000848752545834843 
0.001668703347658611 
0.007662800707921998 
0.00427970743608317 
0.001066417615640771 
0.001441906061803847 
0.001617803807074273 
0.008876437289826256 
0.0002172361866809986 
0.0007280517502359029 
0.002546817112574597 
0.007274661150371693 
0.00258764896533456 
0.004929424622309215 
0.001551433732753841 
0.001320099902730201 
0.001970100431450516 
0.003918039226310918 
0.0003799748877540687 
0.001211181394732877 
0.004035215543023351 
0.0002219152493757276 
0.0019277489109571 
0.00256609632608165 
0.00236509878577182 
0.001190031225303769 
0.002891136386571783 
0.006636808363229458 
0.00140146366880098 
0.001779731391549459 
0.00152088825553292 
0.001138022490657155 
0.002750912990082436 
0.007614944945314048 
0.002659392586431763 
0.00179679357369302 
0.001828254471517678 
0.001063540535622221 
0.001561071540879713 
0.005835962092440211 
0.002431752113441772 
0.0005876426206264741 
0.001208470879522737 
0.0006332538515224775 
0.0008474415628451619 
0.0008562718880384215 
0.002139748614603556 
7.13466841105737e-05 
0.001083608497950551 
0.003310809261608424 
0.00130096000397471 
0.0005333879138891994 
0.002832500419162614 
0.008420889048427639 
0.0009687450599171355 
0.001070258785290194 
0.0004010743599859232 
0.0007493123129570895 
0.001971028665742246 
0.007450497381884164 
0.0005801618081723968 
0.001448357927085441 
0.006707083466954598 
0.001042575145678914 
0.006836022052008588 
0.00181979027174632 
0.001095645595439184 
0.001387770732926523 
0.001737072018601503 
0.007743847797353062 
0.004112989540954944 
0.006924109435571856 
0.007594113298045495 
0.0002716325090270079 
0.01057525136552357 
0.0008754170854492695 
0.001175013365219573 
0.008242094622659289 
0.002713793378494515 
0.002510569087095968 
0.002255377780993844 
0.004367027828643349 
0.002358339981673269 
0.0005836113227102994 
0.00140667611505321 
0.007924939847577212 
0.002332196967087665 
0.0003364210911603 
0.003248954409416572 
0.006055198041298542 
0.002297616662465567 
0.001464678781433705 
0.0005136663693397393 
0.0004928598180654305 
0.001431585046235178 
0.001646760165402571 
0.00268729924443191 
0.0007725611444027914 
0.0004049194494233425 
0.002821962269047539 
0.0002773728548256078 
0.002545476648356062 
0.007214189666838528 
0.001033736381115549 
0.001391018182128334 
0.001504238950526002 
0.001240811179841831 
0.002914043748511124 
0.002405661992442605 
0.005101304955491767 
0.001041272710605343 
0.003072826854889431 
0.002483731867786681 
0.001140465928173329 
0.003722846524047478 
0.002146371742755589 
0.002336789003411256 
0.006508199202270271 
0.00758888846781296 
0.0005729412456282095 
0.0017124064581994 
0.002277385870396851 
0.0008925196986236242 
6.686805160436065e-05 
0.002275380303606716 
0.002547773665526847 
0.0007500266940124428 
0.0001927654292610981 
0.0006854992377840408 
0.001571226077717219 
0.002609632519871442 
0.002016960538214479 
0.001172688530747004 
0.0005512669100409221 
0.001163586711571996 
0.004995727205796721 
0.001167041160501084 
0.002978156415380982 
0.004047128104002352 
0.0009764444551238998 
0.00125634257195571 
0.00057425372445651 
0.001593241446721622 
0.0004001487705704786 
0.001855455215662492 
0.002284458064569459 
0.0005534246908398929 
0.001919123680731849 
0.002907221618281343 
0.001418910952225384 
0.001382736554368613 
0.001512146886271482 
0.001130193560622174 
0.002098639102742553 
0.001275047660136402 
0.0004944136099857914 
0.001498929673212599 
0.001406662202283773 
0.001649071977846823 
0.001386693102450607 
0.001154413074687575 
0.001031356354556302 
0.001450524535727055 
0.000698015461833444 
0.0003062383943167132 
0.00318578369195887 
0.001927153263856072 
0.001890269120269615 
0.0007870979639163662 
0.002089091623087289 
0.0005799419311742648 
0.00134995838333556 
0.0006003084198325701 
0.001508260533557592 
0.0006969334018609811 
8.94664267966925e-07 
0.001272869733271688 
0.00131980481408849 
0.002477586178235007 
0.001728633563556553 
0.001330002330770399 
0.001779430852267463 
0.0003691745715951541 
0.001373698159972258 
0.001125699070235855 
0.003317234339264003 
0.0007533153509773837 
0.0007734403057289227 
0.001012720687283168 
0.001744256584147384 
0.001918183697224796 
0.0009552930129468182 
0.0008269514401932596 
0.001246982779921345 
0.0003496350510341878 
0.0005182075402294287 
0.001831058971507414 
0.00115165529357062 
0.001110993092345784 
0.001343093801720374 
0.001260861579922586 
0.001335549152382843 
0.0009097862196867945 
0.0006485168947995149 
0.001710111324247461 
0.0007780176791451021 
0.001654739992194223 
0.002654943868521998 
0.001395407111610849 
0.0008393764152169047 
0.001479355800931011 
0.0002096941874728687 
0.001184019895872834 
0.003082625884214558 
0.001153531567294833 
0.001403991736520993 
0.001692350343142867 
0.0005005029158311696 
0.0005499914175693742 
0.001107463980118923 
0.002185490703026714 
0.002085086395890659 
0.002011800725153162 
0.002323677174432617 
0.0005171328183049027 
0.001423982735116297 
0.0009303341713689072 
0.001731887005301187 
0.002512245153875411 
0.002500298350702476 
0.00114521850042757 
0.0009581804373272183 
0.001093937160678027 
0.0007484597729174795 
0.0003806011970993234 
0.0009337299530733495 
0.000517407488025864 
0.0006552286442109603 
0.00270796229929132 
0.002505894692563715 
0.002738499831721212 
0.0003332858520908272 
0.001241836867108066 
0.001561986703303469 
0.001622893113137615 
0.001561009633871507 
0.0006469098181676777 
0.001148507841669764 
0.001265690215695008 
0.001435398060805663 
0.000912609744193525 
0.0009804876489662737 
0.002414560621469304 
0.00215016687375796 
0.002219406306379608 
0.001245224170277081 
0.0005309740238243645 
0.001262524526796198 
0.001821092674493833 
0.001013655540556323 
0.0004636317992476935 
0.000681161878393953 
0.001537617575304566 
0.0008157308343570727 
0.00204150775325052 
0.001268182357617884 
0.001324883678325809 
0.001688543887660795 
0.00120183472228661 
0.001058955769181272 
0.0009357080756142818 
0.0008513561561067293 
0.000205484497949292 
0.001043241159533035 
0.001542802611039901 
0.001063919263634803 
0.001645741386471724 
0.001464517421239036 
0.001112199890956258 
0.001514842306974267 
0.0009949222255499631 
0.0008281273717422302 
0.002215293991898259 
0.001360656068555074 
0.0005322985674212468 
0.001928318254401304 
0.001584511914727433 
0.001070191142721508 
0.001516030752954414 
0.001133086417591151 
0.002288076737046678 
0.0007969146558356054 
0.002700890574828142 
0.001812144418655919 
0.0009390402516331264 
0.002657803554344006 
0.001645548680326079 
0.001337599848765155 
0.001724887899362994 
0.0003162394169168408 
0.0001722768526376508 
0.0008959914961402454 
0.001511200120918756 
0.001504253902497039 
0.001307907554892499 
0.003826389802077771 
0.0005971878588907432 
0.002228763245304285 
0.0006468652092823227 
0.001339430971502945 
0.003148662200099623 
0.0008088825774587921 
0.001284153891818287 
0.002118649155522223 
0.002443944053405971 
0.002286240365160187 
0.003598912613287832 
0.001780030876457954 
0.0008292547915732186 
0.002461278738660752 
0.001141221134137119 
0.0007735847029128197 
0.0004890482145895455 
0.002436482226987894 
0.0006448206664713761 
0.001367382889252867 
0.0008068592570985939 
0.002631499676988822 
0.0009158860043479462 
0.001847732273075189 
0.001955637490386918 
0.002025482960672471 
0.00160921058429156 
0.0007886820731472494 
0.002126070112666467 
0.002229213047292943 
0.0002130253178417746 
0.001165514548105163 
0.00224547077948898 
0.001842227454812581 
0.002817935765526226 
0.0007771671282435649 
0.002199978767969134 
0.0008418747190108496 
0.001446773164293345 
0.002655001692500062 
0.000796682632773297 
0.0009503252437850582 
0.002613415593365665 
0.00111510721333065 
0.001318331641220869 
0.002680100130061664 
0.0009840013931357763 
0.003179979193528891 
0.002579391462450081 
0.0009177370898667354 
0.002615024908674604 
0.0017500077488844 
0.001478951285047626 
0.002309762328720508 
0.00119992304807648 
0.001004648746397425 
0.001205512052619327 
0.0009021440781396676 
0.001024640291153376 
0.005728241639945721 
0.001792519571799041 
0.002160357818155282 
0.001013217090448081 
0.002056849673831546 
0.0007434262052720842 
0.00246239230951037 
0.0008145852872320319 
0.001197460325562622 
0.0008415107325814877 
5.990645252052211e-05 
0.002502071546042868 
0.002184674240220116 
0.002114252699342536 
0.002457961190616857 
0.001399592494597119 
0.001865324678861875 
0.0004730220682168786 
0.00119137471507049 
0.001523926248122465 
0.003266521403793692 
0.0009013634842855601 
0.001332355605205996 
0.0004433137019833084 
0.002473408548167947 
0.001785751752308774 
0.002121702914277728 
0.001639389516510485 
0.001055545096224931 
0.0005973675988110622 
0.00080472712040965 
0.001934882269091219 
0.00158214137873008 
0.002030254473153534 
0.002101699708451561 
0.001720290072030262 
0.00113136127042886 
0.0008930778716012274 
0.0008225824482194732 
0.002963573613353444 
0.001121082062392912 
0.003058049709387889 
0.004182475105508358 
0.001707073763499362 
0.0006563891576655184 
0.002431774119248499 
0.001114195302738817 
0.001384732116684401 
0.003464439048551011 
0.001182744846719554 
0.001117774871346029 
0.003285096047589503 
0.0006918964030223056 
0.0008490369642704902 
0.001508153655388379 
0.002379993145623325 
0.003663786252988353 
0.001802338999416392 
0.002398524042540023 
0.0007458543199684982 
0.001937197983824382 
0.0004283505524939128 
0.002574609768930413 
0.0009144852668220217 
0.004459693562136259 
0.0009257467850713039 
0.001488238450268415 
0.001314983625220362 
0.001123373129433163 
0.0004343547063401942 
0.001075735675168917 
0.001693890963464127 
0.0005863016676454625 
0.002809096907899732 
0.003122794546709794 
0.003253298749212239 
0.0004248365346766832 
0.001033752463872401 
0.0026577001517672 
0.001988104889484335 
0.002193005532116192 
0.001443105790253981 
0.0009869183177373918 
0.002088034659728325 
0.001554158179806962 
0.000991990288995117 
0.001080950138837406 
0.003049156625223006 
0.003058447746219861 
0.002732453195610341 
0.002455042236421102 
0.00079272216421104 
0.001422890541998268 
0.002714842518044417 
0.001598219137777428 
0.0007427306753657151 
0.0007346533470709409 
0.001397839310133993 
0.001752290353532846 
0.003319180779190862 
0.002463740423007893 
0.00165490824073936 
0.0009816670042728463 
0.001412888464399913 
0.002257890294686775 
0.001039164776870477 
0.001096867103862566 
0.0008509796226543511 
0.001476296701716088 
0.002229632992194597 
0.002249562612323652 
0.003160952859366795 
0.001753113965633752 
0.00155955020709297 
0.001640854592016667 
0.0009424459159829475 
0.001452521508505635 
0.001781515474307152 
0.001085932840589319 
0.0006348486548973269 
0.00195168626159276 
0.001015889804224563 
0.002697724094532651 
0.0005282923435861438 
0.001364015623465617 
0.003067905836167527 
0.001024408457625583 
0.002735666792222679 
0.002012540549582126 
0.0008317544840960018 
0.002277182385977703 
0.001848890359108801 
0.001837605156342179 
0.001918083479813039 
0.001298331053549425 
0.001085853334766508 
0.001247796656109758 
0.002965678144621962 
0.00167256472070525 
0.001021950650036962 
0.004108579018242006 
0.0006017223494517532 
0.001877868462193862 
0.0009120475069426102 
0.000574312530974664 
0.004029162772304412 
0.00131521227962966 
0.001229372085054335 
0.003329570927490282 
0.002528289651311463 
0.002483402854583759 
0.00502332182628939 
0.002224254112444475 
0.001125692631478363 
0.0023590380087946 
0.0009569377842302614 
0.0009417384577909358 
0.0006900948226895399 
0.003619348894094699 
0.001011473349716516 
0.001503327740223009 
0.001107082869253581 
0.005165574969888576 
0.0005659739361853048 
0.002712037309399693 
0.002463321181141515 
0.001814873271625669 
0.001614611269689488 
0.001118677002196093 
0.003073085011537263 
0.002410624440153903 
0.0002849226940823272 
0.001844268208104558 
0.001782395420317927 
0.00391816507209854 
0.00215018473721257 
0.00108956100126407 
0.002585834053382227 
0.0004998884328323856 
0.00213809387897654 
0.002308992067791633 
0.0004350635268578137 
0.001195488834242587 
0.003092090909778262 
0.001376143287632039 
0.001400384613879623 
0.001756699899792733 
0.001104973163675833 
0.002974872900002666 
0.003172064888950252 
0.001557482049921007 
0.002080907222206919 
0.001346164851668724 
0.001661979924257158 
0.001771403318586626 
0.001117822320754571 
0.002598601766081116 
0.001786200829807584 
0.0005124292176766963 
0.001197705830094392 
0.004640315145456546 
0.002981610529408863 
0.002534655531372663 
0.0008622886464768584 
0.002447820787523196 
0.0007607310159445658 
0.001518541483143626 
0.001219573814183951 
0.002033191136630243 
0.0007631620741207324 
8.933476724682203e-05 
0.001584780496272197 
0.002193441491612697 
0.002428255858966882 
0.001679728347638222 
0.002562443908050114 
0.001636937492417309 
0.0003239755046540852 
0.001548858411659697 
0.002050142319844414 
0.003365711720520428 
0.0008962570964623528 
0.00184211447205616 
0.0009454171307180484 
0.002147998037687424 
0.00172652936310089 
0.001936504322614286 
0.001663804068873965 
0.001312212647435539 
0.001052861934339013 
0.0008297756821371685 
0.002101524865625951 
0.001980435615334417 
0.001295637323320425 
0.001681748956968876 
0.001462020616140855 
0.002294861701120309 
0.0005970392238617301 
0.0007994535396307571 
0.003173018528443512 
0.001100663472968847 
0.002308332919382072 
0.003231475118527108 
0.001913129881908854 
0.00164168980470824 
0.001756569634601611 
0.001790447591535626 
0.002559397515739764 
0.003567644419500205 
0.00116399908022886 
0.001565494912823327 
0.002384990667089433 
0.0006227507573962132 
0.0009164966169035656 
0.002003318810585885 
0.002389793785472532 
0.002485209731334338 
0.001669520221628567 
0.002896083693072697 
0.0005548762520652217 
0.002234192082969996 
0.0007654299986458768 
0.001902956046544975 
0.001498064510623998 
0.003456712514490766 
0.0008523977642316469 
0.001377338527315507 
0.002109964179487604 
0.0009569652713238943 
0.0003737196176271978 
0.001463467771054236 
0.001910059645522881 
0.0005442921391219669 
0.00258581837299287 
0.001976400385066324 
0.002440255609815441 
0.001925924598287118 
0.001938017648550804 
0.002265080400550387 
0.002095809917700634 
0.003320027935438713 
0.00139011582294281 
0.001197820439014118 
0.001559524005018357 
0.00284636559794228 
0.001762509513407277 
0.001762314816666194 
0.003565244119692169 
0.00242485733520183 
0.002326506001173477 
0.002432491945997709 
0.0008214224748338688 
0.002365364453460628 
0.002191732620271072 
0.001233970536259522 
0.001409706334750638 
0.001074264473114165 
0.002352112925385531 
0.001187126758545082 
0.00218853701357264 
0.002043176727166049 
0.002394871221438967 
0.001585226511380697 
0.002112674948296562 
0.002414031506769402 
0.0009863594342601107 
0.001107828923337343 
0.001455683500519535 
0.001445730838326322 
0.001977729759582342 
0.002090500907439774 
0.002188131739354469 
0.002680016040518641 
0.002607433406638349 
0.001337339209134402 
0.0009686401825560955 
0.000994565198889133 
0.002230935901010712 
0.002389192198361236 
0.00116856813592596 
0.001774101653949643 
0.001192227157824329 
0.002286246933432867 
0.0009623045684146062 
0.001915810254348467 
0.003347348701501252 
0.0006107313249038637 
0.002862888373527232 
0.00254249395755319 
0.003090300420949773 
0.002331308168056242 
0.001818441294981938 
0.003089266075375891 
0.002282777320133136 
0.0006697859931053928 
0.00111946143079117 
0.001076477289360238 
0.002293248741711608 
0.002659041961518332 
0.001134649822144435 
0.005273869230819525 
0.0003882374050257007 
0.002426411189434788 
0.0006726592151223499 
0.0008319870923333152 
0.002717896239598001 
0.001007205827629193 
0.001693973406588563 
0.002646373151948908 
0.002563515551416521 
0.002630221805591357 
0.004662280005072768 
0.002357421198402785 
0.001624191577780044 
0.002772447863373534 
0.001165928182187505 
0.001317641255264574 
0.0004836459598613172 
0.003011397800177954 
0.001635802987210954 
0.002137660295601542 
0.0008787254983547987 
0.003930574922271691 
0.001810938231507744 
0.001578319632940929 
0.002130511490439407 
0.002056223204324825 
0.001323821361138712 
0.0008698448902365794 
0.002676641638963137 
0.00284953224418451 
0.0001875637374152391 
0.002084825174319459 
0.002626436951125093 
0.0027436075657401 
0.003816895433864527 
0.001844537631489782 
0.002864657597470239 
0.001405850266213143 
0.00361322026583737 
0.004015142622357104 
0.002072302750171159 
0.001422324300339136 
0.002693591169369392 
0.001073899266147224 
0.00148314625501688 
0.004762398990990438 
0.002033185199317179 
0.003282806457172549 
0.00399243739687827 
0.002137610337624766 
0.004796878459116608 
0.001919042091708881 
0.001732072948420122 
0.002056481056450336 
0.002028695028333834 
0.002814392339354088 
0.001889130067785048 
0.001833673944154003 
0.0006920438108264515 
0.004437612279486933 
0.003152283422565292 
0.004427943675805244 
0.002144153601390832 
0.003149710879030047 
0.002194677982290215 
0.0022155490761451 
0.002219843789748887 
0.002246820258248411 
0.001009558208774794 
2.561212699735992e-05 
0.003117105696321077 
0.00431331487012394 
0.002121069658211146 
0.001986010373655901 
0.003566253783151695 
0.003123399475172232 
0.001769926016116347 
0.002055377641827239 
0.002652129581834656 
0.002283754914857512 
0.002682979290481307 
0.002166244089508529 
0.001046554100827181 
0.003817819244864731 
0.001556589205673911 
0.002607216366054883 
0.001500788589159562 
0.002089054228978521 
0.001376681218042131 
0.001939903180221958 
0.002582988422156665 
0.003656233827710504 
0.003768224211302918 
0.004423248871260848 
0.00529188113125872 
0.002622405426472056 
0.001475244747834172 
0.001928045613748166 
0.00482259192402388 
0.001665628786325374 
0.003130022845837235 
0.004550286586327409 
0.002603525414613268 
0.00276248674794574 
0.00350961094771186 
0.001927517865189951 
0.002670070097386221 
0.003466843616015036 
0.001056510943573006 
0.002084132282256316 
0.003793240019624654 
0.002694168189275301 
0.0007846756808277251 
0.003896442337500819 
0.00339210490383627 
0.004035839184844667 
0.002191358371553214 
0.003867489018424007 
0.001859589042860836 
0.002755614587803872 
0.0007650804418190342 
0.002095017314965109 
0.001989381932424835 
0.004468803922450575 
0.001284546780574171 
0.001259121836147912 
0.003134440046605151 
0.002797250649332772 
0.001724412081594825 
0.002236517380313557 
0.0005955759291925957 
0.001665295859823635 
0.001744436028924366 
0.002114146313701969 
0.002583652923410848 
0.001691518851894153 
0.002593565058077229 
0.002224394237816587 
0.002374436646170455 
0.004158408284086471 
0.001893812440531591 
0.001248406234003826 
0.0029650923171847 
0.003525932170612909 
0.003118668594601669 
0.00247085390150975 
0.004243047761218798 
0.003080960065257802 
0.001881224279107464 
0.002411885317918507 
0.001627822688463509 
0.004085920426460986 
0.004366857834786709 
0.004493651373714417 
0.002642325617181037 
0.001832009681695532 
0.002672606732154212 
0.003532242373771825 
0.003227193785236621 
0.004473624489092805 
0.003257911105850627 
0.002096210907699064 
0.002760177627253552 
0.003849853547781775 
0.001572853200727935 
0.002069781076401224 
0.001239089448178098 
0.00261099001569766 
0.003256838723203024 
0.004494451985832744 
0.003414247318053598 
0.003385479063478329 
0.002750189815633753 
0.00222905576990334 
0.002105658474370311 
0.002319972016806239 
0.00207484346135603 
0.00261304072336656 
0.002081076751132613 
0.003145010118580473 
0.001805368002865924 
0.004174170439602437 
0.0009531874930878283 
0.001805109114512563 
0.003823301043739113 
0.00146801963888384 
0.002954827201321202 
0.00301738494529466 
0.003454181035199972 
0.002581005527044023 
0.002274521973662783 
0.003884367335820567 
0.002283378696910554 
0.000461737051816591 
0.0005960489094500484 
0.001203301630874866 
0.004097751298611937 
0.003150565629626248 
0.001727105546402842 
0.006130286307041616 
0.001401795965577467 
0.002870294065339542 
0.00244528160733486 
0.0006900168358734515 
0.003171894419903435 
0.003390093180206224 
0.00239382117862147 
0.004438270483269295 
0.002213308910350713 
0.002361498570400939 
0.004283787197798229 
0.003459380483290675 
0.002854889676589623 
0.002349205044755372 
0.001333125565121084 
0.002238404191679742 
0.00154089253740231 
0.003287974044172576 
0.002077224516882058 
0.003213601942483342 
0.003970691339128746 
0.004843876473316166 
0.001599856374763927 
0.001929440934664519 
0.00364756031327495 
0.002753839558898852 
0.002213619233923904 
0.002871610329510174 
0.003122973747236873 
0.004435298401893083 
0.001196273797474687 
0.003246404436921464 
0.003485287931609564 
0.003666687230234938 
0.0003637249972810694 
0.002723760569675818 
0.003311198949037535 
0.0009325766644025963 
0.001923917124446699 
0.005091326441837669 
0.002949575957321726 
0.002257629375726132 
0.00419823924958427 
0.002006836668707167 
0.002407486251553852 
0.0005886666634088263 
0.002600454700934287 
0.002801587252344572 
0.002418993045907033 
0.002111443682000387 
0.0004806123748747064 
0.003689657540492997 
0.004857911964510729 
0.001801447392036995 
0.002552597863952144 
0.002130164937210501 
0.004418211961965164 
0.00259441096313755 
0.002435598002350225 
0.0006449305067139569 
0.003548314377341299 
0.003809632897939489 
0.00112139166184577 
0.00358061350123932 
0.002084619958218653 
3.486202130085308e-05 
0.002308003203933546 
0.001800802651912842 
0.001779902561481907 
9.235911849918364e-05 
0.0001182110475854825 
0.0004714614051250257 
0.005281551612145461 
0.003986172978206099 
0.00165360388777479 
0.001679272889345313 
0.001972866949933398 
0.003232630475037013 
0.004527715565262587 
0.003829776690467925 
0.001018944003188722 
0.001724744853992368 
0.0009022799202264133 
0.002506507438247651 
0.004275855123489716 
0.00204470459857252 
0.00263592592845476 
0.00142433589876149 
0.001539058672373627 
0.00270115097085433 
0.00310806439038874 
0.004248313758828787 
0.0003918663383983857 
0.002502384389160252 
0.002539243853011232 
0.003483959412855157 
0.001971825744207208 
0.001774846815754506 
0.002669635197146404 
0.001324575299210559 
0.0006777449729932911 
0.0006145188146843419 
0.003142724760879479 
0.001050347173661428 
0.0004943957661681217 
0.003082239331821925 
0.001762208730713499 
0.003346887904813393 
0.003475037489203549 
0.001624801494105689 
0.0004346957630008154 
0.001334721935593247 
0.001560122889589329 
0.003892336850890503 
0.005656899433990372 
9.709915542539391e-05 
0.00290697395339138 
0.00308907269085708 
0.001302643309510435 
0.002014835138333634 
0.001167063136370474 
0.003013243294611349 
0.002196050733407122 
0.0009060330441065258 
0.002724825954617019 
0.002569605181190343 
0.003766466151702879 
0.002880477973718898 
0.0008674792865966914 
0.001544937891836555 
0.001851247368106676 
0.002188360281645812 
0.004617459401754727 
0.004153636404468326 
0.005771780429166538 
0.001809332342486158 
0.002715190798310316 
0.00198420173915017 
0.005297969112481613 
0.002334815664523025 
0.002299501557438945 
0.001513871475424478 
0.0002983408540267652 
0.003913189390879471 
0.001925581501831058 
0.001943039177411559 
0.00361041079478902 
0.002205875503491075 
0.001273577647268891 
0.003047034550570882 
0.00272205767308081 
0.003722966689488729 
0.0004115637702548629 
0.002868564395573598 
0.001322008435223421 
0.002195411146835143 
0.003167184019290441 
0.002589440073238744 
5.798185997784061e-05 
0.0004579960774565145 
0.002401324551964486 
0.001680625257467749 
0.001876614240610978 
0.0002577000860642215 
0.002792896932417919 
0.003144851093079891 
0.002595863121609696 
0.002421781964786861 
0.003142330898754149 
0.0004699760562842167 
0.0001262053879719192 
0.003422395526374536 
0.001112059791061105 
0.003752448869376009 
0.002466351463808858 
0.00159713917863917 
0.005198093463117355 
0.002693569539703733 
0.002534833201258215 
0.003214912082111339 
0.003247255444862754 
0.0003927741092775611 
0.001657272349188032 
0.001473723430135509 
0.003179185167912128 
0.002508446677495162 
0.003293996822434109 
0.004876652064137461 
0.00180185432224685 
0.004592439872676314 
0.004275833012491425 
0.001795331170311166 
0.002982634227274076 
0.00156044371863247 
0.002409870913106711 
0.002298285992538215 
0.0004445467031853066 
0.004316795833179336 
0.001580194836098992 
0.006110681788128286 
0.00231737962658811 
0.00414909207422044 
0.001512239695752296 
0.001409153983976414 
0.006644151217198004 
0.001874642363592248 
0.002058390568803261 
0.0007694312944220837 
0.005575448729539812 
0.006025523344176635 
0.004969146177751384 
0.002522861412596512 
0.0009235265773733044 
0.005485390358477263 
0.002817200344676304 
0.003709229838732389 
0.002421492844920117 
0.0003931213182546113 
0.002065434226111208 
0.002884362725105694 
0.001847268162080348 
0.0007977567220655476 
0.001925206439781948 
0.003147927038321294 
0.0006003785218617284 
0.002373474956822094 
0.004814012056620305 
0.002820299503582699 
0.002113529379377375 
0.00359457264976912 
0.0009444019784555761 
0.001884179700335995 
0.003405613387192038 
0.002865731851502238 
0.001650359657141645 
0.001359009360068893 
0.006994723919953686 
0.002294497057549922 
0.00274585888111135 
0.003330866413894296 
0.003900064015245174 
0.002571625274194864 
0.004452019232536114 
0.002544271579019694 
0.001224494521107953 
0.002689377423943473 
0.002065398377791324 
0.004138776999463726 
0.003803321074896311 
0.003861890621164609 
0.004235402422004732 
0.002705831404305715 
0.003560269600478802 
0.002943084067735908 
0.001288652207200164 
0.003496332026049027 
0.003094194779767736 
0.002667771821530281 
0.007521595843384317 
0.002702581183826231 
0.003021338921428639 
0.00265284347092489 
0.003335844695691289 
0.003559512911168802 
0.003254097064217617 
0.0004345472007558335 
0.001589191843505455 
0.002512321231881439 
0.0008193057997348707 
0.01048799313388573 
0.0009327252729470962 
0.002100964710047146 
0.003445548319890273 
0.003904906983802684 
0.00214039629045072 
0.001670647837071555 
0.002875857460784173 
0.001643077392271952 
0.003590445673092637 
0.003833149193039945 
0.002325651997879234 
0.002351278006217357 
0.0009837240161462352 
0.00249575985870754 
0.003446285329385457 
0.0039664105200507 
0.00677462090173492 
0.00205774275010068 
0.00206853553823695 
0.003098521711369728 
0.004774674786710726 
0.003473952638879425 
0.002135383057711892 
0.005997547964030351 
0.005814915406936566 
0.002208250413955937 
0.0008946232885862718 
0.002158802011563681 
0.004895921951089933 
0.001291514874572259 
0.002177039668857163 
0.003270068975702879 
0.002082639748051815 
0.0008937227059348926 
0.002180669496666208 
0.006588460966964443 
0.002892000864091322 
0.004412695174866578 
0.002494049125416482 
0.002897562199048185 
0.001941835147109711 
0.002533498912320762 
0.001020521555578857 
0.003561491849539106 
0.003249583479738465 
0.0009479643215718006 
0.002314618526926099 
0.003287580178012145 
0.002638003636926591 
0.002449758957011341 
0.00106081478565146 
0.002995545020719638 
0.002408422298397903 
0.00492466277512679 
0.001637942942293954 
0.004059853024823383 
0.002820394625460599 
0.003628308717389892 
0.001302751131259604 
0.001748477074932274 
0.01701327593989848 
0.001982063100018815 
0.003826345201677058 
0.003547854880616156 
0.004840850633726834 
0.003544909468663732 
0.002064560274586538 
0.003027477389257949 
0.004069392212975283 
0.00333186439233512 
0.004086126322210204 
0.002120442880025707 
0.001613229669857913 
0.002840316697888546 
0.001406989573219227 
0.001998222284570009 
0.00394107188388252 
0.005343923838550375 
0.005864989818990972 
0.007281159551272567 
0.001510862568641565 
0.002669299578260953 
0.002486677089443998 
0.006285959851830945 
0.002250711875074714 
0.002395848361748971 
0.003922103714284534 
0.004666740004816265 
0.0005760253789735556 
0.003616435948906732 
0.002298503595380726 
0.002140695749560364 
0.002059765975996464 
0.001876598554486062 
0.001451517648505418 
0.004179561220173902 
0.005143092920712479 
0.003354005933341348 
0.002452507202771508 
0.00254700226756469 
0.0009469265658094938 
0.002193494136015437 
0.002517163407463516 
0.00216705331923807 
0.002346208397982448 
0.005422826627631207 
0.003701603996695019 
0.002746882611709198 
0.001724183055879676 
0.002247933807486621 
0.001726803806593532 
0.00346663631767821 
0.001867871319327376 
0.002139534022083214 
0.003875089360603056 
0.002224248070497448 
0.00420999912104963 
0.003196236282866551 
0.003760706213636802 
0.002766537695016943 
0.003784957445922465 
0.002468808561302588 
0.002769224585429145 
0.01959110555351797 
0.008030856868961669 
0.005817829708874461 
0.002230171964828787 
0.002907188335744057 
0.001467575464127696 
0.006958089858603104 
0.002287258828194932 
0.002828537723319652 
0.002500561939012871 
0.001864150868006186 
0.005730688163383762 
0.004054270035785843 
0.00378812098848093 
0.00352725642128572 
0.00503084098180517 
0.004836015287648227 
0.00846070406876423 
0.002539039433764494 
0.001079438976135136 
0.005056901415200226 
0.001645579367724366 
0.002345170860945969 
0.002463383160300093 
0.001548623146671157 
0.004716040769929679 
0.002063117035436045 
0.003051300532683961 
0.003026584710968049 
0.001374731549997029 
0.002754508741700988 
0.002581235554829647 
0.002512156046724127 
0.003174024173050966 
0.004195935049283409 
0.004256066004536856 
0.00479404159357455 
0.001575379075765682 
0.002734691587484144 
0.003380134570177726 
0.005493313580672845 
0.002429597001155175 
0.002190183210126232 
0.002828725030743483 
0.00167880996867656 
0.004969990648968291 
0.002876344909548637 
0.001390746098221814 
0.001726105316163061 
0.001023008372307413 
0.00153190695613867 
0.001480714745814715 
0.001651312067407179 
0.00213389642016458 
0.003054514326492582 
0.003058288993297993 
0.002917093461426639 
0.001628920416278278 
0.001595967906291218 
0.001684199479352055 
0.000611066655691338 
0.001885316628937549 
0.004005527435321695 
0.002127209533830154 
0.001702593881035054 
0.001619420208415887 
0.0001915098065966657 
0.002383050227383538 
0.002645938350303051 
0.001508405179487763 
0.002478328993819866 
0.002298696848828539 
0.0005170001780415371 
0.002034065845758381 
0.002824216021638788 
0.0005610417333118215 
7.406850805360587e-06 
0.001853874172668832 
0.001382874724204814 
0.002984514280576513 
0.001167686847920616 
0.002243975849680893 
0.00318955492359304 
0.0009563638666120596 
0.002219158332382029 
0.002204629515703624 
0.00158939068963525 
0.00143347553359132 
0.002197781243892316 
0.0003463917122657956 
0.002561337618975095 
0.001151015980030622 
0.0008812080519847804 
0.00235366655656944 
0.001223334832549099 
0.002635317366095609 
0.002036517367536779 
0.002639547653343338 
0.003971743974936315 
0.001513812784827714 
0.003554966552933126 
0.003181917369208682 
0.002886530040130702 
0.0008336058056379926 
0.001966340401368283 
0.003871324952747484 
0.001284772306521259 
0.001590374622337973 
0.0009636378986976131 
0.001974235608007284 
0.001867263079405681 
0.001735998706098213 
0.003234060543484213 
0.002593574220924551 
0.003334126509279692 
0.001013443885168522 
0.002348591818765189 
0.001473669883372492 
0.002212082682237783 
0.001184066794890717 
0.00398352648711291 
0.003400547652240635 
0.001204921040454415 
0.001632392704861842 
0.002979550297891998 
0.001940938397823851 
0.001851558296263625 
0.0003307899802233846 
0.001421060214160638 
0.002292185537542441 
0.00117576901866207 
0.001302197882462542 
0.001867400117823172 
0.002942822579747764 
0.002450450376611164 
0.0009929347635154403 
0.001625942376690657 
0.002803698732556011 
0.001213322719324356 
0.001709024601500191 
0.001135680531234332 
0.001972260465597453 
0.004155904180327178 
0.001697261387543924 
0.000342443832839221 
0.00203137008141856 
0.004002147975848602 
0.0007515205708936963 
0.001428203909706144 
0.001431109543957262 
0.003765980161580928 
0.001368165259329525 
0.001726518434959469 
0.003167557389403498 
0.001149422629255866 
0.001181699442715414 
0.00267850774369705 
0.001494296868296526 
0.003758267320142243 
0.00184556781657622 
0.002691533053258839 
0.002130111159662166 
0.001743611668061994 
0.002289220489116966 
0.002409994946058521 
0.0007405181389379641 
0.002455849553099145 
0.002677896130877376 
0.001509984825086138 
0.002736889991696353 
0.002114973097231215 
0.001886319755768878 
0.001778803512716367 
0.002035863541136106 
0.002012373814487081 
0.002586795466171732 
0.001472338555644371 
0.000829438729528559 
0.002378083438601704 
0.00294845541476808 
0.001795947358548759 
0.002074384836531361 
0.001405152477617042 
0.002440413119721123 
0.002403550045943977 
0.002126530868662633 
0.001815272316508686 
0.001331064304116489 
0.002355024314259528 
0.001067453183166938 
0.001193054408937394 
0.003814870360745873 
0.001614995474526083 
0.00336324289528354 
0.002353794272424701 
0.003247413273654421 
0.002282534493913903 
0.001477607773303096 
0.003566406218511931 
0.002031691308763872 
0.00265190381539082 
0.001956282284971131 
0.001941457120399253 
0.002013200864428026 
0.003637764379337428 
0.001505675349577073 
0.004097741950811203 
0.001300335603252532 
0.002570652860469816 
0.001905338470111476 
0.001007352196353945 
0.002468347217493501 
0.003099796611141186 
0.003294675718148347 
0.001698062838694886 
0.001517270278995313 
0.001773060589111202 
0.001657705744548134 
0.002572144516367593 
0.002654283087249748 
0.00195683607808557 
0.001922204277766015 
0.002269313912032908 
0.001390790142388059 
0.0003324874160154456 
0.002672397562158487 
0.002119955745681671 
0.002166166918122662 
0.0008404830835203713 
0.001204461635419356 
0.001215011765983992 
0.0009077244080807249 
0.001909775336326565 
0.002324771717880267 
0.002538361974908782 
0.0008845673247754795 
0.004258987994776892 
0.000722989328677986 
0.002342124625079021 
0.002746855695157007 
0.001535310579576871 
0.004874743509068609 
0.002071228050390317 
0.003641786285284661 
0.002087973854439621 
0.003357158622301431 
0.003612975620577834 
0.002578476134701945 
0.001385787163755981 
0.001569769565199283 
0.002428536776158432 
0.001825248468126886 
0.00419140113800111 
0.001285441069742974 
0.003090897659944416 
0.002970186476901611 
0.004535701121029159 
0.004576771283902466 
0.002038356638664389 
0.002168038081612387 
0.0009440350123642089 
0.001225218057706463 
0.004439147653186076 
0.00277305444048041 
0.00127492734949486 
0.002533822924509046 
0.0004754521191051726 
0.002484516127836688 
0.003135199278032056 
0.00237937539583615 
0.002284329197520412 
0.004250967966794543 
0.001448825780572397 
0.003113333280388817 
0.002191710076373173 
0.0005479359624891855 
4.937656139314876e-05 
0.00351188580377235 
0.003726967163764621 
0.002945034276189098 
0.001638002859289743 
0.004052810835460395 
0.003747164470587101 
0.001371718706801904 
0.001455953841181962 
0.00272362350964942 
0.001698919459405262 
0.002481101213897708 
0.004754328453058799 
0.0004904299800945447 
0.002887618578741835 
0.001437927187761673 
0.001475990807750327 
0.003008459782548204 
0.001169526381107421 
0.003684895065287531 
0.002801545614365593 
0.003059231068404591 
0.004405715213301751 
0.003451990543586704 
0.005951842727576396 
0.005914032004949361 
0.003290287200193132 
0.0007770001229267701 
0.00246319596420514 
0.004674739092081753 
0.001567346371915458 
0.003045662936970647 
0.002585985519899535 
0.002445269827198307 
0.002823055422866612 
0.003155874711707413 
0.003285457857499829 
0.003365157835316131 
0.00320342728478536 
0.001774710970382173 
0.00260873409357757 
0.002827841553788686 
0.002368876668745444 
0.0009855346977626987 
0.004519872999117095 
0.002767074999606797 
0.003252238044481413 
0.001414596627011462 
0.002957284952511341 
0.002112841276448892 
0.002330756692147254 
0.0004795897283753781 
0.00150203992308025 
0.002054792670322852 
0.002660373810686532 
0.0007727647424393558 
0.002459967461294833 
0.004050949315684471 
0.003205944592238 
0.001372557108306935 
0.001397833530930565 
0.002687452310340773 
0.0009620079003468221 
0.002156001287596384 
0.001108431290454068 
0.002355223824284329 
0.003923938236666263 
0.001607414305479997 
0.0004742676964476192 
0.002858006256545247 
0.003696866315364086 
0.001558452527730201 
0.002458703802209163 
0.002978991659168703 
0.004559399697343651 
0.001910470009167537 
0.002600265464087312 
0.003387580034286308 
0.001899999079039615 
0.00101695685709644 
0.003492841317851411 
0.001582082981011254 
0.004859437836167334 
0.004102920439782818 
0.005546900728188708 
0.002340018333748609 
0.002304580586333131 
0.002868906189659343 
0.004645367867492377 
0.001862297553830134 
0.004848776671416277 
0.00258739940523353 
0.00182608154588236 
0.00287286926594207 
0.004764593043899388 
0.0009029277868026761 
0.002479466180296789 
0.002774761112301339 
0.003463308251951163 
0.002922742080253274 
0.004130136032683176 
0.002133585517521665 
0.002922496973632096 
0.003569200736037398 
0.002198695346332178 
0.00199967727982395 
0.002150399226962282 
0.002352387317547558 
0.002522195048687635 
0.002786666766230381 
0.002857930783388408 
0.001258786043034685 
0.005201502702513585 
0.0006884819017765519 
0.001746877671194411 
0.003321170029806138 
0.001228424362584428 
0.003059693765197153 
0.002875706971642701 
0.005189280519419168 
0.002409441422802285 
0.002007544703177887 
0.004451772127623467 
0.002769577379205509 
0.00367202419517689 
0.002640292242621406 
0.003171552247501232 
0.003824533766248557 
0.004753521336475543 
0.001653125380841384 
0.004336183688797069 
0.001085535941937864 
0.002803980512711535 
0.002340101484526546 
0.001234457703374732 
0.003230800822669264 
0.004963527938230108 
0.003348459917886789 
0.003408969192748842 
0.00203298634950679 
0.002421263329648286 
0.002199910716619012 
0.002504366155759868 
0.003011974372063205 
0.002372446490312968 
0.0008193548937364402 
0.002710344355920592 
0.001738773444606063 
0.0009472397201166533 
0.003231481831759809 
0.002371191477998634 
0.00385830778944989 
0.001750201336678124 
0.001210811363807331 
0.001602623281348868 
0.002010972825986841 
0.002106858320224365 
0.001393951197516963 
0.003293311523310269 
0.001613688961581431 
0.004367580621737475 
0.0007148137363148774 
0.002624460792387993 
0.003614508583493244 
0.002227805179221563 
0 
0 
0 
0 
0 
0 
0 
0 
0 
0 
0 
0 
0 
0 
0 
0 
0 
0 
0 
0 
0 
0 
0 
0 
0 
0 
0 
0 
0 
0 
0 
0 
0 
0 
0 
0 
0 
0 
0 
0 
0 
0 
0 
0 
0 
0 
0 
0 
0 
0 
0 
0 
0 
0 
0 
0 
0 
0 
0 
0 
0 
0 
0 
0 
0 
0 
0 
0 
0 
0 
0 
0 
0 
0 
0 
0 
0 
0 
0 
0 
0 
0 
0 
0 
0 
0 
0 
0 
0 
0 
0 
0 
0 
0 
0 
0 
0 
0 
0 
0 
0 
0 
0 
0 
0 
0 
0 
0 
0 
0 
0 
0 
0 
0 
0 
0 
0 
0 
0 
0 
0 
0 
0 
0 
0 
0 
0 
0 
0 
0 
0 
0 
0 
0 
0 
0 
0 
0 
0 
0 
0 
0 
0 
0 
0 
0 
0 
0 
0 
0 
0 
0 
0 
0 
0 
0 
0 
0 
0 
0 
0 
0 
0 
0 
0 
0 
0 
0 
0 
0 
0 
0 
0 
0 
0 
0 
0 
0 
0 
0 
0 
0 
0 
0 
0 
0 
0 
0 
0 
0 
0 
0 
0 
0 
0 
0 
0 
0 
0 
0 
1.585276595551625e-05 
7.677506893528453e-05 
8.890293311246859e-06 
0 
0 
0 
6.469735949876403e-05 
1.603159880662412e-06 
7.894109438809524e-05 
6.003518139714377e-07 
1.164966370121187e-06 
2.480200894289063e-05 
9.949466270917827e-05 
0 
6.329855363573981e-07 
2.410365088952406e-05 
4.895272867384855e-06 
-4.065758146820642e-20 
-6.776263578034403e-21 
0.0001552973623456454 
5.134138580900572e-05 
1.679094105987926e-06 
0 
3.628500001626888e-06 
3.633993680554872e-05 
1.064563609906394e-05 
6.79200977899477e-06 
1.296177209443772e-06 
8.561160830365127e-06 
0 
3.740064996542338e-05 
4.893610339873905e-05 
0 
1.256537951506337e-05 
4.425640734961008e-05 
8.394431186976633e-06 
1.136779485864519e-05 
7.912724695346299e-05 
4.907079617220887e-06 
2.119439889320358e-07 
0 
-1.01643953670516e-20 
8.150505825124004e-05 
2.088506739376233e-06 
0 
1.694065894508601e-21 
0 
8.168417506930762e-05 
0 
0 
0.0002295638247949593 
0 
1.563380494712081e-06 
1.490314977743695e-05 
3.590632649413255e-06 
0 
1.464242222820694e-06 
2.954652732132466e-05 
3.822734595831743e-05 
0.000113366390250224 
2.135278255709435e-06 
0 
2.594564289956498e-05 
3.290838659906785e-05 
5.976785957311749e-05 
0.0003396446527993136 
1.636655996078444e-06 
9.97564780815205e-06 
0 
0 
0.0001707196049782013 
2.727059216189564e-05 
0.0001052312013249162 
1.581757408499945e-05 
0 
-3.388131789017201e-21 
3.922691468035584e-06 
1.836908461096043e-06 
5.371041677287933e-05 
0 
3.166047883928594e-05 
0 
0 
2.896256561164807e-06 
0 
2.371692252312041e-20 
3.083614927174748e-06 
9.89619108342823e-05 
2.795175628493877e-06 
7.360697897984021e-05 
0 
3.477101587640199e-06 
-7.39036246479377e-20 
7.187680736453067e-05 
-1.355252715606881e-20 
2.083555235543473e-06 
0.0001165083277324845 
5.064060219891319e-06 
3.054328154559654e-05 
5.679504150207934e-05 
0 
3.705183937401711e-06 
0 
4.559574334520027e-05 
-8.470329472543003e-22 
7.68963257862064e-06 
0 
0 
3.004968513379313e-05 
-6.776263578034403e-21 
0 
0 
9.545672073712347e-06 
3.526668120875818e-05 
0 
0 
0 
2.692108090746377e-06 
8.063682109717717e-06 
5.946545549112384e-05 
2.671521358447298e-06 
1.630745070304773e-06 
3.603434780877387e-05 
0.000175702030942003 
0 
0 
0 
0.0001677738971346961 
0.0001109254630918945 
3.879843205544886e-05 
5.903229974170762e-07 
1.343555452746198e-06 
2.078797595359144e-05 
0 
8.665090285365676e-05 
0.0001037193844559158 
0 
9.013534125895463e-06 
5.124299176205127e-06 
0.0001725614612106659 
0.0001411690107555657 
4.395015562577385e-05 
3.668788530532096e-05 
9.208225892401307e-06 
0.0001292109033541803 
3.922187164454652e-06 
2.710505431213761e-20 
2.75668073885347e-06 
1.341330284687802e-06 
-2.710505431213761e-20 
0 
9.867218511906486e-05 
3.469542226679755e-05 
7.479210387449959e-07 
0 
-1.694065894508601e-21 
2.70337548558037e-05 
7.576810971391871e-07 
8.340090320539694e-06 
6.713990219339008e-06 
1.699750619827503e-06 
2.301141914766731e-05 
4.340185700134032e-05 
2.122331901818894e-05 
0 
1.693562609206857e-06 
0.0001074258341059177 
6.375504854860117e-06 
2.343015107700708e-06 
3.388131789017201e-21 
7.705267613005967e-06 
0.0001278935615435284 
2.801407674423215e-05 
4.376055946406476e-05 
-9.486769009248164e-20 
0 
6.013381429723256e-05 
0.0001654889068915408 
9.556119347934199e-05 
2.13693967864779e-06 
8.081207360324054e-05 
5.933585578833714e-05 
9.943395902381311e-06 
0 
2.427788581914775e-05 
6.596950662061328e-05 
-3.388131789017201e-21 
2.891172234512356e-06 
2.279397856544479e-06 
0 
0 
0.0001280998809680168 
8.672466373974964e-06 
3.388131789017201e-21 
2.428105351690358e-05 
6.202724052318078e-05 
0 
0.0001494240867174076 
-1.694065894508601e-20 
3.467540886086357e-05 
-6.776263578034403e-21 
0.0002251072339292745 
1.829443163610141e-05 
4.877869142058095e-05 
1.319854440865633e-06 
0 
-1.01643953670516e-20 
9.611672667406841e-05 
1.569517499317625e-05 
1.331559856303111e-05 
0 
3.368229852635885e-07 
0 
0 
1.137892159683721e-05 
4.142024379134264e-06 
4.062254793051969e-07 
1.804086780382881e-06 
-1.355252715606881e-20 
1.791220867654467e-06 
0 
3.725916302184843e-05 
0 
0.0001008130826260807 
2.630322104138e-05 
0 
3.062713688542997e-05 
-6.776263578034403e-21 
9.07611339306767e-06 
0 
1.891936008958684e-05 
5.229673639034604e-05 
2.264867995320395e-06 
1.93379129204374e-05 
3.214476971743821e-05 
0 
4.648173308758944e-07 
4.631179813152982e-06 
3.674849716093068e-05 
6.957172238239213e-05 
2.22189315941058e-06 
3.544314564855436e-05 
-1.694065894508601e-21 
0 
0 
8.470329472543003e-22 
0 
0 
-3.388131789017201e-21 
0 
4.775873581752199e-05 
0 
2.357654992758717e-06 
6.776263578034403e-21 
0 
0 
0 
0.0001115246201648958 
3.803135313982331e-06 
-1.01643953670516e-20 
0 
2.032879073410321e-20 
5.768698821987667e-05 
2.297020871766125e-05 
1.008189178071982e-06 
6.776263578034403e-21 
0.0001401667774956503 
9.191657210378267e-05 
0 
0 
1.893263008123043e-06 
0.000116918591111197 
0 
4.696802322579446e-05 
2.053363279621529e-06 
2.419301707928373e-05 
2.296161052767271e-06 
3.388131789017201e-21 
1.781364981136201e-05 
6.776263578034403e-21 
1.086441085283605e-05 
0 
5.932261641006609e-05 
5.454189591688876e-05 
0 
0 
-1.01643953670516e-20 
0.0002038478183293418 
1.991997550857881e-06 
2.421199332614812e-06 
0 
0 
0.0002590066466841396 
5.635153174040021e-05 
4.642981677134953e-05 
1.029275290204478e-05 
0 
1.355252715606881e-20 
0 
7.044806942470051e-05 
1.140321777173762e-05 
0 
1.471373045502529e-06 
-3.388131789017201e-21 
0 
7.178013194913302e-07 
0 
0 
0 
5.531076892864656e-05 
0 
1.051604129841217e-05 
9.816885241806925e-06 
2.274236327001336e-05 
2.514021742106227e-06 
3.388131789017201e-21 
0 
1.156187386807576e-05 
0 
9.95190582613908e-06 
8.954855246159949e-07 
0 
1.457990691707162e-05 
-1.355252715606881e-20 
6.776263578034403e-21 
0 
2.469860252496332e-06 
0 
0 
9.471501797692513e-05 
3.327766362816724e-07 
7.898180692267592e-05 
7.960802589260721e-05 
0 
0.0001708551652774713 
6.776263578034403e-21 
-1.355252715606881e-20 
0.0001108229304946855 
0 
0 
2.666281813043691e-06 
2.538026651429434e-05 
3.020960984476963e-07 
7.518598598524703e-07 
2.521956001559261e-06 
1.740095281406122e-05 
0 
0 
0 
7.596035445581073e-06 
0 
2.225688687646615e-06 
0 
2.769336234560785e-05 
-1.355252715606881e-20 
0 
7.543549539001062e-06 
7.526487087663502e-07 
2.440402558122887e-05 
6.349086493659923e-05 
-6.776263578034403e-21 
2.559707947114746e-05 
9.464317780170723e-05 
0 
-1.355252715606881e-20 
0.0001060228767346738 
0 
2.710505431213761e-20 
8.835263489127823e-05 
-1.694065894508601e-21 
0 
0 
0 
2.860730033318858e-05 
-6.776263578034403e-20 
3.388131789017201e-21 
3.388131789017201e-21 
0.000734046881714084 
5.287759619004749e-05 
1.504988741720245e-06 
2.243147939178809e-05 
2.371692252312041e-20 
1.307255761609654e-06 
0 
6.615459363122e-06 
0 
0 
0 
1.457863417231927e-06 
1.562647542364881e-06 
0 
0 
0 
0 
2.199846894266515e-05 
1.187928946873244e-05 
0 
0 
5.155961709715602e-05 
1.100578919264731e-06 
0.0002413600255278233 
0.0002100821315842555 
0.0002812972854089702 
0.000238891860496326 
5.638958646496829e-05 
0.0003333869888447725 
5.336759346232597e-05 
3.702025304240029e-05 
4.051272390852992e-05 
0.001185149222399476 
0.0001026380581708925 
0.0002090199969817097 
0.0002471415828227533 
6.97316009212702e-06 
0.0001462401927301165 
0.0001080247897961408 
7.006552168247142e-05 
0.0002798173355186692 
0.000108166489291997 
0.0004936215509122811 
0.0005552015259547926 
6.350557387841519e-05 
0.0001486877131948777 
0.0001169359595910924 
0.0001707635948200959 
0.000309203113454602 
0.0002789830585585061 
0.000394884178392009 
8.841852650365336e-05 
3.851653947624321e-05 
0.0004280344074224345 
0.0002037496386813425 
0.0004440017730585774 
0.0008336916761979347 
0.0004844375606142903 
0.0001222742907602783 
0.0001003099722508953 
0.0002109460350359623 
0.0001576048497494421 
0.0005979067846994576 
0.0002412724892933269 
0.0006240077984358886 
0.000253342861367051 
2.21671929017531e-05 
3.873170681651561e-06 
0.0001489617212583385 
7.943897214675805e-05 
5.010319348515802e-05 
0.0001368250816729999 
0.0004345821598574253 
0.0005792594054646277 
0.0001439632778974351 
0.0005110530720403832 
4.612963700820792e-05 
0.0001438933198393382 
0.0002772310778307742 
3.134455855497174e-05 
0.0003372366577774921 
8.416342637593113e-05 
0.0003974260461417345 
4.058891532266581e-05 
0.0001436267545168177 
0.0001873975460631024 
0.0006532542799994637 
4.980765184408658e-05 
0.0003979755479048711 
0.0001295094147318814 
0.0002715817565951848 
1.127913172084057e-05 
6.277838669985247e-05 
0.0004968545173625383 
0.0005892499190274743 
0.0001248328442201328 
0.0008366175959203528 
0.000434062192846571 
0.0004027019298685129 
0.0004388051746079451 
0.0005884198205314886 
8.573786350627814e-05 
8.163622068244897e-05 
1.161739885805071e-06 
2.536260186296291e-05 
8.588508754522024e-05 
0.0001142917586547264 
0.0001968120804779758 
7.180370883466226e-05 
0.0001132443208769617 
0.000779366983116833 
0.0001424808148593798 
0.0005563746580895837 
0.0003277015995357437 
0.0001329848080272744 
0.0001884952744393014 
0.0002532956815226689 
0.0001732994998528977 
2.931898235838286e-05 
0.0003381511088843281 
0.0001109740407636447 
0.0001362003943931422 
0.0004086848208104077 
0.0008471500843937703 
9.497400833805934e-05 
0.0001907856707327285 
0.0001898425551516646 
2.649005220161705e-05 
2.350189684515792e-05 
0.0002481489650600005 
4.635980640996318e-05 
8.207414287163213e-05 
0.0001838409566989758 
0.0004731868874093831 
3.324595519133781e-05 
0.0006358450404560052 
0.000215484606769429 
0.0005460991019109765 
0.0001374788901802805 
8.081534356273896e-06 
0.000102880165183526 
0.0004315021443724684 
0.0003592910945877986 
8.62966582571085e-05 
0.0001245835591437233 
0.0001330196376720595 
0.000210981659210008 
0.0001805163148162659 
9.851867873594486e-05 
0.0005530073715614259 
0.0001041242127848225 
0.0002365351430978479 
0.0002779774827815658 
0.001086217309788992 
0.00114276527227942 
0.0002974167126190635 
0.0001749147497282023 
0.00072841121057114 
0.0003699456145535933 
0.0001997443875377054 
0.0001899264947744524 
0.000151519121753959 
0.0002095997642422801 
0.0005128101074759299 
0.0004630999618241373 
0.0002737280865341085 
0.0001324289657361808 
0.0004938181433579708 
0.0002230403543305288 
0.000209433891480539 
4.569326817807041e-05 
0.0002013399410049268 
0.0003809126403171471 
0.000349189756526913 
0.0005044654232301449 
1.764561845866853e-05 
2.355650855565861e-05 
0.0004566012437952878 
4.253792866792646e-05 
1.264593861353162e-06 
4.472036313281219e-05 
0.0001489526298990099 
0.0001144908471779358 
5.404192832667003e-05 
0.0001937816130258869 
0.0004642129873424874 
0.0001388382953948884 
9.942209193353851e-05 
7.966258160876715e-05 
0.0003759124295814865 
0.00015798838316394 
0.000174047430188482 
0.0002835275546241619 
4.519932834769786e-05 
0.0003220079227159843 
0.0001770669444088931 
5.165702722174831e-05 
0.0005313588121569891 
0.0001900416446763946 
0.0002085735807159099 
0.0003610936992514992 
0.0001958655450614856 
8.50822617004653e-05 
0.000629291597904749 
9.643444818192459e-05 
0.0001270188889210909 
1.438482897044583e-07 
0.0002058396566183143 
0.0002778363535312108 
8.412292638061009e-05 
5.822491557136928e-05 
9.423486927082402e-05 
0.0002432720504990502 
0.0001524162574381561 
0.0002228215629162866 
0.0002217912415241978 
0.0002362758771960298 
0.0002333659051907308 
2.076318530608456e-05 
0.0001137092406079343 
7.052922379716807e-05 
0.0009050517061320055 
7.260097221142506e-05 
0.001173932272751256 
0.004034362615727016 
0.001193859329679181 
0.001630170354556837 
0.0008074455676880232 
0.001485103406343889 
0.0007038929988902611 
0.001263156973231047 
0.0008806063103351569 
0.004694298144971351 
0.0005515438530539461 
0.001131593091774427 
0.0007277493562092948 
7.642676902761661e-05 
0.0008928995080374655 
0.0009458966333239999 
0.0008526436665120822 
0.0007972039377054469 
0.0003912274513344608 
0.00148711379964332 
0.00271051692903741 
0.0004958725246525914 
0.0008993574213225793 
0.002678013498714086 
0.00295663082028387 
0.002025693790054974 
0.001854067285595599 
0.002737797202423195 
0.001335846275297031 
0.0004266965705781298 
0.002505610983926931 
0.002586766945561836 
0.0008150969152740391 
0.003403910390157651 
0.00394133631630567 
0.002704927508774143 
0.0006023488039861153 
0.002214819305298446 
0.001252237778840385 
0.002916601642536233 
0.001002525584239173 
0.002153415120169902 
0.000815461732741059 
0.0001144177587945272 
0.000191107015925899 
0.0006575092853918359 
0.0005199273734982903 
0.0002150642876860695 
0.0006118544456887038 
0.002220068319533187 
0.00287243108420845 
0.0005858503043576381 
0.0009932666181153686 
0.0005127623732687005 
0.000630984634925978 
0.001000269800677812 
0.0003523070362890729 
0.002188797220105285 
0.001275466216873729 
0.002777753722692127 
0.0003099963048154338 
0.002238878850963767 
0.003054631540214446 
0.004198034664969524 
0.0007540432187877976 
0.002708070089205067 
0.0009915198039263384 
0.003423686723132914 
0.0001945982090539854 
0.0002967710719183951 
0.001293484124145415 
0.004359449043159786 
0.0008328725393880205 
0.003870705680295612 
0.001036440286466104 
0.001635511763838162 
0.001352347261305909 
0.003909951009593586 
0.0005388396326625194 
0.0007583608201744748 
0.001765064514792669 
0.0001553132214328242 
0.0008522226306127177 
0.000823279611022039 
0.001297622080041485 
0.001108255754841226 
0.001123408079164896 
0.001973706282597183 
0.0007379145978489135 
0.001357084001786039 
0.002232448125054064 
0.0005426540496374876 
0.002885386658580841 
0.003373674511679089 
0.0009174268441886667 
0.0007432595986901296 
0.002216077388989776 
0.0006981518907825257 
0.001658451824561492 
0.003397365262313339 
0.004342555679545316 
0.0003572222888911207 
0.0007594169651856986 
0.0009764359824468305 
0.0003760712227046533 
0.0005281264133151822 
0.001278512963579885 
0.0002075784421439329 
0.0009713288974795582 
0.001006819057949044 
0.00105594570139905 
0.0003261556206051934 
0.003080181837017636 
0.003537888547845204 
0.0009106966357876384 
0.00160757255365886 
0.0002815914841508272 
0.0004632898272593261 
0.002645003960675277 
0.003363980220128917 
0.0004139037528460073 
0.0008608247748107805 
0.002835192371165671 
0.002469710225057337 
0.002365381084076159 
0.00112903964580018 
0.0009338547794702533 
0.0007563889243160269 
0.0007724522251736079 
0.003681763630459581 
0.004697648855561698 
0.002816581205712568 
0.003396462050019962 
0.000741344035813109 
0.003170491232693625 
0.001881610305948137 
0.00188784195784569 
0.003175733628929936 
0.0008560699168806762 
0.0008936394982640281 
0.001491799950627628 
0.003441212567341439 
0.00177385259445565 
0.0005619230463848301 
0.001268887339740466 
0.003342823788552387 
0.0009870498113085534 
0.0001705773880671953 
0.001249819898866365 
0.001594615995210067 
0.001520428484708274 
0.001070959413335335 
0.000283073087637913 
0.0002859366576104538 
0.002139680637097611 
0.001126024547831949 
0.001155748005526459 
0.0006696113205238311 
0.0008534104521381497 
0.001225265015100262 
0.0003031303704990769 
0.001309802557146067 
0.002681518052835398 
0.001372458771982716 
0.0006618135932308621 
0.000518013616017919 
0.0009640736698766013 
0.001129244547976002 
0.0009418204697089748 
0.002733134679641485 
0.0005182161730027685 
0.00133607161031675 
0.00131575407548762 
0.0008531758841654449 
0.003607062189391081 
0.0008067931686230393 
0.001466144286316391 
0.003951615281644683 
0.003284541439512227 
0.0003518907555463492 
0.002224425102285819 
0.0007028516215270976 
0.0008022611700404039 
7.314744479628975e-05 
0.001395244927719167 
0.001112590241201851 
0.0005221526511731595 
0.0001978820218090708 
0.0003682940148874772 
0.0007321123784058166 
0.001075147693747641 
0.0007154991606079804 
0.00159920962201036 
0.0008256777960771327 
0.001752823600703373 
0.002071500629161399 
0.001369827744408812 
0.001094000797664503 
0.004661459831617695 
0.001018289726246834 
0.0005879635828955946 
0.001069649130601183 
0.0003388916808726617 
0.0009556049610829633 
0.00074620431767523 
0.0006339088642560865 
0.0001357999088903141 
0.0003011318790014492 
0.0003258833340362864 
0.001848471435241714 
0.0002039503294287906 
0.0003568335088010722 
0.000105686262390242 
4.137250037441871e-05 
0.0003928901307845952 
0.0002550526991461298 
0.000175557654118238 
6.549314068793895e-05 
6.711138689906051e-05 
0.0001119000566547383 
0.0007724530034749269 
0.0001860882719009127 
0.0004279029556952247 
0.0007490844237281734 
0.0006968657127243063 
0.0007138780978251843 
0.0006479474335745623 
0.001160196250966547 
0.0003942276900905351 
0.0001893035931662741 
0.00108556060116349 
0.001014342572855735 
3.388131789017201e-21 
0.0007392419141153566 
0.0009956822820614162 
0.001332102414070768 
0.0001116111841933302 
0.0007919766415573014 
0.000253332581204635 
0.001466841069021021 
4.593191130979302e-05 
0.000958596305107219 
0.0002122576771054562 
1.168062989137748e-05 
4.127057645565459e-05 
0.0002138791395484296 
0.0001001389227428629 
5.121341515933601e-05 
0.0001426689443442482 
0.000791812416944834 
0.0007503464515696579 
0.0001684606080447173 
7.459615155145746e-05 
0.0001929152201780789 
0.0002224562598323646 
0.0003662908928481073 
6.446660797100952e-05 
0.0009700107723188417 
0.0005416493274782785 
0.0006448878219923184 
0.0001154482201243485 
0.0003076902639833906 
0.0006124594830494444 
0.001339373831637036 
0.0003225069456474964 
0.001146627156984364 
0.0003717255074975251 
0.001136952987522559 
7.059553701397617e-06 
6.233172234519002e-05 
0.0001415652388129306 
0.001271034216896883 
0.0002226439595878309 
0.001339597210630334 
0.0001436259856738427 
0.0006421537967223859 
0.0001212595338723644 
0.001413618350450394 
0.0002373965167407824 
0.0002122056402043974 
0.0001715470883787939 
5.378220083263627e-05 
0.0003512359201261047 
0.0002107568839132895 
0.0003873474201847267 
0.0004764488478828949 
0.0004888398132419482 
0.001222027198385084 
0.0001055126936161273 
0.0001470817769172617 
0.0007921273572370094 
0.000109445420082041 
0.0005023574853596815 
0.00138259084826723 
0.0003054688688059201 
0.000193517589464038 
0.0006655249357899672 
0.0001998298483726698 
0.0007718977088147893 
0.001102551013579402 
0.001425322739889238 
0.0002131511803856321 
0.0001091757764980565 
0.0002638761793828146 
0.000253910697323298 
0.0001694431651333694 
0.000510625378514627 
5.278942706167171e-05 
0.0004433150465251391 
0.0002223985865439824 
0.0001117300059967323 
4.136342529476126e-05 
0.00106990790563148 
0.0008189350712114567 
7.993873439712459e-21 
0.0002579431385193988 
9.20869893413278e-05 
0.0001490090946447857 
0.0008968218255149262 
0.00080304972626364 
0.0001520149634454395 
7.149443360045637e-05 
0.0003847992600620031 
0.00077435556849477 
0.0009981240754146506 
0.0003942323464535707 
5.082197683525802e-21 
6.566716705201474e-05 
0.0001317652371599356 
0.0006779485858984076 
0.001710069689815476 
0.00129839342166194 
0.00115781399435684 
0.0001090364087299931 
0.001315716893105733 
0.0003629997627822327 
0.0004679147792698474 
0.001358736296473816 
0.0003808830949514427 
8.922101445730332e-05 
0.0001071159769190234 
0.001098430373224734 
0.0008217988232438474 
9.018718487894097e-05 
5.848129629060048e-05 
0.0008014982118806033 
0.0001149687676252995 
7.739384209524687e-05 
0.0002741258784440062 
0.0005831995140106688 
0.0004420592300127096 
0.0001045408918326274 
7.520590263845586e-05 
0.0001067283955411098 
0.0004241881801937554 
0.0006808489967693888 
9.810901890720003e-05 
0.0002102486853408304 
0.0002765142302341331 
0.0006346288850554598 
1.371241050982131e-05 
0.0004154842573245135 
0.001358899736350149 
0.0006175851401235566 
0.0004578453508790272 
0.0002032964849852279 
5.579741142076159e-05 
0.000285553622397052 
0.0004085366173487691 
