solver_type L2R_L2LOSS_SVC_DUAL
nr_class 1
label 2
nr_feature 90001
bias -1
w
0.003195836237748098 
0.0190588628247986 
0.004752152653828699 
0.003836473060021491 
0.001291732756293944 
0.00629380125258239 
0.003452470329593801 
0.007494355223779539 
0.002428480513107167 
0.01096465465157196 
0.002989454002457368 
0.004291495894672143 
0.003796494463490887 
0.0002087519949322228 
0.002297742687348299 
0.005246823470899441 
0.002297712456746254 
0.003276767198034235 
0.002450948614954969 
0.006048639066344149 
0.005486961095976502 
0.002628138121119809 
0.003607167687750447 
0.01808446739817329 
0.01739123117769114 
0.003799925242242181 
0.005429412891916016 
0.01110353334418131 
0.002427484601742108 
0.002107375273726632 
0.01241460845189635 
0.0133548108118248 
0.001956993036001472 
0.004574191367897099 
0.0222397314125772 
0.01208652748748751 
0.002292184341151038 
0.005066137558878121 
0.006892208894190081 
0.01219952118053417 
0.003362092713067802 
0.007585021213243022 
0.003907286803576227 
0.000446298548635721 
0.0005902659806775155 
0.001322636249237546 
0.002840194641318607 
0.0008354383110719127 
0.004282432924854369 
0.003916643349514122 
0.004313785129928783 
0.002281643057412441 
0.003399203773133853 
0.002297580494539569 
0.003809002730908651 
0.004603565792864845 
0.001555684560052545 
0.00940367226769514 
0.003061392524832286 
0.004425081842739965 
0.001510423011376674 
0.005466897371146999 
0.0189587489510901 
0.01128579955310742 
0.002088868291604712 
0.003973426711571975 
0.003224301888536021 
0.01890575560628942 
0.0008951868396873688 
0.001622018936101224 
0.005646495668442606 
0.01788706878406493 
0.005517577344630569 
0.01479207430344283 
0.00346355183862522 
0.004033662258110267 
0.004371870150362467 
0.01035860457362258 
0.0008830953330525299 
0.003422926385290808 
0.01331794206926362 
0.0007392913353325235 
0.003579701009699285 
0.004925633051821092 
0.004154363333840119 
0.002609392540147643 
0.005306882419108467 
0.009160919979605669 
0.003266469885675124 
0.004312209753023107 
0.004132100171766154 
0.002707385656261432 
0.00313646121319536 
0.01634400521569412 
0.005315891507005038 
0.003589276763511343 
0.004764532269675648 
0.003142778032103316 
0.003562077809021081 
0.01361672463439638 
0.007318401662955784 
0.001908659314582809 
0.002966401685255366 
0.002186720810126777 
0.001782213596772955 
0.002202612832235708 
0.00476646784633568 
0.0002797345373946229 
0.002647957510632119 
0.006226367076568842 
0.003008103035516321 
0.00215683636806288 
0.007893606903757613 
0.02122907220191349 
0.002057716131778994 
0.003065543951923086 
0.00128376629842025 
0.001604130976285608 
0.00530160123586419 
0.01867143621643333 
0.001721757789389497 
0.003165931723289781 
0.01949972490322936 
0.004423961907095212 
0.01298573038184854 
0.004558601028220145 
0.002384095303991365 
0.003491381557735573 
0.004215200980320669 
0.02050682603028228 
0.01073462264164114 
0.009012810419596673 
0.01652054317933654 
0.0009771606378683473 
0.01569915178923212 
0.002265328131313198 
0.004282137303069642 
0.01420910141342066 
0.004856053046787698 
0.005496783635970975 
0.005163079408445642 
0.01072036797464867 
0.004566703183868421 
0.002057880010983355 
0.003314315089026561 
0.02002442694060177 
0.004840062713844729 
0.000952891857309097 
0.006025129934656118 
0.007625772643422338 
0.004905600110538613 
0.003246083628669419 
0.001329314157434627 
0.0008936911456606247 
0.003637580475722877 
0.002885794511353582 
0.008511692974751513 
0.002041779897618911 
0.001149821261595929 
0.004897265531580112 
0.001207707961414487 
0.00575306846562793 
0.01450194042617936 
0.003180995881783363 
0.00254710379183301 
0.00315233875500373 
0.002639398362321548 
0.005694999016603989 
0.004462618187782279 
0.01137080906534784 
0.002254734660692303 
0.006538040193780346 
0.004412542274573411 
0.00256055933046269 
0.009630762476279647 
0.004426689749100925 
0.004843800990854844 
0.01373253228316525 
0.01782976641590183 
0.001439209014206495 
0.003442844907916322 
0.004452932308221432 
0.002335731028988638 
0.0001972218950842021 
0.003709536381961539 
0.005043008887873658 
0.002703376110468239 
0.000511053158131745 
0.001678003943743442 
0.00335468264757019 
0.005203808786095939 
0.004570930708281832 
0.003179345944525131 
0.001722434889767583 
0.003005933397587117 
0.01419685650667573 
0.00406850366918886 
0.006207499948590783 
0.01216246449340507 
0.002425788037248096 
0.009957574917535947 
0.004747682707041324 
0.00744615960645869 
0.005671632868481264 
0.005257765204401883 
0.009856046124288857 
0.007955066581488562 
0.003215523068552363 
0.005616895109367586 
0.002825945032422126 
0.004248097844701197 
0.01030336027547738 
0.005901392671375501 
0.005939819056437054 
0.004751242691133239 
0.003208065472217611 
0.01090657879516086 
0.005673290830243369 
0.00596433936788112 
0.005025595097610251 
0.004339297746126681 
0.003502241403813979 
0.006631741467998645 
0.00618898429870886 
0.00302678190701183 
0.00513709595477478 
0.006593384516700786 
0.005159285501486868 
0.007638303281943943 
0.00517903343371301 
0.009154849591842115 
0.00425005207891499 
0.005331551481249362 
0.003249190306332176 
0.002269956921333188 
0.002562349329032555 
0.00755843208652895 
0.008417032744937507 
0.007527953175723186 
0.006460683219456544 
0.005106782398695889 
0.005900064269648256 
0.005922882576737894 
0.005596174687219123 
0.00634465158976538 
0.006447494779846326 
0.006949423238476578 
0.003578459708407352 
0.001672897914114641 
0.005021149135880257 
0.005448277534722335 
0.006008028860784029 
0.004712633839383384 
0.002660585276400265 
0.002508241560279668 
0.006822984422044868 
0.005069103108181051 
0.009800498002937835 
0.009080038710622306 
0.01417981829075604 
0.01622663315505613 
0.007396368866254907 
0.00271356880187415 
0.006459557232022173 
0.005282585291361244 
0.003070509148063596 
0.00723468807643176 
0.008717387258502469 
0.006647846551684523 
0.004459903163780805 
0.008770355412193018 
0.003410720572863108 
0.002911374429936518 
0.006291653015492103 
0.004241439419266016 
0.003500259804615674 
0.007814249650673032 
0.007677713291440117 
0.002564488366788555 
0.008694465953138327 
0.009926322126321706 
0.007878288886855149 
0.003211736079412099 
0.004866805137741428 
0.006984036371018033 
0.004089654503098806 
0.001653449117850786 
0.004906463520460032 
0.004050384648920118 
0.009209146028138743 
0.003825798371844467 
0.003928644634162096 
0.007875380619390389 
0.009176955019948422 
0.004459667879146373 
0.002780450367909226 
0.005442251778709942 
0.004781079214246068 
0.007682169469603708 
0.004666936823067531 
0.007198371516750419 
0.003195535767860756 
0.00473384470561869 
0.004800230219243857 
0.006782535981399641 
0.004882060726112697 
0.006508599295601468 
0.002605191014830266 
0.007471174175608148 
0.009672953122795629 
0.004648842536423564 
0.003090102031058336 
0.005486568620730832 
0.007386139246391058 
0.002813297965826593 
0.005510042073806656 
0.004147286630271569 
0.008671700226020236 
0.01014670937334725 
0.01530840823073616 
0.002945732073321278 
0.006042997215381513 
0.005896326431939266 
0.01143177900252226 
0.005470012854396827 
0.01053727828097211 
0.005251813248921666 
0.003327264079543059 
0.004480387070922178 
0.00927124275304738 
0.0043367308622468 
0.008387395844969118 
0.003084875458333302 
0.008139313152512966 
0.006658276987930744 
0.009318608364613618 
0.006186895207484015 
0.008078468522078068 
0.002800094945627217 
0.005436062337919093 
0.006996224021078342 
0.007444799864682487 
0.007242317191245485 
0.005008450074506309 
0.005220044925731372 
0.007419265592437454 
0.004457025303426884 
0.01002365725233781 
0.002325165860613067 
0.002994856653662543 
0.005472359709798103 
0.005440072171644862 
0.005682479279583183 
0.006366661504949088 
0.003801750847588241 
0.006623757586692192 
0.006019047652134962 
0.006281664321203673 
0.00588769507468836 
0.005829858519062152 
0.002905714726381275 
0.004387405599932099 
0.009822790288506935 
0.00948033778638189 
0.003472732850769137 
0.009467237545139458 
0.005027448803564464 
0.004845480111154345 
0.007464946299503321 
0.001799296346886214 
0.009882850035056717 
0.01198291039864928 
0.00378249266860479 
0.01035254144422581 
0.007252579019229126 
0.007556898629700521 
0.009201739407345595 
0.004610508804560327 
0.004325828238200846 
0.008257559297336974 
0.004267427320351805 
0.00596287979165933 
0.005623391439046697 
0.004580795441141337 
0.00420908983793258 
0.006317097319476688 
0.01077632288382601 
0.007133163199753009 
0.003358862707328542 
0.004756964590691522 
0.006556050673410498 
0.004822138911845918 
0.007032707568967516 
0.01008160141177347 
0.007864324930348134 
0.0056563785653655 
0.003481639953644511 
0.003635018014227904 
0.006801729459506415 
0.009894191800817393 
0.001100112373727143 
0.004523983161933313 
0.001167241852581051 
0.0012488420358471 
0.0001848644734971423 
0.001232100843874037 
0.0008274542562509538 
0.001342104506481977 
0.001073574767511183 
0.003214279406457906 
0.001043624182405453 
0.0009821380628943428 
0.0007150394278630703 
9.821398917808251e-05 
0.0006755907696559733 
0.0009071442206964146 
0.0006986105363356164 
0.0008241660747564477 
0.00067703281247551 
0.001272505329856969 
0.001862262094600604 
0.0006673912991622455 
0.0008838426103185634 
0.002891829487329091 
0.002903327378132511 
0.001264387966583124 
0.00144153696310934 
0.002330129149332434 
0.001063166633758913 
0.0004614917456377132 
0.004104774862739986 
0.002355679383950145 
0.0007205126346172234 
0.001708401909397991 
0.003919264793379907 
0.00164877940900509 
0.00113312921645888 
0.002437964677078146 
0.001028405241199776 
0.002571378605045154 
0.0009025837715776945 
0.002267912266133698 
0.0007856957016892763 
0.0001583283443009562 
0.0001859581819826976 
0.0004482263828256475 
0.0005078963859508543 
0.0002119307209192033 
0.0005284086781303404 
0.001245816763329447 
0.001624480425469518 
0.0006097392278664078 
0.001097909923398547 
0.0005335461236221439 
0.0005876366161358483 
0.001011616391678973 
0.001025036509883701 
0.00237095586337012 
0.001320472255586656 
0.001737757784759187 
0.0002261892183516517 
0.001742274464372056 
0.003033386026361352 
0.003122760117992689 
0.0009836547733900463 
0.001747787250380708 
0.00063248935714136 
0.003086148400543142 
0.0004189510032162144 
0.0003084305823500545 
0.001126249389653283 
0.003643637280628195 
0.0009598010933075471 
0.003485259053386579 
0.0009189018721891942 
0.001418679223699947 
0.001063027399149112 
0.003041190522816031 
0.0003944583161517981 
0.0006760968785676229 
0.002727793292444775 
0.0001862153084637487 
0.000480760831027701 
0.0007219477671466539 
0.00101877023517058 
0.001008741416320458 
0.0007867502563153738 
0.001892879043653359 
0.0007480153424732921 
0.001410404838474598 
0.001233846850118545 
0.0007244324894437435 
0.0009783502959526339 
0.003657158275245269 
0.0009787382603487743 
0.0005834312578867108 
0.001616685627132198 
0.0009997433584129601 
0.001052002999341443 
0.003550378081756713 
0.003142853227058595 
0.0009410024351251846 
0.0006780760248750479 
0.0005813967282219109 
0.0003006827153984101 
0.0006324560150774683 
0.001052184888393812 
9.936043588823582e-05 
0.0009933123940891718 
0.0007934420814721978 
0.0008330544057682516 
0.0004022871706541337 
0.002431822506489795 
0.004113902419007574 
0.000857782724949533 
0.00110651229247828 
0.0006112613352424115 
0.0004282826980060231 
0.001511884385929055 
0.002995752896419786 
0.0007780758282192405 
0.000837188433165495 
0.003725114652497415 
0.001619208240250929 
0.0018081215224994 
0.001008119137798941 
0.0008783938471022992 
0.0006260816727845328 
0.0006402557262465352 
0.003450612982733517 
0.003547106596744843 
0.001771839173181458 
0.002510592943890365 
0.0003351213173150484 
0.003923537693939249 
0.001010088722036393 
0.001333598176881449 
0.002130368846267387 
0.0007720617594042167 
0.0007832171021828719 
0.001391164390501094 
0.00332138400026788 
0.00199828287743099 
0.0009980055622057452 
0.001020503349742686 
0.003237905588793685 
0.0008525648961998851 
0.0003624716061368529 
0.001145730671877034 
0.001643006388533603 
0.001085295073686087 
0.0009147413098381703 
0.0003423043321919617 
0.000247582166426954 
0.00138512625996141 
0.001190080973731951 
0.001735767303135195 
0.001127891336393286 
0.0004313532066770638 
0.001043283990537454 
0.0004227885420546978 
0.001067501452958099 
0.002457515271337754 
0.001145462853966364 
0.0006167997281867036 
0.0005178461954637285 
0.0007470731600079715 
0.000782061399303726 
0.0007127309962096359 
0.002003565704966551 
0.0009759251766246058 
0.001350396270067711 
0.0009707850088750523 
0.0007721255402572483 
0.002613934093912237 
0.0007192178368695284 
0.001046428473477109 
0.003580139857828272 
0.003402403328739245 
0.000362433985461469 
0.001634029728206077 
0.0005888299330972996 
0.0009031750557576791 
1.777001390068828e-05 
0.001063102630922329 
0.001180346077431915 
0.0006842285689522506 
0.0002015351827005805 
0.0003838592656432884 
0.0007267764976139295 
0.001077933897930887 
0.0006048111325726372 
0.000835501711535096 
0.0006832176863828019 
0.001082858796674471 
0.002656280719695529 
0.00131709943001517 
0.001204933771774056 
0.004037756662822819 
0.001140311134206557 
0.001383047713944039 
0.004704994030195991 
0.001337044362504613 
0.002196177178643662 
0.0006025921325853936 
0.00206915436850626 
0.000810033362411862 
0.001704032468853831 
0.001714738743350526 
0.005110731864770213 
0.0009132397015991574 
0.001379818662269081 
0.0006682896322835073 
0.0001668798569902256 
0.001001505670364109 
0.001218365982964552 
0.001230088767106646 
0.0007194127836410649 
0.0008797173075728529 
0.001114658745826889 
0.002993412721114211 
0.0005844874207684335 
0.001170570908622642 
0.003760204020516229 
0.003532476154157495 
0.001742363505921045 
0.002123800126502945 
0.002924521600045763 
0.001324789614526894 
0.0004928012112236805 
0.004146142846882653 
0.00290428603331743 
0.0005923257813894708 
0.00286747440681212 
0.004744941453830105 
0.003178128970480888 
0.0008773362806417491 
0.002536967043934688 
0.001332890362662711 
0.003471595289919152 
0.0008105849314454744 
0.002499140451806475 
0.0008000418007478569 
0.0001262975857039794 
0.000206866505673393 
0.0006755888750126863 
0.0006877845467189723 
0.0002388939743704352 
0.0007352815855355013 
0.001988041855995487 
0.002317084862056284 
0.0008424474749853787 
0.0008167286374922243 
0.0005857566669730831 
0.0008666370667456043 
0.001541150913597588 
0.0005868554901221552 
0.003033158954197419 
0.001523445193630358 
0.002624738323747784 
0.000338812349802089 
0.002524498826850937 
0.00357383839665042 
0.004158931192464057 
0.001443532823358893 
0.002975095384362207 
0.001199994145462137 
0.004139007944162778 
0.0003215422606372491 
0.0002906658393528554 
0.0009561474954733538 
0.005159776568934801 
0.0008597554375431216 
0.00434848149621438 
0.0008044816199144044 
0.001653317016632439 
0.00102144930351467 
0.004499842257886117 
0.0007864850831932221 
0.0008146441838564287 
0.002707919501705687 
0.0001403658031527531 
0.0010294196859232 
0.0009551934143839505 
0.001464500965430322 
0.001485322547054515 
0.001554641956111486 
0.002707206116669222 
0.0006748011396148315 
0.00109243269741045 
0.002183406853135375 
0.0008480214814321894 
0.002094874237043499 
0.004222833993957967 
0.001161479720961119 
0.0009260926350968007 
0.002449592769128317 
0.001005717166096179 
0.001900706081306814 
0.004160766705775504 
0.004230087242685941 
0.0008094019290730692 
0.000761184926366991 
0.0007101112433522267 
0.0004375873279243231 
0.001079892245080609 
0.001573136047785023 
0.0001946831205786223 
0.001152570980956203 
0.001191816771392489 
0.0007919475265344729 
0.0004659639140776553 
0.003099095483360655 
0.004356232229744754 
0.0006437714246918584 
0.002055251842695439 
0.0007231712852677753 
0.0005354647162299292 
0.002469226821507593 
0.003990806913984241 
0.0008243999878908099 
0.0009578169618936971 
0.003880288181594958 
0.002504444514527812 
0.002692378687871223 
0.00131948259466934 
0.0006152619059250148 
0.0005658890785076688 
0.0006933436089812931 
0.004080743736164057 
0.00494381034978181 
0.002427450089530134 
0.00408705351767879 
0.0007848581972681169 
0.005054152145417651 
0.001526828915671079 
0.002313729931917429 
0.003991708539864215 
0.001201135687571915 
0.0008819799077214527 
0.001145468638187962 
0.003309043333763321 
0.002286261547022795 
0.0007692387066772196 
0.0008152320210877013 
0.004073135408294918 
0.0008895961189652169 
0.0001766898612646228 
0.001403344304548474 
0.002793370311758718 
0.00184024755085732 
0.0008232136990594778 
0.0007333670042638079 
0.0004087424248420708 
0.002264449215320515 
0.001814420163584857 
0.001703294275701518 
0.001619865530777244 
0.0007759470163841564 
0.001719408200835187 
0.0003159967574506128 
0.001500154318001367 
0.003372503490136163 
0.001427504243275252 
0.0009677248712171778 
0.0008342351853275344 
0.0008325691699651253 
0.001161066398769134 
0.001150783521018641 
0.003863159572539714 
0.000764946343254866 
0.001595301451361705 
0.001534190352087943 
0.001652549753478928 
0.003618073198162463 
0.0007886213019176666 
0.001815952567493373 
0.004162105351083546 
0.004186809497667426 
0.0002303457923584344 
0.001952912387849253 
0.0008212248364394133 
0.001077084617784301 
0.0001027965044109671 
0.001361666774877994 
0.001613831373152293 
0.0009190393229963888 
0.0002310248333970278 
0.000292914276000932 
0.0007020926130926459 
0.001401802823223426 
0.0006684575743412017 
0.001346911687417685 
0.0008710293048780644 
0.001613237277650156 
0.002772546435849133 
0.001292661955831528 
0.001224849022172703 
0.004715171096021572 
0.001730312064048017 
0.001241011329075305 
0.005701766806827173 
0.0009780168726442736 
0.001725253627326552 
0.0003658760758404361 
0.001898175067549209 
0.0007890547432883324 
0.001817495631698094 
0.0006811693723235812 
0.004285545660647657 
0.001019502215563513 
0.00164900411969054 
0.0009609513724776219 
0.0001256244012820397 
0.0009002459072277222 
0.001267885395421085 
0.0008736096508949958 
0.001029277439417369 
0.0009003176687855339 
0.001472475482529348 
0.002320713411647294 
0.0007793500118924381 
0.001613058938244026 
0.00400005573503563 
0.003141588298369512 
0.001589112289798581 
0.002420295610309472 
0.003754584752102988 
0.0007745487795921043 
0.0006554803802502265 
0.006320328021631984 
0.003489188336704586 
0.0009563852741906049 
0.002314692570898322 
0.004926552345037592 
0.003553319275280861 
0.0007228353766442955 
0.001727203268632786 
0.001640916158273238 
0.004702248173943694 
0.00109935857375694 
0.003790087463439691 
0.0009305710492183121 
8.798422320015031e-05 
0.0002717788566984372 
0.0005830184543496575 
0.0007020098534145094 
0.0002878253217594871 
0.001050120276156344 
0.001545149623748127 
0.001852402692789615 
0.0005296691229253898 
0.001142515996349561 
0.0006465477287403489 
0.001248989690644646 
0.001439978429306521 
0.0006815153587762923 
0.004875713539824364 
0.0008977715869995179 
0.001964299067237186 
0.0004084676864764215 
0.002022655365369612 
0.00387099197630384 
0.004337411799340064 
0.0008319002119724365 
0.001920391985763342 
0.001143034740236454 
0.005139296558662828 
0.0003239598601152375 
0.0003365521051662913 
0.001470431503686737 
0.00598989945850246 
0.001319046423788774 
0.005488838079584004 
0.001146808048307615 
0.002170302910648382 
0.001245403994233742 
0.004454126345174664 
0.0003373636003901489 
0.001025043632503491 
0.002152464474834672 
0.0001563006889612044 
0.001110189584552696 
0.001460264617527133 
0.001655702151599989 
0.00071913010654666 
0.001890507954367948 
0.003701149618946651 
0.0005625474840449344 
0.001570425336227661 
0.00131677520931526 
0.0006531577708124947 
0.0005934255569037326 
0.004503653514868471 
0.001563870823084948 
0.0012545408942334 
0.002042531663077909 
0.0009757013468349216 
0.001290341998797572 
0.006053795659649435 
0.003421072874827718 
0.0005777113635844673 
0.0009270032042052492 
0.0006587183049686434 
0.0005538896140416906 
0.0006876118059557749 
0.001595489907669188 
0.0001175049973295491 
0.001148565724108828 
0.001698090319721464 
0.001147181471229391 
0.000360113979267223 
0.003195238639920564 
0.004545525109231063 
0.001104664162483972 
0.001554921000926891 
0.0004370758009017441 
0.0006171327295484901 
0.001860337044412203 
0.004524246555322043 
0.0006612858876416354 
0.000953290582622687 
0.003561829979527198 
0.001886079798442268 
0.003386184098594123 
0.001218561223835457 
0.001126230582557336 
0.0005680656964854882 
0.0009383477981942272 
0.004115924908096394 
0.004414422137909433 
0.003567085081057358 
0.004683154944952805 
0.0004807111648720328 
0.006665457586557207 
0.001111365339431767 
0.001665279458011626 
0.004518590217755675 
0.001560484520923021 
0.0007798273394966691 
0.001502396124961597 
0.003932110595834462 
0.001434134780851585 
0.000632587454917513 
0.001141297271758266 
0.004287390667377213 
0.001381807466597273 
0.0002174198313830961 
0.001667142905123434 
0.003551583379365984 
0.001730271029009671 
0.001130356524309109 
0.0004089840650551804 
0.0003670520794662486 
0.001595502339776381 
0.0007690136295207517 
0.001153420319972923 
0.0006996663497450573 
0.0005030821168786043 
0.001736427431531907 
0.0002964089966871678 
0.002010356355084985 
0.004760796434267069 
0.001272048757946376 
0.001087210541355731 
0.000946591539250669 
0.0009710194811770316 
0.001306999303486497 
0.001552292473983837 
0.003392464050493232 
0.0008057394724318336 
0.001955600149942153 
0.001583586637955821 
0.0008490060714713374 
0.003426461390091705 
0.001239131889267036 
0.001727107228228217 
0.005522853067026404 
0.00362751519938336 
0.0002090556055696616 
0.001661253241224099 
0.001322349985146378 
0.0008419781371725883 
0.0001158370411391056 
0.002039361385518209 
0.001919359235844149 
0.0007594427879763319 
0.0003073609517620789 
0.0002354186104127407 
0.001009093692203927 
0.001462293421203993 
0.0009187656928911585 
0.0009988369445846081 
0.0009044582814389832 
0.001192932717880055 
0.00203814816596154 
0.0009972953204086393 
0.001392892722561486 
0.005648370221856194 
0.0009548855043602963 
0.0008752821151413408 
0.009993973143564448 
0.00153621086389022 
0.00155380627060536 
0.0006644317569889693 
0.002203217360537417 
0.00124876720016306 
0.002481307022103692 
0.001163551937507831 
0.003645080334982994 
0.00110526682114461 
0.001941091798678147 
0.001081202557131064 
6.565462479171506e-05 
0.0008384435143015646 
0.002011938926458979 
0.001099942981572121 
0.0008511248996091766 
0.0007814022934013872 
0.001395790198593502 
0.002220304072945139 
0.0009059761224308022 
0.001769283953947026 
0.004983137974690936 
0.004884967751370167 
0.001616477807298315 
0.002161765436760738 
0.003982942895515954 
0.001184724948800353 
0.0007345536209596633 
0.007081460600189331 
0.005460787416654025 
0.0004528799124339029 
0.002537211616484588 
0.005975530585895184 
0.004675299442965591 
0.001341495630875521 
0.002655731851465528 
0.001643808063143379 
0.005578776226265983 
0.000852337878353686 
0.003582218316852833 
0.00102999194896336 
0.0002099803346371665 
0.0002746281418476539 
0.00040485511266155 
0.0009855690589945293 
0.0003902365508811629 
0.001061699736207926 
0.002160713724709403 
0.001875437292548844 
0.0006556708667438418 
0.0009800826292904619 
0.0009040409204367194 
0.001536863765012367 
0.001794677625734151 
0.0005006406734508377 
0.006037373720871857 
0.001430215096094893 
0.001874405269728017 
0.0004734733055839594 
0.001809895597384846 
0.006556623065275516 
0.003865872681888822 
0.000696112850156295 
0.001505783782069618 
0.001004489869421791 
0.00702471564366948 
0.0003950594384268841 
0.0004098108717338817 
0.001294702184946663 
0.006844636903813531 
0.001539667915716177 
0.005767297690699036 
0.0009398670352594985 
0.001623661418551091 
0.001229861046894965 
0.003933885064835299 
0.000346914164304311 
0.000933889708984185 
0.002992924494885417 
0.0003878815203129417 
0.001027895463844205 
0.001454902084910771 
0.002217669677571046 
0.001026754205826096 
0.001893020969907856 
0.005542167422246174 
0.0008005574143316129 
0.001351115638191371 
0.00187584428270222 
0.00105460213046095 
0.00139260835264719 
0.00656147752772674 
0.001545236565121682 
0.001846432306577946 
0.001655466031633974 
0.001579054177144776 
0.001415085013829484 
0.008734377439724567 
0.002557426908684215 
0.0006802134759832603 
0.0005870238134292326 
0.0006135993076339784 
0.0006126932087097131 
0.001242477364289486 
0.001990351505237639 
9.617378930803106e-05 
0.0009297447396246597 
0.00154668103592957 
0.0005831228673919743 
0.0007356186298636977 
0.002668034005404126 
0.006817985979986559 
0.0004782361995645912 
0.001683131250533184 
0.0004657266466403193 
0.0006593834980108721 
0.002348057328195473 
0.005977395841086102 
0.000938728125117801 
0.001168925778449192 
0.005131299338563174 
0.001463386510423239 
0.004220735035003078 
0.00175794924163698 
0.0005752953843437447 
0.000773550117681863 
0.001108543391048767 
0.006948067243070757 
0.003465519356243789 
0.004739677651415691 
0.005665931118595503 
0.0005203118892740594 
0.009237053439982622 
0.001178009277336438 
0.001421817341232174 
0.005618561120810515 
0.001718534703649496 
0.001170728951842255 
0.001447598314854877 
0.003614775774492095 
0.002161969810514891 
0.001231733132272128 
0.000861746540050908 
0.005466981074992992 
0.001049363972905483 
0.000592436835369421 
0.002224148236227135 
0.004906431354773177 
0.002006284292869813 
0.0006659411176626183 
0.0004649882619571363 
0.0004112403381270056 
0.001721506321773898 
0.00136928512855185 
0.001728787363449679 
0.0006530523101405894 
0.0004348587885662351 
0.00163996385303739 
0.0006565360800083413 
0.002971252686215756 
0.006481650358316986 
0.0009544277910999827 
0.001047607490446679 
0.001005569239289093 
0.0005229814984730101 
0.001599795435557871 
0.001515580894097887 
0.003590565285325732 
0.000907975026557623 
0.002280471974272966 
0.001973246505050155 
0.0009516229296464419 
0.002832101803968677 
0.001006884871736553 
0.001449854703707908 
0.00911178754112634 
0.005874368167207605 
0.0004520328889206948 
0.001541696248414507 
0.001149578991822303 
0.001229957714855761 
0.0001782194787718056 
0.002288560499082765 
0.002241427265205488 
0.0009367037532363557 
0.0002551980659276119 
0.0004162777315679201 
0.0008089231220211366 
0.001918987596668425 
0.001080345573130494 
0.001312595371280378 
0.0005189227369502921 
0.00115755276902246 
0.002862028845837435 
0.001099576832961845 
0.001823703286773923 
0.004456651205016233 
0.001761802655033163 
0.002605124056547962 
0.004642977316815068 
0.001443835494121832 
0.002160328972103159 
0.0004956233798645661 
0.00247772675718524 
0.0009376537673253386 
0.002157571933916403 
0.001584249663956343 
0.006400157056054198 
0.001443799195183602 
0.001471332264498652 
0.001044893841681227 
0.0001007468082620117 
0.001265080502175491 
0.001256063453802487 
0.001259979703983218 
0.0007680023402140369 
0.001198758436370158 
0.001435144208263347 
0.00343588998284461 
0.001317090608313395 
0.001337841371156452 
0.005601487621579291 
0.005531220419180366 
0.003179338560246822 
0.002411731055572701 
0.004587217483086611 
0.001161506832314764 
0.0006404403846974049 
0.003079392452308068 
0.003445404070339772 
0.0003228915698898701 
0.002819839183258118 
0.008087909036282617 
0.00339393439284821 
0.0006927885095731885 
0.002905653212470356 
0.002648337301963914 
0.003763684750440115 
0.0007039336333093637 
0.00269045411735171 
0.001241796189894876 
7.118765758904503e-05 
0.000275580416607591 
0.0008007788453206309 
0.0009903472252855644 
0.0002451580339711076 
0.00143385131632215 
0.002913090383496818 
0.002876667848165045 
0.001418990299077973 
0.0007857920926192317 
0.0007238199879870661 
0.001569020915323512 
0.001773615214829265 
0.0009810750015940494 
0.003225045560068363 
0.001760287568543366 
0.002800654941594472 
0.0004078304583600719 
0.002414233204726821 
0.005289039641476195 
0.005647850905949184 
0.001421913938630471 
0.002266906974363964 
0.001761422348179378 
0.00557632020592167 
0.0004110596686588475 
0.0004499635062953485 
0.001317093286749381 
0.006255763694013813 
0.001672610839543496 
0.00548790664880949 
0.0008219510925223101 
0.001683167062813124 
0.001026363537261559 
0.005313261868022789 
0.0005889332211635333 
0.001166886073217571 
0.004992339107089005 
0.0001419970809460901 
0.001066427171394506 
0.002104000421657082 
0.00159891914156952 
0.001822302610068506 
0.001860777681533484 
0.002101029901535066 
0.0009715334655110452 
0.001006835325069345 
0.003505073452818166 
0.001111752639175557 
0.001039653231295517 
0.004832829142674307 
0.001962895918455364 
0.0006696805310694947 
0.00301973982756752 
0.001165775197237648 
0.002962310821281339 
0.002893557298121543 
0.003918022919986348 
0.00105177310300901 
0.0008321338727691101 
0.001654547929693036 
0.0005663391174292687 
0.001264300504625271 
0.00224655381815025 
0.0001388243271714159 
0.001940409376327574 
0.002456399869214001 
0.0008293017413433604 
0.0007316895701750979 
0.004090317616948252 
0.006472523473322152 
0.0004076147214655962 
0.001580148358678097 
0.0006707348906440522 
0.0006297089139360074 
0.003741575389707532 
0.006109005709647446 
0.0005770398151947784 
0.001032044211444009 
0.006271220536810892 
0.002516506667649017 
0.003656358161097862 
0.001641377266236514 
0.000387743697557141 
0.0008408483092799358 
0.001104100673917555 
0.00612953994027953 
0.005980067105188793 
0.002216045043944503 
0.005181339761067764 
0.0005383954663021558 
0.004354613999105627 
0.001350949879660057 
0.002518864306421511 
0.00431124112203911 
0.001781243635626148 
0.001382779613816337 
0.001346086488270041 
0.005121862757675059 
0.002827510004862934 
0.0006790703609255264 
0.0007689594727348869 
0.006569490703293994 
0.001143510113160261 
0.0001581778991180453 
0.001759925893447146 
0.00282641710315324 
0.00192474958492008 
0.00083774341852638 
0.0009269495495778855 
0.000361340987785143 
0.002559602329548536 
0.002186269139899708 
0.003286032156562534 
0.001067280200351231 
0.0007650237168551808 
0.001867188568348348 
0.0004149635803867322 
0.001260834696367586 
0.004150580229824356 
0.002301557275827398 
0.00115275821677789 
0.001698929256709759 
0.0007745974066766714 
0.001587867544366839 
0.002133151471529307 
0.005071192859877087 
0.001364265112697368 
0.002037523378365021 
0.001630948352415454 
0.001311099845566936 
0.005453497540228133 
0.001321265290388115 
0.002556259950493701 
0.002957465715773903 
0.005262456753433879 
0.0002697547039447287 
0.002433690154669847 
0.001656187984911066 
0.0009197461208052482 
0.0001008005177102366 
0.0009479919051310693 
0.001602971256863394 
0.001486130812752284 
0.0002272389214645582 
0.000467471601779154 
0.0008469239821534799 
0.001707721153391297 
0.001372298159661163 
0.002788432895382889 
0.0009527637994912173 
0.002286439562105869 
0.005360834247300619 
0.001494568960211344 
0.001909526248869045 
0.005534238339864882 
0.001380637215868945 
0.003506699661794431 
0.005582897372549973 
0.001833793923736339 
0.002160237387722187 
0.001157072701968775 
0.004250115017073947 
0.001292556378638655 
0.002969179279227633 
0.001843928630993007 
0.009279698170108253 
0.00143757467206876 
0.002357170862522878 
0.001459218281554585 
0.0003099908623555705 
0.001798132220139532 
0.00162233756515085 
0.001306888515391004 
0.001025299464406233 
0.00125239858274874 
0.002236732177159999 
0.005011522364177468 
0.001377770661287972 
0.002101013877689125 
0.008302420704147391 
0.007316775821788839 
0.004096717810527825 
0.00361854058468007 
0.007366822743211841 
0.001673355802379576 
0.000883652571647847 
0.005033339252103223 
0.004571804014336739 
0.0005360544075333545 
0.003464037903686339 
0.01075061798281628 
0.006506345655989459 
0.0006413038318160201 
0.003790191776536532 
0.002977541409824348 
0.00500898994576714 
0.0009293725489592515 
0.004262295923667913 
0.001781671987906548 
0.0001053019499190928 
0.0003735278222092891 
0.001147189778999771 
0.001547736487106098 
0.0004457777186127921 
0.001768058921358667 
0.003285942698535846 
0.003801564140278368 
0.001774447264862609 
0.000898294753559533 
0.001078101922137459 
0.001773356897674881 
0.003101529065810896 
0.0008179991432967221 
0.005639389909409325 
0.002175524357509456 
0.003753419938249971 
0.0006108820990895473 
0.003071361395543623 
0.006691307910122699 
0.008569369466336759 
0.001360401419025756 
0.003032400491442516 
0.002119648308651533 
0.008178485607055945 
0.0003576569534633972 
0.0007924001438376531 
0.002122527881859414 
0.009178512960749436 
0.00253445218480344 
0.00736988741702537 
0.00101002401960969 
0.002503637597322801 
0.001330254442053009 
0.007821275368443681 
0.0006888224381364673 
0.00152626640692833 
0.00562213182492366 
0.0002431542418928915 
0.001304016893335526 
0.002331566713797997 
0.0023773306722661 
0.001787703917364034 
0.002499273149515543 
0.003329874584701377 
0.001299703605404704 
0.001253117586701932 
0.003946971831574712 
0.001221935851923238 
0.004125863663795866 
0.006309023106272755 
0.002198309221361026 
0.001064862206725562 
0.004386205336153139 
0.001731266513948396 
0.003655283847546015 
0.003031163592404849 
0.005746137714172115 
0.0008242624241184348 
0.001511811854680246 
0.001651202449198819 
0.001054749406548304 
0.001333386803834227 
0.003516356812990431 
0.000217494063970021 
0.002757719692616767 
0.00268588688725192 
0.001091364251421737 
0.0007987578992102733 
0.006746506991597219 
0.008708418520180618 
0.0005678635057573619 
0.001827099171176055 
0.0006444562200516755 
0.000898327151904853 
0.00493373906901312 
0.00818944408905883 
0.0005388741298886291 
0.00151037648166491 
0.00767790251359454 
0.002795238572951832 
0.006224966161985747 
0.002690392198239115 
0.0006774676235738914 
0.001276631475759626 
0.001764434846171494 
0.008254291649124364 
0.008968340815472401 
0.005859772291111669 
0.008275361423507873 
0.0007870204049574279 
0.008718121658493626 
0.001795052305770992 
0.003617934834725473 
0.00754686468296307 
0.002447914444054293 
0.002139172686042432 
0.001766602669715501 
0.007635759032919551 
0.003376301037837683 
0.0005440358253860263 
0.001016686217885926 
0.009672641007820814 
0.001625639667961583 
9.817269159369496e-05 
0.002935732434433101 
0.008754693590341629 
0.003331590759487019 
0.001029969027070104 
0.000987547812702402 
0.0004326559299884234 
0.003159124413184033 
0.002221823804801931 
0.003727619523935821 
0.0009309252029506205 
0.0008456818701279246 
0.002304085654838313 
0.0003072712161427888 
0.00160355515778171 
0.005823647444554726 
0.003643689999491411 
0.001241965648233142 
0.001595934355254034 
0.001052540758131887 
0.002200909391878407 
0.002084390283358808 
0.008391807668146355 
0.001409322967514133 
0.003069345441059758 
0.00253040168413042 
0.001718825662002851 
0.008827075381525955 
0.001592406288790583 
0.003233989257767963 
0.003596955060562834 
0.006749313685956703 
0.0003817550428024954 
0.002889182823488491 
0.002089861458841252 
0.00133886357850785 
0.0001210897368489703 
0.00111141842001491 
0.002789530251480791 
0.001907387075921607 
0.0001950423738301699 
0.0004783373543651515 
0.0009331481273318819 
0.002689535184236755 
0.00205381293869762 
0.002789117402477127 
0.00135169619900007 
0.002638438791808635 
0.006485331659151557 
0.002271644673059 
0.002950125417576025 
0.008407736200794408 
0.001319274435721926 
0.001215028304460547 
0.00624721334779673 
0.002087542891698593 
0.001263848708842948 
0.0003134125377713469 
0.001854886578729883 
0.0009257285037387817 
0.002163793405153814 
0.0009134367191658208 
0.003072997354331045 
0.001275634100252347 
0.001666964214666672 
0.001369143396470842 
6.509773254759e-05 
0.0006923346755576172 
0.001689920507772056 
0.0006363295611300715 
0.001463954083426173 
0.0007148493601053559 
0.002466123337370776 
0.001500794263220134 
0.001235938003459768 
0.001801858412600324 
0.005266303850748858 
0.006357346239799467 
0.001200843831987751 
0.001405421990017277 
0.003759572406606493 
0.0005508408678034576 
0.001016640695975478 
0.004975486477851836 
0.005672797369999087 
0.001128934453362805 
0.001010406542772223 
0.007404527188423063 
0.004252907370927084 
0.0005564103354393488 
0.001870186293255227 
0.002694338884033535 
0.004652861551908201 
0.001497875950012032 
0.002100343926557865 
0.001134119484856641 
0.0001047040549969642 
0.0002084761188381362 
0.000351829607199785 
0.0009223407502281333 
0.0003339804397660751 
0.001589867710448271 
0.001273863710745774 
0.001218356432174894 
0.0005079835453479345 
0.001579440532366812 
0.0009319271264503163 
0.001615326732874535 
0.00147570338391051 
0.0004552193255393352 
0.004962043161001886 
0.000887822636495319 
0.0009426382420163386 
0.0007059860261581887 
0.001284591553181778 
0.006739844606994969 
0.00393579646905782 
0.0008587659571594105 
0.001130012811780193 
0.001597210485225477 
0.00611585189338576 
0.0001520436146702287 
0.0005177579621280324 
0.002379580519229408 
0.005006385910919246 
0.001924301754557249 
0.004182456103110616 
0.001626004933764871 
0.001083706844665882 
0.00228546467298793 
0.002789161320556078 
0.0003436662953742153 
0.0009240443932195032 
0.004687717235726332 
0.000115727333021787 
0.001807849460396467 
0.002273547195216541 
0.001689880807360794 
0.0008715108310625893 
0.002623653724121431 
0.003910726856971188 
0.001608796413906083 
0.001825719876044316 
0.001253794692958395 
0.001039293436030414 
0.001778399993339641 
0.006614262547602211 
0.002317738637797379 
0.0009269785013109995 
0.001579544074416182 
0.0007281712238467605 
0.001215919958705897 
0.00390480586911671 
0.001802574671097303 
0.0007154682809674255 
0.001182910470435266 
0.0006168220593814722 
0.0005110384647939351 
0.0005959056255960145 
0.001747216612255214 
0.0001302133631793852 
0.001041070841084181 
0.002703945647133726 
0.001498251614986082 
0.0007085343252772664 
0.002633903026717092 
0.007385134298739831 
0.001172254367048806 
0.001152222562855323 
0.0003703538091973776 
0.0006186859771965828 
0.001398456067475989 
0.006965423597967765 
0.0004658422733409697 
0.001219645277320082 
0.006704062995770949 
0.0007695111545892171 
0.004367632091966628 
0.00128430352358949 
0.001292878579855162 
0.001394597801967431 
0.001559543758812499 
0.007220075813570691 
0.002841118737051181 
0.004381580504707565 
0.00534684815937811 
0.0001938031192375718 
0.007706447870877757 
0.0006020756554470869 
0.0009229935256442437 
0.004748746093557518 
0.002038920364655221 
0.002192063364539959 
0.002206129074227619 
0.003708374435596732 
0.001592543198079608 
0.0004889416374277381 
0.001699433659100339 
0.006504749315578297 
0.002084933601610232 
0.0002719791075337371 
0.002286214179387475 
0.00410219678433693 
0.001696528817558804 
0.001728569985560242 
0.0003393141788757663 
0.0002749985543844464 
0.0009290362965178918 
0.0009376164535305766 
0.003151681067283587 
0.0005710445876093928 
0.0001974299232086064 
0.002663758910774464 
0.0002428545453887413 
0.001811405560492393 
0.005952306774427985 
0.0008594062596459362 
0.001185251242165548 
0.001917238918434528 
0.001216422613064601 
0.002437649603501097 
0.002182024861537139 
0.00308012295031998 
0.001342711072876776 
0.002644209450195639 
0.001820003247939581 
0.0009202137268061265 
0.002882051835517677 
0.001784470209894205 
0.002107171672352186 
0.004083930672810928 
0.006665233474626566 
0.000710161621836327 
0.001225415320507157 
0.00167252069313002 
0.0006813537475768022 
2.99030345520647e-05 
0.00111626971357459 
0.002105914787597652 
0.0006876305749164163 
0.0001733819500963519 
0.0008562841555323094 
0.001403952954825667 
0.001770697049086258 
0.00173137232105811 
0.00081484648722517 
0.0004611622968316015 
0.0008398056957666319 
0.005061447059274741 
0.001142593919583343 
0.002472888264644143 
0.003345105645248398 
0.0006536289489669179 
0.001073514598359226 
0.006338529128970326 
0.002114123129075381 
0.001222192017028102 
0.0009086533209634797 
0.002463493578187915 
0.001151663415533028 
0.0030925400661755 
0.0007806679623491511 
0.003222336092191995 
0.0008654731102079546 
0.002297580102918936 
0.001539624386370836 
9.730810722943198e-05 
0.000829366223741845 
0.002240242108245427 
0.00053222809517396 
0.001475986154326279 
0.0008524913519001286 
0.002522587841731829 
0.001689106781026148 
0.00100745557816733 
0.00201331363980582 
0.007088087056121858 
0.00693778146765758 
0.001352566556633369 
0.001863782626085125 
0.004521307899515267 
0.0006253003798161944 
0.000943520987149161 
0.006147163715966793 
0.006241728179120367 
0.0008961319922709171 
0.00102435480521748 
0.007768898367107788 
0.005897367880537705 
0.0004503822944528799 
0.001917986305737811 
0.0030014117719424 
0.0048603086228144 
0.001620709579810584 
0.002468618358582982 
0.001292421601235703 
0.0001020690277076751 
0.0001488363074523565 
0.0004135006309802109 
0.001022853927266059 
0.0004381876792799076 
0.001807693785574081 
0.001190211563428636 
0.0009314105851468954 
0.0004145847675434356 
0.001430355401915212 
0.0008840022775272609 
0.001929487867331643 
0.001905385042384144 
0.0002711219508328037 
0.004513462772735962 
0.001144895130213123 
0.00096652084621955 
0.0007876572598991808 
0.001574909886524069 
0.007554649833469465 
0.003388987024324201 
0.0006241034738941272 
0.001124994575760122 
0.001271609951006621 
0.007972351044041244 
0.0001184009371956709 
0.0005826910890269064 
0.002523125376416424 
0.006546638986880361 
0.002403529045342604 
0.004539197582920309 
0.001516670239624847 
0.0009858067182775515 
0.002017744518717298 
0.003318173660268744 
0.0003164311850977382 
0.001100413304570483 
0.004503756111042003 
0.0001362025175291424 
0.001560532164052896 
0.002405213577856 
0.002383581110572729 
0.001136385383149264 
0.002643969189904415 
0.005096014131271615 
0.001481278132720256 
0.001704094424297208 
0.001352432731913978 
0.001161377625208112 
0.001383327818652182 
0.007075383411915542 
0.002402041186570235 
0.001588846890304012 
0.001506856176003018 
0.0008480158984945565 
0.001345695003324624 
0.004581655386345717 
0.002034600101777022 
0.0003896876819453456 
0.001173770286821445 
0.0005846265556814958 
0.0007509527900300281 
0.0005261266696747083 
0.001899706061857925 
4.921749482909897e-05 
0.0009103160262515818 
0.002970994742232677 
0.001300893753323174 
0.0006004975495851648 
0.00236832954841538 
0.008276021986861596 
0.0009495592631313509 
0.001057330735996431 
0.0002250262872532424 
0.0006095166411130616 
0.001493335047968834 
0.007486206502302321 
0.0004022766799816959 
0.001530279273455177 
0.007285987317053914 
0.0007172339522755791 
0.006231578909493058 
0.0015177067431491 
0.001082235838159244 
0.001441154694285416 
0.001597359385905872 
0.007829825426721886 
0.003183444548857944 
0.004851884521485429 
0.00653161122969217 
0.0002310833624300393 
0.008105595385017561 
0.0005765093966706277 
0.001047478893389318 
0.006764778960228752 
0.002560656027922646 
0.002562178657969302 
0.002125828985368739 
0.003464976390230239 
0.001711022015502861 
0.0004229348626089534 
0.001420879985487258 
0.007756369464201274 
0.00218618293990483 
0.0002612999574808692 
0.003103758992549102 
0.003622672879733952 
0.002157458634479552 
0.001479574338388544 
0.000337209065696529 
0.0004033662402292399 
0.001003509458423589 
0.001327697638748604 
0.002988635411918415 
0.0003739193511485907 
0.0002096319757542558 
0.002324807846257699 
0.0002153836098157358 
0.002305582501392559 
0.006425563639997089 
0.0008166861163782891 
0.001144829537553921 
0.001325798369621264 
0.001128024830129945 
0.002730807890013813 
0.002080390948242034 
0.004205073848136409 
0.0007208438399790069 
0.002991764032669188 
0.002419989571807401 
0.0008608982074988826 
0.002840775462125418 
0.002006677663830494 
0.0018570067744123 
0.005012033893388292 
0.007635322557541502 
0.0005919506723586009 
0.001053689897362494 
0.002206879068857533 
0.0006769476314290324 
5.092360298733435e-05 
0.001639698887471532 
0.002437493075797778 
0.0006014370770763329 
0.0001436013706344756 
0.000700632201355901 
0.001535444179113517 
0.002158049999498988 
0.001918601810115109 
0.0008550412087439507 
0.0003958354905836881 
0.0008784439346649978 
0.005313870807638845 
0.0009961124152847107 
0.002972107841078734 
0.003279928898822002 
0.0005561806732635954 
0.001186348535944984 
0.0005275691588786727 
0.001954107435386974 
0.0002750400902852633 
0.001939896486918573 
0.001966995350786064 
0.0003658333324458409 
0.00196641792206969 
0.002485260139791809 
0.001234048288699303 
0.001146382163437142 
0.001181747675175969 
0.0009242493512857944 
0.002610904282827059 
0.001305948995157646 
0.0006545062775653142 
0.0009456596922662934 
0.001348996782264957 
0.001629983191840768 
0.0009092896834187044 
0.00101231268754579 
0.0009892940135862714 
0.001225670847259043 
0.0005878482228682095 
0.0007494563023201794 
0.002244124678051647 
0.001895394221978247 
0.002163763744620153 
0.0004509018140203382 
0.001957855259205814 
0.0005574511014856943 
0.001601673573288711 
0.0004751056847736004 
0.001253377964800852 
0.0006739260026248063 
0 
0.00135406783200629 
0.001007127282784992 
0.00225430609669154 
0.001766874640861914 
0.001653345876785613 
0.001582764871077031 
0.0003143951827165989 
0.001032596330552776 
0.0009616467986052042 
0.003190953843282265 
0.0005949234619015019 
0.0007436898906763547 
0.0008385829586404587 
0.00190855703983632 
0.002001132248385342 
0.0005503840285003243 
0.001199261876386568 
0.001334863451171675 
0.0005454867342976657 
0.0003255318026658199 
0.0020482696154929 
0.001155674852315154 
0.001183573747110031 
0.001059614999561823 
0.0008597315707711562 
0.001059308491058818 
0.00101413637498906 
0.0004248923578668233 
0.00157681654592427 
0.0007493736068026765 
0.001004173761807226 
0.001956063392308844 
0.001065171237054857 
0.0008420081607736763 
0.001634173990483658 
0.0002962477798056944 
0.001183884759923526 
0.002437231829479813 
0.001253117192665699 
0.001315802690039093 
0.001440723271004303 
0.0004354219772960617 
0.0006883558587617959 
0.001047215771648977 
0.001840274694188384 
0.00189452734971049 
0.001851851078495488 
0.002042764510595415 
0.0003428497999948767 
0.001586197242140921 
0.0007897870002023243 
0.001651778235163189 
0.002308821354183288 
0.002240685797661771 
0.0009367733003887003 
0.001306225413425555 
0.001105559226038207 
0.0004503873327603645 
0.0002615388897790005 
0.000883130288199664 
0.001454640966997026 
0.0005584062931023986 
0.002755084369160279 
0.002336696131796428 
0.002785203833318828 
0.0004544929914405164 
0.001324293701817105 
0.001036032313313932 
0.00141468804327553 
0.001807974324367711 
0.000548977728781627 
0.001169318937998524 
0.001587843198741263 
0.001294987056137429 
0.0007982361107210437 
0.000935395964819934 
0.002193482316416923 
0.001480788922740718 
0.00134057524271828 
0.001525065543600751 
0.000618448965397665 
0.001113616890668809 
0.001478383213202256 
0.0005672298375622346 
0.0005745859290510434 
0.0005142588183265257 
0.001633511130272408 
0.0005414682381358486 
0.001882097929771912 
0.001056186471966235 
0.001175064514458014 
0.001802728259810083 
0.001480033775716867 
0.0009746312242054019 
0.0008585817608732099 
0.0008590694044929687 
0.0005715912105296845 
0.0007860008740941498 
0.00138245348878337 
0.0007872239027350904 
0.001969449654803684 
0.00125924768736177 
0.0006547088820721598 
0.001454928608704312 
0.0008595477340006295 
0.0005149864433922674 
0.002069958214716204 
0.001267891340619571 
0.0004239064230341211 
0.001592729843343771 
0.00140811161671217 
0.0009087441502420799 
0.001388049113099748 
0.001513592813045919 
0.002590881383669605 
0.0006297937044813513 
0.002526116082715316 
0.001750883421173681 
0.0005591396286025417 
0.002359872682758165 
0.001582238530900746 
0.00172144315374723 
0.001626550101180011 
0.0007296266223685351 
0.000155510581317047 
0.001369841573167641 
0.001676262613259163 
0.001176283214310522 
0.001151701309343854 
0.003198499854592852 
0.0005106801758137445 
0.002238222976712562 
0.0004916074750394721 
0.001181813004450225 
0.003069829334157318 
0.0005617665761241379 
0.00123032684609138 
0.001753369103428002 
0.002409635005264179 
0.00237145213373985 
0.002957290321134934 
0.00178674685929322 
0.0009131571658730958 
0.002588946544803421 
0.0009274504225080727 
0.0007049367779370501 
0.0002377965828537386 
0.002231693393110766 
0.000975156085982556 
0.001166960774972025 
0.0005501667199324217 
0.001735825428466267 
0.0007632479422070877 
0.001753593637622381 
0.001416666782621405 
0.002230593953136406 
0.001567036803717518 
0.0006314518416968884 
0.001233948884494662 
0.002036249064581524 
0.0001982121067169624 
0.001159804564376174 
0.002271095433873895 
0.001110582112571334 
0.001965809916859302 
0.0006329498968539773 
0.002450046178289079 
0.0005073222435933381 
0.001442614321878977 
0.002287868360916308 
0.0006585694696308579 
0.001100876428186447 
0.002280834033568943 
0.001237748318389441 
0.001451749351938878 
0.001840821807313235 
0.0008016036527107236 
0.002383845895425822 
0.002333954525870311 
0.00121970686997331 
0.001789491793451021 
0.001894591209006647 
0.001629710500768778 
0.001989286799864441 
0.0009707054285739545 
0.001592836421866555 
0.001039140352302445 
0.0006529377487994259 
0.001520212806086805 
0.002425107024426143 
0.001779666525305658 
0.001947553623382398 
0.0007107721967214132 
0.002002282354511083 
0.0005683889760579623 
0.002107481452049819 
0.0007477316319338363 
0.001115002647735717 
0.0007071162618797286 
8.138888980239393e-07 
0.002027049373838196 
0.001640469463116242 
0.001860167895082239 
0.002202388317806996 
0.0009697527914807403 
0.001506930493776796 
0.0003787580831826924 
0.001001688727478263 
0.00117494951365173 
0.003534199040656463 
0.0007223287636279219 
0.001330971365086126 
0.0005704569987861667 
0.002092760855646363 
0.001877719660553212 
0.001091822674967836 
0.001967702452391832 
0.0009277387982505428 
0.0009121845407462609 
0.000824329022915245 
0.001971605927213921 
0.001579844221345934 
0.001677544834510989 
0.001472939424030753 
0.001388212376644304 
0.0009007274904472461 
0.0007719433838706482 
0.0006138052239660463 
0.002708071599798569 
0.001273641385223031 
0.001816762585233569 
0.002519323606504996 
0.001477336743041871 
0.0009430488773702952 
0.001918180681200907 
0.001455169192042491 
0.001602185438056743 
0.003236447598866352 
0.001036353321725996 
0.000997434178495394 
0.002294338219863604 
0.0004912503922082908 
0.0008919701005754623 
0.001540105309273005 
0.002045655501585732 
0.00285892346406122 
0.001498918409415074 
0.001867074377874084 
0.0005468898395764637 
0.001484439494414243 
0.0006295719354549872 
0.002440346255900605 
0.0009945474679958805 
0.002869877433731419 
0.0008612425459262692 
0.001836012872844488 
0.001415739008312613 
0.00101173606258719 
0.0002486757545817374 
0.0009723855264429554 
0.002283073838411932 
0.0004434351776148651 
0.002974738537610682 
0.002653879607870635 
0.002945075141835394 
0.0006340489088291936 
0.001190898441956663 
0.001602632737025488 
0.001827730494309483 
0.001989787207752824 
0.0008700723858073064 
0.00106208398890063 
0.001874526185921695 
0.001561885918751488 
0.001025721276209271 
0.001425244727675045 
0.002311402989994697 
0.002061982338140654 
0.001606951523249735 
0.002392025087221887 
0.0006299016042725429 
0.001368948173751686 
0.002079157567698316 
0.001387773103169087 
0.0008245009927370983 
0.0006017318241562095 
0.001633411693178361 
0.001496415572594359 
0.002570774031076682 
0.001713585129888522 
0.001777397006356913 
0.0008282473664921095 
0.001308581761248897 
0.001638627696019773 
0.0009356373107988728 
0.0007291752814475079 
0.001146172074415613 
0.001180944438793752 
0.002030561718096166 
0.001753472863312552 
0.002643641444117353 
0.001578047670054211 
0.001787163453849901 
0.001488152355880748 
0.0007071532717645439 
0.001334592164889131 
0.001609737894603141 
0.001201422267295184 
0.0005456580015184087 
0.001815222188159995 
0.0009744337959276929 
0.001646610023343047 
0.0006420689135897038 
0.0009920464322984279 
0.002836062089433235 
0.0008033411798509485 
0.00255013280146907 
0.001536199080048069 
0.001433176958104599 
0.002029857149853983 
0.001570544675573264 
0.00163444267029696 
0.00203313130609852 
0.001726480622249016 
0.00139532436186176 
0.001544624439134244 
0.002292929076450175 
0.001669259205284086 
0.0009259454551777002 
0.003593101812106266 
0.0004786950690289435 
0.001895630833196479 
0.0006734424740762549 
0.0005852129866936227 
0.003854617349763123 
0.001036481061017577 
0.001155436107940616 
0.00239888334692065 
0.002641988558999802 
0.00242679769978993 
0.003307273155694269 
0.002064518921652273 
0.001123342800461019 
0.002651814940964426 
0.0008133878721728523 
0.000978282294783047 
0.0005595835443186493 
0.002203817394372338 
0.001302698658447214 
0.001312842619400699 
0.0008114550264190425 
0.002729978244231047 
0.0006535015626927554 
0.002552453262808079 
0.001709067168762941 
0.0018393927692108 
0.001502551013181673 
0.0008698584106648904 
0.002073150059539992 
0.002307875656379724 
0.0002331900983580388 
0.001616886701354784 
0.001891562729452083 
0.002709792658146294 
0.00158975020239209 
0.001608814599695935 
0.002284776825904838 
0.0004218778977042787 
0.002672041824317799 
0.00218227414646461 
0.000412843844295884 
0.001453406107341149 
0.002357424903088224 
0.001213728965115746 
0.001424402283642654 
0.001355069157318284 
0.0009363417030100735 
0.003002138299619937 
0.00311616177908991 
0.001265974585595486 
0.001481687505616147 
0.001861397710154545 
0.001295152708121271 
0.001608218494510475 
0.001320334777744445 
0.001863468184758357 
0.001639045551480173 
0.0005691753908020295 
0.001031571687542859 
0.002250251489673731 
0.002871559946486003 
0.002560791731369848 
0.0006643928711022086 
0.002142072045076513 
0.0005391889733283711 
0.001679905148791706 
0.001303164552011693 
0.002116490836653764 
0.0009131036200447668 
5.93876221273827e-06 
0.001542767528674884 
0.001649043828718246 
0.002129058719240865 
0.001485848726928422 
0.002802558635825772 
0.002238125008467667 
0.0003443839400060018 
0.001216884557841784 
0.001416935738385946 
0.00306058852071605 
0.0007385712818133881 
0.001767720958970774 
0.001037441655507691 
0.00180919393099809 
0.001586627468098618 
0.0008429951615946443 
0.001908720737353705 
0.001384690253307117 
0.001463715089493557 
0.0008798799302701033 
0.00188659494153017 
0.00245158029521354 
0.001445492284202322 
0.001169213255215567 
0.001420595525535772 
0.001722003056660355 
0.0009013300502745802 
0.0006034326142771079 
0.003089669938907719 
0.001320954549935899 
0.001521229386480743 
0.002287798186131211 
0.001938862312405673 
0.001829697873954491 
0.001751166689836695 
0.001459438433156837 
0.001861728507276203 
0.003565971306597247 
0.0008942511268651908 
0.001611118964332893 
0.001886071892631289 
0.0005990663284002779 
0.001109262867821053 
0.002324727100427307 
0.00210457084055649 
0.002210544814684291 
0.001555686005149453 
0.002578272081618009 
0.0004999136814356844 
0.002107509782069415 
0.0007764892523161351 
0.00214265131006547 
0.001654850629952016 
0.002553429303066051 
0.0007927753817046176 
0.001619575114364615 
0.00190269303764447 
0.0009020054768338204 
0.0003482838342055219 
0.00177148996768607 
0.002590765258289715 
0.0004740687990794146 
0.002305946232982209 
0.001427158896162969 
0.002079664456914469 
0.001733103182928903 
0.001579133529893775 
0.001543267835727871 
0.001747270066003316 
0.003094982670972034 
0.0007263320549724569 
0.001376732274322362 
0.001882058328743299 
0.002414653229506478 
0.001618984439614217 
0.00132671583188972 
0.003175140159248175 
0.00170030213233327 
0.001318159858566141 
0.002294001739145217 
0.001122154621517469 
0.002719903583890805 
0.002071535966301985 
0.001096608747913719 
0.0009684935776594054 
0.0007476438449608375 
0.00215667404118912 
0.001133351927941059 
0.001955556376525755 
0.00148736432524711 
0.002717135813922311 
0.001655791397829231 
0.002174272350299659 
0.001543944726130207 
0.001138471930157251 
0.0008039454275464113 
0.001318203883664997 
0.001016299970351287 
0.002493361921482164 
0.001506986862992301 
0.002412605707468476 
0.002296442545329064 
0.002218388941498696 
0.002009867723348469 
0.0008030837218488774 
0.00078580764374041 
0.001909992567340977 
0.001796761806814225 
0.001245186894680487 
0.001970778850649217 
0.001073224207225381 
0.001442173937231077 
0.00122401685679204 
0.001844858717678152 
0.002670591587729521 
0.0006264425272650793 
0.003499588106242255 
0.002189969722774393 
0.002262350624311672 
0.002322906485006243 
0.001328467989513968 
0.002788924524420327 
0.002430766790927138 
0.0008928373889765277 
0.0005983765422490998 
0.00134124861417409 
0.001980108149908601 
0.001939037706812406 
0.001323515838576961 
0.004378223793506002 
0.0004465132227098172 
0.001890354715881232 
0.0006860017892546064 
0.001023877701500011 
0.003088917519145589 
0.0008599429657459019 
0.002052526410994026 
0.002381711194244458 
0.001884002947160612 
0.002000924539727117 
0.002757657341684761 
0.00198732204063679 
0.002551598175971866 
0.002568769129421968 
0.0008759008793564763 
0.001603288438196521 
0.0006454255545455156 
0.001883210710562703 
0.001381767959365613 
0.001923955959420657 
0.0007312869797327317 
0.002330357861067471 
0.001421574426923322 
0.001828463408448507 
0.001563370492966091 
0.002352525022074549 
0.001304916836354816 
0.0009887073392768017 
0.001686354247035066 
0.002847279646867092 
0.0001840763779960547 
0.002477964212383253 
0.003096405760158967 
0.001864238286346059 
0.003330599193023038 
0.001679601580262724 
0.002448711794974565 
0.001145972116102003 
0.002791447725383422 
0.003312199590063297 
0.001878753487110288 
0.001177327330463441 
0.002249452052956551 
0.0008374209289531233 
0.001361736169013499 
0.003999677170062454 
0.001940204640902489 
0.003387237013803768 
0.002927651467643863 
0.001673894145974179 
0.004082061591791282 
0.001649946021668119 
0.00150415100343044 
0.001571785865318458 
0.001557607350755638 
0.001944927589417873 
0.00204895754246483 
0.00172193608864248 
0.0005574613294186749 
0.002341826067226963 
0.002782689110740398 
0.004156688159203457 
0.001766685484006099 
0.002922191476519124 
0.002050660388316051 
0.002220469309989074 
0.002397710474865444 
0.001440300441341039 
0.000803468931377924 
1.11135585448594e-06 
0.002860426178962297 
0.003434717569623983 
0.002065810115641181 
0.001513730696577261 
0.003517943410970373 
0.003135541309420824 
0.001458988909927805 
0.001966115742151562 
0.002044384170897408 
0.002224120556749339 
0.002487167427251309 
0.001558125337775013 
0.0007677110242113527 
0.003549020419074591 
0.001398227882971778 
0.001506374977935138 
0.001608301102947137 
0.001418359422732187 
0.0008044780479323144 
0.001772922898729638 
0.002037582818940766 
0.003306399236081039 
0.003396547922807523 
0.003707538197628565 
0.004737302036456406 
0.002544936949294864 
0.00095185051344034 
0.001898841037811548 
0.004128211393494986 
0.001458269574072535 
0.002358944165484422 
0.003583745165825242 
0.002529819186326417 
0.002652011104831726 
0.003241513349677285 
0.001285207550771095 
0.001696325120157162 
0.003187293885068431 
0.0009183830980258108 
0.00146574503031478 
0.002971150582947463 
0.002303705851627026 
0.001019452816810413 
0.003613916856222239 
0.003129238802853589 
0.003547086781130359 
0.00148459492020819 
0.002898010732161926 
0.001792516780139732 
0.0020510594739781 
0.000628637465549793 
0.001749396095645011 
0.00152947553861728 
0.003352834365568306 
0.001042630523774699 
0.001124347642876717 
0.00321849357150274 
0.002468358893689616 
0.001466159103477929 
0.001430424120702496 
0.0008497737902172904 
0.0014915530103623 
0.001602048769347505 
0.001522443996639911 
0.001992944173965798 
0.001546867604046593 
0.001982287157589473 
0.001395102991516824 
0.002092054843626903 
0.002742615832646305 
0.001603148428904671 
0.0009019174872460594 
0.002792797016428321 
0.003673570396690236 
0.00227119038949512 
0.001562131698826865 
0.003669898675328498 
0.002116560203020824 
0.0009355619653377407 
0.002142217238968 
0.001403990102087351 
0.003005922541591737 
0.003678108452687313 
0.004075893762417703 
0.002279303649597367 
0.001768540868370829 
0.002132573477327804 
0.003115899451076283 
0.002753258385384466 
0.003617328898882344 
0.002830192791996468 
0.001836362461849271 
0.002560550687198517 
0.003130367220509089 
0.001544331212064307 
0.001962205580793722 
0.001014138454416767 
0.002375917857893844 
0.002435042863546093 
0.003663389130873731 
0.002985347062594309 
0.003170830001551129 
0.002491733486762518 
0.001636172532858384 
0.002018621302830276 
0.001943660649391892 
0.001877354460907343 
0.001860776217274442 
0.002392070061684499 
0.002661031119881444 
0.001527053102103497 
0.003222557905585759 
0.000826924488420143 
0.001756296320340716 
0.003153575651110216 
0.001457668807005047 
0.002587245959451838 
0.002419349771009622 
0.002466793390711169 
0.001998056029117679 
0.001690968259821422 
0.0037949386285621 
0.002267541841613363 
0.0003637024301158621 
0.0002934378037908505 
0.001196738344416358 
0.003551303372148717 
0.003379163359132675 
0.001588123535764507 
0.005315591094928857 
0.001265483114267897 
0.001839636409272594 
0.00220365263799428 
0.0005726218166205324 
0.002836059067929234 
0.003004052703784429 
0.001656222722922518 
0.003636801578940815 
0.001954488153355652 
0.002044127116589333 
0.002670636830797437 
0.003053498271977794 
0.003108093088898824 
0.002225100279141892 
0.001306936165416912 
0.002065426557725036 
0.001422159370056178 
0.002066421666075368 
0.001733036372690635 
0.002372577793253964 
0.00360401650111825 
0.002769147884811997 
0.001376994204039247 
0.001707188199221816 
0.002737230017426848 
0.002408675691207547 
0.001975273003752673 
0.002589005093313106 
0.002317795438451533 
0.003427265742859384 
0.001072999266922985 
0.002566585709019043 
0.002580548959088568 
0.002757484897549723 
0.0002490835778448576 
0.002588396853280731 
0.002792048161752882 
0.0007741319271221965 
0.001874285699988886 
0.004693610223698279 
0.00238382044411559 
0.00214871170115213 
0.003114216277970364 
0.001757505317393657 
0.002279495847273781 
0.0004277282518238353 
0.002552266098096989 
0.003138671315273308 
0.00227493881256067 
0.001079686395572143 
0.0003522888355651313 
0.003476835480412267 
0.004744505295093548 
0.001660828832250535 
0.002407210619502176 
0.001385095236464761 
0.004272510203544682 
0.002402474276362262 
0.001083062840415329 
0.0004584610431671015 
0.003132214643125551 
0.004301951910024823 
0.0009330463288848728 
0.003194437642798475 
0.001817995000276248 
2.424094245950788e-05 
0.002312604529826175 
0.001832815148037374 
0.001625949598191043 
4.765354912638029e-06 
0.0001052154406761098 
0.0002506529122988565 
0.005220984918547319 
0.003756038172297709 
0.001795424153235522 
0.001424949587014816 
0.00162699470957451 
0.002907012160656984 
0.004739950618538233 
0.003410325649052821 
0.0008346259801883571 
0.001142456367402532 
0.0008244550387185016 
0.003055854197362902 
0.003857612811747181 
0.001696255486863948 
0.001845487187286464 
0.001349113124214301 
0.0008799262167190803 
0.002485801020422244 
0.002732561597711132 
0.004441176335280868 
0.0003198311210352659 
0.002065291073585953 
0.002196956763871597 
0.003192708279913679 
0.001781507795908479 
0.001625742271246778 
0.002615625488825392 
0.001383796082933995 
0.0005194749565923871 
0.0004273747032110787 
0.002678174123391087 
0.001192858869451395 
0.000383959604317677 
0.0009686008584857093 
0.001236600026308839 
0.0034192305453873 
0.003766500517633952 
0.001487355541345398 
0.0003742190472531899 
0.001129720530021786 
0.001596595607804448 
0.003936918349578668 
0.005556946609509935 
6.841479111182503e-05 
0.002710102713477001 
0.002889222595156722 
0.001140589240007605 
0.002140722692219078 
0.0009453325051819241 
0.002919662773861896 
0.002015992803105189 
0.0006186193984924564 
0.002637539344450945 
0.002046989067699684 
0.003629933206352537 
0.002579529347484422 
0.0006798937209738977 
0.001472232800820346 
0.0009105144988647601 
0.002034501410532925 
0.004629674448349175 
0.003379092706700452 
0.004900677646255623 
0.0007090550777341208 
0.002482068954115609 
0.001478545026588297 
0.005399922978265843 
0.00206374641265761 
0.00184540562210717 
0.001274255299617819 
0.0002529316574677939 
0.00354043287464371 
0.001900702984546401 
0.001521318598935121 
0.003698863748008884 
0.001833334551345014 
0.0007626921643395108 
0.001966412576310846 
0.002626613203056927 
0.003443718981317445 
0.0003154624741804287 
0.002307279179709532 
0.0008547336364774864 
0.00201243841198638 
0.002744929196440035 
0.002183297521101208 
3.754255345826327e-05 
0.0003343185912035412 
0.002300920004715479 
0.001432466090796515 
0.002005934972167367 
0.00019261639895091 
0.002805782552957314 
0.00270251629490571 
0.001162196813643862 
0.002225610610271161 
0.003064293658979523 
0.0002555188397398043 
0.000102599850806577 
0.002928710538767454 
0.001082518580881388 
0.003395014252606003 
0.002271745088065998 
0.001408230173227612 
0.004738425128165145 
0.002504191397514456 
0.002463400352792638 
0.002935316024902743 
0.002837970156483577 
0.0002496408681287648 
0.001564957234610889 
0.001489295672636962 
0.002934497345835854 
0.002280875892224585 
0.003169629384952157 
0.005176802336922353 
0.001827411448013439 
0.004302846805446523 
0.004396269769263416 
0.002001319477959866 
0.002942597517420827 
0.0005211270798322431 
0.0006836647561055249 
0.001541193503607785 
0.000318213681198347 
0.004085889411498802 
0.001288686594789146 
0.005502733552603521 
0.002103475740437268 
0.003705671935480487 
0.001274582017156827 
0.001263439250378455 
0.00625962170078896 
0.00161670185187099 
0.001973919360207801 
0.0005604012761528229 
0.005081038086941482 
0.005673055077198235 
0.004128637911955004 
0.002978856076378163 
0.0008808335914707289 
0.004732921211680287 
0.002698239714326269 
0.003712254498830065 
0.002085894527893609 
0.0002168533095051372 
0.001327578271990017 
0.002806870914650855 
0.001536839579276563 
0.0005639389104230763 
0.001628169269397628 
0.003085563328703633 
0.0003628082140857178 
0.002321474390041136 
0.004651732948040636 
0.002555071867736964 
0.001716174714532243 
0.003347253000497667 
0.0007828382915376328 
0.001859087469193778 
0.003196100620110566 
0.002399121003584877 
0.00174618239622637 
0.001437732151728469 
0.004754243315049855 
0.002300592231243829 
0.002597004848593104 
0.003136206528806503 
0.004105234051149683 
0.0022423600478875 
0.0032084850247483 
0.002266154341297645 
0.001249015819848575 
0.002255078926612736 
0.002371830839857053 
0.003739684551314981 
0.002697342714387741 
0.002765659131537234 
0.003305066566028002 
0.002735641719009734 
0.003318258694569619 
0.002797951292375015 
0.001351709567356747 
0.002212709208832962 
0.002920275019022651 
0.002934294572310822 
0.004155752848753473 
0.002513140797903362 
0.002722710093395128 
0.002404597415025889 
0.003497343867860468 
0.00316070961871786 
0.003422998637054286 
0.000360336853043867 
0.00168059491192656 
0.002029392981473149 
0.0007542679939498987 
0.009707693626969355 
0.0008619349445239527 
0.002165838012402826 
0.003140538277997968 
0.004002674033082872 
0.002197205858553974 
0.001697860843846312 
0.00317302840646642 
0.001788644394558426 
0.003104233504880884 
0.003053115280570031 
0.001928838942501055 
0.002657287644349746 
0.000822188228903383 
0.002291827189246996 
0.003387545993092819 
0.003822411072642317 
0.004604706314241373 
0.001881937268045058 
0.001890751252200429 
0.003226664885162334 
0.003453711889621384 
0.003486231608909212 
0.002096644322371077 
0.005438091925407685 
0.005994781341156242 
0.002296654776918173 
0.0008310394952605306 
0.002131956702726926 
0.004209912232854812 
0.001380438137955209 
0.001801562975354957 
0.003116007654573404 
0.002094693161518103 
0.001013148070144855 
0.002306017767438794 
0.004735187206105967 
0.001923579333003159 
0.003466027261814317 
0.002345178020828306 
0.001836381685794432 
0.001815212132862305 
0.002641656832682398 
0.0009101282402762094 
0.003565129892195565 
0.003533136207140651 
0.0009434789560164512 
0.001823533857482141 
0.002716717351181346 
0.002822005943146386 
0.002155667479289943 
0.0009726231475564323 
0.002702405274328652 
0.002081660993760402 
0.004219390912617877 
0.001728458022609724 
0.002973218206182014 
0.002623869080428707 
0.003822327334415903 
0.001304019198084714 
0.001302263925580619 
0.007809955620613421 
0.002151499305190189 
0.003821722093138791 
0.002899216170570098 
0.004351634144611026 
0.002361444273586321 
0.002007121605733188 
0.002935643875483042 
0.003679500435182031 
0.002398197170126356 
0.00419871282899786 
0.002027704884154944 
0.001642779003221986 
0.002654704305718375 
0.001381524934147679 
0.00170765739681964 
0.002982236634172097 
0.004103013431409596 
0.002953049276302775 
0.00483178137899549 
0.001609048293440321 
0.002501654467493683 
0.002443371421903212 
0.006609660394073839 
0.001561420765548562 
0.002381696073774029 
0.003310177303502133 
0.004545027074458897 
0.0005392101507802788 
0.002876545132068852 
0.00215608009801525 
0.002212375501555278 
0.001947817135256352 
0.002021346590011664 
0.0016485975966113 
0.004239892408850452 
0.003565218593444661 
0.002949699345205985 
0.002464782571047824 
0.002544807388916809 
0.0009024173715187391 
0.002097379149217971 
0.002058786415745356 
0.002229361174039422 
0.002556483925387714 
0.004741673016584166 
0.003464347232681245 
0.002046151566412295 
0.001838737540990377 
0.002073904387149812 
0.001714355989040006 
0.002737525930319015 
0.001583923610934276 
0.002171749027382776 
0.003332126228849229 
0.002430627970224701 
0.003598858903305807 
0.002585663020190484 
0.002677686925889314 
0.002695387804569774 
0.003458833215974161 
0.002907987619107113 
0.002274491687089019 
0.00988380710466987 
0.004775848644123603 
0.004121889709893964 
0.002257944279774528 
0.002880317568188681 
0.001460787704674798 
0.005130346538836542 
0.002496953939518612 
0.002300729720929635 
0.002595312445491595 
0.001555169807195298 
0.005632790553233863 
0.00426641173637945 
0.002132687621650381 
0.00361230602087079 
0.004724569076194197 
0.004404029842294251 
0.006374940954136588 
0.002334156192320254 
0.001210877910224512 
0.004673340869503763 
0.001850048629320213 
0.002540190093638646 
0.00265953431862102 
0.00156383505078594 
0.003249201536074839 
0.001947198362236814 
0.003118691742146584 
0.002623721211202172 
0.00137247282966912 
0.002675449707662006 
0.002707566512538485 
0.002220395963498261 
0.003446131254496097 
0.004198180368837998 
0.004210238910327605 
0.003744505453553494 
0.001635280908372487 
0.002247723583096019 
0.002871713618369538 
0.00526474565480944 
0.002530756494407002 
0.002198033231972323 
0.002786810281365526 
0.001620991851079512 
0.00526386873777835 
0.003237159911824956 
0.001365993566103705 
0.001755732396180435 
0.0008657347827475589 
0.001424612709494031 
0.001182908278028762 
0.001856694974410217 
0.002521187213381475 
0.003299564443587777 
0.003043122970078116 
0.002130588287521197 
0.001886126568149234 
0.001621909922790824 
0.001279082530619072 
0.0005473225845773666 
0.002100247283957783 
0.003655750702795162 
0.001694377741155411 
0.001893833607213601 
0.001040202478630957 
0.0002588731755798027 
0.002844880085224719 
0.002841643732144985 
0.001725485094721657 
0.002113588577663905 
0.002251232929759622 
0.0005875811039319015 
0.002306222587841637 
0.002880204731622534 
0.0005511722496437378 
9.622196855455939e-06 
0.001965273761781519 
0.001595402485409804 
0.002532472483293503 
0.0009766637185791923 
0.002630880796271686 
0.003767445534580432 
0.001039403307789462 
0.002341202397502266 
0.002046510932582527 
0.001407243832674806 
0.001632284870348869 
0.002510172362200698 
0.0005781658485555606 
0.00239716943591079 
0.000756837399013557 
0.0006440431821379452 
0.002257390271457691 
0.001436557366046343 
0.002056760400531555 
0.001998478906093423 
0.002487577068765816 
0.003823488962999824 
0.00175232035368579 
0.003652411893311098 
0.003543770915193944 
0.003007103782053217 
0.001039785302181768 
0.002225200166852821 
0.003694815101775706 
0.0010499920235598 
0.001748020374369224 
0.001075494006820849 
0.002039761508055567 
0.001859748772682359 
0.001972406927635592 
0.002293086615604517 
0.0026173008842199 
0.00369294435319613 
0.0007237664046771734 
0.002639768175801521 
0.001760073559255363 
0.002470147902362109 
0.001160044237307939 
0.003788799780089201 
0.003689762989693936 
0.001382114383612796 
0.001534941571104712 
0.00291577983465756 
0.00217214293091193 
0.001921753560312384 
0.0005844918909658923 
0.001161960084268772 
0.002367579935533742 
0.001196503431769053 
0.001286730146401847 
0.001919502937615204 
0.00280753869519232 
0.002626429407186133 
0.001082389405399027 
0.001599678866420912 
0.002421023170580388 
0.001325823332723297 
0.001737558413800818 
0.0006326315873518399 
0.001349284374136467 
0.003030689316419686 
0.001611539523564048 
0.0002908227263811542 
0.001754045969107407 
0.003615341809903589 
0.0006309957221473999 
0.001338118924535751 
0.001547920236987197 
0.003929830464772885 
0.001584812758443039 
0.00189321294346942 
0.003295534279168463 
0.00122719643349658 
0.0009453964002733587 
0.002449500033899165 
0.001644445950460296 
0.00367025215637594 
0.002073672682837999 
0.002858945759994655 
0.001603940061993726 
0.00177143366723614 
0.002533034327401699 
0.002540666994467033 
0.0008532185843349723 
0.002556407494006248 
0.003027962111952948 
0.001784440100095055 
0.002685549556234436 
0.002227226082929043 
0.001977421222832375 
0.001647809063088348 
0.00183585755749267 
0.002086230504177033 
0.002399790156926181 
0.00166603321084689 
0.0009554448933100241 
0.00280902115030797 
0.002627711189186499 
0.001689915962391183 
0.002438670079603415 
0.001583850146909046 
0.002211562141814891 
0.002309396329902919 
0.002261218046551042 
0.002315219496628032 
0.001396300675757956 
0.002252476531405921 
0.001174778518642248 
0.001672284380677005 
0.003380286088177609 
0.00172299749387893 
0.003646245445600332 
0.002325162298918192 
0.004467186756676149 
0.002050086652218593 
0.001260605521641434 
0.00384454200694167 
0.002046334408630197 
0.001242699303813557 
0.001153259959690548 
0.001929310647467187 
0.002291834986959943 
0.003581198458345275 
0.001801656145654587 
0.003501598483502562 
0.001386315816838352 
0.002085025732274426 
0.002110689360372006 
0.001052007434684101 
0.002031182384239339 
0.003145550259557504 
0.003468876093563857 
0.001872830227163202 
0.0009384795573617705 
0.001271013011693273 
0.001250702923247914 
0.002647981734264318 
0.00302645369876372 
0.001655429228499181 
0.002036794440548388 
0.002067808075710653 
0.001471641224713707 
0.0004036633884256438 
0.00240742800817186 
0.002144355145128964 
0.002462715645819521 
0.0009640217566185124 
0.001415834396860436 
0.0009667438095734765 
0.0009487173191086605 
0.002185438317379275 
0.002410755053044455 
0.002841617379373228 
0.0009216852866339465 
0.004231763311872626 
0.0008115775212833862 
0.002309300674576313 
0.002905662457365389 
0.001527203604412375 
0.005093737685681666 
0.002038741846845253 
0.002885999381514934 
0.002204617948548942 
0.002560315263103791 
0.003321206630489312 
0.002454677924553099 
0.001344472656630354 
0.001153708665546329 
0.001865128637874527 
0.001684773049766835 
0.004305469932919276 
0.001339835473505483 
0.003187353743623862 
0.002611275750834777 
0.002627858303089717 
0.00474557282180537 
0.00165855990285519 
0.001474937000201129 
0.0009780471880535514 
0.001188887950588377 
0.002797838226577921 
0.002482994920766908 
0.001317732360261389 
0.001369309311145774 
0.0003805269309885497 
0.002278037909617369 
0.002841077954634277 
0.002618911369623611 
0.00180129574510133 
0.004304087066202681 
0.001407259058696641 
0.003045953333162851 
0.001716581694547861 
0.0004968450267162487 
7.50319020691224e-06 
0.003746745989023555 
0.003841104388852188 
0.002378378274541819 
0.001336049315520308 
0.003423275037750721 
0.003554025667000588 
0.001400534217669899 
0.001592588676942941 
0.002002155924584953 
0.001639834887021445 
0.00264614523204438 
0.003330547985311207 
0.0005724791359929298 
0.003202825151146275 
0.0009609122075930911 
0.001148708050485447 
0.00196989833919514 
0.001237587341291274 
0.00172073861627719 
0.002765105090795335 
0.00219253404943099 
0.004181616645637836 
0.003545128320757809 
0.006170038462761979 
0.006072529189217317 
0.003237089730782938 
0.0006606023907411078 
0.002678133409376881 
0.004038181888422143 
0.001374245328296537 
0.003293525159759395 
0.002505995389622037 
0.002602343328584558 
0.002955284512794538 
0.003200725132230466 
0.002172300788983317 
0.002053132391738052 
0.002617517137497514 
0.001009640460035451 
0.001748726310309092 
0.003177114831023378 
0.002627611309958429 
0.0009556491005800019 
0.003803969124329389 
0.002839913884907619 
0.003283208243043016 
0.001095227002026695 
0.002488909584403898 
0.002309902987879962 
0.001997948408417203 
0.0004645667185703485 
0.001316780791416895 
0.001721275113751612 
0.002455525707341931 
0.0007664501928463587 
0.001490493457310375 
0.004134246463907556 
0.003400789112230279 
0.001467825581422843 
0.001239113556662645 
0.00121459588218495 
0.0009475154065753221 
0.002007561187975442 
0.0008595287349435727 
0.001622219086945682 
0.00302121926567121 
0.001461878009837004 
0.0003791891083293476 
0.001846881304935184 
0.002991170762818109 
0.001216178889690991 
0.001597920207354528 
0.0029970635951243 
0.004734328415000469 
0.001701030034985868 
0.001708073676138762 
0.002602551950105305 
0.001893410784266177 
0.0004997106190672487 
0.002646850111456862 
0.001453515512690488 
0.004442258214931814 
0.004314904825112117 
0.005699145915104354 
0.001655158874850415 
0.002233112823656996 
0.00227752093315149 
0.004669540131460067 
0.001846883575081042 
0.005063438098729629 
0.00235782174714559 
0.001769385440285413 
0.002974420256993885 
0.004868432866336673 
0.001021473024623869 
0.002395926724547403 
0.001821941097999279 
0.003515682029683788 
0.002927239339151151 
0.004210643843460462 
0.002094037402992012 
0.003025933937856841 
0.00246208039840785 
0.001850641365528302 
0.002165446089057401 
0.002304385961086454 
0.00196022166624769 
0.001768474674440888 
0.002732960632977677 
0.002563385279602478 
0.001114460591510515 
0.005301199545116549 
0.0007764358450305137 
0.001845265305403727 
0.003108367865638451 
0.001330318759184228 
0.002596660493940978 
0.002194453874215602 
0.002836541772326031 
0.001903315743648128 
0.001694167051099613 
0.004681942527296528 
0.002560330623704616 
0.001591773264559578 
0.001549705184347789 
0.002148884038452043 
0.003935161545586605 
0.004834006542907801 
0.001535229096438826 
0.003525693875115457 
0.001085127921411685 
0.001858939172483467 
0.002452839283233885 
0.001111783841724981 
0.002592096959416536 
0.005130409142002217 
0.002216818633063175 
0.003434661431222996 
0.001325349602003051 
0.001584702217067716 
0.001518240599172344 
0.00262071644842665 
0.002773391009176751 
0.002167308375011229 
0.0008257210727695065 
0.002321761008452788 
0.001863957465558002 
0.0007926097585208783 
0.002040217435533397 
0.002174138569279569 
0.004030265963559873 
0.001737776318761676 
0.001060544935268836 
0.001331577564347559 
0.001961518824660672 
0.002224406445740169 
0.001300174813679022 
0.003559277288332938 
0.001602040579933025 
0.00357219269066849 
0.0007400882429795171 
0.002074410880622689 
0.003047714846980447 
0.002162581620733114 
0 
0 
0 
0 
0 
0 
0 
0 
0 
0 
0 
0 
0 
0 
0 
0 
0 
0 
0 
0 
0 
0 
0 
0 
0 
0 
0 
0 
0 
0 
0 
0 
0 
0 
0 
0 
0 
0 
0 
0 
0 
0 
0 
0 
0 
0 
0 
0 
0 
0 
0 
0 
0 
0 
0 
0 
0 
0 
0 
0 
0 
0 
0 
0 
0 
0 
0 
0 
0 
0 
0 
0 
0 
0 
0 
0 
0 
0 
0 
0 
0 
0 
0 
0 
0 
0 
0 
0 
0 
0 
0 
0 
0 
0 
0 
0 
0 
0 
0 
0 
0 
0 
0 
0 
0 
0 
0 
0 
0 
0 
0 
0 
0 
0 
0 
0 
0 
0 
0 
0 
0 
0 
0 
0 
0 
0 
0 
0 
0 
0 
0 
0 
0 
0 
0 
0 
0 
0 
0 
0 
0 
0 
0 
0 
0 
0 
0 
0 
0 
0 
0 
0 
0 
0 
0 
0 
0 
0 
0 
0 
0 
0 
0 
0 
0 
0 
0 
0 
0 
0 
0 
0 
0 
0 
0 
0 
0 
0 
0 
0 
0 
0 
0 
0 
0 
0 
0 
0 
0 
0 
0 
0 
0 
0 
0 
0 
0 
0 
0 
0 
4.698174386433957e-05 
5.814777677507763e-05 
1.960286725858603e-06 
4.831040776630549e-08 
1.18080764630419e-07 
-1.694065894508601e-21 
4.570859478531837e-05 
3.243476842221162e-06 
6.364220438840232e-05 
4.723824668955445e-05 
6.083056075355915e-07 
1.850679021750566e-05 
6.921034243757313e-05 
0 
9.854725840360235e-07 
7.103056913276132e-05 
3.335253653862336e-06 
0 
-6.140988867593677e-21 
0.00010788417004864 
5.895882794982286e-05 
9.212038712485148e-07 
0 
1.40845239718403e-05 
0.0001115329438533324 
3.154973396331212e-05 
8.980796405913514e-07 
3.532453041861223e-05 
0 
0 
3.075692309312952e-05 
0.0001674711000198068 
0 
3.749292844329624e-05 
8.524401302823726e-05 
5.015982854922011e-06 
-1.355252715606881e-20 
1.526835574941594e-05 
2.540531184924188e-06 
8.465703201248271e-05 
0 
2.546876562331542e-05 
5.982113279017788e-05 
0 
0 
1.029766826170425e-06 
2.25334140210409e-06 
5.682103516248151e-05 
3.388131789017201e-21 
0 
0.000297954866409612 
0 
0 
4.778957104337582e-05 
1.936097728956111e-06 
0 
1.226914124940284e-08 
1.925716402770953e-05 
2.770728023843161e-07 
0.0001300345698505186 
1.068799235237652e-06 
1.13964835805748e-05 
4.97265412699536e-05 
9.66623083888281e-05 
4.389400907689781e-05 
0.0003405803248107908 
8.19217201448332e-07 
1.281373100237784e-05 
0 
0 
0.0001154235592770356 
1.121805816413663e-05 
7.320078565523688e-05 
1.222927550225425e-05 
2.449837018894723e-06 
-3.388131789017201e-21 
2.310239238532189e-06 
3.269725938055947e-05 
4.742870537849966e-05 
3.329807956135418e-06 
5.434934248128885e-05 
2.98262168346264e-06 
0 
1.568462384538045e-06 
1.993733770082848e-06 
0 
1.599185015993057e-06 
4.103848898873626e-07 
0 
4.996438004234055e-05 
0 
0 
9.017139808343626e-08 
0.0002929593717961795 
3.552465893955506e-08 
2.055039828967501e-06 
0.0001352517022691689 
2.710505431213761e-20 
9.051900686468538e-05 
8.73765435493949e-05 
2.450003287730709e-05 
4.934393055085215e-07 
3.388131789017201e-21 
4.017119054132186e-05 
-1.058791184067875e-21 
-8.470329472543003e-22 
0 
0 
8.905616938529675e-05 
0 
0 
0 
6.485444148634023e-05 
0.0001058008306770628 
0 
6.827324235212984e-06 
0 
1.3658327687752e-05 
2.401003478138106e-05 
0.0001015304721691392 
0 
4.269900119266897e-06 
9.567004931306388e-05 
0.0001730299451739032 
5.05038931870997e-06 
0 
0 
0.0001131681339053799 
8.252140081927552e-05 
6.806027817115969e-05 
4.132726304674346e-05 
2.437079690346718e-07 
1.514850443656356e-05 
1.281612360450401e-07 
1.464902073812973e-05 
0.0001029486886737575 
3.633018458654881e-07 
3.961070707746743e-06 
2.626680928873877e-06 
0.0001164486790591891 
9.719466537825322e-05 
7.884400509098596e-05 
0 
-1.355252715606881e-20 
8.988151348329595e-05 
3.390330108117374e-05 
0 
0 
3.4170587457023e-06 
1.180640112275846e-05 
1.082374145022826e-07 
6.863821169096851e-05 
2.367641615795876e-05 
0 
2.242789022840029e-07 
0 
4.731414213040717e-05 
1.525162194208044e-07 
2.199655793822061e-05 
1.586790157766058e-06 
0 
4.291796433252709e-05 
4.604936995353826e-05 
6.289807979640034e-05 
1.059696099105226e-07 
9.331665284812935e-07 
7.472741313616837e-05 
4.894698857387025e-06 
1.300488022601187e-06 
3.628024348794358e-05 
1.67756294967942e-08 
8.927175130091794e-05 
2.172699735029546e-05 
3.292527739601054e-05 
0.0001140806336879753 
0 
6.366443377053771e-05 
4.003935968419712e-06 
0.0002245055468872728 
0 
0.0001096140828588518 
4.12751275909239e-05 
6.352747104407253e-21 
0 
2.131317247314182e-05 
4.58896187928803e-05 
1.341803632846657e-07 
8.448839925685943e-06 
0 
0 
0 
8.910866559670178e-05 
2.570198758989506e-05 
1.021437449968441e-06 
7.196007562898106e-05 
0.0001065655737364936 
9.599726411354995e-06 
0.0001038068135970859 
4.996353929588532e-05 
1.419522935942112e-05 
2.606117376768046e-05 
0.0002774405811021784 
2.076795218788768e-06 
1.163471728245204e-05 
6.095006763532942e-05 
2.307960194190738e-05 
6.776263578034403e-21 
0.0001441011721807224 
2.086867682286383e-06 
2.710505431213761e-20 
2.457918363118403e-06 
3.3269609236487e-06 
0 
0 
2.326459434396885e-05 
6.616809461630056e-06 
1.255874181697623e-05 
0 
0 
6.776263578034403e-21 
4.657830158111297e-05 
2.521179105426016e-06 
4.029253741960347e-06 
0.0001826058041763698 
2.257026121480179e-05 
1.710643876240225e-05 
6.371106777629741e-05 
1.007790651905432e-05 
3.150361981665679e-05 
2.89819486703907e-06 
1.607162795004216e-06 
9.821267214982476e-06 
0 
5.599253659246587e-05 
3.073718061439225e-05 
6.808433097429378e-05 
1.620012065267339e-06 
2.349467199046617e-05 
5.72845546178487e-06 
2.043740947859316e-05 
2.966338350473987e-06 
4.049958765095241e-06 
3.388131789017201e-21 
0 
7.278046225004377e-07 
2.605444055039552e-06 
1.154642549251022e-06 
0 
2.673800746388059e-06 
1.792933053120723e-05 
5.877989434939562e-05 
0 
0 
2.651781702847452e-06 
3.69878224746278e-06 
9.945730548349087e-06 
0 
0.0001557425698467469 
1.451225983877895e-05 
7.693755964382878e-05 
2.859595636896902e-06 
4.301175528190255e-06 
8.265537599874219e-05 
2.423845253588642e-06 
5.338055967146332e-06 
5.150444288924335e-05 
2.163176204711878e-05 
0.00014669239269422 
0 
0 
0 
0.0002060385296782072 
0 
1.171813969927036e-05 
0 
1.694065894508601e-21 
8.555585614016868e-07 
1.738778511988262e-05 
6.989309110814394e-06 
5.394730952863725e-06 
6.302529881662793e-06 
0 
1.938328435393068e-05 
1.28735184545761e-06 
1.098370104084321e-05 
3.75974439351023e-06 
9.764073350699568e-06 
0.0002911465828957752 
5.218079393241747e-08 
0 
2.391126096127602e-08 
5.505714157152952e-21 
0.0007770860948466557 
1.322639712918443e-05 
4.745878801969454e-06 
1.135104372852897e-06 
5.735449976715584e-05 
6.819418485742716e-07 
2.01559586982717e-05 
6.8383584782957e-05 
0 
0 
5.787197266100505e-07 
1.926832253179955e-05 
4.756687874491008e-06 
4.508576518903916e-06 
2.051622772047084e-08 
0 
3.813439761751374e-05 
9.872810148253072e-06 
0 
0 
-5.421010862427522e-20 
6.33289939923473e-06 
0 
5.801490296077213e-06 
0 
2.240260957449959e-06 
2.95456105147886e-05 
2.180139904995269e-05 
2.653215425803047e-06 
0 
5.730863913852598e-06 
2.479782389080096e-05 
2.478379746082996e-06 
1.396241525900296e-06 
0 
0 
0 
9.004988424227173e-05 
0 
8.340798083239536e-05 
0.0001627708622662931 
2.521880709697216e-05 
0.0001974424203784083 
2.158272745507442e-05 
5.108313519646402e-05 
0.0002254040858625556 
7.09300040560006e-06 
6.557531658052042e-08 
0 
2.144908401765842e-06 
1.142167080368554e-05 
2.488202398291728e-06 
7.210246493876271e-08 
3.458271130285463e-05 
0 
0 
0 
3.855862785738732e-07 
1.622156378659788e-05 
2.120654290158476e-08 
-6.776263578034403e-21 
4.824731517096418e-05 
1.680442069200501e-05 
1.437003023573936e-05 
3.474582564723021e-06 
2.977683347047678e-06 
2.944688873891345e-06 
2.040308354928687e-05 
0 
2.28292707664746e-05 
2.879107334680213e-05 
2.76581490923413e-05 
3.763324418614162e-06 
2.960906697969092e-06 
0 
5.643866416306958e-06 
3.301890309357253e-06 
1.773031886863141e-06 
2.278045552933501e-06 
4.840763507015512e-08 
1.251990392507328e-05 
3.008012267737363e-06 
5.887910523341764e-06 
-6.776263578034403e-21 
2.281519571307178e-05 
0.001046053691661203 
1.449926762079021e-05 
0 
4.044354824215418e-05 
2.450996631508864e-06 
6.580338475447094e-06 
0 
3.975824329489777e-06 
2.844522018292066e-06 
1.929493326965365e-05 
0 
1.010679822411075e-07 
0 
2.220560141026474e-06 
0 
1.766880929324941e-08 
0 
3.887784896860186e-05 
3.784847183054618e-06 
2.069677377190219e-06 
0 
1.042331424750241e-05 
5.421852010794765e-06 
7.838376572903537e-05 
0.000274381019694037 
0.0002114565083259234 
0.0004138411514170249 
3.549512850237789e-05 
0.0003182398441962197 
5.500759521584342e-05 
0.0001118095734054687 
4.371248757378265e-05 
0.000740076521351997 
0.00014831648673107 
0.0001526958283871035 
0.0002200579170696413 
5.412535923945725e-07 
8.831106013118119e-05 
4.397432086367516e-05 
6.437825574309407e-05 
0.0002597145715134596 
9.163090017925338e-05 
0.0004867879195912901 
0.0003658788660076155 
5.04063453832856e-05 
0.0001395107520923082 
0.0003040086068214199 
0.0004470851315520947 
0.0002215671614198071 
0.0001550721919328189 
0.0003339037599150552 
4.436608549442826e-05 
5.264631239470599e-05 
0.0002578918491628369 
0.0002802840216200475 
0.0003675164576433233 
0.0004044219593494786 
0.0004956337955020347 
0.0002243086341206082 
0.0001600401003530333 
0.0002262417748289853 
0.0002237814364089278 
0.0005847910597731 
0.0002082148046675238 
0.0004979807051613862 
0.0002681771492232053 
4.172550949544206e-05 
2.017374418322382e-06 
8.079049532138467e-05 
7.903059499472033e-05 
7.624503856931755e-05 
0.0001534960435546989 
0.0003513586333240489 
0.000269283781145536 
9.881177256355385e-05 
0.0004757451744060258 
6.46136280244476e-05 
2.732959735394472e-05 
0.0002297554248120842 
1.939733034632428e-05 
0.0003281912977464919 
0.0001082418707299744 
0.0002450461975934769 
5.243741965992926e-05 
0.0003064277336446343 
0.0003192753801383586 
0.0006035772930679823 
6.727878587589352e-05 
0.0003024373819597475 
0.0001188093847197147 
0.0003917811698325085 
1.554245221248487e-05 
6.588198311043948e-05 
0.0004549363222238803 
0.0004979149962909078 
0.0001775529360722173 
0.0007481225991216525 
0.0003587603320848977 
0.0002690537032070679 
0.0003713279259781303 
0.0003971988483143795 
4.553136351243528e-05 
0.0002146536793430928 
9.698276082136064e-05 
5.826587725491359e-05 
0.0001516536626681388 
0.0001009596269216315 
0.0001718679361310757 
0.0001203278595995336 
9.549005848193793e-05 
0.0009952532830976963 
0.000107121709508375 
0.0005039362946528777 
0.0002024592550608429 
0.0001010618192397096 
3.13805590826152e-05 
0.0004391899208419108 
0.0002024356550275384 
2.267728864105906e-05 
0.0001590698564185802 
0.0001267199565239756 
0.0001298272892067112 
0.0003685212803752109 
0.0005848248115047139 
9.674410476709789e-05 
0.0002427638298997875 
0.000151330078948634 
4.988742852065079e-05 
6.81732223168683e-05 
0.0003040747853122048 
3.34941886096331e-05 
5.207130969567936e-05 
0.0001172397876747879 
0.0004140396660529121 
3.911397650722452e-05 
0.0004966519853265227 
0.000489454342958649 
0.0004096930237797281 
0.0001257571997888084 
2.850663878786251e-06 
6.952869128947926e-05 
0.0003143465272214115 
0.0005374359227222815 
8.932719815885294e-05 
9.412635154204306e-05 
0.0002675886334896176 
0.0004762311289104909 
0.0002970263645030973 
0.0001103612517276212 
0.0004517977336282149 
7.359398530879229e-05 
0.0002242598493040157 
0.0003949631165459425 
0.0007723681322726386 
0.0004941746572212315 
0.0004243377197460362 
8.767806601623059e-05 
0.0005440871724529866 
0.0001683362359043137 
0.0001237254449697348 
0.0002790008034535042 
0.0001155596785846209 
0.00021677927602774 
0.0004639324394539577 
0.0005327276220347878 
0.0003355160429884224 
0.0001699565540742622 
0.0003773341223757491 
0.0004030097213856851 
0.0002847324254086648 
7.353625550123707e-05 
0.0001614268618621741 
0.0002982205854670665 
0.000320076124396364 
0.0003763708044268481 
2.781550406687886e-05 
1.517377091477811e-05 
0.0002197734188689241 
9.898414995719793e-05 
5.76651720513506e-05 
2.476268198916967e-05 
0.0001051536753191769 
0.0001169306588591932 
0.0001013499276838073 
0.0001372843472523858 
0.0005049812235983458 
0.0001394817036407214 
8.209864593700717e-05 
7.475765229965997e-05 
0.000311043322457523 
0.0001327703353443949 
0.0001061905091085334 
0.0002927844366901161 
4.810621771951089e-05 
0.0002777644390465573 
0.000151253657406574 
6.239921944582385e-05 
0.0005276053726397753 
0.0002579612086721824 
0.0001423047600534853 
0.0002403227803271968 
0.0001691477553090027 
8.712348013672915e-05 
0.0003108701758150927 
8.165298636300082e-05 
8.81401264124461e-05 
1.102606658308445e-05 
9.996439138822332e-05 
0.0002841626569919868 
5.555353921915704e-05 
3.402114438227417e-05 
5.539619733753291e-05 
0.0002629477090859035 
0.0001672360238900312 
0.0002339294138119824 
0.0001833476372667233 
0.0001732828960380565 
0.0001266759485450632 
0.0001150834022005261 
0.0002735913846910402 
9.588863543914378e-05 
0.000840147924440748 
0.0001510245630484085 
0.0009117873434027042 
0.003639016168627065 
0.0009380878801589789 
0.001030563788416189 
0.0004462195955971793 
0.00128204191231926 
0.0005792850880835674 
0.001122031256792826 
0.0007015595511585636 
0.00387521255433288 
0.0005205131640762825 
0.0009649648122525874 
0.0006488739746362249 
4.358653952692498e-05 
0.0007225234534438105 
0.0008065622881127702 
0.000559231501661038 
0.0009927284964036445 
0.0003468700840675221 
0.00135641634645163 
0.001992304449745482 
0.0003830013184726343 
0.0009204912564159515 
0.002342116079740364 
0.002471403757126609 
0.00187153935415509 
0.001463824876318706 
0.002199191507330781 
0.0006099669042566471 
0.0003117817975700797 
0.00264375317778363 
0.002349536323194891 
0.0009669270195765334 
0.002230504243446556 
0.003257919579926963 
0.003101199917318353 
0.0005318618933561795 
0.001727717466712881 
0.0009336245750951084 
0.002714462157884815 
0.001065215135703196 
0.002033863680076823 
0.000683568231892506 
7.762667924985025e-05 
0.0001360029676373647 
0.0005090288595198199 
0.0004689250840492365 
0.000190587540596136 
0.0005806351827461063 
0.00208902677546877 
0.001780810875600702 
0.0002727709225953176 
0.001101421155782676 
0.0004904118279089826 
0.0007072015511804566 
0.0009410094157177988 
0.0002745403259099913 
0.00199178473193609 
0.0009620736684702119 
0.001648634983747918 
0.0002107818623720526 
0.001505634041495894 
0.002613272644809991 
0.003413669155338864 
0.0004062180458425567 
0.001499747634349593 
0.0005392014228965635 
0.002942163346145447 
0.0001892052735879501 
0.0003138570619076248 
0.001199316376909996 
0.003656633753912927 
0.0007651294958846925 
0.003141972409849251 
0.001060811313317827 
0.001246207986143323 
0.001180497487400903 
0.002964292033708268 
0.0002779826515338233 
0.0005715984071825866 
0.001430958687818772 
0.0001050326504689743 
0.0005684926284425112 
0.0006458126765930103 
0.001029892701908808 
0.0009828654626375824 
0.000904089737958865 
0.002385426390524405 
0.0005807514088430189 
0.001397340861051675 
0.00207731962031345 
0.0004754306402910406 
0.001008409255711291 
0.00312864086564398 
0.0008512922877610533 
0.0007258453323528057 
0.00131910561266577 
0.0006056535882680219 
0.00139155694766579 
0.003177051140969817 
0.002570206368792338 
0.0002906571209927439 
0.0008204788342978577 
0.000540651262734765 
0.0003254806274022473 
0.0004298904676368691 
0.001390361564514914 
0.0001216573003109461 
0.0006411324446500214 
0.0007376643606395929 
0.001057386516254803 
0.0002811951460230963 
0.002209014878038216 
0.002903268229112183 
0.001032494528036837 
0.001115966085686443 
0.0002151711568009635 
0.0004403310529451644 
0.002216181306956676 
0.00299439345295034 
0.000422401717649777 
0.000626500842549672 
0.00234464386125625 
0.001476829440164476 
0.002306629868416005 
0.001076293332097979 
0.00103987431565894 
0.0005434324925001659 
0.0006279158778984703 
0.003203086798267599 
0.00364998715404619 
0.001938903645986658 
0.00302902815802302 
0.0004230640094878329 
0.003014145353516735 
0.001125888498926251 
0.001292357773040768 
0.003387175183623802 
0.0008080041920615893 
0.0006797038494734292 
0.001411203137196276 
0.002818156639718581 
0.001663714290008283 
0.0004668336759385199 
0.001198266945061113 
0.002826910130863839 
0.001088886870274595 
0.0001880549967508931 
0.001104577002609849 
0.001459387515842307 
0.001277364920788447 
0.001138394292969085 
0.0002092764869754815 
0.0002318333262080309 
0.001401606424192064 
0.001386557215195935 
0.0009732007358646696 
0.0004024941951693533 
0.000443219133223229 
0.0007943099696574635 
0.0003030577760968915 
0.001123273768237813 
0.002690465991060329 
0.001013938223383886 
0.000526508330476979 
0.0003968629545997581 
0.001103269773168861 
0.0008859652889768363 
0.0006635248221753483 
0.002590396385921036 
0.0003887521131706033 
0.001260528146793323 
0.001065923523241011 
0.0004607954524275581 
0.002918666522257543 
0.0007394956882305115 
0.0008590951887174466 
0.00372622439059903 
0.002902943538959315 
0.0002717479289820451 
0.001605339470470482 
0.000558953882900204 
0.0005020873480581102 
5.373906340540459e-05 
0.000938577486019324 
0.001123427222010885 
0.0003910562402845364 
0.0001524459250468842 
0.0002805836875118848 
0.0008247291183408629 
0.001018814876813607 
0.0006580695944400382 
0.001422643639577909 
0.0006933612981295788 
0.001170816255433468 
0.001707515658146964 
0.0008507982681680475 
0.0009060590391748997 
0.003850914503874237 
0.000507772581941954 
0.0006327725700682451 
0.001328189843944073 
0.0001577923972418943 
0.000669971718454848 
0.0001367222713203994 
0.0004860820768890848 
8.822226904963711e-05 
0.0003793771650569265 
0.0002626716519286916 
0.0019712171778818 
0.0001327995660616317 
0.000293943890599145 
9.910498443860766e-05 
9.496994398177655e-05 
0.0003881781566672843 
0.0002889013519434199 
0.0001240092744476875 
0.0001294610274264715 
9.916424800448369e-05 
0.0001235933081215219 
0.000708276732855512 
0.0001119990976069611 
0.0002593497827028754 
0.0009136036426458488 
0.0009442750722135537 
0.000590142438828604 
0.0006514349851684352 
0.00123767202910086 
0.0002605728563176232 
0.0001383081647932739 
0.001283465255502366 
0.001307096459290002 
6.493114729829111e-05 
0.0004830762054426251 
0.001220432284989078 
0.001113061658706514 
0.0001288268398322787 
0.0006399671787109721 
3.549016565123992e-05 
0.001526198640892498 
3.433826413851928e-05 
0.0009057646905635053 
0.0001329908315796194 
1.401111777134959e-05 
3.431402051813838e-05 
0.0002161474120457565 
0.000111990843637513 
5.023319567863334e-05 
0.0001217886094747412 
0.000301227264283042 
0.0005687415181941111 
0.0001596230860532324 
0.000100289302867733 
0.0002625765036697618 
0.0001874562045321791 
0.0003309663457057728 
5.731129839971034e-05 
0.0008776269791172685 
0.0004275794913815884 
0.0005109800972433479 
0.0001083388729219612 
0.0002580958115434311 
0.000817046564958331 
0.001943245189248267 
0.0002763472661724107 
0.0005306504191809057 
0.0002574568802794244 
0.001274111625075675 
2.632541849000163e-05 
7.989518544278791e-05 
9.364133494632677e-05 
0.00159088179099082 
0.0001011204306759878 
0.001357004219472448 
0.0001166467217869955 
0.0005175645161739406 
0.0001047023811697431 
0.001475227324396038 
0.000173433011567913 
0.0001012501869077642 
0.0002975004020400505 
3.037995665595077e-05 
4.638825488814865e-05 
0.0001884262679386647 
0.0003298321461135578 
0.0004796144527760135 
0.0003484260296178679 
0.001648698001998027 
6.002269062201668e-05 
0.0001784114157216173 
0.0005762075961044563 
9.111472181872814e-05 
0.0002589799328205264 
0.001800049035741836 
0.0002646297175721608 
0.0003656063467955598 
0.0005823182753279756 
0.0001680745630422359 
0.0005348581596010319 
0.00154289229657846 
0.001109195118058892 
0.0001945975186524204 
0.0001335000770886859 
0.0002456831507650146 
0.0002903069549934551 
0.0001737602015625219 
0.0005059802547738683 
3.427576724331014e-05 
0.0004014421091645666 
0.0001123450677482332 
8.590584461103081e-05 
4.731499732725768e-05 
0.001505205762956378 
0.001043147898833084 
6.379270364504092e-05 
0.0002881469033005805 
0.0001120277788140417 
0.0002530436037345686 
0.0007840731317492225 
0.001317871661814571 
0.0001420701786163478 
6.073406571747044e-05 
0.0005353069126692757 
0.0004318933007968484 
0.000794552236869611 
0.0002498211686692199 
6.857994992157488e-05 
2.473207572964644e-05 
7.797234206385756e-05 
0.001071193702205488 
0.00204731889541339 
0.001404035138959093 
0.001139157220569772 
8.653472530230249e-05 
0.001568195660124598 
0.0002006174025305915 
0.0004274308387328008 
0.001372929145181252 
0.0003118641920468899 
4.837192744929591e-05 
0.0001555930878674709 
0.001546338130431108 
