solver_type L2R_L2LOSS_SVC_DUAL
nr_class 3
label 1 2 3
nr_feature 90001
bias -1
w
-0.002048123390672512 -0.02274625722257496 0.02428648562366551 
-0.03349062010434366 0.01086382953368429 0.004762936798510689 
0.03073065880098992 -0.03490930150596632 -0.01732811010746688 
0.01504008456315765 -0.00810203537123216 -0.01609394264624736 
0.02565997891662311 -0.02036260287077499 -0.0185556006157774 
-0.005112138345047527 0.003847346105762268 -0.005134998548753595 
-0.01272238390833002 0.02495536534992289 -0.0119765747492558 
0.01269584721678294 -0.008905830901202227 -0.02070238008327683 
0.01750691383547971 -0.004971293904554636 -0.0207689735957653 
-0.007193781340450423 -0.04445679610174007 0.04380854720450193 
-0.00671244712679917 0.006194998716605991 -0.001915313239296629 
-0.01152998646763846 0.009386980999808808 -0.003977685849384554 
-0.00246508329752333 0.0006153979907291172 -0.002128154436215272 
0.006634279059123653 -0.004681745486131996 -0.003114144015245752 
-0.001221138241102492 -0.005959326547319201 0.005098342112420942 
-0.005667153867478818 0.01528564705691023 -0.01451116286529644 
0.009978916696922295 0.009021901054458705 -0.02779348341907017 
0.03633666417617037 -0.03922173244819541 -0.01582454837297231 
0.01247267612981392 -0.005930990951246666 -0.01391093101688998 
0.03648061058219107 -0.03748270448593061 -0.02712354657594941 
0.006704510500900812 -0.03496184724388581 0.02387318047934868 
-0.001900381816349942 0.002478141541544597 -0.006242601499489507 
-0.0003685347934955528 -0.00680108988210528 0.002064855649253443 
0.02852540045418751 -0.01078639441015113 -0.05013429122342266 
0.07299526194891735 -0.07311452792053769 -0.04697398911788273 
-0.00709682515583885 -0.02580457888892749 0.03203936543056544 
-0.003440500349700775 0.007587056039990689 -0.009991326814729846 
0.0006007787593032817 -0.02574915739715069 0.01428129851584902 
0.01696912630165032 -0.006284224971284435 -0.02131529777794229 
0.008972345769703349 -0.00563645022164974 -0.01058883760851618 
-0.01152855146964336 0.01009576179232894 -0.03394202280489016 
0.01253366496719005 -0.009968021098221508 -0.02706556402554372 
0.03158493345337891 -0.0388852589658309 -0.01137120052460219 
-0.002914169253935691 -0.01665466673286641 0.01564556702942846 
0.04783085809078019 -0.02279338127229735 -0.06562062212159352 
-0.01174907528251943 -0.009942549089483712 0.008514951735141302 
0.007027090329223984 0.002352726531950641 -0.01436075685214808 
0.01532917177730841 0.007675213124201617 -0.03468068401211957 
0.009738541435668302 0.009915307096680931 -0.03888500826256866 
-0.006521725932031822 0.02737914347073482 -0.03787526382155956 
0.05901804041593276 -0.06805172702802706 -0.02114343023603447 
0.02586035941823018 0.005601743731770002 -0.04718991969105604 
0.01674669327561491 0.008082941587014602 -0.03829189641596997 
0.001969504088055185 2.866996822425738e-05 -0.002999718688936094 
0.008735643666182602 -0.006341971151050206 -0.004548241357630951 
0.001372423970134233 -0.007535028688068196 0.005226432552927632 
0.004539743990078943 0.001368780223596448 -0.009784345279273103 
0.01278025795045011 -0.01174713034748664 -0.006124341565449614 
0.02124546191776146 -0.004980208956481358 -0.02576768669151957 
0.004423200931458284 -0.02469164178417509 0.0161291849650454 
-0.007006459320906795 -0.01952909728861269 0.02386792228983434 
0.01044551804682286 -0.003561018766354773 -0.01180482879461655 
0.02872035295283967 -0.02651836552487196 -0.01934879249090859 
0.001863873731072494 -0.002722742298104501 -0.002380704168021411 
-0.01593858141887298 0.01434876468007685 -0.005213210718093622 
-0.0018439237849241 0.004125017593050961 -0.006733148664917967 
0.01493189351482167 -0.01060848947216594 -0.01222554542385171 
-0.003483612158985882 -0.02731391627391185 0.00718191929366301 
0.007338441794965397 -0.008995880849972474 -0.005882983363188149 
-0.005212200565332371 -0.02078966874254947 0.02371980963186881 
0.008770933352842762 -0.006932814278265255 -0.006766966697470102 
0.01717183794398329 0.006639518990615137 -0.03556926118295787 
0.05240846336932089 -0.0312708898164362 -0.06739047539725554 
-0.03571081493878683 -0.02910042224113806 0.05908018780402231 
0.009228449660285711 0.0003653597594909378 -0.01794736745698763 
0.0114641781937618 -0.02032918984432818 0.002298158988868027 
0.005619469607692368 -0.01415578293289462 0.002597816776758657 
-0.03120434842520077 0.02967589373004635 -0.02039926730441514 
0.002160673394828288 0.002142206252126253 -0.007598533831157043 
0.00445996219927785 0.001999581847823484 -0.01091699279058929 
0.03671783765287875 -0.03811851582770562 -0.02733533928311419 
-0.009102967030246866 0.04862702977652608 -0.05831958397226088 
-0.01494796557678864 0.02060699819875089 -0.007486858600658627 
0.05539838008541483 -0.008813262081860776 -0.08048934181268476 
0.01162267912452277 -0.007687940310841172 -0.01488724475971351 
0.01638050028010625 -0.003756135983893785 -0.0207759709525691 
0.02440306976499207 -0.03161458749205256 -0.01333233812433974 
0.02536552674717365 -0.02773480548912136 -0.01198101594589128 
0.001383683149675823 -0.003703991321991951 0.001034614325897196 
0.01484507587038995 0.004224299621259643 -0.02534580352883297 
0.07978028459468509 -0.07939121187797391 -0.04823316704100111 
0.004128419541800135 0.01071976265582085 -0.01797718039970799 
0.03731048522929183 -0.02941040733130434 -0.02546248062604129 
-0.01953468917910705 0.02468113826014458 -0.01077842030532828 
-0.01577156875663606 0.01654322972823934 -0.00723939726965019 
0.02930766868237997 -0.01967315377811999 -0.01842037309393854 
-0.0168145084231925 0.009831878186899064 0.004251087974926923 
-0.009632233320498909 0.02255224296006811 -0.03887885552141977 
0.01548416914332382 -0.02745047504270762 -0.002812757962952709 
0.01605920914671691 -0.01956834041171423 -0.01087402632426881 
0.001047214697226248 -0.01772227185237207 0.01151483823464485 
-0.004244284021840227 0.006742994791228708 -0.005766049350920887 
0.01859318004040962 -0.01620434249771023 -0.01287542411728099 
-0.08113384933980634 0.03812605608769834 0.04334048610642362 
-0.01367667276636794 0.01816235933157058 -0.005415381176916493 
-0.03120569306663745 0.02177941960739092 0.0140182789590338 
-0.009224052963579978 -0.02174659697224986 0.02886196204632265 
-0.004183159718763035 0.01174758298254123 -0.01103623147973798 
-0.01062357816142443 -0.01276299562828993 0.0213306096157973 
-0.01344045362596584 -0.02418868907096153 0.02265887370060053 
0.009371681900793301 -0.03126880426553719 0.01265055852290058 
0.01224973982474873 -0.004536847017462999 -0.01453900517269636 
0.03803098416151751 -0.03972847752478455 -0.01694219282795207 
0.007546738800975465 0.001144509224325091 -0.01285790248477806 
0.009614288654648907 -0.005025345949124182 -0.00784899164581725 
0.0161439974214572 -0.001254648762538515 -0.02443422644693169 
-0.007299099674420712 -0.005534977584146666 0.01022998868034529 
0.004146457361401711 -0.003018639878759988 -0.002152818256315754 
0.001973307027672887 -0.02297593169775377 0.01876090871817516 
-0.02104177339156751 0.026980637360325 -0.006536478608043025 
0.034999628723973 -0.03888976955638768 -0.01770993129188743 
0.010817730399492 -0.01015662740147201 -0.008335956194536101 
0.012544964946597 -0.06808482172842928 0.04488644375967207 
-0.007831006256113111 0.01537833775953327 -0.04336797778322542 
0.03647825083263292 -0.04452264813275034 -0.01197394391567294 
0.02144140186857905 -0.01179547696611631 -0.01930275908339565 
0.01856381793750088 -0.01063140887194548 -0.01651014046506103 
-0.0005394019486141587 -0.006053945804892347 0.004359430552765718 
-0.00967363431328197 -0.0199019393119364 0.02814634220554087 
-0.012412921082537 0.01013639720237977 -0.01710320100884832 
0.006990245527657941 0.001258954293681404 -0.01323256413838573 
0.006323943194267177 -0.001252105991364776 -0.0131107781116784 
0.01605314138906423 -0.0150626386159296 -0.04103098150302072 
0.01816514529135573 -0.01025198906006817 -0.0175105158397652 
0.0253576637574568 -0.01226587608592511 -0.03947569583068652 
-0.002555886693752059 0.002287042968938021 -0.002526244760201168 
0.03227294869831338 -0.04215729435066429 -0.008408716620011046 
0.03173969058092485 -0.03821967542808512 -0.0150012380055692 
0.0273167432808421 -0.00784050363865638 -0.03599453342631426 
0.03757206884741812 -0.02626355638777466 -0.04762542883928526 
-0.002320122696936963 -0.05005354415247582 0.04334152447059298 
-0.01942818241865539 -0.01435348728499524 0.001342392734352236 
0.02161130525844785 -0.01138862457443073 -0.03657501463858331 
0.006648170875635058 -0.00912570766405609 0.0001724325877769125 
-0.01630459197079039 -0.01764830669210834 -0.007858517362367685 
-0.001362408293952637 -0.007229073003124223 0.006547655660967194 
0.01535241602741854 -0.02862681279478879 0.007655549297157395 
-0.04220872412610981 0.02300045307106856 0.009349417114172228 
-0.0123670201811034 0.005722579319615957 0.001537887253445924 
0.01122421049004948 -0.01488687494062593 -0.01688124633299534 
0.03279730400877351 -0.04055857977350363 -0.01597694315755288 
-0.01549429585221353 -0.02912215476763732 0.03836098122244276 
0.006576904585917794 0.002888468785011756 -0.01873374933418161 
0.006083827028480045 -0.0004982052796057844 -0.01220374436639089 
0.04859172477180503 -0.06376862330317741 -0.01326515879480213 
0.02955914200405528 -0.01993076200589244 -0.04278590225194835 
0.01029810904466434 -0.00620695741283844 -0.01687781716834546 
-0.001446125529736733 0.01368198003789471 -0.01248528628028094 
-0.008877263733831728 0.01655392357782736 -0.01614048242720049 
0.003611580057472412 -0.008917991837237292 -0.01288071029383858 
-0.006463934123544656 0.005199045126343333 -0.003746404540345972 
0.02467991012064789 -0.02998035122148773 -0.01265454284260853 
0.0234949672615043 -0.01552065600263325 -0.01790606508174301 
-0.003718376071446659 0.004909106228624624 -0.002132761351187318 
0.0005966988063936435 -0.0239782634701077 0.02088657665574201 
0.02978669076143069 -0.02174475340855489 -0.01725964445319169 
0.07191189826761669 -0.06986243155610808 -0.03946556956567227 
0.003576541406776039 0.001235970036034631 -0.009613801949492629 
0.008528257459976716 -0.009267125100914531 -0.003545196686118417 
-0.012966627767451 0.008413895645780232 0.001943233639105898 
0.01194427377658482 -0.008427939310579065 -0.009189097796869942 
-0.02809432080355029 0.02858409489019707 -0.001150491347142551 
-0.06524783859817911 0.04838112369660714 0.01565837199353432 
0.00573242028647677 -0.03695494342478072 0.02961350983978762 
0.0009233338614810148 0.0006795684136544721 -0.009172650740852405 
0.005762492416876679 -0.003950275394219264 -0.009049458258741918 
0.02676215487086994 -0.03549815779655772 -0.008584830312308629 
0.02842316378070307 -0.02246016987622047 -0.02600484032061093 
-0.003387501914123979 0.008216543388721942 -0.01372661630088781 
0.02264205272442447 -0.0237879412912543 -0.01249255607376331 
0.006639173149733845 -0.001379196751116117 -0.01175753993214419 
0.0007083114528464113 0.001231561578133765 -0.01089194689135273 
-0.007495369209518868 0.01111309414594652 -0.011918962941456 
0.007481337666518767 -0.003634598792399674 -0.009677261453173635 
0.002835834004739506 -0.04317676064054043 0.03828465578243628 
0.005529521617380699 0.00337484292435757 -0.01434570649140163 
-0.006889416854446315 -0.007619996460120701 0.01292036973149245 
-0.03218985644779843 -0.02384099137601425 0.04689270635580449 
-0.001879578073312002 0.009282122838042913 -0.03004578619735775 
0.04739416154922546 -0.04306630997736357 -0.02695740698177903 
0.008526386719649138 -0.02561536528692604 0.01256437123575762 
0.0008768872065023035 0.003242186053811915 -0.01173634731403438 
0.004852262970744371 0.001555563347424145 -0.01239688477420189 
0.01471360104540888 -0.01310237374914884 -0.005603275524214215 
-0.007667128203356705 -0.004763856007681231 0.004490148540561378 
0.00212132795995317 -0.002252367967664722 -0.005075410518697521 
-0.002023964494161865 0.001411597917407446 -0.002133489085957273 
0.00327026371983034 -0.002257713565937586 -0.002556198528533412 
0.05324033479957285 -0.0481874443129791 -0.02878567642923741 
0.01427642402303561 -0.007523605809827904 -0.01576710450870519 
-0.01108511793531745 0.01506220302572005 -0.005866151550017693 
-0.00569379654580335 0.01273883563931423 -0.01124096750769431 
-0.005758486672804793 -0.004089180899432424 0.007767550426611815 
0.00486426655236859 -0.009461583834050579 0.00225421454042391 
-0.002625922439129737 -0.006523762406753167 0.006458020033593814 
0.135212883241902 -0.1181892785600464 -0.07372591556276785 
0.009970433020224182 0.0183396127668265 -0.03809938692868553 
0.006389293271976974 -0.006254369541308748 -0.01238370266584942 
0.02329316886211823 -0.03355196381618203 -0.006512531375937746 
0.01143640848028752 -0.001423523889362502 -0.0173551838881295 
-0.02978022632529181 0.03920873786204798 -0.01919201890938376 
0.01599190859454472 -0.01149059505395919 -0.01162278691086244 
0.006553365271103833 -0.0001557139460142335 -0.01288038931643887 
0.00905991338036197 -0.0007851287173359519 -0.0198495537502773 
-0.006693091530165823 0.01767095787384888 -0.02887940003709208 
-0.01145857732636653 -0.009729877648359045 0.02063535110988416 
0.02841757489380406 -0.01921038339719241 -0.02532021005643668 
0.009344454049997739 -0.02673334380743616 0.01072470234231695 
0.0187888735684627 -0.02719515644619106 -0.002988392510068169 
-0.004777607985006148 -0.02181400635603348 0.02252479062437683 
0.005251247911791558 -0.005837503152961586 -0.004577812003570473 
0.0016960827257316 -0.007885873277961915 -0.02222690145569886 
0.05602284407814016 -0.06123783429134663 -0.01463745870021415 
0.0003617416314929355 -0.01406568076372668 0.002136251953929353 
0.001770390693873336 -0.006839326558635121 -0.005650869033460195 
-0.003742595102564398 -0.007765510173276059 -0.001499478718122045 
-0.01167989802754929 0.04100004722834391 -0.05734715211328154 
0.001781008706781536 -0.008056656566594989 0.002475907236280216 
-0.006138558346568427 -0.008269463972289398 0.006373244705775459 
0.004592996458558588 0.008266409664924519 -0.0210126163900533 
0.006576599878566652 -0.02769913974857339 0.01890767222025462 
-0.01928299355155525 -0.005544873070732183 0.01172749766576155 
0.00991534179603216 -0.01628959152384736 -0.004310150737227295 
0.04849990126154441 -0.0587298445627687 -0.00807420971531171 
0.001841574896455886 0.005588789036853344 -0.01642495185535932 
-0.02106627812681267 -0.02270462257240835 0.04266603562573573 
-0.01542201744228915 -0.02393881806851705 0.03588201771736375 
-0.008331536164975534 -0.003180083560512934 -0.005124514525702113 
0.006369779758732318 0.0004415718420425281 -0.01754109614417742 
-0.0006642350397053245 -0.003139880004219779 -0.004006020986299039 
-0.002159344327154148 0.01521009179976062 -0.02326035266343534 
0.1157607227039126 -0.1106416947972311 -0.0640572080088874 
0.003333053603909472 -0.002001037331110018 -0.006977384181119449 
0.01279264502184532 -0.01237636908901511 -0.009167586647920327 
0.02520438537709672 -0.03131627515854362 -0.0006768571411313612 
0.0009001471203125787 -0.01030463398049573 0.01039318074542043 
0.04901148696863229 -0.02274054767784305 -0.0597147357656049 
-0.04720197133324019 0.07154784567219478 -0.02235268637403814 
-0.003509921006399099 -0.02019908456370427 0.01599439467084891 
0.05456155681482319 -0.05037205497417848 -0.02503411983703186 
-7.974678539427452e-05 0.01264719060348838 -0.03085386698040379 
-0.01859800715484152 0.02443752027741324 -0.01896997043335552 
0.006750200396213859 -0.003738023493410696 -0.01351886228291305 
0.00824343789614513 -0.01824400845160473 0.005313798474599728 
-0.007852502026884724 -0.0213506982675824 0.02333234038147387 
0.008517277608234177 -0.006423750080517362 -0.01260236285315493 
-0.02624624378244378 0.02772969103665511 -0.004634962817053299 
-0.000159373090170445 0.003715807134882018 -0.01742853221900956 
0.005429314975098529 -0.02692525365197527 0.01485563791400549 
0.005091608451541251 -0.008284510917639345 -0.01783354430935608 
0.006789425366601745 -0.01532649307506493 0.001030761373685201 
-7.634253362304639e-05 -0.04184548034323495 0.03226255493004192 
-0.01214893004389587 0.002194315792740235 0.005889987606107898 
0.01279775435333144 -0.02507111238935448 -0.003807389657794816 
0.002959514180406729 -0.003551244625617777 -0.009093190194858639 
0.02058532586380038 -0.009944078395495033 -0.02321816932235997 
-0.02174085455796072 -0.01103646635942799 0.02502214520844856 
-0.01638419376064236 0.01311277684566179 0.0003525479391684305 
0.0353160737681257 -0.05801373968412288 -0.006086100711842711 
-0.02402809147341023 0.01921822537125563 -0.007777485531191356 
-0.08632287133082032 0.07237692553358141 0.009997671264620582 
0.002178030714904315 0.008313585802228858 -0.01279101110664627 
0.01913430478270428 -0.02796299951332333 0.002253327776876504 
0.006289881135378486 0.009587015921972546 -0.02628717326815835 
-0.01377880194221403 -0.001786877049749817 -0.006172878720340354 
1.011710179916691e-05 -0.004628728572226332 0.001507564105866193 
0.008019091304981581 0.03056225226958959 -0.06381369289828219 
-0.02622345625659098 0.003022723433417939 0.0240970734175173 
0.001142034457778506 0.007589747334060739 -0.01616633364196737 
-0.006171715669657985 0.01724862192380888 -0.02905733931918367 
0.02120377644712005 -0.04044187228861138 0.006531681783864712 
-0.002559108007822557 0.004262298161484444 -0.01734069560667521 
0.01254841804638901 -0.01228347744210238 -0.00665452161375915 
0.006556695298375911 -0.0138456653304023 -0.004626912772511675 
0.01386344560957016 -0.0265415973032513 0.003726613520466423 
0.00161651330375241 0.004554173967750515 -0.01890454156253242 
0.06443514524954051 -0.0286291153321091 -0.06632796603370333 
0.01371189271630202 -0.01365882301741857 -0.009873771245749357 
0.01656113197259735 -0.02195839981951106 -3.471576018088963e-05 
-0.01200674927206484 0.001410451500578905 0.005371312653940807 
0.01635489858768741 -0.03840887222025666 0.01739124241736442 
0.06309033058104316 -0.04735420661891258 -0.05985051634573856 
0.02260626597966018 -0.02603558630920822 -0.004701145178757559 
9.597183605120081e-05 -0.01011484199546518 0.000888771101134888 
0.02310711149484996 -0.03126009530827027 -0.006950887232876615 
3.037056439911848e-06 -0.003759857576204406 -0.00561336953286515 
0.03870748979988078 -0.04737158769059336 -0.001532384892555616 
0.02218360829635175 -0.01735548812089205 -0.01695422797338281 
0.01532866960955054 -0.01036520608605537 -0.01924981735074423 
-0.02829798727858429 -0.007558978122539238 0.03337172747937664 
0.03176900838451154 -0.03222194301306242 -0.007746940550023526 
0.01192398600002418 -0.01032612698621713 -0.006788164243832481 
-0.01824822302362369 0.02246058882367546 -0.008427172823023982 
-0.005184499168633828 0.02108908301577398 -0.02426277915340538 
0.07786514704528903 -0.07794287444369608 -0.02938012800053825 
0.00181367121240064 0.0006423579428135938 -0.00886119950243454 
-0.01160736732106534 -0.01839849231085988 0.01306622526284308 
0.00681982490003489 -0.005598527863479214 -0.006439837323185766 
0.01571384949256217 -0.02375553321689118 -0.004725548763402127 
-0.0002020847454326932 -0.01536998839409306 0.01094798387797368 
-0.01266966961867775 -0.0108851859684402 0.01622191782605736 
-0.005518327484859581 -0.01700471208717726 0.005562862910727638 
-0.009251898767336463 0.0006667546441041069 0.003020701190363893 
0.01362449002943805 -0.02289702479970373 -0.002449703356389154 
-0.008681967237657729 -0.01944372204763743 0.02026858325306203 
-0.01067816915744294 0.001422124495924113 0.001436450672767082 
-0.006736859590398293 -0.03813018829489862 0.03585368258860022 
-0.01036481720269425 -0.0103304129537113 0.01287698541208032 
0.06550076899044997 -0.08169314282654942 -0.01149538553827008 
-0.01343254301700152 0.02715256334524908 -0.01661701734141617 
0.02547180499247405 -0.01354424249926741 -0.02505748602855908 
-0.000645315623420122 0.0004245434607759854 -0.00781627962763546 
0.005625847573853823 -0.01481726521006163 -0.001819461171479669 
-0.02519582423411924 0.03381824817445452 -0.01732691523691441 
0.005479707536675312 -0.003789222902504752 -0.009389965405897479 
-0.01011619459829975 0.008163426528955003 -0.004197976889181713 
0.03523624798033072 -0.03194544940797638 -0.01096487845031934 
-0.02237166633427472 0.0184828170702103 0.00704683491163139 
-0.01160421066933495 0.02195951339290202 -0.02613919957155845 
-0.04280264129035134 0.04035533980667417 -0.006827708551385496 
-0.01113842848591793 -0.002668151556090815 0.006862619621955027 
0.04217511629174025 -0.02885309136703593 -0.03059534623879541 
-0.0278512861183072 0.01354014275421217 0.008993473790148291 
-0.02685258327005911 0.03854780521645478 -0.02106903269576397 
0.1092370425392575 -0.09467461511427937 -0.07097657609966163 
-0.0327794372149617 0.04658709246345041 -0.02235868499963778 
-0.009859288607969464 -0.008613961243135886 0.0136275339651663 
0.0001653263763836344 -0.01542598513892395 0.002448845591707871 
0.007843263222333358 -0.02521347964456478 0.008926157997265394 
-0.04826526701326087 0.07164009627422054 -0.02118703063676472 
0.002871344362730319 -0.01989168105923269 0.01568723102358276 
-0.002684053983602041 -0.008621948825062309 0.0006597203096113899 
-0.006173979171108261 0.004426928608865626 -0.008727283754941797 
-0.02695711500015685 0.04149665413407132 -0.01905641976539878 
-0.006442667411845865 -0.001755027262471145 0.002105455899130418 
-0.02897294440139596 0.04715266050398804 -0.02071300057320042 
0.09689928213382183 -0.09557256000432704 -0.04542079154206487 
-0.02774864396114678 0.02632195147177833 0.003315447889280521 
0.002811939453214224 -0.01024016763492538 -0.000157489076249264 
0.03086354126048743 -0.03160781769271719 -0.007561681430686658 
0.02003011705446445 -0.01293885388140867 -0.01449600592796799 
-0.0002529653989129678 0.0216021779416359 -0.03028358063564515 
0.001103970421453517 -0.01498946380990999 0.007795827185637945 
0.01172928209926137 -0.00850418669344828 -0.01077529473140107 
0.00546313965801928 0.003767139356438319 -0.01467294333129194 
-0.01443863091462832 0.02055766080629372 -0.01042184214440603 
-0.002101284010175587 -0.01750398852348468 0.01941111416958125 
-0.0661272617307012 0.08078074950292902 -0.01274875686220592 
0.01252570696621736 -0.03715394961049889 0.01856388281532016 
0.01148647132143978 -0.01407683186268177 -0.004886531659318875 
-0.007238729339967266 -0.003798233352027067 0.0007691998329439897 
0.02613581889731499 -0.02834677253239924 -0.006712706717094784 
-0.01613120718282705 -0.008860407560603275 0.01824930097957748 
-0.009163144294511653 -0.01956354107825202 0.02381481620870386 
-0.01283058852328134 -0.002319765200179264 -0.004910261584418618 
-0.01222118442878423 -0.01985943504675516 0.02974704118955286 
-0.01078083566828392 -0.009636838911052726 0.01453037047008032 
-0.01988141465765876 0.02325162072661122 -0.01898581593850597 
-0.0009417686754604092 0.001957907631123487 -0.00774743972912331 
-0.006228558640578086 -0.007469007250481777 -0.007165418968145362 
0.0009858753100488338 -0.007966318486041223 -0.009134957164075161 
-0.0006679883007373115 0.0004449083868476839 -0.002708721390549194 
0.004693754161203414 -0.02488473783129017 0.004737235853948676 
-0.02831049812171208 0.03772753273369129 -0.008827592789037697 
0.01108488645017325 -0.01460891057062279 -0.007603026674871658 
-0.03250265550072748 0.0006333900114562269 0.0224094051472799 
0.02464594478419775 -0.0268662871213195 -0.01004531068181565 
0.006969516204130304 -0.009443832458697045 -0.005636465089401473 
0.04727795314341508 -0.05105424787737994 -0.01176796633585704 
0.01558033150441441 -0.02777784533976771 0.009251267597207274 
0.01147222909335803 -0.01777007066759224 -0.005928618887312688 
-0.02892700172109737 0.02304194834985073 0.0008914639847485802 
-0.002524492334482131 -0.003041868931718975 -0.007122327126238366 
0.02571465401226685 -0.03550434484233482 -0.007064622580593562 
0.003988909723188862 -0.02542934685760401 0.00976340861044294 
-0.02173089137501615 -0.008882408248233878 0.02185377393136832 
-0.006009290958538062 -0.01706210975260525 0.008887872526693184 
-0.003569245701420665 -0.005119154862847065 -0.005258797689828208 
0.001861349722684989 0.009544891569428482 -0.02492614817075856 
0.01690258806840658 -0.01671193689272404 -0.01207537798643813 
0.01054759266435261 -0.02608485392257653 0.01052866953299357 
0.006071351507272461 -0.006230587762606636 -0.005351958400263564 
0.04098956675896705 -0.02157966821726813 -0.03474773688787421 
0.01123999773276974 -0.05887521013605703 0.04465502707969515 
-0.006927056532224506 -0.002783087848655967 -0.0002636303674645859 
0.01194817721815443 -0.04066715480717494 0.02026924425842751 
-0.03782200529701773 0.032827670974778 0.001265740643542214 
0.03365791053713169 -0.02295980969868943 -0.03169589415013162 
0.01738554775953103 -0.01126747217772106 -0.01433879502826763 
0.002874501902878566 -0.0004867640146048338 -0.009314526046432379 
0.04239189451752096 -0.04156417327823052 -0.01119427843806753 
-0.02006869012972117 -0.01591539268825485 0.02889926083796637 
-0.006909329742795431 -0.01563488245829044 0.01995219989034454 
-0.02048756005567397 0.03130350522212218 -0.01373682935637326 
-0.01011619682559698 0.003824755521590795 -0.007001398283368112 
-0.01116837201435181 -0.01136386110842966 0.01065254282892726 
0.02507505457947432 -0.02412782712388451 -0.01284248424305665 
-0.003594125026433804 -0.003661197592772964 0.0009712701188287916 
-0.02645988588880079 -0.006223110096962507 0.02818093628722619 
-0.01673231262998219 0.01608181399814702 -0.01102692591207998 
-0.001599545424037741 -0.007217027373911397 0.009041564761683316 
-0.01572658498394159 -0.0075352767318379 0.0258026425403912 
0.0006270993267798899 -0.001121103305207002 -0.002023138407981267 
0.006230875234632701 -0.001316838535528396 -0.005861339653987279 
0.003102995720411469 -0.004630762751596276 -0.009148513129624556 
-0.003409050399731395 0.003197243823517748 -0.001739580223374536 
-0.009012577599496112 0.01616683776575133 -0.005345780099525702 
-0.001784409119190673 0.001914647388017496 -0.005869863898660036 
0.009102294329029495 0.003424491102939771 -0.01589741650366211 
-0.008971496024449908 -0.01810765796451994 0.02710818644450971 
-0.005861816459519469 0.00591500027174851 0.003042836987351813 
-0.00898228305948587 0.0003423041641125058 0.0078859396892802 
-0.006020036980352061 0.002198156370818941 0.007899960975780428 
0.004811073063025429 -0.002542806389303676 -0.003583075479974709 
-0.001658698097515076 -0.000354777780175639 0.001324579350713984 
-0.002767128917229958 0.007995682024917744 -0.006922841004691207 
0.003885050651858739 0.007095083438478571 -0.01548048615606104 
0.004456223378696805 -0.01048810177588988 0.003146301836790642 
0.00445750269092216 0.0001584142821998326 -0.006095910104255605 
-0.001677953861969805 -0.001149963538878938 0.001247324668531557 
0.004065097220561581 -0.0165589639642207 0.01195924096722318 
-0.00399692953046983 0.002141730716051616 0.002265341625265227 
-0.004380864243972981 -0.005078565168010561 0.00828888142482289 
-0.01110056123576218 0.02239628749653046 -0.01770341705396079 
0.02124462638938252 -0.02292435040354096 -0.002388031010453148 
-0.003313910816874036 -0.01541106611202981 0.0175328542445219 
-0.004396831531082706 0.004599276964387817 -0.0005980235448687844 
-0.0003257043195922206 0.001148616248045524 0.0004654808993065879 
0.006435927084946657 -0.006173679788099092 -0.006918289641246861 
0.003759348959759772 0.0005725754366766196 -0.007567004747322114 
-0.01222722402812092 0.02096890739745296 -0.01010638158242677 
0.01186455590621497 -0.01750199360836832 0.0006129085894010349 
0.002607332436824853 -0.006577327760724768 -0.0006734789102492189 
-0.0031769376194009 0.0003672641610306718 0.002293318387282519 
-0.004330644861505291 0.01732352610334383 -0.01285591304626046 
-0.005715051413931287 -0.01847104712822964 0.02378845717778915 
0.002704653286070352 -0.002452594257121844 -0.002363530532184672 
0.003367194417935739 0.007159052636331664 -0.01439052638013036 
0.0003605161792058313 0.01300147195484815 -0.01850499566789282 
-0.001026659147154384 0.01044311974352578 -0.01226097955836548 
0.01282343098266744 -0.0175002574601528 -0.004718544672466053 
0.01253429783474482 0.006982637703132877 -0.02206707640807987 
0.004009569266824913 0.01701550777576801 -0.02651683810770144 
0.0001554633522040802 0.001216698957820365 -0.001110495661093526 
0.004877674760082874 -0.003058012232941778 -0.002740135635957557 
-0.0005945818735363752 -0.002397521005463888 0.002988444945201525 
0.002292081000903549 -0.001392032805112892 -0.004178967208518024 
0.005658655629514606 -0.006670931683907292 -0.00177387656448493 
0.01244211701219935 -0.00077519702195988 -0.01302421587076517 
0.002497805357231467 -0.01430716441035315 0.006739871322951511 
-0.003594026877433825 -0.002354625506800664 0.006337547399217334 
0.005102819757014907 -0.005072284469393762 -0.005328339927574287 
-0.0007630577734967735 0.004826461966676027 -0.00578709962493803 
0.004314740792850919 -0.003793326005562149 -0.002308577208650351 
-0.01202125818319051 0.0008100820793877734 0.01239256754194039 
0.0007308789620673354 -0.003823581200186959 -0.0006800998093889352 
0.005152817789330774 -0.0001643154973741648 -0.007660406419300964 
0.0007251838556208335 -0.007815533964709156 0.002498191337733338 
0.0005516231519973939 0.000400669956398323 -0.00420121451854254 
-0.005909638478607777 -0.0009630010090721108 0.00814616812032205 
0.002296810561147458 -8.35582195661328e-05 -0.002141853450012668 
0.005970348153191105 0.01264262116735317 -0.02077198134122457 
0.007440560612493648 -0.002392653383387581 -0.01022236628349092 
-0.01852088740953636 -0.01450578692455862 0.03653422153030847 
0.002987841409083316 0.005104475770949122 -0.01315468495038272 
0.008329350167267 -0.005999188040551742 -0.002925818249184737 
0.003365541409483743 -0.006344271241017745 0.001679159622606808 
-0.02472254992511188 0.03080124525248381 -0.002475789085978307 
-0.0003175188229749878 0.002349127725893116 -0.003796830700879487 
-0.0009317771153979735 0.003280122163407357 -0.006924788466570298 
0.001709681151466665 -0.002154244170176964 -0.005816901281461037 
-0.01836849028537495 0.03865827345837843 -0.01591410598289406 
-0.00848210631585875 0.007958236635033656 0.003270100399948616 
0.01075535348434374 0.01184788257443603 -0.02609835999631756 
-0.004449952337208598 0.01108843723147631 -0.007348183981466373 
0.004806900188751441 0.002682645005061201 -0.009673351855220818 
-0.004840026000689445 -0.0004785182008081087 0.003849847246066101 
0.008460385061175047 -0.008330024959070335 -0.0005661956915089925 
0.0004741461701072361 -0.0008597418825045871 1.154866977367131e-06 
0.006304840928918123 0.00748325952551753 -0.01358048278297935 
0.01424978831616749 -0.0177761679411538 -0.006221604376503279 
0.001376554019094393 0.00777778228390488 -0.01137277323340306 
0.017739523888301 -0.006945369273748005 -0.01700520973916895 
-0.01403161108505383 0.0114455209798532 0.002276804862268817 
-0.01399543677805873 0.005460268480383462 0.007659805591235113 
0.01177888004261066 -0.007590717048117275 -0.01272215397131083 
-0.01094334866039652 0.002371371134255386 0.01161647122490272 
-0.01078299151217756 0.03627613016233532 -0.03183753337324097 
-0.005795334593904575 -0.001371399159041076 0.003991952714612492 
-0.00524156839007387 0.00237336545984593 0.002696109360751364 
0.004399136446793898 -0.01322506649398003 0.003379283131295415 
-0.005098346849424629 0.00296605040002695 0.0003300808666665562 
0.008372421554729526 -0.01841077594752107 0.002414114564019346 
-0.02814059109631156 -0.006173161976527969 0.04092239208845622 
-0.01081148979516823 0.009164895983786794 0.007959329789193368 
-0.01753692940760354 0.0132449143316036 0.007387252685763211 
-0.007423723852080279 -0.005556976822429575 0.01590060543753791 
-0.001374148674280993 -0.001925338588432735 0.0009427463800233794 
-0.002173302894155128 -0.006590442760753053 0.008243579093912724 
-0.002432156127048433 -0.03531336796095337 0.03695408021813076 
-0.0003630228140408521 -0.007003405713881652 0.003483211928568161 
0.004269668275758171 0.002952048734491276 -0.009344889102954394 
0.008979548367173729 -0.01264523091663474 -0.00366249935458001 
0.001904389057268498 0.005723822878372886 -0.010537463177492 
0.006058892468600707 0.0003469097632738926 -0.008581425882524684 
0.007154313743936036 -0.004699731858280501 -0.009855678297521949 
-0.002533466384270027 -0.006970539376651557 0.007765877993666514 
0.001678505271929691 -0.0005244310653811387 -0.001814278453659868 
0.001163265880458247 -0.008639443176506303 0.009120230674055941 
-0.01378957841824817 0.01509344299663419 0.003243924901525102 
0.004634378827780337 -0.006938490695153158 -0.002524469527222697 
0.003846991403102933 -0.003406804286100136 -0.003591290606887767 
0.009311670482599666 -0.03651782150059287 0.02818188231927327 
-0.01985392890424392 0.02592442905344594 -0.007342875992386681 
0.005460946861606742 -0.01124639603474961 -0.002217095155068253 
0.009446460202109862 -0.001744619959285981 -0.01045598223055802 
0.007978821904535523 -0.001617572793385887 -0.01124773317104443 
0.001119014236689414 -0.006383056667120111 0.003909570063095289 
-0.003310489958308978 -0.009495463235514779 0.01252692005129203 
-0.02033794974182829 0.01539314883370363 0.01064617982027193 
0.001100913648119206 -0.0002163417403198618 -0.004623966015805846 
-0.0006132112240597223 0.002508913664403605 -0.00477726132647913 
-0.02239958313463409 0.02283224288650386 -0.003109671039867848 
0.00807683459910079 0.002911932938741438 -0.01114160811543017 
0.009252975159738662 -0.007023450443486715 -0.007491348795988782 
-0.002259638141264284 0.003314057019230298 0.0006319867417668903 
0.002245054763686478 -0.008117693550661855 -0.0001060892186396779 
0.004144264194637136 -0.005388583827639153 -0.002975659856606318 
0.007573495316536035 0.008941593367229885 -0.01737297503383474 
-0.001115237079520703 0.0065368115470357 -0.002201971721036354 
-0.008311773408506366 -0.01303801897829053 0.02246523665788846 
-0.01689619543580216 0.012027687338043 -0.0007795418696098539 
-0.002963620166122481 0.007547226806706072 -0.005402620380999682 
0.003440337109771095 -0.002048276074750371 -0.001977204470687415 
-0.01326775458400961 0.01698029538975502 -0.009394526512695149 
-0.002302470984734173 0.002066902759881601 -0.0008955243977567838 
0.007045659676870029 -0.007607689016316705 -0.000142652216530069 
-0.02393335654905185 0.002509541917603052 0.02323182061596565 
-0.008725627939661461 -0.001039365659222586 0.01210432427300314 
-0.00830886004354491 0.00555356313157002 -0.0009907161851414579 
-0.005677509255188242 -0.000818133897646703 0.003254154445381836 
-0.001743532599270071 -0.009234814942654919 0.01292447557297622 
-0.0008965267395738212 0.006556572841744009 -0.007359664092901562 
-8.213357931501001e-05 0.0008612584499568558 -0.003288172625546294 
0.004133160841785043 -0.01232477134866862 0.0001371442986878072 
-0.009176122163316605 0.01263907777978965 -0.002457632914781783 
-0.008399772977901442 0.01340331516386189 -0.001984741221975468 
-0.002904848361315309 0.008440155969588787 -0.005925820044416255 
-0.007578369875955971 0.005761678883496536 0.0007937870422571738 
0.006159893028583083 -0.002120386161180512 -0.009330121987731648 
-0.005256509198272279 -0.001790235434771139 0.004545032262112568 
-0.001038075101793527 -0.001644129576262314 -0.0002045363534308937 
0.009708262771754458 -0.004012177931932513 -0.01198639823585181 
-0.002543581213809383 0.003085523865559437 -0.001186553732836361 
-8.195400317635856e-05 -0.008614911623872653 0.006158899445008732 
0.01117855887004528 -0.004940885380937902 -0.01189290741636881 
0.01789494557095368 -0.0169536335658626 -0.0105444330806185 
-2.706388628827537e-05 0.009544324058357994 -0.01126374174245333 
0.003802461453521377 -0.002290383397670679 -0.003026239449525238 
-0.00896064519489099 0.008288080832007725 0.003427745876948986 
0.003464519734354929 -0.006606516644483385 0.0008790117837491844 
-0.01692209726376037 0.0150604675195522 0.003482391955163476 
-0.01849162970291134 0.004636456464061566 0.02217590010629755 
0.006047993973438801 -0.01465371469624329 0.01107610308873185 
-0.002881089859669095 6.752166669790216e-05 0.002256363702606662 
0.0005654554079716514 -0.002637991757401427 -6.599690561222954e-05 
-0.0008112896215203416 -0.007485680865212106 0.005390460459964944 
0.008141289943367717 0.0001154829088183086 -0.01125515888293001 
-0.006587070428002994 0.00301477721879427 0.002028583693455291 
0.01358621182895807 -0.006937188940756949 -0.01065836585013349 
0.003560007797263729 -0.0001418178391526167 -0.004998407813467014 
-0.003908910970605603 0.000724576417720919 0.0005229611439381123 
-0.007937783706822691 0.004146595071696858 0.001456458946544362 
0.004947205345113329 0.00045807426130874 -0.008767839882179461 
1.287138442168792e-05 -0.007949194611782966 0.01366925461702747 
-0.001270955828210783 0.004761785125219574 -0.001913224525868664 
-0.002631832451259982 -0.002162219513639234 0.006064101293129893 
-0.01512452901094291 -0.01679050073859978 0.03065852305146733 
-0.004729045762818206 0.006287401785727517 -0.002598994407532417 
0.01543142393845128 -0.01075474313631839 -0.01489194944459729 
0.004565307760462768 -0.009097818385392392 -5.160390477016895e-05 
0.0004207402584864095 0.0003248000696550891 -0.000697518653429393 
0.00210804256205156 -0.004932922029121151 -0.001372746585773185 
0.008499784746119602 -0.006770888086747661 -0.002492490025553854 
-0.00524726215992721 -0.002383193690280463 0.005963549558974479 
0.0009495866519100522 -0.005682573915145743 0.001109988214153403 
-0.002538283127601141 0.002858530267541833 -0.001795535056252915 
0.001547587685011874 -0.0007391563096411725 -0.001534094243822041 
0.01855927763950386 -0.01257383016343054 -0.01663351765951113 
-0.001952046002271905 0.004461867424409654 -0.001018068735792737 
-0.005606148461886008 0.006929104624758461 -0.001514849007361204 
-0.006572343726884108 0.01167005235486353 -7.454580292576681e-05 
-0.00118467754629948 -0.001525168057630797 0.001045559199559103 
0.0004190726632522279 -0.00403962541107237 0.003424040600554088 
-0.0007999252506315896 0.003660783113957524 -0.002608848805356893 
0.04476295782081343 -0.0320131899950444 -0.02478882297061291 
0.003325532424183908 0.01899121413025709 -0.02258512371307324 
-0.004826289404706544 0.001161030291264788 0.00134073713900885 
0.006537967138787774 -0.01272661717016405 0.004014440010672382 
0.004386140155577713 0.001517762151006707 -0.007609467247734206 
-0.002504976985728691 -0.01287577392456008 0.01647571992826933 
-0.04236882896580187 0.01041786125286913 0.02761628175030962 
0.01134688182657834 -0.0129943967280476 -0.008914413237311252 
0.00928064317307274 -0.001237627003799463 -0.01139922911862434 
0.01495693464271942 -0.004518911885695799 -0.0239691113471366 
-0.004379838422540877 0.003474340369828885 6.427917575462609e-05 
-0.01367609612649799 0.0279565545689943 -0.01250934229855924 
0.002505786805074825 -0.005584310040106478 -0.002835672241123403 
0.01409244087521085 0.00136565065500183 -0.02404332004905224 
-0.01135319381759583 -0.02542154871398629 0.03089678218572053 
-0.00920018286946906 0.0105128222734458 -0.003081357500730464 
-0.009734907831698102 0.006363523322181385 0.001908708114619492 
-0.004808453902392412 0.006572413621743368 -0.0009152340925459902 
0.006147057865651465 -0.003665614295846526 -0.003562534111180114 
-0.00170287893081614 -0.002721288849552615 0.004070666742378983 
-0.008184887893833055 0.008696809114964555 -0.0002862680410314165 
0.003220202921259843 0.01608645188012065 -0.02527767347884675 
0.01691076720905772 -0.01658465672739699 -0.008722131382831455 
0.007277099314402433 0.0003831437330898615 -0.01491746066539984 
0.01332552853789081 -0.010252750063084 -0.01619167201459884 
0.003186256341017459 -0.02008639359131229 0.0175918635958444 
-0.002068107574311743 0.001116223800253358 -0.002557076230153118 
0.00246164705721861 -0.009323638618893963 0.005816708703352727 
0.004352385788673365 0.0020129123843478 -0.01388604915180897 
0.03648654137863711 -0.03863602666217834 -0.01660868122748147 
-0.00681368173071109 -0.01607360692190646 0.02447144785457513 
-0.005574809775748335 0.01386663735277936 -0.008307019754045675 
-0.001037735327600839 -0.01120474215828911 0.01369640768285823 
0.008382043691342728 0.004360145009424926 -0.02082831676404758 
0.005685807873206769 -0.001806396845000271 -0.008807650499322859 
-0.02289775168442713 0.03615863322203586 -0.0425698900505997 
0.01029729564014409 -0.02139251296774882 0.00385376573834281 
0.01314264151145367 -0.01950690614954866 -0.002702470732095391 
-0.007689512639214791 -0.003383588250619839 0.01098940188762376 
0.0136366719195901 0.007189266569324816 -0.03435092763190869 
-0.003531113279465853 -0.02223016542208597 0.02682555908242505 
-0.000452236640084475 0.01300576780802267 -0.01465693245492445 
0.006022657290823244 0.02075974521794169 -0.03460450987750038 
0.005975625969515197 0.01551311694111269 -0.03047621807969065 
-0.001003996370823431 0.01271892558796922 -0.01617848738457201 
0.03142426726111549 -0.03496711578013584 -0.01258643039506843 
0.01815010356500962 0.01781005921597686 -0.04562858869929472 
0.008326508461386408 0.01959153002331548 -0.03519921371286993 
-0.0004661671337658987 0.003027304764184448 -0.002408168097431479 
0.006682943022226914 -0.004351338837063785 -0.00379971486139807 
0.00098980552535082 -0.003944333000338945 0.002526637447122507 
0.004824578387219002 0.003790585333717412 -0.01095023682153504 
0.01061551613712914 -0.008632892757994693 -0.004477556703500599 
0.01915285945705744 0.003399156819580393 -0.02601573362033532 
0.001681855605082625 -0.01434158155228487 0.01268742388015261 
-0.01198820691896733 -0.004387967767968642 0.01625265051201459 
0.007570573636152267 0.00169238502761046 -0.01248862274465479 
0.00880093079790532 -0.00484962853859931 -0.01012481234028253 
0.003865585337527829 -0.00540535855790339 0.001260650120684778 
-0.014062514247571 0.006793274568558676 0.004811405018936932 
0.000327740334707644 0.0006607824466409696 -0.001921657511067404 
0.009476683845032623 -0.001607623800612971 -0.01416907124191219 
-0.004337055095912534 -0.004548960841348475 -0.003366388681433475 
0.0006038024484460124 0.002946615622968235 -0.008513047335810715 
-0.01010059417026315 -0.006659726183879546 0.01690648414533028 
0.005810840031234634 -0.004213319932267927 -0.004134667643866002 
0.01027511801584333 0.01611876213810077 -0.03109896489737206 
0.02006006975819944 -0.008984410965848491 -0.03175685114353358 
-0.02783644242593857 -0.01809293570128833 0.04867170956514908 
0.004370742847291618 0.009307698998979217 -0.01950578851726506 
0.004409964830288032 -0.005440976915117102 -0.002116658545527941 
0.001265076946523975 -0.005459460390125514 0.003591043600252196 
-0.03435418422034589 0.02993495278665827 0.00401781610434529 
-0.002528704085824825 0.008023933940883791 -0.009372738716580368 
-9.664913452378887e-05 0.00779253265164127 -0.009748844509755951 
0.01444009248802277 -0.01273456844095227 -0.01591249203649759 
-0.02227764329960582 0.0591495882678189 -0.03510696006662799 
-0.01065423015332823 0.0196011129196536 -0.006655466901940422 
0.03078585900817312 0.01332124186437702 -0.05711870543856428 
0.0002554284953620317 0.005128215317067582 -0.008647902199406234 
0.01075739908439289 0.003317790957471463 -0.01824769792298327 
0.006861924984617887 -0.01088387377717527 -0.003995582314950776 
0.01459106233293076 -0.005922618718445708 -0.0111330110909806 
-0.0002553402260517736 -0.0006016896796960813 0.0002869846708348513 
0.010325276635316 0.01202041594873003 -0.02447337379355501 
0.04448362851617646 -0.04501953342164858 -0.02829970749432689 
0.001775276247852991 0.01329542104554329 -0.01776916419230836 
0.02892814582558524 -0.01558237516376389 -0.02242199965575931 
-0.01434488292504491 0.01555023718792102 -0.003132624961394459 
-0.01478100768491548 0.01102323486319662 0.004374251954244 
0.02423822869033199 -0.008774907458748303 -0.02111309211966052 
-0.01238589200814257 0.00340624022095506 0.01059539992116876 
-0.02003761546887813 0.05342823261670546 -0.05170308025097606 
0.003789025873015261 -0.01237045062708276 0.001813425713925259 
-0.00216591836152015 0.0004494331193709313 -0.002464768653497785 
-0.002549343315200319 -0.003690766044096205 0.00488827991145273 
-0.003463128794652227 0.00815176698211909 -0.005520540674162465 
0.01004964153583633 -0.01370290392355117 -0.002295187817348626 
-0.05351504079375518 0.003666994325405005 0.06314691529880555 
-0.01138048887323487 0.01726415554017404 -0.00306735042266232 
-0.02418877568445801 0.01144162232094048 0.01860908574696151 
-0.01275320475399581 -0.00622042617355592 0.02111309874114976 
-0.00566961138548447 0.01530590896152394 -0.01113713591299256 
-0.01456303860599553 0.001944419436463652 0.0128752903242067 
-0.02334981608904484 -0.01616808461579891 0.03147029325843875 
0.001449324866067672 -0.009251988116751084 0.003521374396867384 
0.008918027956283117 0.0006582767156002712 -0.0147919481571951 
0.02150294205970744 -0.01968190502830523 -0.01158036925706504 
0.005590706392331593 0.007017973906260669 -0.01489438630720416 
0.008242285211210556 -0.0040911533093098 -0.004514969983988318 
0.008081514971248729 0.009184301265489504 -0.02492131970264538 
-0.005663472253369658 -0.005718545622294636 0.01211554183784531 
0.003865901831023866 -0.00174856946371176 -0.00316661376464895 
-0.001699045689055216 -0.01124448113942084 0.01321006998354014 
-0.01445102583679537 0.02136099833379694 -0.003133640000693143 
0.01650836037447544 -0.01745731569525241 -0.01023819813978178 
0.005580872849301827 -0.005985641378829528 -0.004600889453881189 
0.01077198754734254 -0.04567433127731161 0.03218200776690867 
-0.02510886604137715 0.02517638782371182 -0.01262881587265749 
0.01750672262522472 -0.0240668856138278 -0.003642583902797892 
0.01600652609198483 -0.006358350408354341 -0.01393916197934909 
0.01296642939698616 -0.002738507605862562 -0.01805736944396024 
0.0009697666930141134 -0.006912004339383467 0.004759317951481849 
-0.01363623359506832 -0.007303508872446443 0.02314244698421631 
-0.02585405215988468 0.01480106978305507 0.01106659681736826 
0.002430705496219768 0.009247520360050708 -0.01460416836012624 
0.005145672686501251 0.002014000971611855 -0.009671676458715124 
-0.009752382879857259 0.0005901022427815259 -0.009108625612322932 
0.01053069288257181 0.00136370443283132 -0.01638524909223748 
0.01645726024099588 -0.01257811343683151 -0.01170699608469107 
-0.004058090161499037 0.007041709394178833 -0.002057740787805584 
0.01361523352567856 -0.02222796906008525 0.0002980272971876174 
0.0135040248289596 -0.01886669334821555 -0.005206370696269696 
0.01738671707893699 0.007352593927569596 -0.03219668717258298 
0.008603907130755076 -0.007266871648319378 -0.01180818821351261 
-0.006913031845917803 -0.02578112940222434 0.02835702748003173 
-0.02215299697651561 0.02271887774437802 -0.01866746799373165 
0.003515042901730553 0.001687958127168008 -0.009550386299321843 
0.004902113316642949 -0.004961987105824827 -0.0008109677306051228 
-0.0213329045341289 0.0131293823783771 -0.02317270352392715 
-0.002925068668970498 -0.0002471827562070082 0.002472247317771162 
0.007906581738762344 -0.01253072863059004 0.002530439606957198 
-0.02971848686019491 0.00364187713033096 0.02877527983310862 
-0.009970508497501715 0.0005348031685511106 0.007963467737934785 
0.0003799190450014509 -0.003333451179556222 -0.007085491318709353 
0.006977051918019475 -0.01254145188772034 -0.003487657972948899 
-0.005954478726044243 -0.01889688972862307 0.0275358422835854 
-0.002158823999996853 0.01551217514798054 -0.01780559145633196 
-0.001027909223991606 0.009475217968901165 -0.01156291087592982 
0.02205529068117816 -0.03390364488172148 -0.002771732155583237 
0.002319972235016404 -0.0004715932071394433 -0.007671439856359447 
-0.00124518743385138 0.009434781980424779 -0.01160304691639022 
-0.002641389428655752 0.01433805584815545 -0.01107295676244181 
-0.006742778362850324 0.01423168900505425 -0.008344210039383295 
0.001285447332949831 0.0174641542547589 -0.02958076286553599 
-0.006429206697682314 0.002901578060575348 0.003205021371825786 
0.008258284564907735 -0.01203101615062445 -0.004797659108679652 
0.01689053805693125 -0.006398075473013619 -0.01844069119123678 
-0.00355030056687439 0.004424859578619782 -0.001074392179908431 
-0.0005100317306952752 -0.01294981656002414 0.01323598061241203 
0.02529019918336257 -0.009470884518081944 -0.02274668962314218 
0.04077767256876868 -0.03859825432599742 -0.02414240913495012 
-0.001633605249410405 0.009290045795547635 -0.01025782404837783 
0.005620491689316758 -0.005433007585592948 -0.00265311714664663 
-0.01331845094351324 0.009247708969581488 0.003853632847300312 
0.006629385919091309 -0.0003366640768920822 -0.009504274592955688 
-0.02535884380446706 0.01987736190499299 0.008427741278355648 
-0.03495924400730822 0.009640713472488752 0.0332782861964 
0.003774719109083667 -0.02621838454880602 0.0214098285993845 
-0.0007964242238087585 -0.0005430122635688748 -0.002421104608380804 
0.005378517898208319 -0.004331973571939242 -0.00477800163857761 
0.009330752399107217 -0.01619631210709714 -0.001455434565525906 
0.0211286295457026 -0.01056768799585457 -0.02050254142584766 
-0.002782702516523525 0.004948325121967369 -0.004766842760182827 
0.01702558707975313 -0.01315927844829673 -0.006925901878840083 
0.00313800257440091 0.004551729342340326 -0.01348508420632033 
0.000652857721477993 0.005331080037636442 -0.007310664513095298 
-0.007624098247839711 0.007847234489163524 -0.001031402955836115 
0.0004016813877191798 0.007242197233229631 -0.01238016890503151 
0.005110077226634639 -0.02752126848190411 0.02487767208325005 
0.003611370140912343 0.008340084780300544 -0.01309484041071601 
-0.008445722335612025 0.001587611755175719 0.01054248038144792 
-0.03459839151661898 -0.01941180294872703 0.05249281238926884 
-0.01348136667947085 0.004052870880071529 0.01053968846952523 
0.0305475468700367 -0.02377433507568728 -0.02067937197930782 
0.00538614873694328 -0.01147542321876747 0.004240564466988023 
0.002538827511067556 0.00357506216789914 -0.007563471285940928 
-1.206239912560219e-05 0.008295767197119656 -0.01242457833373238 
0.01250505054220574 -0.009007942816529156 -0.005601960987669507 
-0.0111119272300115 0.0005612275649878837 0.004790880369407368 
0.006642228839497187 -0.005966522109903954 -0.001323811124119968 
-0.0044014946944831 0.006191784976700198 -0.003235183739159438 
0.002671535793618175 -0.001311978746329642 -0.002507106448585116 
0.03603182057060925 -0.02873518971968527 -0.02232088814267133 
0.004746905794068704 0.005010099140129282 -0.01153547001180497 
-0.005555391786489367 0.01016750118762129 -0.004253296330661738 
-0.005384911046077462 0.01508700287998457 -0.008572793278262825 
-0.008521035169969673 0.004843853015430789 0.003694275727234907 
0.003763859258607895 -0.006128868602396796 0.0002871507751166276 
-0.00629271450339251 0.003478065306483034 0.0009154250707245698 
0.08464208673949349 -0.064765241693845 -0.04812845721442881 
0.003710037707188749 0.02645218412250615 -0.03566557373284797 
0.003934210176814022 -0.0002556722978875048 -0.007518890520370507 
0.01424265592738516 -0.01334153067239604 -0.007352582051464589 
0.002415880642543256 0.01189069975262697 -0.01915028117838278 
-0.0005540684809424092 -0.007466070883455249 0.01009780721605515 
-0.0247845034854348 -0.009016790297697787 0.03797576081159432 
0.007694666494161627 -0.01124640165302435 -0.001189012676860514 
0.009911863233863472 -0.007372949023093227 -0.006425438057448048 
0.01208550272675789 0.002155940009257015 -0.0211228727933123 
-0.002566514490576166 0.0046841454027026 -0.001727560419932488 
-0.00608012774888733 0.007643921254394143 0.003024773258942698 
-0.002969604769025654 0.007644941508633788 -0.01140595028129766 
0.009367973327983404 -0.0004570693099224588 -0.01522419162211842 
-0.00547269130475556 -0.01014836016703504 0.01587393921009452 
-0.00288211992673383 -0.002408695156859171 0.004747156045548076 
-0.007624145011646785 0.002058680739405315 0.006388839914349297 
-0.005227751586314593 -0.003153258416272713 0.01298953594004214 
0.006480294878531316 -0.003743729336711987 -0.003962722095622663 
-0.000969329507901118 0.0009459280635672638 -0.0007963023130281475 
-0.002579313838710136 0.02022332743267229 -0.01803308328789886 
0.004940828899385056 0.004287666004286384 -0.01262647181192651 
0.004585423785189476 -0.01353812516848546 0.004984500713806332 
0.007714284928126602 -0.005559751670655238 -0.007314076031083511 
-0.002397736778008365 -0.006261989675904421 0.007690863380424345 
0.004656184721976484 -0.01664761702352463 0.01136743686440702 
-0.001935039976104098 -0.001136766838514209 0.001549723288938681 
-0.0003371931649471556 -0.004709838835103552 0.005952302231858299 
-0.008919671530903499 0.02686225761803901 -0.02237125041883179 
0.0137466795960499 -0.02116754907797835 0.003674016697916732 
-0.004283095342601776 -0.0133313327945419 0.020127194361148 
-0.001384426484621353 0.01162014934698845 -0.01108969126765572 
0.007792519655817535 -0.0003720828507875713 -0.005536446103208406 
0.007452427542428101 -0.008149514924566814 -0.006500261138160554 
0.005880835314818573 -0.004605630990778573 -0.004647302490258338 
-0.003265235238254724 0.03105738701436724 -0.03367050821070568 
0.01280047929285445 -0.001200950890889189 -0.01485337796610348 
-0.001050177993763129 -0.01218569156563453 0.007698620880967382 
-0.006411314064338226 0.001918196078052868 0.002928129945236551 
-0.003394518604572648 0.0185513038911645 -0.01597823023585722 
-0.001992652129053523 -0.02273971188063391 0.02332636208432819 
0.004533158495212408 -0.008128920857291612 0.001035696428523263 
0.004395617995648558 0.005162780008715918 -0.009388983913962329 
0.002605859788692979 0.006258473458192803 -0.01256491427068041 
0.003751311458352584 0.01466798509516535 -0.02211531251901142 
0.01229613119042721 -0.02145359709725981 -0.0006342007677736533 
0.01730491623278186 0.01806461861870894 -0.04196583250108153 
0.004181530070095147 0.006552980215884888 -0.01568788569498263 
0.002190357321927005 -0.0003875561266316391 -0.002275570518742184 
0.006857807547629464 -0.005961043357361015 -0.002633573269274089 
-0.0001558441246275969 -0.001424131253441556 0.001522968767451044 
0.004595321839103078 -0.002807870774734038 -0.004388677108186289 
0.007963472216680799 -0.008001703143439591 -0.002623219228412423 
0.01486099005462184 -0.008856080371253496 -0.008342426950694128 
0.0002638768381755024 -0.01092168301782727 0.008773037116333338 
-0.007267540743952735 0.002928727265075736 0.006497347091829111 
0.005953025748658847 -6.550728968171742e-05 -0.0115229147365339 
-0.002620558349072093 -0.003088501229916125 0.002060010276278638 
0.004299916280794188 0.004308917000555077 -0.009195171136170573 
-0.0121704941677537 0.0006799039388372579 0.01184631019788994 
0.0002379656728719575 0.003056867021903649 -0.003607661466237122 
0.01022939518237681 -0.009568250301817585 -0.005066385910577051 
-1.956160033916373e-05 -0.002874962982322544 -0.002422391874284779 
0.002032297154726942 -0.001722103886792311 -0.001786507876677462 
-0.006047358372819498 0.00132913007833319 0.00482648497639418 
0.005149181801038694 -0.003737176490427774 -0.0025201407047064 
0.0096429447452809 0.004294315781101154 -0.01821265689229101 
0.007451741641664664 -0.003325042748073471 -0.01004238035266438 
-0.01326802852304411 -0.001731313426371912 0.02109236879926472 
0.005113224899107987 0.001195728270649577 -0.01156986799279225 
0.007722583231673688 -0.004244060353379036 -0.006982048424341158 
0.005466022879838045 -0.008158402441167344 0.003408552996701703 
-0.02287362560180517 0.02382624910302971 -0.0008731519562360699 
0.0003412194884747414 -1.158737423574886e-05 -0.002576671357491395 
-8.155938101021467e-05 0.002235361513907681 -0.005808006195500631 
1.858337949037924e-05 -0.004901072153352686 0.0005116212038388721 
-0.01110629875459716 0.0439873359435258 -0.03077131457301575 
-0.005226316619306732 0.006651029767547177 0.00630734704875827 
0.02260400711972468 -0.002314500272338533 -0.02851066481062578 
-0.007663737895368191 0.003990154757119969 0.003660865965007041 
0.009130975068043589 0.003049230037810407 -0.01655325979796265 
-0.00526434751639192 -0.004206244491864999 0.009054970667381724 
0.0168938874336445 -0.006491235632693828 -0.01269444326123624 
0.0001944412559471225 -0.0005068909529870831 -0.0005349927667980954 
0.009138109725175937 -0.000385896989198572 -0.01018398761505437 
0.006420989926077587 -0.007632881231071679 -0.009810682644297193 
0.002000529237624456 0.007210500034970165 -0.009926666854181823 
0.02141620296997169 -0.01706744995130119 -0.0104176547925788 
-0.01191161538611632 0.008480972436088779 0.003363036429706666 
-0.01596273397327394 0.01015384117765834 0.004192289402973954 
0.0178563751704772 -0.0077081230833712 -0.01424692008130535 
-0.009148531112317778 -0.001787899659031436 0.01443733354480418 
-0.004688469706541307 0.04293707636034351 -0.04101478513428933 
-0.002920773138994897 -0.005062169581596989 0.008125056848962583 
-0.01003620125274049 -0.002746221368823884 0.0119045437766742 
0.001831607143027769 -0.004980476212624416 0.002536945470440024 
-0.002086139489463448 0.003592673919670638 -0.003619322173817082 
0.01045104578798533 -0.008393616838669168 -0.001122599855381841 
-0.02965150628500212 0.0135720419793084 0.02387843979745313 
-0.007318574699289804 0.004611688551961791 0.007435181679726054 
-0.01459819236582509 0.01191644779987175 0.003129659115582593 
-0.007184166436007977 -0.004918958544656447 0.01509243964384768 
-0.001191278563692242 -0.006740055824790165 0.005978078995494111 
-0.005692845350960815 -0.0009958783485508806 0.009897911612040615 
-0.001355201123163791 -0.03361169674168375 0.03499769909299804 
0.002425771232905812 -0.002438719527027555 -0.007276895066076417 
0.008904105268812624 -0.006040062628965684 -0.005278271588248163 
0.008816157137176629 -0.01822830574019236 0.002893342718867658 
0.001659788684785182 0.0142273912273111 -0.01927788936370483 
0.006940819535661703 0.0007076739980207805 -0.008768296942584162 
0.008627695794423063 -0.006767412877467028 -0.007332023115351085 
-0.002695886707940138 -0.001622220196645612 0.006240733913081523 
0.002502184962087154 -0.000905538023935227 -0.00271990022054909 
0.001048569462641446 -0.006333205254805637 0.008097608679886596 
-0.009925477684476425 0.006011632438954379 0.00752444257501974 
0.001386777399382679 -0.01202353243979711 0.005892654618200849 
0.002982667460174899 -0.002547518796912844 -0.003991020275573734 
0.01601495301468557 -0.02890652999389203 0.01264241983296263 
-0.02586797942404525 0.02801726230663441 -0.002155701145997135 
0.001355254437926236 -0.01432318336247869 0.005826323131251157 
0.01352816484141402 -0.009431790420980472 -0.007872869459816715 
0.01155372180407809 -0.007460168605258171 -0.009860055400382789 
0.001490902319476756 -0.0007584870728296605 -0.001271469072217753 
-0.006229412380238269 -0.003228436224865634 0.01131447531412292 
-0.01944737673513336 0.02333550685972587 0.004447071281366776 
0.00284691627343954 -0.007004999169024751 0.003151252208276366 
0.0030386363009298 0.001450917896153707 -0.007309540746317712 
-0.02855674099493256 0.02945624036326232 -0.004017422554316903 
0.01168678189896938 -0.004128693424794698 -0.01156935879462988 
0.01589787003099487 -0.00707600806178956 -0.0157340192875153 
0.001433911585173479 -0.003190847285840342 0.005205991525551278 
-0.0005860527884641546 -0.01380003428954713 0.009393736582810426 
0.003034403417060122 -0.005202175907133452 0.0008306133543191157 
0.009905939929617328 -0.001043834954410695 -0.01098096498699948 
-0.0008721138835120378 0.002512059524290664 0.002508906965505261 
-0.003890262597188193 -0.01117746951504123 0.01436562984083832 
-0.01031143592551403 -0.006585040339965942 0.005858464748688542 
-9.599658529473349e-05 0.003186503176445411 -0.004497734522302258 
0.004178673754498073 -0.003576282724558484 -0.001878320991341902 
-0.00851252218904598 0.01783812118934638 -0.0139762492842869 
-0.003713477127456983 0.00316449454820081 -0.000433839202618406 
0.01137807364207198 -0.01238455838005342 -0.0009847722718349609 
-0.0153370309874819 -2.917354539171521e-06 0.01664893166927514 
-0.007997931175301051 -0.004920507858926683 0.01420871506425894 
-0.005347774681123955 0.003405415304738299 0.001668565492506963 
-0.00502901324127727 -0.008739031479892875 0.01357709946264881 
-0.002130506754027118 5.335159035608329e-05 0.001991192214683474 
-0.004892776450751321 0.001659277182964399 0.004167529663690346 
0.002363759213362622 -0.008634653065546283 0.002863536324173114 
0.003821272331487931 -0.01951280067774512 0.007268427879245968 
-0.009449610146380589 0.0115006381801746 -0.001592499484510294 
-0.008281321675230213 0.001776627784931068 0.008234329813701272 
-0.0019568087626151 0.006349890568801181 -0.002240364086755513 
-0.006183596639157472 0.005933508310354822 0.0002151933031670073 
0.003253497655019491 -0.001274561676405594 -0.007224120803580905 
-0.004522253804537309 0.00641568074215768 -0.0008040996870859046 
-0.004838933559170099 -0.00789512853205032 0.009579617835013753 
0.01417296089068502 -0.007888280592867175 -0.0115088532654498 
-0.001937732595418875 0.004516535512844234 -0.003747311720776963 
-0.001146770580654136 -0.007593858908115285 0.007607914348639903 
0.0175562842718959 -0.008609089077555088 -0.01024717800447753 
0.01454926060377285 -0.01485604635971345 -0.008080954396719461 
0.001319643850863688 0.005576634145733089 -0.007645848289762966 
0.004313987774823957 -0.005179449493871176 -0.001502969149084884 
-0.006635565087939771 0.001206001465016427 0.01050304676819463 
0.004575465773449949 -0.00888240377200626 0.0005671775034917114 
-0.01415286161766252 0.01838251225129947 -0.001676267160988611 
-0.01509747351438461 0.01143184904564599 0.01097792211573181 
0.006778785004934355 -0.01577376419674659 0.01085017052493173 
-0.002140910017387223 -0.0003609929987071047 0.0003113472551914415 
0.004554564721691893 -0.006199206120272395 -0.001882252950302199 
-0.002004628210310601 -0.01231540577472751 0.009536805789133778 
0.0125652438287159 -0.01036783680265863 -0.006336994655466897 
-0.003701654824042387 -0.002253152345263158 0.003703887127130666 
0.018987473360549 -0.007144357450950721 -0.01336502475530575 
0.005374173300961481 -0.00542393072626526 -0.003950678774268749 
0.002348997969375446 0.001006369529255393 -0.003158786100518886 
-0.007604315542234873 0.006727166376281223 2.666053905817018e-05 
0.005681445658864939 -0.005991354016625503 -0.00367472284026791 
0.006945005117974165 -0.01573862194799647 0.01353749573959126 
0.0004328857254586951 -0.003642140552379556 0.002334702864132039 
-0.001581311836004142 -0.005990110713596784 0.01088143259280641 
-0.009619290258592501 -0.02406335747633141 0.03767908601027192 
-0.004375983907319619 0.03367390088720047 -0.02631217413373392 
0.01770160075197376 -0.01199600761583302 -0.01708497209935924 
0.004671507346440434 -0.0145302587754588 0.006149740113785355 
-8.591200758119045e-05 -0.005392929167825638 0.002837758848288067 
0.001923439658030909 -0.006428208280172839 -0.001725604689514767 
0.01003306538265853 -0.008025665251046631 -0.004354791804929444 
-0.003669592620047218 0.006005047819365097 -0.003629291250163983 
0.00330940936693186 -0.002219000434444543 -0.0003622615493343885 
0.000809714202312654 -0.0002638429428090922 -0.002295332787446164 
0.002436098958000579 -0.001282276059233346 -0.002196230569489926 
0.02347405806353233 -0.01569358407488429 -0.02051900267748836 
-0.0005815090648460054 -0.001286012974513321 -0.0003619091770500659 
-0.001522742243406541 0.003722726393941413 0.002653218531797365 
-0.004934076392703632 0.006438182133609856 0.00236961118996875 
-0.004501039043833074 0.006579319856271745 -0.001982881663542015 
0.002949946176117982 -0.003424986918562689 -0.001221828834493009 
-0.003486411916479404 0.009219242069450901 -0.005275386700418619 
0.04304910688985029 -0.02761997337723444 -0.02435655040441066 
0.004701160466360599 0.009806136873169233 -0.01651826189072582 
0.004747988620902077 -0.005227469736814197 0.0004821463324632339 
0.01652762194133146 -0.01004026712502088 -0.01290418790040821 
0.005022547002909495 -0.002615730394819217 -0.006413540397424801 
-0.003427020022108265 -0.009181410672934461 0.01321114636947006 
-0.02659544657827166 -0.02179896045846355 0.0506525578566224 
0.003733730165390779 -0.0108442102431442 0.004196745996980112 
0.0157905227536189 -0.01000573827498003 -0.01068965104731092 
0.01094246340473113 0.001883150717824187 -0.02063472744298745 
-0.002291077820380375 0.006446189706779216 -0.001164348066932846 
-0.00939091900647585 0.006315794641986575 0.00871748603900461 
-0.002333156435406937 0.0005160166777589826 -0.001669728688503052 
0.01097612169411228 2.420961363981084e-05 -0.01612821986831948 
-0.00549534310108545 -0.02089988813515866 0.0227085157578061 
-0.006277341591076591 -0.002192545887148088 0.009938084845147429 
-0.006987058051408592 0.009444609363612565 -0.0007932673588867647 
-0.00474027247347104 0.0003513841180799199 0.008969649397002406 
0.004431619918922307 -0.00236921793313099 -0.002985163478468098 
-0.0006334791672796318 -0.0008113335068908042 0.0001513455786874939 
-0.003313480744087476 0.008377242984177264 -0.00715783243932286 
0.006629325165244684 0.006480897274364571 -0.01594993041090655 
0.007530756266861913 -0.01027492760572234 0.001763253053921089 
0.005802369036357555 -0.00537139633522806 -0.002876367754160302 
0.002038238290802022 -0.003925202511417126 -0.001407242184616406 
-0.0003883904756076902 -0.01112601732095357 0.01233844970934956 
-0.001742370080915422 -0.003522767187612743 0.003749028219420293 
0.003128036757354186 -0.001135307134565785 0.0001220120289760288 
-0.004878610571947969 0.01279299918782667 -0.008503590186378638 
0.01909159522216516 -0.01458671741561428 -0.00721592111974896 
-0.01229153396197835 -0.01116088704134027 0.02339993876890766 
6.785080401576702e-05 0.001885617646082788 -0.005628816627528666 
-0.003360593669870118 -0.005326159217978311 0.006541151229880211 
0.005339493229550628 -0.00143222537390374 -0.005448575626222668 
0.004920828953998679 -0.005420681815952912 -0.0009123185619822778 
0.005062795227025179 -0.008610549841735034 -0.006547465493482917 
0.01580786958984831 -0.003202437172346815 -0.01360677064806273 
0.004343735327967297 -0.008549439324087088 -0.000212343251938512 
-0.005751165368535853 -0.003327766421332807 0.009605235793188263 
0.001312722456941472 0.003324425331679818 -0.006274841317398133 
-0.005306328151478552 -0.008052071866966029 0.01670849607941825 
-0.001958125194949977 -0.005207460450904064 0.009253383621033503 
-0.001032484213285392 0.01780870751199835 -0.01702066026188816 
0.003741396675867074 0.005521866889079358 -0.01273055385668257 
0.006961706878295002 0.0009024626854465158 -0.01409686174110508 
0.01467455014911232 -0.01978733067867746 -0.001101713526849851 
0.02347570288060485 -0.006092804270249785 -0.02642092960921413 
0.003367418958138179 0.007058573081424156 -0.01067160389336711 
0.000423885947038849 -0.001449763497776897 0.001248979083155092 
0.007421796496141574 -0.004106675796499428 -0.003528792195727985 
0.0009686088811590843 -0.0004311486597709206 -0.001026416850104296 
0.00413601171448388 -0.002436001012153637 -0.0007762066912961529 
0.009235738543457172 -0.005429555412339619 -0.005647793300400639 
0.01888359485096162 -0.009131154290437076 -0.01185805546712832 
-0.0001524947271699082 -0.01156584616457953 0.01128941892944904 
-0.009832569472219799 -0.005839444622814105 0.01769676901416739 
0.004883248458688302 0.000197926409264658 -0.006479757491970994 
0.00152666257848527 -0.004557733409992703 0.002293798625126898 
0.004822925879002955 0.001061325495722556 -0.007070208476909158 
-0.01101571408881194 0.001077180995189982 0.009928700666907849 
-0.002135727927613646 0.006233380385804075 -0.002735832681809091 
0.007556323930467132 -0.00568932668893523 -0.002669918348263707 
0.001019265450924666 0.0009033928880967697 -0.006366783737324926 
0.0002627286490068258 -0.002623031022709467 -0.0005453451342408474 
-0.009597889298919341 -0.001967930623037801 0.01402025550973205 
0.006595372003767835 -0.003670374422763667 -0.004285997279461336 
0.01589329708464593 0.004030136173776924 -0.02346972527687075 
0.01160988180947028 -0.001638988819286987 -0.01395462818820277 
-0.02423749941812621 0.01125957331765036 0.01978637631350949 
0.00357505865398648 0.003341923237754751 -0.01003756380080666 
0.01058441818797178 -0.01073275136192918 -0.003923487249541214 
0.003967195639484456 -0.01411323412025316 0.006295840029380823 
-0.0247349485302558 0.01540225043739347 0.01072800801142367 
-0.001404505042479777 -5.946686959445726e-05 -7.557595211214557e-05 
-0.0009649544638649439 -0.0002316969748858176 0.002105527274962521 
0.001735063613358486 -0.004840642384870443 -0.0002098001190918162 
-0.0127569599679711 0.02532095607132605 -0.01552736730766168 
-0.003518963143881688 0.00530613434032124 0.003407600668533993 
0.02802984619702667 -0.01526500506213616 -0.0263057736813813 
-0.003418255381738585 0.0042953013754182 -0.0009943564792138241 
0.01239204552099687 -0.006061819453354271 -0.01073668858216346 
-0.00325586739652574 -0.0008269385484233651 0.001872088710939986 
0.01476799289306501 -0.01042527552955876 -0.01147324919927516 
0.001401469944446239 -0.0008037523959390563 -0.001390209690934573 
0.01370279305930085 -0.003014208454885823 -0.01060147780952394 
0.01428901963601401 -0.01305618336865703 -0.006980140872754552 
0.001704565880599562 0.005459303891127205 -0.007452115383571431 
0.02265290391585161 -0.01785224392322088 -0.01083793560107624 
-0.01097791645325591 0.006174239452940778 0.005205216645092871 
-0.01456999387360805 0.02137743438379482 -0.005496132983392501 
0.01717103479564202 -0.004863535111817969 -0.0179023293406034 
-0.007712040142870506 -0.006149772030160866 0.01303673301027134 
-8.515169064193872e-05 0.00773616042224638 -0.02189688254985012 
-0.003150124711539875 -0.003033255122162171 0.004807086208594113 
-0.005690875241828386 -0.0005749423354885084 0.008246187530691281 
-0.002598519369647316 -0.008668913036122361 0.009207656656282488 
-0.001736146735894022 0.0003180701769506637 0.003987412358788038 
0.01126557437458026 0.001666907737211668 -0.01627323876867029 
-0.03075122087533947 0.02164670024493286 0.01701490869619654 
-0.004553054537635518 0.001566847876812132 0.007151162986292817 
-0.01830374677886031 0.006390360284761628 0.01458602968426119 
-0.01347361220037186 -0.008574501964439724 0.02567946910155649 
-0.004428376429400379 0.000427219883560537 0.007093854972704088 
-0.01167726522551674 -0.005223911244396126 0.01693390182473747 
0.0006964969936222794 -0.0501802398353226 0.04539626402838495 
0.006415057835166853 -0.01303595016479477 -0.000279474994794421 
0.00635527269996182 -0.004669932806670166 -0.003359290882300511 
0.01219315836214693 -0.0137263055194258 -0.0003325031822437735 
0.003087040891719416 0.008648309932471053 -0.01331035956495117 
0.00764408483419583 -0.002543131264319683 -0.007720590642694611 
0.007710900680141275 -0.002325199466095615 -0.007773189403296396 
-0.005326165491017015 0.001274668109830142 0.006361150352737785 
0.003581654097706376 -0.001369442205087529 -0.002623564169810744 
0.0002187339444929144 -0.01347732616603523 0.01265527609685094 
-0.008016613971118761 0.003995394052937885 0.007826571090854873 
0.003824278344035746 -0.006025788437777057 -0.001616905636954824 
0.002150545262856929 -0.003854738226057803 0.000195253135656227 
0.001641469834518428 -0.02532363583108987 0.01962057046338546 
-0.02942794289618661 0.03462007665587017 -0.0008301187320493752 
0.00625905662738606 -0.008672197541429224 -0.002134149166564948 
0.02006969193482021 -0.007105724122662461 -0.01775971606861928 
0.009314989308571822 -0.005846103710756187 -0.00748046515225903 
0.001934400036992324 -0.0007034943369800011 -0.002426548045232649 
-0.01173887654377277 -0.004597536074065885 0.01805068199415791 
-0.01553213343532165 0.01613641828245828 0.003926679238904144 
-0.000132982414889653 -0.002226373802986354 0.004887045443740529 
0.007662814773202641 -0.002827494278365858 -0.006291173952028697 
-0.02103047754223857 0.02261385389733591 0.001210131145408174 
0.01744661764496817 -0.00996796167204486 -0.01177230674355867 
0.009968405454615409 -0.001412347162027455 -0.01206001524829814 
0.0003219192192380817 -0.00173085921665238 0.00615935658803494 
0.003574602892469662 -0.008220846491872012 0.000169658574153641 
0.003691030477496417 -0.006459580156285906 -0.002447427088714606 
0.01322579128114615 -0.002791326611301861 -0.01258932376168152 
0.0001586643799977563 -4.812772819955889e-05 0.003205225367393082 
-0.002682665358797212 -0.01381436979757796 0.009683893079425481 
-0.01282670989033772 0.01834080094869927 -0.01293659841056849 
0.0003746972444719495 -0.0008952890825762844 -0.0002632955903240642 
0.004758030991115747 -0.004428871029673502 -0.0009312887863565459 
-0.004539980738276868 0.006096917957514443 -0.01320046732378452 
-0.002239089878598261 0.0004072200594592435 0.001570439681336428 
0.009640964148130555 -0.01453203406478745 0.005018137571772868 
-0.01972556505406118 0.007895008959570026 0.01218959033405518 
-0.00810570208776412 -0.003119115989193797 0.01004594432793119 
-0.008511484204614861 0.008532579459735429 -0.001704638413233636 
-0.001022665813978588 -0.007875902061501829 0.006724003462872622 
-0.006189387115535748 0.006116316801954466 0.003003993371171602 
-0.007148440660984133 0.01580158525048171 -0.00658673105546696 
-0.002405269037575505 -0.005684572952067873 0.009407646799989993 
0.006042120390160044 -0.01687081398436396 0.005222356383231359 
-0.006234005893887117 0.00922950127491912 0.001623342681006784 
-0.00351133067457808 0.005529621031582293 0.0003316646346727042 
-0.00221135006712755 0.003368402011935639 0.00192422173807158 
-0.004486597021492332 0.01360513704174356 -0.006361686299806679 
0.00449122705663457 0.01717855331735894 -0.02045591302193816 
-0.00486810702914423 0.01105656907527718 -0.004971535697944279 
0.0002693723663014996 -0.003477355383114424 0.0009060054113017494 
0.01338539050326641 -0.006819858803533866 -0.009700336895910266 
-0.002251987627344399 0.003503997393127204 -0.001951281749935871 
-0.003810540665644338 -0.004625883339515416 0.007778102757733638 
0.0166607122019902 -0.008064670428236441 -0.01777033046083506 
0.01766992820950143 -0.01360045418916349 -0.009675439341270195 
0.000266017124453244 0.00308983363166679 -0.005516408871079279 
0.00590960608368976 -0.005321214209744434 -0.002973454549896149 
-0.00680722533184163 -0.0030257063003957 0.01099191121819464 
0.002069785045134899 -0.006973686254394987 0.005201609623537462 
-0.0125033526828865 0.005773984632802124 0.008175270627609286 
-0.01690149270488401 0.008331839273202388 0.01242117991143174 
0.0009747220122359506 -0.01983711018281936 0.01624534139162725 
0.0009165306636601194 -0.00242223930329153 6.732949099682613e-05 
0.005025379368874449 -0.007675347223408428 -0.0004453465105623254 
0.002447048046189387 -0.007988511665659968 0.00323007291354108 
0.01249628067037934 -0.009288339049759729 -0.006087086131880743 
-0.001724041107777846 -0.001578677631246518 0.0001378881822763568 
0.01684435173438016 -0.007651044270469066 -0.01135158512168974 
0.002508793737042084 -0.002450151242641186 -0.001968156390632686 
0.00331622909140689 -0.001081650002123749 0.0009315375190901568 
-0.004911176421099283 0.01379442243753726 -0.008501148703203863 
0.002950683939398292 -0.005546739424872459 0.0005085238557267084 
-0.001656272173397714 -0.008266830419323952 0.01672103826316198 
0.005255822390961937 -0.001081183555651119 -0.002128577835679391 
-0.001431128932969851 -0.01562963443155028 0.0161323606777699 
-0.021208101783374 -0.04497002991631778 0.06035322387759207 
-6.047234712594253e-05 0.01680858607171951 -0.01597923105674608 
0.01525800370588377 -0.01441174558659366 -0.007476729882157447 
0.006740088799228306 -0.01130564381498291 0.00372771571438766 
0.003417637249052873 -0.008020299047532837 0.00300058925472345 
-0.00169955288252462 -0.002473326561560354 0.004232480955283027 
0.01234581540051002 -0.008509569718496547 -0.005863991518944858 
-0.005190988179688844 -0.006097288809772583 0.008151007666714496 
0.005922792642226453 -0.002449621078512212 -0.002636174842872719 
-0.001472037801276547 0.001328752859359564 0.002558247383990212 
0.002850506484057956 -0.001910378224428697 -0.001355405935823704 
0.02055075607739872 -0.01733074533012325 -0.01066097580606802 
0.002490773316670447 -0.001455128522919462 0.001641799392595943 
-0.0002116240404091657 0.004337661505719599 -0.0003279644307937419 
-0.005592522407293593 0.007255367866112824 0.003315681558105057 
-0.006997976624035817 0.001552776750448722 0.007207297681634847 
0.003230018718073276 -0.004214719166961432 -0.000506404115680962 
-0.002130887226593104 -0.0008513113635829083 0.00372866055440094 
0.05091132284947666 -0.03003823273510052 -0.03204251210977613 
0.008039423427159971 0.009820078251103193 -0.01903501491682682 
0.00604903670594617 -0.004065031978209466 -0.0006354117853669222 
0.01999830866147494 -0.02627603104434535 -0.002681926641650277 
0.004999756147371818 -0.00507022612794613 -0.001594866089749845 
-0.006220942923563574 0.002349266028993022 0.004371939933188775 
-0.01018878734854063 -0.002152610749343128 -0.002075595836886433 
0.0009690245469121035 -0.003656410106184662 -0.002612632142054421 
0.003797929504707816 0.00147879817430983 -0.008161813388389859 
0.004539935906420605 0.005780204032743758 -0.0140490341829378 
-0.00765204656922812 0.008851928591484834 -0.003024032296698054 
-0.003114221373697212 0.007764478921251768 -0.005785780237710454 
-0.002435541648406278 0.004485164885660919 -0.007009516565224564 
0.006561022280043004 0.002460085115282281 -0.0109636004724838 
-0.001191739105328129 0.0001840734920817386 7.754020463809834e-07 
-0.00595755502867413 0.006010995676965293 -0.002670823441293297 
-0.006289307020783812 0.01053174040386474 -0.005925092557211572 
-0.002586080466110714 0.001111822122110001 0.001442060681739375 
0.002078883796798876 0.0005230339749108372 -0.003036010993753709 
-0.0006502995561321832 9.128028240138956e-06 0.0005156995243516511 
-0.002946180076108021 0.005682689310648184 -0.006899346397913071 
0.00287019468388707 0.002664511477024062 -0.007952214964104512 
-0.0003383398165156723 -0.002744274588905895 -0.001614296186870317 
0.002348067625173773 -0.0002935596603629976 -0.005815522910969008 
-0.0004418677810473564 -0.005622135654739051 0.004010373017570329 
-0.004113425198898646 -0.006077516749205906 0.01147255252014151 
-0.006329343548324521 0.007492963677618962 -0.004920518627644179 
0.000399418695464615 0.0005196091225073074 -0.001081161551658029 
-0.007557436389414145 0.0125248953706603 -0.01105160257453173 
0.005318946221256685 -0.01907310631298967 0.00446659027031365 
-0.008506992773615323 -0.001586010790023857 0.01071405064175879 
-0.001034420334397963 0.001546278788302584 -0.001792002439391764 
-0.002988322649451625 0.01915000587741822 -0.01188786739347789 
0.006637445261544799 -0.0009252195722694893 -0.008000959649386031 
0.002494981081266274 0.0002751146142038059 -0.005420527527832886 
0.00822611152143036 0.006380258033172896 -0.01382315630049191 
0.005387433951758698 -0.002858096355787957 -0.01133223494852764 
0.001248585913937745 -0.003068676336423455 3.643694265151513e-05 
-0.002960200613617014 -0.007267232326568624 0.01003605940296559 
-0.006772419239732493 0.005835832159347401 -0.002848808852284346 
-0.006173988407966534 0.0005191118651016544 0.001954182550983279 
0.002867382925931882 0.004831462776038323 -0.01119329936103926 
0.002314788571415237 0.005178562935251422 -0.007158525254999634 
-0.006506707510786446 0.002290869623552668 -0.001591304149025025 
-0.0006396104714589491 0.01330714478862832 -0.02038272014463069 
0.005135397779256163 -0.01049338435124446 -0.0004227716475364451 
0.01142051430537002 0.002078494875372843 -0.01898701532765956 
0.0008105742530599945 0.00482617102863728 -0.007369869799597744 
0.0009474240100710542 0.0001663900755188224 -0.002066972717972463 
0.003528566902346951 -0.001575703242964746 -0.002389145381391511 
0.001299109847487853 -0.002974466891369617 0.001029479085644516 
0.003562680633641974 6.444878457320648e-05 -0.005101703342710396 
0.00373058826721571 -0.0006672547015276939 -0.003813659970537291 
0.00486976315720523 -0.00598971433692309 -0.003188994711676563 
-0.00136698052785904 -0.007330620800804795 0.007057865211048358 
-0.005269715686355932 -0.004865351979362712 0.01011534641122175 
0.004206283592348749 0.0003891189185906319 -0.00541113369257892 
-0.0009718748330027276 0.0007651272427661399 -0.001890247080686789 
0.002924105133316025 -0.0009352217662240586 -0.004994362710314384 
-0.01417417889510526 0.01053837664699204 -0.00163140038158455 
-0.002812797147500441 0.009290365292019584 -0.007422343929521437 
0.003635891165327209 -0.001760944586205743 -0.004201191602019277 
0.004192601307914481 -0.002978717296617195 -0.003926513025487897 
0.001518033294914833 -0.0002346349594441566 -0.0004614653708996492 
-0.003573322978606895 -0.004781195503727741 0.008319237638892092 
0.0004337102143651009 -0.001536902550005082 -0.001676446058173344 
0.001786194883003202 0.003664531990053089 -0.006224169074654989 
-1.575694699704494e-05 -0.006812655842902211 -0.003059122187682149 
-0.01658313426103047 0.01953005464543236 -0.004569893072543617 
0.005337900355865913 0.0009782456595309008 -0.009049118614247389 
0.00461884644932012 -0.004856550220510348 -0.0001101333527832278 
-0.001270833689632933 0.004378118568913977 -0.00393486396031068 
-0.01854832606628985 0.01775952372862778 -0.001697657567915034 
-0.0003068976606235257 0.002977649622752867 -0.003263443432733329 
-0.001632152084320724 0.00810956827675509 -0.00729189424642954 
0.002699319084007466 -0.006010378212950081 0.001898750401244495 
-0.01029574316643369 0.0167587182087561 -0.007280148424413414 
-0.004097284644777214 0.0009773226370409155 0.003756873955646236 
0.003799734003470137 0.008289012134637792 -0.01769661857557584 
-0.002474330777911641 0.0008670234701292463 0.0008175641848875437 
0.006472889062181689 -0.0003714515893729524 -0.008759377707326387 
-0.003031247439841687 -0.004326568519885498 0.004849909970180508 
0.006782617523049419 0.0005794864696034786 -0.007293461503018757 
0.0003430880401059638 -0.0002919980664558931 -7.477369205729549e-05 
0.0006626184563973694 0.001987358651323294 -0.003999220289326683 
0.004681611324369062 -0.01451118859615464 0.00280548833458451 
0.0006262448639443309 0.003362057424067618 -0.005125076231083072 
0.009874619986996949 -0.01110245109826836 -0.005095211263947116 
-0.01441264502505286 0.01330564965186042 -0.004636933627594176 
-0.01134802979992462 0.01489575347033408 -0.004366279495095935 
0.008259406419092535 -0.006076625281659441 -0.003664214241367721 
-0.00784524913489361 0.003545402055916683 7.535095212099967e-05 
0.002887405516426114 0.0006705016525425741 -0.00745808734621763 
-0.00204019641904461 -0.004839789334077128 0.005901651972214081 
-0.002629557923718053 -0.0009425615761233986 0.001614895128400385 
-0.003806094600415718 0.002646198923508309 -0.000998082443979579 
-0.0007757704581015617 0.003220963841566289 -0.003489326629114154 
0.002346694590942082 0.005880952863320539 -0.01113802192782033 
-0.0188084594130811 0.003606438646882587 0.009115216201340546 
-0.009885249211477209 0.005553450107169572 -0.0001838349774003707 
-0.009546621864711285 0.008742538545659179 0.0007531535742732027 
-0.01094294773800735 -0.001025646586150324 0.01221252428867882 
0.0007435140258515336 0.007184782537820145 -0.01016809333432449 
-0.007833831717520752 0.007709525441638401 -0.0002771655720875114 
0.005626695265545586 -0.009646285642141548 -0.008454477071821589 
0.009444505806888104 -0.01335386085101518 0.001715875243090997 
0.001812610088266368 0.0006848625722612531 -0.005720526548736585 
0.00189083044681748 0.0005408381649010483 -0.003666282191794163 
0.003642655106545614 -0.001390899718504839 -0.00414680798793531 
0.002108944333708644 0.004696585711696811 -0.007990018924029091 
0.007113980451036635 -0.002000353496133682 -0.007288515845646305 
-0.003431858023427513 0.007069763124050788 -0.003617772086876714 
0.002494989460759589 -0.001958171772275509 -0.0011949093736392 
-0.001628463690752507 -0.0001401351536344921 0.002209100982702006 
-0.01259260870388889 0.008201615102516871 0.001491477117210107 
0.002645611524274963 -0.005357819468202993 0.001036809799560807 
0.000418027150195951 -0.00275765979281625 -0.000936125164794679 
0.001621961704943042 0.005521968014608095 -0.00517266624119428 
-0.01829345453243568 0.008625576085125189 0.002586592229499279 
0.002877801349062267 -0.004839107713651773 -0.001297590137068552 
0.005139106496347278 0.0004194963978113265 -0.006566891311328778 
0.005794090724403453 -0.001387375673035992 -0.007802403312912771 
0.001543728929069132 -0.003109010024809439 -0.0004906139845607396 
-0.008659645639861564 0.002185381468269821 0.007265293462868054 
-0.01623781351362602 0.01552247317148206 -0.001604390729812064 
0.00099799092732048 0.002970123427729197 -0.005661372830201351 
0.0005515272958815175 -0.002017364724639559 -0.0003199954313618265 
-0.01564330326321342 0.00363872313542988 0.006201933361290388 
0.004321378910871909 -0.001526455899704993 -0.005125939414751055 
0.002542801283128257 0.009164244822235689 -0.0180195974794042 
-0.0004325393787354525 0.002081781888400269 -0.003919235487774542 
0.001449361652189679 -0.005919510428104999 0.001082320999850266 
0.004425924198493721 -0.008364008132438004 0.001481553300588837 
0.00235960382255473 0.0004821263525393679 -0.004680482015808837 
-0.006163359424027346 -0.004611547325958715 0.005173164297294362 
0.0006179614426213309 -0.005843984719848551 0.002727387534304139 
-0.0007930606607027872 0.01771107129745614 -0.02328345694577401 
-0.007020325444005208 0.003959043831508311 -5.814157188081562e-05 
0.002365109234909312 -0.003435744150641344 0.0005717734685558971 
-0.00465381961570439 0.03659987659348337 -0.03241077565431594 
-0.0004421325332288357 -0.004075836591934314 0.003818774310106192 
0.002657619752954051 -0.001503955872010805 -0.0006569229897731546 
-0.01450568645009494 0.01192589320070066 0.002715737905965552 
-0.01053817739281255 0.00106367212178697 0.004113142249001868 
-0.005170669013380489 -0.005938598378848766 0.01026922078589613 
0.0008275141129045715 -0.003268643124278779 -0.001481860477564182 
-0.003681774266975848 -0.003998412269678755 0.004755467573454403 
-0.00308576272590635 0.003719955666115934 0.000215647236678679 
0.001506530349113372 0.002956058840597776 -0.009228760827898159 
0.003486308607005954 -0.009769663864282564 0.002188064004174921 
-0.01275317445150575 0.01007069439322749 -0.0003388001002392654 
-0.005808195170118618 -0.0002735252427110087 0.003475625464955362 
-5.646881018000237e-05 0.004062337848777684 -0.005603397602795504 
-0.007239217161863143 0.009624825148508863 -0.002895591207587029 
0.004924261376086457 0.004623547549055749 -0.01009222432550029 
-0.008374294269331983 0.01144931143465194 -0.00387019254088983 
-0.0006439486489858843 -0.002921310716058416 0.002729968273819479 
0.007735592431924287 -0.002361176545199785 -0.006632511717374401 
-0.0005849065243033055 0.001327320562502454 -0.0008619184219132797 
-0.001549603992474549 -0.00722879633582078 0.01168887968537629 
0.008216605024267951 -0.004226582348711398 -0.005225175555072312 
0.008642157148223353 -0.01402978238584957 -0.001165430221890095 
0.0004084479686745262 0.003382227461375675 -0.007266110589700807 
0.00156668080547113 -0.001564111086032812 -0.001096030780924626 
-0.007258699280480354 0.007311438267737164 -0.00502383130103403 
0.002153724464345605 0.001198424806724899 -0.005216250087309676 
-0.007196480903463981 0.008153123970372914 -0.00464957821856501 
-0.01372286084769204 0.009315337421158539 -0.00286865457881049 
0.0031473151448424 -0.01238877578468288 0.01137908659363236 
-0.004739755270922775 0.007576427074071181 -0.007579952198509299 
-0.002455030646222586 0.004562578364003962 -0.005148312316136318 
-0.001229004708465948 -0.0008834442087937989 -8.485295822147923e-05 
0.002996258021854365 -0.01071811271438856 0.002046283551612901 
-0.009329345270923724 0.01134966541928009 -0.006976188563102354 
0.001444426555285729 0.009425015806501878 -0.01312186027075075 
0.002377818769482719 0.0009426413213505011 -0.005912078591218517 
0.0001616803865289054 -0.001379440136626856 -0.00126058154968846 
-0.007689909600136701 0.01245563247512449 -0.006297404868398518 
0.002128046216955744 0.005970840812424652 -0.01014503131808133 
-0.006892549621642097 0.01930374770608181 -0.007351219395690292 
-0.00208283445392574 -0.0007377211814551349 -0.001727590512780976 
-0.006881529892299877 0.005103133602747299 0.002004189255858203 
-0.006481803670533904 -0.004772574441549569 0.003616270425706013 
-0.004128170082039679 0.007838809277541665 -0.01111202959226982 
0.008360452956094678 -0.005844682814943329 -0.008427244638300465 
0.0008453106416587037 -0.01212791463813061 0.01121237082031041 
-0.007959795109542769 0.004222579294922757 0.0008477939482692893 
0.004017172091707267 0.003795948902884632 -0.01032039697689198 
0.005952705393149716 -0.003999478251726665 -0.001838434025991412 
-0.0009293528170653463 -0.003088163658053316 0.00187403395446905 
0.001449859258816613 0.005519632691018475 -0.00862268493287844 
-0.002100494339797799 0.004341071283493088 -0.003653279187972814 
0.001519336590789169 -0.0008483835008256511 -0.001956606174721097 
0.01116257926412149 -0.007735031353023477 -0.009169466749885122 
-0.002357329291702806 0.0003868287068068871 -0.0004889692769372187 
-0.002586760852791612 0.003059006106036799 -0.001187157329447159 
-0.004123123996604341 0.004446903556515134 0.0003294714385739765 
-0.002206979792623963 0.001606143947336438 -0.0003381848754519638 
0.003433781667409745 -0.00171694235775318 -0.002752375088658158 
-0.003658143892369558 0.003120835706623108 0.0007640411550140689 
0.02225629941681856 -0.02028176320839564 -0.009053509191237069 
-0.0007815950217726092 0.007880459357867586 -0.009204694247621652 
0.0007706187846404446 -0.003867736833779258 0.002498501544311609 
0.008091796369319783 -0.0009215382670695798 -0.009115621299271567 
0.005413901336310476 -0.0005507313836283928 -0.005734715161728863 
0.004984192063521958 -2.22978749885791e-05 -0.003724997820201503 
-0.03463374956407907 0.006869648510085067 0.02002787777470096 
0.01008825228521307 -0.01489324484298415 -0.01137091927406431 
0.007397057165714835 0.0007395692989033938 -0.01141813113049146 
0.01475250333198476 -0.006018640504275949 -0.01093981356652661 
-0.011118259656996 0.008657164803842514 0.001254081575766051 
-0.009590130167645303 0.01130650938493385 -0.002895608042852836 
0.0003487589182450494 -0.005583805426113098 -0.002619184642037561 
0.008274433787505158 -0.001005946869425376 -0.007821891804783316 
-0.0003607687864879222 -0.01128243904219951 0.01703867836832664 
-0.007919894192896012 0.01307894439479238 -0.004887240396357469 
-0.0105665798630927 0.0140207062235054 -0.004046368785060985 
-0.002971988183768813 -0.008316630505499063 0.006207697719741088 
0.005487572706892768 -0.001139798483265689 -0.004864054981411069 
0.0001021351616132027 -0.004076579164730212 0.004483226040698075 
-0.004275021443097669 0.007415548317698156 -0.005582795296196479 
0.000288673825138468 0.01200117809090792 -0.01621673718151306 
0.01557896524124968 -0.02676629932499273 -0.003375946615298127 
0.004743344457888435 0.002038109284720092 -0.009043016440743366 
0.01457496565592683 -0.03332046539777237 -0.003030497773747146 
0.004079157873537458 -0.01020496921861802 0.007653550523710327 
-0.004641912608732593 0.01220394219572721 -0.01016070161189576 
-0.0003821153532716017 0.004676556967106302 -0.003676721891573822 
0.002078017414918986 -0.01725777799784084 0.0006783034913505188 
0.02828604171878891 -0.04614903592244154 -0.004726145437442785 
0.0001179200792608392 0.00584567686349684 -0.006052269899247611 
-0.002172923358248418 0.004501323091003668 -0.002189148066224074 
-2.998922747460698e-05 -0.02080854733854495 0.02333524422947543 
0.003771345664339051 0.01217438035294594 -0.01685600035900098 
0.002887295442359871 0.002180164356949178 -0.006805073516666369 
0.002009733873532315 -0.0008827837776175198 -0.005372913729868167 
0.02120548615384417 -0.01148444720787572 -0.01998605547179991 
0.01344062971654121 -0.02248185779841325 -0.006765284935242029 
-0.006041667140114846 -0.004107348057370817 0.01109024013265367 
0.004787938452576463 -0.006424820894916164 -0.01130508985042294 
-0.005605135388542171 0.02463649769820577 -0.02084862936870172 
0.0007495583740735254 0.009331547271512914 -0.01482226050672758 
-0.0068372446494259 0.0180614570176073 -0.008518076726402295 
-0.0007947391821176627 -3.192419300152583e-05 -0.009791030789367128 
0.006649821090785923 0.02782744843573172 -0.03952384569216845 
0.02421838752855724 -0.04159208031640561 -0.003978240734592386 
0.02872152261151716 -0.001049908287495329 -0.03009579636079051 
0.004940618607267223 -0.001788625818176834 -0.01379601900872802 
0.001662807248257397 -0.001008510876173885 -0.002025506881547678 
0.006310712217107727 -0.002513121192264254 -0.004755350162034623 
0.002488644812145882 -0.004728087691750623 0.002782533249492081 
0.000977450772689286 0.002480861713977131 -0.004206594404901797 
0.009479965734756356 -0.004835763616663141 -0.00663184410115676 
0.01624632750954854 -0.01786548216306068 -0.003720088156763604 
0.003952838973767604 -0.005960943769242136 0.003559462251379545 
-0.007498048479591789 -0.00398273139460411 0.01344968047651104 
0.004992483621920288 0.001922243167563891 -0.008121405811702242 
0.01113778351636091 -0.01702199911156595 -0.009887942409237021 
0.006625670706580611 -0.004762411807028629 -0.004452175924668814 
-0.01678476704637769 0.02679354598901105 -0.01328731403356163 
-0.002157782281958445 0.01236695319251588 -0.009023890146017536 
0.006711187658010503 0.00165205269646982 -0.009661894109218482 
-0.011393662976453 -0.03235826628171058 0.04292591294925769 
-0.006098911070163772 -0.004643122405676527 0.01320976275710269 
-0.006417901535192114 -0.008708500790572818 0.01891111170113321 
0.004062101638508323 -0.002558912555989712 -0.002509559504287035 
0.003196119686551197 0.001840997588761901 -0.009953257766580877 
0.01821831430062772 -0.03982962308542189 0.001808576816979429 
-0.02409656089680687 0.01313858070757972 0.01551092966154914 
-0.0007145914240934537 0.00351571357028588 -0.004220607593110358 
0.01134895069199435 -0.01507705501305586 0.003493133423400902 
0.001249825389483288 0.001698402648100204 -0.00624398026745513 
-0.03249435278442411 -0.001726529551105086 0.03002496824600229 
0.0001544706252344492 0.005580648209175546 -0.006717492563187312 
-0.0002281605509572856 0.002248067014572729 -0.005869119124052215 
0.01412444849751019 -0.03325375771239234 -0.002730312416202184 
-0.009338029858927052 0.02242997676207138 -0.015202272404815 
-0.008711299337551243 -0.003432915598303014 0.01068239474768897 
0.02988588962017153 -0.0001116364051560753 -0.04321764946894319 
0.003333356614676042 -0.008370339897205606 -0.006712232713042885 
0.01527311028152034 -0.001875272811139025 -0.01694441255398204 
0.006886379837442783 -0.02306809854925079 -0.000938371837290348 
0.01744410837331751 -0.01935889385750765 3.952268589860967e-05 
0.0002856799644496002 -0.003356995819122513 0.003590224736994216 
0.005901120514960456 -0.002165525390690327 -0.00692830089993083 
0.01713478810225365 -0.0447848093512666 0.006693320423574669 
0.0015553273337036 0.006012115128650302 -0.008967827760492098 
0.02039688182094153 -0.02258552681900139 -0.006223103992836923 
-0.01831416927635279 0.0240360267447859 -0.008361324602909784 
-0.01734009730495488 0.02487074420926197 -0.009364056592907356 
0.0125163340634328 -0.007444084322200321 -0.00470429068806485 
-0.01380581197997347 0.02203353493553104 -0.007217371311735824 
0.006359190730049469 -0.02119873706242088 0.01690585648975543 
0.001528205558992857 -0.01775385529056675 0.005004476619262841 
0.00462876934723843 -0.01550283216933327 -0.003668732444700664 
0.003771508099488084 0.00941002031446769 -0.01372336170725123 
-0.005175175127468548 0.006760728725640353 -0.00275450267965394 
0.002547486920861944 0.01160538882740502 -0.01361404545659909 
-0.0361697302690196 0.01847673276502451 0.02107341743229515 
-0.01142353564463247 0.01312079309727113 0.0001410980385319348 
-0.02123145281029251 0.01658115362171177 0.008850057589238021 
-0.01356972507881711 -0.004117242014171626 0.01924655240239898 
-0.006794788026249451 0.01809614796057684 -0.01295115192845836 
-0.005845339097275447 0.00909809867102283 -0.003356302193040694 
0.003695410297128038 -0.0222551766507941 0.01224914735151325 
0.01192019266466453 -0.01074283547183071 5.36911331172274e-05 
0.003416538769349334 0.007961944096243604 -0.01330750676408088 
0.01825366517683995 -0.0233358450335201 -0.008799664677763792 
0.005994614195048679 -0.002251324224478809 -0.004848732762118304 
0.01058743105122946 -0.00392144089103852 -0.007379392228935771 
0.004111860216365095 0.01198333330541856 -0.019101253920732 
-0.007441988993958515 0.01375143612271419 -0.003154922297457507 
0.005528707608409907 -0.003277244478797977 -0.002522124570024656 
0.004323047838533999 -0.002930029172619241 -0.001252738311998989 
-0.01772057904217535 0.01788996651817516 0.002811647475810484 
0.01494286297478437 -0.02686928970282244 -0.005273917666295612 
0.001430545941878103 -0.00506254861163103 0.0001950118138144111 
0.0124423458283987 -0.01395179450607482 0.005992486252649376 
-0.03356891049552724 0.005938891496752473 0.01497331562960271 
0.01571782748591415 -0.02579835025866201 -0.006703345489406177 
0.01277937922263142 0.0005267228969304016 -0.01638922588050941 
0.008561273962692397 0.002027511712943427 -0.01315560160643056 
0.004000477922039646 -0.006339133455039788 0.001378825351945198 
-0.004586712944226336 0.007426199258071703 -0.0001987898453141814 
-0.01894671437306057 0.02220436367074721 -0.008304905275042332 
-0.001212607356371438 0.0113676550795228 -0.01258384513177059 
0.0005430654896035093 -0.003138498659560744 -0.001151570892206228 
-0.02544424524216445 -0.009787792173399999 0.02149123345414486 
0.01023032478907001 -0.004199955233214585 -0.008880154674306853 
0.01542547736603403 -0.001854006331666718 -0.02262583798768333 
-0.005533564142087227 0.006945282493723831 -0.00297072084655849 
0.01365352265765177 -0.02511841040313678 -0.004956330819282507 
0.01399950292184668 -0.02573784226718355 -0.004221006332390182 
0.01035558231005474 -0.01374559874851616 -0.009475712366343585 
0.003217077951885396 -0.01798155446492663 0.001592115467002584 
0.00292314029764007 -0.03775936185506373 0.03737161763723967 
-0.005246664385637097 0.003691798661582001 0.003424529522324969 
0.001197529217476114 0.009631965193992703 -0.01798136206831613 
0.003273225424109151 -0.005766444844921361 0.002039114246651401 
-0.02101452729110133 -0.01007862825287438 0.0364011526842911 
-0.0007267865462389838 -0.002815468521990841 0.004723465170037183 
0.00608922363894572 -0.01043126533180158 0.002829628855258348 
-0.02888249763865982 0.04880076514668375 -0.01591696622306901 
-0.01484062030082064 0.01954299047042584 -0.005124504813590424 
-0.001510341070589303 -0.01827111074201975 0.006310432225274281 
0.01213021368136753 -0.02878282164547125 -0.004280440422890154 
-0.003540253407239549 -0.01005966453063321 0.01481919277465857 
-0.01473864808272203 0.00263128118769362 0.01274719522084081 
0.0002434322231782162 0.007108059021646104 -0.01224641257343537 
0.01950121235015721 -0.03614511869074692 -0.005898767718776904 
-0.005591605489174625 0.001621450393950484 -0.008233091360226151 
0.0001013069515963328 -0.014354263915959 0.004504631990701851 
-0.002071281634385524 0.01295212684232079 -0.01178209538702903 
-0.01216362070232459 0.01096018437688457 -0.001914041063210881 
