solver_type L2R_L2LOSS_SVC_DUAL
nr_class 2
label 1 2
nr_feature 90001
bias -1
w
-0.0004426204569815259 
-0.03894580089290717 
0.03093605857497669 
0.01479009226321814 
0.02483782677168752 
-0.004285227237567851 
-0.01215552075047553 
0.01116593369985266 
0.01713663340383088 
-0.007075138468029441 
-0.007273803584479594 
-0.01154407241333377 
-0.0015331139847152 
0.006492557661170015 
-0.001549894094759877 
-0.006901649683884102 
0.01069346739122865 
0.03601547211604982 
0.01158701407791263 
0.03655757804312732 
0.006821235416080612 
-0.002532917301394063 
-0.0002096458154619294 
0.02598695366417179 
0.07404693489940146 
-0.006522020506369903 
-0.004494241827977653 
-0.002231720306396449 
0.01579414640144187 
0.008664060976157928 
-0.01882575395497064 
0.01267036762695953 
0.03186133489093831 
-0.001845140085984186 
0.04742371371277346 
-0.0133884837823301 
0.005685989168972735 
0.0133448123824962 
0.01080134283372505 
-0.006953469601741836 
0.05827583496063111 
0.02437921473751314 
0.01737773224613201 
0.001533260522286749 
0.008427150905452192 
0.001427959311525187 
0.004570678287850645 
0.01260327834049092 
0.02049527490114771 
0.004633502786953555 
-0.006223960908516958 
0.009090147452638014 
0.02830310097633358 
0.001273157227239608 
-0.01643254680389886 
-0.002332563700528452 
0.01361446203042425 
-0.008403806985732579 
0.006135659235949033 
-0.003937934819131109 
0.008308404385420761 
0.01962243177428729 
0.05219786379645287 
-0.03710051927954316 
0.008477706553510954 
0.01253418322354809 
0.00677231055156717 
-0.03235624195380267 
0.002071077873088523 
0.004915822142439154 
0.03769510210990971 
-0.01023056473015548 
-0.01322620673103839 
0.05524934648504085 
0.01168316129256639 
0.01559243517602608 
0.02498075588524509 
0.02396582007005175 
0.00150666673242087 
0.0155713944928854 
0.0787617844829249 
0.003941344508285645 
0.0375237754879777 
-0.01853058102476437 
-0.01493498347104247 
0.02767108023286159 
-0.01609178966306363 
-0.01444762078358695 
0.01632611686023604 
0.01605149793905457 
0.001476896279785196 
-0.004337600457192802 
0.01938732437896546 
-0.08039723306608579 
-0.01303648495665664 
-0.03103616466199065 
-0.007933598731248303 
-0.005360738243239808 
-0.00972342049996071 
-0.01733847598535766 
0.01178474648083526 
0.0108210420649234 
0.03872841893264798 
0.007502163244963007 
0.008493522213389405 
0.01472074298621608 
-0.006798909135789579 
0.004009540725168691 
0.003431285812905849 
-0.01993594017548811 
0.03524856774073552 
0.009533902889137379 
0.009658208769384844 
-0.007242916753375611 
0.03582421869411952 
0.02191314016821623 
0.01732776673581305 
-0.0006180067403985208 
-0.008917610088677015 
-0.01019242714003162 
0.005583131671569015 
0.007543882796135594 
0.01657916352510532 
0.01985157285015981 
0.02237508523915522 
-0.001318364147329543 
0.03197805920940611 
0.03208204254726721 
0.02843542692916412 
0.03898798818495924 
-0.002046666018372995 
-0.02501872829013951 
0.02152922773658235 
0.006720059486886858 
-0.02359818141600911 
-0.0007190197521083027 
0.01647180013302742 
-0.04364533312122276 
-0.01235513357736275 
0.01265057031289205 
0.03456125107960321 
-0.01532198839983915 
0.004723925434404623 
0.004649200856416778 
0.04796756762652746 
0.02880239308154826 
0.01019562166693462 
-0.001880957735226025 
-0.006982408423819286 
-0.003036327935624986 
-0.006207956875674729 
0.02467778200167416 
0.02228352407690496 
-0.00385791995923383 
0.0008774176361495402 
0.02748408308836265 
0.07134814094414353 
0.003492222306149974 
0.008893338957642979 
-0.01176960455198413 
0.01124892798907126 
-0.02814761561068391 
-0.06454396636582489 
0.006309585024495105 
0.0006029856392315417 
0.005298795945951981 
0.02747820664395342 
0.02856099335783293 
-0.002990234189453211 
0.02060021090501308 
0.005807424309070143 
0.002348438270210871 
-0.006919165313614153 
0.007749207028188821 
0.0003287201500952599 
0.005797500299723255 
-0.005689838127384609 
-0.03591889099651691 
-0.002609720266258566 
0.04699834243497545 
0.008884751809766146 
0.001713124803345592 
0.003591865896367974 
0.01365620300567767 
-0.007958312223213448 
0.002381525917792541 
-0.001827057102475941 
0.003001886060848042 
0.05207019900833745 
0.01425102433110637 
-0.01008489180650731 
-0.004211523280336693 
-0.005646423104721886 
0.004988798721381435 
-0.002171244454812789 
0.1339835112091952 
0.01154527996824078 
0.008107090972633004 
0.02252645195542534 
0.009991680200687084 
-0.02522757179542483 
0.01324174082491689 
0.005063515046211391 
0.007715836630511777 
-0.007500044612930805 
-0.01409583226266759 
0.02776298702053116 
0.008446366172449074 
0.01761175498596481 
-0.007166133692363235 
0.004417586960695093 
0.00598193755060849 
0.05267464141159668 
-0.00110544404002749 
-0.0008231916518882585 
-0.007262369412714279 
-0.007998691972452607 
0.0006872837020167599 
-0.008835261964083014 
0.005479853080986878 
0.004427567353955924 
-0.02136904282064175 
0.00858794950448513 
0.04631497742302784 
-0.003207763902768806 
-0.01815257190828011 
-0.01636431659854353 
-0.008754203678596893 
0.006863090991035221 
-0.002015115799793204 
-0.001698614456050513 
0.1119890651188134 
0.003314603168772733 
0.01102020947748698 
0.02410794397698742 
-0.001069339226513971 
0.05021165566372849 
-0.04416937218508314 
-0.00460951531159236 
0.05285729187513487 
-0.000751090288110677 
-0.01859332037548833 
0.008116945554894686 
0.005999065992494444 
-0.008199352105659651 
0.009542259905132392 
-0.02192307512969634 
-0.001215779144040082 
0.004765526617392752 
0.003116897396232047 
0.005027541606127159 
-0.001897646842010052 
-0.01582935779211987 
0.01256657126129954 
0.0003418949536507053 
0.01916962463365984 
-0.02505683632754938 
-0.01807708243244975 
0.03687953428845793 
-0.02304693366776183 
-0.080380881974654 
-0.0009957233601512591 
0.01748399932103896 
0.005834908523588661 
-0.01616040140975066 
-0.0002112306065314373 
0.0114796899442413 
-0.0232906987366842 
-0.0003694173680357768 
-0.006365959265663521 
0.02238899395914602 
-0.007530991387194378 
0.01024027859418291 
0.006084709805629587 
0.01236571479031535 
-0.0004643085537791163 
0.06735827192418697 
0.01438111175381244 
0.01611603984006147 
-0.01270285295840968 
0.0125865437190148 
0.06577285226251396 
0.02208806907867677 
-0.001297955367251547 
0.02495682172820132 
-0.001282355708307606 
0.03729596644476925 
0.02199145432711819 
0.01541612662253952 
-0.02617132565046392 
0.02862659500020618 
0.01121351415278618 
-0.01788459945932508 
-0.00528225192813463 
0.07638249623368759 
0.00119355711381533 
-0.01490610984977836 
0.006744522329813242 
0.01517508645342189 
-0.0007781018504930815 
-0.01301327591767793 
-0.007600451020267488 
-0.009775585426716327 
0.0136184662398239 
-0.01078831425793354 
-0.01138232973283392 
-0.007824640719632852 
-0.01118164225515144 
0.06459445516757924 
-0.01543325031148361 
0.02307288548150292 
-0.001588173539650295 
0.005505746281114664 
-0.02323881661814695 
0.004733634002985456 
-0.0130221076189541 
0.03171295106662411 
-0.02442709958219225 
-0.007783311091485707 
-0.03875117158114416 
-0.01218260915714194 
0.04099832367396841 
-0.0303620983486166 
-0.02388442667033485 
0.1083943623004717 
-0.03176246082130733 
-0.009864829006343639 
-0.0001824187774194533 
0.007033215165496265 
-0.04876955058952083 
0.0006619077425534277 
-0.00286145705789668 
-0.01013743899863125 
-0.02723357791208748 
-0.008344754303826448 
-0.02547929532903687 
0.09512213553255808 
-0.02993312464839996 
0.001540264768751846 
0.02882664438850608 
0.01863304651452489 
-0.0009090708598081455 
-0.0007290022445859364 
0.01003715990977048 
0.003916861739687346 
-0.015502748123309 
-0.0033647212517392 
-0.06399643447898158 
0.01181896137026467 
0.00967025639149034 
-0.00763669512606955 
0.02411831133972022 
-0.01739377680228517 
-0.009669358620017327 
-0.01300171708602947 
-0.01195121561006125 
-0.01117084898090768 
-0.01970254780710992 
-0.0005446189373911203 
-0.007593452194538709 
-0.002669685709630251 
-0.002003279369114768 
0.008899409658550492 
-0.0292762692997512 
0.01020261866662672 
-0.0326871932868153 
0.0235738212146018 
0.005529916845903674 
0.0464651715808185 
0.01304412334528174 
0.009869536757332225 
-0.02838927842253524 
-0.005060997148195852 
0.02816943820411474 
0.001599488102370318 
-0.02271467044841163 
-0.005631467952950716 
-0.004527289300916469 
0.002538890930250367 
0.0159205088000571 
0.00881442915279943 
0.004123549274730804 
0.03915171509903288 
0.01159960616858432 
-0.007909943336621324 
0.01023618616464124 
-0.03422368544411664 
0.03786104846450416 
0.01679775849213829 
0.002759347876011186 
0.04175738808056936 
-0.02135091794909367 
-0.009222550148931091 
-0.02029189271375892 
-0.007820678240945504 
-0.01263573855639945 
0.02724793408879609 
-0.004671877405003592 
-0.02719483610259472 
-0.01420093347248954 
0.0004803944383055403 
-0.01814959784675695 
0.001796374559640156 
0.005810228462017095 
0.006860314400465199 
-0.005332940156795166 
-0.008025765676883343 
-0.0020802847666748 
0.009471102969622534 
-0.00754228295533932 
-0.002175098127545987 
-0.00895216551578888 
-0.006697626329410243 
0.004456945596141487 
-0.001703689873416188 
-0.003132448242586204 
0.00527995273259973 
0.005010618808349579 
0.006055753707939261 
-0.004866737735171213 
0.002452414458515023 
-0.001564473700310408 
-0.002747433675057178 
-0.007617252091669783 
0.02045535235002547 
-0.005806251282315809 
-0.003488948731759418 
0.002916204314879665 
0.00718315774581378 
0.00544011412499897 
-0.008926740437578431 
0.01524646190264265 
0.001616821905013282 
-0.003949699412845691 
-0.002530448716810769 
-0.005059854936417911 
0.002420680523232255 
0.002661542538907396 
0.0001703415156747202 
0.0009802089610672865 
0.01166788174498871 
0.0139191853371787 
0.003631214674879356 
0.0006416169918213153 
0.005413382381737688 
0.0002569029462541068 
0.002171198229006852 
0.006124907012388058 
0.01078993038377886 
-0.0006246835737403194 
-0.006534746461792171 
0.005387431674962587 
-0.001918511431357243 
0.004850611976866277 
-0.01114727301797611 
-0.001345567009872338 
0.006543520542318444 
0.002452349757571159 
0.003017959518378017 
-0.004402781247094359 
0.003776941555057542 
0.007847600866538757 
0.00471470788307942 
-0.01829522470656759 
0.004746553153994503 
0.006091806566096609 
0.001435575781088648 
-0.02306727267204521 
0.0006714717296216645 
-0.0001536684229022659 
-0.001107456638044468 
-0.01915235378203438 
-0.00863212670788243 
0.01340370807826261 
-0.004241020424750225 
0.006247193738221418 
-0.005771667775797834 
0.01161093431482303 
0.0004908656726617751 
0.006000765924663426 
0.01227620823572009 
0.002808905505403148 
0.01742380480396709 
-0.01073786622642899 
-0.01234240009108443 
0.01624760563919036 
-0.008564203842774952 
-0.008521388757440934 
-0.006671338687483822 
-0.007323563439908904 
0.003779685789086073 
-0.003353278328484178 
0.006860996084842672 
-0.02879634333861742 
-0.008428819229895279 
-0.01681576648068959 
-0.008007009082084654 
-0.002008885030868681 
-0.003154630453657703 
-0.003316219206572841 
0.003595482153878866 
0.005870764248015519 
0.008373320130939051 
0.003779318371706923 
0.006109753944549805 
0.008959177674311843 
-0.00408326435754116 
0.002582004142187342 
-0.0004330445642825125 
-0.0114823612439505 
0.003437337196049926 
0.001688625866886172 
0.008357588590578545 
-0.01934813190750898 
0.004280169179344246 
0.01146348956606514 
0.009042610205386541 
0.00137994524955052 
-0.00617443808274674 
-0.01728649880456896 
0.002938638688833408 
0.0009269613665824781 
-0.02209078105571038 
0.009134902928733146 
0.008620001654142482 
1.177271551368279e-06 
0.001592910211467932 
0.0005942144305031117 
0.007142122714018509 
-0.000300404417365473 
-0.009573971965531006 
-0.01723794804009826 
-0.0008446035803392538 
0.003505876203973409 
-0.01094387082771907 
-0.002400953146843767 
0.009618454994670001 
-0.02024400925238145 
-0.009190858123190686 
-0.009977189882801248 
-0.004825726508660149 
0.0001792367710985488 
-0.002445530895670655 
0.001882534861611777 
0.003835784550333806 
-0.007854162094346213 
-0.007725063296931843 
-0.002061878014693361 
-0.007049917267130501 
0.00873790457428116 
-0.006617250113845199 
-0.001736411977525045 
0.01257755433893364 
-0.001893383771653641 
-0.001337995391627978 
0.01626564979278665 
0.0191254578276013 
0.0007521488416538522 
0.003847439666595566 
-0.004626168107079679 
0.004200508824193946 
-0.01564233833207331 
-0.01807632192818376 
0.004540552235982514 
-0.002051833432095839 
0.002466943068630502 
-0.0005293589264997705 
0.007599187125846111 
-0.003185478915035286 
0.01791441489164733 
0.00515528091556092 
-0.002469196908969047 
-0.007846974919644853 
0.007332669296584981 
0.001726283587923724 
-0.001167519344644983 
-0.002801336903237508 
-0.01379394384957584 
-0.003866952831875313 
0.01537227690704097 
0.003321243112506439 
-0.0004032678556306194 
0.001361115072472803 
0.007943058950204203 
-0.004706594163767517 
0.001986275914343409 
-0.00259362113007005 
0.001873914114153678 
0.01853802973517128 
-0.0005268407847699466 
-0.00674235943720839 
-0.007102777852985425 
-0.002276357357853138 
0.001496692508048743 
-0.001301654127568658 
0.047315715863699 
0.003853065844910475 
-0.002635556575243323 
0.009365686580918846 
0.004476736764110869 
-0.001534227196541742 
-0.0446080753070911 
0.01300933598900323 
0.0088285121293803 
0.02079731223968465 
-0.004085894589287755 
-0.01380219486324691 
0.001638603842086233 
0.01144954053315933 
-0.01132972601000164 
-0.009361746404942216 
-0.01047724171026149 
-0.005254270925776738 
0.005978775290692045 
-0.001823303398555246 
-0.009999407334859196 
0.005192080348191181 
0.0173741315648087 
0.007115685457481774 
0.01310774036262797 
0.003547114591697414 
-0.002783078011840758 
0.002365841407439476 
0.002443245786948659 
0.03710418872667979 
-0.006897794162027995 
-0.006081310929777504 
-0.002175892257716566 
0.009342013406206294 
0.005893911668995313 
-0.02505196550898206 
0.0103097964556878 
0.01277182528609 
-0.00662402250223702 
0.01419519329408799 
-0.005092920333851723 
-0.0002421387288039411 
0.004021061245707616 
0.00552942314588877 
-0.0002080362133207672 
0.03184616749376817 
0.0176202842347305 
0.007519967302435683 
-0.0002577571073479665 
0.006841669728162813 
0.0008852234068517942 
0.004946971341399866 
0.0109078475286449 
0.01863424233521865 
0.00241331349970944 
-0.01196382899684753 
0.007711084015620324 
0.008066309392199983 
0.003821096214219021 
-0.01394589106553546 
-0.0005586767970970174 
0.009571247976510124 
-0.007330003879130216 
0.001153867803013933 
-0.007644680005084268 
0.006041134792237139 
0.01162504374591177 
0.01989123739118133 
-0.02846641310900186 
0.005528683373024589 
0.00568929811467326 
0.001924177050660848 
-0.03738954653611951 
-0.002202246955638503 
0.0003026720693855254 
0.01403558223864041 
-0.02456171531581846 
-0.01005726707403252 
0.03026206163169702 
-0.0008756716368322265 
0.01099080997569704 
0.006440596721691026 
0.01354668673163675 
0.0001993398370417202 
0.01149319988389946 
0.04266285381136785 
0.001461971335768817 
0.02892238497425999 
-0.01443781139373535 
-0.01659630480513858 
0.02415859988206756 
-0.01118616798035154 
-0.01977304278849033 
0.004703995992556742 
-0.001986301244592965 
-0.001725437806751521 
-0.003251105900851768 
0.01385688170352006 
-0.05215129415265544 
-0.01015073213440455 
-0.02454358932669042 
-0.01105012605124057 
-0.005703278711897954 
-0.01408282580274633 
-0.02367952975250001 
0.00316164750838778 
0.008367053706200016 
0.02207937646456214 
0.006931006581710004 
0.007659753925433628 
0.008831864729396193 
-0.004923425619030974 
0.003641742215851649 
-0.0001251517367527692 
-0.01340599681704209 
0.01589304399622542 
0.004705840894896386 
0.0103859405144949 
-0.02341940370156262 
0.01613530739593053 
0.01692552843712934 
0.01223395339704497 
0.001247829257593123 
-0.01221450488406744 
-0.02360582043862094 
0.002809347509581744 
0.006339566274926651 
-0.01019182764299338 
0.01265691526868999 
0.01392128764467374 
-0.002765368221683129 
0.01263217114092797 
0.01423901733280299 
0.01739543699030876 
0.01037167818721615 
-0.006753838971597193 
-0.02362721395946435 
0.003527298045943316 
0.0050077061600433 
-0.02028434951963259 
-0.002575522304242101 
0.009989838326652564 
-0.0323721572504191 
-0.008268003529090465 
0.001713464918469265 
0.008041112032909642 
-0.005637261871269695 
-0.004833614374219514 
-0.0006469777535080565 
0.02132066758531725 
0.001444221211437145 
-0.001588334785117498 
-0.00295414603276624 
-0.00682379386783788 
0.00152565351447265 
-0.006777589594697507 
0.007456122861129881 
0.01789181151262114 
-0.003345181158108255 
2.099303750315697e-05 
0.02462311364002205 
0.03939168398725412 
-0.001071445514090943 
0.005617104390593873 
-0.0110410910092214 
0.006205618284561325 
-0.02504739553814868 
-0.03265487369841603 
0.004974185139379336 
-0.001357700185091222 
0.003655581839328957 
0.01001774923738764 
0.02198552439062335 
-0.003001607073121406 
0.01641801853493042 
0.001492667048108947 
0.003631392480015044 
-0.009163285455404757 
0.001824121176030599 
0.003697127194702096 
0.004312292221192726 
-0.006770238777552427 
-0.03651520904484457 
-0.01468559137884413 
0.03031332892018633 
0.005370655096727016 
0.00309412333494536 
0.001266117865021728 
0.01202560393619247 
-0.01093015925448508 
0.007621181788785343 
-0.004654239268388958 
0.002722067126824425 
0.03629713297512309 
0.0053841061993345 
-0.005224552913414149 
-0.005641968348763606 
-0.00767590100909482 
0.004317163552652382 
-0.00630635338341235 
0.08277025503457418 
0.003943843030867564 
0.005845487004589865 
0.01402119520777797 
0.003615632992608661 
-0.002779082887548331 
-0.02373613852958133 
0.007675034909417637 
0.008988751259327417 
0.01525428440435243 
-0.002600470532786648 
-0.005120401076669143 
-0.00390662354792715 
0.0110903373348437 
-0.008872652363651798 
-0.003442335756883059 
-0.006202406021650225 
-0.004052860517857175 
0.005540953208062133 
-0.001646349965228517 
-0.002212330494440334 
0.00492205422642309 
0.003089791741445243 
0.005918081622120947 
-0.001753259959303099 
0.003831354046574426 
-0.003529307824130051 
-0.0009816005006758469 
-0.01082241757679215 
0.01270045709663072 
-0.005163159849280297 
-0.002769337852839867 
0.005538836569461729 
0.00837645305215952 
0.004420407758960989 
4.055110529712573e-05 
0.01449661225793086 
-0.001747415744755133 
-0.004898598095845433 
-0.007567930275519882 
-0.00573603313867274 
0.003237006203349151 
0.007674258748146745 
0.001068797948473802 
0.002016410972903295 
0.009904021290840398 
0.01800107380839896 
0.005038448280390453 
0.00135267132707531 
0.006538420374738053 
9.158237438509982e-05 
0.005328898075896935 
0.0076090253453298 
0.01294278224981984 
0.002191785551024651 
-0.008292137282586291 
0.006623646476891273 
-0.003373310820078466 
0.005350503255019992 
-0.01512047408496466 
0.0003127781148020049 
0.01016508257485184 
0.001442745440157733 
0.003528598371577872 
-0.005087270213347433 
0.004431167655835578 
0.00980276476705689 
0.004804766702272573 
-0.01279803762938588 
0.005217562142679673 
0.007476506849872252 
0.004340462818638422 
-0.02556997225848147 
0.0001023918950522702 
-0.0006955897643459829 
-0.001403087194112661 
-0.01549647087863708 
-0.004394366518323737 
0.01943839651088135 
-0.006878993896039459 
0.009631052270114709 
-0.006215355395360576 
0.01521286942792013 
0.0008234020564111337 
0.01038860613273752 
0.008034077039097941 
0.001320761570099783 
0.02024445440568563 
-0.01289723510849271 
-0.01562840046292952 
0.01878653032438697 
-0.009904517180361542 
-0.004552944783289544 
-0.002210481270656043 
-0.01063565081691653 
0.001461381832906743 
-0.0007652890421317625 
0.01201122016021549 
-0.02782992944624283 
-0.007566302061838499 
-0.01582958592965867 
-0.007088112659897682 
-0.0002062518358171996 
-0.007649158009693703 
0.002395704012221 
0.003484355422625639 
0.009245054637904974 
0.006758247295114647 
0.002755009699887867 
0.006290727262602574 
0.009515435515536103 
-0.003470723224948918 
0.002414564872573142 
-0.0006179821790055275 
-0.009585331127785939 
0.0008292672108244899 
0.002110206355768745 
0.01504917205682076 
-0.02683427407320745 
-2.292216557158593e-05 
0.01182475675171238 
0.01122087133906268 
0.002373855780608652 
-0.006274966877846924 
-0.0199619827343585 
0.002162665402052522 
0.005254223096836581 
-0.02919969388651716 
0.01277289020309137 
0.01297004792962991 
0.002391120594366018 
-0.00220805963481217 
0.003331505488294385 
0.009342915820844058 
-0.003058412040153934 
-0.006492058635731929 
-0.007188751015930995 
-0.002690959477187044 
0.003710839108804342 
-0.01125828785192249 
-0.002899019748070538 
0.01273155530016415 
-0.01947139290417974 
-0.01001334552117909 
-0.00524228982805282 
-0.004977706641200342 
0.0008889127733891722 
-0.004197226319523307 
0.001806745070768004 
0.002369743030811171 
-0.01389066503669027 
-0.009801941984463531 
-0.001562667913810774 
-0.005371691755215163 
-0.001945731727883816 
-0.004106114794511257 
-0.0053057184657665 
0.01399571551873846 
-0.002266771487161806 
-0.00121977541062547 
0.01882005916347967 
0.01403826683503077 
0.00201851933899335 
0.005001969202735111 
-0.008039923250678125 
0.004009043989298162 
-0.01366880254246841 
-0.01692809863632436 
0.005154229877645347 
-0.003085868683088529 
0.00256256577325921 
-0.003513963156413593 
0.01018159029784263 
-0.004712974386889865 
0.01476847156735132 
0.004014109860451627 
0.003794063076869608 
-0.006446540632710971 
0.005728829245996533 
0.003320756304522174 
-0.0009456415143316106 
-0.0002822187633191014 
-0.01322007491308787 
-0.004633741104560717 
0.01723009504007705 
0.003593122133120823 
0.0005071486976326129 
0.0012372270997676 
0.009289508420249875 
-0.00337964631150986 
0.002055975153611059 
0.001266508724557748 
0.002469161781030928 
0.02320218575931524 
-0.00287219135374667 
-0.001089907860882255 
-0.004187227366700664 
-0.003801469029889408 
0.003740262833292313 
-0.00312618664151858 
0.04320746316569017 
0.003938670360337942 
0.00646576451521578 
0.01451301552919722 
0.006993336624706274 
-0.002715258759904773 
-0.02856416565806645 
0.002576952194204942 
0.01671432737581271 
0.0114456294795212 
-0.002127365431227316 
-0.009285661588727571 
-0.002812388748836642 
0.01040984818721104 
-0.003351493754865468 
-0.005141809282438887 
-0.007571591938522894 
-0.003093714694661392 
0.004940951016281479 
-0.001152649130483971 
-0.002893014123569399 
0.004518419677929139 
0.007707894076737667 
0.006335519566990948 
0.003019145562979718 
0.00200457377578616 
-0.0007768077311829745 
0.003037899824205183 
-0.007048228602709123 
0.01835473093283899 
-0.009681279601777433 
-0.0005535866249593197 
-0.005338637494290568 
0.003900507833739154 
0.003974455593812261 
-0.004970575906496228 
0.01153209949993448 
0.004776302140826801 
-0.003177758399879335 
0.00215069262135717 
-0.009889934616051513 
0.0004085813969083858 
-0.0006556117946527305 
0.002678987861249984 
0.003980975482132815 
0.01365551510299958 
0.0228423786586905 
0.003816827827546079 
-6.708048371101941e-05 
0.006311857956547665 
0.001568372586834232 
0.002885963133482043 
0.008526556186543662 
0.01842477821214554 
0.001560958405601593 
-0.008480573203168397 
0.005038169019819953 
0.003564998665087094 
0.003924873233304926 
-0.01070862914784544 
-0.002243784779053544 
0.006415334746766023 
-0.004118939607848481 
-0.004330007214157688 
-0.00851530940626 
0.005956310369923981 
0.01386928410522088 
0.01072262922743551 
-0.02670106358393513 
0.001811610633778305 
0.01171795659878845 
0.00638412158575756 
-0.02588359225979184 
-0.0007612972853451508 
-0.0002445237948543706 
0.003055886500274622 
-0.01084457865464141 
-0.002403990601871962 
0.02637454064826199 
-0.002713238103059258 
0.01073999697019972 
-0.001625942736812452 
0.01618415751857171 
0.001169066370264494 
0.01316289541278456 
0.0145408115387626 
0.001578662504356751 
0.02269382423297566 
-0.01120267801350145 
-0.01409847189406259 
0.01487959555860461 
-0.006194243412667016 
-0.002503252401533493 
-0.002633900044466793 
-0.003397137545116947 
-0.001642370808922135 
-0.003248654247869631 
0.009230589150136729 
-0.0328336107392832 
-0.003760131076736374 
-0.01614839448886365 
-0.01085079444988439 
-0.004852977381242855 
-0.01108939793196294 
-0.003465615048499924 
0.006616781758236659 
0.007548692228057505 
0.01250120529899838 
0.005101940440964218 
0.006266193122296326 
0.00491062754430289 
-0.003503873698958539 
0.00334417607038474 
0.0009660439621049688 
-0.007459711748164758 
0.005432911053356592 
0.001309416861041807 
-0.002194682101318869 
-0.02980397419795085 
0.008107015907046865 
0.01812295165626699 
0.008939776060717858 
0.00179802101448811 
-0.009563258437537383 
-0.01532737946397821 
0.0002112083361041169 
0.00601823485063797 
-0.01967460288411449 
0.01499583298963126 
0.008397470623821969 
0.002268130755492183 
0.005529318347306799 
0.003525239998235526 
0.01210688382595729 
-0.0006187600993670858 
0.0009957088018296672 
-0.01132958780473697 
-0.0009289341985436535 
0.004715710692532709 
-0.006439631972817987 
-0.00203104458227754 
0.01052872881674347 
-0.02486793284398207 
-0.008383744316548087 
-0.008432214721288342 
0.001056993202886542 
-0.00659273726033188 
-0.00798956939765523 
-0.001997708183588183 
0.008116920189194679 
-0.009595760534173083 
-0.004538955216515308 
-0.002074495205590413 
-0.004699915621906317 
-0.003054634537193102 
-0.003878366040820997 
0.001610805679177508 
0.009658229789268015 
-0.001960968353089692 
-0.003358113026675363 
0.01041924237438897 
0.01851902438966099 
0.0008993186478890958 
0.005653056096145526 
-0.006422627395160907 
0.003481891799954163 
-0.01283393704416162 
-0.02177062542039297 
0.004577720512874184 
0.002442146109540446 
0.005102725346974191 
0.002941807200958406 
0.01040764001797658 
-0.0004676750333795269 
0.01647382513086069 
0.003513685500565883 
0.002261504072648397 
-0.00660398469367053 
0.003174677187932623 
-0.004384115709640441 
0.005665777146609621 
-0.001490801981639588 
-0.01848396097272751 
-0.002383609951425017 
0.01580626620233701 
0.005984043410624489 
0.004320271547249276 
-0.00357604392317287 
0.01206073465843632 
-0.00531264122376994 
0.004512469458867915 
-0.002008692075616134 
0.002294902126635958 
0.02069961518329955 
0.001884991517720006 
-0.001229341392035985 
-0.00491947627950878 
-0.006851977755509712 
0.003806340792525238 
-0.002857326141547163 
0.05103568498057216 
0.005466075914189993 
0.005669159778916977 
0.02000400803013246 
0.003293828287814838 
-0.003831566528648425 
-0.01248731679885253 
-0.000114313654346799 
0.00318066126799931 
0.004853260200813274 
-0.007425025651397917 
-0.003188144246726756 
-0.003003482183113974 
0.005761322523062643 
-0.001588476384881777 
-0.003597201661324577 
-0.007199048929248834 
-0.003239039854716169 
0.00268419450155248 
-0.0003230574619990682 
-0.003322088614248387 
0.003740146956009775 
0.001992235684971997 
0.003819484368010513 
-0.0002794439657513542 
-0.0008953388876014022 
-0.003652863692131374 
0.0006336286185405596 
-0.00670585669396223 
0.007565893558533759 
-0.00714696719955399 
-0.0003925133769031828 
-0.006587411602989883 
0.005696725668204307 
0.002054653834965344 
0.006285459490902904 
0.005549836545767456 
0.002040538521534577 
-0.001802576053498874 
-0.008792494025999426 
-0.003650223565242402 
0.003657912905718401 
0.003672643034552087 
-0.005583751247362673 
-0.001626258710833702 
0.00627983717824397 
0.01186709213178787 
0.0007709582243082977 
0.0009947070788910001 
0.003642141853429816 
0.001485059162405261 
0.0027127002589038 
0.004544092931087139 
0.006511777536603086 
-0.00223340299293952 
-0.004606324060354949 
0.004144243886625894 
-0.0001097719171245409 
0.002460514122903148 
-0.0119167828063285 
-0.002490779904971984 
0.00404417615641866 
-0.0007295812069830552 
0.001390020589342942 
-0.001739024635125855 
0.0002851489895037465 
0.005140147174527581 
0.001487453343035955 
-0.01739173865104097 
0.002395922037690848 
0.004977071933871423 
0.00273317452485714 
-0.01826616977784992 
0.0008947157066672331 
-0.0004019196976769962 
-0.0001653733728375719 
-0.009841767403150199 
-0.006032163683017427 
0.006194673772278017 
-0.00296647981780391 
0.006412861780723663 
-0.002452614378203636 
0.007411781170550916 
8.916599350530295e-05 
0.003529206724452264 
0.00334409192906638 
0.001160086703954121 
0.009407514952362406 
-0.01211709008572906 
-0.01071044165276897 
0.006228689588868502 
-0.008357282119529569 
0.001967970368248295 
-0.004186845408554674 
-0.00163432398500454 
-0.004090590786053357 
-0.0008288039064046241 
0.003436704283633135 
-0.01890170513810584 
-0.008280245338220808 
-0.009579707614717511 
-0.005465261263965657 
0.0007289162685901793 
-0.00730167195084255 
0.001838541770966734 
0.008577688609837208 
0.002294069362426843 
0.003598918408326925 
0.005202936826517802 
0.002599548100517565 
0.006752099704956289 
-0.002633731145943838 
0.002475194248683974 
0.000232348973501494 
-0.01147630833769234 
0.003058810830382526 
0.0005908405970234419 
-0.001643138384575026 
-0.0199340034247883 
0.002976024401579997 
0.008403974730805477 
0.006301045605390563 
0.001647907916074082 
-0.00813537851310488 
-0.01536722301451669 
0.002002247270131815 
0.001376499530132472 
-0.01806906401249926 
0.006449770407733692 
0.002111068145685574 
-5.365612870148765e-05 
0.002028624416502367 
0.003070383091256157 
0.003938407861854213 
-0.00481533258644264 
0.0005891338996020775 
-0.0009867695220511007 
-0.004427563549917123 
0.003089676728459335 
-0.008310842330869582 
8.064442773236311e-05 
0.005391905481137621 
-0.01328444515124982 
-0.01018202088921173 
-0.005541573794675926 
0.0001305896441127884 
-0.002612582990513455 
-0.0009699540222891727 
0.002260474422239356 
0.002951628944747925 
-0.01250195003156256 
-0.004109928417619131 
0.0007379671565730098 
-0.007193300164653714 
0.005584330099414538 
-0.006833581405449362 
-0.0006015633303905242 
0.007762015650609101 
-0.001025730806315256 
-8.805745794780069e-05 
0.005044626702761608 
0.008331276001432956 
0.001378276110834938 
0.002358562163300024 
-0.009211614010259743 
0.003321009363275022 
-0.007747148271549506 
-0.01454356587107859 
0.003539316829469156 
-0.004257823850925086 
-1.278667247249182e-05 
-0.0008032039454490013 
0.002024202107518129 
-0.006741570923261718 
0.003385374785829608 
0.004054983627606641 
-7.08115622045716e-05 
-0.008497461762340572 
0.001844632298950796 
-0.008155984594757927 
-0.001985495509739741 
-0.002677659540121776 
-0.006561598127780467 
-0.005008682897631175 
0.007348689714905919 
0.0009303610069721557 
-0.006563972587045503 
0.003488471865264826 
0.005688319683147895 
-0.001422454819484854 
0.00258616959585464 
-0.001073377553403787 
0.001684965880956323 
0.009889249691546828 
-0.0005119878028564146 
-0.002567468577538222 
-0.005772208542259318 
-0.002604706295755632 
0.003453412575749052 
-0.003236914781972351 
0.0228078692524796 
0.001436336238225417 
-0.000619102513578225 
0.008192622391325396 
0.004825568715218396 
0.005660620181209931 
-0.03469965570960645 
0.01084896684826675 
0.007071638449369153 
0.01708647988836963 
-0.01054896807119462 
-0.009022865684417404 
0.0005605147178198829 
0.009049344402795497 
-0.0004689426913238763 
-0.008441501284013567 
-0.01137767545291503 
-0.002649327884675368 
0.005966461416124141 
-6.399677908553814e-05 
-0.004408052717302681 
0.0006054284007720806 
0.01576752132960429 
0.003834694289053085 
0.01482486445436377 
0.003918668947066779 
-0.005712091678369528 
-0.0004240880388916103 
0.002335405127639629 
0.03058627180481226 
0.0005636896462562445 
-0.003736145326469304 
-0.002301824659000797 
0.004762403099105954 
0.003468114848300023 
-4.26448042825503e-05 
0.01860441553348465 
0.01414364950886457 
-0.004510634343347336 
0.002355268981874206 
-0.005886014181715613 
0.0003642675067301775 
-0.007562445866211341 
0.0005799872557978639 
0.00511206196302696 
0.02463830801782431 
0.02917747356220099 
0.005141254225047465 
0.001618533506330506 
0.006020528894212664 
0.002515671723874123 
0.001209317174558133 
0.00875547765850941 
0.0150726817823638 
0.004995905631770806 
-0.005129908396081476 
0.002838005465210887 
0.01158859609366849 
0.005281932890378058 
-0.01546814483458782 
-0.00384356386326791 
0.006260749185716918 
-0.01288155127485302 
-0.007318865415224501 
-0.006041559419235036 
0.004261830691515321 
0.005976427415742979 
0.01830303988790113 
-0.0260999513795296 
-0.002987353470715195 
0.01151888996678347 
0.003544046994425083 
-0.03044716848783973 
1.796492936935009e-05 
-0.0002667535826946483 
0.01583528015074656 
-0.01087279764435725 
-0.007933084589615849 
0.02931656214847008 
0.003238311308830251 
0.01458929211284849 
0.006986217330522219 
0.01544698775238724 
0.0007750607140686259 
0.006973791951536811 
0.01541934329158611 
0.002182573306935856 
0.02079406547959125 
-0.01715885441811147 
-0.01815045537076499 
0.01198679101472334 
-0.01259918418127719 
0.007667503912063658 
0.002232917654387055 
0.004460254031533487 
0.004277953643818847 
-0.005237840601732651 
0.005513000978211655 
-0.03963258685414924 
-0.01227007060427839 
-0.02050967576304333 
-0.01231649151918997 
-0.007493265516851593 
-0.003961693206803589 
0.003968540882930486 
0.01202680291550443 
0.002685514244962444 
0.01944668626248165 
0.004753433432148586 
0.01005933195902471 
0.004432230559553637 
-0.005883555465245407 
0.005409111793525378 
0.007979267429037724 
-0.01753960536974559 
0.01527347783927027 
0.001694616433644005 
0.01116234986961718 
-0.03370450402545785 
0.01595285578866812 
0.01355637111539819 
0.008939370639506032 
0.003447701537596951 
-0.003436866663962701 
-0.01887299497199003 
-0.0003706203492264187 
0.001545757687396646 
-0.02533076920744105 
0.01147035986550325 
0.01496421724577954 
-0.00473259935113314 
0.01435847872620158 
0.01413144664021997 
0.01251020511489474 
0.004749940646174983 
0.00246389579862265 
-0.00548817834852338 
0.001784825836202902 
0.00359154368274114 
-0.01857629537662043 
-0.0002210611089998337 
0.008288708645510996 
-0.02657944015809989 
-0.01385517967560521 
-0.0005764740231676554 
0.01318478330966377 
-0.00555607124392528 
-0.01688421405110049 
-0.0004187655871789122 
0.01960133237890357 
-0.004052314895100134 
0.0003763567391188839 
-0.002115725467297761 
-0.0106957255301445 
0.01309613501318179 
-0.01101617393788574 
0.01087243954599591 
0.01076321294183033 
-0.002527483509750499 
0.005040131700652998 
0.009334290220403281 
0.02207490700370929 
-0.002874943567407141 
0.004892558175765709 
-0.01312442137717126 
0.005247149729617437 
-0.01314045682091402 
-0.02775537370334957 
0.01954199535447659 
-0.003389349977402136 
0.001505615648043554 
0.01070863727151311 
0.01291598807853292 
-0.005880794678812079 
0.0233191940465654 
0.0002295016993216275 
-0.00212579418109757 
-0.01110582738203899 
0.0009120366156271371 
0.01295625488635208 
0.001075377633776581 
-0.005455377748735445 
-0.01829606583418035 
-0.003831205385708557 
0.02133401773463549 
0.01466130234234097 
-0.003572336307411036 
-0.001473355070861189 
0.01164565084532583 
-0.00597647522881152 
0.0009539661288495599 
-0.006075362747807028 
0.00344248035885878 
0.02778672998044632 
0.005248371206756208 
-0.006584605139876521 
-0.004897923198053101 
-0.002694372317354404 
0.006334888001798761 
-0.0005808816414612714 
0.06449525964810109 
0.002456561983780394 
0.00566806003320229 
0.0212954827095355 
-0.001190071217170003 
-0.004730749833028641 
-0.01035680158962111 
-3.658866228451593e-05 
0.005029504359605279 
0.003670981818668353 
-0.002661349001118798 
-0.002533726080988594 
-0.003829559884952775 
0.005376983322289393 
-0.006711518063403701 
-0.003627307151089719 
-0.00237013336089805 
-0.003527225159361604 
0.001564710560984167 
-0.0007650195624264728 
-0.003198220237863741 
0.003020819672316691 
0.001901527525009961 
0.0008876885892739738 
0.001302004333570524 
-0.001665412431399758 
-0.003915141710678069 
0.000164223835827813 
-0.004797423756472453 
0.002306615239067796 
-0.010202888076373 
-0.003851941821994379 
-0.002616162217726976 
0.00241210676435181 
-0.0006710588841418941 
0.003486026441611141 
0.001233546629807615 
0.001308441611894585 
-0.004073239100107324 
-0.01038066380216215 
-0.006122687268548176 
0.0007053260364112986 
0.00220939345666815 
-0.0004908873822762416 
-0.008713653322093173 
0.004756164601320902 
-0.0002874396075686076 
0.0002536353106485568 
0.0007048577850592789 
0.002893644513279774 
-0.0001855814451196047 
0.001264998383132148 
0.003893613999538561 
0.00522322849704164 
-0.004263234316092788 
-0.007602249567730242 
0.002801229791130891 
0.0006303015129217477 
8.247372862296247e-05 
-0.00714401676967391 
-0.000400797827444533 
0.001830451594327678 
0.000982578892964337 
0.001013263038598164 
-0.004729614406746764 
0.001350232102467841 
0.004558912670010498 
-0.00449718917118343 
-0.01561234251688024 
0.002563929634127666 
0.004373043708667909 
-0.003236207018296818 
-0.01289403000293673 
0.0007038383305008878 
0.0007316188341146857 
0.0008691724318894832 
-0.01071664755123743 
-0.003278552874496411 
-0.003865406115931362 
-0.001052593221899689 
0.0001213667887682608 
-0.001232592869118794 
8.425789232702238e-05 
0.0004613046911469917 
0.002912308425188065 
-0.0006338058172390728 
0.0007585714157203401 
0.005901368730297476 
-0.007784850556088756 
-0.006038199821707208 
0.005869286551585698 
-0.008082789156472788 
0.001802430443774613 
-0.001010307507847969 
-0.001280053651290013 
-0.009168435494073542 
-0.0010746955452002 
0.002525629955376977 
-0.01499064147254589 
-0.004647312218676563 
-0.006269813552220662 
-0.005277545337635548 
-0.001730839139948135 
-0.009824404140748127 
-0.0001386786727743798 
0.0001355991590701624 
0.001088374652964007 
0.003448677376814258 
0.004197388652058295 
0.002297757659252823 
0.002985318905013344 
-0.003140289978852533 
0.001244550249176682 
-0.00246594511473943 
-0.006113816464042486 
0.0003973571185665209 
-0.001480171760512661 
-0.004275636047828525 
-0.016682663619532 
0.001605645371713077 
0.008017545976793659 
0.002715416508097499 
-0.0005920049476516595 
-0.009747023830210737 
-0.01587034688552224 
0.0003223571507001736 
0.002470543196353378 
-0.01262698961841098 
0.005063341586971062 
-0.001876162183567044 
-0.0001048020502749423 
0.001521883536106963 
0.002640087275425875 
0.001011089085331825 
-0.004589396177616458 
-0.004354226430990087 
0.0004210402464396285 
-0.003824340273195612 
0.0006676891376965295 
0.002975112420976561 
-0.002047826447200432 
0.001979437555775413 
-0.01254230008979641 
-0.008336047276341012 
-0.001851651641175777 
0.001312261783013281 
-0.005733663763073794 
-0.00186958196917293 
-0.0004960724397794313 
0.001848964903421394 
-0.008300856479141883 
0.0002903342369346047 
0.0004232369855845293 
-0.003434211586621012 
0.008969169166850222 
-0.002323944191987809 
-0.0003635158516926253 
0.004928185347488954 
-0.001063190998879515 
-0.005078303796539049 
0.003835646625995254 
0.002258698633342795 
0.00210407740493765 
0.001526671824670931 
-0.009218118258693555 
0.001004647743659331 
-0.006181054791210769 
-0.0150055142302369 
0.001116538284521255 
-0.001364613788488795 
-0.002228482493393882 
-2.942530200580674e-05 
0.002519845950370389 
-0.004374738801137222 
0.005392493609852911 
-0.0002424229129851338 
-0.0003301286621971641 
-0.002423625461447856 
0.0008286999526194052 
-0.004202864906108388 
-1.045369577276319e-05 
-0.004649428816861869 
-0.003071177808696421 
-0.005413496697631689 
0.006536990914994595 
-0.001359389145806549 
-0.002071452525506428 
0.0004191876404823712 
0.004543425396972219 
-0.002257486833623715 
0.001443890445660359 
-0.0003753773397673273 
0.000240567199757019 
0.007777810304079659 
0.001926761057834312 
0.000682312965606956 
-0.003602641451082357 
-0.006522028447520529 
0.000762558721238749 
-0.005287941015280715 
0.01095414655567654 
0.001647213941047916 
0.003042688044093749 
-0.0002498790786860683 
0.002113754432024656 
-0.001804323367552207 
-0.005425893037764811 
0.004598635117149737 
0.008865037224580133 
0.007818521948168542 
-0.001200461382424245 
-0.001683071484605789 
0.0001563121425101896 
0.003100815069620807 
-0.001349150928282857 
-0.004724437604968689 
-0.003638365371744271 
0.0004228523177315898 
0.002196390033021929 
-0.0003239033320915601 
-0.0002844569194100558 
0.004496852129591565 
0.005010832737983617 
0.001569199729861051 
0.006505585815448094 
-0.0003786120180307562 
-0.001663259592541299 
-0.001290265583882618 
0.003285715453547748 
0.01435276536554843 
-0.005966683811989206 
-0.00243155451323705 
-0.002845833492086797 
0.004298799138550143 
0.001926014981835221 
0.008275099188114324 
0.01438422504802685 
0.004158086310240858 
-0.002351736435870405 
9.028161313232886e-05 
-0.007826033330045976 
0.001571020236165189 
0.00720352111059955 
0.002839075108513461 
-0.001597574118335882 
0.005407375214176035 
0.01228704773119924 
0.004226454453257599 
0.001050926347648943 
0.004526663588720391 
0.001581115301825912 
0.002956823901675662 
0.00449135191201766 
0.008417519030524295 
-0.001365399566063884 
-0.005782143783852266 
0.004114787295185396 
0.004128010271803605 
0.003111383640686509 
-0.003819402161425568 
-0.002176947132801805 
0.002887090469457997 
-0.0009618631129878244 
0.003664605929597931 
-0.004416091083016957 
0.002183976350727225 
0.009110765175452215 
0.0116399512928696 
-0.01019877890982359 
0.002140857844102589 
0.007697276652773885 
0.002161438797584272 
-0.002684853604987563 
0.0003871702690364315 
0.001267967974590965 
0.006656357345807129 
-0.004501470353589426 
-0.0003730977924438562 
0.008150903075075827 
0.001709651940227032 
0.004522173187556316 
0.001297172132406506 
0.006914537441803465 
-0.0007984958595577258 
0.005536908756188552 
0.004551031353891454 
0.001628883632201607 
0.009537985509681197 
-0.004784360080268509 
-0.007498287235030592 
0.01211932408842621 
-0.005764819543051181 
0.005085182354047892 
-0.0001310598711801301 
0.001603754262604682 
-0.004747552990908776 
-0.002196240066302966 
0.006510447577716243 
-0.01003893836567117 
-0.004212313155200539 
-0.006574235012301513 
-0.008740917867678369 
-0.001499453790655938 
-0.00822256141413307 
0.007122853890923615 
0.00502170330843394 
0.002215821221188064 
0.006952635669585081 
0.003339617783772037 
0.003118747510107763 
0.003641778300958885 
-0.003755837167929969 
0.002722915755936711 
0.00162027377410583 
-0.004697588537791672 
0.004929812762090091 
0.0004222087732977056 
0.002534235544060323 
-0.006124911618429812 
0.004644217895630235 
0.009787998369715728 
0.00390212748329317 
0.002580763325673352 
-0.007387513542872112 
-0.01200895616129795 
-0.0002150447602729767 
0.002545034103136123 
-0.004441417126423901 
0.008090347076497282 
0.01127326368596697 
0.001992487133653523 
0.003937084855404516 
0.00536403360779902 
0.005803861357972079 
0.004633081579332682 
0.004498309767062248 
0.001781788567702087 
-0.006446386942754894 
0.002746514390938088 
0.0001999329046859508 
0.000196000136147789 
0.005038329949036979 
-0.0142367310809033 
-0.006524463947204608 
0.001463755640770832 
0.003109099120422741 
0.00258093340857611 
0.003668671272592786 
0.000248676021438451 
0.006016892085848377 
-0.003511743119295281 
0.0003877316861672165 
-0.0002288332562777112 
-0.002761532202081932 
-0.0002813524829131181 
-0.0014224405260425 
0.003033292980455117 
0.006992296487192654 
-0.001608008864587479 
-0.0005126910502528721 
0.01159392583992975 
0.007244083395033601 
0.00149014346399536 
0.002868406327516097 
-0.00777073540942205 
0.002195795482216568 
-0.005662438653207927 
-0.01718076076217526 
0.004008919948849948 
0.002080876351630521 
0.003201815200298106 
0.002859454767943237 
0.006298071276647909 
0.002259801086351421 
0.008320151095952476 
0.001226154035921566 
-0.0003493396887764896 
-0.001789612981152743 
0.0002062562100549363 
-0.0004472556062167968 
0.002053359647233649 
-0.004372128526730471 
-0.002225239014397473 
0.005558081701137177 
0.007849659163501398 
0.001579929304896752 
0.001482530104645639 
2.655197074236107e-05 
0.004933785483611396 
0.0001564703695303776 
-0.001581753143681005 
-0.0003598541073205215 
0.001283066569088427 
0.0111212932056058 
0.003621680534139661 
-0.0003442962753967697 
0.001437790601541242 
-0.007357046885784085 
0.003295199585720346 
-0.005486780204091489 
0.02285151390723707 
0.004350749906734645 
0.00510561059708573 
0.01019886142298324 
0.001738391534709166 
-0.01695417871820463 
0.006492801891940628 
0.004628847317352342 
0.001829817733081017 
0.002702484007525769 
-0.007835057394732338 
0.01353228789295163 
0.004531948555890709 
0.003651874230892755 
-0.002677796612243776 
-0.001640110120082646 
-0.01939368851141965 
0.01479783556661749 
-0.0020322675502406 
2.937632440818068e-05 
0.0009271701655215525 
-0.003842761958311939 
-0.001559333163403473 
-0.004195507717690863 
0.003490225055584984 
-0.002304523561888185 
0.0002278499297335186 
0.001479232631782436 
0.01684149413097002 
0.004892100813203632 
-0.02074485489954956 
-0.009882175527626763 
-0.003342780665934159 
-0.0008143893096755618 
-0.003349656320202492 
0.007004846741902417 
0.01889947533953546 
0.003898808529555389 
0.01092612748812346 
0.009444021987531947 
0.001154336770932999 
0.009767596515063771 
-0.02284875413398583 
-0.001690998617711545 
0.01186851031553083 
0.005904186233225843 
-0.005776361976773964 
0.003661593801609802 
-0.005001380173623553 
-0.003503066425150824 
-0.001623615588649882 
-0.01237086441560051 
0.01061080660926621 
0.009226315558689406 
0.005428215130732071 
0.001208498422216578 
-0.004506670010626495 
-0.009991910179005499 
0.01097789542299746 
0.00813558415141028 
0.009864890667583125 
-0.006285276722550625 
-0.005023204419776591 
-0.003283269680170572 
-0.00215311331823368 
-0.04127943382684993 
0.0003205132811791954 
0.006640671745455781 
0.006197397006167625 
-0.00173576005713163 
-0.002196912909442022 
-0.0007307772396781898 
-0.01703983874355702 
-0.004466918206900644 
0.002631835617554049 
-0.0056860972864491 
0.005339458592004961 
0.009401518713411083 
-0.0013727779155338 
0.007605353002094065 
0.006045929859452565 
0.02290629811414817 
0.006012539143095541 
0.00563286014591233 
-0.0002680969969977736 
0.0001317116004282657 
-0.005220242336537257 
0.01046109550816298 
-0.006689252302441824 
0.003656450936526458 
0.001439386578290437 
0.02224355515482431 
0.005952210090022372 
0.01140237366527319 
-0.01746595704754066 
0.01421664861261353 
-0.001413617668884178 
-0.002323383424058813 
0.0006426061359264491 
0.03055056062730168 
0.002168686012993844 
-0.003980402363815734 
0.001201674980891881 
-0.003252455076344201 
-0.004944024530391837 
-0.01163044486239226 
0.009707430628465177 
-0.0008510075641079117 
0.003445458766330249 
-0.007333870685370636 
-0.004854452598881907 
0.00213509955531851 
0.0004396921215280011 
0.00654243071122235 
-0.002040088066540794 
0.009508783446860264 
0.003597921553323374 
0.003356575258348811 
-0.01298375580350889 
0.0007675411946610412 
-0.01444316459320698 
0.01737592803007427 
-0.01258825908971022 
-0.02108330428526228 
-0.01491898882517538 
0.001537016783964326 
0.02188984038716994 
-0.006819841653370481 
-0.008066237134212719 
0.01480176841138239 
-0.01833912585018269 
-0.00756893782087499 
0.005426615485035052 
0.0001876320158310992 
-0.01565189110162946 
-0.004960070461539183 
1.431329671559795e-06 
0.0009425481828169415 
-0.009581466027379365 
-0.00597187569316334 
-0.01274884280658091 
0.01427388863079725 
-0.01272588544720976 
0.00816496594798013 
0.007785859614479874 
0.007726408403993603 
0.0006735429624492208 
0.0003136349846844591 
0.009914570409202378 
0.00588551924210576 
-0.01382575681497545 
-0.003361336457263797 
-0.01986668832607452 
0.009750008580395063 
0.002299745376412523 
-0.005410528613369675 
0.004374768198786268 
-0.01001419491560447 
-0.008412372042427988 
0.008573558769498606 
-0.01186715601135564 
-0.006033553541594427 
-0.007659319040696231 
-0.003511682229551923 
0.005091432310468346 
0.007924990583812826 
-0.0058810242389224 
-0.01894362773703526 
-0.007479433989639064 
0.007800032642583792 
-0.02429625032427279 
0.00711230005269751 
-0.001726291792076265 
0.01551336310832576 
0.006660470158259955 
-0.0008160011992616773 
-0.008299426706234634 
0.007314592675976555 
-0.002190001069554461 
-0.002630613304904659 
-0.01497211198117066 
-0.01428514162913882 
-0.003723100262693129 
0.003949862499913741 
0.004327929246598501 
0.0004749182181042085 
0.008665034582090227 
0.01514795363933677 
0.004415155689438694 
0.001090691475548232 
-0.001183223899772896 
-0.02177655170160138 
0.006336127929721967 
0.01500890838811132 
-0.001887577213154927 
0.01838238439103135 
-0.01060913027581972 
-0.0115977303795632 
-0.01202696194843428 
-0.008930716308865657 
-0.006951757316838264 
0.01145085307020251 
-0.003439719656428238 
-0.01464243938619312 
-0.009917059541058912 
-0.02238129955210433 
0.003174639565822585 
-0.002072768899516229 
-0.0009777505438866344 
0.006448908483473954 
-0.01327706352969592 
0.01606822707385148 
0.005432500991113244 
0.005594927095785076 
-0.001326759916784979 
0.001600984092112253 
-0.01204240995935422 
0.01580052225903588 
-0.005722511479575931 
0.003093342425713324 
-0.002383331999261658 
-0.008711364199559547 
-0.002274774655656065 
-0.01126558581941769 
-0.001579005177706555 
-0.00406551550048965 
-0.006616241254542066 
-0.0002267637210611799 
0.01139548131607614 
0.006126033295914711 
-0.02318223254213445 
-0.01479078222788392 
-0.00607166956223741 
-0.002583098194376106 
-0.005855696451487337 
-0.0002360270682293178 
0.07270043540710257 
-0.0009850281638232926 
0.01477184654231191 
0.01424707033320956 
0.001059109474405521 
0.03010116613822645 
-0.03280296546983118 
-0.009839800072886092 
0.01970222432867531 
0.002147339002665956 
-0.01170874311098895 
-0.001251638464881927 
-0.004148661274087474 
-0.01248971342501123 
-0.003890246569800049 
-0.0230579784555161 
0.004855668148535893 
0.001865568479406906 
0.003281758886911844 
-0.001133537091772163 
-0.008342851392029962 
-0.01717815481597891 
0.008662698325833414 
0.004662119616019918 
0.01011793646932093 
-0.01399843457372902 
-0.0161422796084462 
0.008875884496589315 
-0.0165837758346411 
-0.05967023892328134 
-0.004065683201045311 
0.01075348679955359 
-0.0004330997527477224 
-0.01306848414651391 
-0.004850912071011372 
-0.002050422785752502 
-0.02720726563525099 
-0.001293266059826722 
-0.005960462932837444 
0.0006312356350753833 
0.005215474210806865 
0.01101681984252344 
-0.00207350016768615 
0.004343901524035746 
-0.00191354756000859 
0.04083880857508378 
0.0002170481292252564 
0.01002947622249264 
-0.01241021639645236 
-0.008354202591462074 
0.03708753867170163 
0.01535657267074919 
-0.007956359344253124 
0.001001701618745655 
0.001346929132203268 
0.02206155973318716 
0.005360645779558748 
0.0105340827276299 
-0.02729137794356289 
0.01447347068680922 
-0.006401475923183018 
-0.01236627609461187 
-0.00490927164952566 
0.03644164634340739 
0.003843880530846823 
0.0003649724929886835 
-0.002394650524224923 
-0.00137485810893857 
-0.00649426412688104 
-0.01532464158388623 
0.002754933323507936 
-0.003711767823325754 
0.003317377767216543 
-0.01348920846365525 
-0.007120551122098884 
-0.009137766375792772 
-0.007307312029607124 
0.02835322548335961 
-0.01461734808890344 
0.01405343486592372 
0.0004386546567564646 
0.004379975154127302 
-0.0272304906070244 
-0.0014171505953913 
-0.02496369560251261 
0.01823529461755152 
-0.01382023149530044 
-0.01723965514028092 
-0.02813698526096735 
-0.001392964936606698 
0.02572819236921944 
-0.01553440575361497 
-0.01466728719287481 
0.06290272922230206 
-0.03236566236208608 
-0.00580705249450256 
0.0009471716439018607 
0.003500777349052569 
-0.03874891756812743 
-0.007726802101383195 
-0.008316115295299785 
-0.0006033958209402013 
-0.02010937629808316 
-0.007124037687775452 
-0.01658899184621395 
0.05766297749137537 
-0.01811076763698278 
0.003466943811464232 
0.01566409689810019 
0.002839586007642874 
-0.003417247533489474 
-0.005699118948134316 
0.009495344661977998 
0.0004940329348148821 
-0.01126508012751574 
-0.004872335948282075 
-0.04805369562663056 
0.007645981151347621 
0.003363963457044977 
-0.007212264880870505 
0.002457322209134476 
-0.01665156712913649 
-0.01428241118277011 
-0.006624167681920681 
-0.01598620831493432 
-0.01341434813051319 
-0.0183125685661716 
-0.000913510610032189 
0.01112072584178909 
0.01185764890945695 
-0.01120875977632446 
-0.01129217647372373 
-0.01913055928050098 
0.005170547704723295 
-0.03343702823265329 
0.004650781862792812 
8.007821595947622e-06 
0.01410340511546313 
0.01024616591745623 
-0.004223837019525186 
-0.02101772757708525 
0.0001295069921834087 
0.006389336151035899 
-0.00384893892136619 
-0.02171013328531428 
-0.0222075276759195 
-0.004633161492263943 
0.004013679368293066 
0.003669825338897367 
-0.001461203770831078 
0.0005853672136541981 
0.01900615892808839 
0.004685209607618727 
-0.003355570512809896 
-0.001715937533724311 
-0.03302989591521094 
0.01459155174021024 
0.01244126472927005 
-0.004882080059965558 
0.03348583839531704 
-0.02045998305392698 
-0.01439367603900077 
-0.01488664481169913 
-0.01899050228148466 
-0.0113360554894709 
0.009392611546316831 
-0.007271219662982598 
-0.02002504216126167 
-0.02228521235658319 
-0.01246382464527867 
0.008073491430256608 
0.005059515854317696 
-0.004134119105473531 
-0.01009731115676186 
-0.003640005757869828 
0.0129094100439551 
0.002922251588406607 
0.00860714863332257 
-0.002704054796616327 
0.002034774670483658 
-0.01948494124236523 
0.009938373781424377 
0.001749310765886128 
0.003649392087030981 
0.001930320016361694 
-8.818759963460898e-05 
0.00200318646024647 
-0.00296004662624425 
0.001909909920162245 
-0.001099694096045422 
-0.005257985856111934 
0.006440710084342757 
0.01259935732923097 
0.008435089567792873 
-0.01306589710271778 
-0.01055288676499028 
-0.000448404807737546 
-0.002904675826654972 
-0.002162180742739518 
0.001214989777525618 
0.01814401839290066 
0.008616758084700648 
0.009088622571943062 
0.009965003376060691 
0.0009270384656667641 
0.01531955735198184 
-0.01987488611879464 
0.0003970315287562323 
0.01533169388226097 
0.0001878747662531553 
-0.004235262092808573 
-0.002637379270970876 
-0.003369103522434601 
0.001546330619965406 
0.004930610316345205 
-0.01379385990917249 
0.006321317779351241 
0.001275283836940273 
0.01175262695949974 
0.004073893215748733 
-0.002765154781921958 
-0.01446087780586313 
0.01319081206719207 
0.01430122284392384 
0.009698858680297828 
-0.00941521154016382 
-0.001121914143644303 
-0.004689842354712587 
-0.006587216002913096 
-0.04202492433471118 
0.003974800947716355 
0.00689270792939375 
0.0004325317725436486 
-0.01111485390157167 
0.0008867883122952484 
0.002653538092535985 
-0.009577046115455996 
-0.0003603290652378788 
-0.003159871570988469 
-0.004684244072960033 
0.008050003643107814 
0.01152310689491688 
0.002617774153218413 
0.009321178407011896 
0.004031648180915107 
0.03103190455725501 
0.004340813324701731 
0.008536647787164495 
0.003485127346955525 
0.005921551033995222 
-0.004608855663930302 
0.01043808740534053 
-0.00524217106744995 
-0.001624006921173411 
0.003488994564496865 
0.01989296496040347 
0.008031985690348263 
0.007768749404329111 
-0.01742451755389588 
0.01192693316083939 
-0.000730165765866141 
-0.0004976310260579435 
0.0003797970631111712 
0.0263628837978097 
8.424840053371025e-05 
-0.002474177752137802 
0.001807114894363206 
0.005769372469608076 
-0.001073449230191519 
-0.01299050615140458 
0.004778477984886906 
-0.005455284694865526 
0.004661265515146768 
-0.0009659871986368338 
-0.008305329830648476 
-0.001279894247150498 
-0.00581204927181017 
0.002357678113118773 
-0.0008055185444129785 
0.01176351560198379 
0.004733997245106842 
0.005505518669996274 
-0.01802004080928271 
0.0009708445619551363 
-0.01364492779736853 
0.02164146797612313 
-0.005387759998558098 
-0.01631707637427133 
-0.01505094879812498 
0.0001277535078838772 
0.01917473157184958 
-0.01002048184431791 
-0.008297868339701319 
0.01587907628402166 
-0.01259911086614616 
-0.0054256595262625 
0.002129829178872414 
0.008058999098515469 
-0.0105016990403534 
-0.004289531132065659 
-0.002703742688546077 
0.004338978848435532 
-0.01355801711793505 
0.0005765199272514997 
-0.008847344133272306 
0.01246682702386124 
-0.01317930051612204 
0.005631509172816522 
0.01242848307271421 
0.002330761591322149 
-0.001614047668415276 
0.004220026328628379 
0.01306013379228797 
0.009263383420848854 
-0.01009847880910389 
-0.002433768966921859 
-0.01414421941067551 
0.005712454893451583 
0.004839766292883805 
-0.002239541862072059 
0.0002727440106420399 
-0.01641716928280236 
-0.006452218138877037 
0.002379723926558775 
-0.00871390755413908 
-0.002289908492310996 
-0.008363546014909622 
-0.0008018888904635011 
0.006486538931200492 
0.01046409395866855 
-0.005557347269312643 
-0.01375257075836039 
-0.005317230435414939 
0.005711445898177002 
-0.02048519253615073 
0.005919084881681271 
-0.001459681085704559 
0.01171932818312409 
0.01142424800029773 
0.003657001083242227 
-0.01336389915935791 
0.003578064349846266 
0.004387293873155676 
0.001653475746144321 
-0.01426519155089312 
-0.01393418824525805 
-0.0007380203102630316 
0.002462916063845901 
0.007160172089442082 
0.003318709959285562 
0.01172805617006203 
0.01408677568541582 
0.004453326415414311 
0.002036388323136676 
0.00635986177635186 
-0.02266367367634512 
0.01292154784701603 
0.01006618134845871 
-0.0009773279863701937 
0.02249571225988903 
-0.01386297550518982 
-0.008100956587801746 
-0.01313950093526215 
-0.01354809556340738 
-0.008389434201866892 
0.006348987863091414 
-0.003531543404943272 
-0.01769598060819392 
-0.01297870271957191 
-0.02292531721034421 
0.005702707395863963 
0.008048842303844728 
0.002200853043471793 
0.002511128315192542 
0.001188370844376417 
0.0194892531089172 
0.005892985107601876 
0.006273175035697928 
0.001056630775104463 
0.005843959387764507 
-0.0321058560542569 
0.01248118301429927 
0.001378410944799145 
-0.001106160655044178 
0.005801546937610902 
-0.003363681501186517 
0.0008050210761763499 
-0.005346531358074272 
0.00650981800142929 
0.000811045093902487 
-0.007531020396928517 
0.003224002445546452 
0.01031662503863908 
0.008205063726460638 
-0.01920441202714725 
-0.006255737581097363 
-0.007889952390785989 
5.492076244323073e-05 
-0.003255598392829615 
0.009718172110965938 
0.002067048641003592 
0.00162241918468144 
0.01333882171597735 
0.01056662254286502 
0.0005859194260386125 
-0.002446809463363647 
-0.0221829566744535 
-0.001718948456378619 
0.02462622902133726 
0.003542200345928643 
-0.00624013652965063 
0.001306093702742977 
0.001737588187979874 
-0.00695563046631208 
0.003641773733339496 
-0.01305376780279819 
0.0005881605595420106 
0.005005637432794594 
0.008898951459342002 
0.002761170238520365 
-0.0004648600664200256 
-0.005807356978640767 
0.01002484505180731 
0.01091451247127465 
0.01045201721297747 
-0.004327768718678834 
-0.002604197003283707 
-0.009276859913224886 
0.006803173878120017 
-0.03917829025376266 
0.004322806307378944 
0.007672750611499883 
0.005670131612894562 
-0.008860775510182665 
-0.005160445682796689 
0.001598560173988358 
-0.02115574024151726 
0.00294900275130325 
-0.004092275813131346 
-0.008399814510250025 
0.004857362829326885 
0.01038019025113332 
0.002253443730198794 
0.009498526502530542 
0.01140003727137055 
0.03103090568560949 
0.008344417401213387 
0.0101535729753276 
-0.003459874927113272 
0.006502076957411276 
-0.02016998474812853 
0.01670318040714598 
-0.003834370220357887 
0.001457626212995694 
0.002804540809447178 
0.02211452377291993 
0.01150232521434479 
0.01172891970589734 
-0.01583124373360169 
0.01127551130544948 
0.003501198096990095 
-0.004420407872418727 
0.004140450890314984 
0.03147730650869142 
0.001222904488568105 
0.005811612745860048 
0.003317699287700486 
0.008572561718357179 
-0.00183419794916591 
-0.01252237404957472 
0.004433921475315141 
-0.001796641622133976 
0.008320489905657051 
-0.0082204745099166 
-0.008080920546842073 
-0.002258239338606292 
-0.005461102007360366 
-0.00364543958438084 
0.001540649392122748 
0.01203504503677634 
0.002139556348701529 
0.001522764274086826 
-0.01338183908114184 
0.0006051624653763124 
-0.01254886373257602 
0.0196011689145532 
-0.004927492008212519 
-0.01820805684397207 
-0.008657292306155513 
-0.0009964130964910663 
0.03054457506834945 
-0.006471516320473259 
-0.004690632909176365 
0.003715538142353038 
-0.02285387173291855 
-0.002784001782813668 
0.004367931871041432 
0.005016342442123149 
-0.01997205339867989 
-0.003212349107177302 
0.00365880351141978 
0.005231085171637517 
-0.008554447867750043 
0.0009951682577994403 
-0.01272634434605115 
0.0003453591250752535 
-0.006184801181334385 
0.004649041834896539 
0.01405542189077665 
0.007971148496415283 
0.002869881435890155 
0.004541363343784756 
0.01287519391171225 
0.001925602259464571 
-0.002766403830520806 
-0.001898460619674802 
-0.02087654942990506 
0.008726483143840363 
0.003719710073315414 
-0.002824620288189366 
0.004198188985863599 
-0.01004975158512692 
-0.0111314418044402 
0.000363550054187416 
-0.006383490122526772 
-0.01157524207831539 
-0.01391921406655156 
-0.0006777943428776929 
0.01454920388859303 
0.006081510122634791 
-4.670755340629849e-05 
-0.01771866176397993 
-0.004859385871114924 
0.008040828769935933 
-0.03008628130110062 
0.006758786264899236 
0.005324718133589731 
0.01906468486971876 
0.0103138268730886 
0.00443300658818384 
-0.004385172619730634 
0.01191468691426917 
0.001490266134034658 
-0.001974909839578666 
-0.01986369760591113 
-0.01251272389991713 
-0.003114945609096233 
0.0003857230714948338 
0.007888818851429101 
0.002014952479867299 
0.007016816996048368 
0.01648308133324656 
0.009154588965957933 
0.00250477942812241 
0.004871481773496178 
-0.0208055462946865 
0.01736029399496837 
0.01061591993188432 
-0.0004269421788066213 
0.02439318535419744 
-0.005568571449438461 
-0.006606628443867077 
-0.006757336008767524 
-0.008283836090764059 
-0.009820041452822016 
0.009372930033933226 
-0.006325022893902572 
-0.01022091229593283 
-0.01001929619357361 
-0.01077839967360261 
0.003239738585056139 
-5.584412764562233e-05 
0.00312080070463134 
0.006177559886273028 
-0.007505335210775709 
0.000848751247394594 
0.004316932386449193 
0.00369542712481747 
-0.002082886486273944 
0.001222849440440441 
-0.005896865754075819 
0.009721667653609253 
-0.002368197001930741 
-0.002354250535901441 
0.007480447639868717 
-0.01103348555535807 
-0.001269727380067293 
-0.002971234700193353 
-0.0007706249565703198 
0.001516414895172496 
-0.01976554452840206 
-0.0009249762311953461 
0.01150643091689897 
0.003338784941085033 
-0.001406314637511698 
-0.0114496985589135 
0.0002700352155918836 
0.0002133279358120466 
-0.002766562423238348 
-0.005028121570310079 
0.001471556140748691 
-0.004897536302309384 
0.01795748742681938 
0.01101220741117807 
0.005114505571921593 
-0.006089115570745545 
-0.01233499543202568 
-0.0005560406864580155 
0.007688458656033211 
0.00978862876452808 
-0.0149522733847421 
-0.001553123502680251 
0.0007574201188229128 
-0.004516310469678157 
0.0008036954207335257 
-0.007210297468753984 
0.01480135561996793 
0.006860199348630856 
0.007131867319697606 
0.0008101218276107918 
-0.0003982242733041684 
-0.007290092767139651 
0.01401996352249772 
0.02348162101661843 
-0.00140494653537137 
-0.01886601926451637 
-0.009376451575958195 
-0.001951480594992224 
-0.007579069975334596 
-0.01493985345885201 
-0.004211239903639584 
0.007029757853903868 
-0.002578500128289055 
-0.001762522138310552 
-0.003452406396129848 
-0.005100513712144805 
-0.006278766613464958 
-0.002352316793746211 
6.532711087175403e-05 
-0.00367833004345935 
-0.002708612731052593 
0.01431001732270191 
0.001694810169556482 
0.004842610529239033 
0.005473647569370698 
-0.002914882376483067 
-0.001633632901663033 
0.004148974210545787 
-0.009701022418434672 
0.004537940592533487 
-0.00529355969705681 
0.006592110638023351 
-0.005650595677482041 
0.003887585242372718 
-0.001202085813693723 
0.02675500716318686 
0.002984851416785348 
0.01396418121851013 
-0.006353227739607939 
0.01099871451482508 
0.002024343499516752 
-0.01547055578882144 
-0.005940928543886052 
0.008288276120279414 
-0.002428669413146535 
0.003721751929674566 
-0.0007858594069253214 
-0.002500879137327624 
-0.000568227638066172 
-0.004185635808099984 
-0.001324427774940821 
-0.01026163139970715 
0.00103773074595326 
-0.004928017615422419 
-0.01030650590561696 
-0.001264119447639728 
-0.001847798867943756 
0.0001821681575680007 
-0.009917638286398456 
0.007777144917868214 
0.0005316020660201897 
0.004825657205069609 
-0.003586498643736625 
0.003008689180424146 
-0.007280542599730021 
0.00975612630111485 
-0.01246609587283705 
-0.009025922235532075 
-0.01014973410053988 
-0.0091220898563837 
0.001744288084537336 
-0.0175972815232727 
-0.009699117087635038 
0.00166859650041715 
-0.01104614032842055 
-0.0065084353502606 
0.005989463952986698 
0.002218850167115402 
-0.01224019027508536 
0.002895827041078753 
-0.002714875927187569 
-0.005215551773608333 
-0.0087736232916236 
-0.005462586870447815 
-0.01219875328092919 
-0.0002386157940044505 
-0.01024709988131752 
0.0153299451477069 
0.01221580499328531 
0.002102861484798838 
-0.001983692222454268 
-0.002056600506599794 
0.00497845675948669 
-0.004534335112991589 
-0.005572069595431597 
-0.0009595129198963872 
-0.013907561912737 
0.01236954983847124 
0.001034990478060373 
-0.004539471639184641 
0.005111192459206016 
-0.01980554086723837 
-0.003522954394389008 
-0.001604207418181782 
-0.005886231382493618 
-0.005614659757132265 
-0.006541842842290872 
-0.001688565056305277 
0.00271707140089573 
0.001088305148483442 
-0.0005396839732498716 
-0.005293916400740265 
-0.01634458566185188 
0.006205395681895196 
-0.01339249837387196 
0.003417033123062423 
-0.0006563972699413082 
0.004185671033940813 
0.01946350603246347 
0.0007217182943332576 
-0.008292661294616458 
0.006384856761035406 
-0.003339123276548735 
-0.001384226155317424 
-0.007187189408455965 
-0.001423674540910421 
-0.0002666806480906884 
-0.003165095127853609 
0.0009680976590655181 
0.002961072923618442 
-0.002268809101173554 
0.004231956516091889 
-0.0002151220181831917 
-0.0008279825415871592 
-0.0006397738977891095 
-0.008365914181088088 
-0.001252795187674939 
0.006107303363288536 
-0.001427216651856585 
-0.002336921036568205 
-0.01031972592526699 
-0.00309944064680825 
-0.007384954707960066 
-0.0009428933499977492 
-0.006509388410489052 
0.002713084505174296 
-0.01130066524017808 
-0.02258107013821381 
-0.003203595383596961 
-0.008437575631866701 
0.01242100658462704 
0.01208114419115271 
0.006770465958426936 
-0.01946059377167626 
-0.01482232370226159 
0.009272898944939384 
0.01299189324497438 
0.01615595347731301 
-0.008311783048304771 
0.006752408715246697 
0.007499742465746163 
0.03275283207546566 
-0.004695920954822203 
-0.005114488328148613 
-0.01403194727348814 
-0.01060915761385461 
0.003536448380973032 
0.001348610710546895 
-0.003019115161864723 
0.007710679043720383 
-0.05687804505677569 
0.01121805887041803 
0.03289919575725771 
-0.01390547600999469 
0.0002472826822475637 
-0.014798090980109 
-0.01014271987170449 
0.006225248061481197 
-0.0003157101893227799 
-0.01035290524343439 
0.03621955791740135 
0.004326489640780896 
0.01577585042525867 
0.02381057651878209 
0.004790822029772934 
0.01528761680952611 
-0.01350904270857594 
0.002349191069606157 
0.05807342724781956 
-0.004463589884791582 
-0.02151957957887547 
0.00257501643631293 
0.007399357811772217 
-1.315638760724694e-05 
0.005450651476256003 
-0.009941410836040989 
-9.91333483346117e-05 
0.002600005802938929 
0.005234460551501059 
0.009511484414314516 
0.006807066139595248 
-0.02663113240543126 
0.01419990243743502 
0.00442834110538062 
0.01360487099178778 
-0.04565306112658781 
-0.008004666496526373 
0.02224017295903943 
-0.02335286349061204 
-0.03654814082782297 
-0.0001992064076730963 
0.0146049812052754 
0.0008777016641109383 
-0.03470108543669487 
0.001940545628363012 
0.00267993026325281 
-0.003185386055489712 
-0.004416071498386864 
-0.01142824136566057 
0.01465836961868499 
-0.02014345339417927 
0.02287304200003741 
0.005754404620227726 
0.01589733279114287 
-0.003400076716793514 
0.02753745599253945 
0.005249258208430183 
0.01436835344183328 
-0.007759912980028673 
0.01473218134423927 
0.02441223714893184 
0.02059158450607986 
-0.0003531881178687441 
0.01807771935790057 
-0.0005283417373977098 
0.05395607525148332 
0.01910656232719776 
0.01858561797439014 
-0.01139123486792561 
0.02308926869034173 
0.03198439014897147 
-0.0116267625193013 
-0.006464924946020215 
0.03593735159813267 
-0.0012430349117295 
-0.01859667641422928 
0.006336011904140537 
0.008595054118557563 
0.0002395959269517422 
-0.002344597199049471 
-0.0158998671825711 
-0.01637936861817381 
0.006563261191868262 
-0.0002730256056432783 
-0.0119784643426569 
-0.004624951168255766 
-0.02821624197644702 
0.02865317972530558 
-0.003991173017356602 
0.02007925591941585 
-0.001189489950250838 
0.006752782053490012 
-0.0159204647851098 
0.01065479592726984 
-0.004747309824276913 
0.02372459277034604 
-0.01626121100426566 
0.004629051009656797 
-0.02153765919094612 
-0.02362195358681958 
0.01723020646875129 
-0.04654836692752374 
-0.02114707440852014 
0.0411588931965394 
-0.007936300549548225 
-0.01091979852478324 
-0.004953470750341948 
0.01059575178184206 
-0.01337096124120526 
0.004415821245615324 
-0.001585866418556139 
-0.02599307233641496 
-0.01875230104085435 
-0.005645756163184228 
-0.006397697127820822 
0.0326513376567092 
-0.02699705114719744 
0.003447443340234545 
0.03546877284782191 
0.009219149019735013 
-0.008866894523579536 
0.007293055825395661 
0.02778684902008364 
0.006218058416952481 
-0.01160009640157421 
-0.0007476118506660251 
-0.0242625810837185 
0.01451457592636274 
0.008585234749812482 
-0.01219900593019671 
0.01637472238328758 
-0.03472749480392222 
-0.0005632366366415142 
-0.01812072838726771 
-0.004179489949438272 
-0.001669151101226613 
-0.0258626567298417 
0.001344676382150794 
-0.01405352576756507 
-0.01287925960597321 
0.005159738431361215 
0.01196004473020613 
-0.01966496867272139 
0.01413645015776267 
-0.03011778366957926 
0.01628490632785901 
0.01044950743139705 
0.03108484448398909 
0.02795561842574901 
0.01164318437995882 
-0.01609214661904066 
-0.02295811342250355 
0.01519710468303953 
0.008551736369650655 
-0.00617107715665392 
0.005115041626461634 
-0.007056208908555663 
0.00118107576420497 
0.01370566213522739 
0.01003631814627739 
0.005040673934143544 
0.02886825579038737 
0.006417406704618536 
-0.01057964615691193 
0.003917481684081283 
-0.01286236843175221 
0.02441634661264465 
0.0153347737964149 
0.0008082245998406734 
0.01135395990848822 
-0.02701162482945521 
-0.001484393157616118 
-0.02023411512645158 
0.004680292909328323 
-0.01282358212524468 
0.01270519401872311 
-0.01920624010296705 
-0.03522859474376042 
-0.003959456391066987 
-0.006541346973744366 
0.004541940969153844 
0.00199406205209427 
-0.0007310473250778324 
0.0001521036407771893 
-0.001346210281997725 
-0.001475620730538265 
0.002088499780318418 
0.002685116515693694 
0.0002416757347067368 
0.001622886173107988 
-0.006805735490880441 
-0.001356816225698005 
-0.0001618094741806001 
-0.001411035125021262 
0.006634751623005001 
-0.007258280378142023 
0.0004864715587361863 
-0.0006669576391377629 
-0.0008748114902587555 
0.000451231616086469 
-0.02406218513913776 
-0.0002116104400375319 
0.001682771074894828 
-0.004389045411695655 
-0.0005519111014323642 
-0.006273390585010676 
-0.0004461168114559228 
-0.002303165134899054 
2.248733941617119e-05 
-0.004455168261793731 
-0.002786545876221398 
-0.0003275469733586769 
0.006053056651561205 
0.006663114152237876 
0.0006118953575223925 
-0.004865088786969308 
-0.005645735160864684 
0.002222045582273192 
0.003761904367436414 
0.005733832780680855 
-0.009502204249751085 
-0.003589397181468152 
-0.003624928703177546 
-0.0009059432781840938 
0.002429303150594513 
-0.007433473434686642 
0.003264926274673426 
0.002817912839422466 
0.005271685697470998 
0.002978333707945815 
-0.0006608470476077163 
-0.005572966515790099 
0.005504302949674917 
0.00671194087257574 
-0.0008429784005365886 
-0.012164468421048 
-0.002063894379177189 
-0.006686421052894269 
-0.006820956299014734 
-0.009329114029029367 
-0.002787646533790272 
0.003462399951252669 
-0.003084727275824747 
-0.007366856741546078 
-0.0001784343365271507 
-0.004174452315086129 
-0.004334662911653788 
-0.004245441166996447 
-0.0006948660406347975 
-0.005493754719586254 
-0.002270490393489777 
0.002948927901662125 
0.005398514546481732 
0.004462361450497263 
0.003900082964284899 
-0.00462779687594147 
-0.004853046243237991 
0.002739641412986487 
-0.001495129926118002 
0.002566761902630833 
-0.005068620683853934 
0.007794097030284006 
-0.0004552861546139159 
-0.002955720515827541 
-0.0009438390386448338 
0.01803332387407695 
0.001104756528156008 
0.005213891894007501 
-0.00339650789786817 
0.005901684003646003 
-0.000417181797606971 
-0.007011233099070252 
-0.003660281315266711 
-0.003066505160076404 
-0.0002840357633116216 
-0.0008057090454590012 
-0.003060696681940827 
-0.0007621044232643422 
0.0007470224738112205 
-0.001521147300363223 
-0.008283518798505774 
-0.003916270888656957 
-0.0002360337401465272 
-0.0005263673597235875 
-0.00737475408899798 
-0.001370105450059646 
-0.004115391732634057 
-0.005001983780916725 
-0.005935953449800505 
0.004078956937300538 
0.0007769492902004022 
0.005057159363954657 
-0.002255003796784359 
0.00204322701624369 
-0.00601659539580353 
0.007158282626877853 
-0.003087617640600605 
-0.006705787748991455 
-0.006711336400482403 
-0.006382868288902075 
-0.003107262602367828 
-0.009404155885806599 
-0.005272535064001204 
-0.003565267952186113 
-0.007045528076627486 
-0.001217264002363466 
0.001224498490488396 
0.002215053005197619 
-0.006334253944137645 
-0.0003447739691326737 
-0.00418413342225035 
-0.009979985416970188 
-0.005577575951485791 
-0.002544220504998205 
-0.006062003303183445 
-0.00370997225824407 
-0.007400032461145504 
0.00250040366812941 
0.007305527021729635 
-0.002842250189645399 
-0.001965326618773677 
0.00145079308052007 
0.007219444615211183 
0.0002697877868778321 
-0.002542125966472024 
0.001129199240410365 
-0.006511592184009055 
0.006869283989030932 
0.001693374483328197 
-0.001008031349960527 
-0.001431162454284249 
-0.008939401885937788 
-0.001187436301315629 
-0.001166742208017211 
0.001125684881865187 
8.74770441826767e-06 
-0.0006598923876433862 
0.0003309584681777251 
-0.003852915190782916 
-0.004731069566344502 
-0.003366201755182284 
-0.006469625006269416 
-0.008066596850072324 
0.005280241752232187 
-0.005751895169250743 
-0.001395017215315367 
0.001972446258780453 
-0.003738440831484255 
0.01253578576001467 
0.00313928716663539 
-0.006224089372043185 
-0.0007564555413022634 
-0.005194651764338266 
0.0007181125014251032 
-0.003429927345106015 
0.0002293899906334926 
0.0007292329801495745 
-0.0008935136205162993 
0.001384375535837544 
2.339794483117462e-05 
0.003179366345732603 
0.001495427565312959 
-0.001211682297545001 
-0.002939480238207274 
0.00125121538000624 
-0.008803892203421473 
-0.00192454425081769 
0.00488070868355493 
0.0003413714047418886 
-0.003075832263253604 
-0.006303930886407957 
-0.002278558752821801 
-0.005050171640440987 
-0.001027767735656567 
-0.005767638847748829 
-0.002777332342776643 
-0.008273993078220668 
-0.0114285013958376 
-0.002163669000187167 
-0.0003779662210236819 
0.006455824669186831 
0.01008870093055265 
0.005583743164196822 
-0.006316073038113095 
0.003340131751455259 
0.007011471262190885 
0.004709849170733893 
0.008748037154404746 
-0.005170244848794099 
0.005421778842563295 
0.00198726780710188 
0.01139198124519589 
0.005644047901419148 
-0.0004583624593384253 
-0.01389143813593474 
0.0008713810808981054 
0.002348420992673264 
-0.0002327924135808511 
0.000196257349594233 
0.002901321258393321 
-0.02991761423798939 
0.003724450653394425 
0.01116870181380617 
0.00394575145658262 
0.00137617080949018 
-0.003005050518952159 
-0.008330241164389266 
0.006246301060566397 
0.001477896635159032 
0.004471700377605359 
0.003671935961038795 
-0.0001485938261744489 
0.009035149313534104 
0.01005451993394337 
1.474875387619837e-05 
0.00430152410387611 
-0.002416316659960882 
0.003174261147094523 
0.01283308482286706 
-0.006827454489814434 
-0.008226945556564599 
0.003312340915154435 
0.002446102379705038 
-0.00290761540379199 
0.007104062311089734 
0.002111215671885621 
-0.007336509767374729 
0.004398545863758437 
0.001263053831844679 
0.00398691052315943 
0.004155709435587374 
-0.005467994354508824 
0.001500271583242797 
0.008273510456927745 
0.003257302270294149 
-0.01678535690125264 
0.000696572624850028 
0.004267106837332976 
0.005488640682177244 
-0.00031583049625767 
0.002645266576105267 
0.004859173234237213 
0.005190738011707051 
-0.02331253223608049 
0.002075315038950178 
0.00201655272668739 
0.001108672405040779 
0.002306659242007404 
0.0003261961059908696 
0.005239421758686639 
0.002415098949082562 
0.01412996270290942 
0.01069918932505633 
0.004966571542140077 
-0.004415734460731323 
0.004265772532994881 
0.004567344942634642 
0.005175710049459558 
-0.001460620679217035 
0.007819421393300665 
0.002595312791878386 
0.01158326783932454 
0.0003799050930629584 
0.009282141346888003 
-0.001027376052991635 
0.02265243725770969 
0.008790911559958561 
0.00431213566763608 
0.000435103183168285 
0.007784960536602215 
0.006043162047906891 
-0.004439298717791417 
0.003149857226834743 
0.01129361726113171 
-0.0007033535104761301 
0.007349627087625272 
0.004392318092910986 
0.005725508496453461 
0.002666949513748746 
0.002117200770784546 
-0.01336169990462208 
-0.004389862227251799 
0.00246708301247251 
-3.709591689304122e-05 
-0.004152374004553078 
0.002785880959895835 
-0.01992983078804544 
0.007116324222340428 
0.001518354175185552 
0.009618346450069815 
0.0006594693106175859 
0.003141094329404344 
0.0006035780596506205 
0.006055471690368189 
-0.003095860664370619 
0.009057675476902002 
0.001296402346659073 
0.001392892570587961 
0.002844523072377539 
-0.008993981231889428 
0.009466695372311635 
-0.01410741328633241 
-0.001626104905763695 
0.004977995690425847 
0.001668135435309134 
-0.00103422429762659 
-0.009199522498300127 
0.006920431005927943 
-0.001033378436744115 
0.002534428765832703 
0.00496357112747896 
-0.004065600122684906 
-2.556405858867358e-05 
0.00303017631472362 
-0.002149682211349547 
0.004169987672617671 
-0.002711669979522552 
-0.001180132879175681 
0.01287452984440613 
0.006771416004920709 
0.002803038095658563 
0.006266759223385312 
0.01240830807476027 
0.001492308619999863 
0.00131110638865012 
0.001107173536502118 
-0.001363099766598746 
0.007825823220240819 
0.003926870288641393 
-0.004138642769723063 
0.007503581412475565 
-0.008451960449901794 
-0.001280770755243266 
-0.005654502063622609 
0.00288598586115801 
-0.001710710489502073 
-0.0106410318487282 
0.004066105854142727 
0.004988274275929444 
0.00208267533288154 
0.003352224706034991 
0.004010977174853976 
-0.004477405742888681 
0.005542064291582339 
-0.006183394456811211 
0.005473456796447795 
0.006589709270645359 
0.009717575174665758 
0.009763811317981945 
0.009049212263666753 
0.002991716317898357 
-0.00984791980068251 
0.00547329312547726 
0.0039871776212468 
-0.001491366861938361 
0.004849653953789861 
-0.003038228597345068 
0.003814987339636947 
0.007751438579788675 
0.002696405266828273 
0.0004852874281155842 
0.009391948819273088 
0.001448451620076105 
-0.001781868039044973 
0.004617139470611744 
0.001807995853606057 
0.004142807660267537 
0.006545001476338076 
0.004818966649412743 
0.003628395168800986 
-0.01084573989073282 
0.001088467119146733 
0.002243030180231826 
0.002902801476231991 
-0.004817685599862248 
0.006168116471038354 
-0.01013301686773757 
-0.01051020786215284 
0.002052070355359311 
0 
0 
0 
0 
0 
0 
0 
0 
0 
0 
0 
0 
0 
0 
0 
0 
0 
0 
0 
0 
0 
0 
0 
0 
0 
0 
0 
0 
0 
0 
0 
0 
0 
0 
0 
0 
0 
0 
0 
0 
0 
0 
0 
0 
0 
0 
0 
0 
0 
0 
0 
0 
0 
0 
0 
0 
0 
0 
0 
0 
0 
0 
0 
0 
0 
0 
0 
0 
0 
0 
0 
0 
0 
0 
0 
0 
0 
0 
0 
0 
0 
0 
0 
0 
0 
0 
0 
0 
0 
0 
0 
0 
0 
0 
0 
0 
0 
0 
0 
0 
0 
0 
0 
0 
0 
0 
0 
0 
0 
0 
0 
0 
0 
0 
0 
0 
0 
0 
0 
0 
0 
0 
0 
0 
0 
0 
0 
0 
0 
0 
0 
0 
0 
0 
0 
0 
0 
0 
0 
0 
0 
0 
0 
0 
0 
0 
0 
0 
0 
0 
0 
0 
0 
0 
0 
0 
0 
0 
0 
0 
0 
0 
0 
0 
0 
0 
0 
0 
0 
0 
0 
0 
0 
0 
0 
0 
0 
0 
0 
0 
0 
0 
0 
0 
0 
0 
0 
0 
0 
0 
0 
0 
0 
0 
0 
0 
0 
0 
0 
0 
0.0002712125556476493 
-0.0002278188000906553 
0.002963279791232545 
0.001541203990592181 
8.057441493916166e-05 
-0.0005257845260685959 
-0.001758731956900251 
0.0002471566487629074 
0.001433943668393504 
-0.006763345078495421 
-0.001957487673683148 
-0.001722416328052806 
-0.0007031142040469942 
0.001272550029179126 
-0.0004834092451234537 
0.0007970163792709289 
0.0006763475173334997 
0.001937848612335739 
0.001351556729624112 
-0.0006128072841572422 
-0.001109885412181577 
0.001029657347216487 
0.0003409922919850741 
-0.000460917175727628 
0.005771326679608978 
-0.002123968785237011 
-0.001468845546499721 
-0.003013092218558813 
0.001424492874871898 
0.001559550736518616 
-0.002560491435297628 
0.00367493164020172 
2.873476187131032e-05 
-0.000652464899282243 
-0.0009152121597721804 
-0.001320545056528081 
0.001914195250920816 
0.002618512881023587 
0.001402975516841643 
-0.00132929270744912 
0.003920534602726843 
-0.0001420812779412564 
0.0003852321007226555 
0.0002687545509961555 
0.0008654626821775254 
-0.0002750513938485216 
0.001264421407705468 
0.001210988398750764 
0.003608919523881193 
0.001199312478285164 
0.001576457535265931 
0.0008284454618652469 
-0.0003823344527465643 
0.0007089220172260944 
-0.0002099164375631838 
0.0008527689421827127 
0.001202213395526318 
-0.003506055374809145 
0.000798216550620113 
-0.001379023570559417 
0.0009698078602532926 
-0.0001702837512481429 
0.007777833848916517 
-0.008397438312386065 
-0.0002440022068084817 
0.0022950013736159 
0.002146104292398797 
-0.007043294349171971 
0.0003476924916233385 
0.001437429140957863 
0.001015808676377409 
-0.007568135645743781 
7.888893835396467e-05 
0.001326015087362717 
-0.001296802912515062 
0.0004993719313011192 
-0.0009946086492656932 
-1.351913576201574e-05 
0.0004198524960684412 
0.001668200021052944 
0.004425061167153751 
0.0009320281745571463 
0.005209066062446726 
-0.0009834265772712212 
-0.004592844416307691 
0.002027946030212389 
-0.000395672224006239 
0.00259417557870073 
0.0004695351010557924 
-0.001147278426312913 
0.003668166776769718 
-0.0005817688539526837 
-0.002205599865877053 
-0.008384032657276263 
-0.001438514707212433 
-0.003288115019840812 
-0.001349404928363143 
-0.0006802345542978348 
0.0009836531173627202 
0.0007623659664476805 
-0.00284230955866954 
0.0008997118484232238 
0.003443346482796761 
0.001761376218237792 
0.001701789459918461 
0.001115689800964519 
0.0008712595023643362 
0.0005130839897745723 
0.001650624995138076 
-0.001698677134289792 
0.0007077993698713811 
0.003397471622469982 
-0.007086694994603719 
-0.00557664232687227 
0.0004701200947908015 
0.0008785407044610402 
0.001756381818735126 
-0.0006355812270579967 
-0.00148354384178341 
-0.00277597702112072 
0.001124515345612603 
2.201786247535039e-05 
-0.004290055632350758 
0.002056045195934837 
0.005384364300459817 
0.0003084107562301604 
-0.0003622273087866495 
0.001254052467444005 
0.001493193205805675 
0.002407851399029198 
-0.005566335523245678 
-0.001870413837678392 
-0.0009013098182250179 
0.0008013524924131948 
0.002511114508928033 
-0.0002652085861871626 
0.001202534578034456 
-0.005926183618654622 
-0.0001397328920678788 
-0.002286313840603374 
0.0004826592839925702 
-0.003837512933415006 
0.0005945569651697212 
0.002022367487093215 
0.001054220876213272 
-0.003055726696925973 
-0.001503312527748526 
0.0003724980410705036 
-0.00264507626764751 
-0.001699326776406922 
-0.0007572956955341682 
-0.0002253221708399965 
0.001877087565410318 
-0.0003230315991603542 
-0.0008530997732053376 
0.002013351883909091 
0.007422852382739961 
-0.001323911763146018 
0.001200832610583235 
-0.001036852059490414 
0.001406583352235939 
-0.002547128799066186 
-0.00569201695973265 
0.0009077397335669659 
0.0009686264301213345 
0.001350720517254848 
0.0006314725109328018 
0.003261910783082083 
0.001969489689536301 
0.002877639064696717 
0.001318873320684996 
0.001455702325785607 
-0.003503098799742934 
0.002579756413211287 
-0.004374104514482586 
0.0009307342073573056 
0.000537606316316515 
0.005491416454492358 
0.001841532959583625 
0.00491262460663157 
0.0011566874266077 
0.00100541388665104 
0.0007448091072336517 
0.001782459734210482 
-0.0002074743832111211 
0.002059752021602013 
-3.006509039552197e-05 
0.0005268792204275774 
0.005500163081280265 
0.0008795518462231402 
-0.0001542938363207385 
-0.0002399930834499543 
0.001728926398422971 
-9.289640274604341e-05 
0.001266050730303434 
0.01438569575234125 
0.000254897797971229 
-2.076330775181782e-05 
-0.0009590971961272886 
0.0006772681515242994 
-0.002341212015321871 
-0.003695394109685645 
-0.0004237597093957538 
0.0001309201250578721 
0.002034057922182812 
-0.002016131422339544 
-0.003110899164881022 
-0.001705050197937025 
0.0004954302878170297 
-0.004642880397611081 
-0.002285821608444734 
-0.001200809593059688 
-0.002295176369703188 
0.001040268921055443 
-0.0002057740027578466 
-0.0007797739887092113 
-0.0002269976512048043 
0.00234238264161535 
0.0003540956701659726 
0.0006370519424692096 
-0.0004069653782419732 
-0.0005490620392131748 
0.001518140464765746 
-0.004075222610764803 
0.004077842750165771 
-0.003919034481007801 
-0.001124736206764247 
-0.0008538223969901643 
0.002487373036432296 
-0.0003710772166976838 
-0.001120959188709565 
-0.002809240454156048 
0.002178783235708776 
-0.001448447156160834 
-0.0007724546824741684 
-0.002999588251876092 
0.002015738082468771 
-0.001205968797469963 
0.0006091033995843332 
-0.002035424670016659 
0.004569311353021224 
0.001143918084942339 
-0.0004748660982194267 
0.0004902254214724198 
0.0007810708783006637 
-0.0002393917170919405 
-0.0002559365102943873 
0.001487919121279193 
0.002133335844409217 
-0.0002714900408830153 
-0.002770298243544545 
0.0002546759495430332 
0.002466651271966443 
-9.462655819866531e-05 
-0.000850580118986803 
0.0002258905390727304 
0.001171605714257747 
-0.002270086356987886 
-0.0002484155382654204 
-0.003160283908323428 
0.0002035069869023409 
-0.001170596045491598 
0.0008905804133776358 
-0.007791380826634406 
0.0003520103148718425 
0.0007777540562540492 
0.002912144742535267 
-0.005751454180978289 
0.000430848680531165 
0.000530380223739847 
0.00134959633399473 
-0.004983446666704266 
-0.002571067883435571 
0.004824791719243954 
-0.000567287269505232 
0.001833389125063849 
-0.00115564214847814 
0.0011213293255111 
-0.0002720553142289987 
-0.0003668022173588636 
0.004296709188226057 
0.0005730327394609011 
0.002222136368070414 
-0.001044414467441029 
-0.001154643406930878 
0.002765632158478954 
-0.002431620984571203 
-0.000206986524528833 
-0.0001706128951699556 
0.0004126058826670585 
-0.0008168826340801496 
-0.0006535034329267214 
0.002099801585072594 
-0.01313524697798799 
-0.003273393514472405 
-0.005492754164265301 
-0.003155735299691297 
-0.001039164748808933 
-0.00350790570818552 
0.000830297276140145 
-0.0005271407157232007 
0.00120546335376532 
0.003693565670327748 
0.0001573493775364983 
0.0017711039514024 
0.0006401260795021308 
1.659051379702626e-05 
0.000526140768507588 
0.001723151316374668 
-0.003004756116210844 
0.00163926130619401 
0.002061020270644232 
-0.0008657798740815409 
-0.007827059724693889 
0.003019985120016471 
0.002383836874647628 
0.001719885604111933 
-0.0006009563027738573 
-0.002545639646268345 
-0.001991461729365721 
0.0008843397987913026 
8.698561396921743e-05 
-0.004570235709926484 
0.0004440895024772995 
0.00178537189432337 
-0.00144824914978127 
0.002928760562062056 
0.0008433365477264842 
0.0004977134802365188 
-0.001920055640196538 
-0.004115355582432726 
-0.001334026296764822 
-0.00312777154893418 
0.0002310692453049982 
-0.001064342726251666 
-0.0008368130450516746 
0.001263624808432548 
-0.00411009817523094 
-0.001994124251235003 
-0.00195226095438006 
0.001229632176080099 
-0.005726506461302385 
-0.002206943267902376 
0.001679973579622478 
0.003953168172878112 
-0.004178946563092799 
-2.135637574708199e-06 
-7.736198327865192e-05 
-0.00213292255191702 
-0.005263144776390685 
-0.0002278669749066624 
0.001330095744454384 
0.001073920405529806 
-0.0004658971743221083 
-0.001582881795163077 
0.001874310266291893 
0.006226648863719656 
-0.0007916201847775334 
0.0005576337530295485 
-0.003404622140501066 
0.002245506622721139 
-0.002428804606236832 
-0.005965962637639728 
-0.0005573692905377196 
-0.000254893972414307 
0.001186239891865505 
0.002046676009662947 
0.0006837193067971685 
0.001196480128569449 
0.001518587913484542 
0.001156750376764211 
-0.0002764706793692818 
-0.0009297139020774891 
0.001646358810254339 
0.0008144743576429509 
-0.0009911295371383365 
0.0002516726954874256 
-0.002565923056101376 
-0.003300438282683798 
0.003710739253706604 
0.0002511107870005263 
6.289612529056613e-05 
0.001298682032401583 
0.002108329084239608 
-0.0006067499311304567 
0.000279784492168053 
-0.0008643286831758194 
0.0005939867664864871 
0.004656069890645505 
0.001090580594067882 
-0.002820692706523454 
-0.002965112272179035 
-0.0009396279406793976 
-7.902592538024372e-05 
-0.000556299077090615 
0.01309622312533374 
-0.0005141020595643726 
0.001247224056599614 
0.001016440201446383 
0.001234595792550344 
0.004551836527216998 
0.002107095509572035 
0.00671487220997851 
0.00207677255754691 
0.002181968514921995 
-0.0006043885218138717 
0.0009068957368263116 
0.002572529279054788 
0.004899326421404534 
0.002470827967066792 
0.000101683695660222 
-0.001544053915613414 
0.000463731574853709 
0.001871634749333465 
0.0002297779414567016 
0.002965129345185624 
0.002186792042134713 
-0.0007070426385858818 
0.003341626548345864 
0.003531759372229204 
0.001656333415342871 
0.0002644835513143488 
0.0001328089310225665 
0.006510266796467098 
0.01555873683348785 
0.001143081131714044 
-0.0001774211170965329 
0.0001244353111950407 
0.004560007064408088 
0.004074048552757488 
-0.001171847454933661 
0.01306461944429691 
-0.005003664424009587 
-0.0008719157480197701 
0.01257750670556708 
-0.002749544658722183 
0.002989724518864044 
0.005779605735898541 
0.003893661480507719 
0.004423824845369652 
0.003140000401961684 
0.007182506972693904 
0.005317916758252416 
0.00139267315832271 
0.002762849378722264 
0.0002158926793807524 
0.00435370718598352 
0.002016607122617999 
0.00689473615034477 
-0.001710936111863029 
-0.0009026484575693248 
0.003015826085977561 
-0.002505952314200509 
0.003650977932552983 
-0.001636632440698384 
0.002031486414573451 
0.005718808311284399 
0.001097891242844213 
0.004845426110851313 
0.001115385648652031 
0.00226147587630026 
0.005916907887128824 
0.01376352255571143 
0.001213244485070575 
4.113145657256717e-06 
0.002370355399284966 
0.001562612484858744 
-0.0008110537241276394 
0.0005241580550461169 
0.0008461720155151283 
-0.0003555055274511846 
0.001826283378893842 
0.002531244836075802 
0.009886460710546982 
-0.001669844670841373 
0.003710508770622028 
-0.0002578613999851638 
0.007903453401646703 
-0.0004692583894138843 
0.003685953072001296 
0.0116389948846889 
0.001989298178938947 
0.009054449402525339 
-0.0005234238635614173 
-0.004814476725631178 
0.006704505529094933 
-0.0007787568089806218 
0.005909556877585227 
0.002325657115710927 
-0.004830118934813694 
-0.0009293036103495463 
-7.989688992011488e-05 
0.005030510678370088 
0.003410515047082169 
-0.001204797265576166 
-0.002721011464279944 
-0.0003620161301062569 
0.001167250141681744 
0.001178599783800783 
0.0005061012572722621 
0.002653509136324108 
0.003936466873209724 
0.001306922999251671 
0.001131136713166131 
0.002224925362837812 
0.003479182673774552 
-0.003109651071840527 
0.001167448522142007 
0.003918797511123842 
-0.0002015707755552869 
-0.0008624720564356614 
0.002096689166928412 
0.006740277259229174 
0.004923794289959562 
-0.00438855942642067 
0.004120065342255101 
0.003701990301529851 
0.002125763296284886 
-0.00194304623038477 
0.007021056386431072 
0.001688970899800134 
0.004000328365673561 
0.006224294975938642 
0.005234621772325385 
0.007299947189628604 
0.001303061740291107 
-0.004403257826253924 
0.003767583723561982 
0.005804390154552552 
0.01152872925738145 
0.0004795910379061361 
-0.003690794310321788 
0.003732961477414485 
0.001579186078635587 
-0.003353875808187059 
-0.001326716458507336 
0.006585772543066656 
-0.005447218816164273 
-0.001907561619163277 
0.001860039160537475 
-0.0007826051526691696 
0.002855180108130509 
0.001533325912942242 
0.002317305926177235 
7.682830881282987e-05 
0.007987460728956626 
-0.002932340695576203 
0.000799293002338371 
0.0005238052614060012 
0.003787491743625275 
-0.001781016514289508 
-0.002520125590553341 
0.00490882258103016 
-0.0003527346689132773 
0.0005819566283548403 
0.009194723718250929 
0.01079417874005225 
0.001478634811572631 
0.002281738869443163 
-0.002128048341773853 
0.004782162053002134 
-0.00419717194727424 
0.004010867111821841 
0.004035096634630456 
0.0004411627326928511 
0.00165178799400108 
-0.003393805542427567 
0.006900192689654565 
0.0002893258957547032 
0.006003330188630922 
0.001430077683115466 
0.002560573896821963 
-0.002507677041172392 
0.003054745043511272 
0.002683590981112195 
0.0001385896438193177 
0.0004881133129708859 
0.003697809505900849 
0.01182630999131295 
0.008479041188679043 
0.001737977398077436 
0.001270691953002729 
0.002551577621922802 
0.003206200140475879 
-0.0004624033636492348 
0.002741272100724374 
0.001060438508602176 
0.000397192831984841 
0.01157705298570536 
0.0004152174140413436 
0.001389912618912848 
0.001223227250361344 
-0.001858070924251073 
0.001791399831916329 
0.0001217320002662643 
0.02405239017322492 
0.003051053870088008 
0.00461401320020082 
0.008083795336368937 
0.002193508492304119 
-0.002333543956433759 
-0.02589040752319255 
0.01087634750833828 
0.008432077533698755 
0.01968712985680935 
-0.002610743924544019 
-0.01185095884666284 
0.002702966817575905 
0.01012396948663443 
-0.0141038567127327 
-0.006032110202874499 
-0.01164135898741181 
-0.007291202784011235 
0.006140540803869982 
-0.002312991572192902 
-0.004605747538877852 
0.006731902184426412 
0.009579786368824514 
0.008999865232826981 
0.006514989934065162 
0.003132291335016703 
-0.00342249061305935 
-0.0003253857226966709 
0.002963353650699879 
0.03666186131038267 
-0.007689703814770845 
-0.004475878879767864 
-6.537724894092089e-06 
0.008553770955905789 
0.007365273937662901 
-0.01660430423325557 
0.01728178218866027 
0.004304934978419907 
-0.005305441226775713 
0.01231005339775324 
0.0006544727169615493 
0.002011466513418358 
-0.0001242203334785718 
0.007052582667620134 
0.001353222447772274 
0.02346819793117068 
0.01918511879774756 
0.007865070295032649 
0.0004608541042082665 
0.006926410956941131 
0.0001607149883851757 
0.005076972367623839 
0.009706457006600472 
0.01554258887554422 
0.003018572606183535 
-0.008919448146006884 
0.006218382258870623 
0.002210103894032766 
0.004700814908208853 
-0.01417931554711877 
-0.002617625469568907 
0.01063647313592422 
-0.000681370668705946 
0.0001536435020975171 
-0.006845269677970446 
0.00614680805954968 
0.01334789665538757 
0.02881476090085698 
-0.02683695363237999 
0.003836896119889843 
0.008179575597128513 
0.003759067664991379 
-0.02602657083698674 
0.0004581714593183447 
-5.326141267140866e-05 
0.01042735633302865 
-0.01867138473982501 
-0.01057884931523888 
0.0300264574798565 
-0.004579579911837961 
0.01102148032265203 
0.001348544203679406 
0.01405351077989338 
0.0005137173300413536 
0.01106901456803356 
0.0400456693742442 
0.002774086137937523 
0.02652830716030017 
-0.01393324153230894 
-0.01616608367112052 
0.02038546765709311 
-0.01082204908680149 
-0.01395431687825354 
0.002220946559813509 
-0.008426316503009066 
9.097056815557041e-05 
-0.00251786316184151 
0.01244240052809543 
-0.04079366548248388 
-0.009705889946598104 
-0.02027341637475956 
-0.009964332093550039 
-0.005405987508756306 
-0.0112181413258686 
-0.01057497069774527 
0.006695398442523651 
0.009661997274076533 
0.01581143388625363 
0.004985241224870089 
0.00689607068352959 
0.009217863292466964 
-0.004821230852502612 
0.003600777976893392 
0.0009120025335911012 
-0.01232659504027947 
0.009427875441416329 
0.006663765256550993 
0.008509160920097923 
-0.01219618321895373 
0.007408984073643889 
0.01555027820118251 
0.01313325959685241 
0.001999847383820614 
-0.009926950476565149 
-0.02049942811549317 
0.003903799703171292 
0.004791993186112905 
-0.004147407394982111 
0.01360469809252004 
0.01969755500706643 
-0.0009366241535954448 
0.004500449273734749 
0.01134474550512508 
0.01529810230951114 
0.01344786743108382 
-0.00724933347757284 
-0.0125046444110358 
0.004964290231520244 
0.00564025387467947 
-0.009559904944576697 
-0.001934008918281673 
0.01179576854490709 
-0.02450352566238437 
-0.007922257057663834 
0.0003274206135168159 
0.001042717212552016 
-0.00297527864426171 
-0.008651501651227633 
0.001432463805019535 
0.01277219638547014 
0.003763716733853943 
-0.005244707887869552 
-0.001622880757025867 
-0.006614560706090113 
0.001540590818975713 
-0.006733897546549158 
2.898183669240771e-05 
0.01578566374212014 
-0.003246808984569978 
-0.0004254929209988907 
0.02028475407842811 
0.03936532319088869 
-8.547685347137164e-05 
0.005617637121354437 
-0.009833102558432184 
0.006510752519038989 
-0.01930700125943184 
-0.0258607364239466 
0.005901410629519432 
-0.001972657952555296 
0.003065505480511995 
0.002961041023358283 
0.02037321138145689 
-0.00448945307218179 
0.01599828908572992 
0.002246345083469725 
0.001633907259479816 
-0.01013342580434413 
0.004484816784519279 
-0.002227463962425607 
0.001981484742294646 
-0.006622068857770319 
-0.02326530055796054 
-0.004889841893642636 
0.02746367946776817 
0.005966936812756071 
0.003216391599119134 
0.0003840929278809341 
0.01018249992310449 
-0.008144059008298843 
0.004092116466132187 
-0.002889319719084501 
0.002529100136421795 
0.03306980887438277 
0.001029606924238073 
-0.00571138471212287 
-0.007219732819905358 
-0.006871747476819545 
0.003719701034849444 
-0.003969468815112913 
0.07771205554556571 
0.005394181702627563 
0.004645921375970453 
0.01458364660371272 
0.005815524383043454 
-0.001184106382283385 
-0.02405648245382468 
0.006631268666146303 
0.007049761440370902 
0.01387352140132198 
-0.003938272553433117 
-0.007594110722637321 
-0.001570085916091235 
0.003199648070995818 
0.00415866402795623 
-0.003952099353223795 
-0.003291841104858988 
-0.002444105637028291 
0.00298997743641297 
0.001015355959920304 
-0.003394591106500979 
0.00131531122999257 
0.006611492084348991 
0.004194113654113988 
0.003026071297752807 
0.0003817945207860272 
-0.002057973501270247 
0.004708357671698886 
0.0008459367899456768 
0.0201230465146885 
-0.006238351968447135 
-0.0001953757459672382 
0.009701258174637217 
0.008914498729163731 
0.004782653844387164 
-1.771382592558126e-05 
0.01208999315382905 
0.00395263758935219 
-0.00452459567576029 
0.00341544485999473 
0.0113934352018032 
0.0007862459148039562 
0.005204478326554051 
0.002607245569961421 
0.008652401671686169 
0.01255050531749727 
0.01665560969055233 
0.001357148523555156 
-3.317218889064037e-05 
0.004215767191302241 
0.002029294245714324 
0.003415221310496179 
0.006828701669515373 
0.01411742604229986 
0.001227234460925428 
-0.006054531722593771 
0.005501312847952651 
0.001562628547229156 
0.005446067579739671 
-0.004062002052928529 
0.002939468627172845 
0.00386993728915081 
-0.001945000839815336 
0.0002079684628792198 
-0.008592795002250724 
0.00594916329998313 
0.00583433476493275 
0.0082180875282401 
-0.008701422061877044 
0.0004363249036158511 
0.004588257844315875 
