solver_type L2R_L2LOSS_SVC_DUAL
nr_class 3
label 1 2 3
nr_feature 90001
bias -1
w
0.04809587767256902 -0.04420328193658743 -0.008614676971579657 
-0.06224267075738475 0.0680209298332194 0.00592891605264204 
0.03658166016868693 -0.02328860673226316 -0.02047464629514138 
0.05134417827176033 -0.03731739013612415 -0.02398230504403808 
0.09836548258812088 -0.03774782953054078 -0.08160974388556647 
0.001890374169710954 0.004027272154666952 -0.008739366304196795 
-0.02225872079686065 0.03447854932058857 -0.009550813092282917 
0.02337384235693875 -0.00920035095858251 -0.02055227450744876 
0.06268242880315394 -0.0178667098030042 -0.0529319194236686 
0.01094118405200676 -0.06233901712956853 0.04248205839067774 
-0.01167474864278886 0.01573864918914361 -0.004126897858490325 
-0.01677228188714402 0.01812492611393222 -0.0005995108441094617 
-0.001577336459462092 -0.0008042001331498681 0.002181439637404575 
0.02076837088500003 -0.01246209940927753 -0.01065988242122992 
-1.924525150974865e-05 0.0006588634544675754 -0.001872070204122736 
-0.003019325536510463 0.01807030294807756 -0.01296804871210441 
0.01607673320484564 0.00688762486726506 -0.03100068166380153 
0.04798778645247095 -0.04142316271050095 -0.01596121821389099 
0.02167560203695254 -0.0065498707365345 -0.02176549346327082 
0.03894500429485224 -0.02404229009010237 -0.01788785777598387 
0.03390538816014903 -0.05384601377572221 0.01287240617642011 
0.003802965889200305 0.00310530000581964 -0.009550760088239393 
0.01638021387399751 -0.01493302796549659 -0.001732528383539135 
0.05597810297289246 -0.0117714259397859 -0.05466856529298655 
0.1392343975714953 -0.1122429102157667 -0.04289534608267145 
0.01132131948970419 -0.03613625556514006 0.02025408144933204 
-0.003890419395488949 0.02179793725305241 -0.01994510342698613 
0.0750194542837424 -0.04179980392094194 -0.04323331014298571 
0.02562642161213176 -0.003962803045093414 -0.02769789938971645 
0.02720536861127704 -0.01420208844430608 -0.01885840650268595 
0.02040315084868261 0.06269540916626674 -0.09066940408642198 
0.08113606182878354 -0.06258494161677031 -0.03486686522127171 
0.03541935900164467 -0.03060258477254108 -0.0101374665548412 
0.007799783436585488 -0.016978122455845 0.008764264887660703 
0.07240106123386106 -0.02222570778972872 -0.05513469058723213 
0.02377494082984944 -0.01973445451362276 -0.005864917691089196 
-0.003952619804680657 0.02167643679194463 -0.01939671134028993 
0.04608275792149709 0.0007147876081018621 -0.05363117779472017 
0.02838432360862802 0.005829863833470237 -0.04018791887190053 
0.04821829731773316 0.004880573121958091 -0.06429419986807344 
0.07199947718429284 -0.06534865654228837 -0.02184547362544316 
0.09262514219501665 -0.01596419729572137 -0.0887183031114829 
0.02300370457410565 0.009642102703956733 -0.04129235689527664 
0.001623867713306606 0.003813852837767422 -0.006725962787144361 
0.03067317559128578 -0.02085302635743439 -0.01290902431008321 
0.01388797652055605 -0.01214399819856031 -0.003625577251112266 
0.01371637732266749 -0.0006626471146210079 -0.01539548469528071 
0.02882106106701445 -0.02227720678294343 -0.01105868146675009 
0.05772978529182871 -0.02990388989704507 -0.03533298269742652 
0.02194099252111133 -0.03997257086550544 0.0119949533900474 
0.006528391914692656 -0.02331398578209134 0.01501732167393859 
0.01634135916567669 -0.00106614056753391 -0.01777744053795707 
0.02911210711343115 -0.01247376101446484 -0.02166185301754733 
0.03061974292656316 -0.01634303614733958 -0.01954275217974303 
-0.01435657340888838 0.01543257956552713 -0.005758645959087383 
0.009529651987450373 0.006114455531700959 -0.01576935897705877 
0.0299481541027265 -0.01530354854234024 -0.01906099298233349 
0.04712753416322418 -0.02352214628219645 -0.02901354216235288 
0.01528058969877376 -0.006065395325954819 -0.01403006885609405 
0.006895761180168037 -0.02392453066888121 0.01486746430498994 
0.0373657734974628 -0.02886562443832337 -0.01394773961698666 
0.062719562226178 -0.02555331533188445 -0.05103664638712985 
0.101367487543601 -0.05510771543597105 -0.05788551005137101 
-0.0481756104185293 0.01146580207884153 0.03130884480975295 
-0.000164899404877907 0.01255814576237817 -0.01818262196415665 
0.07150028200293211 -0.04539189549296174 -0.03304060478511999 
0.02481100938055242 -0.02234289591750111 -0.006626351249723259 
-0.03944635389012895 0.03076350176294937 0.01057054377337068 
-0.0005599881752133199 0.007713026473702833 -0.009507947619672065 
0.00185183446462161 0.01171155471923871 -0.01682681122433252 
0.04095076668975185 -0.02859309756764619 -0.01801882757056482 
0.002861784454098209 0.0578676378785636 -0.07017816685072975 
-0.01028379984921519 0.0150553786961975 -0.001588699727578737 
0.1114978428064028 -0.04639697803944721 -0.08282392181565211 
0.009229970023283513 0.003275050363244643 -0.01300892058224097 
0.07153964259494354 -0.02481793483416023 -0.05249003384773424 
0.02183936146063772 -0.01821708548843236 -0.005528638545310788 
0.08832902186843754 -0.05679417727988111 -0.04713064212418782 
0.01324316628752382 -0.01138508258631599 -0.003458353506133354 
0.05069964276348408 -0.02549068737519341 -0.03529708475536636 
0.09739062123567746 -0.06459759979960462 -0.04206728392516778 
0.007728098433310627 0.009298552129990617 -0.02120491233807065 
0.08940429805471334 -0.06545387741440491 -0.04023265755378146 
-0.01987608458989513 0.0287746447627182 -0.008368279212791254 
-0.01963384933807422 0.01862246505866486 -0.002045025964226615 
0.08060659411048524 -0.04817706668078696 -0.04509622995341259 
-0.004930474457614741 0.001892926327944657 0.003377728424375294 
-0.01151061253903696 0.08143003838876214 -0.07440637607262085 
0.01372840463325073 -0.01854705208249638 0.004782227644801481 
0.006377586724977881 -0.0004912894030034693 -0.007245714538230457 
0.0270851644638175 -0.02731302865102477 -0.007226762213602927 
-0.00636973131384175 0.0134808955874635 -0.009669937652119679 
0.05189004816303638 -0.01644512623003291 -0.04788021286884103 
-0.065199400515047 0.02696327137997544 0.04434182732570732 
-0.009304061327065889 0.0130439056166099 -0.002192549616175149 
-0.04280885621821062 0.02938223064743472 0.01660766970255132 
-0.002704654644996242 -0.0301492624616331 0.03026076247916836 
-0.01375474612944809 0.0250965048315149 -0.009475869553552811 
-0.00220036304054336 -0.01108905664928705 0.009794489580662901 
0.009352567870622854 0.001106352426345529 -0.002531336492027966 
0.08577275453413606 -0.05251911677382695 -0.0385864113041774 
0.02613191832741991 -0.01190627811792942 -0.01920160805556604 
0.05793836970635843 -0.04200339990002851 -0.02686317785172454 
0.02855041933182667 0.000341683305631608 -0.03371244304831578 
0.03705800609754639 -0.01192297856414854 -0.0287364450231932 
0.02871464319919621 -0.01026606330715805 -0.02408318234575 
0.004400233045217066 -0.007570268060090844 0.001433955477756339 
0.0269999664668253 -0.01224719907174844 -0.0163499927076314 
0.05209522556984929 -0.0505721851056905 -0.00784087517280835 
-0.01849912954157917 0.02802007918198145 -0.00446120269068583 
0.04252235606844047 -0.03290953987048729 -0.01629918035331509 
0.01286527854151834 -0.002027184579760697 -0.01277561774366004 
0.1124311843108694 -0.1048603733655922 -0.0246664217145046 
-0.0228996631991273 0.02878725288975969 -0.005708892075975237 
0.04192182744669959 -0.0373939646463892 -0.01094973680276453 
0.06652173546823828 -0.04104363135276271 -0.03620964334881848 
0.03424158657028459 -0.0193236446326726 -0.0230490991580002 
0.01934552952074127 -0.0161034110422811 -0.008194947828477973 
0.01300075282729632 -0.02468327619665628 0.007189182149224965 
-0.00638525807249553 0.01066261252404962 -0.001270990445451354 
-0.0008655971832291433 0.00952863272583666 -0.009998212372783572 
0.02195983534051223 -0.01559408507768606 -0.0137754348033365 
0.002959974307894329 0.01000248810280919 -0.007502938415974253 
0.0720091132871417 -0.0428329450166981 -0.04076582214046511 
0.1143017576101082 -0.05601676907996823 -0.07014632527755761 
0.002016079344730806 0.003541488979628951 -0.00709060632241778 
0.03551169411179935 -0.03258042618461347 -0.007370457592476595 
0.03550936536492749 -0.02873936247295967 -0.009954982693304219 
0.0475547880679886 -0.02397394263419236 -0.03857954969867958 
0.07268385867019864 -0.04440250031037116 -0.03545315835691334 
0.06756651315703488 -0.08843149816657488 0.008515351877052647 
0.008620734403612728 0.02570213083979097 -0.0419903269076599 
0.05333489084229798 -0.02696578111494283 -0.03650628497271807 
0.03031641466880771 -0.02369556702970216 -0.0101204887232995 
0.05917372545567087 0.007730584778434463 -0.07516789791481526 
0.01088385051373536 -0.004305690504292381 -0.005867462814081537 
0.05966006992171297 -0.05555082506056592 -0.01547286782612894 
-0.04316809983044623 0.04634356235757472 -0.003897987516183214 
-0.01115641120410442 0.004364862398126314 0.006122614482354746 
0.007171000447159974 -0.006441497826441652 -0.001008342728332959 
0.0310047692101773 -0.02280855576268177 -0.01155812230474555 
0.02360498631237846 -0.03668673237161291 0.00655799145238573 
0.02757148125121185 -0.006908304273366512 -0.02728236194730256 
-0.006515170404623974 0.01795712900303844 -0.01375784234807724 
0.05275142392926783 -0.05139854330763421 -0.009909976098171895 
0.06113924449683316 -0.02753774107322134 -0.04308626455686392 
0.012900261962851 -0.006853663668264757 -0.01016352467174755 
-0.00372283797039674 0.01787278682199218 -0.01370392979123368 
-0.0009619879485523461 0.01053893801776558 -0.01264850480631541 
0.06753717774525234 -0.01018027505780649 -0.06519119978640273 
-0.001437228770581467 0.006582138185871263 -0.006688332021134883 
0.02748855736522252 -0.02180688451261608 -0.008723031541847859 
0.05998965723211788 -0.04475015279876588 -0.02725267099333197 
-0.004987053185795953 0.01020529453442869 -0.005410805642787761 
0.03751499970243865 -0.03816820040794864 -0.004031095700341649 
0.08552561252614445 -0.04525681503484453 -0.05466010921037565 
0.09038118873444154 -0.05943866270923707 -0.03942278636981131 
-0.008207578948465945 0.01879467174152594 -0.01117186090591157 
0.03110220284683852 -0.02244041768360704 -0.01375624666544424 
-0.005027201467457556 0.009194225439934981 -0.00364228659474737 
0.01170246071829085 -0.002336233826158634 -0.01629054416877113 
-0.04650269170211397 0.05387490329272569 -0.001012488936597091 
-0.05280421074992985 0.04235721620068245 0.01772923453072598 
0.04156307601622626 -0.05956787324913754 0.01228769730437689 
0.01291256757996038 -0.003146955076116583 -0.01538961169083619 
0.02784980272756935 -0.01160546098559148 -0.02172386555891743 
0.0292658844611429 -0.0269145748491437 -0.006819098021103023 
0.06449815745421002 -0.04703677706092185 -0.02963356559993782 
0.01678617725618508 0.001963935616496246 -0.02492211308238199 
0.09036263934646589 -0.04119345094215273 -0.06350152652976529 
0.005573291595921489 0.01116969645404942 -0.01855133280895839 
0.02633361642046077 -0.01822909927776876 -0.01295857737384406 
-0.002297556087228652 0.01135578982062223 -0.01362447902028792 
0.00729823478387212 0.002608671351233726 -0.01441019526386943 
0.04907797595111954 -0.04906083904397911 -0.002937955293456662 
0.02089644596494244 -0.01135561860454772 -0.01355724939173262 
-0.002097124279930348 -0.01141122293924227 0.01403167442582155 
-0.05445683446230906 0.01829457586541267 0.04246772037376418 
0.03907705837949105 -0.009002802887856686 -0.03670270494504816 
0.0647506597391132 -0.04555168813561626 -0.03419288105427334 
0.06483699348748773 -0.05041743089266883 -0.02029868124828772 
0.01808459726267841 -0.007049184827956682 -0.01695054764592817 
-0.01068696508817366 0.0259659834401618 -0.01591845979465204 
0.02403125947964712 -0.01582442303263893 -0.01060736182761305 
0.01766317780254711 0.001777090801887332 -0.01630388308878093 
0.02494496820010735 -0.01285762661538582 -0.01400602255548642 
-0.008278299441468417 0.00954008897461389 -0.00361383553813743 
0.02778041865528711 -0.01546246147765132 -0.01457003986723292 
0.08718273721035807 -0.05954853336761856 -0.0443223612004057 
0.01998755740770285 -0.008495408946171857 -0.017128429188714 
-0.006948106775498568 0.0153026814873328 -0.003886525656171691 
-0.004714715072645662 0.01203108092881742 -0.006601699175577328 
-0.003543207386307809 0.004679785608112047 -0.004412246584955796 
0.02842315373749446 -0.02366595704284509 -0.009165933196799151 
0.01761198205849373 -0.003907485364431897 -0.01637136670088559 
0.2084663624299733 -0.1394830296836741 -0.08834439037170229 
0.02068751981476992 0.007563220202208371 -0.03883125355837818 
0.03315667627690311 -0.02470972885753814 -0.01308107697323361 
0.104873980081221 -0.07804517295168016 -0.04147042547944516 
0.0207067398091561 -0.002125025247001667 -0.02227433643347067 
-0.006563915757838237 0.01735340039169816 -0.01785927688754 
0.02783003037625098 -0.01986370429477744 -0.01012254230790099 
0.04403803520556864 -0.02226383770988508 -0.02379145631714772 
0.004250995166736185 0.01507530470894904 -0.02294251007400482 
-0.003752287287715041 0.03457446602591779 -0.03460589694009233 
-0.01685747804292088 -0.001970766281741527 0.02445599922132888 
0.07054137084275632 -0.04375143866394155 -0.03998382338222865 
0.0216742315253975 -0.03547231759248588 0.008152127187660617 
0.07977896576524895 -0.0296208094841132 -0.05830518375598193 
-0.0001701032034033666 -0.04080542861550232 0.04270769366077651 
0.0103293285121527 -0.006172819382239196 -0.006754389071605121 
-0.005776552657059691 0.02938210460012487 -0.02237656590541118 
0.06788817698818309 -0.05892033998524996 -0.01519464376113465 
0.006057335035174415 0.01346028527884869 -0.02311712355488212 
-0.001429660726339354 0.001175157867198955 -0.005409890384460535 
0.02979617106051447 -0.0143147297448957 -0.01700803175840042 
-0.008231334517301927 0.03470140786670962 -0.04384225975759782 
0.006243875757819746 0.003802691138269154 -0.008781645916173321 
-0.04845542026392108 0.03946462289861938 0.006131783687402386 
0.02471086469029799 -0.01246696701106496 -0.02401414944459609 
0.008509302974298175 -0.0397340484241925 0.03426527497673546 
-0.04540654129980692 -0.01055078363720714 0.05172381287214049 
0.02234308058529098 -0.01753174883106253 -0.01034668880773227 
0.05744411405764308 -0.05641161808298357 -0.005899702338501424 
0.01616087105348833 0.01965490477238752 -0.04431329838533059 
0.004209909284067629 0.02829525786616753 -0.03432636488662975 
-0.03262676044999731 -0.0219957334889724 0.05747891283655504 
0.006180085651312633 0.007715198015799878 -0.02623770296259202 
0.01033497795698202 0.01381608935777206 -0.02986297315133194 
0.004491324331021762 0.0266866572617946 -0.03512425410176832 
0.01812949201544811 0.01012572342086243 -0.03538588862891321 
0.1438773267433416 -0.09949966240904484 -0.05879212034739911 
0.02599443216334888 -0.01507356336269743 -0.01401933865840191 
0.0382768802357342 -0.02191109868840803 -0.02035062594013363 
0.04886852413888359 -0.03862818622138919 -0.01721109006031597 
0.02388137375265686 -0.01556194133438198 -0.004995703541804467 
0.0873292781247707 -0.04911478084380032 -0.05586727163182505 
-0.03883191247202426 0.05811233552830997 -0.02439736558088861 
-0.01252711371887096 -0.009015225248469897 0.01800138523292412 
0.1297860739845188 -0.06627496957386406 -0.0842390133616239 
0.01531298964609648 0.02752073417191182 -0.05019014763594437 
-0.01992289449750591 0.03624157108201646 -0.0220514613558998 
0.003280120199817157 0.009468543975712181 -0.01384326060420342 
0.01298736826793479 -0.0199640201538897 0.009930009618007971 
-0.004821396417857092 -0.02181260096553803 0.02169427809727109 
0.004101394032372916 0.01519405592156853 -0.02463775979905768 
-0.03779872610286795 0.04351402298128021 -0.004909547613899645 
0.03461712315834842 -0.001416306765517892 -0.0334207137269184 
0.01300469350478038 -0.03744465893993159 0.01600012275380813 
0.03552062686278695 0.01997779209134296 -0.06789938359052632 
0.02312293033846343 -0.004189800579441191 -0.02120433051073826 
0.05425753600878921 -0.05414299471916743 -0.006445059900189475 
-0.01568985683338141 -0.006910562515825855 0.0238132953844593 
0.03481767578528522 -0.008089311166910177 -0.03849885036395668 
0.03613785113158786 -0.01117384381261667 -0.02851088526763079 
0.07507678776697013 -0.04206758075350317 -0.04250683163195813 
-0.04573182291292197 -0.01723489765780287 0.06626401681498674 
-0.002666988924342266 -0.003890091305319002 0.006177035131538904 
0.04675327100636177 -0.03721921267528481 -0.01264347649759768 
-0.01787207416882894 0.01120924604513579 0.001790673109304247 
-0.1219321373353896 0.09955720635822099 0.02763495852201569 
0.01573958039841503 0.007744656469160643 -0.02085264194383914 
0.03351994545129219 -0.03750615859574388 0.0008106853227422987 
0.02093663992929592 0.004313569475451612 -0.03024608072366128 
-0.009960268683816564 0.02731484144677321 -0.03220131626461541 
-0.00386584547352417 -0.002316659485855577 0.004926115898698799 
-0.01542724988911341 0.04055954682825542 -0.04463704315570792 
-0.03421789706923963 0.04000677874662492 -0.003405848811863526 
0.00620823657797086 0.01177621301955034 -0.02216881177627863 
0.00339741501961749 0.02489193852875947 -0.03877147664493767 
0.03913394967502036 -0.03436422392097067 -0.005508612623929718 
0.04596379787713845 0.001054960233222468 -0.05495342887773657 
0.06125808149519709 -0.04392029423907026 -0.02382496502458694 
0.03535038561808115 0.0005677555306099555 -0.04082057809044671 
0.04477353832079707 -0.03196701198746568 -0.01962360110193642 
0.03344357348608109 -0.00383144270913129 -0.02806715135334775 
0.1393757188207404 -0.08726257142256102 -0.08857526074828705 
0.01793682090472989 -0.01581606692810921 -0.005357368190170154 
0.04122874575003626 -0.03397434632683443 -0.009759891064525215 
-0.001142062468605724 -0.004943261654708107 0.005035853007071572 
0.02265838051665151 -0.04484524102192303 0.02471154774490461 
0.09930863349471426 -0.04955926617351104 -0.05782456635744977 
0.0718870260660225 -0.03155557452338136 -0.04785310549028413 
-0.008270320491868533 0.002679900789449027 0.002082398537168799 
0.02624343976696561 -0.02330286228452556 -0.007297617271296743 
0.00754707360271519 0.01531170985491593 -0.02277859014173086 
0.09842592442892213 -0.07533333066904881 -0.03771959984419761 
0.04397351640840165 -0.009895599330941564 -0.04449724242250114 
0.04917672091276512 -0.02624280300069551 -0.03221045626332175 
-0.01166934667693395 0.02153706280869052 -0.007599497875123455 
0.05227533352694864 -0.03308308298003414 -0.02272169033627906 
0.05837307667284185 -0.04303923513514563 -0.01804608766764295 
-0.000942203910390183 0.01604347499243571 -0.01827321165962715 
0.01693776987003311 0.007774805209770103 -0.02893719972077254 
0.1114380240295676 -0.08907938810065232 -0.03829376793736895 
0.001704766957073109 0.02178885630252565 -0.02624245806667363 
0.005085535579018665 -0.06765386080163109 0.05593079914434104 
0.01203545466130951 -0.004375319480165101 -0.008572683114638957 
0.02267425207464568 -0.01598149236652593 -0.01535776015502508 
0.008119824411019352 0.003027009627018743 -0.01328067547733511 
-0.02761587425861049 0.03007339334116455 -0.00501656431661645 
0.02442209396921092 -0.02885744753678969 -0.0024661540987936 
-0.01869422614686848 0.02131754396563924 -0.001365208455841892 
0.04826903385916142 -0.04427069495063451 -0.01736210477881105 
-0.006608397074178623 0.003407391935002774 -0.00180940042059672 
-0.03357535523354847 0.01952301422155074 0.009612566483256041 
0.01749622009164808 -0.05832848778282973 0.03474200909413439 
-0.008044508825429461 -0.01182631672557456 0.02227046009842408 
0.08208224030383819 -0.06854790531254178 -0.01890413687446367 
0.01725510482502334 0.01130528215335823 -0.02713274535753458 
0.05152019013494685 0.0007944652901602997 -0.06119751692363758 
0.01967300348763819 -0.005412875844853123 -0.01404200125069954 
0.04377696270612558 -0.02341728677428663 -0.03057852204348066 
-0.07926777432312854 0.0763477192307301 3.551603369648168e-05 
0.07972453975194313 -0.02864148140228098 -0.05352808250786172 
0.002628373493071125 -0.009022959724909746 0.007489511085719591 
0.08217723670763959 -0.0540578746566727 -0.03261946852931515 
-0.02408878080788611 0.02032338873092675 0.01298810357893909 
-0.002999381735928218 0.02899112177507155 -0.03481597781460454 
-0.02362318682714355 0.02417427737011105 -0.002569241196116439 
-0.0004015347589429399 -0.001399153360638549 0.002430003118736944 
0.1514555393997002 -0.09960194526928481 -0.07236168352682747 
-0.04774995000243915 0.01806198450081942 0.03676543194157521 
-0.02544414950660301 0.03118229625696725 -0.01007209040942787 
0.131521098675192 -0.08715170093405362 -0.05717144874473123 
-0.03142900067213324 0.06519302575376548 -0.03375257853520741 
-0.0232335991108956 0.01084071656710122 0.0139479908063674 
0.007189500139978255 -0.019193118948292 0.0047317590864183 
0.02919433367288572 -0.03005952848838091 -0.001040964439888859 
-0.02574710007494384 0.05443842091179858 -0.02889205835277691 
-0.006335571033502682 -0.01710746439830111 0.02793266695124085 
-0.004607517675737491 -0.004641718749002814 0.005813938249516921 
0.01348335224617418 -0.008995062186003587 -0.008646368046035767 
-0.04164339474827582 0.05565515289356635 -0.01432268497581738 
-0.01023246699814507 0.007010193821584684 0.003961930751526843 
0.01093362116846369 0.01487551998340711 -0.03459796245432976 
0.1165241847674673 -0.07680289949520334 -0.04912425794209081 
-0.0403444835055865 0.04068039813046028 0.00808894690175673 
0.02291246114962323 -0.03048529451916744 -0.0002281502999516875 
0.06205315561533732 -0.03941979531493803 -0.02717864201559528 
0.03412441572138324 -0.01931567481903167 -0.01658845858886328 
0.005362319368744773 0.01572713825582608 -0.02804011491105731 
0.02538376302271641 -0.01284197256028962 -0.01626430263838252 
0.0658282174462456 -0.02627680893772271 -0.04097678607068651 
0.03002534127501416 -0.009352036728371272 -0.02293988321816932 
-0.02156406103625246 0.03153562678732811 -0.009349647902720132 
-0.004581766635645879 -0.01678469033106924 0.02507536586075256 
-0.03770207759176166 0.07426721020380785 -0.03872000470720489 
0.03622237486414803 -0.05707448209553033 0.01214809793574695 
0.02224784521525982 -0.01302421716257728 -0.01211817430595688 
-0.01070842261558565 0.02754345209695688 -0.02126387785976347 
0.02784199482056995 -0.02539619259268634 -0.003208044308016413 
-0.04458494045265173 0.003666000957334335 0.04424504261379923 
-0.02944796547193198 -0.008676406340301996 0.03555087162606164 
0.02109027528247197 0.001983959518813066 -0.0311318609192746 
-0.02751885723746441 -0.01123879542169647 0.04282138725175961 
0.007359201581151732 0.004374692094461985 -0.0161018253323465 
-0.01837032312932793 0.0431678807117063 -0.03478768360873423 
0.006211226028439215 0.003146660391406124 -0.01151397207917168 
0.01929189351249014 -0.02676026139625442 0.002831156840306722 
0.007706898642647256 0.003267791511290673 -0.02058181318749717 
0.02028501330626888 -0.01232343722078734 -0.006285945792890139 
0.001511753497961091 -0.007403663491511838 0.004449314661503834 
-0.01835492371079529 0.03518732994201844 -0.01255665859247972 
0.03473584466664852 -0.0195333294814618 -0.0250531743946765 
-0.09445946350256046 0.06962181898697424 0.02641795105467134 
0.02926294119604902 -0.02157981801423129 -0.01038812013672909 
0.01129877001129745 0.01645263218870388 -0.03230068583005189 
0.08778817450312881 -0.06944151030565411 -0.02599920634184678 
0.05737093923486529 -0.05061763408857036 -0.008763843702086322 
0.01523376192240497 0.0121702882057339 -0.03271502252409429 
-0.03951708163631409 0.03199602645640991 0.01001597413553727 
0.02084531709059408 -0.01008508510390643 -0.01372363239384777 
0.05558215660239393 -0.02713574620577986 -0.03731360485885678 
0.03062183783051582 -0.0194338731967614 -0.01788858961680288 
-0.05095931021951924 0.03246677543044014 0.01239637168390386 
0.02414387464611754 0.008286213948974863 -0.03974893070549306 
-0.01146486743880691 0.02226989786313029 -0.01726800910420347 
0.03278093482560016 0.007346864777561456 -0.05295085379223505 
0.05024024645226979 -0.01027735156020801 -0.0463045142753751 
0.01165375155984031 -0.02453133081294625 0.01338511398346972 
0.03695782744660737 -0.01868127144791454 -0.02018213281351712 
0.09248604419733623 -0.04982822355149694 -0.05304300487871273 
0.1005922887808986 -0.07173548327662835 -0.04217437546433119 
0.02069286322754646 -0.009782007399253298 -0.01155095246424457 
0.01097819783358136 -0.04063321570025111 0.02619598737657249 
-0.0528208243069433 0.04579248305433654 0.008620230834012737 
0.1252898056876996 -0.06104329487626181 -0.09079159796770382 
0.03822177286971976 -0.01152488065932496 -0.03438405860042046 
-0.01036499235132993 0.02437863363634514 -0.01821812171403964 
0.1695248938459072 -0.1209441039019884 -0.07160063922885015 
-0.04335587454687059 0.01051525353157946 0.0362034588507359 
-0.027519310582178 0.004614838038225104 0.03020189269186516 
-0.02204525142250771 0.02481640527201118 -0.0003292430192729242 
-0.01171205856905531 0.0259134309322074 -0.02669359766729934 
-0.01649557175535608 -0.03431466604674218 0.04161862271964084 
0.0378113170278312 -0.0288569759207864 -0.01638512003737855 
-0.01369179631702477 -0.0008924839718031766 0.01233812124110304 
-0.05590601580401609 -2.327754255763746e-06 0.05959823096316176 
-0.02616756660537377 0.03320316197907043 -0.01434212164915207 
0.004150830114368217 -0.009250724045146002 0.00726458427259586 
-0.0210087030365913 -0.002047698886204571 0.02440002029508107 
0.002494774406366568 0.004744399830799707 -0.007744216994802228 
0.01376055140846964 -0.01172391422350834 -0.005106523024875578 
0.009456882005618963 -0.00496935705483242 -0.01709658434312918 
-0.006681026372664794 0.01211306221808577 -0.003535028973963045 
-0.007753503526014437 0.01479644049671964 -0.005031219645671827 
-0.002073164405659236 0.006563279017230198 -0.007265169470139045 
0.01243043677926408 0.000769926097403045 -0.01562832977858714 
-0.01727724374220616 -0.03602123756246264 0.05787671690167712 
-0.007955785150158767 0.007307811551951975 2.813014587894364e-05 
-0.01345314796264802 0.006659450647941234 0.008723473644959125 
-0.008029916419040399 0.002163684719987427 0.007997308871380386 
0.007921689282839052 -0.004469173768073926 -0.005317392216943119 
-0.004686958283291138 0.0006330762885554897 0.004592910274442052 
-0.004273632656686119 0.01500025225153766 -0.009255139840825224 
0.006645043691834535 0.005150011122463983 -0.01544320861604783 
0.00821800361371296 -0.01029185200362785 -0.001487271194418795 
0.003130855467422461 0.002128495056679639 -0.008452045684387739 
-0.003650254494731228 0.001366692053588193 0.006092316726775335 
0.004809473949247402 -0.01892308504802884 0.01481193876303815 
-0.002121963447748882 -0.003503046265017179 0.005106480860455857 
0.001402590573042925 -0.002797849918645784 0.003018330003934803 
-0.01075409148026459 0.03544932191111983 -0.02490346677916883 
0.03592226599231499 -0.03326911413297315 -0.005471517217330297 
-0.002310096139635641 -0.01792393100217101 0.02137497383639849 
-0.01130617992476132 0.0127544501895041 -0.001739485161198183 
0.003437342992265287 0.01520428119361753 -0.01668647330226971 
0.01109458468445459 -0.01140327769520844 -0.003759362051572588 
0.006983945407384764 -0.0003455164898524381 -0.007283400850126934 
-0.02127216824006855 0.03736657094242774 -0.01775249734397837 
0.01968144800227095 -0.02597286418404921 -0.00311888839483759 
0.001904639610456967 -0.007998555106171564 0.003617172590415525 
-0.009968316905551101 0.003687241405993458 0.009356439660100756 
-0.004586434538912335 0.02916644100748811 -0.02399684622085385 
-0.006525984261637114 -0.01972277812552469 0.02747073992838871 
0.005874860180069961 -0.001094225072740901 -0.008373635950381774 
0.01629864392077316 -0.0001477159069278621 -0.0207816884406105 
0.003866788935836908 0.01282968275746279 -0.01560150709014561 
0.001664651968621543 0.01559578275195801 -0.02116583200048378 
0.01721056941023912 -0.01518041296983461 -0.00863809940229834 
0.01421363217353921 0.01201041570161079 -0.03020592959744259 
0.00335594779406994 0.01274719755664513 -0.02246807296784578 
0.001880727939268128 0.0006888978081386755 -0.003663175936653512 
0.008768282363360084 -0.006488564925428913 -0.003840044737764363 
-0.0001096692842828016 -0.005789136758724821 0.005814715314271149 
0.007115623506425196 0.00286291557274464 -0.01033903834478985 
0.01132350287392131 -0.008909106959126615 -0.003856321685342646 
0.02039265623624469 -0.003682235094494656 -0.01687990141427357 
0.0008553896312624712 -0.0227485655931221 0.02088698663392465 
-0.008129230510212488 0.0008153388413447971 0.0122963654181207 
0.01092721226083114 -0.001030194057821281 -0.01134848118549233 
0.0003624788851286932 0.003148895718879381 -0.007850579911699336 
0.005432669782262033 -0.003704875249179529 -0.003996123767490902 
-0.01429822730521084 -0.000705909332806325 0.01484905954561898 
0.00139127280008315 0.005010298519860639 -0.006259853967789972 
0.01019937421548726 -0.008537059135231775 -0.004483326418852558 
-0.002183392176736926 -0.01189067623093509 0.0144494605358305 
-0.001968532236457412 0.000592414232318889 -0.001262961015556489 
-0.00681455493967144 0.005623219727097902 0.003653095812327794 
0.00827167806034854 -0.00822982017535546 -0.001441309592071474 
0.0124287872648357 0.003271076397660316 -0.02003254862021509 
0.01706711625329618 -0.01280057936704575 -0.008792016541305318 
-0.02966447654075307 0.01113644494784895 0.02497926838215393 
0.00379412455649666 0.006992578040990461 -0.01260949495120569 
0.01753800183053051 -0.00983671479617299 -0.007273619306854129 
0.006057037449959298 -0.01036030669837034 0.004943667334966319 
-0.03667580071036141 0.02865740591185148 0.01397680293370392 
-0.001673620881089593 0.003599939215903568 -0.003788811483778279 
-0.003295803260199481 0.01248461469458779 -0.01225864345656598 
1.413574500152016e-05 -0.002076113277507854 0.0004602894191552206 
-0.03861882160571782 0.05621794229753974 -0.01841286537873606 
-0.0120092812181837 0.01321492377540669 0.003107310087284462 
0.01712698624564821 0.001295652661397027 -0.02118960860972663 
-0.006618989232058566 0.007989980647604044 -0.0004950921733292157 
0.008250684721267134 0.001794538516697505 -0.01110383095933855 
-0.006483514386713584 0.0005557300562941754 0.008505334650131618 
0.01338311921461741 -0.01013994832520068 -0.007711095734280817 
0.002256451148637726 -0.00175723448606515 -0.0006461422018025008 
0.01544909967448669 -0.002668948433897701 -0.01525197416064504 
0.0225926610545995 -0.01286605801097334 -0.01650590573964471 
0.003426187912006938 0.005173988705721754 -0.01113584580317675 
0.03178734310228844 -0.01523048369693432 -0.02049475745926439 
-0.01501992635145292 0.01159093179882614 0.005011085330745413 
-0.01569054124601383 0.006751323957801731 0.009681211147579768 
0.02719207422321377 -0.02118739728326698 -0.01309341634816547 
-0.01476266869498034 0.001754424232314843 0.01477879668108861 
-0.01965795336256919 0.03987680629482867 -0.02693532932479568 
-0.003941284537785424 0.003350179566197406 0.003197313215392084 
-0.008372744270139893 0.002560375611493029 0.0034483416821995 
0.001655251848378819 -0.01501582890568031 0.01386087601163551 
-0.005071540356185068 0.01295470034575048 -0.009208251997118706 
0.02132038883724378 -0.03518795677406573 0.007155834211742586 
-0.03726631511023934 0.01897866410119305 0.02580190672873621 
-0.01250344940676994 0.01428069749298688 0.001905379680471347 
-0.02105570858819099 0.009273728358803135 0.01145789051426842 
-0.009989708776299832 -0.006154106649617892 0.01893025597091142 
-0.0003794257595409693 0.0009834196554637394 -0.0007456505394844266 
-0.007416696789136751 -0.006072902200585268 0.0171585580828042 
0.007074181976321838 -0.03620786519637157 0.03200348991436345 
0.013048703161236 -0.02562585574274954 0.01243654894007315 
0.009347616648429476 -0.008506893974871688 -0.002111412012515597 
0.01128088301223571 -0.0113401521805806 -0.006073040922132627 
0.008882429289939972 0.007136663621852407 -0.0179430439035964 
0.008381455326361094 0.004090857401777024 -0.01420900401423438 
0.01077597409521139 -0.007326132799933668 -0.006750803001700509 
-0.0009684738205194294 -0.002029827257361672 0.002731873619888615 
0.0065882893833101 -0.004553030578955477 -0.002707323121792667 
0.01120474583277985 -0.01769014457836479 0.007771447144265977 
-0.01727795413654812 0.02378607559250821 -0.001721328962878903 
0.003063208216572247 -0.008237266272868523 0.002018270426080457 
0.006408217588891345 -0.0007480446893716517 -0.01006778932350102 
0.03328973428134568 -0.05256812319172415 0.01717664678859042 
-0.03002652335597153 0.03322936198856975 -0.0008532952380855031 
0.006923411652358637 -0.01457422571912516 0.003237563836576399 
0.01611999659148109 -0.009150838709581366 -0.01083547530580595 
0.01255465752480662 -0.004809198003431069 -0.01089152914253234 
0.003249382701388972 -0.007159895587609523 0.001894107451235221 
-0.004830232324630346 -0.00397240947860875 0.01053543091021269 
-0.02669010647286876 0.02798252378580017 0.006111925738584722 
0.005157869646194577 -0.003404518249512818 -0.002739504500853545 
0.000897261444027207 0.005449473532362228 -0.007108351038719171 
-0.02769375404314988 0.03810334357154598 -0.004373943270958116 
0.02273939879491106 -0.0121140760944204 -0.01234708747993768 
0.0151224420663142 -0.0001556896327923177 -0.0181629105623328 
-0.002777591082270092 0.006932686293656695 -0.00186787152073084 
0.002616455829342521 -0.01239137436494022 0.006023334774390084 
0.004365717070124517 -0.004995355997884218 0.001350196553520804 
0.01079867733975026 -0.001711111180195122 -0.0130584284798313 
0.002660467714997404 0.004594142388164042 -0.008584256690137744 
-0.01463357185756427 -0.02755345320244066 0.04484982478377202 
-0.03782821577143466 0.01194529623742948 0.02418398929611062 
-0.008901479641538122 -0.0006312860701176796 0.009174223110245766 
0.005795804006368466 -0.004945037058912589 -0.002533919674422625 
-0.02357994196635493 0.01054248252027482 0.01412001696129262 
-0.004067690233027016 0.007621584959957251 -0.001538427523358216 
0.01145279992956442 -0.01348338733839899 -0.001148990127564163 
-0.03346702903334217 0.0009835395175664134 0.0331823031013483 
-0.01282336097223758 -0.001472886085718321 0.01602266245014523 
-0.01140937389131447 0.01327271782967188 0.0002364122561213475 
-0.005379669723183577 0.001989577199665105 0.00415319817688879 
-0.008847076555522703 0.01198499671320241 0.001694696890403488 
0.003382380508988011 0.006272199524186321 -0.01357887040571544 
0.002296482865259215 -5.570074836451641e-05 -0.006369038245142483 
0.006112904666691153 -0.01303144628046308 0.003192337626440201 
-0.00854827944013338 0.01512362815514177 -0.005435900761915764 
-0.008093755776304412 0.006917162660383428 0.001019581417193716 
0.001740355409766004 0.005928053939742306 -0.006326910578547411 
-0.00983345126923763 0.01302709079060197 -0.0009819846287594462 
0.00122492592421431 0.01272836147736623 -0.01601348587556025 
-0.005281526169056736 0.002744236022385213 0.003215897220686489 
-0.003169889404435453 -0.00364065210836155 0.006934427411621339 
0.02131234617229088 -0.01286135917679346 -0.01351124313774603 
-0.003980065605508044 0.006395539407082656 -0.002940732512313634 
0.003091182342710502 -0.01277725412793656 0.008715767636848256 
0.02148882507839917 -0.01767711469628494 -0.01216624923752703 
0.02680431815131465 -0.01637544732720338 -0.0175037809280722 
-0.003880712512203135 0.01306050292447931 -0.008338461946639907 
0.009039290739838642 -0.005819871037437572 -0.004479554943410884 
-0.01267716054056099 0.01182656561688698 0.004752522185657694 
0.003761405391411958 -0.00432268382798633 -0.005550091783051056 
-0.02289573695466647 0.02497582039629115 0.002045467990032407 
-0.02042907321079965 0.01175643302740478 0.01874619746191087 
0.007075782398351463 -0.01584160246537586 0.01022379100616796 
0.0007909770267878448 -0.003742328872662311 0.0007203636812953823 
0.005944514338177824 -0.005735451794764372 -0.002359027603779867 
-0.002719714300180379 -0.006441202469417285 0.007481367313327807 
0.01497375019919125 -0.002845011566914251 -0.01435838394958137 
-0.0004839149341642616 -0.002249149341651482 0.001075230100553568 
0.01849962243982532 -0.00321121810893339 -0.01753047121264811 
0.0008066319057395891 -0.0002963246372941538 -0.001354409014705527 
0.001069974076972196 0.004309823347078898 -0.006257651200820931 
-0.01246310555758749 0.006518581884387069 0.005974529978616254 
-0.0001426714970366762 0.004822135303532885 -0.006596923032278934 
0.007830266286044572 -0.01660054018999536 0.01627858489733178 
0.0001297641027773522 0.00446489654921893 -0.00459805839033048 
-0.008551259349503879 -0.0007335846558354015 0.0107704504451337 
-0.01348816515262008 -0.04134631594516346 0.04963716375696217 
-0.005642926392571416 0.01833029298916419 -0.01435357425787658 
0.02280907286489722 -0.01230515992549995 -0.01802210862844239 
0.008343569621290552 -0.0172165343404849 0.008799277084762323 
0.002138927111321412 0.0002902508311896688 -0.001496840349802028 
0.003053346142460853 0.003183678761551498 -0.007131370927117069 
0.00909837844880745 -0.006873083376982623 -0.00301288488829374 
-0.01000836394188033 0.001175483483633861 0.009961484287086637 
0.005321359281926874 0.002337515504474343 -0.006238718360488553 
-0.002907281941622458 0.00698640469183522 -0.005399918144226062 
0.004060597067095961 -0.001669338882486031 -0.003501572650145889 
0.03006473658616459 -0.01393182419216917 -0.02364865901961897 
-0.00235728706032432 0.0064489553224916 -0.004815768691144934 
-0.007438399533369886 0.011457186558827 0.0007636902542712337 
-0.01091517718050563 0.01135276755928192 0.00120058212527969 
-0.00496380386417107 0.003757348938152465 0.0020378285014681 
0.00299581264948764 -0.01051203467486194 0.006324989061259906 
-0.002396535102016141 0.00928920411607452 -0.003169349544515768 
0.06696499065717081 -0.04558200222784476 -0.03124876176315597 
0.004376335547535967 0.01259677138976194 -0.01941685892590932 
0.002560820364491115 -0.00219766673477826 0.0004761467350143838 
0.0106063700418197 -0.01956987083476561 0.006539884727649953 
-0.001849296961068225 0.004267810369436576 -0.004548487234689026 
0.02145047664295265 -0.0255856675285673 0.002133988624550894 
-0.05669330536465102 0.03037209885640786 0.03095424390789753 
0.008492214922598603 -0.004521258787781167 -0.008666993649189122 
0.0222421879131494 -0.02074348517377036 -0.007570022011011162 
0.05034701791810606 -0.02523994682244397 -0.04163782359770984 
-0.004474608618569342 0.0009087270671440926 0.002571717385237471 
-0.01982492728542237 0.03006066548115647 -0.007726786272841519 
0.000247077040468568 -0.007563279622992152 0.003532595552658407 
0.03097850561337813 -0.004911361128715664 -0.03360608564381518 
-0.009906178112489738 -0.03330902752653387 0.04404871656946211 
-0.01302982117215739 0.01446419478578344 -0.001821212771137559 
-0.01528056115415004 0.009333059239500233 0.007082287196681115 
-0.006375474978601054 0.003860602758253249 0.0032154595719934 
0.01327075451953069 -0.008799596880508659 -0.006413675575838551 
-0.007401734102734947 0.002744337600472065 0.004867280648387881 
-0.005921365107215452 0.009304929223894708 -0.001094781745201051 
0.007831017128867839 0.009364010085541124 -0.02347932856710052 
0.01701990456608253 -0.02140320905739478 -0.002445060935132412 
0.009401046728462802 0.0005962403140347537 -0.01670974838500711 
0.008870815407298243 -0.007369206424841253 -0.004720874260727484 
0.01217808795210168 -0.03327641372064677 0.01921133941015709 
0.0002365456129622189 -0.004156763113929108 0.001654461212063995 
0.009085606887262541 -0.01783722612739341 0.007783410004565059 
0.0008147627320171189 0.007740934642676929 -0.008529569146166677 
0.06231366988002878 -0.05082112816733043 -0.02092879829506862 
-0.0006404824119963592 -0.02084185727773957 0.02121435125900202 
-0.01860662826974691 0.02151941518533836 -0.001665541892096047 
0.03111116945474474 -0.01728850894896614 -0.015993135545133 
0.00891042095235622 -0.0003605064155753422 -0.01390063972385084 
0.01188239948872152 -0.005834124697976984 -0.009062081476125482 
-0.03852920682439622 0.07108507988645733 -0.04183442036983664 
0.0460796237020111 -0.05500927263652933 -0.005900614519168317 
0.01153799225798296 -0.0157435980977903 -0.001176008673228823 
-0.009749436280390928 -0.001971230397679378 0.01412525919477843 
0.006786435868638647 0.02475907162663103 -0.02857149036584718 
0.01120832044254064 -0.04155755604985879 0.03598231875458214 
-0.006142517661206641 0.02290722365768225 -0.0165138869441105 
0.01347583343195095 0.01336725287629874 -0.03092280944005368 
0.01037242546854068 0.0119036578913874 -0.02536165230649826 
0.01542504578257344 -0.002863637855858158 -0.01916145369917723 
0.03301416263673654 -0.03344857901409199 -0.01325286016986458 
0.03846973573262573 0.01072967930198384 -0.0574876375882278 
0.01110637423587457 0.01682142710134804 -0.03511948677491043 
-0.0007421066432926583 0.003882251276016664 -0.003835318622067041 
0.01837735675162006 -0.01466092825439113 -0.00628037886820756 
0.003719418924703314 -0.005166140016273006 1.625542068762819e-06 
0.008794803102572484 0.0009105605757924737 -0.0120762379467426 
0.01900157999589976 -0.01719252729343413 -0.005329360878867775 
0.03228121150444914 -0.009975306082148175 -0.02623732463217263 
0.007860206235248423 -0.02103429410056546 0.011602337706101 
-0.008858679200124779 -0.009082064430614864 0.01887391238460958 
0.01164175594482614 0.002517854768435593 -0.01489531668083751 
0.00855133383514182 -0.002707930519134251 -0.01121756534417375 
0.0176898193047365 -0.01093851025841928 -0.01122300477238975 
-0.01590935248038852 0.002362893590527811 0.01192079100033873 
0.003167550241841018 0.0007950832360807666 -0.003558173455407238 
0.01533030191025409 -0.009074872108323058 -0.00969662409843631 
0.002244056740390884 0.0001003571945029353 -0.01030076123154215 
0.003238691930149834 -0.001187115090905326 -0.006843549674057183 
-0.008363736344334719 -0.009479605819397486 0.01550249518070789 
0.01938226232295751 -0.01582524526405579 -0.005753468392140225 
0.04047768052462626 -0.01165972952289647 -0.03795224859970027 
0.04059710962470723 -0.03211943682348724 -0.01689745364313954 
-0.05000890646035902 0.0333637569790327 0.0195709258456405 
-0.008263146040058945 0.01293868430878167 -0.009334708125970823 
0.02646141909548302 -0.0196274308179183 -0.01273290167541998 
0.003810146442311272 -0.01275249649072092 0.007434555616932743 
-0.05139366717289703 0.01117718237185604 0.04742674182725352 
-0.003763939627308705 0.009737713302040787 -0.008358805967712822 
-0.003775744133594278 0.01368468769262815 -0.01464866442574497 
0.01195289125456088 -0.0122861535461064 -0.005778334732290248 
-0.03810598843943377 0.05689561985718074 -0.01558183932760221 
-0.009281964828431591 0.01407401211860408 -0.001049319010369543 
0.03450198219581144 -0.01008890090292317 -0.03016246904748581 
-0.001025206006969028 0.006453860614690121 -0.006629993450696834 
0.03122834588590742 -0.008467188418267171 -0.0252464411543953 
0.004257755405478423 -0.006794662029466659 0.0003685914773375048 
0.02945408912192535 -0.02638576277186607 -0.009951758734010536 
0.003779154686971427 -0.004549488760065664 -0.0003635330274385122 
0.02921836246766707 -0.009308922350053352 -0.02699763170400394 
0.04353089299046548 -0.01803701121927564 -0.03357836112629429 
0.005325279979131547 0.0108836261817005 -0.01960050692933052 
0.05243134817017127 -0.03334201622665904 -0.02842618602775824 
-0.01659518983202397 0.01426505034315243 0.004572822486477569 
-0.01633372580801882 0.007662917954357536 0.007686575208026399 
0.05234398181838525 -0.03486659331023303 -0.02735940852759042 
-0.01080913817740221 -0.00374187132720073 0.01897960901545613 
-0.02102881796694703 0.06425787868300641 -0.04992225646634539 
0.001427270753433877 -0.007354836500816455 0.005839592611116475 
-0.01036655661854337 0.005429507644682678 0.002901454505691606 
0.00916788859219656 -0.009235978492082323 -0.001434553002816965 
-0.005825630294939392 0.01052334334773804 -0.007025112527699738 
0.03803660938520052 -0.04361959818961986 -0.001211242537148585 
-0.04808251367743408 0.008465593592101733 0.04480228795641364 
-0.01217186338275577 0.01039355614771796 0.005015725694937614 
-0.02884325920674653 0.008281718039822313 0.02347803784994593 
-0.01558790316020093 -0.01632523381095649 0.03075705069893684 
-0.01567752586575718 0.02238427152742896 -0.005528663324921225 
-0.0123758417056128 -0.0007954265809444086 0.0150400305765194 
-0.0236432215112474 -0.006017528538545617 0.03283618334948959 
0.02746288384357063 -0.01846257849405758 -0.01064854611067736 
0.01632718446035796 -0.007246314089672584 -0.01255973956572203 
0.02653258459088022 -0.02119821442425848 -0.0156198204507777 
0.01664156892892008 0.008589869887838896 -0.02967192878443945 
0.01772003868595493 -0.006143379569277503 -0.01346445541632745 
0.01447624070053268 -0.002630691922832645 -0.01683429167870731 
-0.003780689892943378 -0.007477440856515667 0.01174340812612756 
0.01714397496740415 -0.00692849978392816 -0.01183653367264849 
0.02258891628444334 -0.02953901468516139 0.002926025173108847 
-0.01959678670440343 0.02155592639578675 0.003646136389998451 
0.01640521898735686 -0.01500789596044262 -0.008083975992168847 
0.00690716272110583 -0.0006840665591875948 -0.008748630344251673 
0.05367271102549354 -0.05417001262175852 -0.009379558912676843 
-0.03478897762328539 0.02315813616193328 0.01051748320505118 
0.01749524467911405 -0.01990580475318641 -0.004006544723983791 
0.0426103459615044 -0.02775052602757549 -0.02274204841494335 
0.02146200571297274 -0.01131504132345029 -0.01756377244227516 
0.01124650921616824 -0.01126598498211265 -0.00362617020420188 
-0.003293945276632079 -0.01442179476107023 0.01793095953413006 
-0.03845669295206844 0.03001164888103721 0.01671133548065424 
-0.001664288048374729 0.00999203431967121 -0.007808814359345709 
0.01624608417716794 -0.01021042355840913 -0.01061108645387517 
-0.02250237089772034 0.02652737321990091 -0.001038134716457482 
0.0400440782439783 -0.02417630854366548 -0.02373634624132038 
0.05285291367906434 -0.05154446203142121 -0.006793101164534196 
-0.005647007295826488 0.005177912133653146 0.0004241363962391204 
0.01291290749221593 -0.01822922720057543 -9.066628125726233e-05 
0.01452140517568733 -0.01515372011394258 -0.003206858651787028 
0.02773817352438164 -0.006859201623612224 -0.03108202479360106 
0.02090932197092516 -0.01769662610333931 -0.005244371129962862 
0.00932992242585136 -0.04022977149194841 0.02326615857595921 
-0.01504920561317216 0.01960411610572309 -0.004178230129713885 
0.009597814983577941 -0.01353590860240828 0.006672487865063574 
0.0168693273959329 -0.01489428536796003 -0.004569407626123351 
-0.003142187692474951 0.02414193664509217 -0.02824209675056637 
-0.003991281134277416 0.00475451085568979 -6.483364484150468e-05 
0.03286993174336983 -0.03512651439430811 -0.00634716898357764 
-0.03580162651909104 0.004535085971152825 0.03789777229068437 
-0.01379740634624928 -0.001211697902065926 0.01703070692975757 
-0.005150922444693951 0.001138553076729424 0.002644304931797519 
0.001857197007175874 -0.006361952268643835 0.001057194484175001 
-0.0004059796248278155 -0.004048822176011322 0.0005276286505483401 
0.002485848532435132 0.001496520373168043 -0.009061643319826975 
-0.008546963435040654 0.01730451368403769 -0.00917496423102717 
0.02019315372017575 -0.02724665585774504 -0.002369962331515082 
0.00783182545233548 0.00144758179458385 -0.007220242452689995 
-0.0004369814880519246 0.001060702403998498 -0.002438194579383299 
-0.0001644556859321221 0.01303444701724184 -0.01152651043906242 
-0.001678443373604971 0.00464410194820448 -0.004744505899411477 
0.01569684769801342 0.02302714599067711 -0.04666066876938336 
-0.00709867421303874 0.0002520325423171431 0.007667847921176001 
0.006458874369964526 -0.009686114905079748 -0.0004226161821989858 
0.03723008819277921 -0.03121905390606563 -0.01700471246010637 
-0.006114428943627058 0.007732762956552128 -0.0013895447217724 
0.01689623967302267 -0.01697671778490506 -0.003699837259491952 
0.05647242240366311 -0.02949248327473419 -0.03795830511173797 
0.04312967588069198 -0.02195897147203136 -0.02716658663631246 
-0.01322276159337307 0.01682598667884684 -0.003791922460413036 
0.01797644751225537 -0.01521474610369011 -0.006304492128318164 
-0.01756266040896441 0.01279958688379256 0.01013169841026122 
0.004677090605373546 0.001168169260394601 -0.01238422651556618 
-0.03894243352575492 0.03189932664236399 0.01320254294087707 
-0.03746394817870177 0.01280032510134274 0.03239306431479199 
0.01779319955211436 -0.0411020749228893 0.01910736537404549 
0.001660992597963018 -0.003847470665330735 -0.0001657751575943687 
0.01405213083626147 -0.01403747614553287 -0.003838325222291665 
0.005800909596166954 -0.01240172945728742 0.002186279903256194 
0.03243687694540048 -0.02161451451204072 -0.01767716133958366 
0.004575136351781138 -0.007338256795442289 -0.001344935813159717 
0.04576703854263552 -0.02088623150626248 -0.02721869186762485 
-0.004219192481021413 0.0141135565411564 -0.01116052512711694 
0.01372380583361475 -0.01186947777135388 -0.004121928146439744 
-0.006084278464542902 0.002988151677443902 -0.0003624661894280918 
-0.004487630722114405 0.009284206725687834 -0.009891445252706415 
0.01965930632424191 -0.01466068535731326 -0.003685095285818282 
0.008059461732973889 -0.001805744664497387 -0.007392442765251772 
-0.01728975206607333 -0.001515556937963503 0.02121988427637729 
-0.04974421862427254 -0.02386373369514284 0.07720421920777026 
0.002885973542318451 0.00035836464226897 -0.004972019773345429 
0.03725715940585107 -0.02523902773580146 -0.02537396268316992 
0.03176049147187987 -0.02436266325949071 -0.01030829104299804 
0.007120588754575551 -0.004300850257974804 -0.006227745435314739 
-0.0114326660550676 0.02321902629884987 -0.01125353132313786 
0.01634907014663063 -0.009861985917038204 -0.008395255182397515 
-0.01386266007767967 0.004139288983724355 0.01270383982181561 
0.01639639258617129 -0.01584831331210939 -0.001675601600418395 
-0.01161257763049335 0.01102424673429917 -0.001891960562651194 
0.01499973096615467 -0.009205027269535601 -0.007403957607750655 
0.05175809198820745 -0.03565396633629415 -0.03042174442679091 
0.006219530614779275 -0.000763285596177371 -0.009868284325426436 
-0.008561908864652664 0.01014629492013592 0.001988135711563312 
-0.005751791657545812 0.01174290433892774 -0.004254888987535281 
-0.01046386396857592 0.009588620016256193 0.0005794466709950237 
0.01502546596405163 -0.01550391670248221 -0.002791741895238057 
0.004450588276870194 0.002161358557791258 -0.008511857197273747 
0.1034248811896229 -0.05583659419334999 -0.05894624171711846 
0.01017639642197383 0.01471337892031821 -0.03183988382549082 
0.01898528496867152 -0.014952966948687 -0.007178928517347695 
0.04213187183529059 -0.03426068203476714 -0.01403522814396693 
0.001786242024722756 0.0080777397886325 -0.01425922664093591 
0.005991837358388722 -0.003880088680670824 -0.001961312436251121 
-0.02912205113647317 -0.007079796773321685 0.03739366484528074 
0.005772889555072118 -0.00636593986792803 -0.003428330688987236 
0.01038880501709671 -0.01182502949054236 -0.0003788444753198385 
0.01026429331677244 0.006474990857352291 -0.02305410121770788 
-0.007158083530539535 0.008884997652976115 -0.0008798763943611244 
-0.009286755170067154 0.006225061664621927 0.004070159228102318 
-0.007029070610787515 0.01612175164601456 -0.01186695727603413 
0.007106532978997729 0.004656401668915484 -0.01454915066146816 
-0.01734848573143028 -0.0296474816507924 0.05161154601519907 
-0.009404444988450295 -0.003029849787223049 0.01220182114671664 
-0.01124193443860852 0.005834389621084779 0.006851674283638161 
-0.006589380435909725 -0.007473202959691356 0.01778186063136428 
0.009625401096232477 -0.006389010826404529 -0.004761449347944518 
-0.006018870749821919 0.003596967774103559 0.002452228917879651 
-0.00492281667212916 0.02118604438020963 -0.01398152554973815 
0.002016138375639834 0.009419520965521374 -0.01439984553973842 
0.002615602949174758 -0.01735947708729384 0.009514232002967287 
0.005766819876340294 -0.003602571664117995 -0.007369867001709422 
-0.004498036613877683 -0.0133011517489504 0.01630586127062189 
0.002093301709249284 -0.01597495887031515 0.01612279284469958 
-0.005981826486469753 -0.002310014091007586 0.007362867239288694 
0.003807379015467474 0.002359136437064886 -0.00358035164067346 
-0.01445574436374076 0.04912643535676255 -0.03485379603947009 
0.03338062045959372 -0.02832792464228267 -0.007135552036921958 
-0.001010906317799258 -0.008892998943035692 0.01125184848504794 
-0.01203061673930948 0.01682278879375345 -0.005027088556506887 
0.001629872408801119 0.01887695208837007 -0.02477179819879613 
0.001451019206412665 -0.007755796694311578 0.004555566753872626 
0.00642422857931893 -0.002298082619275394 -0.007251470301920936 
-0.0207173805803977 0.05045978881991341 -0.03851018533589196 
0.02080556682991325 -0.02182033066054637 -0.005178287559478674 
-0.004911632503482632 -0.01507808196358545 0.01388488353559052 
-0.01677202752645382 0.006218421941597028 0.01594275335345847 
-0.003130630975107019 0.0339428656297324 -0.02508362273822522 
-0.003597187430101645 -0.02070290468559476 0.02550630234250457 
-0.0008930594146435788 -0.01426678542880243 0.01046391388848808 
0.004132661789824007 0.003997245147811361 -0.00708082495991426 
0.004419130538543136 0.00873504675876371 -0.01250194955506567 
-0.001022475561382603 0.02260170134063108 -0.02380663127810369 
0.01155364225084003 -0.02182684702587764 -0.0001269015898360287 
0.02505569363433953 0.01937925884382562 -0.04515327207537401 
0.001626555076947986 0.007826623605474425 -0.01838281729635694 
0.001815901323513234 -0.001221227204075953 -0.001657624651464345 
0.0110821125010353 -0.009814881396684559 -0.003053950327655617 
1.790710402365573e-05 -0.004628585774129977 0.003960314835273608 
0.006176637725476843 -0.001255938308266591 -0.007185292975959227 
0.01202144596224058 -0.01009367936903698 -0.003236396174235089 
0.02324044936502077 -0.01146202020777398 -0.01201710780409084 
0.001802172310888896 -0.01391030052436536 0.01254759907394911 
-0.02049316432129002 0.007977935385275215 0.01532228030914932 
0.007736561894465894 -0.00130460222033045 -0.007925583633361514 
-0.006972035500144164 -0.006194708613441035 0.004307398486643555 
0.009133239135580354 -0.002188119371525178 -0.01012500507892882 
-0.01863546588962258 0.001921252538372444 0.01710582033527725 
-0.0003012522063716785 0.006952048879377143 -0.006102938649317199 
0.01154326334343831 -0.01418503374343988 0.001572368678777037 
-0.006702805417682885 -0.01521999535729156 0.01752534247056364 
-0.00931032085508381 0.002656462888957504 0.006741016148704537 
-0.01853481410770237 0.007305375150597814 0.01397895938915217 
0.009245657823691978 -0.007337738372628419 -0.002853828444971953 
0.01513700101264741 -0.003922726272868674 -0.01588822153171185 
0.01205611845143018 -0.007841874720159294 -0.007227948490593388 
-0.03597533532231037 0.0182779684583229 0.01726760312580873 
-0.00311872564257442 0.01168461897715797 -0.009364391478000528 
0.009377030134022114 -0.007061082798799415 -0.002315856111687844 
0.006331909510121136 -0.01008484471380021 0.005254906332463252 
-0.04838507608252562 0.04563961797494585 0.007107089554920852 
-0.002567484628179219 0.000906373927367817 -0.0003417278974570667 
-0.003586950107340585 0.006701713523417754 -0.008865657865302738 
-0.001564512423268572 -0.01058741585846847 0.006953297818357614 
-0.03523855688825617 0.06248981271693708 -0.02534665149403885 
-0.005715046436760636 0.001951117370746633 0.01088435718368293 
0.01771698477961629 0.0069480698373399 -0.0258833627773283 
-0.009984547504438567 -0.003034536817768873 0.009384760774011673 
0.01060652122493791 0.009097863032506745 -0.01955519910068765 
-0.007389805791826341 -0.01060831404957717 0.01492640716928751 
0.01004322939246401 -0.01489506530592152 -0.0002956671648869356 
-9.036664179488898e-05 -0.001648982504356847 0.001658961942119389 
0.01393493220213284 -0.005830003323329841 -0.009975814056696607 
0.02175565417613764 -0.004205448179439409 -0.02154027848975034 
0.003044727915006485 0.003434323592503674 -0.008986376229290794 
0.03212247507700021 -0.01747356392972444 -0.01783704144997416 
-0.01672321238363477 0.01126476824534986 0.008263265356133167 
-0.02256985275512925 0.01905136640185375 0.00178948558740142 
0.0227074786097881 -0.02325374121102756 -0.001983294973755658 
-0.01303057026295743 0.001944482530192442 0.01706007681554776 
-0.02328341527756533 0.05412348748595941 -0.03292365869233775 
-0.004713654087924302 -0.0008926461352617194 0.007785351269840528 
-0.01716704079503593 -0.01005992238156787 0.02086487191006072 
0.002045855878521123 -0.001017542602528143 -0.001840234112807009 
-0.004352232136456717 0.01004489736854481 -0.006750268707311331 
0.0117098514176623 -0.01589131447417469 0.0001031076298384289 
-0.04219813969635026 0.02800103620833496 0.01975779862590315 
-0.01269087089239933 0.007185100193615902 0.01127114363865303 
-0.02272951526337576 0.01388810404945938 0.008558656868491284 
-0.01695579186020606 -0.003333367841797496 0.02150093524553096 
-0.001772295592165601 -0.005747507284996254 0.00701838675045059 
-0.01175563559838757 0.01002760689733963 0.003115309117662491 
0.001474461428914402 -0.04001185561942253 0.03825045936929816 
0.0063479544149522 0.0009651544539242634 -0.00508465259103442 
0.009518338737791864 -0.01194592879120767 0.0001938045141245256 
0.006840832765730967 -0.01558303773723159 0.000516068336029328 
0.0005243741990408139 0.01886227429560513 -0.01777533383556379 
0.008794886596528065 0.004233864149271085 -0.01554350673453094 
0.005425010248203004 -0.007905986496336975 0.0003401642426399719 
-0.003013948489521186 0.001636414851481347 0.003286427746703607 
0.007578670736079638 -0.003142471506911458 -0.005154823188419229 
0.008410772244886577 -0.011262386055287 0.001057625157043913 
-0.01571604393068314 0.0184971795805783 0.005502753763622334 
0.0008940830988312025 -0.01606324449931558 0.008252576694492841 
0.008381721924253292 -0.0005452869075751246 -0.009778820631323014 
0.02949146575434693 -0.04159462768947533 0.003489638572322869 
-0.04091559418698789 0.05499518694201967 -0.00998013964612939 
-0.000835969811353644 -0.02008115896069547 0.01193678780282291 
0.02011859396991102 -0.01333077888001401 -0.01101953969026248 
0.01450671162430061 -0.0106344883272839 -0.009511501121629889 
0.006455099077379682 -0.006830175631966379 -0.001407870581254963 
-0.008208570068121451 0.003481038546797155 0.00725854030719653 
-0.03417062161502277 0.04247764489348147 0.002415548065660347 
-0.0005813821400281821 -0.01172102961581318 0.00970389184561754 
0.005601118541818791 -0.0006872824320861657 -0.006581584781555865 
-0.03553812166870399 0.05311286184901221 -0.01158628229168194 
0.01941610159401019 -0.01192689329517156 -0.01019494389171141 
0.01500709387183793 0.01283350200811231 -0.03050256878680745 
-0.0006253784113048668 -0.003968150348565031 0.006058803839190799 
-0.003938187333154843 -0.01843980154705572 0.01459474500066252 
0.004732487660825176 -0.01116209983341005 0.003503681835648658 
0.01254044766110275 -0.008825763576134257 -0.00914540115515595 
0.003555500011620142 0.009162159400457091 -0.00849288595064393 
-0.007961627641052883 -0.02436456546181901 0.03521370383196604 
-0.01752081416438107 4.621411292429173e-05 0.02212769613955938 
-0.002632140535345058 0.005381877075604977 -1.493313629359664e-06 
0.006125355185654724 -0.008064513373414271 0.00100096559602666 
-0.01731532825108277 0.01360496214309759 0.002873981809057735 
-0.01092857174805944 0.01029512121320517 0.00430685142006339 
0.01533939443729145 -0.01871861354587875 -0.001491210440486934 
-0.03251996509106053 0.01112293000337112 0.02289312419581333 
-0.01677572997387419 -0.0009990051528501423 0.02116926775095155 
-0.008274156520797852 0.005443609912604907 0.00227783422689094 
-0.01149237058780662 -0.01316740087396095 0.01917105873835327 
-0.006627900804924388 0.0071872824205337 -0.002290604088136002 
-0.001691082177712426 0.002879534157078133 -0.002248740710700617 
-0.004025075169410122 -0.01086870875153133 0.01207451328717323 
0.00310019608988239 -0.02233291158152135 0.009105844034941085 
-0.008493895146047172 0.02700880238953613 -0.0149930262905312 
-0.0116712734136268 -0.0009446205110665727 0.01257728284958198 
-0.002003209803507543 0.002568626574214882 -0.002597411934633813 
-0.005774212828887113 0.01077928679554611 -0.002515838300675444 
-0.001507160327102902 0.003882239439513806 -0.002494469014863698 
-0.009130540000202803 0.01021648256366261 -0.0003120737740115048 
-0.00591474732595653 -0.01270668441250515 0.01404081271961317 
0.01931321765086574 -0.01846583208685379 -0.006578499943025225 
-0.005463527797215192 0.009096498982230625 -0.004123020298654101 
0.0006888736908011883 -0.003016699110658901 0.006023572926863752 
0.02146014981096967 -0.02146361944676917 -0.002673579350821363 
0.02481949252827062 -0.01016065892247669 -0.01819809890210508 
-0.007586110542344746 0.01159933843077574 -0.003067502803945686 
0.006910630004194689 -0.007674862149301483 -0.0005270344183623977 
-0.01389792434414966 0.01281683129233251 0.00758407921293638 
0.002628749829490043 -0.0111683368397169 0.0004739994447796804 
-0.02910200251551085 0.03430130987060445 -0.001073661255216883 
-0.02272885367836928 0.01103762757313629 0.01916512583234127 
0.0100191379379205 -0.01521042843806192 0.003028834171005625 
-0.005848411607240308 -0.000268998522407669 0.004810615047649069 
0.006592165258870445 -0.006563454877733844 -0.00157096493817382 
-0.006501345805651537 -0.0131422465824886 0.01541635630489682 
0.01788492288214127 -0.01051142281867218 -0.01162384337296114 
-0.005591628428940844 0.001272329931167682 0.003098293023843166 
0.02711538676175474 -0.009778598213092174 -0.02203566673971195 
-0.0007615002424319788 -0.000225812316065257 -1.78925992205612e-05 
0.008643010154418729 -0.001595222845594896 -0.005203433672321917 
-0.01458456993817213 0.01366377782268358 -0.0009284653379379961 
-0.0005971026910468598 0.00109356953084116 -0.003969507676675271 
0.007219771503505295 -0.005882022496395767 0.001974994100183782 
0.001336261097047115 -0.001660925810292258 0.002615708462633358 
-0.007624812525696027 -0.003787732475123971 0.01511180880547341 
-0.02948134030997141 -0.03892027845853939 0.06230719210432784 
-0.01227803599322084 0.04120027824984598 -0.02798810031926063 
0.02164483185161 -0.01508167335551137 -0.01833391132052152 
0.0110835451529183 -0.01452543859903296 0.005366049247284919 
-0.001459771879782447 -0.001579458966822291 0.002920902359091428 
-0.002713420411346536 0.001815412151991999 -0.0008064994286779522 
0.0134933786176149 -0.008436834066502233 -0.005332289678135448 
-0.01587288481988496 0.01554003812006263 0.002707331513734213 
0.008618645968232419 -0.0009285268488960617 -0.004217259761801974 
-0.002180992088308313 0.003986851126456702 -0.003535552768621008 
0.004295875408994331 -0.001035575159362277 -0.003911727271881516 
0.03301135308501866 -0.01852285126977725 -0.0276891179847541 
-0.002733721814456767 -0.003109832400507116 0.003423703911021265 
-0.0009933082151182911 0.0006177346097469514 0.005447728821476755 
-0.007970194975842592 0.003811053795508406 0.007771824424804537 
-0.008704275013702696 0.01336793522417119 -0.003922175860461382 
0.006379938511670632 -0.009770047907855905 0.003021187769573899 
-0.008847957467197133 0.02020188612593572 -0.0106156496241079 
0.06585630789175377 -0.03833796031280225 -0.03406276290611723 
0.005065977548268297 0.008424973434442836 -0.01600924980554266 
0.01316339869836367 -0.008346529972121894 -0.003912348378780178 
0.01285134690320145 -0.0102777025955216 -0.002105520646686364 
-0.004022372161366519 0.002068166656628746 0.003321714826255144 
0.003629556674199283 -0.0127371373126319 0.007484243278841663 
-0.02472561956442471 -0.01028275409354031 0.03743112952998892 
0.009399171262081847 -0.008334721494279725 -0.003574808993959371 
0.01540334479471377 -0.006212531208036215 -0.01107354631675251 
0.02044079196890507 0.01244768370445977 -0.03742745083833005 
-0.008148237143653037 0.004075462325875473 0.006517155326910182 
-0.009250858537311923 -0.0009971358989703156 0.01262706952000182 
-0.002897424701540538 0.005324155605045044 -0.004539006697791199 
0.02425259809290639 -0.002200225432612927 -0.02316123913064675 
-0.01171149999304463 -0.0210561571493477 0.03390688512886737 
-0.007707391584993012 -0.005821211503921876 0.01561865574736156 
-0.0119591286987025 0.009466495685847174 0.005271481627686672 
0.001229176422147573 -0.009471338708530648 0.009796933654596688 
0.00719536192799422 -0.00310398237536433 -0.005112845412544539 
-0.003861889050105765 0.003934625145847147 -0.0007843281897205128 
-0.006146390841175001 0.01569517969144013 -0.008896077299119466 
0.002922862479380666 0.003796596366428065 -0.008257570541098578 
0.009991684171936802 -0.01273890625962907 0.0001159085725596528 
0.004884009093942902 -0.005607768106846676 -0.001668447237562179 
0.009989485246075956 -0.008491335673153558 -0.002981500741173493 
-0.003997554975719981 -0.01760886844038824 0.02217599879011425 
-0.0006932448394070209 -4.345004390959785e-05 0.001186126943343367 
0.003832451071843883 -0.0009286006193290866 -0.002359887807441784 
-0.004900637486449299 0.01354557735317267 -0.009702522815932525 
0.03457998256968257 -0.01860400326812537 -0.01798070097604092 
-0.01135688156475114 -0.01372299072338934 0.02247056960427155 
-0.008170577342529149 0.01583383449184095 -0.007268968737276152 
0.01317817330025096 0.0001326568223270406 -0.01764296898875952 
0.005317875988200036 -0.009601706337280285 0.002577739458839318 
0.009386096154954383 -0.007556960729874186 -0.002827053958118364 
0.01769789013701631 -0.0116985873056484 -0.009501952674997208 
0.03084949600926218 -0.01493647423609137 -0.02128468019666254 
0.008174137041700556 -0.01021022520334806 -0.002793208029752479 
-0.01679268849555904 -0.003131438894610706 0.02173533823238904 
-0.001851180217712995 0.01442473886637659 -0.009759705320934427 
0.0058919161035317 -0.006063639219041239 0.007346433040913954 
-0.00465338836447814 -0.008324784269703079 0.01269151839273789 
0.007710831335981861 0.003274862666311599 -0.009611781780358633 
0.01124501458668656 0.005902350739988601 -0.01533463383801642 
0.009179762559137746 0.008145059861930188 -0.02032050626172787 
0.02011117764897892 -0.02209698591093008 -0.002495662650018943 
0.0293297222528496 -0.01048731773449948 -0.02406505611980716 
0.004661246273521729 0.005362093106946643 -0.0124976422491234 
-0.001106559936322943 0.001154476174276954 -9.294941591129861e-06 
0.01109631743207656 -0.007743541973694849 -0.004371626949490041 
0.001651483993612552 0.002110115168915727 -0.004581928539458327 
0.005670535152332132 -0.005530807931536342 4.822043547606101e-05 
0.01153676927287567 -0.006191827228508185 -0.00734919880754791 
0.02381554860400115 -0.01242880807576127 -0.01500867425620274 
0.0008655358504134888 -0.015185660404546 0.01149019916137905 
-0.01904998894683811 -0.006279299701008757 0.02658276240159497 
0.007172475114303999 -0.002421097993071195 -0.004828592034801665 
0.005618569597175591 -0.007717499964865671 -0.001134588524384413 
0.01428642648787356 -0.001258517985191494 -0.01573492534898559 
-0.009829676448406309 0.005618937524687103 0.005391381491356557 
-0.00107541833104837 0.002946924937279665 0.0002618569061975811 
0.009612770655425217 -0.01057234051296449 -0.001725357206771347 
0.01248499140809353 -0.008913588652861272 -0.004939402805438061 
0.001317641663261009 -0.005538309734279601 0.006375853231339782 
-0.02335504893739463 -0.003264400602673063 0.02824548155957804 
0.01428331970377489 -0.00949774641430085 -0.004794389840781409 
0.01676624340581043 -0.004403758176838864 -0.01350576179141393 
0.02210472571576732 -0.005952663976314504 -0.01988503302976065 
-0.0272765516225219 0.03988952536096316 -0.005047748932887728 
-0.001918140058715606 0.007154202320345065 -0.009138415074285762 
0.01386344646280362 -0.01258811054994456 -0.004723025279816101 
0.008778581827733228 -0.01388094786478854 0.003631626230458823 
-0.03758452600877001 0.02803810531177161 0.01258402715643639 
-0.0005974276518154018 -0.001144964892948686 0.0009667520343783445 
-0.0008975510629590079 0.001611326284262301 -0.002210721938446572 
0.009416805388207931 -0.008791242492418222 -0.004732952126913761 
-0.02493102978762912 0.04262169581972294 -0.01398943315078356 
0.0006613356658319361 -0.003735552235847847 0.006229822270096924 
0.01464293460592273 -0.006103466820262408 -0.01226358257810671 
0.00025088303509546 4.458887008689037e-05 -0.001877168625936314 
0.0179704080734421 -0.005474342620069813 -0.01385254039716487 
0.00284422919842894 -0.005638294283540415 0.0002227966100524971 
0.01649363516247609 -0.003370829726049004 -0.01754255302791792 
-0.0001239389287930188 0.001375513092784327 -0.0007481555678385057 
0.01754187156438331 -0.007931821655628774 -0.01169387136495531 
0.02323047241965086 -0.005869432031427779 -0.02378565313094802 
0.001633990107614924 0.006134043160121788 -0.008416029930488464 
0.0344222150978065 -0.02550409984743688 -0.01243870827681697 
-0.01101988270748871 0.01124840418872325 0.003055964571619506 
-0.0217113533588777 0.02088570735666579 0.003061498674338301 
0.02552166536347676 -0.01427195592814343 -0.01457083099327606 
-0.006271234133151164 -0.00254424760908921 0.01332385075838819 
-0.009382589155443429 0.0286972718498701 -0.02022906056446514 
0.003640491127889041 -0.004403297009757432 0.0006789655402193698 
-0.003081415664660798 -0.009105228547782557 0.00984238542532972 
0.0005941615930372507 -0.003869595041097451 0.001649391266706667 
-0.004970966468642445 0.003554260328029669 0.001374295678178613 
0.02044393007691833 -0.01117731899964005 -0.01097463839484692 
-0.02883225502371611 0.03610562508314308 -0.003280946551815087 
-0.006944631974965069 0.0003840891265184423 0.01076299910665306 
-0.02103775267755187 0.01079335826242841 0.0135943465130354 
-0.02246381476860079 -0.006845160769919198 0.03117118976799009 
-0.004404080232232066 -0.007307989753419722 0.01333521272388045 
-0.01632383485557294 0.001526556585380892 0.01448349206947647 
0.01044673747357583 -0.05058372576003013 0.03875760063837781 
0.0072645606554019 -0.008802288506962882 0.0009544858249001179 
0.008683997099160226 -0.008761726655859742 -0.002686349441516431 
0.01322409727814697 -0.009110184196637306 -0.009203779235653168 
0.004294170374290125 0.01348693456367524 -0.01958178637102426 
0.01483539243061206 -0.001575085770745038 -0.01565788909357596 
0.008751322719073902 -0.01275305880883945 0.002626449351690431 
0.0008202062611041774 -0.005549231217352929 0.00463336471101851 
0.009321735553393095 -0.003145103372573494 -0.007392361257696792 
0.005380912232459913 -0.01896229410934306 0.01119766906033312 
-0.01030141291042324 0.01060243907485804 0.00624079199013104 
0.009085279666398667 -0.007550835545304633 -0.005393612172244093 
0.004242934550064019 0.0009121338768746076 -0.005343637513345129 
0.03226079514894474 -0.03043368651826962 -0.004312684937961163 
-0.02853872976605114 0.04034896047417342 -0.0104017432275643 
0.01092986121830174 -0.01092686104200444 -0.004681999725518911 
0.02053999092907189 -0.01080420865632786 -0.01304161832955413 
0.01297825666194469 -0.01063873506633636 -0.006488260106555896 
0.008569760196319389 -0.003043458378146897 -0.006875181013176928 
-0.008340054410780045 -0.008923197018007664 0.01770719204754069 
-0.02492940914134035 0.02912610095033126 0.001344343661572114 
-0.002875745009080838 -0.007280265736349495 0.008705328745446991 
0.006440006655102878 -0.002692772609020416 -0.003862236662998085 
-0.01767962100181722 0.03142391572911627 -0.01283602953563424 
0.01760347696871544 -0.01703922607459137 -0.003570855863651595 
0.03003582909513357 0.003760722606302804 -0.0355166995588917 
-0.0009106558533488131 -0.009588406564609846 0.01218851781496572 
0.008255845808769435 -0.01064757570772851 -0.002015540535172383 
0.01142419002553388 -0.006104757164262811 -0.008726143839874235 
0.01703000750936637 -0.008479240991192133 -0.01177568559767352 
0.005930576134128211 -0.004734050629715862 -0.001225063087908603 
0.008630851254304045 -0.02430650037966645 0.01323664941064919 
-0.004024702355984716 0.007423188436259463 -0.001788547237631136 
0.004700519314489357 -0.004223873561958903 0.004387772859980931 
0.006276382903063808 -0.006812587393066825 -0.0002154067355445762 
0.009404761861072626 0.01052742014457447 -0.02252256811019293 
-0.009266012752798321 0.005972407080012523 0.004954142563399331 
0.008161000276732109 -0.01815385642781027 0.006213354739250522 
-0.02041206861211672 0.01755328853475328 0.009483862189650496 
-0.007348853462411576 -0.001321822668038873 0.01187734995025449 
-0.0001701744850759978 0.002622995386878229 -0.002229564642367477 
0.006282736209364211 -0.01106123206044761 0.001528234318371766 
-0.004166170006453915 0.01550495167114095 -0.009380994900788647 
-0.003122430573209089 0.002335741992955667 9.084581376235949e-06 
-0.007586255667357793 -0.005322501756679446 0.01285012860581671 
0.01469589528265182 -0.01878817683974894 -0.002790405083483905 
-0.003398282059473151 0.01216960300337333 -0.007041568630815971 
-0.001376076397675916 0.002445675920612355 0.00113496415017538 
-0.003252736998685666 0.004732906691785093 -0.001771831798963252 
-0.006476163665877345 0.01194837713481957 -0.001777034102060429 
0.0212448888810419 0.00417854247614927 -0.02758502952992995 
-0.008678992716061325 0.009802917006056859 0.001781188495341478 
0.005052162417661 -0.006186096778686328 -0.001463409608172089 
0.01886445615238625 -0.01816897691642793 -0.006064760411884502 
-0.003713526723701121 0.00670067918828044 -0.003349282833761691 
-0.008055439337955968 -0.002698257143695533 0.009949078188801854 
0.03149902626424538 -0.01629546100847442 -0.01754969380988617 
0.0256789590092827 -0.009905846103506914 -0.02068177000019098 
-0.002889517966968921 0.004591579743894464 -0.001485992445544758 
0.007588833276147242 -0.005268796469712988 -0.003968349945454848 
-0.005563756602969475 -0.005963384625658688 0.01578906569331495 
0.00264934580082352 -0.01002200550893637 0.004989902576633507 
-0.02197284788942238 0.01674668139861632 0.007554424076760819 
-0.02214766484793916 0.01624953059023312 0.01066618362975937 
0.003175944669507571 -0.02261523038213344 0.01566051464976961 
0.002526452149588284 0.00119046122960527 -0.004053703742641425 
0.009123509074850362 -0.004707081754546824 -0.003884761613028941 
0.005375697975392151 -0.007591758653419603 -0.001793184379515758 
0.02266091296228328 -0.01594667792694568 -0.008582145980036803 
0.001623517283443287 0.005776798306792149 -0.00665237541422633 
0.03575674661603102 -0.01028125087445234 -0.02991024950624883 
0.001209225222105288 -0.00164806137572499 0.0001329494221820501 
0.0121086149005249 -0.008748632438618384 -0.002134728485556059 
-0.01190019134587596 0.01335766789321767 -0.000169945582617531 
-0.002600182380816872 -0.003703414774026055 0.003198421449482887 
0.005027478361784429 0.00340195525632797 -0.003585504185961823 
0.005981761897288441 -0.00300765704254738 -0.001596518773370436 
-0.004071433957082669 -0.01003421938677731 0.01607781675209278 
-0.03339751109119811 -0.02408141433528446 0.05732747804019744 
-0.002571275478125484 0.03404401945678791 -0.03435211715151705 
0.02262752101313508 -0.01592714081451432 -0.01338910141770859 
0.009805001448605109 -0.0107491223932734 -0.0009621184315653377 
0.006981833709407448 -0.003812337254996026 -0.004370632771457642 
-0.007028902263044244 -0.001312794949300233 0.009224072371607864 
0.01160196832892981 -0.006122649957896951 -0.00649814172366613 
0.005986986123318317 -0.002672343998856826 -0.003242140566869737 
0.008351038805496973 -0.006013394756900646 -0.0009205400813739089 
-0.0038495816594844 -0.003096007137365675 0.006818157817063211 
0.01126264072204985 -0.005582796646764508 -0.006879815391566918 
0.03164265827970218 -0.01892969853907784 -0.02140096761303593 
0.004747981416816847 -0.004250510519189937 -2.51023240298598e-05 
-0.001244255175931294 0.000258026506484193 0.004762804518844703 
-0.0008257797005370552 -0.0002725370746667639 0.002627603520048905 
-0.008495751120360209 0.00553003109842547 0.00133908618257688 
0.007893218849285677 -0.005151648834063906 -0.003071030286509735 
-0.004070744329431697 0.002829916621704872 0.0004816760989036044 
0.06654287237738654 -0.03265033996756314 -0.0433255216834393 
0.003261819688888734 0.007811399524130237 -0.01217757663223524 
0.01411510601430954 -0.01069361149914682 -0.003928642155803829 
0.01763138179413146 -0.02316586330736012 0.002938398014893853 
0.00385602643454074 -0.01060055309971482 0.006810298013586457 
-0.002133484605691031 -0.004362718811328207 0.005792782351436333 
-0.01302452964200073 0.004237158342832216 -0.0004376839471036218 
0.001236713081420411 -0.005781441992558616 0.001038799880412804 
0.007493091849766121 -0.004585668678216544 -0.005475621487617848 
0.01434083700587273 -0.003189127044412589 -0.0129422048124704 
-0.01058792516616003 0.01066176501721671 -0.001109793569204297 
-0.002805141552963234 0.006767992549800125 -0.004567838801019487 
-0.004583618952756528 0.01514701473995926 -0.01430601430693628 
0.01108004434563377 -0.003382716984559165 -0.008121220097248617 
-0.01060244772713798 -0.008706629089492301 0.01813120281288924 
-0.005808200206547506 0.003981065170779416 -0.0002351994985367181 
-0.0115527693513913 0.01026173233388366 -4.962610849337843e-05 
-0.004964125820846444 -0.0003145104447330525 0.005607778859373886 
0.003388904737696768 -0.001564222724720803 -0.002707092222479334 
-0.0009757501360454811 0.00296980480028344 -0.002297958380813205 
-0.004692188214669632 0.01022569858264052 -0.007413387615067612 
0.005343046976505839 0.001610661395579175 -0.009118401026027517 
0.002324201345890406 -0.006291764781545524 -0.001002184350952317 
0.003323698589222856 -0.002198027220133732 -0.0054537810961094 
-0.001604986966492913 -0.005720067995453269 0.006405942452090995 
-0.001318271255480472 -0.01118643227767454 0.01279473967396406 
-0.007749334937981378 0.01026843462638991 -0.003463727352325653 
-0.003933352546079202 -0.001970343276057485 0.005114823370250473 
-0.01422420937956025 0.03565853961720535 -0.02694858246859266 
0.008864692895261391 -0.03055375192324258 0.01507208058960905 
-0.01197403596651503 -0.006532600331274527 0.01646328052089745 
-0.004302825794189583 0.0102131714831252 -0.006217284820171095 
-0.00969068900134403 0.03181046122933131 -0.02485721726906378 
0.006777129678193416 0.001682004095070002 -0.008277070466483696 
0.002973505970039185 -0.00156251499447085 -0.004882579091588892 
0.002199318823971811 0.02514439717209315 -0.02320833529964915 
0.003233272665240797 -0.002127900074054098 -0.01140830199997952 
0.001744250800174549 -0.004915364493444119 0.00183549641817221 
-0.002149269958273566 -0.003037461947411666 0.005389404249119286 
-0.01117230769157906 0.0100103620176951 0.0003196587757964744 
-0.01389985007266688 0.005420304137324149 0.006475659504635216 
0.00142014362654795 0.005670789798801447 -0.009529551077897862 
0.007687404466589766 0.0007731206369272121 -0.007899309990102115 
-0.006804738306286811 0.006025760375706174 -0.001671782738115843 
-0.0115614107738184 0.03106923905485655 -0.02767893907739659 
0.007086453321880969 -0.01182425917614414 -0.0006818478642983798 
0.006433813567628925 0.01297995012943111 -0.02193235761820722 
0.002455222362448491 0.003436881258306339 -0.008567933488241952 
0.00233888084979244 -5.366196796612653e-05 -0.003233912784335362 
0.004901943195266064 -0.00246170933408641 -0.00277639737474681 
0.00276974803836915 -0.002936439136870824 1.451083808445703e-05 
0.006911663741391793 -0.0007839462083696604 -0.006972211847296754 
0.00552788879346567 -0.003607732542909538 -0.002685227010127244 
0.01003098659179777 -0.009688772712292442 -0.00417732245626975 
-0.004885441018436707 -0.004995378629778175 0.009242175716945017 
-0.005078329336990393 -0.0051967440944819 0.01104644138852816 
0.005309166827080232 0.0004267280697212803 -0.005790303959794641 
-0.002586288713639103 0.0005972465140322622 -9.99890610669517e-05 
0.002978550523783932 0.004102902727236342 -0.01021072498052682 
-0.02016361053996341 0.0169831881442641 -0.0003483326115278132 
-0.005707370142707293 0.01115832446745616 -0.007639043407048119 
0.003605583630606023 -0.0008889801728186532 -0.003736282353161959 
-0.005228580546024568 0.005699397360216788 -0.008389146591268189 
0.001743038502643382 -0.002128518970359138 0.0002648150426910415 
0.001620522460439827 -0.01106935112941227 0.01058509897088744 
0.002810135997407615 -0.005231405193597467 -6.6842621008674e-05 
0.003440473036738662 0.002176524143050847 -0.007981081778808633 
-0.00551215203062881 -0.01140295824028229 0.006769120705099607 
-0.02823401226808459 0.03740174495795367 -0.01693487853959247 
0.002101668819885213 0.004002578054451257 -0.006553710434134957 
0.01434833867311317 -0.0107560932450209 -0.003039516921028062 
0.0001337761280173261 0.005802202825144982 -0.006866512671982726 
-0.03593803582865735 0.03406729252028812 -0.0004172210686691333 
-0.0002020821076641293 0.001815359576595012 -0.002909333501048824 
-0.002967441149143218 0.007828264632003108 -0.006354084716679319 
0.0008715648006502237 -0.008483229870286699 0.0050826748398871 
-0.03069013294753338 0.03942028971703398 -0.01414982408783124 
-0.009145785793531064 0.002521712395831015 0.006897365543440268 
-0.002796506581639468 0.01070497642524429 -0.01425204284509084 
-0.005066995137672504 0.002621013304771516 0.00233486855423525 
0.005251829201376254 0.003564732777101185 -0.01040356616152761 
-0.005066632211566058 -0.002618677440199805 0.006252648875118186 
0.006736989517377181 0.006210716809449267 -0.01522234301414294 
0.0007110427800340505 -0.001368474797069192 0.0007343445162875575 
0.004119306040141162 -0.0009683548254471072 -0.005426763971911998 
0.01257769737062846 -0.01767882116816076 0.001689234387537232 
0.002089090696987307 0.001534923654207681 -0.004692764437357712 
0.01573601244892584 -0.01825484828255763 -0.004771399513204961 
-0.02062970354118804 0.01948051372339699 -0.001291104433793084 
-0.01797861400610464 0.0146719279928511 -0.0004242640937982982 
0.01201673249681826 -0.009722115497396834 -0.004033295933912361 
-0.01073688501676071 0.004425034679590406 0.001194329258567207 
-0.005274079820563202 0.01363233352022479 -0.01050788268383146 
-0.003572244651876215 -0.002628589150779803 0.006135033772377486 
-0.007541741267251135 4.101937795411021e-05 0.005148338968367383 
-0.007456283828340677 -0.002525171165841274 0.006938856445286887 
-0.0009978753613567753 0.004864810938692548 -0.003874754745683334 
0.000333600852731526 0.01439856433758753 -0.01477464323310818 
-0.02751310688999967 0.02253113539935052 0.002754254981960792 
-0.01154690181978759 0.00423833714301483 0.004328978333547413 
-0.01541916765877475 0.01427813707872207 -0.0003090529693674747 
-0.01134401240453654 -0.004913576539257991 0.01726231859121032 
0.0001023957933342838 0.006738274491964452 -0.00698846399446974 
-0.01133597091758519 -0.0001635705100158406 0.01030910406038117 
0.005037428216937648 -0.0001044689236052246 -0.01020391864589982 
0.01391987527273433 -0.02451399334343057 0.0103515180589857 
0.002366176856490997 0.001404024295862949 -0.005342951428859885 
0.005515597734449648 -0.00360498124868677 -0.004710987251836145 
0.001593427647673824 0.005711606016558813 -0.007896776617804965 
0.004497002747310403 0.006831875141806117 -0.01182227067205166 
0.0113322586856691 -0.004312717386378373 -0.008319801971784628 
-0.004252115393906244 0.002867091801707629 0.001732538892144715 
0.004529489777165482 -0.003376593660904529 -0.00125600526664515 
0.001735565178890723 -0.005735653961816684 0.003999609860733023 
-0.01886709698688657 0.01345208638716977 0.004561322056403678 
0.002962891198161577 -0.006221031469864467 0.001394891213941592 
0.002438152674577729 -0.003098243415135774 -0.002617132260458592 
-0.002453642206024066 0.02251627911064391 -0.02669373495648795 
-0.03229793726484266 0.02216390896769721 0.00193078239868358 
0.001831690123183911 -0.004763684917058996 0.0006082625892513525 
0.007871011911753064 -0.003272926983640333 -0.006712405341291156 
0.005827421400700134 -0.001979048700995637 -0.005440956647975286 
0.00138849979133403 -0.001073650619923353 -0.002961252748079506 
-0.007845490086828931 0.001526970010924432 0.007293987644981735 
-0.02590080358176726 0.01689451698996138 0.009351209064208062 
0.001310408017532338 0.001860471196731299 -0.004371811725249175 
-0.0009875541632857023 -0.002856126365302178 0.002913720307488129 
-0.02197603108722854 0.0100065409341249 0.01139866390036787 
0.01387778705945703 -0.006926871193638258 -0.007918064885753535 
-0.00435419653895768 0.02212184584454405 -0.02444855914063151 
-0.0005105092095864853 0.002316030659691807 -0.002150341696149312 
0.0002184288830729571 -0.005008949721071409 0.003219672607445692 
0.004531034948552694 -0.00790965719806031 0.003698774737629338 
0.004242403768400122 -0.003258399496189526 -0.004874737663547771 
-0.01065784624854678 -0.009937238832793748 0.01441822379641139 
-0.001385537218881381 -0.01090899146476171 0.01153503998733572 
-0.0006835781016625155 0.005442724398017297 -0.004624976015147601 
-0.01330511892209242 0.002914192063989384 0.007069582083781708 
0.004572633940119644 -0.004496092441641347 -0.0003787521215957603 
-0.008567604179138669 0.02908338082736303 -0.02606534537084537 
0.002961356586650791 -0.002953521133634383 0.0007003436593045697 
0.008245546297534356 -0.008844310570054057 0.0008338041348364539 
-0.02921163866432877 0.02023813064710881 0.004157404621507464 
-0.01537609824074263 0.003902603844509046 0.00743302752903748 
-0.007915310954991985 -0.008416291939046106 0.01454013778195614 
-0.003326849226730218 0.0009752398489891958 -0.0003668703508422777 
-0.0009054547064031916 0.01624501719541789 -0.02030033496205631 
-0.0003007206528311045 -0.0005015152116124911 -0.001154986942852751 
0.0009423585046265677 0.002580887368919905 -0.006632244347126275 
0.002926644985147619 -0.01030417726233931 0.004050893233984458 
-0.02184651830704428 0.01587063113894499 -1.8298781415058e-06 
-0.009096203172845881 0.001610910025540206 0.004206857408759678 
0.0003923122674052112 0.00340973022559262 -0.004477238499350605 
-0.01352180810621149 0.01058761871166594 0.0006555971708835998 
0.004957508704125692 0.004994852019399491 -0.01520936515703912 
-0.01065970231445193 0.01355090963468367 -0.004613004507714448 
-0.001360389490487507 -0.003893562535889775 0.003826839410719728 
0.01486849007499595 -0.006899402019149336 -0.008037903213008308 
-0.001347704417745444 0.00542714621690216 -0.003653464237444674 
-0.001069423813947131 -0.008570776279146142 0.01107178259655609 
0.01174670705611479 -0.01387944278337037 -0.0005500841730607815 
0.01605079679795312 -0.01615840891680818 -0.002335203204999636 
-0.0002579165300615964 0.003812204826782472 -0.003109445403628686 
0.005016058394697454 -0.003601373981895938 -0.002406870608188626 
-0.009136509483244085 0.005801529516978421 -0.000776692117057854 
0.0009555227698160079 -0.0005655743179116705 -0.003355669567932075 
-0.01344549678685601 0.01885491390371039 -0.007124039547191256 
-0.02734942722319933 0.02508265942556423 -0.002079747445491152 
0.008979126319942746 -0.01992214912641294 0.01061457771113962 
-0.005640559767897268 0.009202024631744705 -0.006590317250945612 
-0.002175503791124308 0.008099139041207149 -0.01001191155257711 
-0.0003174670642839168 -0.002517231532194822 0.0012094439698331 
0.004332505371283707 -0.01596748875568449 0.004590409944163594 
-0.0117168578956291 0.01720296531796526 -0.009415608291238921 
0.002886828796487727 0.006876030913781538 -0.01654830790507401 
-0.001032844479407571 0.003571086748507148 -0.002829761072116448 
-0.0008268845188147713 -0.004298155885108534 0.003863372701594932 
-0.01263034523823188 0.01228343357339303 -0.003347497098609288 
-0.0004170373501929884 0.004691129064577354 -0.006597637567566844 
-0.004776817707796467 0.0130777646897919 -0.007919707930191377 
-0.00132600198567309 -6.234276986175847e-05 -0.003302531277446012 
-0.009620656961458356 0.002986644172990711 0.006722237531374217 
-0.01009871150402168 0.005169925160506568 -0.0002991238877285204 
-0.01373223877596605 0.0238052548676975 -0.01373598580942962 
0.01358518666867331 -0.008212746688718017 -0.01003021386748172 
0.004584923060628058 -0.007957529727230322 0.003730452935424729 
-0.0115141493289083 0.007498864528434328 0.003473033346454532 
0.004530608159334547 0.006163280310445545 -0.01041954828338726 
0.00727188437069643 -0.006083570584186801 -0.001387793423567607 
-0.005272115855930957 0.007530881109101159 -0.001752207365628158 
-0.0007058342825631412 0.003099615904506696 -0.003192032493961171 
-0.001986033233953188 0.005527832923352505 -0.002711842389164018 
0.003023188487773702 -0.0002735293923244367 -0.003308368595040525 
0.01831365179220582 -0.009475364100833191 -0.01335088624550049 
-0.00500710872546536 0.0008863227835406376 0.0006366225507414116 
-0.008369059745597787 0.006994732974693586 0.001568271017625498 
-0.00558755736345524 0.002771102703067471 0.002556554000434014 
-0.007950172404494126 0.006961102031355009 0.001137818221638399 
0.00338743014823771 -0.003971945214006819 -0.0008571198181268859 
-0.001886821360853166 0.003266825889868917 -0.001534702582144743 
0.03669687674331547 -0.03177399356186976 -0.006566271264460578 
-0.0004978220650897501 0.00750055279953292 -0.009365953578917473 
-0.0001427077550372938 -0.008750012458593664 0.00728248388786958 
0.007729092914346878 -0.000780447398736117 -0.009895243689068751 
0.003401127576486523 0.003120444582464406 -0.007692064798809528 
0.02194510148262208 -0.00675048989161472 -0.01570248259548162 
-0.04146966450745845 0.01409678710078979 0.02272926537987562 
0.009596029936894688 -0.0126229009797107 -0.004441365446339326 
0.01789448230784864 -0.01436200439485007 -0.00811149283535584 
0.02676097264661451 0.006898818494123026 -0.03646925946966811 
-0.01098869133481803 0.01052550700034606 -0.000565214950573451 
-0.01268602177993707 0.007265178565491833 0.005185109186447202 
0.005787928708500254 -0.002534667779956507 -0.01066522032292362 
0.01545723576373247 -0.001633420288413694 -0.01566388954496455 
-0.007448108180863335 -0.01352647266882856 0.02517608417120157 
-0.01015292672850697 0.008922095903302228 0.0009905783737849988 
-0.01460156745362121 0.01438871792852613 -0.000612153603709465 
-0.003302355068474909 -0.01387102478136888 0.01478097097274468 
0.01023595473726564 -0.003565877139024788 -0.007183696301436779 
0.001881205029683022 -0.001268472672180459 -3.212419722684256e-05 
-0.007562673685099806 0.01018725050667668 -0.004354548152160999 
0.001069910176508336 0.004722076748465798 -0.009394592170600185 
0.01658862302209669 -0.02291926620729253 -0.003012051906015659 
0.006665564692170231 -0.00258194813709258 -0.00763651361774262 
0.009427478012829772 -0.01955032335314152 0.002539675004632531 
0.006065239303341278 -0.007208076139823967 0.002479167777906771 
-0.005785724172064703 0.01265488062958691 -0.008994324743606615 
0.003973034762491862 -0.003654926586672818 -0.0004860538971567174 
0.009222890050663794 -0.01416609819768216 -0.006976642533254784 
0.04289322654893809 -0.05746261369544326 0.001665051153822473 
0.003959316184905953 0.004833459229351748 -0.009561075375894451 
0.0001071352849063427 0.005161866759673146 -0.006293385456295728 
0.01325905349990522 -0.03078976814513371 0.01822205446487674 
0.004188533444139443 0.008461326064129061 -0.01290842517459083 
0.01050440442071553 -0.008286257144118257 -0.005299087499357996 
0.02230149283001182 -0.002801490417213941 -0.01730137074307579 
0.0346945540839356 -0.0381937773299911 -0.01215551622020127 
0.01330966028811207 -0.01135759586631509 -0.008315469555753484 
-0.004395871138256744 -0.002885346937019832 0.007940229606853429 
0.001707672506384526 0.000976781643756868 -0.002325209899971082 
0.00494958680823138 0.02847194188130733 -0.03250365181859149 
-0.004090688006063847 0.008480885207059375 -0.006907926700742092 
0.0004715718786534466 0.008149658172582936 -0.008690833122575676 
0.003006271759940231 -0.002079118452963605 -0.006499771076994422 
0.01229125738564778 0.02407003133213359 -0.0464919799536642 
0.02318700194718765 -0.03392110606094858 -0.002456581887272473 
0.05382006501178915 -0.02235796818166811 -0.03509448421396994 
0.006046593226593861 -0.001601368611207924 -0.0117004622919494 
0.001984032299766162 -0.0004669603360392006 -0.003287888851205769 
0.01250590908918793 -0.00915167904846927 -0.005391202076845443 
0.009273120200220605 -0.004379767288687554 -0.004536504113611281 
0.00421611959376433 -0.004182093188788754 -0.00290196970897728 
0.01472128680019997 -0.009831515757117763 -0.007999518843381143 
0.02951156149166258 -0.03263690489887183 -0.001786992980825527 
0.004751018114993574 -0.008323293399580193 0.003183488382156347 
-0.002195707401718025 -0.006093416573001532 0.008796367487427304 
0.005660024095135448 0.0005863487737310407 -0.009803010019414877 
0.007164711449413465 -0.005732483307013243 -0.008273492246579481 
0.01400100608184512 -0.008765419496886405 -0.01142636436643139 
-0.01611615180173859 0.02656091016677581 -0.01334600302051283 
0.0007741465220798226 0.01428533441661719 -0.01443763384887179 
0.009444166020834163 -0.004139195841049038 -0.00638567275038666 
-0.002278910798933338 -0.02832497412769634 0.0303374086621734 
-0.005380800639787417 -0.005422898714442935 0.01138324183873244 
-0.005489672002189134 -0.005068962363185337 0.01524332686501424 
0.01028313679821877 -0.01086881683356572 -0.002615593456756797 
0.01635823432189713 -0.01130614882995155 -0.01093250418677048 
0.01977254557216013 -0.04226433206338914 0.008251424494252873 
-0.02667474832339219 0.02916607981033978 -0.007259874290622357 
-0.00451985512100917 -0.0006682880270328926 0.00495289830644166 
0.03186961808450453 -0.02581896955424703 -0.008245594235800225 
0.01318981365741709 -0.004054753828121612 -0.01021832977184356 
-0.03417832976642726 -0.01703547758915237 0.04680060635001654 
-0.0008364886138932308 0.003794392763457147 -0.004199064361767756 
-0.001736886429555486 0.006879416881047426 -0.008276542606719471 
0.01065349213529006 -0.0219750804805011 0.002952600550474062 
-0.0002257375244568753 0.01635479744454369 -0.02276104767144323 
-0.009110860894294654 -0.01072569545800517 0.01949101680745315 
0.04777508130700688 -0.017081732121754 -0.03951797828780309 
-0.002460352897935457 0.002234452866472855 -0.004187729479497245 
0.03087332734606161 -0.005006535595186387 -0.03048064836698779 
-0.0006197796638765666 -0.01107851178055358 0.005862226016629586 
0.03484534049145355 -0.03028407797988902 -0.009077799678060803 
0.003130337030707045 -0.005339439914616187 0.001949981207693146 
0.01388576487392623 -0.01503533416329032 -0.004054309471015955 
0.01335255394523597 -0.01117640376759605 -0.003425042649541124 
0.001766151122905037 0.004011622015642319 -0.008208151729237828 
0.03970221436428151 -0.04081832596682571 -0.008913253692398992 
-0.02016142857961748 0.0262392439954306 -0.006091955324909054 
-0.02378528249839262 0.02854680191565898 -0.007178784384620996 
0.02451786876405239 -0.01856258706909468 -0.01162189488031025 
-0.00579335902128984 0.008703722214477518 -0.00267348722867042 
0.008955888338079455 -0.02261645398671256 0.01398487539779714 
-0.004397592861208476 -0.01174380816098997 0.01186527127484945 
-0.002549372330397917 -0.003561096823575523 0.001457891213636624 
0.008950213709546564 0.005848821425333448 -0.01717451511769626 
-0.005269870780341975 0.001990037895953728 0.0009175293139093104 
0.01189920743032875 0.006555156060032144 -0.01727361842249539 
-0.03702751338562353 0.01250691612612764 0.01994343531505794 
-0.01485577019730963 0.006385747319497944 0.00929369269893519 
-0.02483144162765872 0.02048370878436803 0.004256142564851548 
-0.01521613735924542 -0.001180980473101561 0.01973992761018924 
-0.008215920646643102 0.0108441804074103 -0.002666254131939481 
-0.003361564049212879 0.008376798155192813 -0.006226771731781793 
0.02025902152641597 -0.02428915835599523 0.0002355781281283001 
0.04882235606672135 -0.02280983603256511 -0.02435551140053815 
0.005960333387881277 -0.001112832971551829 -0.007092560642625146 
0.02464079462660951 -0.01949629335589087 -0.01366682124993961 
0.01002671419624259 -0.001539803914922387 -0.01506232659973317 
0.01789648241605891 -0.008000575384789018 -0.01194756084650907 
0.007059507612372526 -0.002320669980454792 -0.006742004514384674 
-0.001103530643162938 0.006591400914946268 -0.003991557500233256 
0.01341338962353397 -0.006282340739608685 -0.007743279935702831 
0.02847605538661744 -0.0150632224339687 -0.01481372636536071 
-0.02128107350031073 0.01509384876850815 0.007783156835294198 
0.01567198567750753 -0.01752715455455228 -0.005181718724385767 
-0.0001619578787738273 0.002460397959422444 -0.003354765801723604 
0.03948124518949154 -0.01775805953394889 -0.0254939907390156 
-0.0546185727615865 0.01482111802662543 0.03380452708827091 
0.01442359889372199 -0.01535319770823601 -0.006804540758822197 
0.02579973593138799 -0.0120314298733027 -0.01883505044303333 
0.01179115458046547 -0.003704163048333286 -0.01069163316978045 
0.009826013151932092 -0.00924630495592042 -0.005024720412107679 
0.0001462808247132738 0.007426147856583206 -0.006938499463609056 
-0.02712684307637537 0.02137976468880489 0.006803348876451142 
-0.006209018204666474 0.005483766878414297 0.0003192986892057565 
0.003534119371520581 -0.01030821340179269 0.003015293231277756 
-0.04286111771478602 0.01613536363137076 0.03198713950995542 
0.03004490359565535 -0.0203170628347214 -0.01547593707804476 
0.04027220099707578 -0.01552764856553916 -0.03498736431564982 
-0.001965936467232083 -0.003704658738470229 0.004281751566663388 
0.01136046912183511 -0.01334139217686291 -0.005378914231388779 
0.00979076751633165 -0.01750705932298143 0.0008975750279162918 
0.01580801280555112 -0.02087461260086243 -0.005409797335934894 
-0.001142323190960375 -0.01950646485540347 0.01229024887633457 
0.02411498828915305 -0.04003576139218314 0.01951437193859174 
0.005631694331058861 -0.007476874549997326 -0.0007595416528167824 
0.01047840538508247 0.00280883649411033 -0.0167173849399971 
0.008148368435634963 -0.007301002175975892 -0.001109237727968575 
0.006561539702569248 -0.007163932235193515 0.003633764158474524 
0.00188266309536758 0.004061372707433762 -0.005219461662280608 
0.01853003906605431 -0.01395384963734436 -0.007671352195589893 
-0.0255751097139116 0.04771819000727898 -0.02059598101706606 
-0.01412523051949399 0.01367819602055755 0.001230196479614902 
-0.008751431978309167 -0.01264313471076297 0.01645284059593172 
0.005212894880274075 -0.01504403799533216 0.001088307575783875 
0.02615063253090491 -0.01049415304190689 -0.01428854282653716 
-0.004668635406562157 -0.008029717255308247 0.01131354983162388 
-0.003575414254390438 0.006428265388345189 -0.006059504526927221 
0.01556310477062839 -0.02288764875643479 -0.001316178588217196 
-0.0001052294731673683 1.636181641189619e-05 -0.006190102917606811 
-0.005308818783097821 -0.008779522939226575 0.008631450378123058 
-0.005267130641643785 0.008587072317716854 -0.003761658752248102 
-0.01259423589986909 0.006118436547983102 0.002610733053017819 
0.04406701451576164 -0.0553377210983621 0.01572557398566259 
-0.01135904429013041 0.02245280423089489 -0.01060363259437422 
0.008459894059500948 -0.011447352079114 -0.002366229543343184 
0.01931431276711623 -0.01450850641914469 -0.008940534357754312 
-0.002486368530433985 0.004822875877247352 -0.003400049067646837 
0.009883396335873649 -0.007979232012683661 -0.001511117930511795 
0.02467072616000244 -0.02661036451173165 -0.002795035594257526 
0.02199782303607847 -0.01459196603032112 -0.01047455013206136 
-0.006214685404606698 0.004769159397441648 0.001530584057633258 
0.0116220287694948 -0.0072580442580638 -0.007139505213695455 
-0.008814563211113915 0.007684017233426192 0.001638472281141343 
0.0043274685864032 -0.00201380419737313 -0.006575019974778406 
