solver_type L2R_L2LOSS_SVC_DUAL
nr_class 3
label 1 2 3
nr_feature 90001
bias -1
w
0.005438227285046552 -0.02663939570870363 0.01719236181357581 
-0.01667676719877786 0.007309822049503323 -0.005985103372352021 
0.01621234173420407 -0.02463188085505875 -0.005355267837562384 
0.01358639246986157 -0.009242305048216513 -0.01112055367878865 
0.0225571239310682 -0.01590228231237773 -0.02344522908938759 
-0.001455959651598806 -0.001176126825204461 -0.004901729615219663 
-0.009855401861240416 0.01582841660677825 -0.007735970780733673 
0.01225348771078452 -0.006975217134116827 -0.01929951379109095 
0.01492286103738207 -0.00580089720806641 -0.01730887361505679 
0.00537417280499958 -0.04090725897157014 0.02331789426139881 
-0.004313824705754491 0.005887394818495119 -0.003193852588613464 
-0.01283546748006256 0.009817478722944872 -0.002986358579590189 
-0.0007502343858983374 -0.002217497836203243 -0.001759095721217443 
0.00675754834605779 -0.005510366083306605 -0.002778205666664235 
-0.0008120505937491156 -0.002703856179892943 0.0002337986968677994 
-0.002465747906190621 0.0113379044460316 -0.01565831896418783 
0.009031490733717545 0.001390005935391327 -0.01657653038257213 
0.02725178005409636 -0.03136929738426931 -0.007906518484791545 
0.009162778719353955 -0.001977067642629248 -0.01137256306022665 
0.02059275031970551 -0.0262592505034857 -0.01104448503746061 
0.01134425061946821 -0.03773984322765483 0.01883695004422578 
-0.002296276261772622 0.003923718796900785 -0.005688604944806062 
-0.001662121172839063 -0.004321714394547432 0.001283735893219166 
0.03134472328513733 -0.0175102559117582 -0.04491008687330413 
0.06974214017319724 -0.07272060128377617 -0.03460737641170611 
-0.002354600495140464 -0.02922603217435545 0.02742214937882148 
4.361996602378587e-06 0.00420511124015582 -0.0118423325459679 
0.02130072281220081 -0.02570995299963769 -0.01529945906027795 
0.0108051740725699 -0.005142693978698198 -0.01409090524243009 
0.008177418534589021 -0.005539547376976677 -0.006753439279859136 
-0.01522512409208976 0.0487592973129737 -0.06172956323271444 
0.01644651349443233 -0.01881087148028572 -0.02534971472878467 
0.01880413636335875 -0.02700688127755177 -0.002948682739106405 
-0.001533523532666628 -0.01394427406541109 0.009284693866075612 
0.05580307886512454 -0.0441413612328152 -0.04800249335737986 
0.003139791802906973 -0.01639923948624526 -0.001382150490541218 
0.002771032208105773 0.005180554023977109 -0.01089039193287371 
0.0170870758870059 -0.009435475212105514 -0.02160997775421827 
0.01027289532750717 0.005174925684104934 -0.02779624137420113 
0.007635134599014271 0.01111144183731461 -0.03956596861441764 
0.03837153398197117 -0.04783461423905846 -0.007572528149105164 
0.0358619445288977 -0.004643161689290015 -0.04860946456589586 
0.0154148240529009 0.0008599116115322893 -0.02591895619859078 
0.00183652794307258 -0.0004917042101948127 -0.002367071727542242 
0.008061673295176073 -0.006444199308108091 -0.003951663289466831 
0.002035229181411278 -0.005939431364921625 0.001639302393836826 
0.002973221892865124 0.002175849719450583 -0.008873949514509731 
0.01024032113217452 -0.009587272824315136 -0.00435444158147094 
0.02133276053415002 -0.009346141464500319 -0.01829722573166065 
0.005351368750079923 -0.027449124614353 0.01550020519541516 
-0.003750801424808733 -0.01644969969829155 0.01484462919140173 
0.006719815566704848 -0.0003418212636453423 -0.0104669324834894 
0.01624598690322011 -0.01901151622237566 -0.009513473583949123 
0.00585641388527105 -0.003365991709793556 -0.007221101876098621 
-0.01569603987103152 0.01340100764894362 -0.00443549261678179 
-0.002281579149216321 0.002998356167860857 -0.006226477436366071 
0.01034863339856309 -0.006435120740128526 -0.007596854562207545 
0.002525995089716666 -0.001351414024000334 -0.01915877879326918 
0.00920182462022217 -0.01169405211175499 -0.00704986250146523 
0.0008281474363672805 -0.02114244491538144 0.01465901631824161 
0.008527810617132422 -0.007684475189971409 -0.00486143965629504 
0.02105893085851404 -0.007457681387555822 -0.02472115504148274 
0.04007702270468252 -0.03774215666841146 -0.04013920088097234 
-0.01511662410750409 -0.02494625521517759 0.02904993201310541 
0.006549165106087644 -0.001556366774325612 -0.01251954468898307 
0.01207941901604402 -0.01789549716750264 -0.002743826905591454 
0.009550566953318478 -0.01147859453240505 -0.002178703865526213 
-0.01903095648525083 0.01498965628968494 -0.02030669526191391 
0.001142454250433656 0.002049744765001456 -0.004265411814981582 
0.00396104235532433 0.002464166738909396 -0.009872076114943885 
0.02223614878204336 -0.02702696756618343 -0.01272655784017172 
0.02112257988664477 0.009199082327085986 -0.05563571276434766 
-0.00969065522874935 0.01181822697482473 -0.005838502629276206 
0.06669132694467746 -0.03546465499890896 -0.06067734153979789 
0.003997243270538661 -0.007095328352560434 -0.005697701823824794 
0.01748579501716774 -0.005698076318808794 -0.02134267313784879 
0.009153585496036414 -0.02190473091317647 -0.0007632188102287983 
0.03624483036070471 -0.03339414867232884 -0.02220746157997864 
0.001619884153652213 -0.003096672197622602 -0.0002196586421825928 
0.01927964089412891 -0.008857826365602988 -0.01714169965680263 
0.0486234771915425 -0.05354252144537055 -0.02304187989212939 
0.004708525378254738 0.004099857226335327 -0.01086854527735058 
0.03665497432909808 -0.03094286807806264 -0.01659218164522316 
-0.01579875864406755 0.02099299676873489 -0.01062569044647304 
-0.01574575996204266 0.01064670707187936 -0.002546251628198435 
0.02929450847599761 -0.02284028564225341 -0.01801587089474737 
-0.01041382513624967 0.005245963058469661 0.000374432403536759 
-0.01221328494329911 0.04628331082538389 -0.05296663921077009 
0.006017689887581726 -0.01941816936762217 0.004972080637903576 
0.004977683722533387 -0.0139636003909703 -0.002110044220146052 
0.001292697694050991 -0.01989385270109215 0.01067571744288855 
-0.005045732509897856 0.005141514473501907 -0.003471747071588367 
0.02375451132558842 -0.02884207646381013 -0.0108892084760413 
-0.04932910823145808 0.02449317103536818 0.01191527733208689 
-0.007213846828453072 0.008713004429332458 -0.005369481603646116 
-0.02279483642552446 0.01302633445198563 0.009099750814932089 
-0.0001756075486227856 -0.02461638755956674 0.02010589051203818 
-0.00589849420984317 0.01042714351073708 -0.00716444122007801 
-0.005858917650008936 -0.01540095116354971 0.01653702933354789 
0.001665438112081579 -0.009594823239227971 -0.0100110975735489 
0.01555591003709752 -0.02656298850443482 -0.003332827718608503 
0.009075690574493256 -0.004611386592396251 -0.007954519205107577 
0.03173807916613852 -0.03169806139856395 -0.01253216883281098 
0.008772519715961106 -0.0004003566335784646 -0.0144273332351165 
0.008926344620485228 -0.00342060523506015 -0.01075701219089917 
0.01250399349399503 -0.004872458554484613 -0.01482033971149142 
-0.002958371947637223 -0.008181251700684891 0.006255097131712173 
0.004768536380842428 -0.003451934259750899 -0.002890417641625649 
0.009390577736076858 -0.02653717578346396 0.01298344394244331 
-0.01194313457088053 0.01679456080431785 -0.008752179772761633 
0.02217288713735682 -0.02822945677055462 -0.007198435454592004 
0.005483001360429989 -0.006099868547183362 -0.003744881979258948 
0.02980976985911858 -0.06544496788549453 0.01902086434264337 
-0.004968894363316828 -0.001358060223759415 -0.02492894337880725 
0.02116820826304266 -0.03076386715433311 -0.002295032109227941 
0.01886545689579913 -0.01409482744233942 -0.01250863633060442 
0.01494856287196285 -0.00843796302568907 -0.01068948151789953 
0.003365782085106078 -0.004954194088209012 -0.00139391503220273 
-0.001866355277890994 -0.02296237559242362 0.01899896589564682 
0.0009439681172362608 -0.01255451784620334 -0.01164595426534592 
0.00355702150533036 0.00064128769708255 -0.005803669536769584 
0.00727669844302237 -0.00609801157267898 -0.0078241163600145 
0.0003819501092996195 -0.01422151050408763 -0.01481116821868718 
0.02037513040874745 -0.01704795541382421 -0.01212768161307149 
0.03147469670489008 -0.01498782830868365 -0.04418487922096948 
0.0006758525652242178 -0.0005232825619605571 -0.004717525806102363 
0.01768164910669529 -0.02866175283568728 -0.0004291559945906733 
0.01844412138715907 -0.02599163628037521 -0.004246979617356831 
0.02797937401596087 -0.01543228912179839 -0.02483580882158391 
0.04485870805253202 -0.053251736589765 -0.02676834012213973 
0.009051500091160567 -0.04279981811316621 0.01926931115890148 
-0.02633753658486818 0.004871724864336063 -0.002075818633783661 
0.03756469974784171 -0.03142652332577683 -0.03129138526246862 
0.007182258326618996 -0.009466985956971917 -0.000876485501014354 
-0.01646493515742595 0.03629921594550501 -0.0480153839023915 
-0.0005967273149051894 -0.005601951433839893 0.001874517655193115 
0.02114851981283484 -0.03326740288952848 0.003454790798004689 
-0.02172614898096925 0.01227724036885806 -0.004368702270464458 
-0.01122301788165116 0.005573210858865999 0.0002968349552140382 
0.003338209524941975 -0.0107557514838179 -0.00517810396629938 
0.01819580656658398 -0.02998222557815934 -0.004062249043869759 
0.003892782205234398 -0.02957041009980809 0.01251118602873192 
0.01106745113679586 -0.01552098477415162 -0.007574028685560221 
0.002176252566036372 0.002306299010505084 -0.007152136246292605 
0.02660611159846446 -0.04288498970485725 1.67437460277639e-06 
0.03731482063790627 -0.03536881793495675 -0.03531392371276916 
0.01141679637142876 -0.01212793482352121 -0.009596896115673768 
-0.001529660241829233 0.007097006638794037 -0.006158814348057973 
-0.00672174875064049 0.008520088997200163 -0.01031854021430086 
0.01004750928437365 -0.00541675240726378 -0.02283941862469133 
-0.004930673539996685 1.565139023398891e-05 -0.001712785946727786 
0.01395741413656455 -0.02127669398197969 -0.003985570916535022 
0.02264376900380781 -0.01654162020740535 -0.013866462172716 
-0.003701130302238483 0.005762770800667249 -0.003526186352668767 
0.006089703729014765 -0.02548724778781431 0.0143079493861049 
0.03467249424969245 -0.02908775543688268 -0.01797340012175676 
0.04876128634217831 -0.04908590454323048 -0.02210169596725981 
0.0004728725177966089 0.001852503904191189 -0.005942959391266118 
0.007491651097428807 -0.008339790839671651 -0.002687868963691286 
-0.006118549183021205 0.003190397191865559 -0.001782021392159486 
0.008647517790738165 -0.004655006648359071 -0.007618944170270159 
-0.02209410529316364 0.02234009017534546 -0.005629317876323434 
-0.04061206131346769 0.02499411616717502 0.005349577510634085 
0.01142489099540605 -0.03633646809034159 0.02106513063234925 
-0.002134329011367965 0.003164624689250417 -0.006740635095792703 
0.004469375392182276 -5.983141506769442e-05 -0.009709373682979947 
0.01736908362193303 -0.02616312971612807 -0.002049111056995866 
0.02602760508228414 -0.02286066855986233 -0.01641609248633583 
-0.003172076380996286 0.007266375752095128 -0.01194774161910582 
0.03659016704347324 -0.03174566142008041 -0.02410917651459877 
0.003673648730495019 0.002562361224896201 -0.009156269965472546 
0.002619794014714093 -0.00535429085093003 -0.006859695507921439 
-0.008713563066309825 0.006892471110336273 -0.00726691204322876 
0.006531769647841901 -0.001700791565264901 -0.009128315180399292 
0.01155037385974043 -0.04333119408516417 0.02089168822868855 
0.009728713122728756 -0.004512862619908456 -0.01076835702467618 
-0.0004823987835402869 -0.008389298729548774 0.005834791143114485 
-0.01144134234009135 -0.01369891829614969 0.01462227111417077 
0.01301994022499842 -0.005100111891765025 -0.03786876342416864 
0.03352738786390978 -0.02976192212117786 -0.01549666628424098 
0.009899042157057404 -0.02653019109847099 0.009697570164224864 
0.003565644848036462 -0.0003055980716194966 -0.01031681459146112 
8.988080945749532e-05 0.005828655505899555 -0.01024940883962434 
0.009689952304462447 -0.007135252479951614 -0.004349877210131882 
-0.00911341823929215 0.006497082174527329 -0.005907521249302904 
0.002168829104712576 -0.004633793786223474 -0.003714984406120749 
-0.00153333827867637 0.002829778970140425 -0.004104986776012491 
0.002732194491252677 -0.0009975141867980292 -0.003599922589555034 
0.03929843330487853 -0.03399649297408978 -0.01837405283860848 
0.01324123334316795 -0.0101401109727903 -0.01057637145166088 
-0.008986673337156309 0.01138986471578125 -0.005853721749921945 
-0.001844956605269953 0.005301335491265576 -0.008199476220461223 
-0.005022708719116417 -0.003342360233831837 0.004104217696457099 
0.006033532068462325 -0.009014824646338579 -0.0004391655912425638 
7.967200408341436e-05 -0.006385141720796806 0.001795946543554542 
0.1078401707812147 -0.097292177295157 -0.051929053721018 
0.01496018109352438 0.003073058366197887 -0.02570529811262486 
0.005252498920908785 -0.007859315856576765 -0.007754486409262112 
0.03914018876354555 -0.04357375164516522 -0.01760047607288632 
0.007134683423871108 -0.0025831661245055 -0.01227539388242291 
-0.005932927872780298 0.02236499472215933 -0.0370611720963339 
0.01741085512716677 -0.01291440902707448 -0.01006389310497727 
0.01936806526495043 -0.02264776328120486 -0.007867180143703027 
0.01050517737147005 0.005953392153050708 -0.02449777550452581 
-0.008416706317829988 0.01476852713845954 -0.01794674625387535 
-0.005565356752446167 -0.01101223251004797 0.01579907139086711 
0.03562454083613262 -0.01811798301217158 -0.03003334181189863 
0.01333749693632909 -0.02354912462071194 -0.0001615916049001783 
0.01597737431479033 -0.008296171216761542 -0.01571252683659086 
-0.003500602371520931 -0.02546525060182357 0.0222495680121504 
0.003493419198778204 -0.00332447649609617 -0.002412966927127813 
-0.006100516967187567 0.006414768407737384 -0.02141567623977927 
0.04470057526405789 -0.03904037814750136 -0.0174133542897678 
-0.001355299646557427 -0.003979572443845689 -0.0003454807364942471 
0.003068061085528566 -0.0102901349929003 0.003174720216048928 
0.005832815673613559 -0.007665158398760107 -0.009241763341004398 
-0.009756020575919936 0.03014937174409972 -0.04584240776615914 
0.003605220195687878 -0.0005023998334549425 -0.005401107605097382 
0.0001964161782307926 0.003225601409526578 -0.007666017138921461 
0.003217020349723659 0.007889291492470732 -0.0188960443169655 
0.007832342494627848 -0.01948764969773946 0.008903863330659399 
-0.01536901995251734 -0.005493508601557115 0.01581960678095429 
0.009836421495042649 -0.005419410881533935 -0.00877473522374602 
0.03879459157166958 -0.03380596067651963 -0.01413935453522247 
0.003028334750088478 0.002534477667874836 -0.01297460945732665 
-0.01682025173763341 0.006101290347208476 -0.01681156864409766 
-0.01426098505769762 -0.0276010347670001 0.03787027406128027 
-0.002257762727660499 -0.003572541857119046 -0.0008653194048562333 
0.008010899582198333 0.004695948620312982 -0.02330790643569321 
-0.003204547162672932 0.006514210372208041 -0.006805466232990095 
0.009494675993987085 0.009322282006261539 -0.02662325020519389 
0.07595686421716213 -0.07115646842569577 -0.036172569172402 
0.006371481913065006 -0.007043989250177986 -0.002517047223580536 
0.01402848159575846 -0.0132150822116726 -0.009502896049466671 
0.02468096368633903 -0.01791727250236408 -0.01483973219535862 
0.002297374276145093 -0.0174995264333442 0.01171925727682714 
0.04279374998608534 -0.02408272954886867 -0.04957339563320695 
-0.01937929450639723 0.03989396772720367 -0.03598759216642818 
0.002892339511327577 -0.01188524222254897 0.005488395727814894 
0.05219416628918414 -0.0261396202484277 -0.04032423580452944 
-0.004470291346473442 0.01321606093838229 -0.0215376152380821 
-0.0154144287026144 0.01502475800068917 -0.008061662119658197 
0.01026306679946443 0.003305263855522021 -0.01907750478578311 
0.01103528772798635 -0.01529968952518851 -0.0006475004064702989 
-0.0007593207747967657 -0.0136724594443298 0.01151656239182935 
0.002878101677348193 0.007362418416699275 -0.01546803480010171 
-0.01604355337562904 0.01860106148699104 -0.008990280856339379 
0.003319666973503268 -0.001725789932686228 -0.01140684786862631 
0.005326664122107205 -0.01888102827785115 0.006143466555874251 
0.008661647705001437 0.006567851303156849 -0.02104125026649414 
0.009837443267890121 0.001077583972716209 -0.01542186176047049 
0.01837325491488866 -0.01992755882284809 -0.009531174569156965 
-0.01000386846426601 -0.01199773485254871 0.01330319001194347 
0.02090653649608061 -0.01142519418927021 -0.01932969187636857 
0.007983377008411474 -0.002927119442615751 -0.01346251830085344 
0.02809667515032471 -0.01500383405887994 -0.02128730017986258 
-0.0191312390386644 -0.02176436721053152 0.03455362998435709 
-0.005532655855684843 -0.002272799850802439 0.005519343144754304 
0.01811017553093948 -0.02662097836016225 -0.01133799215866897 
-0.004475053284280218 0.004651580131476212 -0.009194293247779834 
-0.06036468771997135 0.06573086314923957 -0.007928374049338428 
0.00546675387079763 -0.0008945508702420104 -0.008712848725968439 
0.02001613198514887 -0.01779883871405164 -0.009086855998587787 
0.01314407244048345 0.003516898423032397 -0.02457535099684316 
-0.005238526506758638 -0.0009612474609419475 -0.003986323469136228 
-0.001180086552985656 -0.004738311610525265 0.00471481420277103 
-0.00134916227673472 0.03120475030380414 -0.05683946175790241 
-0.01152110895343186 0.01542382740874527 -0.0221432768271814 
0.005856588100886722 0.001223248288016729 -0.01394219357545473 
-0.005595323478154353 0.0130013934867013 -0.01767271264585784 
0.02183116896813103 -0.0283512511847823 -0.009488974613745866 
-0.001526432138249139 0.0113788980515592 -0.02034181451004558 
0.01320786690439005 -0.01527364475286967 -0.003260264043709216 
0.006570339831470812 -0.003526666952577014 -0.01050409168195783 
0.01750318805675638 -0.01471330571629115 -0.009268347334413543 
0.008153806694927606 -0.004748097704940835 -0.01549417827680549 
0.0543461112039662 -0.03030045990591942 -0.05710373078749782 
0.01510920527961583 -0.01031759954367356 -0.01185663177141894 
0.01276797134459642 -0.01375632352255005 -0.001512358194738544 
-0.004772283548526501 -0.003937407315138537 0.006786049857170986 
0.0145313600376371 -0.02840686593275905 0.009936430679293257 
0.04784163823844186 -0.03816309252430818 -0.04453258348297145 
0.0187743907081654 -0.01737402295080855 -0.006113246831374127 
-0.002154779276818893 -0.0007678943444215564 -0.0004815552188064675 
0.01996309243959924 -0.01773925762494218 -0.01263261535252974 
0.00306836861506174 -0.003368147778329601 -0.002945785809706691 
0.03965598813588552 -0.0325611327204268 -0.0195530025995771 
0.0181478824239744 -0.006131400927148947 -0.01919558919298865 
0.02005116139013762 -0.01587098828716942 -0.01799124931326574 
-0.007608767745426491 0.004219652238965774 -0.01610831668553002 
0.03198865995611425 -0.02184379358901057 -0.01776333309170952 
0.01542485848363261 -0.02243410508343184 -0.002333537562676066 
-0.01177073332568741 0.01246528911801534 -0.00312493935503389 
0.0063158159728235 0.008302920200785765 -0.021147937776449 
0.0567275803120717 -0.04820985856410379 -0.02277839164469023 
0.001789201834957252 -0.001342074100088254 -0.002948414789064009 
-0.0083710368946859 -0.03626715031589588 0.03549363642235221 
0.01277427241650062 -0.005777035055837105 -0.01162649120121002 
0.009892796968754744 -0.004433945576714237 -0.01161717788236527 
-0.001893094654253183 -0.002669445506898412 0.0009016467876507662 
-0.008840841397004348 0.005598375843399947 -0.001220609591026805 
-0.002515846047742344 -0.0006270972089399584 -0.003412357706156556 
-0.005392825958087781 -0.004412836659308117 0.008543718746977442 
0.01191214672240608 -0.009215564060078306 -0.01412855897751867 
-0.0007136900242502411 -0.005588702496471189 0.001722751449219991 
-0.01116472737362379 -0.004588022737062683 0.01313822038409494 
0.0108616300630453 -0.02098075643830135 0.002968891867383719 
-0.006913922287196728 -0.01345427450623767 0.01260067237930518 
0.04375957625080037 -0.05077062695928652 -0.01374481204572848 
-0.003933154186938474 0.003731197341763715 -0.003927751837210339 
0.02916167433524668 -0.009849852424785286 -0.02712259945552154 
0.004970209090704625 -0.007041213563518382 -0.001652289678524605 
0.007253178425798858 -0.01625080346725082 0.002380646541945371 
-0.02733551091704964 0.044566232519977 -0.023868447325353 
0.009942859336395377 -0.008267467553988947 -0.008885064983612124 
-0.004991212723913784 -0.01382385052638453 0.009250412718798154 
0.03560611406571348 -0.02853055932996102 -0.01436808965439254 
-0.01346352936529023 -0.001498493617179075 0.01639863291251742 
-0.005879169923928264 0.01536190335955461 -0.03195209916959255 
-0.01771727147788518 0.0229854920785534 -0.01122345105530275 
-0.004190309010715892 -0.002726629819999588 0.004053460508570046 
0.0514509533963696 -0.03413542314289811 -0.03286410517382341 
-0.02314444044866189 -0.005129828602303926 0.02484290737798786 
-0.011151542239218 0.02871859038035611 -0.02480174265134616 
0.06856775433959464 -0.06399955672354937 -0.04081919610007259 
-0.0141333236849934 0.03045710073234134 -0.03393179738151478 
-0.01199033498490227 -0.007443645306067136 0.01777119333730102 
0.002039616570133803 -0.01467263533955085 0.001701179669400495 
0.004805275396200612 -0.0200057425659445 0.01185489623017397 
-0.02371463907401306 0.04788139103786886 -0.04112286346624228 
0.001599664870904024 -0.01140654027015099 0.008414411319589605 
0.004654436877003672 -0.002178202122673174 -0.008132499768403115 
-0.003793352330422374 0.002303628468670019 -0.004829521862004329 
-0.01758239511112449 0.03072191294700902 -0.01688255902370109 
-0.006834559608789861 -0.002839412313994708 0.007205716909977273 
-0.002241353125016001 0.02156284512672288 -0.03666513732760826 
0.06657461906647658 -0.06165777414283302 -0.0351824070293837 
-0.01863051080077444 0.005940516316892185 0.01289663739888096 
0.005459446184178655 -0.01001534326869158 3.538024072980353e-05 
0.03232588411197437 -0.01856301740909669 -0.02188325096716609 
0.02382792535697221 -0.01461860860243806 -0.01597875398533752 
0.006846425839289925 0.008081045337588598 -0.0222780802056643 
0.008424194206123052 -0.01062172285370367 -0.001886000609419053 
0.02004498279702263 -0.0185485824037946 -0.008848128247532557 
0.008852142396586002 -0.002214561837293835 -0.01024721176555097 
-0.00514273678367414 0.01140847934341501 -0.008949337813698915 
-0.0002304492792223614 -0.01052261233304004 0.007877091393291886 
-0.03041956295987891 0.05404593951464502 -0.0393549815783802 
0.01535076864046748 -0.02858734746970748 0.002447198785204835 
0.01014404122587068 -0.010960532794214 -0.004557910929879456 
-0.006039987565822502 0.001308894113316959 0.0005566092779313237 
0.02491178078908551 -0.02081514594204752 -0.01100797413924356 
-0.01777098558016969 -0.01174591069279508 0.02452020683690545 
-0.007467283436074381 -0.01679257040250403 0.02239882283187336 
-0.008355887989271189 0.004847289102099514 -0.004070047838417307 
-0.008240739535797591 -0.0107288503199107 0.01798917320295898 
-0.001512952820004607 -0.005673741657015124 0.002498161986744732 
-0.01795114578032925 0.01684344177506259 -0.009515262337574213 
-0.003005958624089342 0.001180023996513676 -0.001484701043821619 
8.759121206950139e-05 -0.00546316136931492 -0.006212341964692098 
0.002651983568778365 -0.002322216135862669 -0.01011146646213337 
0.005621003020585656 -0.01271356655010202 -0.001040239033613006 
0.00838929284683909 -0.009319682721933261 -0.02025194914669178 
-0.01992875312771803 0.02141360989755678 -0.001854359345934647 
0.01372009412218637 -0.01123717211624205 -0.01374700812247242 
-0.03083006129468401 0.004109278535094146 0.02484999979217211 
0.0223093797127094 -0.01507837396161956 -0.01391316155534445 
0.004245327059640197 0.0002516018938466277 -0.007729843458115917 
0.03906632153592621 -0.03837870723810585 -0.01269238556641218 
0.02065059758880648 -0.02426449229379738 -0.00525264926985623 
0.0104320171853086 0.001278503413258251 -0.01912412619090325 
-0.01712936790050205 0.01991752613252435 -0.006226632069856812 
0.002871086151961784 -0.009142263919709463 -0.005595625287963043 
0.02400268244038577 -0.0185158178084123 -0.03022765462826045 
0.006405747027062104 -0.004567163808986987 -0.009420252889822327 
-0.01321059802503698 0.007935056957120119 0.0003035926042684136 
-0.0006414596078789197 0.002637826318137344 -0.01339727400450356 
-0.001485094614132172 0.006843734270210429 -0.00878596665439535 
0.003982552097891949 0.00896166927277876 -0.02287817108991974 
0.01466793163787739 -0.0007657441918380022 -0.0212528806563572 
0.009539898746741611 -0.01486062118482592 0.002109807652339848 
0.01218937488075573 -0.007263506359293099 -0.008734662669861367 
0.04461416578391478 -0.02154115152612717 -0.0343853521872368 
0.02899251833484412 -0.03990327532794674 -0.01304722769225031 
0.003591963499718744 -0.01007819674751461 -0.0001155151038101483 
0.00967222589468994 -0.03406501587756238 0.01948715530614756 
-0.02860200591365935 0.02834022361954617 -0.004755951579196048 
0.02725171952170499 -0.01421142220561613 -0.05070611002971695 
0.01963115316519737 -0.01329912727872555 -0.01278230682032214 
-0.00144832693296515 0.007146379847011079 -0.00893747059640951 
0.05994188668452853 -0.047918321321028 -0.03774197866677523 
-0.01918273896923106 -0.006738059012889488 0.02297427675207832 
-0.001947841432218832 -0.002726475635525325 0.003070111841566116 
-0.008386992989826168 0.01343818482228765 -0.006693238533146601 
-0.008202194810976195 0.02434374624304463 -0.0299195702634265 
-0.01081643407756952 -0.02240820319830444 0.0268805142950125 
0.02806713583270866 -0.01790492459354994 -0.01863116236738717 
-0.004629188366344456 -0.009870258867227063 0.01121760296675025 
-0.02631165965735874 -0.01622470953533811 0.04013382453342079 
-0.01276924062178837 0.02932019914850987 -0.02746155787344142 
-0.001025617329320326 -0.009669519616567797 0.01190232547043152 
-0.01009533139435964 -0.002355168479569384 0.01210584332989634 
-0.0005774335951186072 -0.0009496652067140741 -0.002713943364195478 
0.005718582620473277 -0.00277130496591771 -0.004281298564168336 
-0.002745946917128907 0.004777914205770393 -0.007554094266479645 
-0.00557888089203378 0.004833328990471192 -0.002782228280364091 
-0.006638461063742303 0.0107181481810059 -0.004962673980699855 
-0.003844651130084323 0.009165374503039324 -0.008297958059484542 
0.004620040568905113 0.002390197620586398 -0.008379823310432284 
-0.009562444877912284 -0.01668609516005356 0.02742942733536527 
-0.001660607527809627 -0.0004504793795412337 0.001708515256019898 
-0.01078847474846954 0.002725113054241822 0.00616855878075051 
-0.006812792641391035 0.001303974560187845 0.005720503087231569 
0.005029721483545709 -0.003027165949371236 -0.002411074574847616 
-0.003114087769369582 5.217681301215862e-05 0.003117216157520966 
-0.003771241038985572 0.01430446365844884 -0.01178708964658626 
0.003509842442307976 0.005641939472919448 -0.01132477389889334 
0.001586468032554996 -0.01010558374900839 0.004849966952269432 
0.00356322188287681 3.204956429604912e-05 -0.004748944739287435 
-0.008788140326928094 -0.002354677479137582 0.007673175180417998 
0.005340007170190144 -0.018855864667572 0.01237418264818383 
-0.002648398813473549 -0.0002025045371211292 0.001779407058021081 
-0.005970033987200323 -0.0003347686328479652 0.004320700268969257 
-0.01108596637842998 0.0258439397862304 -0.01836262915519534 
0.01553474058505943 -0.0137582769652638 -0.003661186680619675 
-0.003697126535078469 -0.01533476598588878 0.01909234726240648 
-0.006229034632046672 0.005430349602251536 -0.0001804886900026939 
0.002427736427666775 0.005524164842964736 -0.006797795243140931 
0.004279432952694175 -0.00310831491671951 -0.005094772431053621 
0.003792026550269161 0.0009967023838292535 -0.005618262912073476 
-0.01684921357144458 0.02128399663966056 -0.01195734428063586 
0.006340123580763745 -0.003503631132791616 -0.008512673184967302 
-0.001340085717699062 -0.009625488044714532 0.005665812485460009 
-0.005660571825979415 -0.003388314101581577 0.007566987680777317 
-0.0005204640339507157 0.01618170514190488 -0.01885496980717031 
-0.01099806586835035 -0.00651968663841565 0.01956809636123244 
0.005890563892069284 -0.004129076274265214 -0.003645314072143716 
2.857143465685206e-05 0.004559767344468031 -0.01086813779007537 
-0.001675974970338885 0.009241290695469319 -0.01026002240537934 
-0.003258671961930849 0.01438268196082469 -0.0165569540327507 
0.006193129337532141 -0.01477053605175694 0.002715748990483394 
0.009221886789560976 0.008704556767317368 -0.02291360698869589 
0.003194479596644776 0.008559318506860753 -0.01740127378164779 
0.001640478486867851 -0.001313235654252625 -0.0008324353072676115 
0.004651687660123685 -0.002348814923099428 -0.003450644167976948 
0.0004245615697594484 -0.00420490736815609 0.003721840744970493 
0.0018727472180028 0.002401676678857574 -0.00741020137364712 
0.005306813968042013 -0.004899439270125295 -0.001752683697157992 
0.009795852104708421 0.0001357556526399599 -0.009945008635754629 
0.001017615719716622 -0.01626564896197975 0.01324616714492323 
-0.007491499888800085 -0.005270062935348259 0.01312196348899156 
0.003811444624013717 0.001303891614022529 -0.007823656479066904 
-0.002563317405886146 -0.002433965264319195 -0.0008869403670960735 
0.003292842794105764 0.001978533978737376 -0.006314510358117454 
-0.01373261805578034 0.001795017579690213 0.01065193396000131 
-0.002122189151674653 0.0005877661930699403 -0.0006029406009175416 
0.007892108428892118 -0.005238051915984798 -0.004489953438799196 
-0.003190362232894665 0.0002480318341902507 -0.0005899302877947198 
-0.003102596835754373 0.002677441444362363 -0.003607073930496708 
-0.002702987028638592 -0.004629791971670874 0.006614957075239798 
0.002587500274576738 -0.002785018149574196 -0.0009654564523669889 
0.004917077813883521 0.007636701378963904 -0.01659161143414568 
0.004478183275352085 -0.0008350322230353217 -0.01021638757335631 
-0.01231916558497928 0.004330122057417909 0.01063084487858768 
0.00243603938980973 0.00399834554530642 -0.009338260172002674 
0.008205233502149642 -0.00980376416170649 0.0003624507384018415 
0.003674835082350413 -0.006088982481294179 0.003298883064416104 
-0.02979845271043861 0.02796107727147773 0.001324013328369642 
0.0008084383156401204 0.0008194004741436233 -0.002276307087020694 
0.0009312498889745452 0.004989722431172766 -0.009056973730928944 
-0.00497556139455995 -0.003432643237570642 0.003660370658779912 
-0.02120758591768671 0.03765375931924111 -0.01667533959961275 
-0.01101897264144749 0.008546458277337318 0.003132619719358057 
0.01046195579405561 0.005893533979068477 -0.01906334398267814 
-0.007290630045314423 0.003039538132176613 1.381894818466686e-05 
0.002300719230094753 0.002294531392304261 -0.007158500411502657 
-0.01056293312345264 -0.003191904617288763 0.01045333508947384 
0.005977828008614816 -0.007832161926489764 -0.0001884890376388595 
0.0006780810854210539 -0.001040759854109975 0.0003770043239408089 
0.007524729177996116 0.0004722031378830732 -0.009204315249137692 
0.01478489958555189 -0.01445203235724745 -0.006977196055514731 
0.002174117784130257 0.005347793432050494 -0.008973293969080235 
0.01492213400852944 -0.009334154567130328 -0.008840980315019431 
-0.01290955527445092 0.00863106172839947 0.003153839548987339 
-0.01532626953196667 0.00277502436620659 0.009179177239002615 
0.009383124602661047 -0.004358112434845416 -0.01039627604189752 
-0.01217078072275238 0.002217830284319654 0.00959238230966933 
-0.01939457062406499 0.03869859408827307 -0.02636406483992138 
-0.008041154561048841 0.0004741884664538836 0.005778292877578315 
-0.006991092093149169 -0.006514611498809406 0.008671064252668328 
-0.000439293362357087 -0.01221080856923935 0.01070744767689998 
-0.004849618007955805 0.008075314966378625 -0.005381358921682584 
0.005993916240758042 -0.01846650164417384 0.00749018385522205 
-0.03198859011131889 0.02590635807017058 0.007980913373505635 
-0.01081757890487115 0.008928683651375993 0.003008184672724998 
-0.01334433750196702 0.007975875983913935 0.005405300254819369 
-0.002995842638798095 -0.01025597900771874 0.01463569631785808 
-0.001433544288698316 0.001463334843476585 -0.001240028752451646 
-0.007225195193095036 -0.007764689926016497 0.01645266727244147 
-0.005460353971707028 -0.02029736600583405 0.02378957785729464 
0.0009096838446242913 -0.01142974807376966 0.006704589811594613 
0.00664884389356448 -0.00263495656872438 -0.004602503934201494 
0.006860819339498528 -0.01249359983966662 0.0007722507247530893 
0.0002133591242201166 0.008792218953263362 -0.01197338497571639 
0.004672345495046628 0.001436565522570587 -0.006901330756030687 
0.00540939890695761 -0.0007073181876676276 -0.007850956796204159 
-0.002622666671311973 -0.005536804767158812 0.006320264138540018 
0.003241619353103021 -0.00243069347709696 -0.001513970666601799 
0.001479797988548668 -0.01248998996186292 0.01293649470374105 
-0.01154064314282055 0.01215352727740625 -0.0002374810980465761 
-0.0003141295335063215 -0.00911303709628525 0.004331616314955024 
0.005325484949481311 -0.003158031292349773 -0.003868549748792495 
0.0182221459159335 -0.03406291724776005 0.01635196604544811 
-0.01948836702098944 0.02545489393687374 -0.009995419851482652 
0.002444439257186485 -0.01386768779753907 0.004625853965109616 
0.007299648513642754 -0.002995583311134102 -0.007407200595435023 
0.008712314110923079 -0.002317851443145194 -0.007483605521481713 
0.001508103232490153 -0.002488414355973913 -9.293167771121317e-05 
-0.004735455212681275 -0.009389811644330923 0.01337118896945771 
-0.02129457378788001 0.02061189325640101 0.002945982715658073 
0.005278725182528495 -0.004236025585281141 -0.001433191170160267 
-0.001867256512357131 0.004987436711453855 -0.005170622193089349 
-0.02489373643047631 0.02602414700003898 -0.004517503703845059 
0.00975013663272037 -0.004094734616837238 -0.008502031746284422 
0.003963653650826674 0.006532950472187393 -0.0134043630714912 
-0.002886012077943899 0.005126776774893193 -0.003405123258715044 
-0.0003590097393412816 -0.01339064956342949 0.008409584535168216 
-0.003102622195478705 -0.004629094218598787 0.006801261200220596 
0.005010904489186848 0.001938906343280927 -0.01002901452743513 
-0.005745819315449848 0.007221710775609781 -0.002747985190420398 
-0.0110502845734034 -0.01087068512826304 0.02258149645225541 
-0.03742907737674063 0.01533547397547526 0.01454556496044127 
-0.009828525406549812 0.007797051535928803 0.001814392819081965 
0.003720089111502649 -0.003896088167467522 -0.000960270068134448 
-0.02581838179484371 0.02336666332558066 -0.005873080454270718 
-0.004240467209250805 0.001261132862900618 0.001610938233292423 
0.009400338988407924 -0.01153846350951593 -5.282032157086329e-05 
-0.02747790355333925 0.01231300629111004 0.01829392851090725 
-0.01137739800353417 0.002316887785056269 0.008267198420225996 
-0.01203683499937139 0.009691544849100085 0.0005552287029278767 
-0.009124121228903255 -0.004818342997838054 0.009361429855598008 
-0.005137209394971655 0.007190916325297099 -0.001338126028065809 
-0.003347157130283642 0.001707443662310726 -0.003608805349891268 
0.005065967178725426 -0.004390478730584846 -0.002496248974694239 
-0.0008015664428208141 -0.01254892886003882 0.00763948099038906 
-0.01173256411307855 0.01608976348549087 -0.005743588564459464 
-0.007206024587806195 0.0004630575914997135 0.004328944592848697 
0.0004889694380055148 0.002668838594689349 -0.003470670721051645 
-0.01190937309151506 0.00793060076394776 0.001035224677320692 
-0.00192815000439115 0.002550447191898233 -0.004345237159056326 
-0.00560185822906139 -0.001696645844744143 0.004935928315997476 
-0.004872044751255268 -0.00601257574619311 0.006776012989676457 
0.009370050059211094 -0.001401840850328079 -0.01038942136300197 
-0.002344935616798567 0.004288595005051116 -0.002305030983442891 
0.002260688209132093 -0.00990374899377091 0.006195659415629762 
0.009054228587443803 -0.006845206502773832 -0.008163702090909991 
0.01885545757711643 -0.01598546464419919 -0.008108673303523689 
0.001196931169577722 0.002398214305103113 -0.00431184707531196 
0.003851028418642132 -0.004065621698725885 -0.0009992373603184737 
-0.007749875667836607 0.005815784446832437 0.00225779673168789 
0.005503711600719064 -0.005544045673641892 -0.003283552941931232 
-0.01773392501914068 0.01666281532349818 0.00054634331479488 
-0.01459424057068593 0.006340313349778853 0.01121396793746828 
0.003031630333125291 -0.01663840734822273 0.0148850440404648 
-0.002962568803078597 -0.0005259575192425141 0.001842651705873139 
0.00105691910909518 -0.001358904152298783 -0.0007411082586560623 
-0.002211952309322638 -0.009749745337783822 0.007904993775133888 
0.005042503057379146 -0.0006479921683937237 -0.007536885139345215 
-0.004613215508563187 0.001461391593048856 0.001668044391104746 
0.01157168838279676 -0.004243961904181159 -0.007419013085541415 
0.002299255825649394 0.0006429808600522773 -0.003445274857119828 
-0.005353541383939624 0.005987827602382245 -0.003048760642042098 
-0.0115928483748217 0.002111855248323838 0.006305866491269295 
0.003729431209571294 0.004054286586777945 -0.008249106902540554 
0.002116841417802563 -0.007943515152723551 0.01080921871143292 
-0.001668387503786068 0.00181985213394982 -0.0005130283840421578 
-0.001360814135274831 -0.002371570913819521 0.005835012160614631 
-0.007833037718320852 -0.01975564236568 0.02660813815473664 
-0.007448658555656362 0.02611899679602114 -0.0225191251322065 
0.01185429725590953 -0.009440754309166709 -0.008352330798727705 
0.003621175555276553 -0.01542166491397705 0.01002596477878975 
-0.001840114499104535 1.419744763075215e-05 0.0002050460844348303 
0.001292885627137011 0.0001795722944603862 -0.00431139022936827 
0.00542895419658627 -0.004061594578793505 -0.001739328373592068 
-0.008358411776357889 0.003428983308824594 0.003264155251805435 
-0.001686511298353231 0.0002581115385016143 -0.001466005457945081 
-0.00173468036875277 0.005616916448943324 -0.00615774338693469 
0.001100225367885386 -2.106086057504634e-05 -0.001876739754602716 
0.01604848355263816 -0.007625167895040708 -0.01460457809996988 
-0.001054053859760644 -0.00123022427985363 -0.0002207918193754529 
-0.008754762060978425 0.009418454014966268 -0.002628939171514243 
-0.006607088548986756 0.007797469036383328 -0.0009511134043875286 
-0.004869712584178519 1.850567298605158e-05 0.003589537450284176 
0.001174527031851609 -0.004120298055423065 0.002043412673741414 
-0.003010256107848111 0.002128536237903158 0.001886266883957708 
0.04295423308300293 -0.03113047797697829 -0.01890879790032474 
0.002898102493058532 0.01063927399840547 -0.01596026859864141 
-0.006472750856674484 0.002214893875954386 0.002102162748270438 
0.008909643035182449 -0.01150994182830332 -0.00175173102465985 
0.0010654940255806 0.003283866241858451 -0.007027844195492432 
0.00631649484651483 -0.01930394009569799 0.008443352480800097 
-0.04761848240266858 0.03228048528365499 0.01675073257426157 
-0.001222537260993868 -0.00384285017067552 0.002703257102619561 
0.009110471618766162 -0.005259210290956504 -0.008080302446322839 
0.02731589158243717 -0.021322310749097 -0.02187139371385509 
-0.001095275435371185 -0.0001252998995353279 -0.001145520495236671 
-0.01321920983379629 0.02108377778345472 -0.008594518614610188 
-0.007788096286572171 0.004772598989357857 0.001202825434626723 
0.01471816418884968 -0.003346675481933009 -0.01798010138484032 
0.001463113932909488 -0.02563130272749554 0.01641549848844138 
-0.007410073402777556 0.01046367806561376 -0.003383590766380052 
-0.01030617971966221 0.007718517011859469 -7.405769391232448e-05 
-0.005116969691410278 0.005974129020074279 -0.002134629666439948 
0.007074304152003542 -0.005106949060834394 -0.002997566882319703 
-0.002170897273515243 -0.0003262105324747197 0.0004588499621747955 
-0.01049733568870734 0.01477010867604354 -0.004927283506185445 
0.004590524582730707 0.006893269207424015 -0.01485615680170094 
0.01016686732140838 -0.01278735300258074 -0.0009390412552423708 
0.004657865214093776 0.002340772560365328 -0.009200338907870198 
0.00272009362407714 -0.004820932110674064 -0.001189351496337038 
0.01120407683467655 -0.02761849991913715 0.01308763922671624 
-0.002630652877270482 0.002349496090076109 -0.001900571309314721 
-0.001216761719625157 -0.004011918258874735 0.002863367929093459 
-0.01199739783348542 0.01320952443055647 -0.004359998921069374 
0.02189404535854064 -0.02453324730461833 -0.003234929328386728 
-0.0003810698010304968 -0.01896417076436934 0.0168185487819601 
-0.007315704737114363 0.01170939803223153 -0.008057891487404927 
0.01324648709417911 -0.01375954719003815 -0.006200454676811949 
0.008818438812278362 -0.0005853660455589553 -0.01328768427925809 
0.002142755142475744 0.0008557850581056584 -0.004001519172083654 
-0.03116860181953647 0.07022147610515794 -0.06042121952758578 
0.004353806230805273 -0.01036165366323642 -0.003929553735100855 
0.00473843449329395 -0.01270227846417467 0.00430593610153838 
-0.001645022830322496 -0.006880899963776751 0.004013277578100017 
0.000326010570913875 0.01039969848013516 -0.0143820165031994 
-0.002760134911273463 -0.01579999074577957 0.01825443244079782 
-0.003768980480249671 0.013226089020123 -0.01057322664672777 
0.01489703656165006 -0.001670563990932797 -0.02126184422715408 
0.003941746650843262 0.0110638182230971 -0.01935546162570935 
0.001029586288941119 0.01490251506826878 -0.02485519261859936 
0.01779212701049836 -0.0233071914663213 -0.0004195113187036218 
0.01924657270772035 0.0125334037572403 -0.04019879253807742 
0.005977023593893598 0.01252022735408887 -0.02288472252760526 
-0.0002509660979107579 0.001308836154670116 -0.001238013343920062 
0.00656473745001062 -0.004861205974507241 -0.002887784709655831 
0.001672660452900722 -0.003986930652193075 0.0005772866426871727 
0.001767773609147873 0.005631865916931822 -0.01033362774271407 
0.008300471691834491 -0.006864694438769708 -0.003147814510277172 
0.01553565463427487 -0.001895770808861391 -0.01695130442034933 
0.003653314235979415 -0.01596754736705411 0.009699150039795403 
-0.005776153159612406 -0.006664391311975168 0.007739257949560991 
0.005637059054034466 0.003358267438648048 -0.01087607662491655 
0.001116878343567972 -0.002016242871473458 -0.00377762872710658 
0.00493407113597788 -0.002429661238445197 -0.004267674850636264 
-0.01310471761767097 0.005628006407001998 0.004015164866173043 
-0.001763141521780006 0.002661358026436465 -0.001699857959414294 
0.007509354587331238 -0.003156927845999929 -0.006343202720015029 
0.0006314242995942505 0.006542840077820707 -0.02024433417869714 
0.009274334766005391 -0.009898226596488804 -0.006526637864231279 
0.001005988291778343 -0.01624088003633534 0.009701891775455451 
0.004955511570325549 -0.004337543125359859 -0.002012163934590246 
0.01662887034465269 -0.002114471397157235 -0.0215920335172611 
-0.002263024585733824 -0.002763316970141504 -0.001122904592725932 
-0.0128391246126911 -0.01604313928493268 0.02612506092558938 
0.003884455269724103 0.003526778908036569 -0.01263808914398678 
0.007439719070254755 -0.009967096717053321 -0.004517313352843342 
0.003553286208530061 -0.005901072866146178 0.0006113271136473957 
-0.0375083833669992 0.02495389781157139 0.009181331665317595 
-0.001497553666423807 0.005814311742501476 -0.004526615710829846 
-0.001048655963120054 0.008444464547199566 -0.009723332744083707 
0.004995235017507513 -0.006869198640224746 -0.0026321470768382 
-0.02003796729605118 0.03830432107713506 -0.02360226066730262 
-0.009133212371026921 0.01395669225778009 -0.005338286807125129 
0.02054932157844351 0.0009330460120916802 -0.02980695153493699 
-0.005156724811676216 0.003610598742662858 -0.001998041821068647 
0.008911686541380266 0.001754198705720877 -0.01585528918227905 
-0.003242454957221608 -0.005335777807275686 0.005623436107249098 
0.01740677174462781 -0.01528154544563016 -0.01195514326214151 
0.001726582356783149 -0.002454855319584892 -0.0005478996600534457 
0.01366713767167489 -0.001062370967308925 -0.0163005070093121 
0.01007322968589688 -0.01318573879379748 -0.001407837141168589 
0.00270130089478462 0.006438826041316943 -0.01054671621311535 
0.02528812696707216 -0.01660030049947471 -0.0129951074281355 
-0.01204049590475179 0.01379629650767076 -0.004688639386612385 
-0.01554295978368465 0.007753038673647573 0.005538120197804365 
0.02977808513030309 -0.02097391247377071 -0.01811145452504168 
-0.008567470689104611 0.0004626365871713413 0.006103451285092225 
-0.02346010458027006 0.07097913926307695 -0.06094733681112566 
-0.002605709820391038 -0.006671804228631271 0.008872194911481402 
-0.008356987101238316 0.001016239198056074 0.003225403272642592 
0.0009038232031422005 -0.005130581465003478 0.0008162050715596059 
-0.007127583738923123 0.009256428473507106 -0.003883832210424361 
0.02147851801944053 -0.02594151860237777 -0.001777588145818066 
-0.03931222581920796 0.01699439717374287 0.02064925501493757 
-0.007138345856189147 0.009458553568045428 -0.004211917504836194 
-0.02076873607033114 0.007944713703970247 0.01342482906760894 
-0.002439854029425013 -0.01583033289988079 0.01436692916860481 
-0.008444847286308848 0.01603695439042654 -0.008806778250994468 
-0.007203580673624813 -0.002597077727474837 0.006532717251991688 
-0.03117199235778497 0.01907143805779764 0.005870143567927622 
0.01170673072641803 -0.01455364307170405 -0.009582621606490982 
0.005384885116752498 -0.0004022977096876274 -0.006958417155249242 
0.01536219482679229 -0.01284222139615881 -0.007555798722837865 
0.009139232830309221 0.002108970354800808 -0.01560037851843768 
0.005542482821743102 -0.00143163767204112 -0.006319442246342361 
0.008918533070184694 0.002203023674644214 -0.01585975447986559 
-0.005034261984552607 -0.002021970994747567 0.006175623100240218 
0.005079852531328125 -0.003355194371999746 -0.003412471053358089 
0.006793510277584525 -0.01954132986855602 0.008043687973947019 
-0.009239030184001223 0.01379494818170643 -0.006695911539852818 
0.007492835127721881 -0.01045348889037233 -0.001830183007366178 
0.0005578147572629429 -0.001921776200690178 0.0004578652402965372 
0.02809676066721032 -0.05315478762807933 0.01659902225548083 
-0.03281663193824475 0.02513731341401316 0.003327793995217326 
0.006858467158780874 -0.01545661291362606 0.003644094477155151 
0.01725243740577349 -0.01235005163383196 -0.009447620893939281 
0.01144538458908278 -0.003693995630785685 -0.009833366402169426 
0.003593273431916503 -0.005002822036751275 -9.016098467357003e-05 
-0.002293559972223675 -0.01207568753883623 0.01236294368726179 
-0.027456656688594 0.01521926268275574 0.01085115936431836 
2.787215281747228e-05 0.005957726254901994 -0.006138576931072304 
0.005193910189838135 -0.00275530479708182 -0.005240263884536629 
-0.03218595678525907 0.01991954678896623 0.01047592341960003 
0.01384840585787825 -0.008772033512283072 -0.0110625578262341 
0.00898186196722534 -0.005164855355374214 -0.009297216078755591 
-0.003305075561973381 0.006851109190713175 -0.004890344935139953 
0.004240155542979771 -0.01407115253109888 0.005460641272001723 
0.006612003747654798 -0.01240212706004169 0.004929370749382649 
0.01786568372711501 -0.002201022936042143 -0.02104933497352747 
-0.002562351000954024 -0.009611332395777604 0.009889465660666749 
0.005577498486153386 -0.02737257384203223 0.01060627393644232 
-0.01046479366631712 0.0007421061174937956 -0.0007899687584596222 
-0.002427881952421394 0.001980386830352166 -0.001022656141793079 
0.007217542699187691 -0.008057056479253435 -0.001635435918863216 
-0.01576734275216224 0.03807779492713234 -0.0419128823893239 
0.0005392176564141857 -0.002735195944790908 -0.001493509922554927 
0.01616421456976553 -0.02233580351348894 -0.0005631491925950719 
-0.02787221592493605 0.01210518367336843 0.01375057448659005 
-0.009757597912500542 0.001564144489505548 0.006210018477839474 
-0.004605697393659638 -0.0006076635949971361 0.003003698190369909 
-0.002457998839617614 -0.007502808978578541 0.006223448094632345 
0.006051707240330959 -0.01923957781025882 0.007014299381989499 
0.009250953507930596 -0.008508682400118551 -0.007617314855392947 
-0.004211249507419509 0.009029812274717748 -0.005612899416558606 
0.007597218692387566 -0.02025598779054079 0.007682245269507026 
-0.008466453727982893 0.004300162988507899 0.002237565773905406 
0.001586092364450311 0.0006485726778698799 -0.005280001204099726 
-0.002807324163441584 0.008893307452366205 -0.006437734823264129 
-0.005306660057443586 0.006817902273323689 -0.004507117723680367 
0.01624152322707749 0.001135146662328634 -0.03343472178215376 
-0.005561291236238704 0.0008362483593768046 0.003582613705787967 
0.001335915409829714 -0.007120521202972051 0.001824596825153038 
0.02040161684992465 -0.01250733815470372 -0.01306103297265154 
-0.004507564188572093 0.005538198760238537 -0.002257182623063563 
0.009605709419309943 -0.02114889019710815 0.006120131817728859 
0.03663152290277896 -0.02754914880541806 -0.01905211641237301 
0.01646462441752787 -0.01740271297714112 -0.002933882514336838 
-0.002989186137793856 0.005093794951276831 -0.004484774858481005 
0.005131316237997371 -0.005662547046217535 -0.001878410437688932 
-0.01110429164355211 0.009636507696082727 0.0007055016472228284 
0.002534828635402067 0.001934969811858161 -0.00624858983326439 
-0.02612816715948971 0.02368158230203238 0.001239747434849711 
-0.02273019858555737 0.01520994854137273 0.004757467124165075 
0.0111581952885742 -0.02960943581913867 0.01338658629116192 
-0.002436292059964773 0.0008754805295259923 -0.001360375073316848 
0.002754349893434128 -0.0008892798749056568 -0.00468935000584249 
0.002951713601527815 -0.01103546757509485 0.004511575905813163 
0.01557578993084975 -0.01023312201773705 -0.01021779893169345 
-0.002807148400900615 0.002777024314567647 -0.004443723618727496 
0.02209340995197269 -0.01351319491452116 -0.01676728027622492 
-0.0003935190274207171 0.008195877731065084 -0.008795952453092235 
-0.0006734246144388943 0.003374545340371651 -0.005692604818582852 
-0.007750036092869414 0.003773205833158291 0.0006791566110265435 
0.0003766445301151708 0.006340616013726888 -0.00995843483087599 
0.01034234932278851 -0.0262151929898411 0.0116247621673783 
0.005438150970991813 0.001208652532715448 -0.008991465765136247 
-0.003206523028404351 -0.002103321550512315 0.004104911925863713 
-0.03562777746721062 0.001502965259622989 0.03421415407087525 
-0.01560824794703137 0.01527783034662811 -0.005154935990933542 
0.01857621540906372 -0.01440792918507177 -0.008292034644278103 
0.01220624380017548 -0.01777211922604468 0.0005982790454913506 
0.003547920049394591 -0.000472659394291067 -0.007674131627431767 
-0.002310595889477678 0.0113472664343117 -0.01128777008154369 
0.009781758177053804 -0.006473048382568541 -0.003950260363865273 
-0.01539530325660123 0.01210731182522853 -0.002597350182232789 
0.002772864587626911 -0.003459386480594188 -0.001987715618842352 
-0.00440205809856783 0.007976561464085732 -0.004699855523685795 
0.002084986269856081 -0.0001861338256388062 -0.003158970915432079 
0.02367099015739969 -0.01808438892851218 -0.0102303689294556 
0.003433555959349499 0.001272820405504156 -0.006931428560851501 
-0.006096540511599669 0.01093411855097407 -0.006630965521728213 
-0.002861678170513687 0.008836447436981738 -0.006054024520835709 
-0.005628803362308178 0.004528274567111685 -0.0008493282771864417 
0.005261529166497923 -0.007137611356498584 -0.0007472266825377907 
-0.0008657596192426622 -0.0004047270679173842 -0.003020282871181924 
0.04800340572119084 -0.04027037340770281 -0.01707159706661589 
0.009127005773918563 0.01011423697743607 -0.02326143926655655 
0.00220348171817867 -0.001331428675720824 -0.00464832688426127 
0.02230633164809108 -0.02319407175454781 -0.01094931024991609 
0.004239775979182968 0.003662596472968073 -0.01329587640526046 
-0.0003131351533059696 -0.00698411002401278 0.006871644271204553 
-0.01818734104504408 -0.003899819808671963 0.02375822906464769 
0.002222386239364267 -0.01153535900096596 0.005734081760468117 
0.006810152948226188 -0.004267489076121345 -0.004485594044393217 
0.0008514154499167616 0.006861423862528375 -0.01243783157840471 
-0.002170801040519769 0.004730041156845336 -0.002954384274834901 
-0.004730504579252462 0.0002784704987734463 0.005246610085597614 
-0.003624024273871719 0.01198422971541811 -0.0115951871268009 
0.004651080266575992 0.005087429883132111 -0.01230109869956132 
-0.003850524024980588 -0.02337123890443828 0.02474463235874633 
-0.0007844162898766828 -0.006260106305984534 0.006676760364527908 
-0.009345556504217251 0.00288278900264445 0.006615912733237671 
-0.003739314116901975 -0.008289007048087167 0.01124286236984573 
0.005598790399310465 -0.003490436088350903 -0.002403026326150183 
-0.002286651093552943 -0.0002039781297871059 0.0009423324484599893 
-0.005648497999120367 0.01678988153932291 -0.01174967595917191 
0.003816225120060178 0.003536213661013927 -0.008935373645216533 
0.00302674236661528 -0.01917811140741426 0.01325004143156021 
0.007126317237068362 -0.004684326072030368 -0.004478071599875376 
-0.003363953175137562 -0.01794074010424715 0.01674452963950004 
0.00153422041475795 -0.01236238021682211 0.01035167651960284 
-0.00348513416585344 -0.004674468195247946 0.005226271393434827 
-0.0005805400958002103 0.00359811462195852 -0.00132549552791121 
-0.00574542400898183 0.0322859568877442 -0.02949519380039281 
0.02017407948035465 -0.0103137208491831 -0.01178124486538816 
-0.005883001733310751 -0.0079353302733627 0.01520333994558153 
-0.00480849440813671 0.007533141672666185 -0.005697941142728142 
0.007281623617723535 0.003587288958585131 -0.01632081952322083 
0.007769558023052903 -0.004240795777281351 -0.005351853825082105 
0.004033749397851249 -0.001370096992281935 -0.004028235869259419 
-0.01373098865828089 0.03174757678999952 -0.02451190855875818 
0.004744182194555862 0.001172736391364664 -0.01144422663834173 
-0.005401333368829618 -0.01630576002072462 0.01577742332843684 
-0.01042223226819579 0.003271838957673624 0.00524113057663273 
0.002975448270157225 0.02069048553950438 -0.02432192736162924 
-0.004685895843834859 -0.005714599244080782 0.009910802925342334 
0.006760747755271863 -0.01247487775878755 0.004805704186018168 
0.001339283740077758 0.004708090690819495 -0.007725541668310766 
0.004360984497979274 0.002041742581270833 -0.008510859975936102 
0.0009304186478936871 0.01603847119726815 -0.02248185269245529 
0.007286735390242283 -0.02253835581723481 0.007852803133343586 
0.0167053112753831 0.01406414105522365 -0.03424411159377887 
0.006270781365523225 0.001283702352015915 -0.01370625088842686 
0.002770067754639862 -0.002939211935056537 -5.442673996675714e-05 
0.006874100425772404 -0.005539354370475594 -0.002378409179277656 
-0.0002620562146934173 -0.00365920361534753 0.00290671859180557 
0.006775233137112687 -0.001735617030419308 -0.006429534303979875 
0.007654986195141227 -0.005441126953345331 -0.002701630574460734 
0.01541893088894618 -0.007775582183520545 -0.00689948225941677 
-0.001490410578900277 -0.01030830640743649 0.01028639262820261 
-0.01131538238423705 0.002591467202652159 0.008320994921407327 
0.004115497180402779 0.001092411478286731 -0.008015129054757869 
-0.004386016711813756 -0.01388376631763321 0.01074869053210203 
0.004239422315543596 0.002998498979665525 -0.00900051903011575 
-0.01553204077217208 0.0008521441084772482 0.01185940685715343 
-0.001843105509976179 0.002628802834961971 -0.001192513547908034 
0.01206940548499009 -0.01228730607532553 -0.0009368981103617172 
-0.005257592119799741 0.004681761567728736 -0.003153491805691622 
0.0005140802066738375 1.038217492758575e-05 -0.002571593887886906 
-0.008766887318226503 0.0006896669731049583 0.006460254883459967 
0.005728637039374386 -0.003175679442806639 -0.002892785353885067 
0.009897453790020955 -0.0009595682264602277 -0.01173003071092333 
0.003138051729080613 0.001212772067012479 -0.009716305116105916 
-0.0155462314608965 0.004852197622286573 0.01263719693717895 
0.00249034744105249 0.002365266466280576 -0.007944744569019958 
0.003201153534733758 -0.004205469475905832 -0.001843998594244869 
0.005444732851395151 -0.007370502307755665 0.002212351321125574 
-0.02584049344929913 0.03241952592568074 -0.009755925668172754 
0.001595549778219157 -0.002893888538661646 0.0008734675310680179 
0.0008255661697899065 -0.0007505000646856385 -0.003524765904011901 
-0.001470560944701741 -0.01471944389395861 0.009939154526681345 
-0.01668269876510333 0.04133683750242313 -0.02617906601507771 
-0.003539586851594817 0.0005277978874131016 0.005388904952248555 
0.01623019173720872 0.007525369103009244 -0.02666471685272696 
-0.006490534535717037 -0.00894368446885052 0.009527582707110524 
0.006886622775610863 0.002662579938717257 -0.01308285294367391 
-0.007156946443290752 -0.01464831611238656 0.01646266213718041 
0.01219606205596099 -0.009158087356390119 -0.009194805779637548 
-0.001183718405618047 -0.0001587875230639143 0.000439457750509453 
0.01042839820440596 -0.002553709213009432 -0.008081791989528127 
0.01282982875002642 -0.005388038730349089 -0.01162833924950078 
0.004058516605434932 0.001849011609927669 -0.006489822269216612 
0.02098036901796819 -0.01187212812878194 -0.009853482506674154 
-0.01381479716224495 0.007059372551933238 0.005131112511853365 
-0.01652318130564255 0.009450133964046561 0.005825766246424696 
0.0127353246199345 -0.004776540011193789 -0.01180627703101882 
-0.009861232405010027 -0.0003426922942329297 0.01024652653101 
-0.01848788707282659 0.03576513030235462 -0.02169177839243958 
-0.004912446403887344 -0.005852772889814812 0.009912993081898948 
-0.01046675313621133 -0.01904380689045594 0.02371198157970842 
-0.004823222805610583 -0.001726098079714218 0.004806447172192332 
-0.001684639386779238 0.002413963080108827 -0.0008926362678879408 
0.01013110715610215 -0.01096264873460401 -3.965706805109477e-05 
-0.0292137644403603 0.02835463883033542 0.002311184566127074 
-0.005797021933884104 0.0004696014168556929 0.007007081763902451 
-0.01420065255858486 0.009939331473994071 0.004650123001203006 
-0.008373918638649485 -0.006594939639632743 0.01443768220406087 
-0.0005461676876895761 -0.004499246859397345 0.005356917675492117 
-0.009438768235699313 0.0007611658962211632 0.008656976579049003 
-0.006287669831304143 -0.03012558478189874 0.03404618320095695 
0.001234904108878072 -0.006193586109748585 -0.002794491194314481 
0.008263882028519022 -0.01034803634726021 0.0007002062501513611 
0.00747697979941358 -0.01681508228894532 0.004370797646356141 
-0.002700531518079942 0.0151077390997559 -0.01507193003572657 
0.006392796739122257 0.001393597015865488 -0.01008374139876321 
0.008459297184207867 -0.003556700840400933 -0.006387360335591977 
-0.001169216183425967 1.35196943079255e-05 0.001517897203531058 
0.002924577861613884 -0.002302590033261428 -0.001720997867724041 
0.00229349440273585 -0.01006886497591792 0.007998469481943852 
-0.007508852942631984 0.005857063644550135 0.002267586676972095 
-0.0002827437830567338 -0.01729146100990524 0.01018984616385021 
0.005387567045450744 -0.001740266594674175 -0.004601909873123399 
0.01845682391045616 -0.03982924664535985 0.01634068288221986 
-0.02476591798427265 0.03634775474731617 -0.0148452513282818 
-0.003006032586744948 -0.01912276855132195 0.01452783033052504 
0.01086092051716249 -0.006274923823888172 -0.006361472022121183 
0.01117498041415538 -0.00694378027084156 -0.005921052792401483 
0.002763671167027777 -0.002212725851359345 -0.001656573179098503 
-0.008335364436312427 0.002201960299663178 0.006633475089874536 
-0.0220874304304522 0.02554903891832953 -0.0001246190079195461 
0.004428020721579461 -0.008522887435876455 0.00512205612167367 
0.003968844844912793 -0.0002780772631116877 -0.0041008020538973 
-0.02527301866939341 0.03263884674628968 -0.009728976969955202 
0.01059750099657576 -0.006755735794100363 -0.006344633617931439 
0.008726427453244995 0.01281152444598491 -0.02711710917039185 
0.003638292931326753 -0.004200223940337523 0.0014086815844633 
-0.005226334199835685 -0.01878301637239881 0.01749206567361643 
0.002256994365008681 -0.01177609785909198 0.008757247938796535 
0.01187951760215707 -0.00814099565042741 -0.00728340456448803 
-0.001249966604041413 0.007591982767599518 -0.004936595029720062 
-0.005251939549540182 -0.01864435293945032 0.02108029982838518 
-0.02634887166081472 -0.0098764745574985 0.02946849051312591 
-0.001580438631178145 0.01389718556532989 -0.01138786811372696 
0.002367228469953024 -0.003384156238283626 -0.000216673242083683 
-0.02252890482068709 0.02644901769877335 -0.008679147651351046 
-0.007388740219039138 0.005014161973294982 0.0006382648460291544 
0.009579306589430733 -0.01296885779242818 0.001048897893522331 
-0.01906617126135436 0.01510056760209363 0.002793112548071605 
-0.01032107690714032 -0.0004479034727688308 0.01052553310327057 
-0.006362126618547412 -0.0006418232238256876 0.004832775198763435 
-0.006392540020828567 -0.0204476777159922 0.02222340082733005 
-0.000855666626200717 0.006519538269366429 -0.007414309650331635 
-0.0001176682992386634 -0.00541451796957825 0.004903117025501775 
0.004593242566134874 -0.01107719929895771 0.005838559572273474 
-0.001692956870878466 -0.02107452062983331 0.01451849851738957 
-0.007324029666420384 0.02534491320096131 -0.01738459360728032 
-0.003533870920554343 -0.008923550629561587 0.01069355973429802 
0.000291019029502497 -0.001737928916086308 0.001637675790523328 
-0.005619193844512264 0.003518375148413246 0.002658553829534571 
0.001011941963938219 -0.0003095562424696535 -0.005804284018409662 
-0.006111898979529058 0.003912300205923762 0.001130648830644599 
-0.004821198813476019 -0.01506382657350963 0.0137524965718039 
0.01405529879473972 -0.007562393835612078 -0.009264848594344725 
-0.003039998323518322 0.005115609936265005 -0.002802461542470245 
-0.001916547652023735 -0.004996813852511875 0.006085263174358407 
0.01455313810611584 -0.006514061349167071 -0.009939453655013813 
0.01821913710484639 -0.01428355755246968 -0.007720697204066217 
0.001412097433684004 -0.0001963473424510833 -0.002492581450263554 
0.002514841301084553 -0.003266882162288616 -0.000535688503482622 
-0.005689906631363162 0.003008568495172221 0.003522643137325902 
0.00592305038971425 -0.01151844954022221 0.003290822654237553 
-0.01829667232311821 0.01641994770589769 0.00067342002109227 
-0.009853668764686949 0.008175352554399653 0.003789616655647631 
0.005311875523454464 -0.01326895788650598 0.008728097551282786 
-0.005414758263350929 -0.0004540581856407231 0.003189564074258182 
0.001842647445444636 -0.004198661719806444 -0.0002949598473205251 
-0.003968991459458078 -0.01566037758300306 0.01420536263281072 
0.01448887855759758 -0.008336236099428717 -0.008687646175995541 
-0.008067577487096876 -0.0005044570595858619 0.005104131120241806 
0.02228985708187297 -0.005851925411776913 -0.02123685724322709 
0.003043313169838415 -0.001372740423878739 -0.002660004556375683 
0.004209362677540245 -0.003517577356884747 -5.153372284269662e-05 
-0.01084006789265307 0.004524709115932631 0.004733336648805033 
0.0044637070593856 -0.00316991943542648 -0.003058224129312129 
0.004360801877101058 -0.01467559581175915 0.01137976908609973 
0.00262767300675082 -0.005670649579844249 0.003627617857899747 
-0.001218109882053877 -0.005550719098326287 0.008906494417088661 
-0.01166431797624582 -0.02524115637033462 0.03752917947443837 
-0.01066916574389628 0.0312752724221611 -0.02443661041361636 
0.01486431037535691 -0.01306924245686548 -0.008122428114701378 
-0.0006564984246484907 -0.009222677095310675 0.007923940223555186 
4.086442866739829e-05 -0.002568384735183119 0.001255349383318435 
0.003490191857589332 -0.003040105463979414 -0.002764150373279345 
0.008762037287610146 -0.005322494059488568 -0.003447583464512191 
-0.008924572207713821 0.004272161886558547 0.00249976650639884 
0.004351870679955663 -0.002656039363126287 -9.367065344712507e-05 
0.0008008092277562879 0.002416765670455752 -0.004837495613644612 
0.001050244140180872 -0.0003108016521193848 -0.001527913965096964 
0.02157494370041315 -0.01352929999140337 -0.01424794803150496 
0.0005378939310542167 -0.008074406868921032 0.004972871343930596 
0.0008931413239262013 0.0008213178076120237 0.0003262910378536097 
-0.003036948735689908 -0.001624920453887051 0.004156314251051868 
-0.009192587159523256 0.009908783042678563 -0.001505531031509664 
0.002878994101538911 -0.006309133218841534 0.002001673827233828 
-0.006105341381120744 0.008668497879832513 -0.003570553090201001 
0.04308463849133464 -0.03211318264010219 -0.01798705529422562 
0.007318558095581365 0.003641641274591136 -0.01254628968707163 
0.002895619090363992 -0.005083343377890214 0.003004755508503975 
0.01513458296731666 -0.01270600527039114 -0.008705135577616539 
0.004078418400873859 -0.001630806789253447 -0.004362889391717278 
-0.0003306664351133664 -0.015836997708414 0.01338775584522719 
-0.01900756956697979 0.004822423783676645 0.01545266777243263 
0.009445655875929302 -0.01366133556796845 0.001651196268684944 
0.009725775620546037 -0.004936556386028969 -0.007013482766413918 
0.005583980910182022 -0.000236844612164662 -0.01395770979861675 
0.001825270105619591 -0.001977235635063511 -0.0008950208667889474 
-0.005062782561631577 0.0008836746076568284 0.005555898852340173 
-0.002234632540477089 0.01001318037267863 -0.01054519672493014 
0.0124325059963978 -0.005415899045869288 -0.01033374893657094 
-0.005075439315383332 -0.02550269595251963 0.02779448787020084 
-0.003368143520645372 -0.005881299078569126 0.008641768240860936 
-0.00571659859204705 0.007311781297975552 -0.002452096491855097 
0.00161962383919185 -0.006431348248700828 0.004417915880611922 
0.003483734763623297 -0.002954539019058401 -0.001145744976848525 
-0.001430115992320314 0.000186656351037026 -0.0001463063446953044 
-0.005652514536873651 0.01780009199715176 -0.01331316027643362 
0.004725411284853569 0.001614370720838451 -0.009114617238777482 
0.01110927404188363 -0.01673133335883322 0.003405147292790701 
0.0049118602254259 -0.005183828224767333 -0.001130105843590535 
0.01030457039196062 -0.0154875275789848 0.001586434854577868 
0.001182999232567633 -0.01985694808118635 0.01753777049091724 
-0.001270950978610963 -0.001481423582308343 0.000930342984548502 
0.005942849327854864 -0.003026228137696794 -0.003879966493118269 
0.002652254185620858 0.01810444395333613 -0.02673736330520143 
0.0324173798059615 -0.02161747750892402 -0.01645670002415367 
-0.009986748013706078 -0.01378886850775352 0.02175019506005549 
-0.002001107479271018 0.006805115990681032 -0.008047670501667057 
0.005116993718701814 0.003476567103926736 -0.01587314324777902 
0.0059009412002981 -0.005152120957424928 -0.004872998919902083 
0.005451490781043606 -0.004635656076606498 -0.0006817068847938956 
0.007014445392258289 0.001143138237014427 -0.01428097917585514 
0.01382352988755493 0.001489337291967798 -0.02224207431236007 
0.007324495828558483 -0.01250312293862226 0.001695578021842947 
-0.009790269643779399 -0.004736339978023076 0.01124522721240327 
0.01720548825087365 -0.006634099097969934 -0.01463224056038445 
0.003759180065809742 -0.00714866077425731 0.002821433127014556 
0.0005808321343039773 -0.006184282173299794 0.005255350847994038 
0.007992624110508585 0.003437401122719492 -0.01366719095629361 
0.008540201515575128 0.000719086535937045 -0.01160932801033088 
0.004490955898775834 0.01170594554015116 -0.02066666745307793 
0.01863677325998563 -0.02426012240998711 0.00123481547226316 
0.01815494117222819 -0.004819418967610779 -0.02040001858584249 
0.00733158297748867 -0.0007204286036217292 -0.009394836850236727 
-4.997964987128232e-05 -0.0005105492619981044 0.0003852504204775628 
0.004997085842194422 -0.003556922215756952 -0.002259498634030833 
-0.0003274468770839519 -0.002511774330829175 0.001586780624526233 
0.003600051208544414 -0.003867018495695081 -0.0002409141384063892 
0.007366060229267935 -0.005445998724041628 -0.003362489596376268 
0.01936933360633501 -0.01106699834675909 -0.01086631830801882 
-0.002998590859479385 -0.01261314928588388 0.01319560582579747 
-0.01111491606634826 -0.006278270826921291 0.01430776837538825 
0.002927390242639771 -0.000566670932849295 -0.004436382193624358 
0.006153157880090813 -0.01117167052136343 0.001618592481889617 
0.004063693835744986 0.002331279703811407 -0.008501939557324867 
-0.01144568724291817 0.005290341516596134 0.002685085688718788 
0.001428164185383099 -0.001398254305521219 -0.001102889481708651 
0.005569123179058295 -0.006893586279662406 -0.0002138465949349652 
0.002868443525797129 -0.005944899447270034 -0.005313130380156193 
0.004038093396504207 -0.004015347547762716 -0.00222313877928725 
-0.009030646274690194 -0.01088928441110529 0.01576915752957448 
0.005950125165663422 -0.0039836501965479 -0.002754838624533099 
0.01145211643146537 -0.001719358717244982 -0.01408613199265027 
0.01089692604417957 -0.0004140393078033431 -0.01539776638418843 
-0.01749773175763557 0.00922365399547587 0.009494611591068172 
0.006926944356704007 -0.002798022737741854 -0.008709227056148535 
0.005157101900900012 -0.01139598376850309 0.0008501545552815976 
0.008819183762454082 -0.01363836753842454 0.004961013472159607 
-0.02073645440960266 0.03267454193897545 -0.0166379851343311 
-4.876965963601796e-05 -0.001709393031671447 0.001393573730928559 
0.001700970619599365 -0.002328619223509438 -0.0002497687461663465 
0.01148805354314591 -0.01531506713462952 -0.0003502691669783522 
-0.007899691409068361 0.02978333152751575 -0.02509385488136531 
0.003376638431458509 -0.002509457305930573 -0.0005097984023733793 
0.01903155894075577 -0.004677778626666223 -0.01908718380754616 
0.001489457664457455 -0.005296031611383183 0.00199423183369271 
0.006609797960951634 -0.0005202548357022444 -0.009185324863374289 
0.003492709459355507 -0.009509018059021039 0.002664581102893232 
0.01158292132262691 -0.006901948752255949 -0.01288512815954987 
-0.001112848795594219 -0.0001940298591306501 0.0006514244749230082 
0.01280092129150204 -0.006770245010787393 -0.008044467111743 
0.0225183987312869 -0.01788265724927071 -0.009069221981713482 
0.001675790704006912 0.002998674384233951 -0.00572752470972976 
0.02663511177156968 -0.02089408330399142 -0.008119560698241081 
-0.008142964719711113 0.007227067216686293 -0.0008854193230386208 
-0.01366445800495438 0.01681208723668294 -0.004917692407584368 
0.01531192771055281 -0.007737798384514411 -0.01352484024277485 
-0.003755032105413672 -0.001723041325435403 0.003748059386081584 
-0.005666568924761481 0.0170665789769682 -0.01860292345672228 
0.005337516392609625 -0.009781445599071152 0.003158279971876504 
0.00108840231758715 -0.01199344314272405 0.007719840551247148 
-0.004886214489660729 -0.00731538222642917 0.009520894636086522 
-0.001452132566719656 8.528884392569612e-05 0.0005290669777029714 
0.01842347504902313 -0.0187332549377823 -0.008409707443832222 
-0.02383341254580509 0.03663874426413397 -0.01232418170127196 
-0.0009407464465773218 -0.002502063305699839 0.002659603422480146 
-0.01605485416346331 0.01044160219570657 0.006920182736904986 
-0.00948571014910049 -0.01332231397873691 0.02233703540367506 
-0.003564684730501112 -0.002281409924531378 0.005838178600438657 
-0.01036564827345536 -0.004210710089586811 0.01372597765706609 
0.0004559849855620667 -0.01495548989032888 0.01071240635686204 
0.00113476820466742 -0.009258855057011019 0.001979851496254796 
0.004624532192782672 -0.006682916936089074 0.0001151472074463147 
0.01510362192751908 -0.01585942007788247 -0.002755197215315446 
0.00330437036807745 0.006183859205045191 -0.01304258070187016 
0.005343119729963876 0.001881863096980483 -0.01023268426497854 
0.007785571321428323 -0.008781295520637583 -0.002486370646265647 
0.003575396080306358 -0.008031756848993132 0.004341627142027705 
0.003201100658648862 -0.002071661288848513 -0.00213804560516805 
0.004049560751462789 -0.01782456968052681 0.01252374116092609 
-0.002540169919343987 0.002889140992367455 -0.001814529084193638 
0.009201178701030282 -0.0128413118873274 0.0003046139646709945 
0.001473285146439406 -0.0008064095313916523 -0.001491938693751733 
0.007697667455436564 -0.01898216392869254 0.005719937025027135 
-0.01081021285846489 0.02417983823362395 -0.01725386333111354 
0.008805834907878268 -0.01361619040327801 0.001074453907409611 
0.01228950532484768 -0.007381194006370564 -0.008331818044523145 
0.009253147684183973 -0.008296134149732702 -0.00328761745438453 
0.001668925264956404 -0.000656753205921105 -0.002323751853713228 
-0.007836458558597881 -0.01063419984402533 0.01697029655738308 
-0.007465854597672428 0.01134861483901948 -0.005759946098828179 
-0.0001082395544183256 -0.003997113441942596 0.004181577095689771 
0.00458023944161494 -0.00204179011925176 -0.004480362360529992 
-0.005342202349530273 0.01354375285586142 -0.01100814563690037 
0.01053942751937252 -0.0106658246618028 -0.004157616589800497 
0.01009672775265569 0.0126268528622566 -0.02988989230955081 
0.004261587182818607 -0.008675414175301505 0.00496413725807289 
0.006791833825893777 -0.01318829704853353 0.002704299166814951 
0.01043992142532055 -0.01242433690954208 -0.0008051483583401447 
0.01579796762107537 -0.009789820859838257 -0.009018303532552863 
0.01662378169633065 -0.01195753509351086 -0.007678446058388277 
-0.005693450911756466 -0.01991239347539197 0.02211574443048362 
-0.0026886471430615 -0.006888878163685588 0.00200290363272756 
0.01325318891304765 -0.005896184295486359 -0.01001698517410998 
0.00201645074293669 -0.004563564963718438 0.0006848677219287099 
-0.003505773098927183 0.005794138509304563 -0.009722958429584412 
-0.005014758401080496 -0.000101777916182935 0.001950126487985489 
0.008875928963404804 -0.02237706458926295 0.008873436938343878 
-0.01171533021741684 0.01300389755223817 -0.003345227142210238 
-0.007085398494250679 8.261519041632944e-05 0.004772832859197691 
0.003163168337702483 -0.003140378681533551 -0.002412951836108355 
0.009255778058406128 -0.01892467660624969 0.005488826170820728 
-0.003191134504644949 -0.0003653104586115704 0.002745564736564038 
0.0006858694225530089 0.006622371217465739 -0.005380770363628645 
-0.001426737059136513 -0.005199846038652673 0.006254426338515988 
0.0124675296771286 -0.02156288149426914 0.004068408556193483 
0.005962193805444031 0.005268914315989074 -0.01286209598573298 
0.003574293720022625 -0.005622404147253623 0.00096482656127351 
-0.0009643850603111915 0.00221357856258014 -0.0008903795170323139 
0.001237435136814075 0.00688127697847579 -0.009283981356124337 
0.01147804733796176 -0.007509755240843363 -0.008603576056408513 
-0.0002050939497282686 -0.0008897273531052296 -0.0004744385849789748 
0.006868439194287408 -0.01151469213149615 0.00171745472699963 
0.01549591410805535 -0.01308613919950846 -0.007582888761398317 
-0.00253965571630786 0.00538472462180106 -0.003445950358980853 
-0.005078307348408678 -0.01042481094511352 0.01211149075902684 
0.01684235593939481 -0.006340411617856719 -0.01525478876691301 
0.02242047286885498 -0.01967296663737726 -0.008433573679811899 
0.0009924075474314665 -0.0002465413371118285 -0.002811183566743291 
0.002846179778512239 -0.0033680350686859 -0.001113813490422965 
-0.0006044976076525232 -0.005627112146915796 0.007232503479529308 
0.00315233670013865 -0.007206753299316119 0.002390494328627726 
-0.01366240262716142 0.01540378992396216 -0.001757432634269058 
-0.01004385625996897 0.01337419672555724 -0.003191131882816392 
0.00560778528904576 -0.02374301871210667 0.01365333443551536 
-0.00181468154839733 0.0009210998379866637 -0.001773218446911291 
0.004524584668159035 -0.00506525018416197 -0.001109799942701322 
0.007118964898428441 -0.01295957640092599 0.002689385875129752 
0.01864607325795318 -0.01149002978355299 -0.009319418779690012 
-0.002258264062003825 0.002099517989770292 -0.002677427755459987 
0.02637546435307222 -0.01248301807468947 -0.02053886560805721 
0.003323857423872974 -0.00503589409306688 0.001806313690241327 
0.007673837548397038 -0.00885443231294363 0.0003910470514758509 
-0.006013468228459301 0.01049077550263808 -0.00703012742403914 
0.004225465644624753 -0.007522611098024312 0.002353516814504849 
-0.0005409757746706114 -0.01663215957749137 0.01835222706847067 
0.008844636071734054 -0.006133648067005437 -0.00380670245193804 
0.001372508486371952 -0.01366102023960671 0.01222065644382332 
-0.01876522336283541 -0.01015906073472949 0.02885533407814392 
0.001554418111847223 0.02593647060683932 -0.0337449783325875 
0.01792348343560956 -0.01507819029299127 -0.005748474310902722 
-0.0005228364228261829 -0.01066871412940303 0.007556612656878262 
0.004335921346178133 -0.004650613122252168 -0.002434065190366953 
-0.002859779170598324 -0.001410555785010489 0.003238821537117922 
0.008009266687682213 -0.005704618938499138 -0.003885545717900175 
-0.006572467079885731 0.004824876463016855 -0.00154007479279641 
0.007302923178758923 -0.007552389415587066 -0.0008617275911602017 
0.0002514074824173808 -0.003072490451252084 0.002522935411665204 
0.002226917483631144 -0.001167446540575535 -0.001710256025072613 
0.02303923244074721 -0.01855259420606115 -0.008263950207554976 
0.006272382534482696 -0.006548266758674992 -0.0008280029280902657 
0.003056273957214258 -0.002358304455327661 -1.460538581818352e-05 
0.001548051020302595 -0.002424799797589077 0.0003555005192687545 
-0.007426239884469141 0.003565929641329935 0.002600077731459422 
0.002179928450841609 -0.004901378928032985 0.000870624049897541 
-0.004099536571288688 -0.0003967464883313667 0.001164125469339891 
0.05456864478944153 -0.03948617487912853 -0.02580492105258872 
0.00719564595938361 0.003865273082558265 -0.01305565914089831 
0.01043162621514385 -0.007497018875104436 -0.006212197382862678 
0.0146259023210581 -0.01977018672657103 -0.001411328607346742 
0.0029734892319449 -0.005947316614716543 7.43540574442683e-05 
-0.005413531750016362 -0.002757048957493293 0.00621833896180978 
-0.002243811890958443 0.005601044079630884 -0.009213446904149885 
0.0003323300408752631 -0.002119335244348433 0.0004340144442802191 
0.001970830445590301 0.002285858821457054 -0.007061575641320114 
0.003546299332808888 0.002182823690123635 -0.006836156797037397 
-0.006151198583672662 0.005701680773607059 -0.00113813924040351 
-0.0006716748538488107 0.008919536823040978 -0.008170371271423442 
-0.004368322267691072 0.007987066427542058 -0.006487322979414644 
0.005285643554134753 0.0008277167637343402 -0.006504611650000859 
-0.004636339188568081 -0.004833766485405788 0.006772327184405054 
-0.001021777888792894 0.004770295388442961 -0.004582656192153547 
-0.007862160838645733 0.009391598531703507 -0.004152412779524372 
-0.004023381486397228 0.005623152025399066 -2.254952149686136e-06 
0.002406479247954726 -0.001443717427542489 -0.001593411372226325 
-0.0001714669193992768 0.001111350069927004 -0.001780477745720001 
-0.003588913687716703 0.005454188724959316 -0.003100224790836997 
0.004142454859029466 0.004150152570188535 -0.008748286251385438 
-0.0003977730356578543 0.002125810623478543 -0.003046368532665666 
0.002731452107295142 0.003178797502033941 -0.006668804668323877 
-0.006998455363151167 0.004221441732583541 0.003450502344950946 
-0.001350171603733048 -0.01290951866337668 0.01348270820517104 
-0.005531532520421847 0.007845787114643102 -0.004162891139689676 
-0.004546882870508652 0.0009683346460226582 0.002803616103259828 
-0.0118225480326586 0.01784157396992466 -0.009535475325092187 
-0.00155175301433425 -0.005731579719261763 0.004628259448919392 
-0.007420439080280442 -0.01051540147609416 0.01543094279892307 
-0.000543692189347263 0.002182335223899605 -0.002400240953650823 
-0.004016279350276861 0.01490444379169331 -0.01507888813810132 
0.007926930111909284 -0.001225863364781609 -0.006888481383259671 
0.00417371127275588 -0.001069447948515506 -0.005073189225657402 
0.0006749738037685805 0.01891325617627928 -0.01874532483429362 
-0.0008055008273745336 0.001386065639329389 -0.005392077529126415 
-0.002695197126088249 0.001890122635540777 0.0002795748840059296 
-0.001770646182786508 -0.0046326305089011 0.005526145080533962 
-0.01142943537073824 0.006486331945539699 0.00616404579378022 
-0.01625920183854024 0.003692101048861799 0.006607361777612774 
0.00514427385147543 0.008128488547678333 -0.01399370571879703 
0.009455351657877668 -0.004654707520238606 -0.003453071736348488 
-0.006409031992328621 0.006780454019844401 -0.00483496163869641 
-0.003638972579519032 0.01048448788871486 -0.01119956303850249 
0.001769142432056251 -0.004145801820075784 0.0007333343708072549 
0.009978510872652663 0.009536486972329348 -0.01898097323230842 
0.0008221818494580331 0.006899342620536011 -0.007860707256282072 
0.002335061476693937 -0.0001941060198594618 -0.002487889294853536 
0.003300056726755371 -0.0006728949425841869 -0.002997086585692722 
0.000532364255198355 -0.001441862037534555 0.0003300900632408127 
0.004712338468139611 0.002917111641874825 -0.007886338699746431 
0.002800844907121347 -0.001475345189487269 -0.001697853092183937 
0.006138613560726256 -0.002289788520393121 -0.004273154420886351 
-0.002184530178986854 -0.007584144755094628 0.008805117322504847 
-0.006485843358892508 -0.003230523670090223 0.008457270280115507 
0.005215052280732746 0.001194780346646127 -0.006985009206533682 
-0.003328164181665609 0.005575280376875921 -0.00300750622724702 
0.002508082202137919 0.003316514372250866 -0.007065748791512047 
-0.01569921332716477 0.01375135499525242 -0.002615520818393732 
-0.003262046161876439 0.009852791922363855 -0.00725965646564854 
0.004858430523994743 -0.000957245010845119 -0.003561529410017139 
-0.00189244899806467 0.003808435431993971 -0.003699647635263817 
0.002663236567042726 -0.002912407449036676 -0.0003963343342253173 
-0.003573589093160789 -0.004119511523864666 0.007323899381122128 
0.001042695689251832 -0.001434016686765648 -0.001650284381993906 
0.001336238994701464 0.006626667011382937 -0.008491330219176927 
-0.009472631947154371 0.0006768424665498365 0.007669508179767133 
-0.01420813433123122 0.02885467407415022 -0.015885664229533 
0.003726141406490189 0.0007060823482523535 -0.004598868911881586 
0.004276721193413793 -0.004382838239060908 -0.001690041901806407 
0.001458918635412938 0.001384361329516084 -0.005823964236124421 
-0.02069707651662776 0.02005025390625007 -0.001925403523753021 
0.0008791187497783715 0.003656356032121839 -0.004302228549271688 
-0.001487429273698148 0.007263899000451193 -0.006552736193631723 
-0.005225658161381071 0.0009243842569521874 0.003749282479094174 
-0.01210987577137556 0.01772137720855308 -0.00566780090476427 
-0.00619444833156537 0.005510070418638038 0.002754313742120891 
0.00404864058919703 0.002614650515120906 -0.005844583501253475 
-0.004739061939473612 0.005528073908582917 -0.001354873963581129 
0.004885007284730159 -9.9881627761173e-05 -0.005654120872156543 
-0.006356622898172275 0.001234022671351813 0.004089364302889116 
0.005558171331612751 0.005110478361045651 -0.01186791172095997 
-0.0004383270488961572 -0.001080808220177517 0.001187227514472358 
0.003844783706630301 0.0004526261445551367 -0.004109851398944514 
-0.002345924321635117 -0.001198057536387382 0.003174158471228818 
0.0008649440587546797 0.004082036726234646 -0.004762370766020639 
0.008434528462218314 -0.01030540789157238 -0.002825484168314565 
-0.01467649054281309 0.01438876386985442 -0.003493656086223288 
-0.01177465924194581 0.01189489576293627 -0.004810572715205247 
0.008033525928682853 -0.001459308438379015 -0.007122512099311792 
-0.007160961384253938 0.006237155390888195 -0.00497743974223384 
0.0002065999576019429 0.005910250858192868 -0.008617654166599693 
-0.005742834096820026 -0.00191099294977816 0.006332157755500271 
-0.006314566253278853 0.006172935673504232 -0.0001571276270524362 
-0.004276588094908444 -0.004428938690321169 0.007232252770968696 
-0.0001719461113723514 0.003534574247607818 -0.003667139200796509 
0.009261564614844529 0.0003600451512289235 -0.009638847190153286 
-0.01850908734750349 0.01455887582166873 0.002314651971492203 
-0.008177304297586114 0.007516419700723536 -0.001317045233422776 
-0.009117086296283123 0.00713186841414272 0.0006793628689172749 
-0.008983753828315915 -0.003911481440798613 0.01117109835473002 
0.002750887381967588 0.005837112882374729 -0.009081116546856819 
-0.01072234642251357 -1.803000047613872e-05 0.008689423019702458 
0.009603699690981847 -0.007624845852686293 -0.007413144673113386 
0.006168117646844292 -0.01746755780560623 0.00727833188600728 
0.004366296813379528 0.002603952834772287 -0.006992394004276129 
0.0003075487226305169 0.000635542298836599 -0.002185564367778856 
0.005088855155601485 0.002903282076936919 -0.008229939183931006 
0.003136792530141545 0.002944842208960594 -0.007544305303128322 
0.008040909369737791 -0.001259251523878754 -0.007415709184976706 
-0.002140638408637101 0.001864293405187457 0.001066054813061315 
0.001577707489300459 -0.0007805849335569009 -0.0009867999854330958 
-0.005399190363163725 -0.001444739005891245 0.004624855522395052 
-0.01099264993231502 0.0109246319104674 -0.002198682194441369 
-0.001526300177611421 0.0003600949130622342 0.001303556296326387 
0.0005357708601629126 -0.001982432205338332 -0.0003008186581174671 
-0.0009694927528223573 0.01221931961955727 -0.0145250808826057 
-0.02372839641966992 0.02402582657499873 -0.002583940988720539 
-0.001423183758964028 0.0003077588016969865 -0.0003952032057413385 
0.003275333527288544 0.003019942108183642 -0.007865319721695956 
0.005240313029716866 0.0005463142845747404 -0.006764518882762319 
0.001259496427366857 0.0001985314867957056 -0.002232131143777436 
-0.006743163725351373 -0.004148959232519815 0.01015588362534982 
-0.01826187588061732 0.0112485014375702 0.009122756933890277 
0.004094261437636362 0.002282775375274288 -0.006513083938776682 
-0.0002112277790394953 -0.0002527671183828342 0.000445388337662795 
-0.02300514000866073 0.01206812674019805 0.01121659827140908 
0.006108558493896277 9.648442463143609e-05 -0.006372976670075099 
-0.008200860185294177 0.0106566670063459 -0.01146373198340934 
-0.0001215061876310773 0.005631207099144454 -0.005203841144694622 
-0.003124329114591335 0.001076583531719472 0.0002977538245144356 
-0.002193204886714921 -0.002901396735603087 0.003014076491711371 
0.001421579471251795 0.004107114768896428 -0.004232767725314209 
-0.01331174203722581 -0.0009314030274665131 0.01445343828566591 
-0.003899665771637568 -0.003442168928102423 0.005537183506229761 
-0.004954600497014392 0.009671880835389744 -0.004402156422435863 
-0.01300603798507506 0.006408863414722295 0.004645114338022177 
0.001579561010621481 -0.002651602874723961 0.0007397639404220283 
-0.004313350549822284 0.03643251742484678 -0.02832453706182347 
-0.0004904415803085826 -0.002032441409943755 0.001776899711253644 
0.003047634395911819 -0.006002883138244965 0.002027404153208322 
-0.01959798856416617 0.01422436550900789 0.001924591564512097 
-0.01095136085489846 0.007171671544425956 8.542320429223879e-05 
-0.008556863106731016 -0.001969580959345452 0.009744085373909148 
-0.005535371806571552 0.003366023166114949 -0.0002677372885119106 
-0.004408705763803621 0.0163401566287174 -0.01374395873749351 
0.003633854686918972 -0.00533669333232577 0.00341832189750068 
0.005665816082761954 0.002771504613930497 -0.01001249549517357 
-0.0003925238889937198 -0.00384195613806545 0.003350421095322025 
-0.01988984949655908 0.01488520147081566 0.001955984916867047 
-0.005762130107345508 0.001630922387012729 0.004009804097462133 
0.002169849693679859 0.006125447288487432 -0.009333378438247131 
-0.01077591256482717 0.01175879455990092 -0.002299606206026863 
0.0002849446103893862 -0.01010197226424694 0.006490065374988891 
-0.006764834155246044 0.006712955079738198 -0.00172602238116197 
-0.003954169676192726 0.0009089152253691962 0.003149780878955464 
0.00918058393471886 -0.00393829853471875 -0.00602655902948723 
-0.001097731167472286 0.001814824896409661 -0.0008559016173007844 
-0.002096035376203537 -0.007623049529312216 0.008898679078336235 
0.007752495575400898 -0.002389942620951391 -0.006221090956553753 
0.002490364169960288 -0.003231452632267816 -5.413114728136039e-05 
0.001470210312304546 0.003610795414394479 -0.005381498050620228 
0.001962299029764538 -0.001226106382883474 -0.001793892639509506 
-0.004053283560233927 0.004857098538838641 -0.004936703779638527 
0.002559242995655321 0.004866943159501615 -0.007493193397767741 
-0.005277744640706033 0.004670927295192697 -0.0009763883077618426 
-0.01839430851834244 0.008218248616244357 0.005103017440011133 
0.001218207742902698 -0.01264200129681781 0.01033525309741421 
-0.006461884381726971 0.00847468484379214 -0.005578517101908755 
-0.002505883631347297 0.00339814646940859 -0.005064850348419266 
-0.003390333775106746 0.001373959523369321 0.001757592949767261 
0.002655294009020607 -0.007419581573173478 0.0005546193107775679 
-0.009223916574621287 0.01160693647005819 -0.007233025399383327 
0.002110322305621236 0.005548694065268529 -0.01398744139062917 
0.003052007165364593 0.000135845177569771 -0.00422404279198882 
-0.000402756439728365 0.0005715290246275605 0.001282893706554527 
-0.007546577365562418 0.01052579377194976 -0.007510550115037853 
0.003226429489388401 0.005156532548578505 -0.008848093296385581 
-0.007692281334454798 0.0110031179630402 -0.007992550634434704 
-0.0004854606789606103 0.002094475385170306 -0.001896037455835316 
-0.00363007748826333 0.002577730197067866 0.0001066513157210073 
-0.0002300870868601566 -0.001554286312872835 -0.001245750167630625 
-0.01097916680154695 0.02047573840087056 -0.009938805242531304 
0.006359009661738186 -0.001935246065843736 -0.006774560770509435 
0.001086920314409859 -0.01032353532045893 0.00758458536751188 
-0.006923244983974956 0.007764223894465858 -0.00342182332497433 
0.006149608023842847 0.003366042672955768 -0.01023115650024385 
0.003965321641766957 -0.002604517745181153 -0.001575112153081018 
-0.0009287751847786085 8.483611816685271e-05 0.0007270640689660798 
-0.002093680957804104 0.008382986209026545 -0.0056860797127629 
5.238764814298989e-05 0.004946412243303339 -0.005271741663997614 
0.001705909532383092 -0.0006754050736628429 -0.001454955975637429 
0.01095618913614532 -0.004741415870652956 -0.007686913177684922 
-0.002265707067955237 0.005069431077533362 -0.002691228802103473 
-0.00490699735329352 0.009963265773979563 -0.004952594677771621 
-0.00435390837723384 0.006514797409960026 -0.0004920646343443652 
-0.003174049747912729 0.001178891326504657 0.001569051844520549 
0.001785751581399279 -0.001292435421729545 -0.0008686174376890918 
-0.004023165829982561 0.001473106274231959 0.001476903089216782 
0.01049235282571316 -0.00542885933632334 -0.004267231094918568 
0.0008427444497964285 0.008432562932584988 -0.008816757379534303 
-0.003592791811966909 -0.001514609490292402 0.004471811648948085 
0.006811357880021831 -8.718451095862517e-05 -0.0076223179053282 
0.005170258246145 0.000940713892477711 -0.006292054821569082 
0.001943694422001619 -0.003351122544655748 0.0007225558217229248 
-0.01423957855355484 -0.01245225771260176 0.01698913186619214 
0.002787394312389481 -0.009615292965180393 -0.003369119085693903 
0.00446975037298029 0.005498440231742354 -0.01132884825796777 
0.00689615235553676 0.008025767757062074 -0.0194505826816883 
-0.01038079175327404 0.01313073637396859 -0.006300524528064797 
-0.004768412973174052 0.00663011031456029 -0.003129219963374672 
0.001414479096945339 0.00133490773680558 -0.009956439331582589 
0.002959242920384997 0.002583514644143648 -0.006441193256622927 
-0.001171764660012866 -0.004216402490083113 0.007195048118913553 
-0.004093778310552076 0.01014973348035161 -0.005563769999729467 
-0.01339672095717218 0.01363422906738074 -0.002948676964858398 
-0.002567095624223962 -0.005429515277755212 0.004856798265891206 
0.003018652803794239 -2.624160714267351e-05 -0.003520581400463111 
0.0001823804077529997 0.0009301885247429957 -0.001128969127447182 
-0.00427988055022877 0.005374782693669585 -0.004840040044522938 
0.002959798652589224 0.003874583162737154 -0.008253097942386255 
0.01124198074284711 -0.01561114362918262 -0.004536444733875542 
0.003323299073805949 0.004213810330708188 -0.008329062460403746 
0.005299380934503347 -0.01583658697676142 -0.002708483243726122 
0.002574839431878446 -0.006384045084863389 0.001765941513513229 
-0.005596661838674285 0.01301036788642032 -0.009412209599163536 
-0.005411745641805571 0.006706473825904219 -0.003420060914493486 
0.0006124970961707651 -0.003321584173154056 -0.01127365933479374 
0.01814937958716244 -0.0348410129742773 -0.006576187326129416 
-0.004154671727003581 0.0002879280899228989 0.001323742678572603 
0.001473942399768326 0.001072014493543474 -0.003826255387439502 
0.004466139024013029 -0.01087832041614835 0.002553112124931025 
0.001219467972545193 0.009083744958684732 -0.01024185363878157 
0.002212885161653593 -0.0006731184609576302 -0.002208518878181156 
0.01386180097128896 -0.01020824683145638 -0.003541126060393513 
0.006111683232238124 -0.01113586515001337 -0.008955100520082811 
0.007476634086459243 -0.01060644434957245 -0.006222084729587027 
-0.001043718927294826 -0.001230764035287116 0.0008131880649784688 
0.003491920818444971 -0.01114928436471021 -0.008804226329737359 
-0.003385385085727533 0.02304025281216599 -0.0229328453465016 
0.0009408063524970538 0.01041521336393713 -0.01455290881757985 
-0.0004918526123511365 0.004825276866336755 -0.00498485938463776 
-0.00112141553376334 0.006549560298531244 -0.01236596567537723 
0.006195715025133956 0.02287361925910248 -0.03732972753505089 
0.01263749429722502 -0.02309142351394682 -0.001618153790697095 
0.03340244093488122 -0.009825292351512062 -0.02759274247581239 
0.006686639677214049 -0.003088512565385601 -0.00956608741359668 
0.001881834475040468 -0.0005186947607907693 -0.002543695947054446 
0.004293036737970273 -0.001931190272556132 -0.003287621734489354 
0.002366567181026714 -0.001465400315110427 -0.000775786446766782 
0.0008315065597050607 0.001431327699067726 -0.003514034175917856 
0.00535083219499585 -0.001829464649940061 -0.005787336533030994 
0.0120826623173762 -0.009804453482821621 -0.003490836601217219 
0.0005724296676609524 -0.005534122050272513 0.001254009627012891 
-0.003745857874671108 -0.005708994808429661 0.007951578946691417 
0.00387567916644096 0.003620666084523352 -0.008609422080750207 
0.005487402863795727 -0.007926870045682183 -0.008847360744744782 
0.004996611405657616 -0.002781507774458498 -0.004065054672459937 
-0.0146101729655661 0.02455630013403933 -0.01407364633066123 
-0.004830599903810441 0.01457496467021984 -0.0128121772284573 
0.002704028625464675 0.002760115696155433 -0.005145251255278715 
-0.003632520608490711 -0.02157770684937075 0.02743443145240405 
-0.001651505299877915 -0.00122344827226751 0.002447805170454364 
0.0008531704950031909 -0.009066839580595487 0.009885696296399162 
0.001887671501220549 -0.001838814751126788 -0.0008245441533046398 
0.0053722421406638 -9.520036000412335e-05 -0.008422138635958726 
0.004166709496767733 -0.0309892347551173 0.00399726255574074 
-0.0130194425524435 0.01321812671939724 -0.001226801270680083 
5.670419986558605e-05 0.005042253337472049 -0.005468605276065739 
0.008475496240618385 -0.007642462978272538 -0.001113910357435972 
0.002202160886574085 0.005308401474822055 -0.009963589225194965 
-0.02380355293290249 -0.001874499448855965 0.01879812457889403 
0.0004519335128834477 0.004017531617728208 -0.004670361711994738 
0.0001169554801274641 0.003427661750755607 -0.005798152353083767 
0.006774712892158454 -0.01710248728853521 -0.004812889163392562 
0.01099063518129461 -0.001664958194726338 -0.01879061937956013 
-0.008193049559842484 -0.0006014627503210655 0.007523658589709773 
0.03581253758302685 -0.01624837920630904 -0.03276439398888541 
0.0004768718458115539 -0.004190488093298342 -0.004283448324174021 
0.01374441027257776 -0.0009959593205675953 -0.01573787777520745 
0.0005854427933552803 -0.01234392772667145 -6.054659528757079e-05 
0.02055792800991649 -0.01613191078375704 -0.008926798490769728 
0.0001245436474015113 -0.0004445272003609834 0.0005933255180961193 
0.007547265497438961 -0.003869677091157629 -0.005141181506944872 
-0.004404586062756854 -0.0114339545949838 0.001886324793609091 
0.002868381954068802 0.001297365038615295 -0.00482016876658779 
0.01547089229313158 -0.01666978216400442 -0.002695705610606649 
-0.01470371116566979 0.02484334786813632 -0.01316503670443205 
-0.01865305690223274 0.02170028924068837 -0.007754353202085265 
0.009466607867887573 -0.003410148696887724 -0.008152390684468488 
-0.01047207856146471 0.01937262835752675 -0.01016407688519443 
0.00895647793783475 -0.01656326338260811 0.008604382619626408 
-0.002905092377616988 -0.01206815262401634 0.008293576300982866 
0.0006552085362823575 -0.004886190371969568 -0.006132834801619944 
-0.001962236567171908 0.003300603761534585 -0.007411627255535237 
-0.002594111027998903 0.002532970671799927 -0.0007596773080632435 
0.005587359749450057 0.004385999831507386 -0.01391668334692909 
-0.02821317256821672 0.00667475055115292 0.01891910320345789 
-0.008194898243871263 0.01014753112650193 -0.002218884101886564 
-0.01463573856750908 0.01214793916811106 0.003565933112095463 
-0.003684775991343172 -0.004003222935868124 0.007621012796258318 
-0.004686773710182841 0.01208635471549205 -0.007456378975709226 
-0.005420372974620986 0.000572762776878155 0.0003015420628587631 
0.02302408085676116 -0.03180299915213498 0.002431169929923982 
0.01530713880322274 -0.01179235284360087 -0.003946818523365793 
0.001715552031504701 0.004582924057573471 -0.006421520519480681 
0.01399124871608668 -0.01320599027780273 -0.009207253614708663 
0.005899813156474224 0.003532967334890467 -0.01201054686368701 
0.006062828404674371 -0.000951319758032093 -0.006811140090479569 
0.002128643870000022 0.005766048650377238 -0.007697836715009979 
-0.005231516546057704 0.008462793911567063 -0.006132775726139915 
0.003431409975368877 -0.001708365691539741 -0.002035582558270461 
0.005764367962921135 -0.006670326554396377 -0.0003693781095469809 
-0.01196318066452058 0.01648653313211949 -0.004906253541497475 
0.009025268166228805 -0.0158121470612589 -0.004515622733382023 
-0.001867905693222452 -0.001144069482725981 -0.000856131397083837 
0.00956641302249844 -0.001022775014448894 -0.01217325092183914 
-0.03166143522282387 -0.001807899940146059 0.01521262123300266 
0.008379951313696588 -0.01326181200088766 -0.006194940580887044 
0.008460053557890063 0.0008309986573758369 -0.01227309352676464 
0.003838566522860223 0.001677242244663072 -0.006030913734794202 
0.004077652374063253 -0.00238762285838828 -0.00264947432715998 
-0.002734554733591728 0.002436027871549188 -0.002675833645710923 
-0.01441881932155622 0.006645207998363484 -0.00266877465866732 
-0.00174289090877528 0.007976193090854868 -0.006758511610211814 
0.001329254660576998 -0.003803703949612291 -0.000415555854530031 
-0.03653270072214881 -0.0006602157927776019 0.02499708088725386 
0.01198508444946155 -0.005458188160380129 -0.007749500865423098 
0.007381191164037028 0.005635324444554461 -0.02558210208348855 
-0.002856011583265134 0.004603978494753761 -0.003530866018772986 
0.006536698087685503 -0.01199483178680547 -0.005281821672004326 
0.004929345142155539 -0.01310347788016656 -0.002557458006497293 
0.00915902241298569 -0.01022014795024558 -0.006470139795263584 
0.001682116819020751 -0.02743621294678524 0.006164628119510568 
0.006701851295431329 -0.02041686429306497 0.01444927250060747 
0.002091547464294855 -0.02314090848125085 0.02264580678168411 
0.009082981623219398 -0.0002395176521417349 -0.01906588740187343 
0.002772221396205671 -0.002165692892732193 -0.0007056365292536296 
0.006046491158207963 -0.007845849269696106 0.007346079296199085 
0.0007011359423562877 -0.001179130603709347 -0.0002935928857486334 
0.008386586033946269 -0.006836312879046153 -0.002883994467141054 
-0.01422492683168989 0.03461763063040352 -0.02142930020677862 
-0.01315906942805192 0.01872050970304025 -0.006845306045942293 
-0.006990167890988314 -0.00893617725731256 0.007203366094625478 
0.005342529712678588 -0.016665807067074 -0.003252420940951582 
0.008271321159833004 -0.007275334800833012 -0.001016580799216573 
-0.005650277646698609 -0.001887904326994465 0.005693042551374505 
0.000703463426671739 0.006968625465102571 -0.01096265247656191 
0.008768029547129351 -0.01923001725339076 -0.003549992468402916 
