solver_type L2R_L2LOSS_SVC_DUAL
nr_class 3
label 1 2 3
nr_feature 90001
bias -1
w
-0.002344306082603229 -0.01528024353832202 0.0159508011488939 
0.0002303489075230579 -0.006679011660226997 -0.007999109338814578 
0.01522664420736482 -0.0212679086727859 -0.007071430833834011 
0.00538068210401023 -0.0005582373528557925 -0.00803589088747785 
0.01529618436377042 -0.008793378448982498 -0.01475873954424014 
-0.004618415560222646 0.004767292198514732 -0.006571233966850819 
-0.005250842143882322 0.009727430050670834 -0.006634834070998923 
0.01090608907283985 -0.006033046274167396 -0.01669854835978278 
0.009784673085447265 -0.002720794168772469 -0.01240658080957298 
-0.00242167789116066 -0.02532563092890265 0.02230677142799794 
-0.002532638593987523 0.003805992414307385 -0.00295021701909929 
-0.01102317724517317 0.01093941820885129 -0.004735897756018743 
0.0007356713316928348 -0.003483785053267849 -0.002589998780987964 
0.0034610518210043 -0.002779483211338322 -0.001621244791475828 
-0.001047444887084805 -0.002384110473009045 0.001664167915335743 
-0.0007964840226777089 0.007897532466794232 -0.01319644252659467 
0.005913472165244804 0.004147197617787907 -0.01394368201010108 
0.0212320074351944 -0.02526414930558243 -0.008055026077135203 
0.006004169132290061 -0.0006614180188251306 -0.008540085955801085 
0.02121759629884239 -0.02437306301147345 -0.0149621638137071 
0.002071555889894262 -0.02084430032037571 0.01466996645032311 
-0.002736669169181908 0.004689722858797849 -0.005242012613956078 
-0.005070091342515705 0.0007408866829935649 0.0002538489753538901 
0.02541739254667893 -0.01177955738253199 -0.0407244660673074 
0.05315993872738187 -0.04944153665308245 -0.03624773936214548 
-0.005759367431348413 -0.01866141406946288 0.02228553821053928 
0.0003451704192250281 0.003020359538063411 -0.008081908337691122 
0.007689959698125134 -0.01935672432201642 -0.0004589177500012262 
0.008803242648926572 -0.001683775051981354 -0.01228793358364302 
0.004995788898601681 -0.002810149443256049 -0.005691389512178289 
-0.006619615709137419 0.03125777790681265 -0.04663400707445551 
0.006217245714433564 -0.001846246703938284 -0.02549325653606703 
0.01722200244686154 -0.02414236456959233 -0.00480062391945751 
-0.003102605975264863 -0.007946267843476556 0.008197409812506513 
0.04731246223317745 -0.0323625354187038 -0.04697897328166723 
-0.003823299899248144 -0.007147538715938291 0.0004948981602389639 
0.004542626332495491 0.001332118458987314 -0.009080573891336196 
0.01076330802192122 -0.001207607412360071 -0.0171170457679431 
0.005130396745732476 0.009927113368016983 -0.02693466115814364 
0.001206010301383095 0.0148041685049434 -0.03063187076799344 
0.03022129352642043 -0.03849603254769164 -0.008191560625574338 
0.02223522810347037 0.0003057647590993736 -0.03490748018887976 
0.01257605465447637 -7.678554278793484e-05 -0.02225852515042629 
0.001656592743000676 -0.0004574906104493563 -0.002042309364894047 
0.004204765512902145 -0.002933484786336494 -0.002626167463649755 
0.0005802386064019712 -0.003907103085522784 0.002274779976471883 
0.001930820500792943 0.001245189987497843 -0.006563300093152763 
0.005567766784000078 -0.004850783197435433 -0.003409446846661986 
0.01045565584521267 -0.001834719181449328 -0.01415348977565931 
0.0002088718055242167 -0.01628706348586602 0.01274158367039946 
-0.005185382522395602 -0.01091119714569737 0.01352933494850736 
0.005177993965909664 -0.0004541009401878881 -0.007576129441995693 
0.01624743674164859 -0.02019899613359502 -0.008842163770897382 
0.00218527887074424 -0.0009083118624570364 -0.004322418908060937 
-0.01422216903479736 0.01525500758494893 -0.006217714988495553 
-0.004674016597222844 0.005557204915557282 -0.004928517050983314 
0.008596228584367134 -0.004239174525238451 -0.007374948055587969 
0.001692208489298154 -0.001321244469835344 -0.01225796027580355 
0.005334706807287317 -0.004069266761536569 -0.006164009404440395 
-0.002941618478793541 -0.01145611358438961 0.01202899705123848 
0.004208549411616236 -0.003122417690507074 -0.003935577973099824 
0.00946628649686547 0.0045603487225576 -0.02082043085475941 
0.03596963341240556 -0.02525097282130616 -0.04354554015341144 
-0.01365558116378574 -0.02090832937468688 0.02828536893881856 
0.006192703730027514 6.473740607654388e-05 -0.01088338144462816 
0.003883338380328228 -0.008251756133265108 0.0006883567954780649 
0.00210096012515738 -0.004569601426068642 -0.0004456407529232751 
-0.01075462266286714 0.01312885526492086 -0.02312523385410303 
0.001297570529035618 0.001377192661470269 -0.003846061443716776 
0.003723917935598899 0.0003312272754652493 -0.007759878518431271 
0.021951282158425 -0.02453405947259696 -0.01640247787992192 
0.01671548948947709 0.009206725378199981 -0.0456093836602226 
-0.007893161680359608 0.009810480802667892 -0.006667370528166834 
0.04626682685205193 -0.01665412311488933 -0.05205008049338428 
0.006352054913399676 -0.00924779695860586 -0.006497227139496169 
0.01006384823439398 -0.00160638864420742 -0.0143194042624474 
0.01185342802503385 -0.0210631748305717 -0.00507157286324892 
0.02040352188969495 -0.01975013426133425 -0.0118200247553714 
0.0003829051742109484 -0.001427454025887311 0.0002519304763869307 
0.009554862435294376 -3.325217237689187e-05 -0.01372655562596999 
0.04425711933854484 -0.04416716975444221 -0.02555607089428825 
0.003208189895319747 0.003689378101218716 -0.008483638998387538 
0.02131186797715269 -0.01678344851802144 -0.01311857113991271 
-0.01377255145256356 0.01973797523482222 -0.01088151432289185 
-0.01387528128256232 0.01350444536746289 -0.005516719357304529 
0.01699978546421644 -0.01134841044983056 -0.01193834634368657 
-0.01130048783957704 0.007730934705227097 0.0003759917358923442 
-0.006065557631884818 0.03060625812878918 -0.04098052488904375 
0.007113713738028245 -0.01702272609604058 0.0007253151860424004 
0.009470182946958105 -0.01698821567523236 -0.004316498169700507 
-0.002717178387487591 -0.01247666289130802 0.01077061697057674 
-0.003130746217822319 0.002939423865699827 -0.002781543526614998 
0.01322910550394606 -0.01036540133611026 -0.01088924767681891 
-0.03944451940350229 0.02078884658671136 0.008194746903665418 
-0.007318712967537058 0.008346291730676433 -0.004304191715326039 
-0.01580113650837947 0.009569996517470125 0.005824384431947467 
-0.004767608886726057 -0.01305373646890813 0.0155461154626195 
-0.002831057439195571 0.006845381525286178 -0.006417686168899583 
-0.007683700416548599 -0.009986419115001886 0.01489210853790272 
0.005552537797874585 -0.01080403573591054 -0.009115934957367842 
0.004991222479022279 -0.01330316391238169 0.001769750299156726 
0.007089225743646577 -0.00272312743646068 -0.007293966223389724 
0.02402929383641427 -0.02443626246559046 -0.01164020739734437 
0.004393882347879558 0.001671713504906416 -0.009085174544949755 
0.004919035297014727 -0.00221867564267302 -0.006076663120105028 
0.009156671918043747 -0.001338568626997382 -0.01278333857170705 
-0.004899576444170439 -0.00352283779984852 0.004582297004562644 
0.001978969659083333 -0.001275564543134931 -0.001360871396528921 
-4.61096375736642e-05 -0.01456006298137049 0.01262528253107844 
-0.010793053928306 0.0149589185096218 -0.008026984810155846 
0.01966300417482994 -0.02413876180566917 -0.009140013160051612 
0.006119212498293986 -0.007101339175435584 -0.003290004308274267 
0.0111200477035285 -0.04398434209625637 0.02492933160916501 
0.006161632947356239 -0.004108303815247287 -0.03078988950119817 
0.01923941009941778 -0.02713281317850385 -0.004298960120407838 
0.007852766335318685 -0.002379581001561199 -0.009271763973218704 
0.01059293482582092 -0.004630428028399136 -0.009328291304782363 
0.0003726522852071482 -0.002281211967852911 0.0003872794367274965 
-0.005743811804230206 -0.01368700434855818 0.01648650748823575 
0.003500726951371314 -0.006029451260198969 -0.0174849267695433 
0.003838219918311559 0.0002366102853149346 -0.005761247545705775 
0.002680523688471409 -0.0004566622361134901 -0.007292582162193874 
0.01240498241891061 -0.01614293942083584 -0.02346254764998996 
0.00940220853934216 -0.004084950036421699 -0.009751747306134694 
0.01762866466779615 -0.005817826950428151 -0.03340637834005074 
-7.875933383124076e-05 6.871657545203486e-05 -0.004278695441343554 
0.01700361418516588 -0.0259010561636435 -0.002954528856215979 
0.01798350488286936 -0.02228450363557032 -0.008315512713364658 
0.01988856767999206 -0.008850503404991635 -0.02214076710861672 
0.0393354873621248 -0.03863601961647202 -0.03131121115239133 
0.0005722686877429528 -0.02652852921769895 0.01942148045816035 
-0.01551542114989373 0.005894675621611837 -0.00591919872441928 
0.02597667474930471 -0.01917205113766877 -0.02756446764416576 
0.002671335659117307 -0.003839763343767412 -0.0001825131123636059 
-0.007973851298043497 0.02049644311098099 -0.03312987285637429 
-0.001863421369413861 -0.002928501955857155 0.003039245820832953 
0.008854831829524712 -0.01674132782043629 0.003320713444518876 
-0.01873925309358391 0.01110008109657869 -0.001694992576368652 
-0.01045773033093882 0.007890102329931903 -0.001607351446893729 
0.007594331385456168 -0.009856868673295974 -0.01162141381737318 
0.01944951292303104 -0.02872243417589093 -0.007820082259134838 
-0.003445842967106713 -0.01942215040999649 0.01556284946016004 
0.005126673984202903 -0.003690905508031542 -0.006875018222813708 
0.003656632294055635 0.0001558546446520472 -0.006783531641118757 
0.02513485902372637 -0.03760660510748976 -0.004104985703465371 
0.03076403420683532 -0.02484425460984628 -0.03422386146794307 
0.009705721652310789 -0.009306406187329246 -0.01134520046939643 
-0.0001515749144779598 0.004490316583094334 -0.004979201285274585 
-0.008200317408420239 0.01217899110529149 -0.01161112985675513 
0.007510909142531903 -0.003616688739737717 -0.01634323198701647 
-0.006909753442538364 0.005309507804392885 -0.003119253220671344 
0.01398620696520702 -0.01970010306482211 -0.006489412841361158 
0.01397423842628148 -0.008112757264490893 -0.0109898483706524 
-0.002440826873285339 0.003401755164359416 -0.002008670709460969 
-0.0006453648035437997 -0.01383235028742521 0.01233344448597646 
0.01880297931561425 -0.01430110099946173 -0.01104561288472864 
0.04193504322999814 -0.03878546238590416 -0.02348069056244727 
0.001960656844888273 0.001787811934680399 -0.005970842707681496 
0.003169318714419639 -0.003413514547205707 -0.001403554765220234 
-0.00602431675383863 0.003421420073627508 -0.000928447796690762 
0.007191222129814883 -0.004611676001462756 -0.005511890514977932 
-0.01299507544605765 0.01485094457133983 -0.006160084418966698 
-0.0338747640094048 0.02482678181891896 0.0010731771257666 
0.001978103335557636 -0.02243561152610809 0.01875306542462502 
-0.003510441697876074 0.005612433609437291 -0.005917274788528722 
2.665171080703219e-05 0.002620451506951349 -0.006422207772244376 
0.0160619737109202 -0.02306998936984778 -0.004666664600529261 
0.01621366307451985 -0.012728313363722 -0.01547900835622838 
-0.006761358864825553 0.0113852161806211 -0.01017488570047667 
0.01744213292114461 -0.01790421435067823 -0.01201583475462641 
0.003583489635778545 0.001194498487113237 -0.007420462399817569 
-0.000154744817994144 -0.001284562012440299 -0.007077441845118787 
-0.009799913679640077 0.01162222493782692 -0.008247714370919987 
0.004204167580358615 -7.839653242594228e-06 -0.00719075347479386 
0.00136701479723113 -0.03165410253147606 0.02462769276085254 
0.004451553090588462 -0.0005686243461623214 -0.008864595651885274 
-0.004401167034900105 -0.002033845294026713 0.004361052709723203 
-0.004089137626772978 -0.01455850335898582 0.01079797950573665 
0.007775051707510506 0.002486233826528033 -0.03419264818673099 
0.02531179684934302 -0.02289454876095452 -0.01301651507593297 
0.002030820662607813 -0.01517803283643092 0.009955964162199606 
-0.001793253243606644 0.006574912908016928 -0.009997700046326614 
0.002393831664077784 0.002918269262624416 -0.00872024200387231 
0.005839786935317669 -0.004055152108788364 -0.002937074905449397 
-0.003741274251632039 0.004064969617764389 -0.00596251708597377 
-0.002688221973705517 0.000503327269005834 -0.002444143535795294 
-0.0008543044723593299 0.001761370616305202 -0.003186980808983778 
0.001244792883237389 -0.00027931101321412 -0.002249448856137961 
0.0290513493081636 -0.02560466270201666 -0.01512068349954445 
0.01060002113826959 -0.00877357808620877 -0.00945067398317017 
-0.0083299355261852 0.01023911042261692 -0.00563044686364532 
-0.0004777309634556021 0.003349276755967288 -0.008831461002020194 
-0.004380015254670266 -0.002745927853222745 0.004801430533071556 
0.002270619137918351 -0.00435653656829585 0.0005337819233498229 
-0.002136509365385012 -0.004158599058037804 0.003886694019659298 
0.08185548163327733 -0.06842104911885147 -0.04804047707402406 
0.008568745864607059 0.007961237748347979 -0.02225352507947232 
0.001279583334264218 -0.001433591163972078 -0.009752449372213529 
0.01947888823766005 -0.0219637618621735 -0.009807058514120556 
0.005796082243392083 0.0002165112318702574 -0.01033678815249098 
-0.004050080592582815 0.02396589991966997 -0.04018660620762011 
0.01316436494005869 -0.008604675051564283 -0.008532419274151475 
0.01139796083970981 -0.01322331219311605 -0.004469009551941158 
0.01026047006135697 0.004674103466826232 -0.02085576894973255 
-0.006850174178644104 0.01087053615785703 -0.0107219052967342 
-0.003960959617931168 -0.006220732492143377 0.008895917389773007 
0.02491568793848484 -0.008650258926967953 -0.02485379485098308 
0.008792093980286792 -0.01679955398865668 0.002322551514085114 
0.009098385787924174 -0.005204143074832974 -0.008072786269387929 
-0.003309242840471014 -0.01798141438917843 0.01769295084812676 
0.002960210498998226 -0.002685969210305401 -0.0027357145299799 
0.009321886494382507 -0.005268612578682433 -0.02766375346440818 
0.03356608738986851 -0.02621129826426257 -0.01563722598527711 
-0.001156663011861855 -0.003784899364889761 0.001566931969513228 
0.000984770106486173 -0.007396134539829862 0.004553843236309195 
0.000243268469654486 -0.006512407728082998 -0.0005829437886641981 
-0.005167156200943016 0.02571607572855089 -0.04382915837716645 
0.003025499047739927 -0.000274908078807971 -0.004514879485702498 
0.001406239707406598 0.0004395401906855793 -0.004827136912264568 
0.002024408867058119 0.00760210719639545 -0.01446019746228195 
0.005873086272519033 -0.01404663718884845 0.005759370348078721 
-0.01164352262793157 -0.004479953051995706 0.01425889233724639 
0.006857282020126816 -0.003361029111801445 -0.007086024510882783 
0.02942784739941871 -0.02353348489227538 -0.01239807019616707 
-0.001742380698512243 0.001455270113880727 -0.00390443291229802 
-0.008363773252237952 -0.004889933581691098 -0.002552371168694249 
-0.01058898846911024 -0.01865966701118394 0.02671595157878404 
-0.003177239719528023 -0.001796217056008015 0.0002090651729838251 
0.008159186729844949 0.00387632747526477 -0.01979285512442609 
-0.001494667773519326 0.001155402849094905 -0.001207598233486315 
0.007190996485477805 0.01080407812107215 -0.02362371421533106 
0.06932964607723879 -0.0647213681900425 -0.04038374519565013 
0.003089630117543356 -0.002495787300756728 -0.003480343062458547 
0.008598845542974005 -0.008664850763656194 -0.00448724734185157 
0.01678129887841478 -0.01312951785582365 -0.009856671332160777 
-0.001905204217954761 -0.007667871359136964 0.01017071102767282 
0.03350985086981986 -0.01185627642252356 -0.05093494810753043 
-0.01774453613436565 0.03773537975754249 -0.03496538589046374 
0.002978199771128695 -0.009384386281423174 0.003692740706695809 
0.03632284865988658 -0.01774330828621662 -0.02845335689591992 
-0.004398990966925339 0.01134434269564308 -0.0139150424183849 
-0.0108313151559559 0.01168092273773232 -0.006043709860305136 
0.008889085664091441 0.003748515628782467 -0.01660878657835978 
0.00912619731097012 -0.01237721748103642 -0.0009373545140246294 
-0.001643100524504938 -0.009468902518989594 0.009147848966290128 
0.003441961635675129 0.004606435281613985 -0.01195791423175179 
-0.009315960891761923 0.01506512983571167 -0.01026656807395657 
-0.000111880660931811 0.001319229909326298 -0.006718800995419849 
0.003041435996013785 -0.01397487032864964 0.005927590625191747 
0.004610817228205695 0.00289503663280071 -0.01265434484522442 
0.0061644341453006 0.0009399184863600453 -0.009704999417524753 
0.01293754943709101 -0.01707972333452947 -0.003630238307139032 
-0.00690680778256726 -0.00806218434485946 0.01076644372080284 
0.01313240035740752 -0.01003910901052857 -0.009308544370595815 
0.002584585226210097 -0.001840470031456502 -0.005294539448924065 
0.01926708715498792 -0.00763630789370284 -0.0176613281331663 
-0.01323550985771257 -0.01516033245682992 0.02544360570702489 
-0.004247935082034775 0.0008158586234510017 0.001668733559315828 
0.0249009268225172 -0.03147048491600912 -0.01509501149326035 
-0.003893827698215557 0.009142175578298141 -0.01174083451737675 
-0.04050548082631423 0.04589924002288009 -0.008466307200852318 
0.003945325508708922 0.001048943671682654 -0.007985242054433702 
0.01354490315516292 -0.01268863457201443 -0.006312555641222057 
0.01099911667787027 0.005224138495851009 -0.02174620312826736 
-0.004436852400098678 -0.001702249874697717 0.0006824938574988555 
-2.721452058963526e-05 -0.002347971255141964 0.001075726860939011 
0.003951919847873887 0.02725342667150762 -0.05258368085934906 
-0.003912649993060307 0.003359313100340198 -0.01546999400345327 
0.006003890202692211 -0.0004835458624706833 -0.01143098116417882 
-0.002946373305418934 0.009581385889830495 -0.01417963259412054 
0.01991866656102959 -0.02302363775014105 -0.01313994220378436 
-0.003384897852291216 0.004469847730228668 -0.007292399205683377 
0.005431800705660531 -0.00980639709478736 0.002315425251278889 
0.002218088857472808 -0.003481390889516101 -0.002875419791134424 
0.01167112536686493 -0.01090688940451594 -0.004989450958829432 
0.004002605108858338 -0.000534172952883564 -0.009488333429540466 
0.03705088405765691 -0.01426168640483815 -0.0497653213622478 
0.01168323020997098 -0.003523175509752175 -0.01333328118133023 
0.007935865823912848 -0.008375659040967631 -0.00172146926192905 
-0.0041020628749967 -0.001109684166361492 0.003375495795679884 
0.01079607634800239 -0.01915461816234735 0.004910372266646102 
0.04577047542491351 -0.03312243489791687 -0.05153284541785799 
0.01111367635033566 -0.01215761712252295 -0.002074235831821595 
-0.001160482448871919 -0.002862831588135103 0.002412548617935721 
0.0162893055973724 -0.01032393876321657 -0.01309807457841135 
0.0008472227322657234 -0.003043769678764381 0.000279205450352612 
0.0242005230039099 -0.0223707457169711 -0.009482998791300951 
0.01261070607767177 -0.0034882267546546 -0.01405385452841078 
0.01200247241530367 -0.01038761111381234 -0.009516511625856596 
-0.004227651251281888 -0.0004804503744150667 -0.0102827415067365 
0.02261407035630768 -0.01599544832157632 -0.01208564010611855 
0.009163987498088205 -0.01580554789914098 0.001208304410267543 
-0.010074741601788 0.01286857336065815 -0.004979099309782094 
0.006294794231418839 0.007414394100200217 -0.01841628097063237 
0.04212402731690112 -0.03238884006141727 -0.02064792160755984 
0.001297520088815507 -0.001548526775467769 -0.001184398840728638 
-0.01113991776138757 -0.01984196627288713 0.02694616971619422 
0.009657708210441382 -0.003402317682822909 -0.009562101382865146 
0.008415216690890352 -0.002327409903068327 -0.01120003258815489 
-0.001409584239443741 -0.002632783501481203 0.002509663213125019 
-0.004567989515375142 0.001272670340664561 0.00114227352862141 
-0.004103806743062282 -0.001785725978728681 0.002395521056497419 
-0.004130818489886873 -0.004664594516333429 0.007048427899819728 
0.00765633153322472 -0.006124144079908228 -0.008252904666648282 
-0.001289840205315752 -0.005082395073596004 0.00355400452544668 
-0.007156389519511088 -0.00499147589099994 0.01150133463581662 
0.006817324055218167 -0.01533004793694701 0.004221216449729013 
-0.005134999443174437 -0.008539519927955052 0.009616001975133216 
0.03913467232318254 -0.0437301709720432 -0.01730858686830971 
-0.004380984800735059 0.007215878547454883 -0.005701061376437128 
0.019261925277839 -0.008572779624130725 -0.01792332323602651 
0.001365138365902115 -0.004621701933438279 0.001488546889793905 
0.001815775425632049 -0.009385022123849833 0.004286564608408692 
-0.0126040524322452 0.02684164233700276 -0.01962688585539817 
0.00434246418402956 -0.002334678945442307 -0.004784017301092084 
-0.005421100855297642 -0.007968681377575728 0.008001149599349449 
0.02412928526747027 -0.0182220770361914 -0.01080450992457718 
-0.009382357259646862 0.0001445755812859323 0.01017588124607071 
-6.104819368852621e-06 0.00897173264269379 -0.03166854826593664 
-0.01400896100323492 0.02092102963841038 -0.01146870289057888 
-0.004193088567314528 -0.00264489930983541 0.005244729093732938 
0.03322708364783079 -0.01743959388953693 -0.02612805844772513 
-0.0160081713741569 -0.003674805013120981 0.0178308246933375 
-0.006020304560788745 0.02149981029674197 -0.02159917699643285 
0.06475887275118625 -0.05489640424867578 -0.05061423842078234 
-0.005551982016585762 0.02368798460139667 -0.03452894405670476 
-0.009061984491684501 -0.005244286708981776 0.01299215766162249 
0.0003992444205049954 -0.009342414416290374 0.002789731083815809 
0.002099749955797129 -0.01334704655296253 0.00879995858908938 
-0.01841619361869772 0.04464636499065644 -0.04127343650640354 
0.002447814687112264 -0.009887579531515592 0.006307570441558372 
0.004083699075086579 0.0003721224583223293 -0.008233534379825359 
-0.004740759394963575 8.306675674191599e-05 0.00174792508025682 
-0.009647570576610105 0.02319252861460381 -0.01638730275046919 
-0.002657083317663128 -0.00147698666290408 0.001978190136307946 
-0.005897228122236173 0.02324029290969804 -0.03312558187671676 
0.06046329449889228 -0.05664012058030136 -0.03816518645963896 
-0.01269939127646803 0.003734730681692867 0.007944544779475846 
0.0020103338267862 -0.007105691789795979 0.003229338806022886 
0.0224716183539453 -0.01293172870468248 -0.01574717620701084 
0.01838809790487696 -0.007952161153210157 -0.01527276856136541 
0.006469119450240691 0.007158875084050081 -0.01861121916404359 
0.004734663230847164 -0.007496551605886649 5.999614162672298e-05 
0.01170080712553576 -0.01345473887530678 -0.002565435505987415 
0.005681166390523814 6.746361041188459e-05 -0.009011665915745603 
-0.002059008459143145 0.006157884313711312 -0.006838654612125902 
0.0001251582806101648 -0.008464910332857524 0.005934314007417759 
-0.02641082034274746 0.04927433504585363 -0.03555041342863614 
0.00920774153157663 -0.01964643644358353 0.004594425769890258 
0.005834857770845714 -0.007125349238179556 -0.001570323169621947 
-0.005016603411364949 -0.001107298244957023 0.004037801621876259 
0.01970447972343993 -0.01449906060158643 -0.01029804266490507 
-0.01262642677935624 -0.007976189778310532 0.01847723369426972 
-0.004354627864327412 -0.01264500207649068 0.01594432364992385 
-0.007000410676308792 0.002348542175410273 0.001262293335868226 
-0.005271400295801164 -0.008663113962089868 0.01340777033651655 
-0.002054015400147526 -0.004413907486048212 0.003797394346757558 
-0.01215370089450243 0.01366452196819165 -0.008136591408912245 
-0.001944831525326384 0.001625970967446731 -0.002872243854647207 
-0.003117452198301385 -0.003392035502924789 0.001707074788866284 
-0.0009913397352893953 -3.065486060955475e-05 -0.004848589777952312 
0.003366549466945033 -0.008279245583398433 0.001162699958527923 
0.0117593703984503 -0.007795516047886844 -0.02509463274367445 
-0.01547311747712857 0.01903342252165986 -0.004131554766228395 
0.0080692570546907 -0.007634334583732444 -0.007474012271526306 
-0.01841077754829137 -0.001152286567958697 0.01967818309188536 
0.01662412545631378 -0.009549019904100498 -0.01148125729722643 
0.003610464941432377 -0.002610060420959721 -0.00302722541549804 
0.0272825608443879 -0.02207608549334258 -0.01323435697899105 
0.01243844237264547 -0.01650017718065157 -0.0002301916021071103 
0.00849578508900174 1.261849101526901e-05 -0.01343963548824528 
-0.01161906615974656 0.01571042339983191 -0.006697384858959182 
-4.942477096447702e-06 -0.004130545864818888 -0.002172742346706805 
0.02070947796842891 -0.01682450063612385 -0.02618001071816674 
0.004123389488364465 -0.002909317645327653 -0.00547428937932833 
-0.007753761649527124 0.003482819525199492 0.00176563222111846 
0.001101960486194405 -0.002356984757268565 -0.00464155882439039 
-0.0008849087440465646 0.002631864166177387 -0.00472010083348003 
4.389450439997397e-05 0.008613833961233327 -0.01536746780209788 
0.01021753488509707 0.0002300783188335534 -0.01524157681643704 
0.008284402971829936 -0.01254964910451576 0.001635312385400064 
0.00751680260101884 -0.003574290103935666 -0.006443034706487516 
0.03206434203017519 -0.01207121831824375 -0.02824569258224703 
0.01608300977493256 -0.02885908082639405 -0.002428077985683551 
-0.0001719678021713242 -0.006860689208549197 0.003395741155156436 
0.005951680341211672 -0.02331556052693285 0.01240313354718913 
-0.01894773685773436 0.0221192800335376 -0.00672478866665749 
0.02060450806472726 -0.007257422002994594 -0.03794203476998474 
0.01188626680331589 -0.008884796054288387 -0.007684143407597379 
0.0002381534732742928 0.004432048758307655 -0.006987624647194931 
0.03193310009357352 -0.02112791318147027 -0.03002280624168771 
-0.01306395037680372 -0.007161256076155947 0.01808156906651853 
0.0006664048621990383 -0.005200095075262693 0.002926379316328169 
-0.004707791473639571 0.0123928965976801 -0.00877027578625305 
8.896006887266101e-05 0.009038298685029473 -0.01883077881542776 
-0.009442112497562116 -0.01350027708390163 0.02035406491629057 
0.02173736410474937 -0.01134342429380335 -0.01668493743273476 
-0.003999016341388248 -0.006478338251273406 0.009484345931392999 
-0.0185975245054668 -0.01143316223821113 0.02815836565795589 
-0.005323811947580439 0.01808762757547578 -0.02100453017968995 
-0.002113923670557227 -0.005634087237384311 0.009912789059119589 
-0.004083200990978846 -0.009417459705039214 0.01244826267615509 
-0.0001700879489607923 -0.004284571533198871 0.0007739331051370696 
0.00242657752645657 -0.0001718857660290155 -0.003480974962082372 
-0.0009008559600295888 0.002259786199282511 -0.005403042464143843 
-0.005294675023511199 0.004517664355048036 -0.002992067141612599 
-0.004648836348121152 0.005954530892597116 -0.002569990926345428 
-0.004177466433961773 0.006661569860211576 -0.005441604628999094 
0.003977191857692373 0.002760803682615816 -0.008594207260186709 
-0.009537254468630189 -0.009176189120804713 0.01724380044047783 
-0.001783856699045499 -0.001768519769545028 0.003111630663506238 
-0.008537243956067678 0.002645998256497938 0.003075609349578527 
-0.004524377382648267 -0.002463984231173756 0.006527592438382106 
0.003242058803941642 -0.001960453858445512 -0.001832129482440663 
-0.002155099813529005 -0.001053799113214466 0.002782883193092638 
-0.003013353003432961 0.01139285318020075 -0.00871279506422391 
0.002280232134134102 0.006026577866960407 -0.01077816781768401 
-0.0006813323267046401 -0.01044132043616462 0.008122470689654637 
0.00171846812709475 0.0002500412555560105 -0.003837494341188897 
-0.005050065896490219 -0.007466830805301413 0.008807729213709767 
0.001496070811872375 -0.01200768810180002 0.01004908003777857 
-0.002886337998181965 0.0007040198901849652 0.0005864589783368611 
-0.006560740005046962 0.0001646358250559661 0.004216476104165374 
-0.01494768305069005 0.02292848866607608 -0.01412695458697293 
0.005267598328261099 -0.005321974058338444 -0.002120664124865636 
-0.003541419650625675 -0.01258227848054647 0.01704433457561704 
-0.003650227065761323 0.002894355504180965 -0.0001506806723813174 
-0.004180154750056088 0.002949070990642766 0.001093382466362584 
0.005164241804306346 -0.001774453078737523 -0.006355322217897454 
0.002098759037613434 0.0007781229172172742 -0.004365402114265262 
-0.007664611486081723 0.01421204710735445 -0.01499417839136731 
0.001131316834905239 0.003738850460535115 -0.0059338022536855 
-0.0003642227469586989 -0.01010172678360382 0.00585050077332262 
-0.003984830353463206 -0.001792885264113609 0.004925801915552824 
-0.007402574435483696 0.01821356356588084 -0.01435155177262071 
-0.0127066801162344 0.0002077303864038608 0.01499216522219529 
0.00474511371388926 -0.004336075260440456 -0.001839818487974168 
0.001332252028026195 0.005392702957428235 -0.0120409343944223 
-0.002895600814475977 0.009480743965883831 -0.01040956708293687 
-0.005026017882054134 0.01568185235774973 -0.01221800354600285 
0.004217445222473428 -0.01503484749413619 0.006108627022386094 
0.006747851619532431 0.008083330506861316 -0.01779267676089892 
0.003606660902923742 0.005384611823979032 -0.01445930894835613 
0.001490031559460901 -0.001133325178931305 -0.0006449190333034031 
0.002684288257603164 -0.001158935981519465 -0.002362647258261169 
3.074335688244828e-05 -0.002994651586171931 0.002457216125370461 
0.0009253095177691927 0.001074449048545528 -0.005105543614039688 
0.003379665552570372 -0.002645188514007739 -0.001679589958497585 
0.003597907850258856 0.0008206046299942907 -0.005339612133859815 
-0.001630468698174154 -0.01010335763220535 0.01072197353122257 
-0.006202966563896901 -0.00197560895237466 0.008480738856117184 
0.003773920222652105 0.0003422667869890268 -0.006434866074748883 
-0.001644809393138386 -0.005871969345530553 0.00276479613497392 
0.00201049678662534 0.00242757315552493 -0.004503465299540035 
-0.01146089589188551 0.003940441412075208 0.004989597576866824 
-0.003229370288053655 0.001087450228089902 2.809853604616625e-05 
0.007585806016470094 -0.00418138954156717 -0.004906040320639208 
-0.0004296166486467344 -0.001659177322049772 -0.002126410741109266 
-0.0002571635936710655 0.0007804991029598651 -0.003927887500014962 
-0.002693182127100094 -0.00128128291323411 0.003978152503019575 
0.00114931825064311 -0.001468382835304547 -0.0004896543558407667 
0.001353901991375153 0.009044846324671297 -0.01417759444962938 
0.001183550841928551 0.003180383757551567 -0.009252400592663849 
-0.0105608476375468 0.001739009588805441 0.0111959233764576 
0.003053674846968314 0.003484163893595299 -0.009307895528428421 
0.003738239098191575 -0.00330173448484772 -0.0005764330066522482 
0.001489469356136808 -0.002699992541582838 0.002162687627795504 
-0.0239464171786312 0.02335564641031638 -0.002378219111336272 
0.000350013569779421 0.0001043402209273714 -0.001151058024370507 
0.0009285290732388426 0.001576601764485874 -0.006071532030858428 
-0.002998705909152983 -0.006706779580804359 0.004915708144186671 
-0.01820359131031359 0.03033735139412617 -0.01443084447389003 
-0.008922546818182529 0.00507473234671699 0.002422302251729271 
0.003999843672478784 0.01139379732710104 -0.01801932688032245 
-0.004271418097288935 -0.001342423159220933 0.002372163953807916 
0.001909217263553807 0.003674081212515707 -0.007103813920523979 
-0.006608598032856402 -0.007159102579500131 0.01105446227681821 
0.003020915446826666 -0.005757407101822231 0.001024259254442043 
0.0003356760842590209 -0.000351293812476032 -7.530412508821653e-05 
0.002812617034490872 0.002640806651851618 -0.006649819714731602 
0.007111546132477581 -0.01011856040088517 -0.00234074885030015 
0.001722986039457868 0.003128629670900555 -0.006741357941403485 
0.007965299420641309 -0.004502844329831429 -0.005865300885914576 
-0.01121852574698617 0.008861459308246491 -0.0003316803074030627 
-0.01350704818732608 0.00390569485351249 0.004851155861640857 
0.00757372960967117 -0.002101838738733856 -0.009596584919314175 
-0.009214582489463941 -0.0006703948559686009 0.008655127194596901 
-0.01588082201426715 0.0304613798547714 -0.01994334822893914 
-0.005760465247512664 -0.003024594403140447 0.00663647778218487 
-0.005113788286918637 -0.0100924601498172 0.01083011701563022 
-0.002494214793810116 -0.007779369084893613 0.009235528511843637 
-0.00387995219075634 0.003983575281081658 -0.002518435421312578 
0.005843138488992462 -0.009363850985093939 0.001078445170712292 
-0.02661282555929145 0.01720588843701136 0.01144421293212939 
-0.009210181865021745 0.003743164462276019 0.005096007638603508 
-0.01148696764409475 0.007397553506940353 0.003934741913748156 
-0.003326339557672352 -0.004850474510166909 0.0100828928034003 
-0.000168301892837732 -9.525329307630829e-06 -0.001289799570844021 
-0.005072630313873207 -0.005702021562546739 0.01223347272448582 
-0.003007496568408465 -0.01896516908479235 0.01922648958232722 
-0.0007045214002639553 -0.004435019292993143 0.003309848430118653 
0.006216940702054985 -0.002725309702687593 -0.004750000018653296 
0.005211033594025286 -0.01149562729252994 0.002011409227065988 
-0.0002789259353822106 0.008271368087031748 -0.01075375371245423 
0.002528355838340796 0.001588003900892877 -0.004928809177908698 
0.005725404084721221 -0.0007705062968915306 -0.008274820454849754 
-0.005344822977925751 -0.002042132010674906 0.006020178195820692 
0.001642280628387313 -0.0008965388600072911 -0.00131849753174907 
-0.0001425003458755468 -0.00725475144378371 0.0100704374040177 
-0.00995044721183088 0.008029047844298202 0.0006507630938372258 
0.0006830588882935307 -0.01002341515076773 0.005431996375436936 
0.004943095524761525 -0.004365463290043255 -0.002046996717859892 
0.007017878401078986 -0.02103387512277702 0.01598389080684216 
-0.01466690653538988 0.01952475214849994 -0.009142262439059015 
0.002606640733572715 -0.01293416575783762 0.005511653359188354 
0.003273736203654406 0.0009201495934152842 -0.005835940537470261 
0.007349895634327429 -0.001874029498687386 -0.007577779686985051 
0.0002377321661048087 -0.001185091547841025 0.0007086977548440535 
-0.00598015801988813 -0.00542409439267857 0.01136982347780021 
-0.02134959836441157 0.02010344017885879 0.004215716162949091 
0.004600817679556728 -0.003601726811710494 -0.001547042676742481 
-0.002957651224820375 0.00431617851550532 -0.004081249239830953 
-0.02078168128272126 0.01993053009307763 -0.001876660264996927 
0.004487209907036905 0.001027526811265287 -0.007239865420792867 
-0.001801297339212462 0.009423962776513502 -0.01079271292980937 
-0.002459461464698076 0.003159720936369972 -0.001781760245297235 
0.0002404486214416274 -0.01297501399367074 0.00865329693731858 
-0.002095400966376918 -0.00546038692825633 0.006612899649001534 
0.003836211607719859 0.001272075259335803 -0.008669033498773531 
-0.009520827786334457 0.01018751491110887 -0.001252199567708217 
-0.00869885700409666 -0.007095109675912395 0.0139166156970249 
-0.01969654839177166 0.00336317594948455 0.007600636414984619 
-0.01365053053134162 0.01255082472904825 0.0002083974554702272 
0.0020450513376341 -0.001580682697614163 -0.001112719523062902 
-0.01720340809716175 0.01420239214197715 -0.007156124820211526 
-0.003232206489153054 0.001691498976528416 0.0005223914434074556 
0.004626597034750369 -0.005292873841100916 -0.0008390855946336535 
-0.02418943382900067 0.01126885350772724 0.01628624304922788 
-0.0096803145335424 0.001494596850748337 0.00568694642301181 
-0.007207143119096868 0.00349532123770918 0.0002608310151465895 
-0.005792096913293633 -0.009399024839889395 0.01119468824067875 
-0.003848613895847724 0.002226564170605085 0.00263386614899086 
-0.00232093271790479 0.005523297695263583 -0.007545273732117195 
0.003882468326427703 -0.004024832521775591 -0.001428339757117257 
0.0007224347827836561 -0.01487388147202571 0.009243880246111542 
-0.01576898776994432 0.01724885241821873 -0.004148229348375115 
-0.006492659468844757 -0.0008865994297013635 0.005010447556011409 
0.000541445500631536 0.001736247050241814 -0.002614175023739637 
-0.01128170506802059 0.007136329865383088 -0.0005610521833269403 
0.005662586245879146 -0.002845796320834869 -0.008657478754844426 
-0.007341046981632327 0.001184297417444246 0.003758906350378327 
-0.002356543091173656 -0.008234358891440561 0.00714390464292301 
0.007559372247935954 -0.001008029091370258 -0.009951444375629549 
-0.001783306575518609 0.002341105208218537 -0.0009917071429169778 
0.0001464783268139643 -0.005505702503229024 0.005548404960047276 
0.008034195655213541 -0.00433106037393091 -0.00803391359778342 
0.01275480944367246 -0.01147476257111151 -0.005582421197946526 
0.00331944473198394 0.0007584184686968553 -0.005059571616366116 
0.001789044082020943 -0.00151673244705774 -0.001091339327366672 
-0.007355225066165593 0.003506732595408501 0.003030232452206879 
0.004068420117227011 -0.005301458139990997 -0.0003126593465266038 
-0.01177929288462404 0.01166070331473808 7.910991314154093e-05 
-0.01550035349676472 0.008590867351811327 0.01131600986585948 
0.001645369351692957 -0.01149955206407645 0.01206430713493624 
-0.002962695760588305 0.001066667567066902 0.0001642224131191067 
-0.0004820744147634761 0.0001251571130135806 -0.0008173648213095011 
-0.0004582374580799712 -0.01084202567957239 0.007334533233186715 
0.002172308718452677 -0.002341602715753658 -0.003535828418234266 
-0.005802790848836547 0.00490828998639086 -0.001020146789967028 
0.002447402558697531 0.001035516076527204 -0.003962556223179484 
0.001606969105238506 0.001364983245838651 -0.003643956348639161 
-0.006463298647470254 0.003749697135680641 -0.0005514196571669933 
-0.01044137428646154 0.003611858607698714 0.002724152478645827 
0.001957152055521253 0.00470619962518249 -0.007695094806745508 
-0.00234999760017473 -0.00465722371100703 0.008901441291127148 
-0.004157065427988761 0.0009140619238890711 0.00179217761798119 
-0.003479053898742406 5.405347757437147e-05 0.004597010140268597 
-0.007418097520387011 -0.01544142927874924 0.02294615142695912 
-0.01029862814835449 0.02655822702465852 -0.01658185100095828 
0.008841124870932675 -0.00765187753901599 -0.005328611534486456 
0.0003024054492154613 -0.008652597387086331 0.007292768058425437 
-0.003467211408165994 0.002823549659647919 -0.00155943217528508 
0.00303978747451664 -0.001989861682283607 -0.00346145788167547 
0.004917981405079369 -0.003381277149182601 -0.001644390237231837 
-0.003958107502575842 0.0007920496292427004 0.001331667831857882 
-0.003591981872233668 0.0008829904287664592 0.0002826349263494308 
-0.002211622433669904 0.004683444353614462 -0.004699846366685965 
0.0007736659614867616 -0.0001670834754125453 -0.001399838764240226 
0.01281469782484348 -0.007187790496926795 -0.01055414193723926 
-0.001124574140231088 -0.003817780026171453 0.002495173966152487 
-0.007570052129537226 0.007995549279990572 -0.002561691962160639 
-0.004739868704741311 0.003927754279667333 -0.0001597215465264672 
-0.004890076778121638 0.001093762268725508 0.002617435774482006 
0.0004027985627739574 -0.001648685279008685 0.0006281028753964911 
-0.003334963835650264 0.00367522436415481 -6.547463015805274e-07 
0.02607234487557819 -0.01665579644427975 -0.01406085943255638 
0.001390504176652119 0.009902410144885038 -0.01418011745200904 
-0.005997036856351236 0.001507111987846666 0.0009425467659097701 
0.0038045326904459 -0.002487415846848183 -0.00379446617578074 
0.002093983508748497 0.002495862984965068 -0.006514704760026585 
0.002397169551020869 -0.01311850827344406 0.007777910434517897 
-0.03221978436784977 0.02007799863230993 0.01234686723968848 
0.0002527471460434282 -0.004442938459701958 0.0006398432919982559 
0.005973664819330581 -0.001136216160414494 -0.007275994889239881 
0.01958284452759507 -0.013186005664368 -0.01460125447477205 
-0.001899785341027071 0.003727869285611423 -0.004983525113919383 
-0.008169529795708938 0.01444717791395628 -0.007807722869154662 
-0.005007031679143005 0.002897440542186607 0.0007546942809274639 
0.01186080943646569 -0.00196997247470078 -0.01526459211252709 
0.0006345353508623442 -0.01983718485582981 0.01278356399716627 
-0.005140854191140441 0.008001786563070658 -0.004323068058474684 
-0.008038889019902136 0.009231393306542162 -0.003220001626972207 
-0.002787458957864613 0.001671545340511555 -0.001413480017464836 
0.004413420903873773 -0.003130458402840717 -0.002087468177689219 
-0.0005692553254776002 -0.00185176833362649 0.0009187760470915024 
-0.00830039156908411 0.009967377082962147 -0.002856500249236009 
0.00267675094756267 0.008008218449619466 -0.0129531848828004 
0.006697333375942334 -0.01005794424379756 -0.0006279879437834475 
0.004260209213667429 0.001138531553203865 -0.008066482920055211 
0.003745408980801202 -0.005764291811257831 -0.003016115981474517 
0.006818691424613088 -0.0171885227387875 0.008055063919731485 
-0.002497324502447587 0.0028800244684014 -0.00317786748607257 
-0.001084422749278652 -0.001247964085729182 6.81046712956472e-06 
-0.007081653287446013 0.009276271643567018 -0.005925950107134937 
0.01503255160051982 -0.01471037410656244 -0.006832979153498944 
-0.0006508771334747866 -0.01485827784571112 0.01400358685670252 
-0.004074807665475356 0.007614332156203087 -0.006519813735639715 
0.008738472408464152 -0.01620080210993595 0.0001233343170600853 
0.005855091655472522 0.002968974059597688 -0.01247505174223328 
0.00177687111021524 0.0007665176199655027 -0.004811103330985862 
-0.0212277656690116 0.05441550378279871 -0.05126135854632131 
-0.001241153280172278 0.000951458586973689 -0.006883288550872673 
0.003544782049220734 -0.01115995334647076 0.003456940574736541 
-0.002218977733412583 -0.004030532018112317 0.004460743665652752 
0.003937322569517269 0.005461500301217505 -0.01525604460739491 
-0.003355596306373025 -0.01105881730590904 0.01310072189690183 
-0.001087791537243091 0.008918346206039818 -0.009799284686969063 
0.008800494099576853 0.006087263344165221 -0.01924952653599891 
0.001264761334946498 0.01221565495642209 -0.0193456325415992 
0.001214486928408313 0.01078324525097857 -0.01921030607629161 
0.01090750826637325 -0.01704000117504522 0.0005815359871561524 
0.01266874371776159 0.0109412720300406 -0.032445123181644 
0.004505115054531895 0.008974302979939472 -0.01847083174209276 
0.0002903548006241238 0.0006817797243621951 -0.001272382009696479 
0.003988971442648885 -0.00256210045443158 -0.002484228894609064 
0.001137323907908696 -0.003277789584871318 0.0009551581685974805 
0.002228031692745763 0.002824140326699306 -0.008691786830872888 
0.005600798135445234 -0.004142171045635855 -0.002758557791792858 
0.01094060158099733 0.0005201559591396853 -0.01511613987033149 
0.0009145819481396953 -0.01058326457366459 0.008494736288483707 
-0.003483901968811251 -0.006053579097584631 0.007514046739641113 
0.003939824456735687 0.002809228149156546 -0.008483291521050089 
0.0008617840005310885 -0.003946371260177514 -0.001900338945585971 
0.002525212433949718 -0.001669558632265424 -0.002066485907922553 
-0.01155772906376522 0.007153421250699575 7.274496801084009e-05 
-0.002255364051068792 0.003942806564229789 -0.002969716372287335 
0.006825722079619012 -0.001158469608107166 -0.007554398137089498 
-0.0004010780415649586 0.007183763523078017 -0.0173704720833875 
0.004166536627764611 -0.001101129294500756 -0.006600061063181435 
-0.0004002476747883485 -0.008720633621510342 0.006674001663775318 
0.002814752888685203 -0.002207553320754106 -0.002156003514343943 
0.008010684294976662 0.00629232596605944 -0.01844897136885297 
-0.002649799646854455 0.003246247949466865 -0.008225466837540446 
-0.008314411814919327 -0.0175178188502951 0.02282503045458261 
0.003787967476597527 0.00457290869352488 -0.01161880305283544 
0.005518048034712822 -0.005579455055610647 -0.003152480422972042 
0.00361941755609488 -0.003878266129103783 -0.001401079901162806 
-0.02528165143345999 0.02086912747754307 -0.001032561935940286 
-0.0008324907922581522 0.004348979384161299 -0.00429894753785516 
0.0002080706679658115 0.005494135896034156 -0.008144489362023456 
0.004709600233269882 -0.006537432335552255 -0.004828540102592222 
-0.01390212300130884 0.03053538491517107 -0.02222835288033832 
-0.005304174959588333 0.008901706075578058 -0.006506843392940838 
0.01492678954346235 0.007175073686118865 -0.03009736693741014 
-0.003401209065527164 0.0008399571227811414 -0.001627529104338129 
0.006051461335186177 0.001371410396008315 -0.01151520989926914 
-0.001951121057378862 -0.006054910642650748 0.003497193980535335 
0.0103474445084042 -0.008761035462511779 -0.008388282676029658 
0.0007954069238870892 -0.001268370111176285 -0.0002162134639456364 
0.007693183286917855 0.003595413512063805 -0.01368763689249549 
0.01051702000462194 -0.01349694006475636 -0.00164175253277632 
0.001775296136164314 0.005702851859930244 -0.008305711797989149 
0.01643758722612753 -0.008798103904179306 -0.01121813297792545 
-0.0106529800784872 0.01292961564321015 -0.006542021563036535 
-0.01400008780644393 0.01266457223613533 0.0002710100252726259 
0.01800959058096302 -0.009882505728009468 -0.01363448802527187 
-0.006367838769224289 0.0009239044383559155 0.002053978474611657 
-0.01543621945700879 0.0512212844835563 -0.04888126647310503 
-0.001702497893618671 -0.005783963340272883 0.005677441902831217 
-0.004290255478307632 -0.00278939959275779 0.002599392749676514 
-0.0003946762266118599 -0.005121563095667498 0.003515080294397146 
-0.004387724868598651 0.006123204979498412 -0.00396867436701828 
0.01092914709341816 -0.008688660197310247 -0.00601902916609517 
-0.02928279434925853 0.01080079339276002 0.01605138000501973 
-0.005306294881294504 0.006743990665372001 -0.004177006365701246 
-0.0144684106516531 0.005585791412860502 0.009545009924065141 
-0.001636604872035388 -0.009684434897028964 0.009281721947031987 
-0.005407134247970081 0.01245327590710846 -0.008454254206455814 
-0.005449248576571502 -0.003382586965111701 0.006823090863804649 
-0.02249739206737093 0.01553946179534277 0.001175036351040526 
0.006676485950575867 -0.008915266191294423 -0.005020568172193888 
0.004721564024468179 0.0007773848891297425 -0.007553396431785831 
0.0122747216812395 -0.01038594620225616 -0.006761374119381098 
0.005045653802337694 0.003449751796225729 -0.01095307866958595 
0.004126793368024815 -0.001821165017154096 -0.00403607527115661 
0.006109085221807429 0.004732714751698191 -0.01432313483834535 
-0.002884157043670493 -0.002588989854803813 0.003064619309310023 
0.002673166082088274 -0.001696590929922771 -0.001966036098316303 
0.004059277110782675 -0.0125603717460879 0.006528137818924036 
-0.006392395616889215 0.01053134040922168 -0.007584927101769065 
0.005458957581411102 -0.009437540720509077 -0.001474568655870656 
0.0008766284286349573 -0.002889175829426238 0.0008177106612929989 
0.01626028496307428 -0.03947082585416643 0.01751534774484881 
-0.02345522479775483 0.01942491366304793 -0.001601820712188983 
0.004752641311509355 -0.01322710990202697 0.003325623763147921 
0.009755625781130949 -0.003628047575042917 -0.00833509655973279 
0.007997162783941913 -0.0009914749816963282 -0.009294251572818747 
0.001713210691913508 -0.00347469696968679 0.0008027315834882772 
-0.00279455601416845 -0.008190761898051346 0.009886551347942078 
-0.01633110578498215 0.008964053920101555 0.003936717523160275 
0.000253475100536794 0.005563381678622313 -0.006362801318304473 
0.002916897644767561 0.0001284341531250111 -0.00590407517170213 
-0.01983885629069378 0.01010204790776785 0.006608601311316769 
0.007272568481002196 -3.27192168043551e-05 -0.009915891248389121 
0.003916793508775526 -0.001540810402942959 -0.009366976687219109 
0.000363168814139161 0.003004159383624436 -0.006057107238946164 
0.003150053920300706 -0.01212162549192093 0.004582377646148547 
0.004654743421721784 -0.009023520011174676 0.002210855664003798 
0.01249218393047629 -0.0002352965370873103 -0.01754745227803892 
-0.0012359880625661 -0.006307382565980558 0.002743447699891848 
0.003569142849288665 -0.01979916246458075 0.009311448231217127 
-0.008612382159881582 0.002698199634227256 -0.007209442928292426 
-0.001903461576173253 0.002597299685131311 -0.003284817099933566 
0.003436912042513624 -0.003561653620400159 -0.0008698446701742658 
-0.01080845815073272 0.02645385478839824 -0.0343354046142679 
2.332830069877122e-05 -0.001673518916787204 4.711465684250569e-06 
0.009680099059361723 -0.01128213309133836 -0.001950340197322639 
-0.01803803570797921 0.006629238998272504 0.01003077656022352 
-0.007950905480152792 0.002542280049414695 0.002027854602479607 
-0.002419055235245592 -0.0004015573292787475 -0.001571528967914843 
-0.0009768487643161585 -0.007587284136946908 0.003518393716091508 
0.003578255947987185 -0.0162228367791036 0.008855172536774144 
0.002419713175248292 0.003131586501208651 -0.00800504981036935 
-0.001910657630517784 0.006388599559624472 -0.00628505072405638 
0.005950141877869409 -0.01716734086535137 0.006276051364379863 
-0.005295113888356492 0.003358303666265755 -0.001819238399388662 
3.658858773925451e-06 0.001545073934637855 -0.005611341659869879 
-0.001704134187404012 0.007071707780400154 -0.00570046459901116 
-0.005688519638576695 0.01033591677609084 -0.007785674943415834 
0.01478791348953424 -0.002110313233182104 -0.02855115026583809 
-0.005138111915249374 0.004297500211125703 -0.0005526326888643725 
0.001598308774030384 -0.007548954405468107 0.001013697131826222 
0.01246740649986689 -0.005080632457191907 -0.01122815457240035 
-0.002635118313718445 0.002855772907080821 -0.001104064580313021 
0.004023492290646368 -0.01192532118429819 0.005746342080451542 
0.02152147099939321 -0.01323756489846773 -0.01427203912556713 
0.01364321275420956 -0.01386418902884681 -0.004030068484953781 
-0.0005132493582281296 0.004533602955082864 -0.005557639841886499 
0.002590678418154569 -0.002467039832584737 -0.001162523625514041 
-0.00679986400845834 0.005861548603346456 -0.001499626080327837 
0.002253921440338572 0.0004480134106484209 -0.00446643197273911 
-0.01704172973840243 0.0157032769251624 7.511048535848235e-06 
-0.0131058846462359 0.007825617169016212 0.001066493217889235 
0.009643076228683134 -0.02176698297829129 0.009452770944418118 
-0.002368241561783246 0.001989168498606412 -0.002526317547105799 
0.001584710869003492 -9.319660004724908e-05 -0.00480353815046621 
0.002872961074332765 -0.01015092534928737 0.002768319573287937 
0.01030012460999478 -0.005624138003096762 -0.01037780878038206 
-0.004030530420409139 0.005290986944659593 -0.005688074123700872 
0.01592599460116795 -0.01265746501658099 -0.0103232780548003 
0.002213710931707418 0.004336010359489362 -0.008745643078455054 
-0.0001935410574063157 0.001959512396543946 -0.006425305405594745 
-0.007963973734069466 0.009817475183804145 -0.003341107296872021 
0.001963554518897267 0.004616383690436023 -0.009206379335918818 
0.008461605442105665 -0.02515620256254209 0.01245651944526827 
0.0034781395926425 0.001861636155028003 -0.008229579613702499 
-0.0008262844727470808 -0.001085388295550472 0.0001883026436247322 
-0.02637641346610798 0.001172301814528766 0.02477554990786751 
-0.01457403324512977 0.0141564012108866 -0.00417923967481389 
0.01228977803979757 -0.009492597473390648 -0.006308838866753637 
0.005887969381398882 -0.01207725013160601 0.003761717313225834 
0.0005254254443241157 0.003396005971257981 -0.008166393511357051 
-0.0005486603293446693 0.007922986672752578 -0.01008398352222372 
0.007252937874698614 -0.004296507598887688 -0.003184757048502894 
-0.009252651935223136 0.008729600499120312 -0.004076487344301601 
0.002216372079964005 -0.002120053491841288 -0.003156943620184666 
-0.001922451004235954 0.005140579319233438 -0.004772933088245924 
0.001008169428403973 -5.841161500875939e-05 -0.002021417512429631 
0.01678098503956517 -0.01322990031775921 -0.007869105814935481 
0.002230156733935615 0.0005571050822367398 -0.005711994862780623 
-0.003274285871538728 0.007416425454136726 -0.007353047385799468 
-0.001969920267034948 0.00508870690862229 -0.005578120128159068 
-0.003893749944895975 0.001869543750739843 0.0009111684821026787 
0.002936476008879308 -0.004116941135809839 -0.0004873467287626627 
-0.000250094540886217 -0.001252363432491008 -0.0007735253654658468 
0.03561429502444671 -0.02787942950947128 -0.01596362568365881 
0.004798153031401907 0.01225575283360705 -0.01994353996788648 
0.001277544790730049 0.001086448572077496 -0.007212976783425482 
0.01452358437710164 -0.01388385906147299 -0.008891107632465251 
0.003202487994436736 0.005766879177846397 -0.01184811520594038 
-0.002651082003699826 -0.004370995734913344 0.006639125658085123 
-0.01192558883040446 -0.01219867734304595 0.02488994278800145 
0.003081826880938125 -0.0111824248640766 0.004540360954429397 
0.003138630757393753 0.0002886230699635711 -0.003653303014699421 
0.004217345391335455 0.00132673886335658 -0.01045960742226085 
-0.003370220030372849 0.004036062540079184 -0.002618206402779438 
-0.002860315027972018 -0.001397482337074816 0.004163156988202384 
-0.00291602340505582 0.01063895020205577 -0.01102069530077917 
0.005541500395443793 0.002197224261416253 -0.01036707822682936 
-0.004411968286852756 -0.01061991893677649 0.0148300792414594 
-0.0006047973284120362 -0.004858823389274851 0.005007153389440825 
-0.009253409650472952 0.004009484321715132 0.004188326200019795 
-0.002139163634062261 -0.008882558240074646 0.01025566326413531 
0.003539940575913503 -0.002280484460131601 -0.001736976847423298 
-0.001049217037916041 -4.939617676347477e-05 8.34619746478031e-05 
-0.004544432669616968 0.01379324656239416 -0.0101304655235696 
0.003369565455773043 0.004117032702865377 -0.008452152389971046 
0.002571746357292079 -0.01727622176485922 0.01104979305928611 
0.00558165905517693 -0.00355131823203393 -0.003881447265933926 
2.460735577221712e-06 -0.01777256819836666 0.01418710830561265 
-0.0004917765087313223 -0.009145466353301967 0.008001646114802153 
-0.00320611241402898 -0.0007295720036789913 0.001448124924818354 
-0.002510609610736781 0.001447915540237654 0.001039592477045718 
-0.007323785184698797 0.02945429496257574 -0.02789030726111051 
0.01267905907030193 -0.006540670903235976 -0.007356058921360962 
-0.00564744942208891 -0.006599478011827047 0.01296943386323348 
-0.001532326216170329 0.006107582043056392 -0.006483101201590926 
0.002163338289396681 0.001415500814222567 -0.007310265088598496 
0.007263386876512029 -0.004086763657835134 -0.005845392652404158 
0.00379639800496487 -0.001530994686532615 -0.003782021094616726 
-0.004303405644237735 0.01888656374531297 -0.02117418381505808 
0.001224824586298202 0.006466804738910981 -0.01156023543802259 
-0.002762409400324167 -0.01546714881933131 0.01293563947885322 
-0.006465557486353002 0.001211660366402453 0.003904722756885895 
0.000950264552053407 0.01794086195170436 -0.01979780787056119 
-0.004469064437114907 -0.0002594223567959294 0.003548203326631271 
0.005986971816026505 -0.01079278157214368 0.003063159752021649 
0.0002560258957186905 0.006060698107243457 -0.007370065298222085 
0.001591304196069791 0.005083187766244503 -0.009195281667298671 
0.001953662000139599 0.01396593122335985 -0.0194977166232251 
0.005840662037405651 -0.0205046048671929 0.008420875587116652 
0.01222328791219609 0.01246081600465089 -0.02816556408817119 
0.006348709106792305 -0.001665244979181802 -0.01037214540106138 
0.00236523659914853 -0.002163503018684591 -0.0008973002129718016 
0.003891374866475931 -0.003100435311551832 -0.001573195762660565 
7.416331066774122e-05 -0.002485739253805575 0.001858537278422616 
0.004965658861050818 -0.002376565700454219 -0.004417158406320319 
0.004825732437359202 -0.003221992023024963 -0.002329722789431555 
0.008921539367921845 -0.003834772639683195 -0.004467563078766157 
-0.002376493287405472 -0.00612074569338474 0.008451541242364644 
-0.007652307553667049 3.072910130143122e-05 0.006308443610827321 
0.004300917794750446 9.810668138732132e-05 -0.006988448927035603 
-0.001464850977019761 -0.01441344014238088 0.00972740237760753 
0.002616243352764155 0.003481455647012123 -0.007227088983752058 
-0.01290108657630602 0.004077111711438077 0.005530050422736409 
-0.004632591778801505 0.004111384382228474 -0.000691574601798641 
0.01023112233233944 -0.008734849219275947 -0.003902935317446709 
-0.001560563025928725 0.005008818906961733 -0.007524635548537322 
0.0005319369416310099 0.001023033425958992 -0.003142997111117359 
-0.005717624445492065 -0.0009648422058313705 0.004897619659545405 
0.00352986386716148 -0.002053419479132537 -0.002143274565993482 
0.006243657105462173 0.003450664641768715 -0.01154884650699053 
0.003405344994951518 -0.001517953899790103 -0.006142539028982594 
-0.01057543750951706 -0.0003054836738336778 0.01085625456680255 
0.003114897408790904 0.002836128681959367 -0.007482226352418544 
0.002411186596839247 -0.002854884513916512 -0.0009517046901661211 
0.002156661308252744 -0.004006803071477909 0.001844018890743486 
-0.01749359625443754 0.02489722292120188 -0.01255100567453353 
0.001729595657418853 -0.001680874030342199 -0.0006777528184001553 
0.002336247429896651 -0.002575528933887328 -0.002803818896502498 
0.0008398611058643297 -0.01541959623260274 0.008621990019790622 
-0.01200140963259153 0.03475806110133102 -0.02452011312366287 
-0.003074156699298768 -0.000443118095468238 0.004781817875616502 
0.0118253876530253 0.009557466924448131 -0.02348154597884964 
-0.003696942536463496 -0.009456765519022973 0.007751899801993614 
0.005550569838786519 0.002514357647041875 -0.0101975247521777 
-0.003331724242848581 -0.01419787859053798 0.01275593399006751 
0.009883648816123454 -0.004307127527704808 -0.009138872416872309 
-0.0003418530684309531 -0.0004833076680938871 0.0002973369583069173 
0.006360868394325225 0.0006447080925092928 -0.00708765439029463 
0.007321096711611809 -0.003531361377380189 -0.006293909682472146 
0.002730124121855351 0.002006051599605341 -0.005683936126254985 
0.01368913256076285 -0.007790784146512656 -0.006410402385235039 
-0.01175244263206458 0.007764319433747876 0.00139016028198001 
-0.01572263765093148 0.00857445870868557 0.003113928351262908 
0.01150969891832924 -0.005056790592115393 -0.009181792641380492 
-0.008900440491842666 0.0009538406930734922 0.007852683915945364 
-0.01251711567577932 0.03322894468695528 -0.02392843042444212 
-0.002736700003182374 -0.007289805055538111 0.00858253552188463 
-0.005453972895665011 -0.0187760440338123 0.01895666019511964 
-0.003706795754604155 -0.001414168411183508 0.004253396534247183 
-0.0005419850062691344 -6.479212081459878e-05 -0.0005957774656250889 
0.006006687012376563 -0.004898613398713446 -0.004176230412585763 
-0.02194579842171486 0.01916712256757091 0.003183612549145527 
-0.006055248663453588 0.0006986037581766524 0.0062993822031638 
-0.01059815063236443 0.008730266646450106 0.001641473568805892 
-0.006750820281108159 -0.004735889283424152 0.01065517365271925 
-0.0001985866991046547 -0.00406981773837582 0.003487248148400907 
-0.008498944189165285 0.0004693768537615909 0.00700433934389579 
-0.004985796818952151 -0.0259636935581723 0.02909818019687292 
0.001487705096850753 0.0002993541662821398 -0.005498223936631273 
0.006854041799561572 -0.006565142894077069 -0.002241933638081111 
0.007050931566387332 -0.01617595738007541 0.004602508917179895 
-0.0006103844814052827 0.01069271097288422 -0.01212287730539465 
0.004457938883316658 0.0005812457988175479 -0.007000417347334083 
0.007060177551668213 -0.003241123188100553 -0.006133671216707622 
-0.00205145476795995 -0.0004384584131736628 0.001940341303591773 
0.001383930192070821 -0.0002261345450909756 -0.001676573674453569 
-0.0006583320196088795 -0.005470600079572299 0.00550153842332903 
-0.006822242377006544 0.004017110831213213 0.002680480509877555 
0.001434839776050718 -0.01610299379584891 0.008364444009527483 
0.003575149387225848 -0.003098912858865177 -0.001788581655638744 
0.008690524526181756 -0.02586185709635181 0.01388426306376724 
-0.01643628960789803 0.02474079903212214 -0.01179689310823739 
-0.0008297274572915139 -0.01741559201107864 0.01177612012924226 
0.006244125473425512 -0.001246526291919217 -0.005516533141544491 
0.009193794405443574 -0.004975900104638668 -0.006211964025019633 
0.001189502695422611 -0.001128555439610434 -0.0006069546497272219 
-0.006510435372950747 -6.936705936506304e-05 0.006861848725496713 
-0.01833641830319893 0.02375269923091032 -0.002695430664457806 
0.004651783812573719 -0.008424051564425078 0.003240939744342983 
0.001983577521182554 0.0007597938702720357 -0.003519788183696018 
-0.01918915682970858 0.02301269079120184 -0.005255395408278948 
0.006681924943241662 -0.0009942821879001329 -0.0065291041982411 
0.005746528572780476 0.009153831086911078 -0.02183790358545063 
0.002985361324874597 -0.004894619838535326 0.003032955674072053 
-0.002414384256408034 -0.01708802480131711 0.01386595217354449 
0.003261433055675324 -0.01092390942183203 0.007088623516153567 
0.01042625083226797 -0.007715579703923281 -0.00528088784400278 
-0.002719665002252044 0.005396129671618016 -0.0008117668631146148 
-0.005004550906351797 -0.008833842420528062 0.01312839277002864 
-0.01993533022693942 -0.009387964530057861 0.02057839823868136 
-0.004722597441518426 0.01657715082955315 -0.01179540310730281 
0.001456341515919244 -0.001584304898276392 -0.0004775457772224772 
-0.01306528325130247 0.01933579989332233 -0.01390244069523649 
-0.003856167123768983 0.002359817246197098 0.0001752210852381507 
0.006753114900383348 -0.009801203406783728 0.00151011777966549 
-0.01463899456954825 0.01555135648656249 -0.001305288482183616 
-0.009307375493610508 0.0006557111311293869 0.007683032178589394 
-0.002749533238239397 -0.003464583825851696 0.003622649019039619 
-0.00276266091157593 -0.02074377943173593 0.01802503660550892 
-0.0002068311635350524 0.00223444628585308 -0.004234596812742862 
-0.003078252148843239 0.0003971765437130316 0.00317646380911299 
0.004970731902775035 -0.009545967639223366 0.002957194162059832 
0.0007325790459536489 -0.01974966108444276 0.01219956034137285 
-0.008796147841686242 0.02007957645328545 -0.01334347845561576 
-0.002242389158076695 -0.008723434661520056 0.008361612739726219 
0.0001037751601158396 -0.001334691100033343 0.0009196083723247223 
-0.006912557631808088 0.004377593607962564 0.0008050731358178156 
0.004723518656399292 -0.002130276786478607 -0.007761355770632935 
-0.007693349113937895 0.005749228606549384 -5.560424480433905e-05 
-0.002759284364195813 -0.01487830605532727 0.01149845421894327 
0.01114053273328771 -0.005390252647654147 -0.008521519884453958 
-0.001928314535564842 0.003623441753537354 -0.00244657587693391 
-0.002497072571422417 -0.003982969732979126 0.005701527578791473 
0.01081290339255015 -0.005778057224957712 -0.006849168975488729 
0.01307421714169439 -0.01037415972536541 -0.005647933539126626 
0.00127356499020369 0.001748696728577243 -0.00393095000536242 
0.001470216689719354 -0.001205615740548152 -0.0007424459637284356 
-0.005269576484673723 0.002242832105967186 0.003880335883251819 
0.005505813549249528 -0.008947304665748269 0.002321750573056159 
-0.0108150287532309 0.01055775500208414 -0.0008060885382310313 
-0.009302753511126196 0.008679974756550949 0.001814971889190021 
0.003086510752716816 -0.01098075305734994 0.007898329135036773 
-0.005086647049927145 0.002218749366887977 0.0005873153065436358 
-1.78131906154922e-05 -0.002394940716326944 0.0001128407316026604 
-0.001670576503481881 -0.01548477026889227 0.01231068695537419 
0.008968577311966118 -0.006408925169990945 -0.004864383564036638 
-0.008202200215078129 0.003074498086061651 0.001922690531917294 
0.01170713114189694 0.0002235543227920866 -0.01545766994686136 
0.002772716611768873 -0.001053314961458176 -0.002916790507670589 
0.001705484522136162 -0.003510231588955545 0.001564948186268031 
-0.01130642510344843 0.006191550177434894 0.001936300778485614 
0.00409482319338942 -0.001444632689549199 -0.003852554606053831 
0.000385861372946842 -0.01315541204399616 0.01264552156901251 
0.001013316579707655 -0.005037592722608415 0.003503940812510767 
-0.002479348872635159 -0.003014898490312748 0.007106502437554492 
-0.010057843700654 -0.01853183242265346 0.02997783363981463 
-0.009499859307678458 0.02962699331976885 -0.02183954253033124 
0.01204260700916234 -0.01019558464692247 -0.006761002281938384 
-0.000804688060739941 -0.005897494345591758 0.005592661873315547 
-0.001621656436332181 0.0005109547376798719 1.723147896536257e-06 
0.002904670841466769 -0.003283220798481033 -0.0025053806112227 
0.005757273039558081 -0.003158152985405561 -0.002706539014519006 
-0.004720809151359502 0.003061921829584965 -6.022918182737155e-05 
0.0005391495533030585 -0.001352574551850448 0.002484987798784201 
0.0003597641095009249 0.0008852241478488715 -0.002798967361829221 
0.001228741194569508 -0.0006372532155018571 -0.001185922726749317 
0.01674043484435582 -0.01129977207011093 -0.01166029992953096 
0.001004210911706119 -0.007987806045351039 0.003910302395269239 
-0.0005701706607535882 0.0007689905477612975 0.001800341343314627 
-0.001513143705874961 -0.002837088929666708 0.003941167590703279 
-0.006284905643030324 0.005865251841925734 -0.0003748550639562058 
0.001807081005075216 -0.002706051925922619 0.0004287595914036261 
-0.004516581573108277 0.005517607844646864 -0.002129159009848298 
0.03209947844925514 -0.01990827991051674 -0.01602750630220211 
0.005305001476313635 0.006224551603391189 -0.01230150290155341 
0.001939053067333468 -0.004261597136187268 0.001712891387103724 
0.01027749574999201 -0.003353498858582054 -0.009627156843938518 
0.003933728495806847 -0.0008109098288059399 -0.005262899902566924 
-0.003242356825764805 -0.01040583727571978 0.01173676439286936 
-0.0165005897782071 -0.002235704845159984 0.0195762574423284 
0.007247469618997963 -0.01344312415898945 0.002830870614714651 
0.007655178577005945 -0.002419092091872337 -0.006975031532525079 
0.008223263523278585 -0.004378857788968817 -0.01080497533513162 
0.001916550966782271 0.001380595753503355 -0.00527348826292303 
-0.00317966697738244 -4.729140711363532e-05 0.003502562261040356 
0.0002997153269046208 0.005515759592272352 -0.008278655933504462 
0.009475366476084199 -0.004489289330006871 -0.008299158582882854 
-0.00898633457749938 -0.01645809921076595 0.02306331371868708 
-0.001383392598780248 -0.005074341735515361 0.005938167067908388 
-0.00617056251800493 0.01046050266062844 -0.006549406434410866 
0.001848964673520366 -0.005651160570106404 0.002805782212680226 
0.002112452719602649 -0.001858164558292074 -0.0007444692241850526 
-0.001156787490662044 -0.0006342873614139098 0.0005570269276962795 
-0.003956986376778908 0.01155815467453547 -0.009523419998910604 
0.003837371497119742 0.003808364523480356 -0.009344710547801024 
0.009033673949057195 -0.01480124816939516 0.002854656735113 
0.005364250137742098 -0.004784322446939331 -0.001712687909867668 
0.008291565671581694 -0.01355703791813357 0.0002751218134688421 
0.001418350538978014 -0.01572505688024048 0.01289051015070704 
-0.0007847816990302431 -0.0006197995468372791 -0.0005594256131893885 
0.004274849217405832 -0.0006733893577213251 -0.005592958886891177 
0.006888557392024765 0.01204697409751819 -0.02387746269565689 
0.02651929895199966 -0.01769197831732148 -0.01383401500576174 
-0.009195813137736623 -0.01131852386287377 0.01867904554617722 
-0.001195997579732182 0.00547459449782394 -0.006337472884453501 
0.004003166833401578 -0.005804661804971826 -0.004321594597027969 
0.004640436254720506 -0.001358250176654317 -0.006572932282030877 
0.00472709291531748 -0.005089631106288318 -0.0003734748122847853 
0.003336526176480947 0.005088658223543462 -0.01670097072866869 
0.005395718015047298 0.005808114948856373 -0.01904574438285038 
0.005846480603679432 -0.01100462611164414 0.002121105320411629 
-0.004391213125431802 -0.005468670670856999 0.006905924072969707 
0.01733889562101977 -0.006155151584115783 -0.01485015300556441 
0.002494711435669409 -0.007085221759692586 0.004130516941217299 
0.001670475902331743 -0.006285370353608113 0.00411105832055826 
0.007036682601057799 0.004439059511909003 -0.01343272103964781 
0.007334951944591698 0.001906017817257705 -0.01272771540624379 
0.0008093196440740882 0.01127901888460724 -0.01748845570092682 
0.01388575981622205 -0.02063267398724623 0.002386328331754131 
0.01230594830116226 0.001626555665590198 -0.02059479758185274 
0.005966450163133754 -0.0007217261202615257 -0.008478500821550329 
6.696153711792404e-06 -0.0007508035738527706 0.0006247449698704411 
0.00353563520884775 -0.002140665755160809 -0.001932275288192625 
-0.000620938356542315 -0.002128174736519581 0.001745881560868314 
0.003189727656394345 -0.003723657916492114 -0.0006168898911325988 
0.005348834966096005 -0.003569092820585686 -0.003233402261144981 
0.01562011849217622 -0.00795870291607223 -0.01026033591400707 
6.159103440085275e-05 -0.01207264837840413 0.01045714648466186 
-0.008676831855244481 -0.005543209259866409 0.01184721171084868 
0.003290616984526983 -0.0005537982220874182 -0.004728251321487596 
0.005725627032095182 -0.0111500079677785 0.00216983604944396 
0.0007249865117039009 0.003438710610053292 -0.005873597608878883 
-0.009090268981693319 0.00549258686108896 0.0002638197806149721 
1.15732559458735e-05 0.002957859727376183 -0.004884042324429797 
0.006550227667213995 -0.005682874046493807 -0.001844033192226692 
0.002738096953908451 -0.0008297682243205756 -0.006529140650815708 
0.00323732590681249 -0.001998839645122986 -0.003215944976171143 
-0.00692492387538639 -0.007288813384003479 0.01202412112211033 
0.004313585560206062 -0.002955285198390999 -0.002386745908487476 
0.007779875686507362 0.002927593321880289 -0.01448130312773312 
0.01080680551258003 -0.001932875492081953 -0.01520247649271714 
-0.01703243087638583 0.002263470912629714 0.01467661989727508 
0.006449760377100162 -0.001777007462800138 -0.008032605004165312 
0.003467210643888778 -0.007526806374803179 0.001314186041963483 
0.005856431870558179 -0.008939283850794432 0.003682643285745684 
-0.01023680452992945 0.02379365349914358 -0.01854191884669652 
0.0005505843986665913 -0.001055879158190437 0.0003363773327210353 
0.001773264633811177 -0.002552385401752705 -0.0004592705417211742 
0.00896022059468448 -0.01349150810421515 -0.001080369592087772 
-0.003594343480483062 0.02404061090150085 -0.02308740759767343 
0.00306484557473727 -0.0009382047905597591 -0.003338890622455587 
0.01634622933979046 0.0008820244250374932 -0.02187318734413294 
0.002045324468986415 -0.005738287533730319 0.001152949108543199 
0.004267406187985791 0.0008686659295344088 -0.007830210434827678 
0.004211034709923573 -0.01059563814850686 0.001844443796872393 
0.006182697144508776 -0.002340797215647435 -0.009033261386368964 
-0.0006317500738450806 -0.0008660384093152767 0.001125951427742099 
0.009172296770864289 -0.003129590394794885 -0.008000250393223395 
0.02034288241840606 -0.01938040142873204 -0.004097699038609101 
0.00180093615959316 0.002463912215088833 -0.005016841989464798 
0.02037752942836505 -0.01472551262755201 -0.007955649501899593 
-0.005919349681605945 0.006473555169765961 -0.003258853419780111 
-0.01433282292144575 0.02091937748907247 -0.008734066409776423 
0.01099849595402359 -0.004482181901697322 -0.0118727994973013 
-0.002639025361514195 -0.0015774360961702 0.001547391011396696 
-0.001212234906949137 0.01342886194284451 -0.01933482349347981 
0.004348118760603134 -0.009903550628992938 0.003239350091393675 
0.002474232539203524 -0.01187102769491467 0.006379487169429678 
-0.003543576274572619 -0.006974830126670784 0.009241379516245461 
-0.0007088056794277258 -0.0007297405479693749 0.0004039628106449978 
0.01181032117132414 -0.005253832459291438 -0.01287483743923132 
-0.02186407791810599 0.02481776783132577 -0.006422317089942633 
-0.0002904777898263835 -0.001774255596247646 0.0004272257201311895 
-0.01141015910459028 0.006953406013175664 0.005042558431753001 
-0.00846142773632412 -0.010229949014719 0.01886558231492189 
-0.00285193813038932 -1.953786443409411e-05 0.002292978364766698 
-0.009050204188556614 -0.004245690849958393 0.01217841393775041 
-0.005692041325075934 -0.01079455966838354 0.01197405502916052 
-0.0005908554478874892 -0.006008802267824304 0.001462209872434519 
0.004950072237918136 -0.005205537562145835 -0.001443386413020026 
0.01251302542099636 -0.0139123060966507 -0.001962445179208505 
0.002298703711041378 0.004540425892062972 -0.009431236946763963 
0.004052794673304418 0.0009095628215845953 -0.00714840763222158 
0.005888896490156334 -0.003428076804170111 -0.004949063341756835 
0.003966285067688878 -0.006170348925751808 0.001114545990008769 
0.00152172846480329 -0.0007195681637354333 -0.001402771500459551 
-0.0001536915823991687 -0.01140177132483651 0.01056021042588282 
-0.0001303289048301189 0.0005841224080389886 -0.003487915359622699 
0.007060126113063798 -0.01134403488326595 8.763996207847844e-05 
0.001466931007074127 -0.002584996001621494 0.0002969390985891085 
0.001588409629330065 -0.02041298747924274 0.01415101009548769 
-0.007801505137869853 0.01672359777627409 -0.01242214228119415 
0.007076471990431927 -0.01229421275047839 0.0017680405513335 
0.00875374781650641 -0.001832652554239248 -0.00899545670283422 
0.00803300911659716 -0.005829649039159252 -0.003882763154243539 
-0.0002037555987015375 0.0005991012514479939 -0.001288702046786699 
-0.004628833302156572 -0.00901336797672282 0.01319038314420037 
-0.001377259283550702 0.007540984035993885 -0.008582958744506862 
0.0003033702039592426 -0.00249262888278908 0.002396433037174539 
0.00413806598699148 -0.001123603899329698 -0.005619894005844559 
0.0004902273324594925 0.003906461262199597 -0.007169504928216564 
0.00636196576973859 -0.003568808593149281 -0.005060861203040134 
0.008265142810865312 0.007758224919485362 -0.02430197184290331 
0.006330288746429293 -0.008045280523276037 0.001488539265125343 
0.005745824751644929 -0.01216770603726229 0.00318447966204945 
0.007507480231314243 -0.01049784612268575 -0.0002016584953502926 
0.01255079041375284 -0.007010677408261487 -0.009452326596261204 
0.01344277589995127 -0.01090055509385979 -0.006053253424292708 
-0.006749514558115815 -0.0131403434757828 0.01724858700618995 
-0.00468068559326571 0.007558295088240252 -0.005809426552808703 
0.01146190212813831 -0.004440539147560233 -0.008361941234054787 
0.001361672297980491 -0.002858092234554189 0.0002697293773182063 
-0.001437723003026221 0.002570008265674821 -0.007517608912254495 
-0.003396735239087352 -0.0004981247090751822 0.002171697447421877 
0.00646924447363805 -0.01520659139042446 0.006178981447249435 
-0.007667863123391124 0.009606542055540127 -0.003075496149229453 
-0.00451559356367945 -0.0006787089408551552 0.001927766801481063 
0.001998068272798095 -0.003314839304347391 -0.002512248611590863 
0.008042753821875172 -0.01755560733964498 0.005379595894124778 
-0.007579394975732516 -0.001467025044229532 0.007990417752279291 
-0.0009319952275795197 0.008071966455949632 -0.0054670636673418 
-0.0001038813791766721 -0.004453064617942498 0.004410559401872275 
0.01023775892895278 -0.01925352805506894 0.004116878857134668 
0.009010000506098756 -0.001384878998346398 -0.01002165781350853 
0.002663185112983021 -0.004746339519798281 -0.0003410898659800211 
-0.0002320891525057 0.0009479832457489014 -0.0003620079760022564 
-0.0007371841691111081 0.01011299899966508 -0.01198682690744233 
0.01025038953594685 -0.005360669338509924 -0.008816152079105044 
-1.425413797676407e-05 0.003068295239447208 -0.004911577176031278 
0.005355129207440501 -0.01018920481540955 0.001547070830540866 
0.01129906498701678 -0.00772741853097485 -0.007205644859350867 
-0.001945533262965032 0.003623581223005494 -0.002242147050578721 
-0.002736769579166599 -0.008858852714574593 0.008697145525096319 
0.01157614491855743 -0.004728772979169667 -0.01146763048190618 
0.0198058619961757 -0.01741201151177825 -0.00616026525245451 
0.001223559879594947 0.0007320602953754852 -0.003069510513489524 
0.001423057386407307 -0.001576931345889599 -0.0007159167448115176 
0.0001826358303256061 -0.005502784365443 0.005267324596520287 
0.003222214702058752 -0.006336672119001002 0.001872829793445011 
-0.01022100392778868 0.01067735134440845 -0.001598881348594999 
-0.00998739235409358 0.0106667994461438 -0.003447019802696804 
0.001090168836530339 -0.01621309330704318 0.01199483424399229 
-0.001272738607255281 0.001558512698872418 -0.002476665586284066 
0.00334380253499386 -0.003258577699912976 -0.001766619327933692 
0.005835875812438117 -0.01113512987138138 0.001802226402643203 
0.01473027959291822 -0.01047394794206164 -0.008495697629987578 
-0.002016799076015949 0.003231789525054327 -0.004206314910570184 
0.01762269591137055 -0.01022734113952632 -0.01221314626174451 
0.003277148186871902 -0.003338843014087587 -0.0005714396160804854 
0.006698635738916429 -0.00715875067664114 -0.002266211830980117 
-0.006830684682461743 0.01524467802449477 -0.01110449758375057 
0.004566708047151774 -0.00630740225318386 0.0006629323830227418 
-0.003151682098787953 -0.01912850840481012 0.02384816867151873 
0.007231047779170394 -0.004356249783556317 -0.004303506310157692 
0.00132945818642578 -0.0100043433309933 0.008302116304348989 
-0.01407763121855297 -0.009856122623852447 0.02395593788260322 
0.000801612079877207 0.01959386709720061 -0.02691287427815752 
0.01434625772595151 -0.01331375336632257 -0.004118483805400675 
0.0003710297666822527 -0.01058257831027601 0.007524068935399545 
0.00378541350067286 -0.003218914841265131 -0.004166909870819766 
-0.001852649869962681 -0.0002510106370512773 0.0008595357270883338 
0.006425555120643708 -0.003859628641188099 -0.003713836597237179 
-0.005356256753641926 0.005126419591705319 -0.001941794578595299 
0.005636224786279553 -0.004716042236002098 -0.003426891978409984 
0.001238637712599223 -0.002710954596784215 0.001165293386366692 
0.0008351651673724275 -0.0008305977473001352 -0.0006644019174516651 
0.01746796115598445 -0.01541673358529522 -0.005930408316186539 
0.005408829930131508 -0.006015519942575502 -0.0009452065925070705 
0.00283789880128072 -0.000853472757656256 -0.002730609261014028 
0.001678402314513893 -0.001173261680427381 -0.00206470390145797 
-0.005086977857645525 0.0009708129135618397 0.003327984541635714 
0.0003900188861699526 -0.00238876967352899 0.0006883718474150751 
-0.003343787352872355 -0.001398272078815038 0.002463581390981825 
0.04419107269805326 -0.03031218022155728 -0.02144130106310909 
0.004378264869461444 0.006462422680717539 -0.0127569595259338 
0.007347231083287828 -0.004254292148718435 -0.007576445157797269 
0.007296280678872578 -0.00906969116105249 -0.002947729268423419 
0.002321997477958575 -0.002284272402603147 -0.001773140832786384 
-0.005732963085764634 -0.001831518121614077 0.007803974822505002 
3.933213554127813e-05 -0.0001683252019660511 -0.003760674923593148 
0.000159009465754119 -0.001264237662613927 -0.000548786713402711 
0.002192741589791483 0.002905392609678314 -0.007168748556522111 
5.15183048103077e-05 0.004252384946845004 -0.005263801344693756 
-0.002604493179313487 0.004944273005264767 -0.002285281766558042 
1.157173666462585e-05 0.006661253949582903 -0.00656417322611185 
-0.002595888424863922 0.004384941650291792 -0.00440140895114953 
0.004178419501006745 -0.0002062749118540975 -0.005045992913316999 
-0.004144880754859755 -0.004327917217479091 0.005448199419396603 
-0.000622583851226487 0.006400680492639435 -0.006481715987623377 
-0.004621471477558415 0.00585788862397429 -0.002953849940469344 
-0.003170531541058908 0.003055579537910754 0.00152283005410217 
0.00186038421955335 -0.0008840211408239256 -0.001440162671021959 
-0.0001879318137685291 1.486833783626711e-05 -0.0001563510212624174 
-0.001683124004560277 0.003462262290113098 -0.002688351992996875 
0.003763595303336561 0.004166351269476767 -0.008551963743530936 
0.0009018240562679459 0.0006933662703420154 -0.003396974411412634 
0.002532947689604288 0.003918140992306357 -0.007203149045218565 
-0.005165248007643841 0.003078987727295946 0.002398549155943632 
-0.0004583557235695719 -0.008643810582856182 0.009372873887299278 
-0.004685207931744232 0.008161360735755135 -0.005476913910742356 
-0.001543671995625049 0.001209544851639966 -0.0005955179257729151 
-0.009108040000966313 0.01155066346587716 -0.007957625612766592 
-0.0004483505667799136 -0.00949596521954949 0.004588819566967653 
-0.00637924361016894 -0.006574037045542954 0.01263267376402818 
-1.241893858129677e-06 0.0006523546094263561 -0.001180575197342782 
-0.003124449393304489 0.01079614886129022 -0.01101410823707667 
0.00688762923175463 -0.0004043498252851837 -0.006625800734340138 
0.004177195021007962 -0.0004874096201428823 -0.005271494160357029 
0.001580834641816709 0.007785026416531432 -0.009722821307132624 
0.00195366720705428 -0.001635932951138261 -0.005039248122138514 
-0.001914062428824872 0.000816323702013957 0.0002299814258200078 
-0.002094717903281824 -0.003171511958535968 0.004370034469891153 
-0.008854527293493796 0.003248608587017911 0.002560661529528571 
-0.01085268356027864 0.002576530607848093 0.00325738671674423 
0.005150858492122309 0.006993971562575377 -0.0131201640408563 
0.00688828490510221 -0.001768962150597929 -0.00475690235003998 
-0.004085574741776139 0.006700548516515526 -0.006244523362921287 
-0.002008636972991033 0.01239470857365656 -0.014040603173535 
0.002884691823259481 -0.004704554767456283 -0.000357202510833092 
0.008188548422609682 0.004626432114432825 -0.01467769602274313 
0.0008931138391645257 0.004816227657178951 -0.006186549049260773 
0.001972598490809893 -9.955207121826709e-07 -0.002548682264769843 
0.002837846316070324 -0.0005943007865336834 -0.002628686858552315 
0.0003232152490863693 -0.001546191530905151 0.0009568767491259017 
0.00438120113303108 0.001131234525474697 -0.006155471631421691 
0.002667525193649657 -0.0008389489735115166 -0.002225090021163164 
0.005558468991831706 -0.001455861135335604 -0.004736270232021789 
-0.002306827339956521 -0.005523478121751735 0.006677817576262351 
-0.006566906346683717 -0.0007055312417204095 0.005848533133402127 
0.004963226531479958 -0.000133025728760895 -0.006144888058597336 
-0.00283632786084939 0.004333893544991606 -0.002608926114100851 
0.002269025597362711 0.001064448210595335 -0.004623822731043501 
-0.01210479085673811 0.01333026525271962 -0.005619655666324519 
-0.001833552521264154 0.007048463567579084 -0.00573954106260101 
0.004132190282147233 -0.0001196856457766634 -0.004422491258973787 
-0.00167254162157535 0.001013682989035765 0.001424156175990413 
0.002271731724399641 -0.001523239181085664 -0.001169360214680178 
-0.003895579662335 -0.001896512375197795 0.006112128692067044 
0.001426974258356718 -0.0009710031299944443 -0.002139852394719995 
0.002457110553663334 0.005592969309962051 -0.008255546595526395 
-0.007449808333314701 -0.0007283132331843227 0.006847237369864279 
-0.009073967771374411 0.01366902765068695 -0.006328933808530863 
0.003028921997847051 0.001733390584605972 -0.004718126738851079 
0.002823442967466928 -0.002938796717463829 -0.0005215081192791844 
0.001170962482464083 0.003837898536833676 -0.006410479378768061 
-0.01685961683664047 0.01383646117086315 0.000290530112468825 
0.000599008021907149 0.004712732291594593 -0.004659706712383118 
-0.0008528820487322201 0.00571482212098755 -0.00568923201606573 
-0.003006559880382865 -0.001233690196891791 0.003036911288833094 
-0.007717048645430833 0.01023129930416832 -0.004400813640431025 
-0.003484734055849429 0.003198809176287797 0.002437207468462807 
0.003168488816471619 0.002228097988736414 -0.007240386850963493 
-0.003624379199616084 0.00341155152797205 -0.0007390626052538307 
0.003687809040103006 0.0006951524651221286 -0.005633733653070793 
-0.005373045601770745 0.0004683611649335995 0.004047750622932768 
0.004809263307905282 0.001166982020606252 -0.00742853167329701 
-0.0001278034229009632 -0.001116061199384435 0.0008684798313946067 
0.003250697888938281 0.0005261106661665316 -0.003992551201619333 
-0.002577012330962339 -0.003139528760841107 0.002775698354512264 
0.000794564559566042 0.003789643383634797 -0.004595108878432229 
0.008156320688145185 -0.008805850730845168 -0.003504695222802869 
-0.01153514036396449 0.01385346038839269 -0.005360905023612226 
-0.008654578512758073 0.008624265361971729 -0.0030678154270671 
0.00662658840449037 -0.001412494426137862 -0.006725925802875111 
-0.004913683483081836 0.006048303845648324 -0.004670256972967759 
-0.001283543469661007 0.004973970812513837 -0.003818480853450111 
-0.003981577935140641 -0.002388432769381964 0.005051917428575599 
-0.004683324489678292 0.00476828043543547 -0.0007097175784866436 
-0.003368251693857677 -0.003496867873981902 0.004563412018842543 
-0.0006505411591270732 0.002843259525944007 -0.003312600508314316 
0.004871404420419033 0.002133438642023328 -0.006140783018008434 
-0.01275317346585533 0.004348314015144431 0.007338742801681687 
-0.005535454091855309 0.007902802223020967 -0.003374066616935846 
-0.006974796441355549 0.005554667172619679 0.0008993679292478726 
-0.00778416259839554 -0.001246884233407317 0.00877382387157161 
0.002813404147750149 0.004984016349364209 -0.008971859708424552 
-0.009717604305331229 0.002320668816245754 0.005097088674517594 
0.0064699814547026 -0.008641428601814926 -0.00220427570714246 
0.003173924886955413 -0.0115041838037828 0.005690755104057796 
0.003946392589768765 0.003022289324051374 -0.007614240313983814 
0.001135481410319463 0.0005337186996960523 -0.002804603456054683 
0.004361334923932781 0.001292605693341635 -0.006516894490888479 
0.002364975199290247 0.002803351515363067 -0.006320581330744915 
0.006862376730774195 0.0002572682544557348 -0.007631835054886649 
-0.0006179266926069409 0.002323482505885505 -0.001347998396464255 
0.000975044667012565 -0.0004524612586981041 -0.000600333457398422 
-0.004567632882831458 -0.001375736396524852 0.005263690247131398 
-0.007665953536862511 0.01164103492443555 -0.005078819258892204 
-0.001155735747240576 -0.0008087719125178029 0.001042488033440922 
0.0007551953878068792 -0.001835542628745751 -0.0001390953984041499 
-0.0004653020927823054 0.005022843917005364 -0.00693644482426144 
-0.01677215228394057 0.01157607595487627 0.002032005559202171 
-0.0007046741928171663 -0.0007630729539818065 -0.0001985345162458508 
0.003634178585626455 0.002315176354459479 -0.007018897546906223 
0.005196206290719077 0.001370074777070383 -0.007379395116225938 
0.0009528890211250657 -0.0001626693247028859 -0.001293612953827914 
-0.005011931372587514 -0.003034077402619057 0.007708021809024747 
-0.01238356966138208 0.007494994269651227 0.003596840032298068 
0.004579121440882543 0.003028339746116747 -0.008063705688569079 
0.0009095485589013581 -0.001206074446692377 -0.0004335889651355172 
-0.01938682694236057 0.006517731682834818 0.01137569499241696 
0.005109047233573938 0.0004183633426263098 -0.006443079978820646 
-0.005210132456624117 0.009838472076398541 -0.01118502437897244 
0.0002848882311718315 0.003727785071349906 -0.003757621802085472 
-0.001717883602569246 -0.0004375022706897049 2.390055170695817e-05 
-0.001018908164620049 -0.002793995394816972 0.002569461687694324 
0.002068863003911717 0.002267492708559363 -0.003638819193794067 
-0.01103475776898381 -0.002490415289431982 0.01158431714053602 
-0.004177223407855929 -0.00515727837297014 0.007686180445318107 
-0.006059690215184187 0.01465806474735355 -0.00988744526743175 
-0.009786735584709183 0.003292113796559127 0.003084191246699227 
0.001159101380066278 -0.001696679020788073 4.175167445765327e-05 
-0.006428753512249611 0.02480263762480982 -0.01775462333447718 
-0.001423406263305835 -0.001473361584786097 0.001956304121181507 
0.002435378582358014 -0.003425882687072291 0.0009576058491716418 
-0.012016733955054 0.007640519089455958 0.001486008212098279 
-0.008338016275675153 0.007472451109082923 -0.001544312585985969 
-0.006352724603767674 -0.001164470179308513 0.008020797506820759 
-0.003719886999110987 0.001327813008560674 -4.451330658182182e-05 
-0.001994436435895458 0.001795946022444973 -0.0005756036146880511 
0.001168362919477466 -0.0009921044868433158 0.0001215239770982448 
0.005655249406258234 0.002712982820544732 -0.01002162131269196 
0.0003279373858301345 -0.003409249754763354 0.0021393776383276 
-0.01517114917675507 0.009323223999875918 0.00128316388477761 
-0.003715123074351524 0.000642977715059704 0.001981289112823333 
0.00225322406678378 0.004970206530132113 -0.008278342374524952 
-0.006208618081727177 0.007267692255796703 -0.001292009832704783 
-0.002775319288085748 -0.006346980616217619 0.008468208044460248 
-0.004498907490827 0.006284602986917026 -0.002480916145104058 
-0.003720678476557708 0.0003300909634427871 0.003120016244604825 
0.007740074584635551 -0.00262612165385608 -0.006164894503531256 
-0.0008530337023638416 0.001324166787710722 -0.0005114152059165773 
-0.003201499164998721 -0.004477508556388725 0.007873372790699681 
0.0064484818047474 -0.00105280020196629 -0.006626968934673735 
0.002315738047502539 -0.004635813187420824 -0.0004392558478027741 
0.001554694459768688 0.003656108064606759 -0.005681142761261314 
0.001187280668454925 -0.001100675019970988 -0.001309270003533542 
-0.001678928044897408 0.005012076863585293 -0.005951321679621067 
0.002111885424231409 0.004833493981180456 -0.006226892604679768 
-0.004353677989074396 0.003987253301515955 -0.0007772522983579287 
-0.01250464961535567 0.01020997440779613 -0.001622742111887015 
0.001784346554406055 -0.01185370358750248 0.01073054297298144 
-0.005017455528910534 0.008177040745115502 -0.006368009427025044 
-0.001457676213443853 0.004206959346006229 -0.005203723070536534 
-0.002390422015723971 0.0004759415843411596 0.0009442167868227383 
0.003098170677046234 -0.005291712684107983 -0.0005630080898026035 
-0.00643044969152353 0.01186810226403079 -0.008896424963461451 
0.002532854379662052 0.004254624649614147 -0.01304789006662439 
0.002271106934891156 0.001260569244822779 -0.004494888272723112 
0.0003535730175202546 -0.0001557988305052796 -0.0001386258222567852 
-0.005378567814799091 0.007508232510394575 -0.004927063300187395 
0.002604888588535604 0.006300333903202986 -0.009130681482552786 
-0.00645402915891135 0.007548320498237632 -0.005072600459588498 
0.0005893301130725204 0.0009454147617246429 -0.00271106575921594 
-0.00265099650136414 0.004970647672165925 -0.002008474068277391 
-0.0002441456965065233 -0.00405048312631821 0.003602611347014528 
-0.004367623893932375 0.009118429856076341 -0.006883140134534782 
0.006049236179362396 -0.002914954335476787 -0.005602078889955248 
-0.001103439524188156 -0.007623896472498642 0.00696247022059015 
-0.004955491517974556 0.008491025831698801 -0.005699739503939661 
0.00532976630585876 0.002792175373114583 -0.01014907093624839 
0.003600838257311957 -0.002392200843106938 -0.001628139541536322 
-0.001287251124549102 -0.0003599975488920164 0.001357086807774936 
-9.393753581552269e-05 0.005536840633107402 -0.005865008483377857 
-0.0001332273802715935 0.00391758417418276 -0.003746480593041528 
0.001128014740369329 -0.0004000657160556456 -0.001103721837121552 
0.009279045324715043 -0.004023386895096446 -0.007479141557565908 
-0.0009236293046617713 0.00326041676126056 -0.002957338888823748 
-0.00198123849102352 0.006930489710156885 -0.003902020839811714 
-0.003890913610998524 0.004371709204175581 0.0007081804415529677 
-0.002505770893984436 0.001042729088240168 0.0004004000684857173 
0.0009745176552475708 -0.0005274263474358352 -0.0009682408605187999 
-0.003714235523856443 0.001348739644384377 0.001429604924430866 
0.01030737797571493 -0.008865142714952834 -0.005011537927139355 
0.001139271804808504 0.006943653398753792 -0.008336874381038393 
-0.001427724354483676 -0.001305472245499548 0.002208648770185075 
0.005673357419736503 -0.003485434182450958 -0.004652085079435449 
0.004169918269801596 0.001357563423240245 -0.005752292053764897 
-0.0003638122072029139 -0.002271071384290364 0.002099232262840873 
-0.00700239401362655 -0.01838187808586659 0.01597902637153971 
0.004489517007712252 -0.00900208442119055 -0.005176003469553126 
0.003094695740669677 0.005323797369740095 -0.009702469462884092 
0.005063231196040898 0.003985486627217903 -0.01274279422043693 
-0.009612074949018974 0.01234152444586542 -0.006430654240598496 
-0.003069127632007103 0.004892948189453958 -0.003254785199728238 
0.002376778722051045 -0.002191603987645159 -0.00720646327065464 
0.001798391027356589 0.0009571477884640373 -0.004918771803381516 
-0.0008998127061724043 -0.004053662224822305 0.007122151652244784 
-0.003144700083176729 0.008833367633959822 -0.005438657493576641 
-0.01056268877005644 0.01357226821876177 -0.005860039875579738 
-0.00120353332970808 -0.004870158102014589 0.002924293939234702 
0.001921525474259729 0.0003380928748290516 -0.002766766664263505 
-0.000500199238660305 0.001551556933057062 -0.001232501334572063 
-0.002488060087403772 0.001425698183186214 -0.003161580983099761 
0.002703984596150582 0.004643322090881343 -0.008756454053920275 
0.01099820193639451 -0.01532959182715238 -0.004680187391488242 
0.002264784406733378 0.003987630837279658 -0.006723395435233153 
0.00861458115125931 -0.01705224942280718 -0.005181098543759049 
-0.0006271864285273601 -0.001995997591154375 0.0006521024044528704 
-0.004463212495133252 0.01160566192038232 -0.009505177518198864 
-0.006110834959505815 0.008157749158412652 -0.00399751080309447 
0.00436045414466346 -0.01080897496759302 -0.008388369724271602 
0.01799404415607549 -0.03203612056955793 -0.008398139567505366 
-0.004312391409921463 0.001605894476926161 0.0002971054232360133 
2.055475902609888e-05 0.003094904641772067 -0.004320781210518184 
-0.001158441565856067 -0.00162048818836217 -7.589993398382328e-05 
0.001350719639645405 0.007995291248074281 -0.01000163749262796 
0.0009122076523379062 0.0006556874731764626 -0.001962944934765308 
0.01454213000104089 -0.01169053879128363 -0.005083829334300906 
0.003513422621094683 -0.00685557007166219 -0.01136260218035779 
0.009027451091439568 -0.01245042256959269 -0.006540861280355311 
-0.0008059648015401421 -0.0004011544196247369 9.007001785397416e-05 
0.009842512766455593 -0.0197150575306166 -0.00921655811472491 
-0.009763185699988224 0.02923728941432077 -0.02308522485421442 
0.001386871788468857 0.007741832979619837 -0.0124145561041773 
0.00458833071339209 0.0001831022269686176 -0.0074991158626433 
-0.000550716646813 0.005362007045434732 -0.01200813176909252 
0.003291340379332772 0.01907735976450002 -0.0324599084584102 
0.01310874949392504 -0.0225073803561762 -0.002766881310355291 
0.02715104035695204 -0.007058845766005564 -0.0250831596344269 
0.005649555994362211 -0.002423772909994102 -0.009081048950617475 
0.001351226152824838 0.0001831589961598272 -0.002467595409186036 
0.002931302504299829 -0.0006169937958745496 -0.002852854661693615 
0.0008776726139420076 -0.0002230337742359328 -0.0006247523857901867 
9.065647677320147e-05 0.002502996091546201 -0.003601087130865877 
0.003453958076488539 -0.0004327952303273018 -0.004554862392809793 
0.007732097859010186 -0.007364820720501757 -0.001060307099065867 
0.0003294904996386187 -0.003601628153784169 7.026707989266853e-05 
-0.003341842932090661 -0.00376723387582216 0.00548924037609037 
0.004040008414625858 0.002091254205565601 -0.007199162103238382 
0.007927087666162161 -0.0111510897195845 -0.00834614875607442 
0.003253565033103162 -0.002479809022239489 -0.003105279911512401 
-0.01312923283886518 0.02379235002310136 -0.01525216468663183 
-0.003938071136772714 0.01319248623732809 -0.01210811102833903 
0.001706946155527633 0.003305991073457192 -0.005457984200178208 
0.0005804610161883378 -0.02198575344273207 0.0229436177239149 
5.031176522155847e-05 -0.001247765121259311 -0.0001005229805346722 
-0.00168699107564524 -0.004948910109534239 0.007329201748822538 
0.0007692565972424294 -0.0006719498993695408 -0.0006253471035357473 
0.003646027689093504 0.003102363672841528 -0.008980082280112505 
0.007855360405191306 -0.02933906129589635 0.0002046373034020674 
-0.007558452737040172 0.004352297290366346 0.0009363802143602658 
0.0005792665402914589 0.004486166251245824 -0.005632660686205681 
0.004986018676587141 -0.004613157930439339 -0.0009700709533162687 
-0.0001848842529218528 0.004931028294152594 -0.008243549358863633 
-0.01930657935504521 0.0005472147861389643 0.01089592957128778 
0.0005936452130771322 0.003318761196876404 -0.004234066682316369 
0.0004975732677627198 0.001394430002496638 -0.003915585203233051 
0.009345199629594441 -0.0181040210770984 -0.006978157396547367 
0.01006075387187823 -0.001364603034819744 -0.01742167762133209 
-0.00647205212492609 -6.050588722747335e-05 0.005255669379550203 
0.02972485368438531 -0.01317632333679219 -0.03053804133083082 
0.002764501759018714 -0.006112283785577655 -0.004762022671680305 
0.009718734802971649 8.304723163200785e-05 -0.01284682623613977 
0.003955684863140857 -0.01350128921169444 -0.002505851523008737 
0.01402787078745173 -0.01003289790996266 -0.007674346904704429 
-0.0003243570421348823 0.0001103975970973377 -2.474097659190455e-06 
0.005337863519609811 -0.002847989481198257 -0.00346460479072427 
0.002430179714299296 -0.02222966940233365 0.003952718342093204 
0.002204054188426811 0.0011035800930452 -0.003979067703923547 
0.01101898742620111 -0.01351291623204229 -0.0005717369812119465 
-0.01197850581138328 0.02125366098053933 -0.01317562520740241 
-0.01464819883019435 0.01871481620545036 -0.009248209679042028 
0.009107844132784364 -0.004536597885717444 -0.00589725194461089 
-0.009895993172034686 0.01700638520189496 -0.008155355897048791 
0.007895751991642181 -0.01725603734279467 0.007175240356815001 
-0.0005452824736186008 -0.01202835165098881 0.005050157287736468 
0.004389420938462328 -0.008267535423665887 -0.006945666448471784 
-0.001767630722445109 0.003616610165847741 -0.008089954115250729 
-0.002821938612184647 0.002764674208714824 -0.0006943194414332427 
0.005654289063623909 0.003377017866459599 -0.0129123133493498 
-0.02298630427092185 0.004924419768390058 0.01239630878071686 
-0.006337238937562968 0.00834144742307333 -0.001943485996067246 
-0.01165484984277093 0.009955031020642911 0.002908862694527656 
-0.005075692864377731 -0.001441750125468805 0.005590683630438472 
-0.002710883304542191 0.009263299669119582 -0.007152268790800051 
-0.004504824603045843 0.001864569189215636 -0.001972564783195172 
0.01687177698636263 -0.02596482285716813 0.0006807750316330437 
0.005602852619675931 -0.001269904176227118 -0.004926892679318134 
0.001387535920593447 0.004301321072986699 -0.006369033854136659 
0.01221190151072715 -0.01262141178738147 -0.007893371031037493 
0.006484230462528477 0.0001189408494331087 -0.007110852697852172 
0.003870921193852767 0.0004067903301027863 -0.005841576683663504 
0.002043912488665243 0.004971658238845818 -0.007620926107838367 
-0.004539625212974953 0.009300035166478733 -0.007072030645479711 
0.001929362063167173 -0.0007201125340507729 -0.001257035743028547 
0.001582596941867833 -0.004221772888514874 0.000651312303356646 
-0.00952705615912346 0.01172141101942206 -0.003133317289737341 
0.0100803318250846 -0.01558482568033964 -0.005796984154604937 
-6.521653378045287e-05 -0.004055985916686936 0.0007457652000291276 
0.00706340526918756 -0.00215217158718546 -0.007025262405909505 
-0.01827232898581137 -0.009568666872134153 0.008352252178321312 
0.009888269243327944 -0.01459935419513011 -0.006607423531226602 
0.004770266367680298 0.004211802701868864 -0.01059748339793962 
0.002817470344565489 0.0019253863277613 -0.005647841441840403 
0.002549205748373253 -0.002013934560582411 -0.00139890212217394 
-0.003219357100895193 0.00266649241968943 -0.002487696586671396 
-0.009488690440556162 0.002251735441073968 -0.005942932543770507 
-0.001330003130659603 0.006986138742481342 -0.006508268567053097 
-4.944025496583256e-05 -0.001988992195220694 -0.0001307920508379353 
-0.0212967629799092 -0.01406589874843011 0.01994337226271063 
0.007985513816199453 -0.002087475124557763 -0.007076898409789322 
0.002338330673162158 0.009202615277602542 -0.02301363297209423 
-0.002356961002198267 0.004760426894970042 -0.004049229883486941 
0.008764132601077937 -0.01388713773485605 -0.005957962462622218 
0.006801301858924374 -0.01337157229341909 -0.004648347980575477 
0.007973579795396205 -0.008198351819311002 -0.006651281174757492 
0.007153132023470442 -0.02921616859898814 0.002318597771976624 
0.004215149583361426 -0.01590803804178437 0.01157432511921094 
-0.002137779021103236 -0.01044213562199951 0.01328954995173765 
0.007151702679717369 0.000964490356283798 -0.01867109475510219 
0.001632179576633363 -0.0009686383074108435 -0.0009326758482872131 
0.01107995196142778 -0.01870889485491147 0.008564494232546961 
-0.00037726002063762 -0.0001755957335197966 0.0001441401671831068 
0.00399933590301063 -0.003068394581606169 -0.001892701213697083 
-0.01695296244382098 0.03778169985298872 -0.02197007312189727 
