solver_type L2R_L2LOSS_SVC_DUAL
nr_class 2
label 1 2
nr_feature 90001
bias -1
w
0.003449449922035473 
-0.02271734112327814 
0.0278271950076882 
0.0009937747867649431 
0.03414416236305663 
0.01444222469077082 
0.01548533690014173 
-0.00848011621976903 
0.005914230571084139 
0.02318666319687664 
0.01232209996725658 
0.003721512776194274 
0.01374186122944745 
-0.0005279238686465374 
0.00376066229284181 
-0.001918108948611412 
0.0086809053682662 
0.01582633161478074 
0.01124546929677178 
0.03387390738093054 
0.01420172680512262 
0.004723629974460947 
0.01136029518727549 
-0.001228065046459521 
0.01351393908231466 
0.001265834001039341 
0.01081766669957575 
-0.007295628774973713 
0.02318215060601277 
0.01623548119065195 
0.01410084028788332 
-0.005437729332237267 
0.01693631819535705 
0.01586429020251445 
0.005193341115097116 
0.0121457065162689 
0.01260282837059747 
0.01251459878065463 
0.01773592636803218 
0.005678714514583696 
0.02293942276547514 
0.007349706245752373 
0.01586299605067185 
0.004626617951218542 
4.403467552543218e-05 
0.003015060970275296 
0.01263605438340999 
0.001992400092050201 
0.007564088813890636 
0.008108118722102448 
0.0143850799587221 
0.009874702235783121 
0.02274798299888509 
0.0001789336116856975 
0.006923404914611458 
0.007367387174787755 
0.01509481293837518 
-0.002026400556329412 
0.01115086026611851 
0.01369876146275789 
0.005808533179416383 
0.004348193453873356 
-0.01122063888886625 
-0.006815301797258887 
0.01958585057299661 
0.01082495758679864 
0.007339405756763058 
-0.01950702274551483 
0.007630542600022722 
0.01580523633435285 
0.02877537687060835 
0.00217745715802687 
0.01215248053035695 
-0.004742564705794271 
0.02169579485986598 
0.008372972353307561 
0.02917451271574708 
0.02031690152398484 
0.001962184767741661 
0.004557206940626137 
-0.003973175431905618 
0.004926364177529729 
0.01557956561924969 
0.006944332970038753 
0.006257723444775478 
0.0123833158541326 
0.01290947150377985 
0.01430916573488432 
0.02434950870151529 
0.02604858234839887 
-0.001166617237053113 
0.01987791308663246 
0.03403931460059252 
0.002101505660107385 
0.007530809496622624 
-0.004154626770000479 
0.0130828846920177 
0.008252231388136157 
-0.0006614433752771584 
0.0005093329615309449 
0.02302701581942675 
0.006350050205247168 
0.01891848609000257 
0.006879131016149717 
-0.000549891906665617 
0.009410043776053487 
0.006942846395654086 
0.001555788049246313 
0.005336274490696096 
0.01390416868950771 
0.01972395455546763 
0.001689307790893645 
-0.02081470905636663 
-0.01900414273795721 
0.01729001045761767 
-0.004125711489932588 
0.00833437027351599 
4.104178054833533e-05 
0.008871238467952961 
0.006730004506036132 
0.00823672006740489 
0.009161836559595361 
-0.002459241665448242 
0.01460206006417134 
-0.0002046284192596366 
0.01097751406922367 
0.01954793149448446 
0.02341368172555801 
0.01297179291718765 
0.001181585085392999 
0.02736198813398267 
0.04395714653816542 
0.000583959126349748 
0.002194429838211028 
0.0003541224031586607 
0.006483625094088171 
0.01003168428387733 
0.008971880663837988 
0.0136676207264163 
0.02524847701048864 
0.03452773853861817 
0.002061252181014116 
0.01020029231238159 
0.01447285237184419 
0.02510813467632815 
-0.006404299167214665 
0.01946393076215165 
0.004937566121252895 
0.01186715299750609 
0.02412568724533245 
0.00637195549793567 
0.02141259101460332 
0.01324544805600016 
0.0008536474827051867 
0.01224751142681334 
0.0125089642384021 
0.0005616149329965309 
0.00526761309215012 
0.003090084029971636 
0.01372587441537629 
0.010215235948997 
0.001005404450739514 
-0.002476927714471804 
0.009459400622083369 
0.002027636521693295 
0.004520833318022222 
0.01906367698873966 
0.02100352952329575 
0.004843485269940042 
0.01920719789674064 
0.007995104890543369 
0.0161142091582166 
0.002784070628595532 
0.00966096339684251 
0.003811706081083037 
0.008799667827178158 
0.01147985578278609 
-0.006648722397107601 
0.0005576360043274472 
0.0134744875967816 
0.01120423343323922 
0.0106866637449861 
0.0150223996891068 
0.0009490442743949259 
0.005195165616217454 
0.008756006900212535 
0.01010319131395402 
0.0006134731236636818 
0.01570937633843423 
0.01912926585436861 
0.008702769852116533 
0.01328020604607918 
0.001898232545562649 
0.004132106632860131 
0.008805774132094338 
-0.001134430141890579 
0.002218741095205882 
0.02223338740010678 
0.01910953851034014 
0.007498173794840138 
0.02110180936948123 
-0.006239210393871618 
-0.02204390135195642 
0.001968398907336596 
-0.00584808225108899 
0.0036416619944364 
0.004034083640330268 
-0.006874548803795699 
0.03301883500122162 
-0.01339593886492596 
0.00831111086625678 
-0.0008404688033550637 
0.01061981924218905 
0.001526762783981479 
0.002027666428953352 
-0.01737597288015332 
-0.02453661819973268 
0.005788306504580594 
0.005735025945412093 
0.01259594694048376 
-0.0007436010301140653 
-0.01385767733549481 
-0.002038516439598927 
0.01944815155163448 
-0.03003858206328129 
0.01944579162519303 
-0.006617904428710109 
-0.01288728999537694 
0.002346442054891869 
0.02414599382248005 
0.001815151483935204 
0.04024421208234281 
-0.0119267548282261 
-0.01138607834376825 
0.000355300737651517 
0.0005103097059360789 
0.02778337450603516 
0.01826866422716234 
-0.002594733260397903 
0.02812971394959952 
-0.004655734948850918 
-0.01087220002629503 
0.01710059850143819 
-0.004307397308262705 
-0.01261216160011447 
0.03134944310956036 
-0.003488656533210689 
-0.01031300626971169 
-0.01041332565683109 
-0.002221077669568103 
0.01675787636539947 
0.007151139994867542 
-0.01669910659862333 
-0.001622984928991575 
-0.008192894412912047 
-0.002496560238915453 
-0.0190110714377937 
-0.01217092282356142 
-0.006235729300042577 
-0.01145289135879468 
-0.01135206720408736 
-0.008717575879072072 
-0.002017815246002909 
0.003845695303869417 
-0.00562326491594525 
-0.0009777792029838671 
0.03049507846139602 
0.002740365687424781 
0.0008344107283219561 
-0.008832265399566339 
0.004536735227867103 
-0.03123301877386597 
-0.01270310283883431 
0.0008948824409126891 
-0.0006883368541932246 
-0.01269038972056665 
0.04470641624368717 
0.008715534864079621 
-0.00173247245207371 
-0.01204706388915633 
0.005496201825191826 
0.06422997188571096 
0.0132203619730741 
0.006806141756890755 
0.008867061795997083 
-0.0006659860810612597 
-0.007067103491501857 
0.0236793006946947 
-0.009616041866650047 
-0.0003761660971116481 
-0.002617630839884143 
-0.02259101884563477 
-0.01149127698557048 
-0.00473537125604577 
0.00528649817587767 
0.003355270584682996 
-0.03540938938655584 
0.01556351364000146 
0.02246700940008229 
0.03472260396468673 
0.04079360055082504 
-0.01680728157064225 
-0.005157649741274022 
0.01744658727592842 
0.00193115128721129 
5.403741974116342e-05 
0.00827756090757918 
-0.01272268543395894 
0.01703977261599109 
-0.01724002817449561 
0.001224366887727466 
-0.01337131977805181 
-0.001651412273583952 
0.0207519095604092 
-0.006744033156413599 
-0.02725220026935706 
-0.003409233470590656 
-0.02049876827458165 
0.003586417061201899 
-0.007371617606722408 
-0.008661284289414851 
0.008650367224996977 
-0.01555378434595935 
0.001075936752793067 
0.06161068934116027 
-0.03010043796621511 
-0.001891330508881603 
-0.008549982450848613 
-0.009064047742608227 
0.00471895590402215 
0.005003579476689777 
0.00606484070526456 
-0.02468510449352721 
0.0002808320932414497 
0.00239636456321368 
0.005032616871504666 
0.04436972226527138 
-0.009505298498541844 
-0.01000702487548518 
0.006934732796414648 
0.017288007503807 
-0.003394547997467201 
-0.0003167500683408189 
-0.0145316870607464 
-0.01208137457909644 
0.003815703427575549 
-0.002479596858245125 
-0.02416317148553003 
-0.007633700236677823 
-0.005970618773502156 
0.008926766584743447 
0.009835772295862235 
-0.01112173572887677 
-0.009508354433314541 
-0.02111982332475136 
0.006342916809073316 
-0.0002400072554760323 
-0.00601575883815648 
0.006044822624635721 
-0.04972558736082958 
-0.02473405183675466 
-0.01616651439992607 
0.02250219634202592 
-0.01381725458497629 
-0.01070966292378386 
0.01380404610814799 
0.01172169626362808 
0.01925020573199423 
0.003792037833452528 
-0.009557404397336341 
0.03283243495050489 
-0.005115020504503385 
-0.01410802270469594 
0.01434001451445081 
0.02531554123166345 
0.01941983094146771 
0.04365319128031126 
-5.483283911405958e-05 
-0.006848100709678906 
0.02938107767842918 
-0.0004622860644792801 
-0.004997783564414317 
0.0003156479006258817 
-0.001221146853098056 
-0.02117257696120699 
-0.009218414747674967 
-0.006546683208419966 
0.02906734431930504 
-0.002085447736543939 
0.02332442122100706 
0.02282045370316436 
-0.007646735650313477 
0.006350434523064134 
0.002603751575030005 
0.01699077464371614 
-0.007962303278640625 
0.01831769542799636 
0.00111550637997597 
-0.01090324633183433 
0.02160611524983736 
-0.001716074149512645 
-0.02266434680698763 
-0.005310171637749126 
-0.006147712317259716 
0.0189600976220359 
0.002208338182138044 
-0.001141941195553031 
-0.01300500740346029 
-0.0004221206994262988 
0.009178147807127498 
0.002868172189973131 
-0.001226625840184596 
-0.002322054957881606 
-0.0003482651911795723 
3.563446768354849e-05 
-0.00178780966278413 
-0.001171396487827616 
0.001477375520541255 
0.00279598545557135 
-0.0005927652493598004 
0.0008720701359558773 
-0.0008242832178148619 
0.002479935201278884 
-0.01971396990951849 
-0.01572116927618092 
-0.004007790470747301 
0.0006196340998603898 
0.001834859278585419 
0.01108031486084366 
0.005053734384288837 
-0.003511468037961516 
-0.01164160716414097 
0.001613247141847906 
-0.0009618152193537709 
-0.02936996684212857 
-0.0004655684531839733 
0.001047335842350625 
-0.007190564523971234 
-0.004713983258896448 
-0.005820458114530035 
0.003628995502244182 
-0.001882500412584912 
-0.005748150105345473 
0.00156340609716622 
-0.0007486612368805873 
0.0006226554284527773 
0.003994538730825271 
-0.0003028989494256206 
-0.006186666381130078 
-0.0005207135650206018 
0.002859434570836959 
0.005882389531816297 
-0.00117856910527209 
0.0007236855810088961 
0.002154464478888906 
-0.0002614648345924732 
0.006000944483171368 
-0.001294407836238605 
0.003327748958420891 
0.004515357480492492 
0.000838453295763728 
-0.01011918995664566 
-0.03082505942967749 
-0.005165868104845538 
0.008170569452611662 
-0.0007102974175292437 
-0.001173926401960957 
-0.02324670331833182 
0.002659641424928525 
0.001387897813322122 
-0.0005536705655106468 
-0.02528263948946021 
-0.004870462967457798 
-0.02122067531218903 
-0.001549477941322506 
-0.0009511022841274036 
0.0009653288807236435 
0.006237100160633911 
-0.000133386726351006 
-0.009474495408625664 
-0.02006181935767539 
0.0001982449621607067 
-0.001693169332438069 
-0.0007883798955419073 
-0.0002315443527850757 
0.005761196401290009 
0.001952719157630904 
8.368852690616727e-05 
0.001565880074810674 
-0.0005293954279241316 
-0.009881866447190014 
0.006466846184214213 
0.009327616261857774 
-0.00243290091918904 
-0.00776668490285319 
-0.005423209232384755 
0.004151649459510627 
0.002363750747453259 
-0.006567266440347026 
0.001659506209932222 
0.006029217159959788 
0.000806045260063823 
0.003216483667183794 
0.004036379332359008 
0.0009707913153850228 
0.003468956275525094 
0.002072677075404311 
2.042282280577441e-05 
0.0009231899546932254 
-0.003584303844068018 
0.001054481254957125 
-0.000230715009452081 
-0.006000723968929599 
-0.03863308185603869 
0.00340292861378884 
-0.001084651356531015 
0.003419558217774427 
-0.0008019492273246393 
0.0004304209713378677 
-0.01659101736159458 
0.0005882786192673719 
-0.005968911964500782 
-0.02779071510868352 
-0.007487230627054815 
-0.005116346195876633 
-0.001217166513977417 
0.003132377845466812 
0.002102682701438383 
-0.005430200629246657 
-0.030737876085227 
0.008853527822998735 
0.01477093759187261 
-0.02013685936691821 
-2.802159865678917e-05 
-0.01104262276056889 
0.0006048690685074538 
0.0003427891265123175 
-0.006275701448481949 
0.002698807654473619 
-0.01058545472220083 
0.004151543576452334 
-0.00140175399600398 
1.430769050736613e-05 
0.003707190337989959 
-0.003481501621154698 
-0.03127023120262992 
-0.0001278734266062929 
-0.002076285654440598 
-0.004537158555233936 
0.0206388257505931 
-0.003171832286069747 
0.001253132853296622 
0.004418064715086081 
0.0002166278117420452 
0.005001150279063511 
0.004195921184163863 
-0.0108336446351345 
-0.0006214983109654588 
-0.003847232921933323 
-0.001036259235199308 
0.002220460967253048 
-0.0009028542514480214 
-0.01066485887783909 
0.003392509850164096 
-0.0006879170038365639 
-0.001419237063797557 
0.003296901884160234 
-0.004831808183139954 
-0.0003459141902369608 
0.006637024901731532 
-0.0004294454691268247 
-0.009788977180541848 
-0.004411876209690569 
-0.0006824672578128448 
0.003051791128006721 
-0.005627465220767101 
-0.0001292005797718882 
-0.00738912022559539 
-0.00835808366174655 
-0.0002733122338656924 
0.00117369266744119 
0.000726198121938097 
0.00924623506217777 
0.001182893433716344 
-0.001213254561657036 
-0.00187260199333713 
0.004408267889767818 
-0.000241144850943237 
-0.001819297138996113 
0.0008846656275448291 
-7.294073401695319e-05 
-0.006473505065710699 
-0.001016663715030671 
0.0008723515177245091 
0.001615412010505595 
-0.01921848287792039 
-0.01294873028079391 
-0.003147458009077934 
0.002073978740559991 
0.006552614831037391 
0.009912845962710774 
-0.03793807530132917 
0.0255488946432602 
-7.010927156745604e-05 
0.02998959743073311 
0.02076612133401192 
0.01547511079581312 
-0.009204496140243448 
0.01275961952787827 
0.02868299218516903 
0.01000717819483625 
0.009220898413682531 
0.01433514549889504 
0.0002551949579800056 
0.004685256396248921 
-0.0061829840953461 
0.008939904131689588 
0.01399710540531523 
0.01205514220172343 
0.03272821466266441 
0.01969758937105293 
0.001966882020707585 
0.01234150833707646 
-0.0002117444852956595 
0.006938249339318458 
0.009755815577685479 
0.005564195454541013 
0.009516688642678951 
0.02336795980890582 
0.01743007256236575 
0.01517657729843809 
-0.005729125453828708 
0.01468187969336685 
0.009438435107647133 
-0.01044524692436651 
0.0244645464961707 
0.01046800012553121 
0.02139697368096646 
0.01688059566986515 
0.00253168452302304 
0.02025497409743965 
0.005190001347650063 
0.01609653303831862 
0.005001517502935023 
0.001123093127359766 
0.002759182401716448 
0.01459534184231974 
0.002960996555972723 
0.008216318295958753 
0.01296203462772392 
0.0156998840083568 
0.01472493841190108 
0.01970358037497569 
0.0005870815241468278 
0.005521525271431999 
0.0114837175772201 
0.01459707180565748 
0.007818158986832177 
0.01608844938863289 
0.01451780158702577 
0.006352048608387183 
-0.0009035107097813079 
-0.02405577470876609 
0.01050553964616635 
0.02221686574848776 
0.008393977382046745 
0.01233641336181047 
-0.01822825689092913 
0.007644421382367896 
0.01538882854331309 
0.02706851367299079 
-0.00837941069553773 
0.01505031986258138 
-0.02171875011659316 
0.01934556759005978 
0.0001083865210451503 
0.02619338388434099 
0.01292452258400589 
0.002101239365230287 
0.004318959523986707 
-0.01723257168077533 
0.00502430111389045 
0.0145537845602273 
0.006888037976457977 
0.008872883612926596 
0.01447411306839762 
0.0151359943753297 
0.01848268770916873 
0.0202065552462357 
0.02255185591277869 
0.005555551008407836 
0.01872432646398247 
0.0300251658565273 
-0.001541504914141911 
0.007922253516885889 
-0.004656895300959443 
0.01903412403990307 
0.01258397568700423 
0.006550175110620655 
-0.01065667787182289 
0.008026750729878704 
0.003352637322324574 
0.01758504994365986 
0.0128031599449855 
0.001260542697977575 
0.01293104404102783 
0.0125340786685301 
0.0002638525120755703 
0.01078684156577518 
0.01463309043612143 
0.01658422485126111 
0.0003622042298639318 
0.0009869502632319129 
-0.02755731483682673 
0.01400863875154493 
-0.003832533072579458 
0.00798847700653277 
0.001648337659468289 
0.01660698760155321 
-0.004822945413563736 
0.005318088210075031 
0.007347819901801306 
-0.0179479403885173 
0.00241750130604757 
0.006344263809064096 
0.01687842204967272 
0.01614668314247316 
0.01997272694102713 
0.01393777700718226 
-0.007710194613524289 
0.02560080125657695 
0.03965082270752882 
0.003875762770078856 
0.0006686136915196469 
0.01280848186349871 
0.004582531080993591 
0.01620907292035154 
0.02158663745177391 
0.01414769537531411 
0.0251417471625586 
0.03051302414744247 
0.01328031672481259 
0.02063179438090908 
0.01196279703544904 
0.0220090260711644 
-0.00906853895966714 
0.01789390157726176 
0.003832840851244643 
0.01581329933595404 
0.03227121622035205 
0.01022081511717231 
0.01887162089417202 
0.01542076979255759 
-9.453267082277859e-05 
0.01386383336490248 
0.01770125240382457 
-0.009614078220053918 
0.001822255938997043 
-0.0007737591315079922 
0.01529794934736336 
0.009202379351629613 
-0.002043381960354126 
0.0001245784136136916 
0.01380098995834211 
0.001047541829511637 
0.004840913750594079 
0.01758470136258176 
0.02104117742429667 
0.00571522104912269 
0.02930171857455995 
0.008529417090688041 
0.0180477459222749 
0.006696191441481096 
0.01385966902114531 
0.01788283452262309 
0.008688540796402454 
0.01660955890069074 
-0.01396122623758895 
-0.01222821389047722 
0.01168189822581284 
0.01450723231231643 
0.01098730760276476 
0.01765708922788962 
0.0008885505001722262 
0.002755392503077792 
0.01166594030725253 
0.01544197860798946 
-0.00062500294833497 
0.01370048088157299 
0.0177694753250767 
0.01386621037000187 
0.01506981591841697 
0.008688926879289184 
0.001905093055169015 
0.01326787678881357 
-0.01806432132726347 
0.000189976120087079 
0.02356034371736554 
0.007325821881365182 
0.006466864639032169 
0.0005488684975302244 
-0.03229465834915438 
0.00752289625744399 
0.004826891958731557 
0.01618204856329747 
0.001204244292945788 
0.004758458239024411 
-0.01413042064245199 
-0.002914646397609142 
0.008558442458450832 
0.003272873978739715 
-0.001947028375029628 
0.003389032055215883 
-0.0009357757351117007 
0.0006088590128939418 
-0.006715946250497427 
0.00260132535719311 
0.004858896488197395 
0.006689161711308419 
0.01051788509342079 
0.004904190039140058 
0.0009255238467545784 
0.005384825025901027 
-0.01961340638042193 
-0.01469685211341964 
-0.005017791635350977 
0.001850016544810905 
-0.01455202070417554 
0.008527930453259459 
0.006674462505626166 
-0.00371364004790426 
-0.01197948087007682 
0.008812049458681109 
0.01201658005166257 
-0.02425723248235867 
-0.007747200102402706 
0.003914944578687036 
0.001324865164089313 
-0.0007505859937143134 
-0.01274360178082286 
0.007107633281752757 
-0.005149682909229714 
0.001249822307693569 
0.002906140268367295 
-0.0007519865861129214 
0.001715110805140717 
0.009281165464370904 
0.0001139014433743648 
-0.003984783598849462 
-0.001307746225100367 
0.01347165174413529 
0.004582518116026186 
0.009051557344514178 
-0.0004711161386996228 
0.007943217504142319 
0.003084003007921597 
0.01145682888754853 
-0.01032614867210688 
0.004225554885699916 
0.008501343780384417 
0.002308714738487771 
-0.004057475691994885 
-0.02607175991157022 
-0.01777146939838404 
0.01196639107040427 
0.005383688991802662 
0.001629570598813041 
-0.02823303637680834 
0.003368691160120471 
0.004825187461544974 
0.009630833993918913 
-0.01951423193397426 
-0.0011425842501262 
-0.0221320037177602 
0.009359663282883292 
-0.001203441270523321 
0.01274533222139357 
0.00741265153402117 
0.001194477691371486 
-0.004517666417618639 
-0.01220274679624053 
0.002883372894399116 
0.0008139269082676492 
0.003207825737071667 
0.002682139955049416 
0.006942806407496329 
0.004427200525290378 
0.000492220851214338 
0.00974035168860417 
0.0120689919386783 
-0.006652788310944635 
0.01345962517655904 
0.01932791233280105 
-0.01067551521180894 
-0.004052426564652689 
-0.007345445455652022 
0.007745970271763209 
-0.0007789694749379914 
-0.007803569193946859 
-0.01045239407249873 
0.01467712695371636 
5.224419020004281e-05 
0.006067850489097556 
0.005663913958068861 
-0.002043779745270852 
0.002444684885107935 
-0.002440353695544783 
0.0006696420856803826 
0.001962833767837614 
0.0001854616784657251 
0.009578345608633193 
0.001766536810409942 
-0.02311267511538636 
-0.03366097542311481 
0.01066125793435866 
0.000517782413860212 
0.005652820594882685 
-0.0008216933951713422 
-0.0002560234158837606 
-0.02063238544624674 
0.005854196233162687 
0.001010301066139714 
-0.01969517149838588 
0.00388033002111037 
-0.01167862526064148 
-0.001267183679849173 
0.01063874630178702 
0.006808903708221148 
-0.001361131522198625 
-0.03095375118987364 
0.01371078511935815 
0.02113990002650891 
-0.02499332576907436 
0.001081895752544996 
-0.01944067569510356 
0.006064274149816233 
0.002483979298412923 
-0.01476883753674285 
0.004788285251995666 
0.002601824624478798 
0.01017188863946772 
-0.009108131842434666 
0.0117452036373064 
0.004899140287380577 
0.009840731572378868 
-0.03015929349397287 
0.004851862465723347 
0.0004377419223732208 
-0.0003131969106821792 
0.01679820167549127 
-0.001162815166678964 
0.007515446255094419 
0.008575637105967496 
-3.187314609016936e-05 
0.005020711622393449 
0.01177187408581522 
-0.003941340765801523 
0.003230546842861517 
0.003126569391791254 
-0.0003342269052248315 
0.006234040598828544 
-0.005737927199034162 
-0.02198597152356369 
0.006533106214751044 
0.005646104551774503 
-0.001315675613557551 
0.008592806095404583 
0.00135820841989974 
0.005129153715158076 
0.004725783380927116 
0.0007598085365215959 
-0.0002219204125918672 
-0.002281879069948234 
0.0005709250051357732 
-0.004384438212103814 
-0.001516835927424068 
0.0002807299869421581 
-0.01958171177895633 
-0.01252976253028043 
0.006301741188378977 
0.009814641190078419 
0.004767506763568359 
0.005582430269947087 
0.0003060691830081832 
-0.003178866972904544 
0.002913021405725284 
0.004702501935996407 
-0.0008621431839842877 
0.006619910579279502 
0.006104025418152794 
-0.001048273028229453 
-0.001246049397054738 
0.00226512370257752 
0.001945753827754175 
0.007302433391949747 
-0.009273225464764095 
-0.007530671143204478 
0.002236623985364613 
0.0006332365773180523 
-0.004855472933267497 
0.003277774265090958 
-0.03557234902923278 
0.006683037256873968 
0.001031429354527229 
0.008728797878545884 
0.003850596128613853 
0.003651421259048833 
-0.01626642978910009 
0.0007890404475609684 
0.004747989256301276 
0.003204760124189428 
0.000597107552327369 
0.00649534099622138 
-0.0003155860661641864 
-0.000944962416815132 
-0.008900266778763833 
-0.00103225110741858 
0.005302673780444449 
0.00265097887891725 
0.01164201009127178 
0.008530594554585358 
-0.003135538327548763 
0.005767622418301446 
-0.02827099435763165 
-0.004205437911553966 
-0.0006469566499436862 
-0.003339183323851281 
-0.01324531994636321 
0.004410717854586999 
0.005673854033715599 
-0.002887219649768276 
-0.01718718382396971 
0.007533897171872182 
0.00109432123177307 
-0.01220418881615748 
-0.00711572539183865 
0.004885720181073631 
0.01703033239385198 
0.002104192437908188 
-0.008457231859456413 
0.009457291367909373 
-0.004978447951717712 
0.001853208960468216 
0.00180784993544498 
-0.0003189814392567504 
0.000138187176113928 
0.004600794635457024 
0.0005299161258982485 
0.002081203908631385 
-0.001119498925069011 
0.002148488939375582 
-0.001552016298671947 
0.009691540752075014 
-0.005035928135325355 
0.0008434444677948624 
0.001949200483907738 
0.002371941517587882 
-0.004785103382695535 
0.01153492942643349 
0.009176818065441057 
0.003014940433328865 
-0.007551229054437491 
-0.008361515880720826 
-0.01350242033933528 
0.01049659356637245 
0.004914572415956313 
0.005141918265068086 
-0.0283280917269558 
0.001706538135025473 
0.006152879352500341 
0.009424536146263381 
-0.01476410369033159 
0.004475019638709692 
-0.00779405392717347 
0.006880142286462503 
0.0006690193782319151 
0.01035169315878864 
-0.001089262804841899 
0.002074765204944559 
-0.0004322495888037777 
-0.00740360711593703 
0.001154073177821261 
0.006873306531990411 
0.000833111597601271 
0.002078614803313593 
0.01006990051328579 
0.006988690405802111 
-0.001324991428584856 
0.006694172919056179 
0.00928075575809903 
-0.0142258771632537 
0.005356256290878673 
0.01521149904465707 
-0.02283238527965973 
0.0009283663920836955 
-0.009393765478440385 
0.01253322184268172 
-1.825502827760819e-05 
-0.006910487112991268 
-0.02292184346412823 
0.01442491735004977 
-0.00173358458860262 
0.008327839747134197 
-0.0001799491380247133 
-0.005843670646308205 
0.0004133086816386779 
0.002037600079780478 
0.0006982486032398677 
0.003991571789113858 
0.00667029477882291 
0.007181645659544412 
-0.001756957768499668 
-0.02216930177961277 
-0.0249445199345787 
0.007736917161427966 
-0.004995544948235923 
-3.546814547369715e-06 
-0.002945845725979211 
-0.001689073878649917 
-0.01282392641925388 
0.001268018705122063 
-0.001734329757312612 
-0.01283149820198027 
0.0001536911164969895 
-0.008542427707762715 
0.001211451131619167 
0.008185998463341632 
0.00638481317299978 
0.001991239762919976 
-0.007980900387087583 
0.01181447474562839 
0.0290628286917997 
-0.01884251123406835 
-0.000418866542201722 
-0.006038342352406816 
-0.0008045483376519923 
0.006529964256554493 
-0.01995145971924572 
0.007489532802905497 
0.004192384799880522 
0.01197191905428425 
-0.008412336042705571 
0.02327548502050527 
0.00661432275752431 
0.008483366045849778 
-0.0233261517726378 
0.006623304761806338 
0.0001478838424226626 
0.001750780160297379 
0.01930499935129561 
-0.0004322016017493943 
0.008071079369932586 
0.005308963770425809 
-0.0007325791862568235 
0.008782615269959701 
0.0164193454447751 
-0.001894130304822306 
0.0005018376613272692 
-0.002844518645097176 
0.004469263934716478 
0.004732593015416419 
-0.00820785702177761 
-0.02408442602080826 
0.006918147950401915 
-0.001394919939762799 
-0.001983745822248091 
0.008293694997635553 
0.007498407035880819 
-9.34915056472322e-05 
-0.003208506255168572 
-0.0006726146788246693 
-0.0009505799194633037 
-0.0006345983522136338 
0.002799017735298255 
-0.01021758180509056 
0.004590929643331475 
0.009746004550139523 
-0.0269182103557441 
-0.02015121215613773 
0.004898998350401729 
0.002753674251703806 
0.005275831501740704 
0.0005619094049780951 
0.000189411298808336 
0.0001876679653837293 
0.002522613270571228 
0.00306101759061165 
0.0003066792194141732 
0.003929499142795708 
0.007315772047025017 
0.002050731009359995 
0.004079852895005497 
-0.007386613577608913 
0.002796982906693486 
0.0001081484096337922 
-0.003348184601486962 
-0.008205960748069082 
0.004772837910780962 
0.005546160341728908 
0.001251081478467362 
-0.003770259364113868 
0.005946609987429015 
1.514691323780257e-05 
-0.007783304363787635 
0.007816773233619583 
0.0001683108719238438 
0.005304771599064747 
-0.004862056723473366 
-0.00294004968573192 
0.01678023061202671 
0.005502453761979987 
-0.001633006697026031 
-0.0004695099492168093 
-0.0005792734829717828 
0.001219776067846015 
0.0006222650236856498 
-0.002367153106159481 
0.0008392074005608461 
0.003557509069679784 
0.000354120517961938 
0.003877606296451545 
0.00116487885213286 
0.005052283194233917 
-0.004694728570092444 
-0.01056505394620484 
-0.003291300163506029 
0.002061155683651368 
2.556368244107842e-05 
0.01286446206038506 
0.002061462870685713 
0.01946498016051314 
-0.001382913928589945 
0.0007576986931778281 
0.005552586320525231 
-0.008026492580681983 
-0.009979158267320792 
0.005700417033569682 
0.002971337060609482 
-0.003964213966859201 
0.001441055420094831 
9.186299101075914e-05 
0.008057376845292362 
-0.000862037109941251 
0.001129271649001843 
-0.00032676492489486 
0.001468100350542446 
0.0036594853556486 
-8.083704201457736e-05 
-0.003569405477024867 
0.00342150049566555 
0.002879548348394542 
0.006309453193395108 
0.001019888464724759 
0.0009713100344683297 
-0.00136816963647457 
-0.001273988841037221 
0.00616731129375166 
0.005581819505434249 
0.004566497233961415 
0.005678123091675853 
8.714699063447608e-05 
-0.008419437589589941 
-0.01070707711602467 
-0.0007021205894359087 
0.002896274131029997 
-7.718049921141985e-05 
0.0003006670749416301 
-0.009092970480596117 
0.004185456177359517 
0.002770061322432075 
-0.000536469257439935 
-0.002709288355509789 
-0.004576153556416132 
0.005368305048349327 
0.0009138970103800039 
0.006405196580718244 
0.001704513654273616 
0.01087634231700254 
-0.0005128985958482902 
-0.003767166082029642 
-0.007314599104620165 
0.002175898522888334 
-0.001435068007209083 
-0.002249626439627078 
0.002651566434629821 
0.005475652979063031 
-0.002459412933589062 
0.007921352280092558 
-0.0007532269550499034 
0.003147679475740975 
-0.003517969906423954 
0.008615733125306472 
0.005549171283006049 
0.004334319761408832 
-0.001006744725531044 
-0.001339202020298595 
-0.0006011572934200078 
0.005382211044691795 
-0.004570195530842243 
0.01508579540073287 
0.01796615329349102 
0.0048522112519749 
-4.081163352015066e-05 
0.003740504317326175 
0.001232335788082872 
0.002468039816634429 
-0.0003511629650134836 
0.001445692499885705 
-0.0006181633989100379 
-0.004349091489608971 
0.0008012599046426498 
-0.002780541828496654 
-0.002305467449050917 
-0.007806826395775342 
0.0004406900905179994 
-0.006683681976455175 
0.004656315452761482 
0.0009363388778375398 
0.0005546427102878914 
-0.004950773061085734 
0.006289738813929539 
-0.002978874688019331 
-0.009666936956859095 
-0.001766925260072566 
-0.005546418809677997 
0.0006143630718493762 
0.001189419470007787 
0.001654459690801988 
-0.001791272680892846 
-0.01260822795674704 
0.02029948665271965 
0.01824417969792817 
-0.01364696399894014 
0.0009790514203929818 
0.00954114857500156 
0.002094528127721678 
-0.002055665953244697 
-0.01005777445804444 
-0.0009873391404572574 
-0.001192460900238622 
0.001450821512662561 
0.0002209759599673602 
0.0009804413791986983 
0.006682224736852711 
-0.001659252499119202 
-0.01144515565869208 
0.0006418900102600012 
0.004072598380217274 
-0.002444103083052943 
0.01555703876668882 
-0.0008539810976985843 
0.0004965240714280296 
0.002113688901435943 
-0.0003885462655835885 
0.006330087734814228 
0.00579167956381689 
-0.008525460154526937 
0.001998317512063309 
-0.0002631540028146303 
-0.001800352682435546 
0.004315494323452353 
-0.0005862166759228353 
-0.005922799705787764 
0.0003310129380955542 
-0.001398143450847365 
-0.0006794059705873382 
0.0006234338596971183 
-0.001110884561645572 
-0.002567705983955086 
0.01139148100677374 
0.003185892291447649 
-0.003311283507799429 
-0.0005747904179827661 
-0.001018997111634304 
0.01004463703285888 
-0.002795846590830675 
-0.003126440764883911 
0.005788009457135433 
0.002113352190135415 
0.001324213492963319 
0.00140829999543169 
-0.003640453639817946 
0.01183632398382532 
0.0001251530959370813 
0.001280810160946039 
-0.0005333588610254941 
0.002957856687798207 
0.000508417486395825 
8.192815093521533e-05 
0.001788375017954705 
-0.001826811781016078 
-0.0026120092367482 
0.003188408703276786 
0.003936449835261563 
0.001751907478657685 
-0.01008667519980586 
-0.005246688367694521 
-0.001830225632638324 
0.01932882525883377 
0.003219273917999043 
0.007395981974405939 
-0.01101824871504885 
0.007524092525433575 
-0.004331742789432792 
0.02052027129420968 
0.006762046224111799 
0.001712069804434588 
-0.002222908321139633 
0.001316905579776601 
0.02289748663967174 
0.004841332689942857 
0.0006099107404001499 
0.002142161188907269 
-0.0004431108314603573 
0.003852672885902924 
0.0008223312386016247 
-0.00177907114307998 
0.002127713417533731 
0.001202770618858278 
0.006461449213763508 
0.01101133706578383 
0.00387800241824995 
0.006636277453920135 
0.002708738946316647 
0.003412244721940652 
0.002316853771972202 
0.007441026755424996 
-0.007380320481113908 
0.007985496924355429 
0.004623689262049394 
0.01925788751571161 
-0.005102150384948462 
0.00355149912758832 
0.01343177971880979 
0.005951542460970799 
0.003484389033576336 
8.038958218072735e-05 
0.0122304503073043 
-0.0006540939149045282 
0.003396823741364719 
0.006594705577807741 
0.01290839064470712 
0.0005632952928709508 
0.0007290190829618345 
-0.001262993858354219 
0.002697439316910781 
0.001577452865882684 
0.0003260901516206849 
-0.001153798503474072 
0.01469571925815141 
0.01994575704077219 
0.002697490702720532 
0.00393907613093047 
0.001638278399640688 
0.005199179834068197 
0.00663290794917222 
0.004171881422447262 
0.004658008492306904 
0.005520986204751046 
0.01170636241683884 
0.003258123363016043 
-0.008343954804732882 
-0.01391669262142699 
-0.001338453209445774 
0.007532488566652393 
0.007672813724841633 
0.007677980587219279 
-0.01393840676624038 
1.795373816870253e-05 
0.003381060484428555 
0.004662769351990383 
0.005089080570125121 
0.001692351398885534 
-0.001022163149200651 
0.003741681069856864 
0.006458899569366839 
0.006541615434070766 
0.008955911980876757 
0.00117797764133441 
-0.003435724980594171 
-0.001682216502482008 
-0.000356929681314579 
0.00481988992413201 
0.002189666647167651 
0.002727657225392396 
0.007697483738357712 
0.009238702006928957 
0.02700369892702554 
0.007880714683969224 
0.00491190883079051 
0.004899862447814783 
0.006223043674952183 
0.03133783519538601 
0.001145222158987783 
0.001414560389102533 
-0.0006625714512963154 
0.00895673947128422 
-0.003107465478610342 
0.006985405386354725 
0.00705273685992436 
0.0198937479409536 
0.002067892957748167 
0.003570683992006736 
0.004137734442697362 
-6.582101226211582e-05 
-0.002400313527696651 
0.00684561834625825 
0.002158272349151186 
0.01175743357961016 
0.001817267352615873 
0.003884923611310333 
-0.001107183292013535 
-0.01475634765932907 
-0.01807585792155565 
0.003284812022915392 
-0.00928197337957729 
0.001029240683263357 
0.002118720774282933 
0.009719668761844524 
0.00905584560674331 
-0.0003202048175230296 
0.001425365910516315 
-0.006848247029725406 
0.001600031479160791 
-0.007787557115941137 
0.001210114021561215 
0.003604549532502098 
0.003727698890463526 
-0.001462688111985294 
-0.005527479401534701 
0.02006629159927149 
0.03606734075437352 
0.002610843008889758 
0.001144000826387493 
0.008135221883857974 
0.004991394646586387 
-0.001782997226150156 
0.004269369651325264 
0.005845181409357485 
0.004855873465259077 
0.006532062911079732 
0.0002943115091423164 
0.01726124735224133 
0.001157494360760162 
0.005454220215818308 
-0.007401044756707069 
0.001840898515671038 
0.0007024205259728586 
0.002756666989903695 
0.0261080475487005 
0.006601473192555803 
0.004483052452271063 
0.003024030319716822 
0.000307989588307942 
0.009917320115083452 
0.01129398556059825 
-0.000436594914441389 
-0.0001793953981822349 
0.001618391982103609 
0.007330042583723342 
0.001075717902121055 
0.002177186329453664 
0.002096933199228607 
0.01272857059686724 
0.001449717761851603 
0.004709120415918961 
0.003336116162850988 
0.005454085525201199 
0.001280015457361823 
0.01427545949935764 
0.00480036737035081 
0.007748979091934766 
0.0004041574032696517 
-0.001420647218968496 
0.00434501964650443 
-0.001251764728827295 
0.006345216951237056 
0.009618724097801701 
0.002412550890499274 
0.002824270523958377 
0.0156994395801356 
0.002524586425900271 
0.002857282489850761 
-0.0002818722420998582 
0.003270955369132824 
0.006779137864099173 
-0.001045382756314386 
0.0001812516454594641 
0.003648527233806904 
0.003237540547680696 
0.001247149097333859 
0.002251500938282731 
0.007854411132625345 
0.005376656446529991 
0.01397028043280638 
0.002419390129585546 
-0.009863380318553392 
0.004763960407457324 
0.01831184613908359 
-0.00532914554698658 
-0.003599170004489197 
0.0009093662152249562 
-0.001257589707581915 
-0.003414311306636451 
0.005078087631766737 
-0.005325579198205237 
0.000784901489621586 
-0.001962984637865824 
-0.005654651281973411 
0.002968404966839144 
0.0008199495336465717 
-0.00495636338449721 
0.0004758859922097075 
-0.00113595678578245 
0.001921438195591712 
-0.001017716344279232 
-0.001144356476620497 
-0.0003747330672688302 
-0.0004864509810879865 
0.002895543389887454 
-0.001222664186758498 
-0.0003879693348023947 
-0.0005837613391606589 
-0.0009296739193755081 
0.0003603381608686364 
-0.005178616785933987 
-0.0009692160206507656 
0.006823914319819944 
0.002522481714192687 
-0.0004101071808983251 
0.009089154772585819 
-0.00642322221853935 
0.00231445387386764 
0.003218546079098499 
-0.004094575917495403 
-0.006277531352197842 
0.001373374937167729 
-0.007331614269393709 
-0.002865444094192612 
-0.001483337359403747 
0.003520049669180615 
0.001971654770863629 
0.001062912448652398 
0.0007231097232706278 
0.0002691414609932424 
0.001158896739561776 
0.00126240649461762 
-0.0005682539351111244 
-0.002284152824580846 
-0.001844663931524217 
0.001865337604935174 
-0.002254941546184222 
0.001679520726121782 
-4.294926403060947e-05 
-0.003930404897415783 
-0.004461382151569952 
0.003222617978262984 
0.001371055906516111 
-0.001567672156044296 
0.0003973917132497072 
0.0004254314249672943 
-0.00326005593570767 
-0.005296318737566354 
-0.003649306262743617 
-8.332135119961691e-05 
-0.001244936004378641 
-0.002940653801816021 
-0.003565383996275595 
0.0006431845199971919 
0.0001636086265085629 
0.001811600920948511 
-0.0016525903319361 
-0.002733317248487952 
-0.0007468594907584632 
2.529201622188863e-05 
-0.0006796046795731179 
0.002672446678396843 
-0.0016148224783126 
-0.0006823330940965805 
-0.001931512476798948 
-0.004117441712875959 
-0.0005379071869044827 
0.0006809247466701871 
-0.004946897960920716 
-0.005629662900064589 
-0.002499645429645135 
-0.004556017977295579 
0.004663694414745814 
0.0009453387073125748 
0.002283855653957189 
-0.006090432742246218 
0.0004043150625192767 
0.001844781502345748 
-0.000763584990931368 
-0.004311979768379312 
-0.001008129354975029 
-0.002940613332958008 
-0.0005184080641769416 
-0.006604411615187464 
0.004494070362583288 
0.009276758761241396 
0.0005907083303672269 
0.0004762563462723745 
-0.004747661473196758 
0.001867000773378586 
-0.0003369102497490584 
-0.003341894180379873 
-1.612535265698337e-05 
-0.001177363622317726 
-0.003964642094975959 
0.001372490632825035 
-0.00138242613947339 
0.0031386873869815 
-0.004430321056245225 
0.001286338187004592 
-0.003449396064805367 
2.15467598824722e-05 
0.0003685406088493717 
-0.002966870417338385 
-0.005136545747223515 
-0.0005221275516846654 
-0.002756568454400349 
-0.002631972602599106 
0.001401288607175019 
-0.0074461465654268 
-0.001314890323511869 
0.001053964006091515 
0.001962170014851582 
0.0006144704786495538 
-0.007554846494180372 
0.007498074347403507 
0.004663423308996687 
-0.003247920971416809 
0.0001505637245365111 
0.0006678648723620567 
0.0006139913615968984 
-0.001235105419714533 
-0.007661179611653789 
-0.004214659874068347 
-0.001041599780539446 
-9.946383574999003e-05 
0.003367121965381823 
-0.004615057735699749 
0.001283281292750028 
0.002364038175671016 
-0.004293477768755935 
-0.000408226466368441 
-0.000958510037382714 
-0.005648075661777734 
0.005832670014903107 
-0.005427941215150072 
0.001651723006846862 
-0.002071217028678703 
-0.0002618895462773021 
0.0008460934418776108 
0.0003872200126003318 
-0.003966479695713799 
0.001139123385884999 
4.337053046965063e-07 
-0.003341801789920352 
0.001628527100371593 
-0.0005719601808605022 
-0.004034952931672883 
-0.001907870948101671 
-0.00115933702097334 
-0.00153893307214283 
-0.000373731974214414 
-0.001517165236097533 
-0.0055618458795816 
0.004259155811730581 
-0.0009430442775226086 
-0.004582990369882429 
-0.007568213405254354 
-0.005105677999756925 
0.007704541438520451 
-0.001339142996613811 
-0.005245199039113274 
0.005150208876424714 
-0.004469837033535404 
0.001491998284615399 
0.001113876179619816 
-0.004006280865745567 
0.001185780358540478 
0.0001915539429173839 
-0.0009147269283937494 
-0.003321050717025843 
-0.001660814435500864 
-0.0001051794198370336 
0.001671463419111978 
0.0007058307956689979 
-0.001370848390936811 
-0.0001822891135684747 
-0.002882570947679642 
-8.999487294395912e-05 
-0.001662249357580394 
-0.007956056755776842 
-0.001099715829355222 
-0.002489321823662103 
0.00432569479379704 
9.497391738417909e-05 
0.0002201731281685834 
0.002754066030993156 
0.00476545967268003 
0.0007882475144175313 
0.006392267727794227 
0.002844415924557558 
0.001612077341635604 
0.00209983983212664 
0.004809137604010871 
-0.009034630887246192 
0.001808495348801678 
0.0001759297207291454 
0.001784819492330645 
4.624784771573549e-06 
0.00133272264546446 
7.031222166244982e-05 
0.00269949874071504 
0.002025405507696224 
0.001220010133324469 
0.004600421134023929 
0.007428371423302834 
0.0006550163337572476 
0.003202664500207264 
0.00664141871381669 
0.01127299709828685 
-0.0009889184481531471 
0.00531215501151804 
-0.007040032628451139 
0.004730882827933565 
0.00163462658912484 
0.004391613123334218 
0.001329988697934122 
0.002084721002067723 
0.01426443247974227 
0.01051351681295724 
0.001720577732173453 
0.0009127675580646057 
0.004356151599340941 
0.0003532664525926469 
0.002320629144079537 
0.003043325027221796 
0.001200945902149418 
0.001932048539253758 
0.0006220153283135895 
-0.0007533761268938271 
0.0003561898376765953 
0.0006485748990320356 
0.0003165053118954159 
-0.0001338976091878509 
0.005002455007799458 
0.0113852354541243 
0.004188001296107783 
0.003753685634162619 
-0.001820713300502387 
-0.003699949517576847 
-0.001166602492289543 
0.001713055598664936 
-0.005918669517444177 
0.00448524032339284 
0.01355994835158545 
0.001395357408608712 
0.002572467837916527 
0.0135905718784141 
-0.02008030685697986 
0.007870008616894759 
0.01207767084834299 
-0.0002163290678368662 
0.003116441772777985 
0.0002341798178514168 
0.001898395321603323 
0.004993144206180108 
0.01110559853893184 
0.0003728229081298454 
0.004924294769437278 
0.002657289149433687 
0.001441109778608032 
0.00484899610129201 
0.007654417164050029 
0.002284748007753671 
0.0007811325086164897 
0.009975373023896011 
0.0008002463479937556 
0.002250231889430551 
-0.002442197586893966 
-0.0009166565655297004 
0.007728862805688101 
-0.0008530756938375938 
0.008304033405179982 
0.00393388631039236 
0.004356765653138027 
0.0007123846231412805 
0.004308092098460749 
0.01341082210151297 
-0.000592666392551098 
-0.0001713060805937636 
-0.001528921294611712 
0.009245911177604359 
0.0004536155298504361 
-0.003409571047255286 
-0.002781552476330329 
0.005311172666035808 
0.001119372789584794 
0.001643523004724374 
0.005278275434793996 
-0.001940555347742538 
0.002969766109588182 
-0.0001878643433842559 
0.0001134377213301278 
0.0007428167782960865 
-0.001635591574181928 
0.002157971438238234 
0.001653749517998929 
-0.02172238392051618 
0.01062079098842135 
0.001936152634026998 
-0.001033514584856963 
0.0001694408890021958 
-0.002876783905797179 
0.00405902347000525 
0.00435320698196277 
0.0007224864563529252 
0.002989413658548842 
0.0133094591443426 
0.010934499404322 
-0.002798816873702299 
-0.000121407903460694 
0.002788067761181346 
0.005456708348172272 
0.00123026184036499 
0.01208861300469408 
-0.004202988309447236 
0.006699086855409683 
0.007693189960141958 
0.002960153878179842 
-0.01212019546677861 
0.009748428508652996 
0.004529759294850918 
0.001863068941407482 
-0.001659738016614037 
0.004152069003001709 
0.004997359824139357 
-0.01444276529909596 
0.001176206223335403 
0.001135146533844465 
0.004795464119902466 
0.009605986102532724 
0.001501955250717752 
0.001293743005701152 
0.00104037091312254 
0.003354315478009522 
-0.0008674712226754696 
0.002173614395775888 
0.003650254714389812 
0.001041293709649013 
0.009283866963688284 
0.00764910412115961 
0.00656615940771495 
0.001623077760630264 
0.004425354587597679 
0.002643923224527573 
0.00127914854171747 
0.0002651159603279523 
-0.001151916612784211 
0.003990513377713343 
-0.00135767759924551 
-0.0007705620848767504 
0.001429544647684071 
0.001514143770327538 
-0.003628753478002462 
0.003436114625303744 
0.002715612881848761 
0.003315529611155668 
-0.0008651859194765449 
0.001403125865682478 
-0.02201790479798476 
0.0003018552734143712 
0.002675951223727777 
0.0005084536176402937 
0.0008404166733570896 
0.001524648499870758 
0.007742164801619325 
-0.001895546281924203 
0.002658517895825109 
0.0002312782612155978 
0.002353266563065071 
5.410763024962757e-05 
0.001272016614128258 
-0.0002690660815326538 
0.002311891192051325 
0.002545947235319209 
-0.000970150832918756 
0.0001595443522225687 
0.0004532493877602759 
-0.001234216799296735 
0.007320381513561946 
0.009976397933786399 
0.001007132368691505 
0.004252990872867408 
-0.00533259434560397 
0.004229419710638583 
-0.004848664404535362 
-0.008623058514090986 
-0.02484176070259374 
0.0001549341500849277 
0.004201426575523361 
-0.01517103617850192 
0.0004507198077026022 
-0.00107088382231652 
0.00408907550716719 
-0.001183987068994481 
0.009354518573585905 
-0.02345289082305335 
0.000773552179209288 
-0.003443063689438916 
-0.007599180933788374 
0.0001099192851326183 
-0.03055165135670043 
-0.002919764058352248 
-0.0006212288774978786 
0.005730458517213858 
-0.00674260652964766 
0.003701875402680707 
-0.01235611165805347 
0.009013374884284832 
-0.0003107708633371225 
-0.01163190311907562 
-0.009408832293978774 
-0.02098533779019133 
0.002157906085621347 
0.008565282386397173 
0.004025212849480873 
0.005003466946683723 
-0.01298327520056343 
-0.0007106505938521171 
-0.00801186298705138 
3.595985762514838e-06 
-0.002063429802487198 
0.008744567519376552 
-0.004906226092839433 
0.006491589819031112 
-0.006016913692008979 
-0.01090484472831661 
0.01051559653305137 
-0.01000667668325583 
-0.01057103801445642 
0.006237349348179634 
-0.00880033471693833 
0.0007893556057858984 
-0.004799996189397345 
-0.006158397488387199 
0.0008741503598832835 
-0.00655933843933304 
-0.006812447313417305 
0.003690408191152608 
0.001332936964201059 
-0.002688551307942825 
-0.001442414866722812 
-0.009940391422948159 
-0.02113124325562183 
-0.01449118954511927 
-0.009238751433504612 
-0.01192265078207022 
-0.006378247515078008 
-0.0002751562629663204 
0.0008076088416685297 
-0.004582962528419321 
0.003388252671165449 
-0.01987825000683018 
-0.01329069004706415 
-0.01985842791716985 
-0.01085307410348734 
-0.002657322437173812 
-0.001316295184535836 
-0.005289707080930032 
-0.003365791046911367 
0.0008172638297179871 
0.0116098233428953 
0.007001417089734785 
-0.005258976807506848 
-0.008934004108010613 
-0.01238687177994027 
0.002507441384259645 
0.007194704022489745 
-4.4234980119358e-05 
0.001531505099232555 
-0.00807096440600618 
-0.002695111709156633 
0.002726771695734299 
0.00224236698545573 
-0.01883030932215288 
-0.01002168322287056 
-0.01376548219327356 
-0.01633981187459771 
0.0007423510150958502 
0.003689822374833034 
0.0007113019639036812 
0.001642823950805462 
0.007260192429935619 
0.0004948534500262771 
0.008359816187759935 
0.01502527721715974 
0.001413748036819629 
-0.009914442529862849 
0.007245889586156087 
-0.00189632455572615 
-0.003995926954638907 
0.003749056915978379 
0.003187792486932414 
-0.009041229958945485 
-0.01722492028447563 
-0.004828311406484449 
-0.0004544665226830836 
-0.005936922957750394 
0.007212588712669563 
-0.006094971259980399 
-0.01729257761254226 
-0.004896805515453211 
-0.0208406927667891 
-0.01751298329053511 
-0.007444437610918741 
0.002317750655153936 
0.005176644957618273 
-0.007779124463368481 
0.001428189741819185 
0.00266665310975141 
-0.0252580640379409 
-0.005208575799011098 
0.001256176415034922 
-0.01110342249025085 
-0.009904136404956979 
-0.005518487292445247 
0.003978022320791093 
-0.001618247123051196 
-0.001587567229905932 
-0.002865374587682882 
-0.01009452622215941 
-0.001261207532273639 
-0.01487416369014958 
0.003244197271812028 
-0.00298590431606879 
0.004317274099138055 
-0.003687740239442951 
-0.009703871035915114 
-0.009505374646165113 
-0.01074732621126697 
0.002798117022180244 
-0.01073652905965674 
-0.01526980696794265 
0.001802545184369795 
-0.00453201745060072 
0.00318646690296193 
0.004530232305630336 
-0.004420171996445714 
-0.009661113525342388 
0.007712270939916999 
-0.001900557127228058 
-0.0003741453056543548 
-0.01586044389751412 
0.0002798477457023764 
0.000659314357142638 
-0.001586951212694366 
-0.007566840203889254 
-0.006689568276991904 
-0.01970288917340075 
-0.00682560859217777 
0.003216716905678867 
0.005342570273779499 
0.01068335143567453 
0.0009694684333511879 
0.0005087850002557519 
0.002185437397313362 
-0.003889387374833999 
-0.0003494091863848375 
-0.007648788691535411 
0.004024702896313193 
0.004652127577942882 
0.0164573684574748 
-0.002797227431708084 
-0.005590000653272671 
0.000636569211051395 
-0.006359557231048781 
-0.002304618970212682 
0.0006916657421244936 
-0.01811027830056981 
-0.005801727275550851 
-0.01924348479545848 
-0.01132182881277802 
0.0001740688027910747 
-0.002368441422069114 
0.002079642560449075 
0.006173119064222054 
-0.008881468900741794 
-0.007109988074405271 
-0.001548923271542202 
0.008519497789585303 
-0.01055544061021432 
0.0116760079623904 
-0.008063205191366928 
-0.01655361008096736 
0.00546618371622372 
0.01863807857834826 
-0.01425558404589506 
-0.01599989641165134 
-0.007807670951828866 
0.006083290781400387 
-0.0234049228187688 
-0.008359401678322468 
-0.000303032117125511 
0.00491326339858438 
0.005813422484656692 
0.0003354217953989714 
-0.00251283308951977 
-0.01824778004132553 
-0.01069038076914036 
0.009228895830751205 
0.01460739593261035 
-0.02348608369999951 
0.003403149492040421 
-0.002418240727201842 
-0.002828292569509734 
-0.01877755834953094 
0.0121271992945407 
-0.007562354539815808 
-0.007269674036313562 
0.01575764365537944 
0.01314512958456348 
-0.009067020848189644 
-0.007756080703216852 
-0.01044878390554759 
0.01315302381418288 
-0.008549347727806139 
0.03714545164935612 
-0.008516012566683053 
0.002650522697960927 
-0.002142266295057096 
0.0001373085280190116 
0.02310433401574423 
0.01608999327962228 
-0.01520227554223675 
0.0061603573651829 
0.007416923335256095 
-0.008547512534731318 
0.0008058825956005165 
-0.02509835071845065 
-0.01290802342722421 
-0.003794301585331724 
-0.01838722485970803 
0.009719732891138349 
-0.003622663724892958 
0.002220154355157885 
0.004367242664612193 
-0.002350910549061941 
0.002995194622825121 
0.003028896559217357 
0.007977782241794445 
-0.01372327845177993 
0.003614003766956939 
-0.02536840802195031 
-0.01402129437374213 
-0.02611867425291979 
-0.02947061904123356 
-0.02244163788764151 
-0.008300221752167715 
-0.0170455553373046 
0.01775740885955785 
0.001252267458011234 
0.02279681782475874 
-0.001931252118342427 
-0.007759661825889769 
-0.005527098680315454 
-0.002541146330967576 
0.01237429643526809 
0.007460670794809994 
-0.01005002206905705 
0.0005122233871816247 
0.00791483330172338 
0.04122785345396383 
-0.009990381042240875 
-0.001938819389199002 
-0.01414537190579857 
-0.03080062874487041 
0.06451828006544122 
0.006203611567284033 
-0.0008111085647281638 
-0.01176751835218171 
0.001110238499417971 
-0.004137021928145575 
0.005515166859429866 
0.00198175355658269 
-0.006269510751748826 
-0.01379237689533865 
-0.01518352055867653 
-0.01457753870010441 
-0.02639918656165689 
-0.007357181710336461 
0.005104344338233239 
0.01191935775649178 
-0.004593889708522696 
-0.003117254186461959 
0.006145066561842685 
0.01314627993059037 
0.01310165092909569 
-0.006823024731980612 
-0.0004871041716929705 
-0.0006745191231567913 
0.007496088551847762 
-0.007569395955515456 
0.009364174940173713 
0.01040022677798306 
-0.02840227751246921 
-0.004647554165795361 
0.006858887571311595 
-0.005906502752093096 
0.0003162606411501706 
-0.01593019704766658 
-0.01578047567320586 
-0.01003308687311724 
-0.02754818698943196 
-0.0006620119437457132 
-0.0229565315766005 
0.01309894514003876 
-0.01127881725382651 
-0.001968054884480223 
-0.008968432086493434 
0.06161056543280783 
-0.03295997634134243 
-0.005108004338086298 
0.003019742892866981 
-0.007111589364732671 
0.002755022367742522 
-0.01354700830533711 
-0.009092607792376287 
0.01398354312371011 
-0.01642067354561887 
-0.0036322564248376 
0.004225294283731771 
0.04014055703619894 
-0.02141182036382201 
0.008352561604651448 
0.002317496140613697 
-0.01160487936238818 
-0.01130542812977089 
-0.01305775855291293 
-0.003450340592575247 
-0.0104317833963942 
-0.009823959971708813 
-0.01234838621293258 
-0.02388552715526714 
-0.001876186861213171 
-0.0006733634577955854 
0.002339887291499624 
-0.01697488269616699 
-0.009636668305116489 
-0.008001687606375842 
0.01320555709681153 
-0.006320319591819443 
-0.004447539360551842 
0.0007951452288848487 
-0.004499942401559523 
0.01033071565046976 
0.01169383329738003 
0.001829359059189222 
0.0150670445122667 
-0.02118013802966219 
-0.008343561872226122 
0.0005782200741557804 
-0.005226768561047103 
0.009324852740356531 
-0.01522574372135815 
0.003060328220490995 
0.002915507823987568 
-0.0183842779123276 
0.006201001092048289 
0.005283472695050919 
0.007946465201726406 
0.007093922056981337 
0.005981524757988826 
0.002202060417420733 
-0.001988157216361116 
0.004348672370991005 
-0.01483846722262865 
-0.006661177745650762 
-0.0141202940520331 
-0.004960233496108211 
0.003503051752281702 
-0.02044410735962462 
-0.02888101579943082 
0.01848820422455053 
-0.004239150645228702 
0.005185093941343784 
0.01950660782617037 
-0.003575514908950896 
-0.01411630608929496 
-0.01965302928408123 
-0.001481540531695404 
0.01057162611268715 
0.002125659109516694 
0.006412559249032593 
-0.009121674921867082 
0.0002864212005643679 
-0.004590764905475869 
-0.00462849798959373 
-0.02166496004411602 
-0.004146003800924402 
0.007122373843646011 
-0.01266990151166747 
-0.001923093780994209 
0.00248714693218024 
0.003956570801695358 
0.002428656436501187 
-0.000680865744860093 
-0.02250626771255066 
-0.002959538822917794 
0.001200006945182801 
0.004191021863042124 
0.006793199721740857 
-0.0226238077095204 
-0.006029505324475722 
-0.01179513363445933 
0.002600723405572633 
-0.001083885177981748 
0.01461971467976404 
-0.008369678619806442 
0.004687751470010906 
0.002513750046797248 
-0.006871825724311024 
-0.0097528769670206 
-0.01085722477006992 
0.0004770318448589894 
0.008734044706778849 
0.001143194721614151 
0.01073424756155094 
-0.009549735136605947 
0.004080727810957791 
-0.003771337379115072 
0.0001267644523726332 
-0.006289840227254945 
-0.00130422179035803 
-0.0125221105241333 
0.0030225713180626 
0.002087098710841229 
-0.01262842210514459 
0.002816908321696 
-0.004220822415958237 
-0.0259459091133514 
0.004186323588398993 
-0.01259900382630867 
0.000974260506334775 
-0.002138463965803519 
0.002953644430539294 
-0.00506785691109926 
-0.007435330657992959 
-0.001279163462582748 
0.01113766607352011 
0.005067418372268706 
-0.008495699469339755 
0.001433811084598536 
-0.01540232030723409 
-0.01793190796876078 
-0.01569753982652214 
-0.01235605747456347 
-0.01701856383772039 
-0.002977308441314842 
-0.01039932708516186 
0.006392043045053687 
-0.006414045029441884 
0.01036998860627396 
-0.01796915054138148 
-0.01080964427744553 
-0.01042393564176576 
-0.01374887827198796 
0.01200653332647761 
0.004303053085897767 
-0.0008559551175839731 
-0.01274262425343198 
0.008597260359783046 
0.01156057803432133 
-0.0006693618190733411 
-0.01039654114608536 
-0.02001717003201563 
-0.002512356741760714 
-0.0006715679410613383 
0.002328417879733174 
-9.691854829502861e-05 
-0.007469381288522447 
0.002355084993608736 
0.001774658359877479 
0.005039586821289128 
0.01079949361176263 
-0.01121457446996095 
-0.003882068091612345 
-0.0069333738659478 
-0.01593072433988986 
-0.007728911829248791 
-0.002433933048163387 
0.008072230428266779 
0.01966810336977052 
0.001712043509640832 
-0.004352620134836563 
0.008679145199122232 
0.004465521994065009 
0.01346680165548736 
-0.002699259294929382 
0.008363637355795 
-0.0155157163107724 
0.00434854982783087 
-0.009853646169337552 
0.01181736585164811 
-0.00476931006707048 
-0.02161606541246223 
-0.002487143750161289 
0.002246750021936165 
-0.003165357388543725 
0.006861848637600793 
-0.004298561221623253 
-0.009893232146159645 
-0.005776761563881558 
-0.02015818337549767 
-0.01563499573816893 
-0.01075506854149488 
0.006825556678455308 
-0.005493209680031111 
-0.0009501986783055641 
0.003814289241883749 
0.006613107938065783 
-0.0241914753435025 
-0.008153879428232834 
0.006281070673103541 
-0.01615512894903181 
-0.00897175282010563 
0.003633460019836685 
-0.004404278242273113 
0.008589784021445793 
-0.00559203889517239 
-0.01616290968481266 
-0.006802658882108344 
0.006258663247531092 
-0.01245260916920388 
0.001662092865552513 
-0.006876400212768548 
-0.004510651455822329 
-0.007174902967008589 
-0.01080240706286911 
-0.003336872375127212 
-0.007957800688347859 
-0.005516024896727144 
-0.007353901784216937 
-0.01613218436626955 
0.008256973000900779 
0.002566463441294982 
0.008943185386398511 
0.000503773930987434 
0.003638781859837134 
-0.02668186556250124 
0.01224206450957389 
-0.007662011520013475 
-0.01465562635021017 
-0.01537672293893649 
-0.01315041932212051 
0.008057604601160832 
0.0009797367712243033 
-0.004070852702046358 
-0.00880429956395163 
-0.01840853009810008 
-0.005403274868916678 
-0.009754752670731854 
0.0007615376162140716 
-0.001231563979775701 
-0.003439757196559388 
0.006986863713218564 
-0.0004903554578884363 
-0.006715827450383375 
0.005310043787572763 
-0.009652701468775683 
-0.006386208084044521 
-0.007832861716945869 
0.007061702160166002 
0.001087944869656686 
-0.008572410509803183 
-0.002690871862475974 
0.0001040165225540219 
-0.007407807160991464 
-0.002390107234910174 
-0.01233344643942122 
0.0009611646883450944 
-0.01413885336836666 
-0.01566627036851378 
0.007158584682791255 
0.0007623581475630061 
0.003807925703113694 
-0.003346726910613029 
6.533999083795512e-05 
-0.001042855185745616 
-0.00861119049988193 
0.008932079123991091 
-0.004997736116634193 
0.006835721031735857 
0.0006172747760656207 
-0.007671244851418247 
0.008698161235524835 
-0.01074837500963066 
-0.01001695379676269 
-0.00787047394554222 
-0.007649833063964756 
-0.01061197943673781 
-0.003176462858879274 
0.004283271650097028 
-0.003207089902050473 
-0.0002375490507509156 
-0.0001033242747094962 
0.003810382709839578 
-0.03100594943444171 
0.01462709440455647 
-0.01517981154551785 
0.009996192602305443 
0.01083687468780147 
-0.03261726433122015 
-0.007836586550225743 
-0.005785718975653549 
-0.004630109597188382 
-0.002729808666615216 
-0.002182668076169958 
-0.005848599361651552 
0.01594881640798207 
0.02048435066375632 
-0.003010622788922119 
-0.008126367273582768 
-0.03021727699162712 
-0.005954932290895741 
-0.002119721164313888 
-0.00253396915480851 
0.0003672658349539933 
-0.007685922690593928 
-0.005476256880832145 
0.004849010308856655 
1.907548120185807e-05 
0.001194500490372375 
-0.001271733093878974 
-0.01176074172151845 
0.002788848423389677 
-0.01234530615928004 
-0.01184956174364899 
0.01520198680893448 
-0.003266032316594808 
-0.000578304036031504 
0.0007754422096415102 
-0.01591515281758225 
0.007011217949441323 
-0.01353323346275423 
-0.0181658061220343 
-0.004348708183493413 
-0.001799718304573284 
0.008553921453551197 
-0.009201515453151199 
0.00744194658689193 
-0.003008787244280752 
-0.006104357068294354 
-0.01164346763284773 
-0.02610105754888159 
-0.01537953231672406 
-0.02089526893912601 
-0.009574128881236692 
0.001646344794895226 
-0.002348295665659902 
-0.01231015252755577 
-0.007141385836548531 
0.004363554787074609 
-0.008964948619937697 
0.005863413249567594 
-0.01617187423212506 
-0.01726515836353475 
0.01469035883124163 
-0.002055796609872293 
-0.01114365783569597 
-0.001151355392530147 
-0.0007174848622235842 
-0.0005728341535204828 
-0.004142144030429213 
-0.006827045274687693 
-0.007797420051970584 
0.005032412674833605 
8.400309385339312e-05 
-0.003551779833967586 
-0.006143430377600143 
0.00114029562678261 
-0.003255484004377415 
-0.006040266948785711 
0.001266693191926387 
-0.002687778718052289 
-0.02314309499073201 
-0.003331660712902044 
-0.005586490250556624 
-0.0155394702143796 
-0.009298909665307139 
-0.002246035196822829 
0.0008918409242568951 
0.02238280010213539 
0.0145418819500381 
0.003626459859216238 
0.003599794284728433 
0.003180936547518858 
-0.001539084835822843 
-0.00489319688956468 
-0.003467833003097466 
-0.001207221078663575 
0.003728772591176055 
-0.004805086604645819 
-0.00244286515660579 
-0.007187184782601158 
-0.01200173937388616 
0.0008511159145576497 
0.003092050209912073 
-0.01800204929708282 
-0.005894249034723882 
-0.007640949359844206 
-0.007058581801258171 
-0.008072136393112061 
-0.0179358658913095 
-0.02405527282636245 
-0.005781838027961618 
0.006121157059960265 
0.001125733780419594 
-0.002055397292442387 
-0.002568244208510545 
0.004941817244114106 
-0.03703945244607883 
0.0008452511617346482 
-0.009670373816028746 
-0.01187574236996813 
-0.004471446576572327 
0.004050766749948045 
0.001260561266776626 
0.01848910779998537 
-0.0123139089883798 
-0.007208861041298124 
0.002853598611800928 
-3.09821677205055e-05 
-0.006576397596595453 
-0.01028382165875662 
-0.003565993048828819 
0.0128081185727044 
-0.007422647895555932 
-0.006966066335337829 
-0.00366311259291046 
-0.00917447088075435 
0.005658683650490804 
-0.0027574994749067 
-0.03073994697076945 
-0.005768813140073082 
-0.003119631253555427 
-0.01196199562702253 
0.009893817201599462 
-0.007995139588152742 
-0.01355704484868566 
-0.005357378238479075 
-0.004189147903475998 
0.0003130216298596939 
-0.0236477211663352 
-0.005558708872963404 
0.02466816918658852 
0.01169354695442708 
0.006585380345160072 
-0.01665770749509993 
-0.0150614562855925 
-0.01022746075664463 
-0.01763637840817649 
0.0112477342543323 
-0.0008823789089815117 
-0.003679758155838424 
-0.007082810090831284 
-0.005944034283094326 
-0.01560682228480863 
0.00243690371034017 
-0.01074483358962968 
0.001095887659158008 
0.002287873725268003 
0.001951107913739178 
-0.01276871919542477 
-0.01732309769780494 
0.006151280339849297 
0.0001227975512579301 
-0.005891793651169211 
-0.004564891527165566 
-0.01232185498677904 
0.002745633217145633 
-0.0008637867331561697 
-0.01106470950217088 
-0.003862128730700352 
-0.0008641207340851768 
-0.0009573233029725317 
0.006228500396291075 
-0.01714457573295504 
0.005249855681395305 
0.001606944630896526 
-0.005832171338499263 
-0.01248248168090149 
0.01429298643974126 
-3.916749988059846e-05 
-0.006626632852550686 
-0.006843114887908065 
0.003434341308541531 
-0.002255174048718959 
-0.007881127426655409 
0.004522285737386264 
-0.01199258018292588 
-0.002236794693688749 
0.004514016573847192 
-0.0001777357837797371 
0.01282810634018896 
0.007170471576520272 
-0.002680671959500047 
0.006214953021220226 
-0.0003080148177577252 
-0.004088468775908711 
0.01463949069111468 
0.002359299329060585 
0.006526122077662192 
-0.003878179190187679 
0.001636314083069296 
0.008793547918069085 
-0.003618133052309824 
-2.496257373167078e-05 
-0.002175010248411265 
0.00377726431251966 
-0.00431905668359116 
0.00818447870929832 
-0.003504006555758595 
0.00229927239600354 
0.006110229908027998 
0.01370623888700823 
0.00551429374229287 
0.0005622389954414161 
-0.00815084778028039 
-0.008013734985856495 
-0.003520222437137997 
-0.0001022290084662394 
0.002028854496467191 
0.002840490069362716 
0.002117518500463574 
0.008748498805941959 
-0.008658845042965647 
-0.001842444932128123 
0.004332040867396237 
-0.004525917943505953 
-1.492466899786701e-05 
0.0115848159810454 
0.003688454202842079 
-0.001598477099727982 
0.00832901917459835 
0.01225427643873534 
0.004309516897668372 
0.01249714891450223 
-0.00156113230908108 
0.009328051707251065 
0.02344752755816522 
0.002581348442280909 
-0.006727840743225946 
-0.003058288195090414 
0.002474791636561042 
0.01154850948334145 
0.01156818112824617 
-0.002716893415627275 
-0.005614506209905115 
0.004532708948814001 
-0.01283401497565522 
-0.009515557351908698 
0.006671928430027177 
0.007116423594387446 
-0.01036974059442013 
0.01463210691490909 
0.003541354243786021 
0.009282601360144388 
-0.003447797351951012 
0.004127986712030448 
-0.0007985637088920192 
0.003550891663647656 
0.005456175087764693 
0.00393652422021321 
0.002362057905561358 
-0.004005340672573699 
-0.002160859790796734 
0.001846069901878848 
0.005058739231968113 
0.01366887157051407 
0.002787491474349691 
0.007390853154725514 
0.002816762679190665 
0.004707442851771362 
-0.0008378403946149672 
0.008612224218684347 
-0.0001900030320742796 
0.002067626706502626 
-0.005147924830617163 
0.005132911036911134 
0.002105081420382039 
0.004967007959883641 
-0.001667129426025813 
0.00298923653709778 
0.004168292284137814 
0.01327098957302808 
0.01708680161548342 
-0.009682769525840807 
-0.002762293567248099 
0.0129917820657622 
0.002568507327856785 
0.01206176639551311 
0.01544763712646994 
-0.005354694508285419 
0.001825510630813202 
-0.006488284669888407 
-0.002119583357386566 
-0.005076889006994514 
-0.003928050342179185 
0.01448687791494933 
0.002473767276682007 
-0.006613333187339291 
-0.001627885463246707 
-0.006520980970110645 
0.003328317998490218 
0.01034213186289456 
0.00167129007669452 
0.005638038720171877 
-0.001884562515857019 
0.007696544518179888 
0.001125109576542243 
0.004154043765483322 
-0.002435677950125915 
0.00206917623076055 
-0.003914455711565708 
0.002993572472933342 
-0.0003169090838006402 
0.007344244063406514 
-0.003355362791446689 
0.009237047572588652 
-0.006774715696307511 
0.003585088804508138 
0.001532566052002433 
-0.005482971896668394 
-0.01482520833444133 
-0.005625128594989859 
0.0024234386206398 
0.007397643966982186 
-0.0009930507206563951 
-0.0006996689758626135 
-0.004450867425382189 
-0.007459130728784543 
-0.001946682017047613 
0.003695198868896407 
-0.00104664012127954 
-0.004873126308063856 
0.01615642406446905 
0.0007877303260279647 
0.0001316625041686166 
0.0009681524273913695 
-0.02268124035023143 
-0.001052809974165479 
0.0006014046660046164 
0.004244184572961591 
-0.004899512598317392 
-0.00135044624527141 
0.004309103127801219 
-0.001868664239145831 
0.003962911383460174 
-0.007038536098134061 
0.0009016246366670282 
0.004268097719872438 
0.003257500269995128 
0.01303630921721177 
0.004111302415693424 
-0.003308873772757239 
0.00222240516841482 
0.008634976720164996 
-0.001300602512376103 
0.005982187289193199 
0.007243396773993705 
0.00452261050681268 
0.02904706222133475 
0.008923060668197752 
0.001285557611322672 
0.007195136544162244 
-0.001888469448187784 
-0.0007255339463941567 
0.003300531937453245 
0.005015473769367006 
-0.002922185355508161 
-0.01063885951256486 
0.007075302229816487 
0.008679831983730709 
-0.0006997609562495039 
0.003636774181753968 
0.004706333363169908 
0.01148576694375958 
-0.001211772405314009 
0.005402125484334068 
0.01611292859644167 
-2.458328641081702e-06 
0.002394839010613998 
0.01059707414938903 
-0.00875271334620671 
0.0151763884590326 
0.009339196950659063 
0.0003211642004894447 
-0.0006034887274406385 
0.006635422192963282 
-0.004352769953290746 
0.007120959304963081 
0.005735413286637982 
-0.003954596800250431 
0.01774809575650758 
-0.01043536388604207 
0.002685403683899932 
0.01411552835779576 
0.01150303409051068 
0.005984788689947361 
0.01361915921089977 
-0.005109218330061108 
0.008840570027730921 
0.002830895408900895 
0.00627536178191928 
0.006901015000686552 
0.003723498989307848 
-0.007087626960081328 
0.004755057990816919 
0.01333640601766023 
-0.01602232438004247 
0.006596380614249555 
0.001794135805256737 
-0.004652296932053585 
0.007468312302010427 
0.01699024441673355 
0.007264091758910599 
0.003446768177928082 
-0.001087741533734899 
-0.01232251043670458 
-0.004037578587132586 
0.005475625162118624 
0.006842521384086611 
0.003720884206912188 
0.005404909930026285 
0.01226487546630529 
0.01533449986089392 
-0.002610465416929569 
0.01067324346639919 
0.001478801488510838 
-0.004323892958099941 
0.01855708267951694 
0.01722740558252374 
0.008772846988334006 
-0.01049336863736469 
0.005871191227753932 
0.01017219368454156 
0.008755618614534619 
-0.004476898124695682 
0.003166941321020913 
0.008297474594774618 
0.002633980830004412 
-0.01283250159045361 
-0.005405260991499674 
0.01223523368450707 
0.01358055470008361 
0.01208521404902307 
0.003181857845263484 
-0.0006480602493972246 
0.01353227893299714 
0.02399004389200253 
0.0002831562786954418 
0.009797190163626584 
0.008890197417924219 
-0.007548620325830972 
0.001523158473483507 
0.011774739712832 
-0.0118408764198546 
-0.005521243250148757 
0.002094997163259073 
-0.0005165936728000405 
-0.003633153800217992 
0.007981143567689553 
0.01456450753186121 
0.0009456584190515563 
-0.006247019436634947 
0.01075377372602746 
0.007477840363472151 
0.004277635210453446 
0.009566262000102427 
0.01615648730251256 
0.01290124396369503 
-0.01049320602419366 
0.01093182994487344 
-0.01486220777588471 
0.0132302079112088 
0.004765459819445437 
-0.0159315839300402 
0.0007995168804444012 
0.005450081005289363 
0.008081168126987809 
0.009624043119757725 
-0.009474700022897992 
0.01197302153852176 
0.01124542725365198 
0.01426475648350277 
0.01559376682017726 
0.0004920814671601178 
0.000152446491106388 
0.008454512760304782 
0.003268984109009293 
0.00557274211223172 
0.009521115320426663 
-0.01357919304763336 
0.009419830670310868 
-0.001362544483528007 
-0.002636696202443381 
-0.006785118452170506 
-0.000213689949291831 
0.01498348801937472 
-0.006576474389379083 
-0.01127367522604664 
0.001218682143191777 
-0.006665625788442779 
0.008166300677973849 
0.008683728101925314 
-0.001253908255762284 
0.0138456110424337 
-0.003488003402989505 
0.004473553826381579 
0.005372709326878335 
0.01037390724706514 
0.002541351079420381 
-0.008156974714215563 
-0.001077643053184775 
0.006578439314379117 
0.005494483087200333 
0.00962431222091866 
-0.01203544064273178 
0.010419687577167 
0.0004843231103426383 
0.004512573834958223 
0.006153809117755798 
-0.007872972958255182 
0.00473181939739343 
0.002709324248465768 
0.01690156038449649 
0.001159569053577767 
0.007176879539009517 
-0.006891108843486162 
-0.00154381428877724 
-0.004101551026964203 
0.002914876981499901 
0.007516509324834814 
-0.01789960781638248 
-0.002450139720149196 
0.01165432635235645 
0.01083071354106004 
-0.009858609154836518 
-0.002258569481290804 
0.0008827546663121242 
0.004356597122221873 
0.002681167280257503 
0.001346007279447475 
0.006239029022846732 
-0.02696021237406616 
-0.005540798556962384 
-0.00445528578139096 
0.01264085263852577 
0.003031630961489885 
-0.007329427697980525 
0.01286532344002054 
0.008412921422172686 
0.009004268798928636 
0.01295838385653104 
-0.01322298014945869 
0.01474834425616612 
0.009407142415179133 
-0.005210388364883299 
0.01049664866539482 
0.01305645019202637 
0.01047955702820065 
0.01808370226676999 
0.003901311205053983 
-0.0005540994630744932 
0.01669925765910606 
0.0009211630712766275 
-0.001430365633475691 
0.005674145504178259 
0.006895647527897443 
-0.01167656563433444 
-0.008778486279571045 
0.01540385797426281 
0.009122246800428998 
0.002701093057491985 
0.01233671625953684 
0.004126676449421922 
-0.0005588950779092341 
0.005460247470162892 
0.007682320036997002 
0.009934178917744323 
0.00243230907914309 
0.01376320948910073 
0.0140565332460983 
-0.0061076330534651 
0.01307048622176245 
1.914991165256785e-05 
-0.001430083730879764 
-0.0002894634374541408 
6.610091760622935e-06 
0.01133895688720277 
-0.00311677773704035 
-0.0001966939992633872 
0.004651448551381259 
0.003933593233699568 
0.01286057321807684 
-0.00112028175630519 
4.007673307030765e-05 
-0.0004305001659737795 
0.002885310598547971 
0.01313095396843166 
0.006527057604357631 
3.005461333424959e-05 
-0.003203200655613594 
-0.0003302511998360147 
-0.0001356563503380112 
0.0003571673334398956 
0.01426902358900712 
0.0002831668716971761 
0.002103421535777607 
-0.006012959213497254 
0 
0.0003299403412782807 
0.004236733563485494 
-3.260613297524227e-05 
0.00394679567207078 
5.728809252415677e-05 
0 
-0.004170676767781347 
0.01067892162275902 
-0.00258819771588639 
0.0001216720573420719 
0 
0 
-0.001089131001843213 
-0.001029813261424211 
0.0002130422347605832 
0.003931775213425667 
0.0005161053535808541 
-0.0001125760716573582 
-0.003441923789561764 
0.002137585943490684 
0.0008662108205095738 
0.005413249525545741 
-0.003888368288048691 
0.001716400214075144 
-0.002135864769790128 
-0.0002130702296791226 
0.01249344265080854 
0.002205562987844712 
-0.01209430052936477 
-0.002264555671231165 
0.002122815646493076 
-0.005365394367341507 
-2.95071968753602e-05 
0.0002929641253634045 
-9.654191681715953e-05 
0.0005314235555316927 
-0.003176158286092486 
0.001005476156982692 
0.004473577785431077 
-0.002744806095538068 
2.660327670817799e-05 
0 
-0.002550423214689451 
0.0007253551783839263 
0 
-0.01578815781447247 
0.004477773847611563 
0.001113432603500226 
-0.001194634365437722 
-0.001033916439263121 
0 
0.0006851442963117611 
-0.001538969383413005 
-0.007015312577114219 
-0.0007412056726989926 
0 
-0.001819354910514664 
0.007737947241859695 
0.0007062010599123351 
0.004886550085518847 
-0.00630822879394042 
0.0003881948584755573 
0.003483543792002014 
3.59949113910892e-05 
-0.001357443962400813 
0.001172308771188212 
-0.002439115649504816 
-0.001379898916691936 
7.491024070283067e-05 
0.0004971830751352492 
-0.003107011080475256 
0.001803245556129114 
-0.0007157460381743121 
-0.001051290104798237 
-0.00213356486266129 
-0.01051410750995646 
-0.001285365436091103 
0.0005176077102435508 
-0.002490088831377845 
0.003710481020810823 
0.0002388907329383152 
0.001099410848754107 
0 
-0.0003514373344481475 
-0.002931644976785646 
0.004793517222447919 
0.00428219564751442 
0.0004017837393625808 
0.001228942879285242 
0.007305042637818724 
-0.0001330429389354759 
-0.003132742692006877 
0 
0.0001230856553186669 
0.002996230131378382 
0.0008697670331427247 
0.005095674693127424 
-0.0005127848932540495 
0 
2.042817804755095e-05 
0.001584499327160266 
-0.000974300703487171 
0.0005320893345298453 
0 
0.001956425645250033 
0.0001686543218756786 
-0.007644607504147648 
-8.433086833109976e-05 
-0.002051438531716256 
-1.155721389714946e-05 
0 
-0.004750410167133165 
0.005923870815072885 
-0.004808621242803345 
0.001689469727109318 
-0.0008559122672380335 
-0.0004845090355483813 
0.001668722734222656 
-0.003449884072065462 
-0.003401772741055072 
-0.00206292612746876 
6.56065638212773e-05 
0.0001673227234914413 
0.0100871845565216 
0.005062490392571797 
0.0002441922996198938 
0.008368420523759228 
-0.002467366649650821 
-0.0001625344419341336 
-0.003577103147807615 
-0.0005167914475032215 
-0.0004494055583093466 
-0.00276953382503799 
-0.01718216423688445 
-0.007490541119527538 
0.006030425620296268 
0 
-0.00115617753349916 
-0.002675272495153451 
0.0002398829538035552 
0.001584209803568299 
-0.002260382255810929 
0.0004312036210929443 
0.001114351398758229 
-0.005366736339962142 
0.0003963378813536806 
-0.00114538726792214 
0 
-0.001034531134228018 
-0.000722811082046298 
0.002026031139170952 
0.004905287290415137 
-0.000437680180430084 
0.001813085734387244 
0.0003941979229983756 
-0.002920911253028736 
-0.0001447924141512975 
0 
-0.005217047981932931 
-0.006283868587484245 
0.0008000627337514292 
4.723877383208738e-05 
-0.002764077836910439 
-0.002041224763564037 
0 
-0.005434480767820796 
5.090363310091266e-05 
0.000111961286047517 
0.0001429515869866276 
0.004711817763999162 
0.001054195017167646 
0.01352098166864063 
-0.0043056725285712 
6.183657215194715e-05 
0.007974824317247288 
0.01034803975454392 
-0.0009739253652666296 
0.01064357045184047 
-0.01701828724630653 
0.02264535860333378 
0.01200452079803613 
-0.01155871303161282 
0.008522209346545049 
-0.01837872251759813 
0.009783156077834169 
0.009495521700509515 
0.02722841999537086 
0.001291916392592774 
0.00777316979083304 
-0.02242013249924918 
0.00642048067693693 
0.00671546926378013 
0.008156696493534987 
0.006738126480320743 
0.01477579151320433 
-0.01467049308709235 
0.008791317164625742 
0.02042122079201084 
-0.01876256744614526 
0.002528502260809274 
0.0004487040398344467 
-0.01173842067934808 
0.01122022378890166 
0.004583359652628775 
0.01421603145301334 
0.001721906631861332 
0.003541526952587405 
-0.008244315391504869 
0.001935334798205317 
-0.0001613609239079464 
0.004781185013201871 
0.003600060338176007 
0.01464694983259039 
0.01236372469445147 
-0.002911870088917181 
-0.001834266801196083 
0.01261648369265856 
0.01646388208641748 
0.002058089232508178 
0.01263039710268539 
0.01853671308270073 
-0.01279345134800866 
-0.009679859205590252 
-0.006343979411963812 
0.003869518100788664 
0.009172954087017918 
-0.0147142412753386 
-0.005048046706519518 
-0.01964643543252444 
0.01626667483805464 
-0.01162559684008083 
0.01353163524043554 
0.008709840281479676 
0.01990179885286328 
0.01888622911286022 
0.01375389901748711 
0.004027519011320906 
0.02414181453009639 
0.003932235614657499 
0.004527491257796281 
0.008556322977845206 
0.005404007725532138 
0.01128962802424244 
0.000613227765470588 
0.008462795471790689 
-0.03672986277414262 
-0.001100737472083098 
-0.0009869697389510036 
0.001068355898206112 
-0.01731902419589141 
0.005840270815621318 
0.01845225563681374 
0.001499157471308007 
0.003529975335483016 
0.03518041283234437 
0.00400311753871316 
0.006124856972468135 
-0.001801469511702656 
0.02339625580649281 
0.0002096841931250152 
-0.006954757690832387 
0.01087820559971665 
-0.01073938666457691 
0.007283268708325553 
0.009051517245299638 
-0.01042584405430264 
0.008020475961501941 
0.02019620290828411 
0.009764155200427978 
-0.00323588296294231 
-0.01491746715897689 
0.01668501435418241 
0.01349537650020791 
0.01015765249233203 
0.01258380992854523 
-0.02028521337819203 
-0.0006052515750497226 
0.006336135860542203 
0.005289991183253572 
-0.001432283344595183 
0.01028602352070177 
-0.02270518675007631 
0.006390305844860853 
0.01666664309279692 
0.002010927220106423 
-0.006822651801437865 
0.0007154882734298302 
0.01231089995375921 
0.005957064023114438 
-0.004056731288525678 
0.007163756948624574 
0.01131684617048665 
0.006397502423470476 
0.01501340930549192 
-0.01335761476404182 
0.02537962918378506 
-0.007490304824183493 
0.01483496469218168 
0.002956504982216572 
0.007363457430605414 
-0.005248663784959929 
-0.00932195615338878 
0.001186951820497495 
0.006561089087800479 
0.01558522424664359 
0.01368027546294138 
-0.031093323105418 
0.01901888368876504 
0.01258013807586504 
0.004454601636959822 
0.003388525215313111 
0.007575518733681967 
-0.007044016304642895 
0.007901747722750704 
0.03456083132806868 
0.01115025774810579 
0.01212395775606478 
-0.002898699937068223 
0.003734548072103664 
0.0159178320115191 
0.004816150728030071 
0.005873826930503259 
-0.01094143683568087 
-0.002733380220365972 
0.001758702951811613 
0.0214621450772159 
-0.01069023648588511 
0.002000808591099796 
-0.01873183301692065 
0.01137797686023204 
0.001346883893042109 
0.0007614259049417195 
0.007834123238944947 
-0.01273830632923231 
-0.01525095017942098 
-0.01260460330115988 
0.009655139023852132 
0.01447752691734796 
-0.005916912539036517 
0.004678591494744816 
0.01352017434048877 
0.005877933007809802 
0.01521399187292015 
-0.01267621026072976 
0.01476004890134398 
0.01402900147096869 
-0.00925781421965171 
0.007901864355128425 
0.005626249009727686 
0.008550426164559252 
0.01750264246709032 
-0.005215693592042792 
-0.003592824911637034 
0.01094924704871152 
0.01020720728756037 
0.004135146478298506 
0.01259096481631173 
0.003684389595321539 
-0.01389925652984025 
0.01029364862925635 
0.02306494191005569 
0.004578884801045406 
-0.001838979471746783 
0.009604075151905776 
0.003160609721759945 
-0.007771799657178891 
0.01487801888297795 
0.02615526360121316 
0.008774996450009646 
0.002123451925035712 
0.01418274928567675 
0.007300457294315489 
0.0009658687880225085 
0.01259359231347446 
0 
0 
0 
0 
0 
0 
0 
0 
0 
0 
0 
0 
0 
0 
0 
0 
0 
0 
0 
0 
0 
0 
0 
0 
0 
0 
0 
0 
0 
0 
0 
0 
0 
0 
0 
0 
0 
0 
0 
0 
0 
0 
0 
0 
0 
0 
0 
0 
0 
0 
0 
0 
0 
0 
0 
0 
0 
0 
0 
0 
0 
0 
0 
0 
0 
0 
0 
0 
0 
0 
0 
0 
0 
0 
0 
0 
0 
0 
0 
0 
0 
0 
0 
0 
0 
0 
0 
0 
0 
0 
0 
0 
0 
0 
0 
0 
0 
0 
0 
0 
0 
0 
0 
0 
0 
0 
0 
0 
0 
0 
0 
0 
0 
0 
0 
0 
0 
0 
0 
0 
0 
0 
0 
0 
0 
0 
0 
0 
0 
0 
0 
0 
0 
0 
0 
0 
0 
0 
0 
0 
0 
0 
0 
0 
0 
0 
0 
0 
0 
0 
0 
0 
0 
0 
0 
0 
0 
0 
0 
0 
0 
0 
0 
0 
0 
0 
0 
0 
0 
0 
0 
0 
0 
0 
0 
0 
0 
0 
0 
0 
0 
0 
0 
0 
0 
0 
0 
0 
0 
0 
0 
0 
0 
0 
0 
0 
0 
0 
0 
0 
0.0009816483363442549 
0.01065425708689457 
0.005685579965320014 
3.474690647342395e-05 
0.004092384408197034 
0.003395286620244379 
0.003168235444577165 
0.003408595888907913 
0.002588581105123289 
0.002357348793300016 
0.003236664639104592 
0.002023454552809324 
0.001957095186959168 
9.107196699285303e-05 
0.0002986564913778698 
0.002323538768939707 
0.003256407879568642 
0.003921379475424595 
0.002520203953943895 
0.006803930109379307 
0.00384532792781572 
0.000668932389588286 
0.0009447475415986634 
0.01069622967695177 
0.01261499283942777 
0.001911731234408923 
0.0005369997236549845 
0.002159565600605739 
0.004912638659588584 
0.003140053389015462 
0.005278626801462118 
0.005893257747658638 
0.003884065897067769 
0.003759300521661068 
0.01635019459864944 
0.003801609158842475 
0.004146978279865656 
0.00279872236535684 
0.003948262297859731 
0.003210348964249712 
0.004683025920429338 
0.001221547326994746 
0.003315870554000742 
0.0005730251036035846 
0.0003257909013763711 
2.72075057128597e-06 
0.001461477089177142 
0.0004266629561433233 
0.002466863017475073 
0.002214075659946007 
0.002790189981661625 
0.00298052694955304 
0.004347945215143928 
0.001300704033447208 
0.0008249683949261148 
0.003133122367215812 
0.002571767495261441 
0.003444510334006609 
0.00229747259659431 
0.003595553594947469 
0.0009025279078572775 
0.003925452991781774 
0.01270991159970595 
0.003307947521740427 
0.003642437445291336 
0.002710426608417946 
0.0006646082942774296 
0.007220020888942023 
0.002113589004927774 
0.002846329690763534 
0.005575651349143443 
0.005922724145442617 
0.00204895160612501 
0.004945261606852088 
0.004909540012942235 
6.303962283919056e-05 
0.006056611229044232 
0.001287299720576694 
0.0003376325671034692 
0.003159853730379244 
0.01298904606531977 
0.001108431994224772 
0.002068197263384185 
0.001531516935142948 
0.00186530947783795 
0.001771143278187506 
0.0009593781598291912 
0.002422317132270593 
0.004097451033912267 
0.005630529614714587 
0.001235105905115116 
0.00337021843280781 
0.00297404968084643 
0.006839738671482172 
0.0008409829486591858 
0.0005450712861860682 
0.003334329280388299 
0.004283527257178213 
0.002046195983665727 
0.006284739695110305 
-0.0002943123625025679 
0.002673535190669841 
0.003791181275137337 
0.004120447723008037 
0.000145676929353429 
0.004970975597054532 
0.001951158005107347 
-3.289712552322624e-06 
0.0008348689176010536 
0.001463070095631311 
0.003834272550289123 
0.002158200939225398 
0.002005592523793346 
0.01308791607688162 
0.004108567207170263 
0.001486892512123343 
0.002503941933916453 
0.0008792040057020339 
0.003319376764154634 
0.01078210768539624 
0.00321543461095155 
0.001155072743369253 
0.0163358163517637 
0.003029174620269044 
0.003843424469463722 
0.001927223582757059 
0.004453566765614222 
0.004089885740124762 
0.002131074914962408 
0.01284115954798745 
0.001339004820769034 
0.002795378484680333 
0.007053788015626659 
0.000761495361192545 
0.004144749446786678 
0.001608346003315229 
0.00347050017186325 
0.005611672898658501 
0.001362245313221847 
0.005527070878748484 
0.006233241219877389 
0.001886604598710848 
0.001309327967974337 
0.004092903840218042 
0.006598203434603783 
0.01171316306364736 
0.004096847411519586 
0.001970179342624992 
0.002036935873992872 
0.002791262930565706 
0.003212856087589121 
0.004631937745157294 
0.003042967698244743 
0.0001024067158677508 
0.003002314184279855 
0.002319862456198092 
0.009849828555854387 
0.0005341148050490134 
0.0004369638874735612 
0.001481890149878883 
0.002507892168965414 
0.001819369021467762 
0.00720091532899189 
0.002098168066507903 
-0.0007472548032437683 
0.0004608912360794183 
0.004250916443204693 
0.004440922352764798 
0.0006052871934882169 
0.004599460406072246 
0.002431107248997683 
0.002702624799408904 
0.002603232625775154 
0.004577909699206008 
0.001736205887139911 
0.002434559360356114 
0.00185607842030856 
0.001899639470709975 
0.01037713890558852 
0.002939850284001676 
0.003333843174514092 
0.001253257376380263 
0.004578003704316741 
0.000264208101586223 
0.0009125050161360055 
0.001731264786454206 
0.00141877090442292 
0.0001186153036262065 
0.004138216877003857 
0.003075152209419791 
0.002475248143162696 
0.003062417736965106 
0.002295040546518112 
8.304793332907611e-05 
0.003701094070773213 
0.01459925102340731 
0.002915387657770506 
0.003296489035661985 
0.002184166027181306 
0.003177709857094641 
0.00121372191166658 
0.0041099646410427 
0.003206624030724968 
0.002252367878428163 
0.0005088181663062716 
0.0007622064282410667 
0.00168123562770077 
0.002793170643780813 
0.0004850550240336261 
0.001168332139289871 
0.000508080344184323 
0.0004432430529099977 
0.000785171048299797 
0.0001217650181071674 
0.0006041843994458593 
0.001740865963678164 
0.001296412113882388 
0.001789988049698503 
0.001217499758643321 
0.002555231978841453 
0.001739406475453128 
0.001104545834130957 
0.0005001974751900138 
0.009861687721613182 
0.007623779324892997 
0.001750102840712056 
0.001215875777894394 
0.008697035450726431 
0.002661526503780208 
0.0005661119881137333 
0.002907849453648553 
0.004285013161692826 
0.001613544047074489 
-4.760977992460273e-05 
0.009902353709142411 
0.005924132306734785 
0.001243845027631805 
0.00319961268549021 
0.003641412156345723 
0.004257646458619388 
0.002139292027077162 
0.001889317191000392 
0.001347185668595649 
4.880072185911524e-05 
0.0002909236988646174 
0.0001257105669790539 
0.0007114552795966833 
0.0002504708271427055 
0.001606446528575373 
0.001424635360676467 
0.001180793204218626 
0.002464975074963933 
0.001964933643625863 
0.001036948008903679 
0.002362216429150715 
0.0008869167456793153 
0.0005856613195873708 
0.001998388139726833 
0.001700719666776971 
0.001481540681268715 
0.0002251103178595136 
0.0006350122426129235 
0.007054611487525859 
0.003522229046240134 
0.0009361567138121185 
0.000954027197369001 
0.002464051197626543 
0.007233556272101124 
0.0002454104082289667 
0.001006092691748871 
0.002851019238068785 
0.004460821385375288 
0.0007691889450084704 
0.002304878926567458 
0.001722196778680442 
0.0006716543323924701 
0.002405251138455775 
0.0007707075442433591 
0.0003690556681189749 
0.001344857701291271 
0.006711413466987716 
0.0001973032349726337 
0.0008846141289070976 
0.003512931615853041 
-9.6690880964835e-05 
0.001701740923710048 
0.002524522809833361 
0.002415253949896595 
0.001157168919505854 
0.002429162183125388 
0.00209377341200336 
0.002500552708713362 
0.0009105645124286369 
0.005097053097734496 
0.002324810033223343 
-0.000352873763446972 
0.002252002910451232 
0.001789629979633457 
0.00230023886914713 
0.003047192669474965 
-0.00102773572123665 
0.0009189485549182653 
0.001601305672770545 
0.003112899749987749 
0.002179763222648844 
0.001948088831071176 
0.000822799853173942 
-9.789812970180236e-05 
0.001526388510854106 
0.003336467665745556 
0.001901360307022893 
0.0008516045627047867 
0.001812891730112278 
0.007877581246998241 
0.001826949628967585 
-0.0008744960003817492 
0.0004520629393151668 
0.0007216712966118805 
0.001708057123785814 
0.005661732049506217 
0.001699122967908849 
0.001826640778640149 
0.009091158832291269 
0.001212992399643315 
0.00645164896495122 
0.001262720285992877 
0.001937432183753963 
0.002375787398539111 
0.001087190110120038 
0.0073789407950684 
0.002060897415529434 
0.001178645424562625 
0.006739820298820203 
1.544350512223937e-05 
0.002368062806266748 
0.0001123205790357983 
0.001396965531190896 
0.006359687294270887 
0.002325035050095007 
0.00266415813328117 
0.002705872654650489 
0.001976121510765751 
0.005039635536730809 
0.001527625480774487 
0.002743834119970185 
0.009118969173770555 
0.001964517162819148 
0.0005183080724422338 
0.0008276597723318004 
0.001976392788601575 
1.420690864551962e-06 
0.00189899048548492 
0.001235534875523079 
0.0001630996494451205 
0.0009280715899392679 
0.002041651265038006 
0.004600419581338291 
0.001013170125097414 
-0.0001166099305025292 
0.001074257002409222 
0.0005691511940843552 
0.001652347874278082 
0.005581043831393763 
0.0006293784799488134 
0.001191426252933344 
0.001464783707346721 
0.001916478535433473 
0.001370122240545384 
0.003644847523452562 
0.009496481816474951 
-8.587075620510514e-05 
0.003051675526174157 
9.338747318820195e-05 
0.001182057505282182 
0.006621748129510964 
0.001309622065923851 
0.002808472409335616 
0.001106053142025608 
0.005440846328889518 
0.0006869610088412054 
0.001630441419000085 
0.002769670297047021 
0.002975457090378217 
0.0001315365639900405 
0.0005884328086266837 
0.001092548219397028 
0.001582526564087216 
0.0001581599961349895 
0.0007046764183227859 
0.001401178807886523 
0.0004406134892585695 
0.001412202100024845 
0.001680551021796819 
4.22235452553202e-05 
0.001490378557881728 
0.006370771885629134 
0.001490665427927121 
0.00144754260137819 
0.002512151999404628 
0.002038850451867984 
0.0001809454996695122 
0.001935766639865727 
0.008105524504799299 
0.004495401110628032 
0.006025242935612923 
0.003942798502574579 
0.008349263974156858 
0.0007661260216999726 
0.002218783379668719 
0.009671049771475197 
0.007318968305319109 
0.004867293124003623 
0.002314145586749037 
-0.0003076112481704201 
0.002445586816650276 
0.003025222428208303 
0.005620505980747914 
0.00202829612213704 
0.009931084581236089 
0.005990965248108019 
0.00767960985968816 
0.002385351869936433 
0.005029971969667547 
0.003012584283785938 
0.006030654165835578 
0.001919787781963359 
0.005476352157844673 
-5.396573761463634e-07 
0.006979712882517341 
0.007004757084608241 
0.01284702320995089 
0.007165575390090955 
0.005079573230079991 
0.006608351414090146 
0.002716853181371255 
0.003922124254459417 
0.005710260996023886 
-6.753818753515615e-05 
0.00309526079737768 
0.007681493384222724 
0.006089169985804208 
0.002682456403285291 
0.004881146431273391 
0.002417411884688636 
0.0009237167349683977 
0.001601483303258572 
0.01087158309994917 
0.0005149012803133653 
0.000251607117685784 
0.002217355098006477 
0.006247952922352898 
0.004159486806476782 
0.00471075712746869 
0.002134152506485136 
0.00360834276146533 
0.003780471428267887 
0.007754453461418885 
0.002638979605030251 
0.002867313465668317 
0.007010396863942303 
0.002511443688275027 
0.003993698199216812 
0.004137958159097273 
0.001937146730431987 
0.011174462125469 
0.004930346242380434 
0.001764247303094634 
0.006204587503406852 
0.006508011301019336 
0.006217103004009121 
0.003492401617112295 
0.008382279032082185 
0.0008752691230723141 
0.005443532486038682 
0.005766539457622359 
0.001787674819253189 
0.007619217056353141 
0.009219390276245371 
0.001632435688797943 
4.398268132121102e-05 
-0.002728177051089502 
0.002556717895135607 
-0.00115151570183308 
0.001240972346946882 
0.00458738041419597 
0.005362128056704136 
0.006152721158048577 
0.007545167042741241 
0.005193793593393096 
0.008710258555338158 
-0.001607612587763202 
0.01224886674354774 
0.008926012951921228 
0.01352556152066631 
0.001481159018536523 
0.0006640518926773429 
0.005657803540815512 
0.002873097070001695 
-0.001052495313903636 
0.01205617304086884 
0.01107919763931092 
0.003204667940592275 
0.003280247504163634 
0.004572375525085118 
0.001056416797581085 
0.005344083153057652 
0.002868850369966205 
-0.0003793519240281013 
3.364071858244825e-06 
0.003843636398232552 
0.004630599865034479 
6.201719554656085e-05 
-0.007380651618860515 
0.007952225227954661 
0.004511534914172255 
0.004109385936991374 
0.008073208257400372 
0.001606057883610068 
0.001305719851045899 
0.00630571658859449 
0.007502599176633375 
0.002459793892280104 
0.005834610124276789 
0.003393309296942751 
0.003739420470575421 
0.002807691709963911 
0.005767719732914131 
0.004705865960762099 
0.0001696080004444908 
0.001020069895800245 
0.01215414895706842 
0.009850868913444392 
0.003209183698727689 
0.00203059052127652 
0.008580603552333369 
0.003093754328730434 
0.005005753242792857 
0.008982148614651955 
0.006569865792770174 
0.002595246419523132 
0.006562354564120384 
0.004691898522378259 
0.001351001753790784 
0.005592915903935215 
0.004920430179931624 
0.003949371064028339 
0.001504006320800597 
0.001050181965627108 
0.003273027811086566 
0.007548479283167821 
0.002799334069734311 
0.003544219194756427 
0.007231702190057207 
0.0008182834834516419 
0.00498127944704752 
0.004700606003923428 
0.002086627088311957 
0.003403089303466928 
0.001380672265524769 
0.005824341419160884 
0.006933433321549765 
0.004644335897446835 
0.004908596663785004 
-0.001280123908337736 
0.002451080986069081 
0.003787188004020874 
0.003220590260782749 
0.004184282958684809 
0.004964246518730626 
0.009150905656619758 
0.006128123557318258 
-0.001280397375635914 
0.002770365496472175 
0.006116625842303158 
0.005047871732632273 
-0.001222544759131153 
0.004296609947634583 
0.005591311486371764 
0.01385725545468584 
0.004056219180486023 
0.007894740790459822 
0.002977429465509158 
0.00852567685468766 
-0.0002350115036012264 
0.003782202587100721 
0.002501832154929829 
0.007769339013858833 
0.00053894507863119 
0.003087442713399037 
0.003384722845172123 
0.003937368672654307 
0.0008482997102444417 
0.002419845296650595 
0.001515467917395471 
0.004285364932150081 
0.006552307324169342 
-0.000250380234238761 
0.002810962108603986 
0.007193068260216268 
0.002352595541839044 
0.008026453765719904 
-0.0185412569739479 
0.02588997004955845 
-0.000121010556345307 
0.03503302487920013 
0.02183686593641526 
0.01593771430931299 
-0.008524533212988494 
0.004464158177511937 
0.02182456974196265 
0.01478861968647074 
0.009400361208481946 
0.01395739843204838 
-0.000283652247415778 
0.002512817693880558 
-0.001919797937158732 
0.008821156152755014 
0.01588241846613172 
0.01475471112404391 
0.03465367771048255 
0.01818858041693039 
0.006110157871961077 
0.01280485912065909 
-0.004027952958020424 
0.01688287757475756 
0.005797501052822232 
0.001869761329074276 
0.008142646173381856 
0.02651775576523666 
0.01945108083941933 
0.0178957927407946 
0.004152715200543773 
0.01636153742119189 
0.007339572770830989 
-0.001621124204130951 
0.01854491917114731 
0.0120782242565893 
0.01459872381428519 
0.02116234374426887 
-0.001089133128953662 
0.02211453879913427 
-0.001807464928892047 
0.01632794917199286 
0.005983605974403138 
0.001562645507516208 
0.00236773275416483 
0.01730514411100996 
0.0023224497577636 
0.009866011938779441 
0.00636874006472092 
0.0154048200632834 
0.01329039209918304 
0.0217797425427931 
0.002453091652528772 
0.00986961098362333 
0.01123203029787615 
0.02010200770406547 
0.009057031100699414 
0.01545725550352651 
0.01511105043253948 
0.007386197129337772 
-0.001043003339222758 
-0.003241396681789742 
0.01010964303577402 
0.01820007614471078 
0.007333265973464983 
0.0104937281038269 
-0.009306320556044191 
0.009214573045586628 
0.015330079744546 
0.02822920478677453 
-0.01430033139365462 
0.01383098662183002 
-0.0229451684090522 
0.02153199242309263 
-0.002534761870702739 
0.02827265922746208 
0.006318237883312246 
0.0008359086604264814 
0.00510929999381537 
-0.008355549009145058 
0.005520910530112322 
0.01508978010336547 
0.012194335882005 
0.01012809943105515 
0.01140361392568228 
0.01785367232801351 
0.01611758735595924 
0.02193044699702868 
0.02527239894908081 
-0.005868799475318734 
0.02189433654392622 
0.03504549973059709 
0.01063590899545399 
0.01049697705843301 
-0.003586632126900214 
0.0183459995999561 
0.01296303245696926 
0.0002896918150063056 
9.380449293840164e-05 
0.009811065186043418 
0.005680945542988698 
0.01956116701803716 
0.008048129050293566 
0.0008278496871214841 
0.01275735625967435 
0.008281028553674958 
0.0002487291942651609 
0.008637180845293723 
0.01927861487125306 
0.01973386539965415 
0.001694357649685896 
-0.00266860698556137 
-0.009663076315008623 
0.01679914833990865 
-0.002740309309543825 
0.01069274102936145 
0.001163181154626313 
0.01210399551814295 
0.004882388861151654 
0.007435972482003074 
0.005505484634725101 
-0.003565020385320603 
-7.744780794520719e-06 
0.01029784027246387 
0.01376016785005479 
0.01849912408853582 
0.02268537415732703 
0.01345777431576946 
0.00394097564663214 
0.02058712359768037 
0.04022225352867975 
-0.001772370848090572 
0.000938741980911269 
0.01645015148997899 
0.00340842235331227 
0.01407694144444426 
0.0131000615492536 
0.01756168232669684 
0.02412901436404663 
0.0337132862766216 
0.01701264877730787 
0.01811279815449068 
0.0158899501953285 
0.02246038180670728 
-0.005048592551721451 
0.02145702709002046 
0.004635258134217588 
0.0156648288868109 
0.04212266920131569 
0.01000340906036023 
0.0207143782010902 
0.0168669042352264 
-0.0006173967864818857 
0.01428933199638978 
0.01386769759634417 
0.0005480540672564636 
0.005622674957939315 
-0.002993776291465661 
0.01538145543102083 
0.01118050621734874 
-0.0008410055874229675 
-0.002117688937589926 
0.01479177978442543 
0.003975672936227598 
0.007365358540201748 
0.0195221840571572 
0.0232397589655221 
0.009371956978584724 
0.01860100073113565 
0.00866600759526632 
0.01458713564704144 
0.008209280583198159 
0.0116211851200902 
0.01567951335606126 
0.01180348279318647 
0.01588783252019747 
-0.004998706127150079 
0.005653480604003749 
0.01330107860769586 
0.009961243011235278 
0.01521101211724588 
0.02066856080324368 
0.001324684397417805 
0.0009101837501121604 
0.009863245545805976 
0.01472459953200676 
-0.0006783972634189732 
0.01437869904192614 
0.01902182637483486 
0.01402306764348016 
0.01338155033873021 
0.004172226945093059 
0.00171325754514415 
0.01045543556928108 
0.001935490365516741 
0.0004035875410040503 
0.02216884401873315 
0.005577649412974833 
0.008269573625252553 
0.00444285663627403 
0.01289035413236833 
0.01572865388343667 
0.0007976723368638778 
0.005785704837115652 
0.01107620078875628 
0.002850403361382665 
0.007717109512028976 
0.005500704754262654 
0.0116566311072303 
0.004230070465070442 
0.007614479972229513 
0.003704899791195104 
0.0008033101211802337 
0.001685201508002927 
-0.001214154076144902 
0.0006613977326694644 
0.006807343690076154 
0.002761080807748312 
0.009957817629765808 
0.005573160861863887 
0.000516209758809972 
0.01119869044902028 
0.02348334743330058 
0.02495919069465145 
0.004544579917901969 
0.0008577929468389589 
0.01152091917287497 
0.009041697088379668 
0.004922691861876879 
0.01053752972818515 
0.004969217097718922 
0.003336697534562127 
-0.009056389632117121 
0.01855003493858662 
0.01932161269101802 
0.001921993565397109 
0.03616745927992972 
0.0101332930963625 
0.003975346029218527 
0.00805334522020593 
0.001785343953597054 
0.002534361099169504 
0.001065737934874682 
0.0009871339891226838 
-0.0003895673779202104 
0.005456999689940981 
0.003038495968968791 
0.004945606256806356 
0.003878981511225679 
0.001077773478986177 
0.004790927956863958 
0.006364782239711408 
2.709506982668117e-05 
0.00716268309659754 
0.007394214167952893 
0.001103576724737439 
0.01039913476723025 
0.01814440760913733 
0.0001061773928243 
0.002815398123461285 
-0.005172697103533789 
0.01725290806772406 
-0.000837776838767476 
0.007994975909085444 
0.003299070630774309 
0.01066715350851067 
0.01987536292771509 
0.0001415066754154613 
0.004511878902104606 
0.008412865372633287 
0.009550001897804628 
0.007089892203807118 
-0.000468152168836877 
0.005504726204604782 
0.0005598251654633532 
0.009791414426438882 
0.003385230735487574 
0.0006634097848793737 
0.001720627284108101 
0.01391053437585671 
0.001149707320125364 
0.009578780551490734 
0.007839566902093479 
0.006874286871101457 
0.008402793411032224 
0.01087566793402343 
0.01128618399805657 
0.01021636241201968 
0.007544368364495527 
0.0003833008491161722 
0.007837474782485797 
0.01519988531794065 
0.002478796018917034 
0.006077049353919282 
7.703770791785779e-05 
0.006220889811731028 
0.006956638269206875 
4.375726635169256e-05 
