solver_type L2R_L2LOSS_SVC_DUAL
nr_class 2
label 1 2
nr_feature 90001
bias -1
w
0.009190548190508463 
-0.03939362952497959 
0.03864551072997074 
0.002607159713457614 
0.08000791788394218 
0.01763362148258363 
0.01262628654753525 
-0.01223344335934046 
0.01708114067099466 
0.0799188282461232 
0.009405977336693377 
0.003298921593725642 
0.01493280091370827 
-0.0008114601019736996 
0.01848391609968613 
-0.001378483238125368 
0.01950495480974154 
0.01758676246330249 
0.01121240360153466 
0.03963811581910544 
0.0355569270153278 
0.007435320993270865 
0.01551579551005346 
0.001831760755741228 
0.01255615977201255 
-0.004666816228979113 
0.05007651921284029 
-0.02099805872569369 
0.03904277841013644 
0.01953344964009812 
0.02774539099109635 
-0.01435519320653549 
0.02158385292475178 
0.04551044860846471 
0.0005680198565076229 
0.004433614545061673 
0.008047914843726642 
0.009291921022688642 
0.01654407629691441 
0.01339594859612775 
0.02821694914251011 
0.02469067726191259 
0.01388670943033068 
0.00637046106774126 
-0.002673804152212686 
0.01499841037114457 
0.01173907588969032 
0.0004228623183955622 
0.004492207455850732 
0.02490058643403681 
0.06613684719305626 
0.01391894992679823 
0.02662055887494312 
-0.0009616248031333436 
0.01079183736761797 
0.007796224500897498 
0.01993291291519134 
-0.01554291450210396 
0.03253197061722364 
0.05376041863158049 
0.006911231373400452 
0.001250242131336071 
-0.01296559198906262 
-0.01486673990619392 
0.04210192994629808 
0.04209983174775403 
0.01460530198653281 
-0.0238085383010709 
0.007347490757351742 
0.01560587027095262 
0.03392010548993376 
0.02810406241635045 
0.009251145277861231 
-0.004665271202481296 
0.0235686932393282 
0.03204581769677631 
0.03606597097003061 
0.04239693673632378 
0.009355890215406216 
-0.0008784334072674684 
-0.003788520533321117 
0.003121327442734023 
0.01988798895275278 
0.005160633782894422 
0.009138302183979527 
0.03055449144609057 
0.01364252545563115 
0.03147224084189848 
0.0334634844012473 
0.03138668030925099 
0.0006254744695234013 
0.02994859024141309 
0.06148918670443011 
-0.003888975301432963 
0.002768030551733112 
-0.002854048907809198 
0.03730256532740878 
-0.0003494053472319136 
-0.001661067991089299 
0.02660001989589513 
0.09073831155880541 
0.009642343065715972 
0.0214701239418878 
0.0179212879902243 
0.0006232299817217075 
0.01272188868187578 
0.003448275280437726 
0.01432000329185795 
0.01807944775682691 
0.01150703192553764 
0.02477624048370997 
0.004734872119997473 
-0.03831297483945324 
-0.03922846852623414 
0.02205954414859703 
-0.00589682499278206 
0.006405974988163329 
0.00309571739931958 
0.02141964174667199 
0.0009974150931810278 
0.001344121103778186 
0.01411858060211956 
-0.005332430947519993 
0.02730010841150984 
-0.01255764882661068 
0.003144468091831121 
0.02441907731078894 
0.02905466382868103 
0.01044787024286096 
-0.01239858558359892 
0.09757147821591688 
0.08075051000470318 
-0.01362081698100103 
0.01249857614377774 
-0.04720705547280082 
0.04886462388417424 
0.009143331999628164 
0.003521403256799276 
0.01776362445102062 
0.0289669046015939 
0.04230555200023627 
-0.007099355824980149 
0.01088436868088168 
0.01305635205193989 
0.02785719075563223 
-0.01987857584799846 
0.02103568107145298 
0.001319081915724752 
0.00945011904231112 
0.03056539234718368 
0.01033896975029512 
0.02659335512355 
0.01606088726784948 
0.01119410850775248 
0.0486029369798256 
0.0354210143607353 
0.001832030903678349 
0.02350038354287845 
0.01339965998445958 
0.02314214138935468 
0.0105449439193792 
0.02285610250522105 
-0.01289530008882518 
0.03706951858493896 
0.004297939001691189 
0.002553216066072281 
0.02319882634828493 
0.0213594192086761 
0.001931835989959337 
0.02988554541540311 
0.002108857446866215 
0.01615552504090801 
0.006454928673013749 
0.01081168133227606 
0.00617685199700444 
0.004857108843840014 
0.01309792478106538 
0.005344041880462214 
-0.003241811541868681 
0.01581161250207298 
0.04260548581238625 
0.01306509877005821 
0.02379635687884447 
0.0124602340346947 
0.08020510611272397 
0.01095617947124237 
0.001541410664182106 
0.004878819784768723 
0.01724824824310739 
0.02027178252971316 
-0.0009218014789736522 
0.01218862039973979 
0.01333757144400854 
0.02290096418705326 
0.04018834166891472 
-0.001830050977393401 
-0.005549082770908307 
0.02756395361033885 
0.05218267224785343 
0.0205383482950495 
0.02306823067467231 
-0.004288163950350075 
-0.004247604251600931 
0.005715112627992244 
-0.001812292204925855 
0.008613281271455064 
0.009097209065584703 
-0.01167655698629638 
0.04070199795948946 
-0.01935153639928397 
0.004555656681348395 
0.001362357132758773 
0.02003184655868224 
0.005031693657975202 
0.014837390457548 
-0.01590453128639989 
-0.007863650044853393 
0.004629811822750005 
-0.005589814086211214 
0.01862298850115905 
0.003506181430094391 
-0.004366359068892562 
-0.002834233911142421 
0.02999463508957425 
-0.01738769297275691 
0.05140994908120653 
-0.01098429914256272 
-0.02046015319900868 
0.005931523578185677 
0.03751315245207491 
0.004034702485115926 
0.04804695768719588 
-0.01961445259739334 
-0.01692077084510558 
0.002765794364668802 
0.01484496609546142 
0.03154787868771845 
0.0140448926773896 
-0.01503998036350992 
0.03640386960687188 
-0.004816334870202603 
-0.02385023109743168 
0.02773231383157021 
0.0002957987002065541 
-0.02634002326184573 
0.03885890827917807 
-0.004067990626149233 
-0.006106643804975462 
-0.01161018877468044 
-8.176363263426218e-05 
0.01388967421419381 
0.00830732427757196 
0.0001697837901810304 
0.004641073405368985 
-0.007550942909064898 
-0.003900134682503958 
-0.01022798277819092 
-0.01355737843010626 
-0.004237376675025238 
-0.001432511975739083 
-0.01475585495523213 
-0.009261332960477353 
-0.0002449821979483771 
0.00230108844050492 
0.02427132062115475 
-0.003708182957775206 
0.04221208068758201 
0.001045693332952924 
-0.0001026777495779552 
-0.01308103102432355 
0.005008065457210375 
-0.009130702964871226 
-0.01287739071852902 
0.01760495494099594 
-0.01132790662575402 
-0.01312340726469744 
0.06393446645057226 
0.01424675231495513 
-0.001000465458109229 
-0.01899441670790767 
0.01588227319167245 
0.07258878729977618 
0.008474735776661484 
-0.001520743874828685 
0.01461085533682207 
0.003971798342505654 
-0.006659049782449087 
0.03364582999852369 
-0.01600259594948752 
0.01343405891621062 
-0.001284999284807977 
-0.04559170462103541 
-0.01713973030472462 
-0.004241313067706579 
0.006482299542253311 
0.008899274183906075 
-0.02577453197119398 
0.02654693096474089 
0.02519024139121586 
0.03360946747286481 
0.04414965511356821 
0.008695484956433377 
-0.004958484936706674 
0.02576473253698387 
-0.01145821257866137 
-0.005428696683800704 
0.003942320372744707 
-0.01670456223749855 
0.02116570138198572 
-0.02347741572850361 
0.001931717896036941 
-0.01386618790401031 
0.01179403444367358 
0.05465719794673803 
0.1093400775537217 
-0.01938081762640754 
-0.000446872380618728 
-0.02898113210913924 
0.004237251568346524 
-0.008386193347979872 
-0.00152004744990513 
0.007762585396519286 
-0.006093843262212888 
0.002786729979979384 
0.07241016296866706 
-0.02104583252273251 
-0.008761575677463069 
-0.009846565022022535 
-0.0173790293957845 
0.003431418432670487 
0.01406120227760996 
0.01324705491029537 
-0.02033884300131791 
0.001310914412926299 
-0.005137245059522764 
0.0009176281015786803 
0.05078725396542415 
-0.01274857399380412 
0.005565489544477669 
0.007878275819914028 
0.02556590718375927 
0.01182448571089252 
-0.005082695271571156 
-0.0163891157399289 
-0.01736382446252784 
0.0009751257097739932 
-0.001670430987179125 
-0.01094864164812643 
-0.01210211270147544 
-0.02193570555351038 
0.02128203794734826 
0.01936969507603073 
-0.02228399487880487 
-0.02654209776886785 
0.004765372664844355 
0.001562225083287939 
-0.008503310517664679 
0.0004657011682497659 
0.005853573339556956 
-0.04418649821849317 
-0.002508148148975378 
-0.005110679673078367 
0.03045628287489977 
-0.01768379990790915 
-0.01517131374415972 
0.02824273031412629 
0.0204970866952019 
0.01347019718295863 
0.01013448240923246 
-0.01719829174437029 
0.0386475149468378 
-0.0057652276600554 
-0.007207954769280061 
0.01862888928277355 
0.02113886929134092 
0.01584194226627961 
0.1044796672039475 
-0.002901689955909077 
-0.01479759720825754 
0.05071052587583626 
0.006747148716408358 
-0.007184238535663746 
0.002655941084703229 
-0.007862427964020218 
-0.005109558225731857 
-0.01162120799572331 
-0.009474391639673374 
0.06125273017641075 
-0.00140932342522157 
0.02946076658988335 
0.01805033612705941 
-0.001728214554936429 
0.01615666222126489 
0.003222160408375916 
0.027205901379695 
0.005249931333666128 
0.02721686288396793 
0.006121272614163655 
-0.0144477537024705 
0.03574237557209271 
-0.007937404009933086 
-0.01417940393627925 
-0.0004134485833128465 
-0.006193051417631791 
0.0255089955373598 
0.001420729380154369 
0.002058803189695921 
-0.01182402953320643 
-0.002959847831951105 
0.01135946363916238 
0.003789777919051123 
-0.0007597033327516233 
0.001415029093931567 
-0.0004285303371556917 
0.0001800653899315707 
0.001092322419306767 
0.00405946657416682 
0.00161865459606918 
0.001043296094819104 
0.003055417495629807 
0.002189464333558722 
0.0004096071564921054 
0.006486776976187241 
-0.01596862564079979 
-0.0127259415115754 
-0.01033738832712289 
0.003393735344837495 
-0.002155976552340944 
0.01614385668148113 
0.005785214756696687 
0.004300619353548426 
-0.01909511550467738 
0.004971664322859318 
0.006260635398480944 
-0.02459778759281044 
-0.009319653589160176 
-0.0008225963124642175 
-0.01571452256101288 
-0.002074275446631732 
-0.002727247861408066 
0.006594757874370432 
8.190021938052511e-05 
-0.003530250695940427 
0.001493471224388815 
-0.001103561061311228 
0.0007654561894032047 
0.005683092955424403 
-0.001761607849679912 
-0.004962745722050034 
0.0009859484629851066 
0.008080593659793146 
0.01171072094739182 
0.001508682085458353 
-0.001015448102192411 
0.001009478008075365 
0.001451609316667388 
0.007039034883656281 
0.003378021567824455 
0.005114867774159386 
0.01414569032998212 
0.00023734320988009 
-0.005394372408693517 
-0.02944533432414445 
-0.009607025553803765 
0.006485569211384298 
0.001975981898491245 
-0.005944960827534808 
-0.01972597295569581 
0.004068594631900866 
0.001764816794322818 
0.002344677343556545 
-0.01752718129556535 
-0.006244328256925523 
-0.01342842942008109 
0.002039807793580067 
0.003841448182817702 
0.005050536444030248 
0.01039896404807646 
-0.0007483479879252807 
-0.008817321901925201 
-0.01352260907616817 
0.00110398674886803 
0.006121666166340602 
-0.001812653131395387 
0.000117492699411498 
0.01260837947352511 
0.001756912399244078 
0.003515845930234303 
0.007076740369480542 
0.0008888433832266927 
-0.01014789059296757 
0.01168562138933368 
0.008741496918916042 
-0.00304830776557766 
-0.00605221965611015 
-0.00549843987462228 
0.005588825419623704 
0.004341772792985944 
-0.00995293089826034 
0.01100047376893926 
0.00631373066420441 
-0.0006568038262345186 
0.005469152754879038 
0.007886721670067614 
-0.001213841446306521 
0.005425006488010453 
0.00207636253730026 
0.0007919771358689184 
0.0007050737781038319 
-0.002933019469192214 
0.00574295393118729 
0.002421883369200957 
-0.01199959873377099 
-0.03412083714636996 
0.00461376186874473 
0.001563453565139632 
0.002253592392585817 
-0.001239893425451463 
-0.0003587720295653846 
-0.01600565610047913 
-0.001741936329369874 
-0.001038791394537706 
-0.02118454706116613 
0.0004606303015879076 
-0.006559478883329939 
-0.002659670018829617 
0.00484928883113793 
0.002421992125741342 
-0.004711889224857707 
-0.0277284268684659 
0.01515577052404515 
0.01893682330115465 
-0.02775049802161149 
0.003532242209878194 
-0.01721867326655447 
0.003782552670730964 
0.00234856398154295 
-0.01314781120150765 
0.002624215598036393 
-0.008830162409710766 
0.007483533367381784 
-0.008245441178726295 
-0.009900987746155424 
0.003896586095382442 
0.001111922470668054 
-0.03084141757309161 
0.002718972462495214 
-0.003777749606022419 
-0.005135844880813503 
0.0287513848798493 
-0.005048783340020209 
0.005255698556929601 
0.00652619316147996 
0.0003062217804713246 
0.009856493410894535 
0.01332867843571623 
-0.006818733029363959 
-0.0007830103470309613 
0.0009881786086524157 
-0.001683698320556806 
0.002478752273564966 
0.004311953594734484 
-0.01035114456308757 
0.004715037565800076 
-0.0003746820306579827 
-0.002672481083148572 
0.005613634525401103 
-0.004347245342835134 
-0.002917729011202185 
-0.0003947699625666957 
-0.007391753851148697 
-0.008830967793962134 
-0.004173885842596358 
-0.002611626523330391 
-0.003072138483326474 
-0.003012684417664773 
-0.002992162370118112 
5.278359659057869e-07 
-0.006079773167220144 
0.001540689534429857 
0.003798194949956027 
0.002131767640846463 
0.01472378901879878 
0.002524643748539274 
0.0009064581738615458 
-0.002023196945096557 
0.005363696236050678 
0.0001837787171342565 
0.002541285745266868 
0.003015615591130199 
-0.004569384213474788 
-0.005915315200345074 
0.0004056310813178578 
0.001850301222084005 
0.004358004208755832 
-0.01516419567006609 
-0.008881910425099169 
0.002741807691513709 
0.01035899595931539 
0.007461787632006294 
0.01351744244293966 
-0.05058799164930372 
0.02628972084681589 
-0.0002576686141621019 
0.04112807206006347 
0.01751169526231291 
0.01176574428258598 
-0.01377157842628569 
0.01959744664051061 
0.03544352469656927 
0.004138645264757041 
0.00180111069632977 
0.01648678191554803 
-0.001000566193741692 
0.00571508468073174 
-0.003747448561483188 
0.00987680581267378 
0.01325218847912336 
0.01183781921592898 
0.03979290818508484 
0.01767735492115856 
-0.0008396980053597923 
0.01200074938213262 
-0.001847269514407882 
0.01470349992453706 
0.007772290326231043 
0.01460573883237108 
0.0002449386936317867 
0.02063292759042532 
0.01980455787925578 
0.02291586927521646 
-0.003387060571840983 
0.01805743680986121 
0.01173238409314102 
-0.008412625596545381 
0.02465881389080113 
0.003136666186553353 
0.007219202386729242 
0.02155557018316542 
0.009582822433659184 
0.02396631422706309 
0.01072195752142063 
0.01461891183887966 
0.005317013379109735 
-0.001129298992054532 
0.003731523962941853 
0.01193563092714065 
0.001723511164418322 
0.006682940163533363 
0.01930718005706649 
0.01178699663779692 
0.01548447098688144 
0.020685660557353 
0.0008667644704754866 
0.008957022178992536 
0.01146710142420901 
0.01121066426363644 
-0.005794192465933287 
0.01929501166660679 
0.007709398826466844 
0.007051427532083109 
0.00418582900685205 
-0.02485656487629237 
0.00281613750953823 
0.01842035180662825 
0.0005029074172487598 
0.01863196417794132 
-0.03119563308580775 
0.004708694266148439 
0.01157148780716256 
0.03238772956338846 
-0.008101888047022851 
0.01485786055573828 
-0.02036169964328501 
0.01842378757239448 
0.006090690326148138 
0.02946858677782788 
0.02416237010998787 
-0.0002998120258285881 
0.002357895448640423 
-0.01270653105702967 
0.002480812403190004 
0.0185532823520434 
0.007080162756622813 
0.008022114929076491 
0.02060142862001364 
0.01712255811057473 
0.01887117749583033 
0.02390280856845035 
0.02395855412809849 
-0.005885288164156059 
0.023825842256321 
0.02974097696507296 
0.004617475725905338 
0.004016284627753835 
-0.008197223532677817 
0.01720413008160578 
0.005425432524291252 
0.0002546545985553559 
-0.0006561927587353716 
0.02617982946771091 
-0.004350054542118257 
0.01855932773146771 
0.01411845879805416 
-0.0006910989919996037 
0.008587595543404559 
0.007348486044966212 
0.001020934340679602 
0.01871139664731808 
0.0157916509048971 
0.01969674765633431 
0.003500565541283073 
-0.01139728256331535 
-0.03590566379564007 
0.01759584924293477 
-0.001603799510683124 
0.004519638085035071 
0.004258885187244016 
0.01332813760220316 
0.0001965069021691299 
-0.004711030631024148 
0.01708284704980773 
-0.01232068268409065 
0.005093347917021665 
0.005821448744372184 
0.009886659508322248 
0.0195421881822653 
0.02425185438874271 
0.01277697681947107 
-0.01101882860943227 
0.03982620713777002 
0.04103595175831889 
-0.008057313964344582 
-0.0005762038418292641 
-0.01296702169982043 
0.004117060826804161 
0.00861621730936301 
0.01655464264092878 
0.01591549985132894 
0.03048269258197674 
0.03423886545245526 
0.006253948758089475 
0.01658512587142995 
0.007877965257795272 
0.02235884649908667 
-0.01553881291193287 
0.01993063910588872 
-0.00099492041393049 
0.01735617289451677 
0.04200215468190014 
0.004478578768710167 
0.02270186216289191 
0.01239473082963103 
0.001094153697698742 
0.01908305404254301 
0.03149357784341242 
-0.003815133657850416 
-0.001638555584018986 
-0.002739433911164241 
0.01555513043403491 
0.007160134784241929 
0.006190181207747846 
0.002597058187282233 
0.01541001836558144 
0.000922658070848522 
0.006591108038599908 
0.02065584903056795 
0.02395751277018467 
0.005550054265792419 
0.02779032746117774 
0.0008952208031862836 
0.01900554172078834 
0.002394616650845991 
0.009650907081735121 
0.003887480931395067 
0.007406402172983082 
0.01473350044945669 
-0.0272712534171746 
-0.006569421632732751 
0.01111555267592758 
0.02074222351763594 
0.01516353166242813 
0.01412264375407325 
0.002517500448409628 
0.009945721714435408 
0.0122939047938635 
0.008725602397301293 
0.0005355608393629852 
0.01374651324409003 
0.01692630162237788 
0.005994714721557388 
0.01604546073520291 
0.003829848071761816 
0.003716583538823367 
0.01346602060704027 
-0.01261184660379456 
-0.002977579663287764 
0.02846119245831265 
0.01222153204375488 
0.003061138662560948 
-0.006425691087540304 
-0.02975051086657232 
0.003756427923090098 
0.003392681056483254 
0.02084516787563249 
-0.002312957188427917 
0.001019097484667263 
-0.01750929131149126 
-0.0008327645214458268 
0.009999375101463769 
-0.0004614822159141343 
-0.003986183441752209 
0.001523937654180909 
-0.001762762866634943 
0.002753841265974867 
-0.00335906571813936 
0.003626405659806713 
0.005257404190679782 
0.007597083877207669 
0.008540415889648934 
-0.001293883586177607 
-0.00297045128871002 
0.001197046591835991 
-0.02253295654399257 
-0.0178944516071518 
-0.01203198424099424 
0.005386419766549957 
-0.02436638120112689 
0.01134875749339434 
0.004447296288749496 
0.009163396894370651 
-0.01291066143895706 
0.009886325348685741 
0.009006084555474513 
-0.03275310547784499 
-0.01759606895021632 
4.083373088460485e-05 
-0.01138188155243435 
-0.006963617093238359 
-0.005029255448775263 
0.008664124976286807 
-0.002302472509329192 
-0.0005806681291637261 
0.00257636611037271 
-0.0008439643464468158 
0.003177882234654707 
0.006456496010675323 
-0.0007946887274183945 
-0.006402384490550783 
-0.000841082762997155 
0.01771015236488457 
0.006550135003667189 
0.006205960298383046 
0.0002755190215170092 
0.003275630045561436 
0.001992600887915208 
0.006650532126633041 
-0.012623368123619 
0.005861486412558532 
0.003134471998208669 
-0.001067768704362402 
-0.004104700608489728 
-0.03542328851585776 
-0.02877536449268847 
0.01359895604639668 
0.005287237329939188 
-0.003134124781443295 
-0.03274105516528543 
0.004516929660209018 
0.003440145856234619 
0.00719851702196692 
-0.01864922263736472 
-0.004175874903879627 
-0.02238140056030969 
0.005353308619364281 
0.00394777231325536 
0.01219201181137519 
0.007220201445756145 
0.001455895133237661 
-0.006691623416484092 
-0.01545723679924822 
0.003351328639737789 
-0.002616378425198865 
-0.002262549820377337 
-0.0008489523483103149 
0.007117347907425037 
-0.0008132138643275041 
0.002612592956895254 
0.01049282599182637 
0.007771074964145665 
-0.01199145839394903 
0.01505649084195044 
0.01737803135750827 
-0.005984452746502301 
-0.009270410778146783 
-0.006229859690150135 
0.003189679643983558 
-0.001791640496897674 
-0.01221502091382935 
0.01501561928322074 
0.02811872885086007 
-0.0006976363798232451 
0.006645696115071873 
0.007751360969231542 
-0.002924485342299776 
0.004789017948220958 
-0.006110022859222952 
0.002853979492156043 
0.0002511007021353262 
-0.009653325471092645 
0.01088541164574619 
0.002057242163038048 
-0.03364141433455535 
-0.04206188457821892 
0.01104870568665866 
0.001358072505378019 
0.007538134990403788 
0.001047249386751177 
-0.009133279405180064 
-0.02657402389493855 
0.006174080455729032 
0.002527102733057692 
-0.02409090938227756 
0.003983249079682618 
-0.01604431953713823 
-0.01049016478137888 
0.01076640865551034 
0.004594272849600308 
-0.004761184220531766 
-0.04194555999994384 
0.01913875527248747 
0.03064067828005809 
-0.03518441522031161 
0.0009766666784287814 
-0.0241418915875109 
0.005307049461825983 
-0.004874770133621847 
-0.01553086567087289 
0.00232005061171644 
-0.004876865399112393 
0.007681659347083818 
-0.02416207190080335 
-0.002428469728667568 
0.004304429436215011 
0.008410585566862349 
-0.03872638818611538 
0.002430758929832469 
-0.001416910400104014 
-0.007599273632319455 
0.02480080823003678 
-0.002267385167888828 
0.007363045977078065 
0.01290709624058389 
0.0008170524072282041 
-0.0004064290087393271 
0.01580255530057428 
-0.007217862548531653 
0.00185690242713946 
0.002781547411913234 
-0.007986329026710993 
0.006316559500366164 
0.002041675405558874 
-0.01936159891542024 
-0.0016315812766241 
-0.0009157711251589867 
-0.008822995309898319 
0.009532009669703341 
-0.004918810178967952 
-0.003097329970164403 
0.0001359737290683187 
-0.005649726540046871 
-0.001585310499654777 
-0.006040238885032234 
-0.001469188593714447 
-0.0248378734470387 
-0.003845493409120201 
-0.006125920720747096 
-0.01672585197190485 
-0.008191045928883544 
0.004667861408335955 
0.01144864115793423 
0.003657950867693295 
0.008467253868518338 
0.001269202669672759 
0.005339272258014179 
0.002987661459243491 
-0.001684933925032278 
-0.0002195546169054654 
0.004608647117110887 
0.003811445471809928 
-0.006588038726807771 
-0.003476155804616878 
0.001699726776036764 
0.005179114341554944 
0.008909207816649488 
-0.01314500551450781 
-0.007563083677545543 
0.00120303113954692 
0.005791030765300131 
0.0008651586665223849 
0.004598019674047302 
-0.04833196929609489 
0.009441093928334972 
-0.002634648519129514 
0.01128948956076086 
0.002903986375841004 
0.0002628921415077157 
-0.01843966186193431 
-0.007754502984895289 
0.02328352532226123 
-0.001703749583090299 
-0.00208794243421956 
0.004967218102030613 
-0.001174465201847622 
5.057486796297783e-05 
-0.01118888127740365 
-0.0002055289823677106 
0.006868409914098451 
-0.001476669491434085 
0.01048708877570359 
0.005656787007528474 
-0.007517633023196681 
0.007261052325162603 
-0.03496981527557575 
-0.006068462394439581 
-0.007717673389306389 
0.006703744408863551 
-0.02002681482971184 
0.005223091524071291 
0.005761757757806334 
-0.009199002603428206 
-0.01656525431852659 
0.007398189602293582 
-0.001452332621834197 
-0.02603620929256372 
-0.01094528638037267 
0.0002546943169251676 
0.0006597694878048752 
-0.002741513575068613 
-0.004776213308174689 
0.009781747626164147 
0.0007854387940527285 
-0.002370200562953719 
0.002072900552270484 
-0.001248746791899561 
0.0003854082924674283 
0.002839718952009332 
6.716135103485821e-05 
-3.116912190013204e-05 
-0.006875528014957341 
0.007535850957146013 
-0.001330569561344604 
0.01093886048855794 
-0.002954659237636576 
0.001346921400617288 
0.0001824687366050033 
-0.0001388928102585789 
-0.01815642161726299 
0.01268994920371218 
0.007996647457655374 
0.001593663713533892 
-0.01473374370369866 
-0.007083661344366891 
-0.01546392630724959 
0.009538873802012963 
0.00402382898901609 
0.008323405054907989 
-0.02651539821708445 
0.0003753976481346008 
0.005930291742468306 
0.01078948499933942 
-0.01186186401893777 
0.001871119621384022 
-0.01182161416238404 
0.005698174164129759 
0.00816150488534669 
0.01122848142233371 
0.001908425818491913 
4.187138814311201e-05 
-0.004839316765504476 
-0.01297850128562723 
-0.001713717823861462 
0.008079348424969239 
-0.002232519123987012 
0.001639822247511506 
0.004924098375535666 
0.001847466846963471 
-0.002515849646833641 
0.01146826708568413 
0.009288611234129334 
-0.01804579393931279 
0.00797508601951241 
0.01470945530256916 
-0.02031403594561813 
-0.003453932936535975 
-0.009896368243044721 
0.01543465923009578 
-0.005106428003331247 
-0.01317588825402109 
-0.02922010881245311 
0.03866224777043787 
-0.006737207656174134 
0.009523198905873205 
-0.0009661816280220869 
-0.006763581573906426 
0.00141379058119094 
-0.001628550694490857 
0.004870019478261443 
0.007642905422750112 
0.0008382241590331666 
0.005975581900570873 
-0.0003082986811112156 
-0.02465042858146629 
-0.0296871779390577 
0.00780691945936409 
-0.007521679939310713 
-0.003700469916880267 
-0.0001699109607775128 
-0.006817489168548554 
-0.01828809495157951 
-0.00504356129609099 
0.001284998937898496 
-0.01615821750115695 
0.003905457882272983 
-0.01045889034874668 
-0.0007732528423919721 
0.009020361408956722 
0.008508844512192871 
0.0001513296730164079 
-0.01524673678961549 
0.03246857965307786 
0.01643036138474618 
-0.03005607670825908 
-0.001375354756265682 
-0.02685933044688872 
0.006133773547270566 
0.0008497546386041108 
-0.02169951381607611 
0.004067034394514891 
0.002994419892076614 
0.01654589130674583 
-0.0092103739756885 
0.01156211307667665 
0.002074613590500846 
0.007164142452605947 
-0.03523123779599491 
0.007524505131582671 
-0.003263137770006057 
-0.0005726916877564768 
0.01288852330769348 
-0.001788048283444667 
0.007188989769090008 
0.003905721344961114 
0.002769026800366124 
0.004910706514203275 
0.006009706459107468 
-0.00521341292513352 
0.00295725865449754 
-0.0009268200449640913 
0.007196782334040273 
0.003909015731303982 
-0.005310282618724903 
-0.02007584281150901 
0.01309102411625101 
-0.001441421882003108 
-0.005868018327142946 
0.01026583438561066 
0.003855442776947932 
-0.002474317041945118 
-0.01137613342769474 
-0.008321040803102725 
0.003157020396502035 
-0.001647224691049423 
-0.001235681972476277 
-0.0140069923662897 
0.0001708933298926653 
0.007332432292013478 
-0.03265928135472075 
-0.02005809527651794 
0.007091593869967155 
-0.0001829360537868028 
0.002203693731138958 
0.001811735674570636 
0.003670985558973467 
0.02496855120336827 
0.002787980259496805 
0.001251778813566029 
0.0006187803461309317 
0.004092562213342178 
0.006335284787712111 
-0.003225419076675973 
0.001796583502359897 
-0.008581689320577722 
0.008237226342145737 
0.0004223186737620365 
-0.00815276159392655 
-0.01639177784246416 
0.006712507319857959 
0.01964283985448521 
0.001907387435399418 
-0.00345917931685324 
0.007839938939558215 
-0.00090235231770828 
-0.004923942928968234 
0.01235200154793424 
0.009016465486220558 
0.005511066075265761 
-0.001968005613149156 
-0.002960163378619289 
0.009905698747346984 
0.01219715355995456 
0.0008336542041644582 
0.0006783514753450247 
-0.001153377976728807 
0.003066202644438878 
0.001853136770501803 
0.002038384409320499 
-0.0003450357086344443 
0.005297441965401524 
0.0008070686689980978 
0.01350864426026929 
0.01020640457394602 
0.009105487675665772 
0.004630562961449571 
-0.01459884297705114 
-0.002800078413106271 
0.009332916212534991 
0.001696326726695101 
0.01956970177497239 
0.002227848889799777 
0.01189557079746475 
0.001427822714491195 
3.997282491117872e-05 
0.008855149211719893 
-0.01290213585056135 
-0.006539763748256629 
0.005613923802280488 
0.0185963979383297 
-0.001904175249239141 
0.003032496462601451 
-0.0007356110015430009 
0.007791186545168118 
-0.001118680570560905 
0.00153644898385343 
-0.0005524680463000278 
0.002180311661978494 
0.006527760103892701 
7.696744689070818e-05 
-0.003067368546137986 
0.006827389243957682 
0.01738647934190931 
0.01190954870115761 
0.0001567647060970309 
-1.85562490437607e-06 
0.004515166790467392 
0.005230807151884284 
0.01411466534076944 
0.005184171949507321 
0.01308432836764029 
0.01959784162303228 
0.001167808893595822 
-0.005291898960829562 
-0.01259010196556415 
0.0004504095841267968 
0.01146778034715134 
0.01217797123428446 
0.00474953849892084 
-0.002331832996340372 
0.005215756612465647 
0.002433105933709943 
-0.001972320039440405 
0.00499509424559625 
-0.003498663739019555 
0.003992591120492224 
-0.0005756347114305549 
0.007008852358997146 
-3.41829820738667e-05 
0.01361418647819751 
0.001166658096518492 
-0.00425051033481833 
-0.01321456713765857 
0.001948738422058096 
0.0003922315839120828 
0.001987479857215254 
0.009047415425287664 
0.00774816510164791 
0.002838938007051134 
0.00158435182486659 
-0.003086273502448058 
0.003694844453601404 
-0.007195820142194073 
0.01168047105730207 
0.008151158269894737 
0.007265838563303705 
0.001697792714065423 
0.002054974115032058 
0.01036933116308905 
0.004976277135017471 
-0.00647965120002738 
0.01548365417897378 
0.02088010658201471 
0.01587714245454413 
-0.000177985422087358 
0.008603557964113519 
0.00338174904820968 
0.001038315767610433 
0.001744978010550468 
0.002264053767408672 
0.001485701834545111 
-0.001300483569278256 
-3.761406696299415e-05 
-0.003405561131764442 
-0.001962551572302319 
-0.005481095177751616 
-0.0007291273516647768 
0.00100241816526106 
0.008149827785085167 
-0.0003863065758142636 
0.005076169681017287 
-0.009144740108990577 
0.007160592800970012 
-0.003183047433306005 
-0.01121210820323598 
0.003698588197148736 
0.0008600357469652379 
0.001751282123911742 
0.0007734748998724694 
0.00144361223096002 
-0.0006064519287475701 
-0.01667471706638855 
0.02221614923748223 
0.03151446723086317 
-0.01517916753998805 
0.005400219873817965 
-0.001671761740611253 
0.008112839275956759 
0.002870276690892941 
-0.006797215553645913 
0.002557081147980739 
-0.001400240032830805 
-0.0002181664962229726 
4.084494161405537e-05 
0.01255423422574779 
0.008839951688894329 
-0.004290120679688004 
-0.008658001049845062 
-0.0007895752921141816 
0.003854747388337802 
0.00258252738304378 
0.01579998541730649 
0.004351486861401683 
-0.0003505268055359828 
0.006231095826038132 
0.001797776730589709 
0.01737156364137583 
0.01117131467969059 
-0.01181542992170984 
0.01314249587756513 
-0.0003755082654212959 
0.00108101636861195 
0.005405802660691501 
0.001391760116127282 
-0.005297022626221046 
0.007666856038767982 
0.004133431600500302 
0.005595312887783463 
0.0001927981474048111 
-0.001087626824725252 
0.000705947234555764 
0.0121948153145951 
0.006962330815511164 
-0.003704401929434202 
0.002793310906677485 
-0.001369414803553939 
0.01044949523833895 
-0.004008353001580684 
-0.001510820007314343 
0.01365142156315301 
0.007575735642441258 
0.0009636850205837571 
0.005300359209678842 
-0.0005546595756449796 
0.01579539038728737 
0.001171380554354879 
0.008330470693107456 
0.003081973397355654 
0.00269284224365169 
0.0003992791848255383 
-0.0008305222471796852 
0.0006682771527161824 
0.001249385454369904 
-0.0009717735326671416 
0.008181776770616938 
0.003631263153829741 
0.01144756581948293 
-0.01496701238629298 
-0.007507143391667144 
-0.001277261999451353 
0.02363618315610679 
-0.001558120583825858 
0.008164761502659514 
-0.01006613114273141 
0.008921831610408954 
-0.01188209529882204 
0.04014680397613229 
0.00668930854303108 
-0.001192615122690129 
-0.0005100775148699407 
0.005844848031676691 
0.03843733020694965 
0.00276990520882746 
-0.002758376844618318 
0.001797158581090117 
-0.0008199044487074003 
0.01009328919675611 
-0.0002382193542056081 
-0.0008026987320173531 
0.003624736329001461 
-0.000712952052474396 
0.007375723778226162 
0.01454194101934195 
0.009806771321003261 
0.007605553641535699 
0.01006246750482721 
-0.0003963887184134013 
-0.003821369391743398 
0.01635711696981888 
-0.01640573566285778 
0.01376426995136709 
0.004149736415779366 
0.03103003178238647 
-0.008973174979628469 
0.004973410014763856 
0.01646273637162499 
0.01086320439127988 
-0.002618775817119071 
-0.005160190088754765 
0.01463112111670855 
-0.002321829907039742 
0.0002106605151582626 
0.007637691543364728 
0.01919019933077 
-0.0003574147377754394 
0.0007681432306453049 
-0.002290242735644571 
0.007866871590826 
0.002826930407099522 
-0.0008320555237048069 
-0.001768914687667222 
0.02621526308670621 
0.04578525399827479 
0.004028255681705376 
0.005484244610996875 
0.0006410679217802523 
0.008654448746351568 
0.007518957094003469 
0.006158866158819771 
0.00291116778275144 
0.01349216237075954 
0.02083034845506171 
0.003291067319189021 
-0.01449491060807308 
-0.01447746283250667 
-0.004577911323831695 
0.01733446320179844 
0.01138893496105058 
0.01289971697115461 
-0.02190317182081901 
-0.001546003148663102 
0.002802398870947883 
0.004584749357214749 
0.01113063649021478 
0.001007796775074412 
-0.006256857668921926 
0.003566594875363488 
0.007100604553807149 
0.006251343344342938 
-0.002250686127336874 
0.00240823299476911 
-0.005593086604651087 
0.002742386231237436 
-0.001318902000239646 
0.004420762419023264 
0.002410556643692235 
0.002227061631171233 
0.01822503166791965 
0.01283036226672325 
0.03501938913542411 
0.00786564331616048 
0.004903228829004225 
0.009544336626498543 
0.008969631552242428 
0.04330751584516623 
-0.004906721340150241 
-0.0002507495240280284 
0.002980268207226956 
0.01345670815386582 
-0.008190076944281805 
0.01375652270818266 
0.02009608691113836 
0.01158658031709066 
0.006082636179342121 
0.003765445180392242 
0.01178922013493415 
0.002348609045125645 
-0.003078340474527368 
0.007687610794784221 
0.005228558732459233 
0.01909121359189712 
0.00285239539791514 
0.005442645245873069 
0.0004724039332118096 
-0.02823870940569074 
-0.03057143927759592 
0.004055574631126816 
-0.01152921456777358 
-0.002058381046363214 
0.00345999511120754 
0.01632446703286681 
0.008283153043783372 
-0.004632903006989592 
0.002486321695419116 
-0.00591652512767494 
-0.005022736365371447 
-0.02340977141912891 
0.001518470066795755 
0.004247103668280264 
0.002923721706005109 
-0.003253130292724855 
-0.00459305844394179 
0.03695270021401662 
0.07358589265811208 
-0.001048256488795292 
0.002851517523887273 
-0.00746020449543842 
0.01476818771725091 
-0.009430495061765357 
0.0003733820508863747 
0.01162994124220389 
0.005161318163582932 
0.005330627693822317 
-0.0006607527552891917 
0.01845818537611571 
-0.002584647239725122 
0.004115357543160452 
-0.008537955942739433 
0.00203372376702247 
-0.0005666154624346051 
-0.0002400628960829017 
0.05320894903581191 
0.008468025014033348 
0.006031817789780658 
0.002426140517351674 
0.001244047134986938 
0.0174739388965901 
0.02068923724190288 
0.0001384763836200409 
0.006365749277144545 
0.003448765573434058 
0.01154382846168358 
0.000830883782358962 
0.01066717022174595 
-0.004186754036091161 
0.02565889730328354 
0.001429027684259139 
0.005072806768993393 
0.003516860007657962 
0.005141320652936539 
0.002334065249366158 
0.02128123956815358 
0.004310591966886862 
0.008104092620319482 
0.0004249858036560594 
-0.002118414082976084 
0.02057112646544739 
-0.002830414505804042 
0.006933919901837398 
0.02903276827379704 
-0.002651552705819351 
0.001901374387310587 
0.02825608115298777 
0.003901881162678484 
0.005762368443448 
0.005379445185603102 
0.02908064755096993 
0.008772026967330152 
-0.006750834465641834 
0.001639216029698841 
0.001678769922930908 
0.003287540281737541 
-0.002417037463363445 
0.002891705568982724 
0.01653044583584119 
0.01217440158297623 
0.03193112691814289 
0.003493395812670002 
-0.01639451457682838 
0.005199660744735533 
0.01417457565134979 
-0.004061116696936492 
-0.007689322818697692 
-0.002648750518025908 
0.0002191828539909265 
0.0009506822952689668 
0.008340098752445948 
-0.003136829188882446 
0.001011232161657233 
-0.00543598139136908 
-0.01082079979776893 
0.008613216610889318 
-0.000147495644620476 
-0.002827890360057372 
0.0006969029901990521 
-0.0009772982396712257 
0.003910622192186981 
0.000462904405819102 
0.001187317871630447 
-0.001583101817774651 
-0.001157746969056881 
0.001168649016696809 
0.0008983598563741625 
0.0007464273761866066 
-0.0006917649799432918 
-0.007261788172865298 
-0.005574534729112735 
-0.006780159122649742 
0.007041613714999798 
0.01285557522820888 
0.004187047716217339 
0.001444155811531888 
0.004029426463311335 
-0.005113866309110636 
0.002026579933169475 
0.002710342328496119 
-0.008710206015704769 
-0.009533376697662219 
0.0001444376130041679 
-0.01188163983489806 
-0.007345834741519143 
0.00626385852879502 
0.002020120532624944 
0.004125930491860046 
0.001336585434680565 
0.001200224310576008 
-0.0001107788338616035 
0.001623359085422947 
0.001138279717721296 
-0.0009425919030325991 
-0.00357338926375918 
-0.002029027717358777 
0.005836488381053269 
-0.003544600370724365 
0.0002649230123554402 
0.0007209041885917366 
-0.003818553633727656 
-0.006669709041984055 
0.004323075361197475 
-0.00969557128093008 
0.001687684373489406 
0.003169819676427515 
0.0006979130043715796 
-0.007835273708674021 
-0.001626552318328275 
0.0068703244678031 
0.005755389879455043 
0.005404709856508693 
-0.001475554156899654 
-0.005533592942473914 
0.0007432692790591638 
-0.0009705276389851828 
0.002771994444277613 
0.002534061659664331 
-0.002363990302917522 
0.001139271609826067 
-0.0002785225357245359 
0.006442684045697156 
0.001960302598536889 
0.002991788980485931 
-0.0004895429541597118 
-0.001723943344441327 
-0.006115324611190328 
-0.0008641696603597319 
-0.00122304475515478 
-0.005122213061666097 
-0.005821937695839599 
-0.002883196426668798 
-0.003186803606086633 
0.001781598960523956 
2.253039394759386e-05 
0.0002698121259876882 
-0.0110598877184662 
0.0003301294322406631 
0.001878676265302315 
0.001150347299379637 
-0.006236059640904672 
0.0002033513418344033 
-0.002570061534641498 
-0.0008821525745519044 
-0.009773114853240584 
0.01302153208807069 
0.01664753251316888 
0.001127470959945526 
0.0002542979795483431 
-0.006815574535954157 
0.003548713428377298 
0.003208940833497315 
-0.003088880188404131 
0.002419012287453488 
-0.002926307768845475 
-0.007121638753263699 
0.0009171708964940158 
-0.001409463669765661 
0.02104946360560258 
-0.005936262522478273 
0.0005702504601657669 
-0.01369053400830434 
-0.002105730898485674 
-0.0001684729424466192 
-0.004336199769863314 
-0.006128658754378092 
-0.002819517072349699 
-0.002772021194760019 
-0.004920172074540245 
0.0003121318849349798 
-0.007786920705157812 
6.207721888153191e-05 
0.001219063963932908 
0.002176761685071085 
0.0003194301637422007 
-0.01124704282288552 
0.009752855241913097 
0.008827202415555735 
-0.00947947684575454 
0.0002887669839006251 
-0.01432508791737205 
0.00994070797451703 
-0.001430955104666696 
-0.01096734182423551 
-0.001608192657355526 
-0.0003917219187779652 
-0.001432440363991839 
0.002502972125591839 
-0.008072956769307995 
0.0003685180859213265 
0.0002593623104307389 
-0.00977159705968402 
-0.002734697908172769 
-0.002180905709018292 
-0.007437304254180654 
-0.0001548493200478602 
-0.004211171359840876 
0.001215524154323488 
-0.001299112638499625 
0.001222263222254492 
0.003560937096389574 
-0.000721705410746042 
-0.003095207318343344 
0.005112720729521238 
0.0001881458664204134 
-0.001733267521011349 
0.0008509373861251831 
0.005541860909986247 
-0.002113276396399504 
-0.001414622954329178 
-0.000541337287849629 
-0.003329391228768302 
-0.0007889580528894811 
-0.002771828819536663 
-0.006519351214998859 
0.003444751951325086 
-0.004316744206293276 
-0.005329082724786318 
-0.005635408194284888 
-0.00420096815701832 
0.01939753054898649 
-0.003507814489153551 
-0.007207680513995728 
0.01167195470480164 
-6.86468652088615e-05 
0.0003220811471573628 
0.004804744691339058 
-0.003745839326172272 
0.003284760785177201 
0.002023201776359288 
0.01532918620242935 
-0.006132957547853141 
-0.0002878921154675262 
0.00177899631027084 
-0.0004553559875595196 
-0.001178123292902398 
-0.002361119194956421 
9.904739447392922e-05 
-0.004346853638212689 
0.003437736399468409 
-0.001184935187602141 
-0.004575321076263242 
-0.001535442632576314 
-0.001962221961754983 
0.01048206214666992 
0.008475233366001315 
0.0003502244507391948 
-0.004719572392491839 
0.008715585439612013 
-0.008704854808953586 
0.009451965274012075 
-0.001784249289107226 
0.001707876743133557 
0.001573705020310173 
0.0005066483813418786 
-0.002428040981166796 
0.0007129544630980121 
-0.004918031789847096 
0.0009901013985498916 
0.0002498970499409105 
0.002108388003654871 
-0.0007214341148727818 
0.002008281010738223 
0.002253852771241637 
-0.001167866216143692 
0.004246232113428205 
0.007110901932788414 
-0.0005701071144687355 
0.0003161630127751799 
0.008172093339224546 
0.01649608502660861 
-0.004790480754086265 
0.0146459795550582 
-0.011078994139098 
0.004687469616977905 
0.001498517066547157 
-0.004533888248897579 
0.002221801879566697 
0.002009245807615649 
0.02072631601697934 
0.01396920133454708 
0.002841430603065079 
0.000113846308237279 
0.003116247585334977 
-0.004950275874636005 
0.005307685077501358 
0.004966501399824835 
0.0002265027059963509 
0.001058221229227997 
0.0009902680896100836 
-0.001587268515632491 
0.001146112102548842 
0.000427608866229132 
0.0003902412290077791 
-0.002817903074866074 
0.001597237975361166 
0.0244752200234681 
0.001683479493546623 
0.004498307793168514 
-0.002071669140106591 
-0.005239904180228608 
-0.004839571967008821 
0.0009722103819999596 
-0.016595852739749 
0.0067812906935243 
0.01753312342853184 
5.84234582469802e-05 
-0.005441419901659123 
0.01802827547574032 
-0.01619250900355611 
0.008797300997255316 
0.01643487221244705 
-0.001376006958112941 
0.006844519320716544 
4.516825659005518e-05 
0.002890092510396017 
0.004010286152981662 
0.02014552952877284 
-0.002323903846639142 
0.007345461595273354 
0.002371740294783622 
0.009391321729361747 
0.005284628918859797 
0.009645504026773 
0.001547024682942297 
-0.001226853417958649 
0.009469253565304946 
0.0006929836918954233 
0.0004261419727959783 
-0.007114552960857094 
-0.004249944315328832 
0.003712644701726778 
-0.002624447550297419 
0.01255337419875467 
0.006410011393029027 
0.005567426557041462 
-0.00190036265268079 
0.006661455550715291 
0.01230200227168416 
-0.003289095179596461 
-0.00368758462855809 
-0.001801063214073746 
0.008781794479712855 
-0.0006463704036211996 
-0.005766104624208495 
-0.001760375287269048 
0.02525661274221179 
-0.0001982940076559418 
0.002359084656668383 
0.002345087593956241 
-0.001848713473199888 
0.002532656859655352 
-0.003831731636776357 
0.005096957938167464 
0.0002442070065618413 
-0.00525021748556578 
0.002137577196729369 
0.0002060332247344813 
-0.02400002944228908 
0.01208425489743809 
0.002296308572110182 
-0.01086009552713568 
-0.001873192828868799 
-0.003625263422932887 
0.002029524865611603 
0.007345747400092845 
-0.001773039015803929 
0.002662204664717485 
0.01221438265085136 
0.01178802420849204 
-0.006007261798323312 
-0.0002465509228389284 
0.003107740397050593 
0.005752970978421269 
0.001044172934340521 
0.01540809515348686 
0.00470525190233869 
0.001892060812480812 
0.01008710048956497 
0.002445559169925871 
-0.02029558667146468 
0.01952192887261183 
-0.001374668508783212 
0.001809039009552198 
-0.001613371343185877 
0.005111818793753362 
0.007283534706455427 
-0.009685734690993639 
0.004832765905877819 
0.00082965730056955 
0.007458150705476145 
0.009233347014137481 
-0.0003083243889371718 
0.0003230554689855615 
-0.004729713837692578 
0.002345620690433171 
-0.002633137333308949 
0.00252746413549796 
0.001900869555999362 
0.005124657097622275 
0.01056231963117552 
0.004676783457869789 
0.00607541380638844 
0.001111946762819546 
0.00616165795907707 
0.001739483338910285 
0.001619013061003304 
0.004924747054299791 
-0.002311279706828225 
0.01230103435536203 
-0.00311514147115512 
-0.002762891972273981 
0.002174492117433372 
-0.0009708808298762059 
-0.007283154951891717 
0.007307132557492256 
0.001026469537391998 
0.006375429875987657 
-0.003708135446811155 
0.0001952005059986009 
-0.01700163072006842 
-0.002564397935475049 
0.0009897841415426713 
0.001990649142708637 
0.003689402503907633 
0.003756483834694398 
0.009705830543377331 
-0.003657118349950872 
0.004811947340848971 
0.003005626669927345 
0.0301674321845398 
-0.002360199730304989 
-0.003751178054646325 
0.0009750355241754228 
0.004731955531156812 
0.002073707468356699 
-0.004716769415179504 
-0.002275325336303968 
-0.0003553193283573223 
0.0008553964910199002 
0.01350746329515622 
0.01132667586194953 
-0.004197295967973191 
0.005020304655710157 
0.003292567600794374 
0.00459654851785524 
-0.01048938827887914 
0.002556336405122669 
-0.031333527507179 
0.002787896682980648 
-0.005389573495200028 
-0.01523832499544208 
0.01321878360405851 
-0.001343486561346023 
0.009258715418541636 
-0.001966772175165563 
0.005443015002001603 
-0.01780462296070114 
0.009729249786056025 
0.001138648116632422 
-0.009798459895289033 
0.003010857188823137 
-0.02531715040539406 
0.004785879626356816 
0.001320925618477952 
0.008172031753199253 
-0.00224511400567864 
0.00126249119331956 
-0.007124740346378704 
0.01388050387297422 
0.001178868755950542 
-0.02010317627490964 
-0.01084958579680565 
-0.02954437176283893 
0.004352439068402194 
0.01847861417361976 
0.01563843237420001 
0.006225842548827123 
-0.009927418674165366 
-0.005584235718412079 
-0.008910552135173787 
-1.398539826587896e-05 
-0.001079148003210638 
0.002312671682982551 
-0.003201225414564947 
0.01701208003315883 
-0.008820630435348767 
-0.01917008478652969 
0.01802005577159439 
-0.00364248446969876 
-0.009281622401667357 
0.01626177407177513 
-0.003703271621810775 
0.002032911563765502 
-0.002822333472701882 
-0.008943712955189398 
0.004907967878899384 
-0.001040459217022078 
-0.008539815333194808 
0.005882062712764909 
5.040972269170683e-05 
0.006015180989340791 
-0.004032912857260167 
0.001959702430169947 
-0.01841109606794786 
-0.009524095492487764 
-0.007514740789937987 
-0.007103180351262077 
-0.005783380224280444 
0.007738076326777242 
-0.002974589772580739 
-0.00514872626445103 
0.001278499904823828 
-0.02548559410248571 
-0.0124691337506761 
-0.02411073820337213 
-0.01684329228821799 
0.001989398543244095 
-0.006297141039350049 
-0.0006414833391574051 
-0.009742110405717376 
0.002653926318312005 
0.01388008978809278 
0.009907583324876085 
-0.003721369039816142 
-0.005149237149524317 
-0.0002351484731201473 
0.002019380069640711 
0.01901484120257635 
0.00323344057764054 
0.00925871712282194 
-0.004099325728158793 
9.797724639965904e-06 
0.01449539815876251 
0.003540261051673372 
-0.02960926377737977 
-0.006818087951771529 
-0.01930173434109737 
-0.01332716595577913 
0.01074894709083114 
0.004800802358350972 
-0.005532379605662823 
0.004806967302275872 
0.01537574283148746 
0.006997671110934071 
0.01307746776961091 
0.03249467378749533 
0.001217767424073747 
-0.013023046704826 
0.010820898560268 
0.002586605457356198 
-0.006903494964878133 
0.01013207420280214 
0.003001947542588723 
-0.008812830578105025 
-0.01270220770813404 
-0.003089020249714633 
-0.0005692953677980202 
-0.001233877422555507 
0.01314231548597965 
-0.0005224019470123933 
-0.02212984270353192 
0.004353522594199436 
-0.01713390716019792 
-0.01587609120707379 
-0.001765654226198694 
0.001989017009005208 
0.01566431762287988 
-0.009542462614801614 
0.01137980919306053 
0.008422617348667821 
-0.02821893630115837 
-0.008819204436582498 
0.004172875582474892 
-0.01225472678264653 
-0.01256032491437862 
0.001054819866909397 
0.01544339601805717 
-0.002640984114752587 
0.007180592484602383 
-0.006386480990592715 
-0.01562788294876451 
-0.003071890399167745 
-0.00974199331020279 
-0.0009681364062818403 
-0.001805133228973583 
0.01410261410490572 
-0.001462087093482288 
-0.004816793221831039 
-0.01328723840263557 
-0.007814903351862079 
0.002160756073119801 
-0.01113314233082249 
-0.02203544703321904 
0.003622513700828027 
-0.005784938434600663 
0.01364960820483196 
0.01094040255825486 
-0.00393622308856687 
-0.008670060231870438 
0.007883295012700043 
-3.543315783878844e-05 
-0.002661066598412223 
-0.03031923392373157 
-0.002271353150548228 
0.00848549780588994 
0.0003806514926985931 
-0.01014456546501369 
-0.007344244107834124 
-0.01239573816165879 
-0.009948399263501027 
0.009938493914740937 
0.01106203648389984 
0.02565201024842237 
0.003152644851063729 
0.0003242644011933573 
0.01952374228468828 
0.002330848164322534 
-0.002429603849617488 
-0.01220125271560635 
0.009713409207123089 
0.008123050364852858 
0.03304515129718111 
-0.006458349344397265 
-0.01651426137780721 
0.007967064582886344 
-0.001760737061069021 
0.006209024604864931 
0.007146696054409068 
-0.03686142845727936 
-0.01100293197335553 
-0.01494871994852585 
-0.006551277504589444 
-0.0007013022265536667 
-0.004723781188921462 
0.01397716406069213 
-0.002474007260083959 
-0.002842412163551507 
-0.0005072046780933106 
0.002866733883472677 
0.01204666093108032 
-0.01220508429733182 
0.0195120560450065 
-0.008453203187629628 
-0.01516634065173811 
0.01012541646684302 
0.02675889571947725 
-0.01831654152999833 
-0.01821727913506244 
-0.006170127005407484 
0.007498691332501588 
-0.03208048254625129 
-0.01279285609072672 
0.001155182309499014 
0.001287037769911653 
0.007139163329228622 
-0.002968490206402519 
-0.002424966772988719 
-0.01625211875555295 
-0.01114822716027119 
0.008521618353162745 
0.02895088628090085 
-0.0156970362700799 
0.001303540122775984 
-0.01606961865428083 
-0.001286805368704977 
-0.02448324929902532 
0.01595120254155704 
-0.006458677615252619 
-0.006445136207292364 
0.02568981252173432 
0.04085458085777931 
-0.01577180612849517 
-0.02220637948524318 
-0.01208291384854833 
0.01160560847714009 
-0.005103702749467206 
0.04485099448234131 
-0.01784373332547665 
-0.000346561177067862 
-0.00462187108807225 
0.002031310725026596 
0.02748046348012098 
0.01457074363454995 
-0.03564517181855373 
0.002883414523561495 
-0.0009297282294485667 
-0.02316115069579602 
0.004771157259522056 
-0.02845490488636128 
-0.02333821981860172 
-0.001159425367833353 
-0.02166367949241084 
0.01676130742672579 
-0.007405450896773831 
-0.01009706489530634 
-0.006908887038026163 
-0.01162365047324352 
0.01146332662883792 
0.004516250325673505 
0.01411354190985735 
-0.01890812768776139 
0.01068111505342938 
-0.03044393326679753 
-0.01349163139527451 
-0.03098788453061726 
-0.03948357135783871 
-0.02089068086154422 
-0.009499493068237882 
-0.0219041765590307 
0.02953181519472697 
0.003812008564975441 
0.03192638056535389 
-0.00245262979665106 
-0.01495778104294855 
-0.01325477503459147 
-0.001822077458458695 
0.02834410367737631 
0.003891262905017838 
-0.01277029501300647 
-0.01679852156206278 
0.01618474599702386 
0.05818388719550773 
-0.01038902006185729 
-0.006116000344344436 
-0.01316055631944155 
-0.03661635240467932 
0.07317330298918992 
-0.006322329731504519 
-0.01139158790666751 
-0.01059458122465131 
-0.002729999486602991 
-0.006560394835912157 
0.01725806446874009 
0.002252326096315855 
-0.003468324009895359 
-0.01638680548707407 
-0.03219645539341438 
-0.02111855346107535 
-0.03511436486142862 
-0.009454778462435922 
0.007639823634705487 
0.01941207971657656 
-0.001028532994240377 
-0.004216831009080233 
0.002765698296810805 
-0.0006056511961680528 
0.02444143376091113 
-0.01058083777826331 
-0.004795504518878274 
-0.01768848288106779 
0.01090642776594789 
-0.02729607084638874 
0.01507357997794463 
0.01332344980252339 
-0.03533355953477289 
-0.009900268604733404 
0.009410387378545517 
-0.01786170762827885 
0.007636631698512349 
-0.01337167520810978 
-0.02026462518770196 
-0.009770056053078676 
-0.04748053897376798 
-0.0009603393155202123 
-0.02656705728683767 
0.02050606992806932 
-0.02157179128588252 
0.004299083974084824 
-0.009601741044317495 
0.07275887341675082 
-0.0312703485382084 
-0.01347030025280404 
0.0003307197909112034 
-0.0138331060605521 
0.00731804834673061 
-0.01520611734041192 
-0.01207549288825215 
0.02983136462506671 
-0.02448560136350456 
-0.009614806849565777 
0.00435784481534119 
0.04533140663764933 
-0.02838552085180429 
0.0122098879346208 
-0.00179334461029119 
-0.01204099509175236 
-0.009447086755167181 
-0.02039596048136806 
-0.003628180368073624 
-0.01609318394713343 
-0.02108652217374093 
-0.01717698759724831 
-0.0111284657844236 
0.0001721793200887802 
-0.00580895205590088 
-0.009396589606775271 
-0.01451812434033313 
-0.01464206536178785 
-0.03644939579028249 
0.02537972288047361 
-0.02292587263663104 
-0.01723451455055766 
-0.00946643093026129 
-0.006704570082641467 
0.01953074663785288 
0.01512619031162818 
0.007113911792602291 
0.02293926879285492 
-0.02695867218055602 
-0.01539318413169496 
-0.01926399323629596 
-0.003967462731084575 
-0.006387427524274905 
-0.01355067509994688 
0.004148128694156607 
0.001170765642595372 
-0.02069716343341739 
0.01068688320066235 
0.004804881488323231 
-0.008140822738044418 
-0.008947465842926947 
0.003132652125342709 
-0.008404562419701191 
-0.005156464080723392 
0.02298476705277834 
-0.01266701899993589 
-0.0111367082575934 
-0.01962451698331051 
-0.005676724026656774 
0.006713292544898068 
-0.02933594346625075 
-0.03440453696989459 
0.04068682366282529 
-0.004425066346475564 
0.01644030847444299 
0.01613931540344718 
-0.004793666691249798 
-0.0145148070539558 
-0.0261111198376775 
-0.004377645836375933 
0.01718275135995019 
0.007259007867887715 
0.01192704091186376 
-0.0112828868137173 
-0.007074269556750933 
-0.02456535618452996 
-0.006531329861281663 
-0.02073724906730071 
-0.005882257681425355 
-0.0001919206086910247 
-0.02148125226475023 
-0.001565418766938051 
0.004311212093061958 
0.004581844346882731 
0.007598057391062588 
-0.005449467313177225 
-0.03288708953718772 
-0.008095303969418854 
-0.001234960747764044 
0.005551352865684555 
0.01484276407048857 
-0.02900780769619057 
-0.008126897922101698 
-0.01827608238750342 
0.005786199095325646 
0.0002646275880762461 
0.02462399029050572 
-0.01441751158727443 
0.002486249070091016 
0.01159998873279386 
-0.0008523897739180518 
-0.01011257705382817 
-0.01671665917732952 
-0.001694554497411176 
0.01230639365210598 
0.001140072425779569 
0.009542573570633851 
-0.008176961095170942 
0.01089801156693719 
-0.003915526332730939 
0.001436923717864717 
-0.01153146678933041 
-0.0054686625385562 
-0.02515753826957064 
0.001218185597183429 
0.00508434339236492 
-0.01915692503283721 
0.002108463238943922 
-0.007256548695842073 
-0.03307333642283414 
0.00195748012049549 
-0.01684096961869564 
0.01018063334371967 
-0.0004131706969035808 
-0.003021524840703737 
-0.001580449860000184 
-0.01675675811082247 
0.005846646135260173 
0.0102749500236812 
0.008901736101742689 
-0.00854712924565291 
0.01426552838142968 
-0.01447410120032409 
-0.02467328213981747 
-0.02787971578726161 
-0.01922929502877335 
-0.01985429791536687 
-0.001260699316378936 
-0.01551322455182326 
0.00823884917119949 
-0.009299015883179719 
-0.001514991813008198 
-0.02574131273646119 
-0.01444666696474924 
-0.01904295361197251 
-0.02083907008066922 
0.02690094270621286 
0.01721178103452574 
0.007263384842203557 
-0.01558943075463751 
0.02648679039051855 
0.01138583831406649 
-0.006933909706893776 
-0.01238865801292103 
-0.02051916541492975 
-0.008384682713500839 
-0.003804777616856997 
-0.005124054468116956 
0.000973993933642135 
-0.009638692376251992 
0.003198170949974303 
0.0006782271623131479 
0.005198993797866506 
0.0111264411544024 
-0.02157839362009738 
-0.005696119894323782 
-0.005804057291333898 
-0.02081375136603187 
-0.009433708418159641 
-0.001814325718213183 
0.005597543832189282 
0.0271102835050746 
-0.002134304351091807 
-0.01092572681258868 
0.008785087189851703 
0.001760927221880893 
0.01370189154543376 
-0.00306417692682681 
0.004800692497972944 
-0.01599417106312102 
0.005367342911199289 
-0.01619564774965429 
0.01977948212179079 
-0.008192929995094633 
-0.02695387137064101 
0.00118180014601847 
0.008389002351768707 
-0.009494289435024464 
0.001764678091584781 
0.009043862542561889 
-0.009845633270805012 
-0.009079954244820975 
-0.02122691099662212 
-0.01889647342234756 
-0.01492354790694376 
0.01001583899352443 
-0.008744961182082551 
0.004191327253702734 
0.002400389871525599 
0.0003534117924595163 
-0.03493737056374891 
-0.008303458436574002 
0.003781174672063684 
-0.01510905067547044 
-0.0203476244064248 
0.003892551202103094 
-0.009139150609916944 
0.01994040970105063 
-0.01011204841785912 
-0.01985202795954601 
-0.01226634733698609 
0.004265765839148425 
-0.0163473832059646 
0.008909611861587181 
-0.007744692638249225 
-0.006931114071453037 
-0.005793225043099813 
-0.01315193844499969 
0.002182594832643992 
-0.006152179758229209 
-0.0100231275760434 
-0.01066290668139132 
-0.03221313615074371 
0.006345711790648401 
0.001797540662197022 
0.00868495649808314 
-0.004607371329045954 
0.01039445463556121 
-0.03868218052373201 
0.02191688383933175 
-0.01166872796846882 
-0.01499126037975364 
-0.01924885378211112 
-0.02184055841182634 
0.01556894313037903 
0.0113905432268269 
-0.001465198509283843 
-0.01783626344299749 
-0.02466540499123377 
-0.00667171518065422 
-0.01787762290019017 
-0.0002058687723660981 
-0.004937354873782932 
-0.003834291757424987 
0.00784534801453129 
-0.003305883535732483 
-0.01439085030672757 
0.03474340652077457 
-0.01456477425413685 
-0.005333318592069348 
-0.007176988761341565 
0.00960940720694909 
-0.005057797265511586 
-0.01661834739359354 
-0.003564918629233021 
-0.003124255971033091 
-0.009103533799316081 
-0.006418292715821225 
-0.04068032478395472 
0.008869203533959208 
-0.01675105805095388 
-0.0211256468537332 
0.004559009046042391 
-0.001821248135857618 
0.003156800636061175 
-0.002792711861974934 
0.001112046318185032 
-0.003047144552054873 
-0.01141548302169779 
0.007991027197903374 
0.002496712909823135 
0.007271506172477563 
0.005547483394153397 
-0.01040105266498846 
0.003131342154221219 
-0.01182481183574642 
-0.006660726170992507 
-0.003860637516120245 
-0.008010819817081972 
-0.008289578889036468 
-0.004490833215172832 
0.003630744063880593 
-0.00316100215640038 
-0.01466411553297752 
-0.0005766266396380534 
0.002640064110864277 
-0.04004494611289394 
0.01503642550989823 
-0.01009593985117186 
0.01169838842521581 
0.01364404318294052 
-0.02616714603268219 
-0.01216047896583847 
-0.01046170635828431 
-0.01223260541294076 
-0.0009860843850624931 
-0.003816959873235846 
-0.01120405328520796 
0.01775978518308124 
0.0294610049378478 
0.002381252367125725 
-0.01346518217714591 
-0.04431864687376882 
-0.009190412265559753 
0.0009145824857938954 
-0.005410227215378508 
-0.00418958310771443 
-0.005544962864730276 
-0.009668761205066012 
0.004600627095905678 
0.0009524809924715753 
-0.01205207301154026 
0.002941626574944877 
-0.02122534434335838 
-0.004754875110584664 
-0.01242364986618078 
-0.01628347413176252 
0.01376992542822557 
-0.0008550227250801184 
-0.009870813399345245 
-0.007932085968656917 
-0.02367830546375613 
0.006200086058384568 
-0.01010671637492758 
-0.02677268009343437 
-0.01479188641187426 
-0.01025061218753505 
0.0190397111272632 
-0.01138805698408406 
0.006301649385084337 
-0.002138884720706434 
0.0004673052894537198 
-0.01089382794078475 
-0.03390684663327962 
-0.0224926945786939 
-0.02904912160949909 
-0.01274915853248963 
0.0003340584225614326 
-0.006246893454583219 
-0.0008201900543678573 
-0.0063538289800835 
-0.001696986103885486 
-0.009256840339717508 
0.006808392897722715 
-0.02024506841864345 
-0.02701783339619184 
0.02711288961814049 
-0.004327955781551564 
-0.004039005800553651 
-0.005904012616007505 
0.004395939937208558 
-0.002240815894612645 
-0.008096564431765294 
-0.01093305257282771 
-0.009206615824567303 
0.003334533316875606 
-0.001845472478452138 
-0.008536803242440745 
-0.01269671851103326 
-0.002146829245784796 
-0.003380713262460636 
-0.004693597001333655 
-0.002502979010216527 
-0.002789252443156614 
-0.01857369841084842 
-0.002481955970488662 
-0.00817134101886287 
-0.01882186421803164 
-0.009790290319184132 
-0.004150207060148702 
0.001429856198175992 
0.03475436881607991 
0.01290856270263096 
-0.005962792772879971 
0.001576991125888941 
-0.009961836980194956 
0.003446186236808959 
-0.004826271339508364 
-0.01140029530367806 
-0.008902235970557436 
-0.007283992450887448 
-0.01149661186598428 
-0.002758043061487666 
-0.01436529811647702 
-0.01552599181081286 
0.003696829550100053 
0.002943491551596311 
-0.02406994553039805 
-0.01119992737978884 
0.03341848957204539 
4.808555909562175e-05 
-0.005730415997909805 
-0.01800590776906586 
-0.0277533696657515 
-0.01399064850591845 
0.006408891195758886 
-0.001429795710076476 
0.0003920253728228647 
-0.003196764122367999 
0.009208810353303409 
-0.05023647842949841 
-0.002183140722790179 
-0.01163061535845866 
-0.01546046224849904 
-0.00156841549417333 
0.006261888508551192 
-0.002187873792037852 
0.02780109660836555 
-0.01484857833184737 
-0.006972241935072238 
0.01250170730683226 
-0.006785670274678839 
-0.008865289949082639 
-0.008407190188386638 
-0.002881723447349006 
0.01203845689286106 
-0.005046999044164836 
-0.00996246978809695 
-0.008495334012437159 
-0.006490910311691161 
0.005729234220806563 
-0.00502194710468894 
-0.03470911022239681 
-0.006140280911921246 
-0.004918155272603051 
-0.01454504574723722 
0.01235653601048498 
-0.009443390336323146 
-0.02820001375447704 
-0.006730233543123014 
-0.006459256881891948 
-0.002205126285187974 
-0.02401948855059946 
-0.01127100831010371 
0.03986473604945084 
0.01426750124625943 
0.01492653383580665 
-0.01490881262563081 
-0.02127515771733878 
-0.008006873670769599 
-0.0342401267652107 
0.01102583515935411 
-0.009666705935334653 
-0.007206837962331597 
-0.008316134414259341 
-0.01427058546964407 
-0.02308962695636355 
0.00857600025841935 
-0.01979849070467018 
-0.01218805597978292 
-0.008003929957356607 
-0.0003432663077644408 
-0.02514509271833258 
-0.01490853040924549 
-0.000662828188693523 
0.001596015948631355 
-0.005387496859036076 
-0.004468786312242646 
-0.00669454033286506 
0.009064172787606968 
0.001674372554887948 
-0.01644647336267269 
-0.007501465295048623 
-0.001388632040860823 
-0.004198219457522383 
0.003660938154584232 
-0.007354495801889636 
0.003989236544587237 
0.0009923110892442824 
-0.01699722892045513 
-0.01166302663839284 
0.01174906885511246 
0.002988213708329972 
-0.004486365984246296 
-0.0192902226259715 
0.003264305727653875 
-0.001330477411672426 
-8.539522803567135e-06 
0.006039054844080446 
-0.007127813850363819 
0.001435694228282294 
0.004237307176898292 
-0.002222360596469792 
0.02514775271188927 
0.01241577046089931 
-0.002746372917425954 
0.006682496278404658 
0.0008390726430937784 
0.0005860150342327883 
0.02106154298740951 
0.007012299935679051 
0.007974693739520198 
-0.008304054349897842 
-0.0003226198375706926 
0.0124735016396618 
-0.001631361916386745 
0.001350977407699008 
-0.001064043928169502 
0.003441763771167501 
0.006313681650355512 
0.01006718790298874 
-0.0004299930033895921 
-0.001781112171548599 
0.006239466015153573 
0.02298088484803481 
0.006778458676342353 
0.0003717620591810167 
-0.009287920672905119 
-0.01037654102639872 
-0.00643113835547327 
-0.0003997610892227699 
0.001919696797707653 
0.003068875527863228 
0.005055855567314912 
0.01429434478218574 
0.002612645325917137 
0.003228831714038106 
0.003813822331521667 
-0.004498752890595688 
0.001183584155798937 
0.02144048547865491 
0.003990294710766283 
0.001445295475783809 
0.007753146267073114 
0.01357384317083005 
0.00539816851850186 
0.01766952307488386 
0.007240489872775423 
0.0231742928457127 
0.03881733886401854 
0.001934999252639216 
-0.007468599229042681 
-0.0008697330407265383 
0.002250698580164309 
0.0142035919749485 
0.01364375453484138 
-0.003750071725424581 
-0.00560765688237131 
0.005196621415760186 
-0.003760020273662729 
-0.01078210589535548 
0.007768103896860868 
0.008286508318734129 
-0.004068191000293305 
0.02343297285797714 
0.003393579924507797 
0.01098399812380054 
-0.007272730221187966 
0.005704798306135041 
-0.002980930831655017 
-0.00243998525860735 
0.006076472022162055 
0.004077240461734556 
0.004440650901780342 
-0.003774655613850465 
-0.003184982548341558 
0.001514244875344519 
0.009760410627050593 
0.01670470340873085 
0.003309470271423247 
0.01543158663926185 
-0.001212099395342882 
0.01061274983912439 
-0.001492366819582144 
0.009633969946590406 
-0.001133338646389108 
0.007748006752348029 
-0.001520414713083016 
0.006654682006151859 
0.002011230703037553 
0.004199461649135371 
0.009952752888646065 
0.002357963178033417 
0.009243637059140174 
0.02288522113796315 
0.0253690136513127 
0.001927694966445931 
-0.001538155384054922 
0.0186284871830262 
0.003938335226927829 
0.008345372615603308 
0.02086551681386663 
-0.0003996947786337439 
0.001574349819445989 
-0.004312170811452964 
-0.0009022142533122654 
-0.002480758693421338 
-0.0008995981231375405 
0.02171014974385174 
0.02213539356972524 
0.004778224774124372 
-0.001711999712529671 
-0.006525153398159078 
0.003663407687302009 
0.01148077354603979 
0.01033854829367414 
0.006320220359626155 
-8.255951193329618e-05 
0.00808247338508847 
0.0009484337352597624 
0.004631951294457777 
-0.004586928336555636 
0.01026771809918729 
-0.001286086437357321 
0.0033928677467859 
-0.0004798166876405343 
0.008837344705666909 
0.007643434776394787 
0.01340618713738892 
0.0002922162277959541 
0.00421066325202538 
0.001296276337194301 
-0.005106846222164495 
-0.01634758849963617 
-0.007565625852513238 
0.003155740557927996 
0.008871513463317521 
-0.002632768632151177 
-0.003937300680532532 
-0.006613641620822945 
-0.003784386523802698 
-0.002082452968663547 
0.004299986175585779 
-0.003941457270958624 
-0.001145724414484819 
0.01969545999701878 
0.0005947854155221203 
-0.006714542941330266 
0.0007340693890986016 
-0.03438179300554872 
0.001417716023021442 
0.001294349706698607 
0.01141280102681313 
-0.002081186534537651 
-0.01276234869471315 
0.02172727890295992 
0.004237805933665597 
0.003732744751462166 
-0.005044467312563965 
0.002070695426806547 
0.01739164712019365 
0.002704241538428405 
0.01714981773216457 
0.003938258431358398 
-0.007704560541947039 
0.006980310654761173 
0.0101237489523489 
-0.003712648977303206 
0.006072437244905818 
0.01301813024803849 
0.01062347073721463 
0.05055601332356756 
0.008515284657357673 
0.00510798779858799 
0.0131729205622206 
-0.002864612026484355 
-0.002702828147133788 
0.003151871174538569 
0.005513877949089773 
0.008744309293350802 
-0.008035713015069853 
0.007278436798405332 
0.0102142438279721 
0.001384889618286667 
0.008333880097695553 
0.004599008592601591 
0.01428847275424746 
-0.003133973710205197 
0.007503264520820469 
0.02072706830275313 
0.006480296879781109 
0.001825962424767476 
0.01828332052619993 
-0.01351573424225985 
0.02104186924872828 
0.009648317181004231 
0.000666699140186559 
0.003916927171827143 
0.00797320899276305 
-0.003097308378437931 
0.009258432591549627 
0.004046499245527807 
-0.006271043713567828 
0.02024170653121493 
-0.0160818174327594 
0.001902006287543822 
0.01597725358846353 
0.01323183428055802 
-0.001327358731799966 
0.01485895975840672 
-0.01032272493368607 
0.0150473417320351 
-0.0004373833653711082 
0.003786564963147533 
0.00700436341042729 
0.007771250781766073 
-0.008453700716453315 
0.002963573249246926 
0.01818509138704448 
-0.003927231710561793 
0.0115229822971214 
0.008085513972048743 
0.01461948681431731 
0.009295839393941246 
0.02105677838863013 
0.002387109589382601 
0.004318487021890411 
-0.006766754171997511 
-0.02455510286867637 
0.0001852801239761202 
0.01982937986420254 
0.008015054887496639 
0.003403044396866505 
-0.000408366833423779 
0.01060415615029777 
0.02993514415209228 
-0.0008935040470518034 
0.01298420742331834 
0.004084226718378354 
-0.009756367307018048 
0.01365501836130565 
0.01796437545082044 
0.00314052547601036 
-0.008019060269563323 
0.02922282495948802 
0.009956966832314854 
0.007782236267391805 
-0.001574514185932805 
0.003622998883313188 
0.01241825750552733 
-0.00359969851116674 
-0.01242504687611179 
-0.01069606156096891 
0.01543307975334267 
0.01712750709143026 
0.009099061563592461 
0.004038491429738078 
0.002508514509785952 
0.01078096287790996 
0.03062084624295134 
-0.000907013709465844 
0.01220460207003774 
0.01092684040599227 
-0.005277365642292159 
0.01001509098324585 
0.01555636805743394 
-0.002592617060670702 
-0.01354623282139672 
0.001248901170363336 
-0.0006278581195986442 
-0.006607293078607755 
0.009353228213369544 
0.01940231615848766 
-0.001324092518011661 
-0.01362123427843242 
0.01114969830711315 
0.009091854636597351 
0.002819343531868099 
0.01069526684616403 
0.02040469007260632 
0.01348757943464309 
-0.007160835681218343 
0.01112125104554866 
-0.02089534491608742 
0.02286435962364243 
0.005156525218192137 
-0.04372316440452828 
-0.005522895323530076 
0.002754675723645009 
0.009061638626719363 
0.009237379232521889 
-0.01707000230754703 
0.01352886148150469 
0.009590450777245211 
0.007950237594850909 
0.01031111547149219 
0.008234757413741823 
0.003700095748716188 
0.006488730679949701 
-0.0005845645070315693 
-0.005118701842279429 
0.009311676577111556 
-0.01248634643023604 
0.01288770800097047 
-0.006700315037291594 
0.0006256189189249124 
-0.0184981776529339 
0.006049289862108257 
0.02227200777232808 
0.01533965606896482 
-0.02794683762949885 
0.001957952282038169 
-0.01118479266679534 
0.008978030348097889 
0.006864214349762943 
-0.001514298322585088 
0.01099314180643424 
0.0003377856169534518 
0.0009331184560062742 
0.006811048355354511 
0.01755730730795204 
0.004049184174022903 
-0.001624308634257136 
-0.005348844620636065 
0.006313997920464673 
0.007248691649631515 
0.009791078090735235 
-0.01415717582777153 
0.004601459437375375 
-0.005333844150472958 
0.003067371291709863 
0.007562927496918738 
-0.007634278044685911 
0.01409855737430608 
0.001214735375817854 
0.01773261811392057 
0.005876937448029895 
0.007128768134868412 
-0.005983201831252684 
-0.006496945140481935 
-0.001784495531149267 
0.007699211252645411 
0.01435162807292389 
-0.01558471678892317 
-0.01303905434536237 
0.01529696065050347 
0.01307721092067528 
-0.03433593127924663 
-0.0062982576004981 
0.01938395503368768 
0.003443861928758205 
0.002681521181333959 
0.0144478846465902 
0.003573843605687805 
-0.02568328697444344 
0.007529885180200706 
-0.003346013861541759 
0.01649813337269437 
-0.00174258334612623 
-0.0005569776411764369 
0.01913098655120766 
0.0109543653926984 
0.009434948764413425 
0.01779010095118491 
-0.01966303942558618 
0.01178394350862853 
0.007947961861087302 
-0.008575354476040589 
0.01379923656666336 
0.01428468038921657 
0.01218778046388922 
0.0263023803143299 
0.02415249115283717 
0.0007006966996210733 
0.02482890094452007 
0.002496332795608475 
-0.005888595190014879 
0.006670814844559316 
0.007043741228426813 
-0.01197659179615342 
-0.007217544275586222 
0.01438877737461238 
0.01509428549702106 
0.005113649278153904 
0.0121139384090358 
0.00450421827209549 
0.01013980802172264 
0.00966518854338669 
0.005880440552952321 
0.009643091756509344 
-0.004254611233497478 
0.01498167995221313 
0.0113574602648523 
-0.005283007551286902 
0.01536691013593924 
1.499336899916624e-05 
-0.0009595589577824068 
0.006468835824509775 
0 
0.02655391634150604 
-0.004558860300494366 
-0.0004741220492083084 
0.006098983219830085 
0.002770293104105958 
0.01779578116769818 
-0.001832658835731326 
8.528236110039409e-05 
-0.001584902349524778 
-0.002497510582319152 
0.02394958907779656 
0.01269323385571191 
0.0006812387372852549 
-0.004448575841585673 
-0.002538832509667553 
-5.71657821998742e-05 
0.0001305190481041747 
0.01053551033164443 
0.0004168663741599031 
0.0004521267439594817 
-0.009394606410072922 
3.877992640660079e-06 
-0.000910002753896383 
-0.001018784744438134 
-9.194346735019867e-05 
0.001879799569633584 
-0.0001804095682751581 
0 
-0.004043598083522763 
0.02498410968977533 
-0.003760167145677992 
0.0001723341755977823 
0 
0 
-0.001045417954706455 
0.0001271580460794874 
0.006222538447135452 
0.002500350368704307 
0.0001727989162565104 
-0.001424745207884988 
-0.003478154556325357 
0.003485116894420442 
0.0001711941328692694 
0.006508963832461878 
-0.004448751918562085 
-0.0004477573938776672 
-0.003926894645914719 
0.0001754934261246875 
0.01735659084830522 
0.009276756109977288 
-0.002064610071275626 
-0.001611974516547652 
0.01212592794946311 
-0.003671977251135355 
-2.396109418637499e-05 
0.0008223559044768627 
-6.336044718915358e-05 
-0.0004657059882773846 
-0.00419669443792824 
-9.84414014539037e-05 
0.0124859108572372 
-0.003003466016371339 
6.347086545252463e-05 
2.357877200184892e-06 
-0.00313213016656618 
0.0006677470559526185 
0 
-0.004942475281915242 
0.007257315267801466 
0.006177169585446628 
-0.004049356306432601 
0.005350356162556469 
0 
0.0001496783834281849 
-0.0005471694948826376 
-0.006721176108114885 
-0.0008368772625124483 
0 
-0.003456647865667756 
0.007402697808716434 
8.977516043902239e-05 
0.006792383715961707 
-0.008171062861662049 
0.0009818554056695264 
0.0107992255576612 
0.0005812998712919323 
-0.001295118687710306 
0.001383042506299807 
-0.002401990543882338 
-0.0009281989942824041 
-8.456133300729574e-06 
0.006255077319095035 
0.006156725264736366 
0.0006323823599596045 
0.0002875799017048917 
0.0004396547947581123 
-0.001677625065137783 
-0.003467286351083749 
-0.001517031168068626 
0.000637654347569351 
-0.00384496565185909 
0.008443806167303209 
0.0003591546781583085 
0.006269180988902137 
0 
-0.001875270859261624 
-0.00361461317294936 
0.004525356672569338 
0.001354333949650566 
0.002310715810521564 
0.02271313804677625 
0.01319898706557611 
-0.0002275677028098029 
-0.002433558388365677 
0 
-4.551101473784177e-05 
0.007821587264736569 
-3.53982233922946e-05 
0.01218781633701415 
-0.0007577962501587654 
0 
0.0003515639047008659 
-0.00203835320099212 
0.004300116744106252 
-0.002749164204672729 
0 
0.0008709897598424011 
-3.248209950041492e-05 
0.005726524192286767 
-0.0002317593220341896 
-0.003322484023990355 
-1.604033976979005e-05 
0 
-0.00493783812623614 
0.002863161656766048 
-0.006578046780361094 
-0.0002776574340351307 
-0.0004098753672340895 
-0.002239590511499522 
0.003585405125346466 
-0.003914094096489928 
-0.003542607806170734 
-0.001909640451841009 
0.0006332791291852185 
3.622343235935637e-05 
0.002344534706264886 
0.0007290816768790049 
-0.0001265574692438005 
0.01439630191170805 
-0.00557851501829086 
-0.01252152466972399 
-0.004004232239289066 
-0.002054677724013053 
0.001147509448407854 
-0.000337940167544819 
-0.0140475595296583 
-0.01441699157646512 
0.0112955036164285 
0 
-0.001894519927807093 
-0.001678939272373408 
-0.002043082827013475 
0.0008293262364425454 
-0.004646583862085776 
9.481267966116261e-05 
0.001867708692001234 
-0.003045486136773739 
2.371781681213053e-05 
0.01364541917887227 
8.679922034708236e-07 
-0.002721370145587852 
-0.002944317654416143 
0.008800716921042536 
-0.0001263591620394015 
-0.0003556637525667349 
0.001809646530935213 
-0.0008935337684152425 
-0.004242715320110254 
2.33264976195704e-06 
0 
0.008762771215807336 
-0.004385283458592559 
0.0002396417881870947 
0.0003578727579228601 
0.0006875280844734362 
-7.290533741299437e-06 
0 
-0.006987972002381044 
-0.001266943990179859 
-4.687896839151787e-05 
0.0004604683966431489 
0.006800986825777122 
0.0003561602707577278 
0.01831138398721609 
-0.00547769986484834 
0.0002437374017096545 
0.009140900350468741 
0.01074093282068631 
0.004644352904598051 
0.01200416958955332 
-0.007366915190262191 
0.02454752489346255 
0.01231374063335718 
-0.01928851626589964 
0.01332392596150401 
-0.02342303184664619 
0.009838013418888802 
0.01093858096565713 
0.03068932299406738 
3.767626157190929e-05 
0.004781920487074628 
-0.02879645603317063 
0.008475335640246825 
0.006045806125645199 
0.01019184701942026 
0.006971983471990711 
0.01693034444379363 
-0.02287466406681981 
0.01392787065261475 
0.02316149774821707 
-0.03807897898866902 
0.00376937248866428 
0.001419712486919577 
-0.009612056186909671 
0.01238733081460513 
0.01430634108064753 
0.0159382518791891 
0.002465614464296371 
0.004416627477901973 
-0.0173152650749155 
0.002389979169712334 
3.18618879890507e-05 
0.005389539778420107 
0.004464342555964806 
0.02009867918672014 
0.01062596341488412 
-0.004738886052246315 
-0.0001319264040218604 
0.01325928840268789 
0.02069451168991393 
0.005054067531267338 
0.01498186798181811 
0.01814587994296982 
-0.01491068735379906 
-0.01031179379924364 
-0.004182902723744875 
0.006238680588828695 
0.01273165148865893 
-0.01395255344063245 
-0.005063497282565665 
-0.0319202456718724 
0.01840416657340828 
-0.01062692645308539 
0.01787993083106695 
0.009739062342883655 
0.02523099915527433 
0.02123090710618966 
0.01767797192647715 
0.005005976999306017 
0.02525607954208147 
0.003200169395135774 
0.00777198496501333 
0.009329405123563474 
0.006367926361337861 
0.01322404963849575 
0.003041055141652362 
0.009474985165946661 
-0.0545019633914945 
-0.007433788255605711 
0.009011918843078238 
0.003327419872998856 
-0.02154663056986428 
0.006765001718412902 
0.02024027968938569 
0.002854948572093205 
0.008366578745994399 
0.04176587951980757 
0.005291245340837806 
0.004363192103804928 
-0.00343115311095536 
0.02385820015559488 
-0.004338494916480511 
-0.007659029884265868 
0.009035309532459873 
-0.005261753831383303 
0.009360933385192397 
0.009841036616091607 
-0.0193023525042155 
0.01160136688401266 
0.02271495054538615 
0.01014492723858364 
-0.003943251510664229 
-0.01886881385155746 
0.01836744862068908 
0.01255125470253476 
0.01269314920834049 
0.009662989602065986 
-0.02375751674412575 
0.0008637134159788103 
0.007367916073107135 
0.005787676438771145 
-0.005903041531824444 
0.01458465122966515 
-0.02599074350472491 
0.007490736320719555 
0.02318242685043076 
0.004259208475603621 
-0.01107193767890307 
0.02327045584775063 
0.01751450346396131 
0.05561439864855998 
-0.004252558804653336 
0.007041440335257456 
0.01503328066405481 
0.007301867074040866 
0.01688693247889532 
-0.01650914693926654 
0.02757291305144514 
-0.006947491734979497 
0.01603519034172167 
0.004050392489011983 
0.008759775805356904 
-0.003717610410035827 
-0.01128398652942863 
-0.000105248640627346 
0.007480136728740217 
0.0191400854584884 
0.01813977656620914 
-0.04245643747240613 
0.02152742962098209 
0.01142068354249849 
0.005620266492471802 
0.004393727206296778 
0.009089992653644012 
-0.00920988390748774 
0.005112583556278334 
0.03625850895854964 
0.01541783162351893 
0.01653012245981081 
-0.006857316978110006 
0.002348318664633648 
0.01751772704907657 
0.006597731410115821 
0.007936434576452406 
-0.0149082343358479 
-0.01172274722014283 
0.01374109340724017 
0.02369573160554871 
-0.0196610902423089 
0.001667925251513719 
-0.01880433993415434 
0.0117497242145026 
0.009092524224671885 
0.01319408517445186 
0.009404170686766536 
-0.0216232781022224 
-0.02995466551480138 
-0.01040491397316867 
0.01096767254624728 
0.01761772669209762 
-0.006481869215352232 
0.01822307051950042 
0.01496930150859162 
0.001219136484863127 
0.0159584260043585 
-0.02013958957730471 
0.01202687304446579 
0.01623198840687608 
-0.02164103520669935 
0.008870393938168743 
0.009735878770556813 
0.01147124092448304 
0.03503324714256698 
-0.006512161339002693 
-0.005157950356344363 
0.01657825077028903 
0.01424239054035634 
0.004365135302001286 
0.01394798432870414 
0.004511055634414523 
-0.007208797213063138 
0.01541798227447298 
0.02353510670426053 
0.005822846795392967 
0.002055832856673893 
0.006069778611872128 
0.004226801175820851 
-0.00375421028637103 
0.02002194346611329 
0.0294182297442028 
0.01092984327814485 
0.02026657095789369 
0.01371340376503684 
0.007948288700566127 
0.0004073828839986216 
0.01437137622820523 
0 
0 
0 
0 
0 
0 
0 
0 
0 
0 
0 
0 
0 
0 
0 
0 
0 
0 
0 
0 
0 
0 
0 
0 
0 
0 
0 
0 
0 
0 
0 
0 
0 
0 
0 
0 
0 
0 
0 
0 
0 
0 
0 
0 
0 
0 
0 
0 
0 
0 
0 
0 
0 
0 
0 
0 
0 
0 
0 
0 
0 
0 
0 
0 
0 
0 
0 
0 
0 
0 
0 
0 
0 
0 
0 
0 
0 
0 
0 
0 
0 
0 
0 
0 
0 
0 
0 
0 
0 
0 
0 
0 
0 
0 
0 
0 
0 
0 
0 
0 
0 
0 
0 
0 
0 
0 
0 
0 
0 
0 
0 
0 
0 
0 
0 
0 
0 
0 
0 
0 
0 
0 
0 
0 
0 
0 
0 
0 
0 
0 
0 
0 
0 
0 
0 
0 
0 
0 
0 
0 
0 
0 
0 
0 
0 
0 
0 
0 
0 
0 
0 
0 
0 
0 
0 
0 
0 
0 
0 
0 
0 
0 
0 
0 
0 
0 
0 
0 
0 
0 
0 
0 
0 
0 
0 
0 
0 
0 
0 
0 
0 
0 
0 
0 
0 
0 
0 
0 
0 
0 
0 
0 
0 
0 
0 
0 
0 
0 
0 
0 
0.003181196353465768 
0.008520991177443302 
0.005281119650212968 
0.003306041106816863 
0.002269458369926056 
0.003101776155223547 
0.001439012892840722 
0.00261245371202233 
0.003329671827771948 
6.529385972688024e-05 
0.002933748394099769 
0.002424099053153043 
0.0004734089774602874 
0.0002443681264395712 
-0.0002014400942440126 
0.002438749952084714 
0.00298758966738645 
0.002049449105396039 
0.002471917907690655 
0.004342974720539798 
0.006085117123863692 
0.001147368215123678 
0.00193150207989656 
0.008201748850957936 
0.01093771876631165 
0.00444150763998653 
0.0001542384354710198 
0.001094266357662557 
0.002318407101995643 
0.003289451073568634 
0.006298342399862622 
0.005716846272871917 
0.001616083639551204 
0.00603547187002291 
0.01535716581356883 
0.002248740352146037 
0.002772566083936203 
0.004413644326980022 
0.003551602193471686 
0.0059470952055622 
0.003329184033527371 
0.002183289097558313 
0.002010161615078661 
0.0003915601966305891 
0.0003333135386509663 
-0.0001154051948176675 
0.0008432757203879494 
0.000391429827030812 
0.001598866549020036 
0.003455930105300236 
0.005242813472717881 
0.001936517213301782 
0.002623849186627334 
0.001190170431059727 
0.0002125304122411182 
0.003372323434259486 
0.001201823696249353 
0.003431331583918034 
0.003035545205939575 
0.005851072405743924 
0.001257055511102007 
0.004953077890278547 
0.009977861881587379 
0.002216289137716486 
0.002795885098148484 
0.005329982678010283 
0.002018185267548221 
0.005149914199769365 
0.001735547563080836 
0.001672160070444679 
0.003187208879533197 
0.00474670004974378 
0.00119827014658468 
0.006175399188743998 
0.002783477991176209 
0.001738441973382451 
0.003811646903537521 
-0.0009461337409750004 
0.0006774977436069973 
0.002987910527801926 
0.01087366874941313 
0.0007177500486664693 
0.003336085059523191 
0.001258094194640437 
0.002705704984821194 
0.001836504228570958 
0.001176798767733549 
0.00536898202104889 
0.003294424659672158 
0.002849838496659517 
0.002751561511731641 
0.002532634369665629 
0.002058151929961839 
0.007335334335589166 
0.001665222499468164 
0.0002560829580964146 
0.005426863950900898 
0.002431474507715027 
0.003969893318831581 
0.005762908547158452 
0.0005968049657888542 
0.002103132415254862 
0.001973597401261131 
0.003345865425634577 
0.0004245799823066238 
0.003031370689329263 
0.001953207602749148 
1.44146169756231e-05 
0.002964316745111039 
0.001632157689985887 
0.001652434898627042 
0.002079082772751025 
0.0007905956193007971 
0.01070963060990531 
0.001805308173125797 
0.001717338500609711 
0.002079761564643948 
0.0008292086530463759 
0.005062222598172656 
0.01087063397046641 
0.001396311919166864 
0.00166172120185179 
0.01350970730868463 
0.006255511803409752 
0.001916183942933404 
0.001387813491145141 
0.002003450679579187 
0.003220846567091159 
0.0009598416045846626 
0.0110320728127663 
0.0008147657692632334 
0.003371946130229439 
0.005584392517959558 
0.001060666167958084 
0.006997385970540802 
0.002672388774303707 
0.005557576505215203 
0.002791303390675049 
0.001160773339960523 
0.004761607876402944 
0.004293119949010265 
0.001411576612085539 
0.004284884492423781 
0.002137621046513117 
0.004627139298899878 
0.009165459968242733 
0.00210858495948369 
0.0008868387859206671 
0.002383576574951138 
0.002497120643931971 
0.002951268482204743 
0.002423597542569801 
0.002394871297373952 
-9.065556409065119e-05 
0.00587990118470934 
0.00229376974334596 
0.00794940270247391 
0.001810557401137178 
0.001811454741335562 
0.003648384785591756 
0.001787221239009855 
0.002234206631443168 
0.009657825789799521 
0.003579514595741969 
0.0002898585720530904 
0.0009042339474796482 
0.002205978281534914 
0.004946584102714866 
0.0008351729328491322 
0.002924437242497655 
0.00303465054736615 
0.001890375394294787 
0.003561609199171908 
0.004563820540981076 
0.001331132374174141 
0.001689005325278484 
0.003157118804172343 
0.002650629699747539 
0.008647148320170234 
0.002327248838466018 
0.005805125636938192 
0.0008296136238609652 
0.002251062047159053 
0.0003148621016855939 
0.001656164187516814 
0.002006696868395686 
0.001629688967534217 
0.0003839301483569564 
0.003548717368759672 
0.002206154792266076 
0.002238835844277641 
0.001198630235519856 
0.003138477054017839 
-9.650505670684146e-05 
0.004878740847142717 
0.01184495121234093 
0.003421595246143139 
0.002927928273900881 
0.0041502997960472 
0.001815732572882989 
0.001944031497807978 
0.002339024337063217 
0.001692822655254849 
0.00279719696463711 
0.0003634130337295855 
0.00283885872923498 
0.001377164369395505 
0.00172702539461863 
0.0008044405881017642 
0.0008582633731044321 
0.000340482558958667 
0.0009841756818862249 
0.0005339799001726649 
0.0002603163411958677 
0.0004248816554326931 
0.001236356715989148 
0.001585059997255323 
0.001205408709619613 
0.0008225387071915146 
0.001747572352969371 
0.004566539222414269 
0.0008586771273723586 
0.0003901012144414097 
0.006999145394868401 
0.005411751655060418 
0.0039961800527006 
0.001197997946860677 
0.005291737220422012 
0.001697335435990904 
0.0003811144787244491 
0.003104443494815934 
0.003923328318937033 
0.000539642690430074 
0.00345663399004552 
0.0070738196412563 
0.005211679065238303 
0.000359071930515953 
0.002803197749693081 
0.003190702286973162 
0.002371851984037713 
0.001184917212965186 
0.0009624921303127942 
0.001986865340533724 
-2.92813400094874e-06 
0.0001417588818746516 
0.0001171016284601848 
0.0001296974027067171 
0.0002919322306082335 
0.001907034686089132 
0.003672625688700361 
0.002907357902248674 
0.002370000819564213 
0.0006205056300830882 
0.0009940855444175636 
0.001700939301534587 
0.00172069490876579 
0.0003144319851261943 
0.001573451023454729 
0.001213603717369048 
0.003128209947910767 
4.932078443072507e-05 
0.002533178061554598 
0.003985890700699847 
0.003655704788214902 
0.001015297686600458 
0.002288498360180338 
0.001376933381911757 
0.004267826393435915 
0.0001277005434391898 
0.001024332715504359 
0.001248482197006151 
0.003179402024267885 
0.001420756427546362 
0.001087422358025095 
0.0007533690965073111 
0.0002840012689253712 
0.001324508349857509 
0.0002614056452758987 
0.001090771682035913 
0.002173927149551966 
0.003945010642722084 
0.0002858473537904272 
0.0007357295741630504 
0.002406929715553323 
0.0008280850819821006 
0.0004991433660307477 
0.001485322030396297 
0.000837621481213887 
0.0006297261836747386 
0.001019918353291608 
0.00422752287948269 
0.001557769108321486 
0.0007786428235159923 
0.005194422597009825 
0.001722663166320257 
0.0003222476548127286 
0.002673995977294788 
0.001534117204428312 
0.002396219004262879 
0.002856508000796441 
4.198895729645416e-05 
0.000559124041399219 
0.001509693103639458 
0.002811998138338493 
0.001667589554748646 
0.001260617562700444 
0.001248627401691879 
-1.818723139874578e-05 
0.0007612434039838721 
0.002966643041088682 
0.0006835754856640428 
0.00058722745008702 
0.0003857347624338709 
0.004947639006901553 
0.000716628048606654 
0.001696440133969575 
-0.0002630515308363277 
0.0005532117141832352 
0.004020613249919202 
0.004935486127090443 
0.001106949020262058 
0.001318330221865349 
0.005679382561516259 
0.002755366925694397 
0.004356581066371885 
0.00179246704414464 
0.0005998987839396095 
0.00152464678186777 
0.001480885999099387 
0.004498987895868568 
0.001292638555559636 
0.002599071083708292 
0.00508864072734246 
0.001619930032604535 
0.003518954084946546 
0.001862350320738624 
0.003508125099097619 
0.005018980074051954 
0.001909325221216734 
0.0012515297985771 
0.001402196814098692 
0.002564715103995765 
0.00376991827559736 
0.0009014524834794822 
0.001345037438774389 
0.006354071337875665 
0.002104576304597439 
0.0002448759377496278 
0.0007690090435363567 
0.002696809386771267 
0.00128739312797828 
0.00070073707563696 
0.0006452932731470243 
0.0005034519533831562 
0.003289964179671912 
0.0003865512006416194 
0.002841271060786535 
0.0006712504485188948 
0.0006166855932100625 
0.0007568133570504204 
0.0002627785448536516 
0.001252967349771845 
0.005345014246001046 
0.0008747817188041985 
0.0009509387672235014 
0.001060306306709439 
0.00097316096395978 
0.0011372479072694 
0.002680739530056955 
0.007221436299886363 
-0.0001279247654794367 
0.002394834509613581 
0.001358802517647491 
0.001144522245140039 
0.005019904348029365 
0.001260951725047782 
0.002187352863747072 
0.00040688374931418 
0.004214367689486769 
0.0002557563740987614 
0.00373129058168517 
0.00206710773147615 
0.001786867190517779 
7.579213044057386e-05 
0.001156462719176775 
0.001201774296607155 
0.00174517415993404 
1.268354483823096e-05 
0.0004816032939991042 
0.0008106534031716701 
0.0006838526538312473 
0.001351193643106598 
0.00299833800385192 
-7.071840633781406e-05 
0.002395205369517823 
0.00439690322541271 
0.002229320007645158 
0.001057791730177423 
0.0009603998220388696 
0.001857929246839457 
0.001180393334554947 
0.003733309661277879 
0.008476196471701083 
0.005825086743215519 
0.006393110570378574 
0.007216603521396633 
0.008752719270919506 
-0.0005746561683466744 
0.0042001935553967 
0.005353345395437981 
0.01018213634858885 
0.004678071642102296 
0.005629460239929032 
-0.0001825561858974553 
0.001342328265059991 
0.0009871048666144683 
0.007376146225524886 
0.004012352430413084 
0.009799185020573543 
0.007464674598207556 
0.008103714688814972 
0.008364674188481492 
0.004407795044319544 
0.002131707829748813 
-0.0002878908160691963 
0.001663444186378806 
0.005976088545589366 
-0.008313036438140395 
0.004873178848853438 
0.006776304300075177 
0.02100121334364568 
0.004434788197482538 
0.006731275649320058 
0.00832956295292831 
-0.0007679830164880106 
-0.003868018164056687 
0.005682505442714264 
0.002746003927029851 
0.004028848337186136 
0.00812888063529415 
0.006701388418719381 
0.004251945253949255 
0.005097981939396815 
0.001627251983987255 
0.001100072527274756 
0.00043135647117056 
0.009680786643090876 
0.0009696121313572917 
-8.120375162044142e-05 
0.005670220931411852 
0.00893212681696356 
0.005631986944602221 
0.006043352919481536 
0.001653603067360452 
0.00621982080842877 
0.005279818637410469 
0.006165419568941739 
0.007009332931792953 
0.005413768600977221 
0.005858103579264048 
0.002275425068604978 
0.004521037333372551 
-0.001534065208522213 
0.0004604801820832186 
0.01231979256559827 
0.007335009251718175 
0.003257962859787811 
0.002325124427738975 
0.006064903048127413 
0.005854324346680158 
0.00466015802456444 
0.01061230506015586 
0.003427813287517852 
0.004480934198925262 
0.005720215614745926 
0.002748402849496299 
0.008593475243709077 
0.00660937611899288 
0.001724271797702087 
-0.001488864777929946 
-0.008780322286727305 
0.002230177080898607 
0.001080804405789097 
0.004394796307636789 
0.003995214029447384 
0.004450185882836383 
0.006544539456587299 
0.009948360105915667 
0.006576800876465813 
0.01082341942725749 
0.0004149634334756059 
0.01274190740311284 
0.006880773141107607 
0.00862081820444701 
0.004214721212248764 
0.001176309517636305 
0.006226336947567695 
0.006837640505655915 
-0.001976001647588111 
0.0163409604050151 
0.009128541530776486 
0.006228358609703311 
0.004815690343112627 
0.003349963373906921 
-0.0005710453606961526 
0.00775552493910374 
0.005681046192427721 
-0.0006370549599199287 
0.002778608676239929 
0.004783668176285666 
0.006385421210786109 
-0.0009810547582860736 
-0.005735775389915895 
0.0003610662260010803 
0.006411783419551452 
0.003782563970558291 
0.009813453167276174 
0.002655676567146968 
0.002270057777667882 
0.0004981699227063013 
0.007378250891019584 
0.003993157819899606 
-0.001725349774450215 
0.005786157171528633 
-0.004887030337296467 
0.004407201009066036 
0.007231732293517689 
0.00370809649913175 
0.0027382223542907 
-0.001620865125658273 
0.008872416424163806 
0.01235028083764423 
-0.002149888572421019 
0.001255928365196923 
0.01736566269007202 
0.003722741955655213 
0.004730119158604293 
0.005602490490883026 
0.007740588122685654 
0.003648155933546914 
0.007365168582369915 
-0.004067575249970423 
0.003178939168160437 
0.005555367945132741 
0.008178713921479458 
-0.00339281248867756 
0.001018038770934247 
0.001047969414397299 
0.00339133938617811 
0.01144639173928062 
0.005795181883126161 
0.006317918331488905 
0.008759799183449289 
0.0009192380775623537 
0.005517091515191966 
0.004931201590472125 
-0.001434379287728591 
0.004291213548887495 
0.001174084188147069 
0.006449584073787228 
0.006646652577466618 
0.00489308658932763 
0.007450370214118179 
-0.001103265723501719 
0.00480362250411473 
0.009207877208908625 
0.006031475369391242 
0.003000535147553198 
0.006845000591066252 
0.002524682227791957 
0.00852689655653855 
0.005043872027378323 
0.003557777681459784 
0.006950514305716767 
-0.006001216430615101 
-0.001500314236107623 
0.002917770156740392 
0.01089781146864374 
0.007497654637759361 
0.004798754612667922 
0.008355923204472026 
0.004782200470740886 
0.009615854672352597 
0.0001277774530752836 
0.00770906367117588 
0.007086133314508989 
0.007571551872197769 
0.0007592849813856409 
0.004316646210294665 
0.002451991670490846 
0.004737934413451232 
0.004528347826549542 
0.002851709787564491 
0.0005749333128786924 
0.005410553571111406 
-0.001023856845315759 
4.486401133271664e-05 
0.004464827790887213 
0.006040443385105189 
0.005515738652679702 
0.008345634851536221 
-0.01504433186892267 
0.02959556114755333 
0.009179253986302333 
0.05572104637568331 
0.02028910723542738 
0.01529811358836633 
-0.010641818743504 
0.009657035974134184 
0.02758179467647507 
0.01234979472047291 
0.00734303353807024 
0.01703449021847168 
0.0001183352823779869 
0.002760777247054736 
0.0003302903341644714 
0.009578129306967815 
0.02106723488604542 
0.01599132988913544 
0.04482407484930154 
0.01158247000327854 
0.00125330298737815 
0.0137397195385843 
0.0003057898024408259 
0.02671564744705479 
-6.603477953214931e-05 
0.01210773705370836 
0.002864073135907414 
0.02844414874273592 
0.02286983978367373 
0.0296862982163696 
0.008648178937537632 
0.02079620997358593 
-0.006846474125431511 
0.001531963825633919 
0.01444689965726349 
0.009009748443498175 
-0.01313163465429849 
0.02920708366531113 
0.005142583081134108 
0.02946817408266384 
0.005455272561129235 
0.01787818990350422 
0.005632698337925271 
0.0006479721397562526 
0.003157830933675393 
0.0173872819029501 
0.001978170038768236 
0.01454874581198786 
-0.0003504756090903492 
0.01053869506491287 
0.01385287216011901 
0.0244733179240042 
0.004752697640525238 
0.01187260561617795 
0.009853569835966476 
0.01679025794463599 
0.01109345488133607 
0.01216834396271969 
0.009998021028816651 
0.008279775358075763 
-0.004018341720537572 
0.002157624943021807 
0.008423944138285757 
0.02110557813193631 
0.004672181767825379 
0.01839687708857692 
-0.007080019707429751 
0.008844439158694525 
0.01649701359604222 
0.03461948976011094 
-0.004136422827518116 
0.01565743899953561 
-0.02266053213052625 
0.02327336559927869 
0.007560295004677792 
0.03477594946811626 
0.01895201608630064 
-0.000450764443799937 
0.005013537489337077 
-0.002616791791220446 
0.003874076258771778 
0.02280406476362125 
0.01360661520168868 
0.008002892021609554 
0.01607399474285937 
0.02165300685517905 
0.02689470466656629 
0.03009591668821189 
0.02816664528654677 
-0.01752882426091067 
0.02726445518934742 
0.04268412125410678 
0.01915253713334264 
0.01254506943379024 
-0.005862471444119292 
0.01949481005031414 
0.009165960283592506 
-0.006429438063920725 
0.01484584432242993 
0.03515722730233464 
-0.0008893604492708746 
0.02525923448600739 
0.008183481335672444 
-0.002195162338260916 
0.01283801879446769 
0.00438871941164521 
0.001647784828294213 
0.01686859157764959 
0.02408315720022004 
0.02555813165235393 
0.004875634533502531 
-0.008696757724003981 
-0.008437468866359009 
0.02096396305570854 
-0.008070900601450156 
0.009998019880199032 
0.003722185266113947 
0.002496036716397809 
0.007947183149377974 
0.002671812435702109 
0.01082530107228881 
0.004718361025680895 
0.005983015253250184 
0.01396508902455634 
0.01139168719322177 
0.02233717740794511 
0.02882563895774608 
0.01450949152110963 
0.004239602859316221 
0.03066615768413372 
0.04420567742717048 
-0.01087297822284817 
-0.001739311360625231 
-0.003346346741739054 
-0.00076913952301186 
0.007319334793030145 
0.01104769070229199 
0.02194057838455557 
0.03155166284347129 
0.04362084573985783 
0.01042078116329438 
-0.01302962445929632 
0.01415465950951662 
0.02645504406976337 
-0.003938603267683126 
0.02788454787120296 
0.0004318322608548385 
0.01493535877246231 
0.05174728270842639 
0.004713569004316728 
0.02702272750018986 
0.01583299435998726 
0.001092266965992505 
0.01112578772207448 
0.01758444678766778 
0.006959508363337912 
0.005548292991636249 
-0.0009252608292542102 
0.0217873687412738 
0.01207048783194959 
0.006029298875005323 
0.001040111039957871 
0.01721927712165312 
0.003492951812205604 
0.005640765420515427 
0.02605587774112155 
0.02996064100120908 
0.009543481078900375 
0.01785101411775855 
0.002668594495830433 
0.01607487322731479 
0.004458620980859397 
0.01062469104136025 
0.003921827002666324 
0.01480131945387278 
0.01861473404996911 
-0.002454611858495956 
0.01278929114064275 
0.01503614960045803 
0.00438110845036134 
0.02258638868154791 
0.02237499721323402 
0.004280297435781183 
0.01591098120814341 
0.01086983413788675 
0.01323403667888085 
0.0001834182363232221 
0.01513928333275555 
0.02218027865750812 
0.01133850694579842 
0.01479813618248653 
-0.001433443236474455 
0.004826891666877741 
0.009204218821164997 
0.007912658861680993 
0.000546962518610656 
0.02978979857561495 
0.01770830441430616 
0.008688091071329802 
0.01484279039076477 
0.01322629392818318 
0.01185543067057228 
0.001923671455175312 
-0.007110341194878435 
0.01305514103647235 
0.005178874231167271 
0.007913836563302294 
0.009523125185930273 
0.01707106859001319 
0.01087397083559677 
0.009866158074180913 
0.002418403667099736 
0.0002743797704596513 
0.001781093548386217 
-0.001095883503769918 
0.002795912314700362 
0.004825045807506359 
0.006401206341966162 
0.005461693369630433 
0.0127941250254837 
0.00465689320253751 
0.01080098329276514 
0.02501693950005034 
0.02539676773342282 
0.01421742528517691 
0.001894336093899054 
0.03041956249013881 
0.01117476349822018 
0.007623230965579444 
0.0132646907286765 
0.009799855092248807 
0.003243639861061169 
-0.00321293802807062 
0.01863925157943093 
0.02731051244275263 
0.004762594286517892 
0.04442624671030334 
0.01309815694861955 
0.01193784914650492 
0.007146501244468811 
0.004503536336407523 
0.002782459059750802 
0.0008230150108738378 
0.001411003154049017 
-0.00134492892870254 
0.006753828138972994 
0.00224997478779698 
0.004600493858583737 
0.009852030322512362 
0.00751690465943196 
0.006767749140305735 
0.004883925457043532 
0.001815357700105985 
0.01035586036113874 
0.009334724709646174 
0.004910848383590754 
0.01586885994568787 
0.02141887734018411 
0.00610974017691377 
0.003983746304835118 
-0.005001147289458397 
0.0211564967145643 
0.0101569519330906 
0.01124460319483288 
0.009213334587792228 
0.02082135087040819 
0.02909852108272051 
0.002357476815333569 
0.004279175246443991 
0.005849280711969686 
0.01452487814391176 
0.005838709829797617 
0.005420503115918443 
0.0024895199364468 
-0.0003285720981307542 
0.005696934851580496 
0.009027101506829359 
0.0009020662444370483 
0.002935382999892242 
0.01010942022682172 
0.001453709769832633 
0.01298152954533926 
0.01107193471269112 
0.008547874200729551 
0.01327879781977224 
0.01666353665766344 
0.01852175367770141 
0.007137315928861545 
0.006443223960433981 
0.002295973635494749 
0.006183682179607144 
0.01752931337235987 
0.01241918564350145 
0.008688649989585896 
0.0006998818736756957 
0.02111686702518981 
0.01029699115197385 
0.007643858522699581 
0.0001433667575525845 
-0.0001778429173140976 
0.003938076421185883 
0.005998827148883964 
0.008507802105003372 
0.002680523207622595 
0.01029873133780998 
0.01034329646001431 
0.0003180687751931345 
0.01489554866791371 
0.01716397008901925 
0.003051394562649618 
0.004197836488104014 
0.01278231608507569 
0.02587070794334514 
0.003215430967127958 
-0.003283583451732154 
